svm_type epsilon_svr
kernel_type rbf
gamma 0.015625
nr_class 2
total_sv 1302
rho -0.735834
SV
-11.43061471494516 0:0.66501854 1:0.54548753 2:0.42222222 3:0.068965517 4:0.17137476 5:0.87550201 6:0.87951807 7:0.40080972 8:0.17204301 9:0.73562584 10:0.4306968 11:0.49611749 12:0.093023256 13:0.077084343 14:0.0031055901 15:0.15343959 16:0.33333333 17:0.33333333 18:0.46153846 19:0.83333333 20:0.44767752 21:0.49187503 22:0.44924319 23:0.089737472 24:0.10826345 25:0.8925378 26:0.72162911 27:0.55033965 28:0.52753368 29:0.55228589 30:0.50476459 31:0.47417968 32:0.31056548 33:0.21677559 34:0.07507356 35:0.16051225 36:0.27272727 38:0.41666667 39:0.66666667 40:0.3166345 41:0.3030303 42:0.066666667 43:0.25 44:0.28571429 45:0.1 46:0.5 47:0.11111111 49:0.2 50:0.4 51:0.25 53:0.16666667 58:0.22222222 59:0.11111111 
-43.49591208614029 0:0.71817058 1:0.57207485 2:0.41111111 4:0.32768362 5:0.6064257 6:0.96385542 7:0.3562753 8:0.17204301 9:0.8162236 10:0.23799441 11:0.7663257 12:0.41569767 13:0.042452197 14:0.0093167702 15:0.43245385 16:0.4 17:0.33333333 18:0.61538462 19:0.5 20:0.53593849 21:0.41153464 22:0.37203277 23:0.23438819 24:0.61999978 25:0.45982528 26:0.70858871 27:0.57941313 28:0.56895138 29:0.67445115 30:0.466493 31:0.48013177 32:0.58284973 33:0.12628897 34:0.0029851778 35:0.42977638 36:0.63636364 37:0.2 38:0.58333333 39:0.33333333 40:0.58226411 41:0.60606061 42:0.13333333 43:0.25 45:0.3 47:0.55555556 49:0.4 50:0.2 51:0.25 53:0.16666667 54:0.33333333 55:0.2 56:0.33333333 57:0.125 58:0.11111111 59:0.44444444 
-64 0:0.72682324 1:0.70277606 2:0.92222222 3:0.068965517 4:0.052730697 5:0.62650602 6:1 7:0.59109312 8:0.50537634 9:0.67680824 10:0.72369435 12:0.014244186 13:0.0036989438 14:0.015217391 15:0.054520625 16:0.066666667 18:0.23076923 19:0.33333333 20:0.39087261 21:0.65313272 22:1 23:0.089737472 24:0.076766924 25:0.61022414 26:0.69792344 27:0.61478682 28:0.78848012 29:0.54530979 30:0.74145549 32:0.020949252 33:0.0040417919 34:0.027836535 35:0.089082476 38:0.33333333 39:0.5 40:0.10146474 41:0.090909091 42:0.066666667 45:0.1 46:0.25 49:0.4 50:0.2 51:0.125 57:0.125 58:0.11111111 60:0.33333333 
-42.09109422649016 0:0.815822 1:0.80083519 2:0.41111111 3:0.068965517 4:0.14312618 5:0.83534137 6:1 7:0.71659919 8:0.41935484 9:0.66350789 10:0.85991966 11:0.21532815 12:0.32848837 13:0.1133635 14:0.19254658 15:0.26048975 16:0.066666667 18:0.38461538 19:0.33333333 20:0.43578642 21:0.59268167 22:0.37203277 23:0.089737472 24:0.13593813 25:0.55688613 26:0.39584687 27:0.75140304 28:0.74212821 29:0.47412279 30:0.82718694 31:0.23227778 32:0.23987573 33:0.12200171 34:0.035597845 35:0.25087982 38:0.41666667 39:0.33333333 40:0.24014988 41:0.18181818 42:0.066666667 49:0.6 50:0.2 51:0.125 54:0.33333333 55:0.2 57:0.125 59:0.22222222 61:0.2 
64 0:0.58220025 1:0.4350401 2:0.42222222 4:0.42372881 5:0.59839357 6:0.91566265 7:0.46558704 8:0.21505376 9:0.68448456 10:0.21484277 11:0.64500598 12:0.31686047 13:0.51986496 14:0.093167702 15:0.32775965 16:0.33333333 17:0.11111111 18:0.30769231 19:0.16666667 20:0.51033093 21:0.62205099 22:0.44924319 23:0.23438819 24:0.15964441 25:0.70054229 26:0.69792344 27:0.58375385 28:0.58197106 29:0.75018067 30:0.35057114 31:0.64418345 32:0.3839095 33:0.61122732 34:0.12035577 35:0.27021199 36:0.18181818 38:0.33333333 39:0.16666667 40:0.24916544 41:0.24242424 44:0.28571429 45:0.1 46:0.25 47:0.11111111 49:0.2 51:0.375 52:0.33333333 53:0.16666667 54:0.16666667 55:0.2 56:0.33333333 58:0.11111111 
64 0:0.56365884 1:0.44782233 2:0.96666667 4:0.44821092 5:0.53815261 6:0.96385542 7:0.2388664 8:0.21505376 9:0.55707683 10:0.28575017 11:0.47853502 12:0.34302326 13:0.082419288 14:0.01242236 15:0.49725312 16:0.53333333 17:0.33333333 18:0.46153846 19:0.33333333 20:0.54657408 21:0.44386095 22:0.73779826 23:0.23438819 24:0.089362187 25:0.37944282 26:0.41717743 27:0.53336924 28:0.67818611 29:0.41836894 30:0.50208715 31:0.23715168 32:0.36735666 33:0.0041790149 34:0.0036461668 35:0.13381418 36:0.27272727 37:0.2 38:0.5 39:0.33333333 40:0.59995458 41:0.54545455 42:0.066666667 44:0.42857143 45:0.3 47:0.11111111 49:0.6 52:0.33333333 53:0.33333333 54:0.33333333 56:0.33333333 57:0.125 58:0.22222222 59:0.44444444 61:0.2 
-64 0:0.49196539 1:0.23733946 2:0.41111111 4:0.28248588 5:0.2811245 6:0.28915663 7:0.4534413 8:0.21505376 9:0.51384883 10:0.29280753 11:0.46260305 12:0.21511628 13:0.51001877 14:0.22981366 15:0.22654727 16:0.26666667 17:0.11111111 18:0.076923077 20:0.30310834 21:0.45268107 22:0.37203277 23:0.23438819 24:0.02928697 25:0.43018124 26:0.46192869 27:0.7436891 28:0.72988015 29:0.55309146 30:0.52727796 31:0.43124466 32:0.27278016 33:0.5843211 34:0.34499026 35:0.19984539 38:0.083333333 40:0.073396162 41:0.12121212 42:0.066666667 45:0.2 51:0.25 55:0.4 56:0.33333333 57:0.25 58:0.11111111 
-64 0:0.72435105 1:0.65334789 2:0.81111111 4:0.29566855 5:0.5060241 6:0.79518072 7:0.61133603 8:0.5483871 9:0.71240113 10:0.64871435 11:0.46506094 12:0.44767442 13:0.43145039 14:0.22981366 15:0.25998937 16:0.13333333 18:0.38461538 19:0.33333333 20:0.40842054 21:0.55286902 22:0.74953155 23:0.23438819 24:0.22526184 25:0.43122296 26:0.72162911 27:0.58192945 28:0.67139118 29:0.6216955 30:0.59609051 31:0.44711013 32:0.25572469 33:0.43446225 34:0.032953524 35:0.1861668 36:0.27272727 37:0.2 38:0.41666667 39:0.33333333 40:0.12907914 41:0.18181818 44:0.14285714 46:0.75 47:0.33333333 49:0.2 51:0.125 55:0.2 56:0.33333333 57:0.125 59:0.11111111 
-64 0:0.59703337 1:0.41193708 2:1 4:0.071563089 5:0.22891566 6:0.71084337 7:0.66396761 8:0.10752688 9:0.26913138 10:0.60076979 12:0.014244186 13:0.0036989438 14:0.015217391 15:0.074421174 16:0.13333333 17:0.11111111 18:0.15384615 19:0.16666667 20:0.30121774 21:0.57745565 22:0.72820202 23:0.23438819 24:0.2043273 25:0.42261864 26:0.72162911 27:0.87946005 28:0.55929709 29:0.21105697 30:0.64338184 32:0.020949252 33:0.0040417919 34:0.027836535 35:0.09810725 36:0.18181818 37:0.2 38:0.25 39:0.33333333 40:0.033178154 41:0.03030303 46:0.25 49:0.2 51:0.125 53:0.33333333 54:0.16666667 56:0.33333333 60:0.33333333 
64 0:0.55747837 1:0.40707896 2:0.11111111 3:0.068965517 4:0.32956685 5:0.24899598 6:0.87951807 7:0.26315789 8:0.21505376 9:0.73639324 10:0.042356287 11:0.7770454 12:0.21511628 13:0.41370106 14:0.01863354 15:0.26677578 16:0.4 17:0.22222222 18:0.38461538 19:0.5 20:0.44738963 21:0.51552505 22:0.40486165 23:0.089737472 24:0.19438749 25:0.37668941 26:0.70858871 27:0.60995083 28:0.77811755 29:0.54881279 30:0.5803858 31:0.46032973 32:0.20399998 33:0.23013277 34:0.016672111 35:0.31594276 36:0.090909091 38:0.33333333 39:0.33333333 40:0.2747133 41:0.27272727 43:0.25 44:0.14285714 45:0.2 46:0.25 47:0.11111111 50:0.2 51:0.25 55:0.6 57:0.125 59:0.22222222 61:0.2 
64 0:0.58590853 1:0.46939475 2:0.11111111 3:0.068965517 4:0.40112994 5:0.58232932 6:0.92771084 7:0.58299595 8:0.17204301 9:0.68585967 10:0.34097087 11:0.52517869 12:0.43023256 13:0.17813713 14:0.0093167702 15:0.42337402 16:0.4 17:0.11111111 18:0.38461538 19:0.33333333 20:0.52733029 21:0.40550483 22:0.47177659 23:0.089737472 24:0.22834865 25:0.37889211 26:0.43021782 27:0.57803286 28:0.56895138 29:0.40561515 30:0.40307098 31:0.39962802 32:0.33238371 33:0.016707751 34:0.0040954583 35:0.1711999 36:0.27272727 38:0.5 39:0.33333333 40:0.59636653 41:0.60606061 42:0.2 44:0.28571429 45:0.3 46:0.25 47:0.33333333 49:0.4 50:0.2 54:0.16666667 55:0.2 57:0.25 58:0.33333333 59:0.33333333 60:0.33333333 61:0.2 
64 0:0.41779975 1:0.29117829 2:0.066666667 3:0.068965517 4:0.59510358 5:0.34136546 6:0.6746988 7:0.41700405 8:0.21505376 9:0.7078046 10:0.25560559 11:0.54440454 12:0.66860465 13:0.36321659 14:0.01242236 15:0.58581004 16:0.6 17:0.22222222 18:0.30769231 20:0.44804579 21:0.41909337 22:0.089737472 23:0.089737472 24:0.47446931 25:0.52658643 26:0.46192869 27:0.59657858 28:0.51535558 29:0.60168753 30:0.46126553 31:0.41837545 32:0.78069782 33:0.41236623 34:0.014812723 35:0.58295721 36:0.36363636 38:0.33333333 40:0.43195186 41:0.42424242 42:0.13333333 44:0.28571429 45:0.4 47:0.11111111 48:0.16666667 49:0.4 50:0.4 51:0.375 53:0.16666667 55:0.2 58:0.11111111 61:0.2 
-64 0:0.52657602 1:0.39975324 2:0.11111111 3:0.068965517 4:0.24482109 5:0.6746988 6:0.96385542 7:0.34008097 8:0.21505376 9:0.53514485 10:0.1550163 11:0.361937 12:0.69767442 13:0.055691161 14:0.01242236 15:0.34604439 16:0.46666667 17:0.33333333 18:0.30769231 19:0.16666667 20:0.42172991 21:0.39539307 22:0.47177659 23:0.089737472 24:0.54600475 25:0.31088168 26:0.40651215 27:0.55434877 28:0.42000254 29:0.41879649 30:0.29104006 31:0.31480009 32:0.58174225 33:0.23253941 34:0.014336016 35:0.34472772 36:0.45454545 37:0.2 38:0.33333333 39:0.16666667 40:0.39931872 41:0.42424242 42:0.13333333 44:0.14285714 45:0.2 47:0.22222222 49:0.4 50:0.2 51:0.25 53:0.5 54:0.16666667 55:0.2 57:0.125 58:0.22222222 59:0.11111111 
64 0:0.60074166 1:0.47217767 2:0.7 3:0.068965517 4:0.2259887 5:0.53413655 6:0.91566265 7:0.36437247 8:0.17204301 9:0.70956852 10:0.29442246 11:0.59312827 12:0.14825581 13:0.025235201 14:8.7751435e-17 15:0.28179762 16:0.33333333 17:0.22222222 18:0.23076923 19:0.16666667 20:0.40307549 21:0.39212088 22:0.54855152 23:0.089737472 24:0.44530691 25:0.47750342 26:0.69792344 27:0.56205118 28:0.56895138 29:0.50234143 30:0.57003258 31:0.27095834 32:0.29041569 33:0.15706088 34:0.039011326 35:0.39359531 36:0.27272727 38:0.25 39:0.16666667 40:0.34967639 41:0.39393939 42:0.2 45:0.4 47:0.22222222 49:0.4 50:0.4 51:0.25 52:0.33333333 54:0.16666667 57:0.25 58:0.11111111 
-64 0:0.76143387 1:0.65556241 2:0.92222222 4:0.30885122 5:0.52610442 6:0.92771084 7:0.57894737 8:0.24731183 9:0.7381752 10:0.31620428 11:0.79434909 12:0.33139535 13:0.21847894 14:0.059006211 15:0.2962878 16:0.2 18:0.46153846 19:0.5 20:0.6205383 21:0.65217676 22:1 23:0.23438819 24:0.26661064 25:0.62820296 26:0.72162911 27:0.5553613 28:0.48464442 29:0.5109499 30:0.3407684 31:0.50817981 32:0.38605309 33:0.24333741 34:0.048047267 35:0.32769699 36:0.18181818 38:0.5 39:0.5 40:0.39393664 41:0.33333333 42:0.2 44:0.14285714 45:0.1 46:0.25 48:0.16666667 51:0.375 53:0.16666667 54:0.16666667 56:0.33333333 58:0.11111111 59:0.33333333 61:0.2 
-64 0:0.66254635 1:0.54731647 2:0.71111111 3:0.068965517 4:0.34274953 5:0.50200803 6:0.87951807 7:0.48178138 8:0.21505376 9:0.84527832 10:0.23406889 11:0.73295997 12:0.45930233 13:0.40165006 14:0.11490683 15:0.35365434 16:0.26666667 17:0.11111111 18:0.30769231 19:0.16666667 20:0.35998119 21:0.43248233 22:0.57308988 23:0.089737472 24:0.30116323 25:0.46702447 26:0.70858871 27:0.54856781 28:0.51535558 29:0.47947041 30:0.62232197 31:0.20910834 32:0.5106503 33:0.066085514 34:0.0039335963 35:0.43541128 36:0.090909091 38:0.25 39:0.16666667 40:0.22670603 41:0.24242424 42:0.13333333 43:0.25 44:0.42857143 48:0.16666667 49:0.2 50:0.2 51:0.25 52:0.33333333 55:0.2 57:0.125 59:0.11111111 
-45.23554289080142 0:0.54635352 1:0.41949414 2:0.42222222 3:0.068965517 4:0.047080979 5:0.562249 6:0.55421687 7:0.28340081 8:0.20430108 9:0.67919792 10:0.0840384 11:0.56667889 12:0.49127907 13:0.20627972 14:0.027950311 15:0.19088474 16:0.13333333 18:0.38461538 19:0.16666667 20:0.15232884 21:0.1527683 22:0.44924319 23:0.089737472 24:0.2640141 25:0.30584698 26:0.30207656 27:0.25195543 28:0.084306952 29:0.37100703 30:0.25465756 31:0.4087601 32:0.52539292 33:0.20780956 34:0.071233191 35:0.37829372 36:0.36363636 37:0.2 38:0.25 40:0.39825139 41:0.42424242 43:0.75 44:0.14285714 46:0.25 47:0.22222222 48:0.33333333 49:0.2 50:0.2 51:0.125 54:0.16666667 55:0.2 57:0.25 58:0.33333333 60:0.33333333 61:0.2 
-64 0:0.54635352 1:0.41517582 2:0.42222222 4:0.41242938 5:0.3815261 6:0.59036145 7:0.28744939 8:0.21505376 9:0.56454717 10:0.34436929 11:0.52409961 12:0.65116279 13:0.12888212 14:0.040372671 15:0.49640873 16:0.33333333 17:0.11111111 18:0.38461538 20:0.41874369 21:0.40693734 22:0.44924319 23:0.23438819 24:0.5906352 25:0.45551577 26:0.49825969 27:0.30937431 28:0.33569559 29:0.46211193 30:0.37863975 31:0.51007799 32:0.65272751 33:0.33976325 34:0.0073376322 35:0.66768456 36:0.36363636 37:0.2 38:0.41666667 40:0.40308845 41:0.39393939 42:0.066666667 44:0.28571429 45:0.1 46:0.25 47:0.11111111 48:0.33333333 49:0.2 51:0.375 53:0.16666667 55:0.2 56:0.33333333 57:0.125 58:0.33333333 59:0.11111111 
64 0:0.70828183 1:0.62743795 2:0.96666667 4:0.28248588 5:0.58232932 6:0.87951807 7:0.53441296 8:0.21505376 9:0.76417328 10:0.41968637 11:0.51512997 12:0.23837209 13:0.45853633 14:0.068322981 15:0.25684114 16:0.2 17:0.11111111 18:0.30769231 19:0.16666667 20:0.53425387 21:0.73593492 22:0.73779826 23:0.23438819 24:0.02928697 25:0.67354001 26:0.70858871 27:0.78877356 28:0.73555961 29:0.77990204 30:0.54809932 31:0.6168507 32:0.19010409 33:0.73196423 34:0.037713286 35:0.27194787 38:0.33333333 39:0.16666667 40:0.20124901 41:0.18181818 42:0.13333333 44:0.28571429 51:0.375 54:0.16666667 55:0.2 56:0.33333333 58:0.11111111 59:0.22222222 
-64 0:0.54140915 1:0.39934197 2:0.11111111 3:0.068965517 4:0.24105461 5:0.78313253 6:0.87951807 7:0.2145749 8:0.21505376 9:0.51164198 10:0.34412417 11:0.42251501 12:0.24709302 13:0.14798261 14:0.0093167702 15:0.27006995 16:0.4 17:0.22222222 18:0.38461538 19:0.5 20:0.34152916 21:0.35901923 22:0.51586215 23:0.089737472 24:0.20161328 25:0.53682269 26:0.70858871 27:0.56733841 28:0.51535558 29:0.33561165 30:0.41014315 31:0.29810561 32:0.3020625 33:0.12679905 34:0.022821481 35:0.28383068 36:0.18181818 38:0.25 39:0.16666667 40:0.34465766 41:0.33333333 42:0.13333333 43:0.5 44:0.14285714 45:0.3 46:0.25 48:0.16666667 50:0.2 51:0.125 53:0.16666667 54:0.16666667 55:0.2 59:0.22222222 61:0.2 
-64 0:0.42521632 1:0.19494139 2:0.41111111 4:0.34651601 5:0.19277108 6:0.6746988 7:0.34412955 8:0.10752688 9:0.58456852 10:0.042356287 11:0.7756688 12:0.1744186 13:0.79501839 14:0.062111801 15:0.28552962 16:0.46666667 17:0.44444444 18:0.15384615 20:0.31203671 21:0.39088871 22:0.37203277 23:0.23438819 24:0.18678946 25:0.34228568 26:0.33856262 27:0.64202524 28:0.55929709 29:0.48483966 30:0.54059805 31:0.36970438 32:0.099581236 33:0.41915135 34:0.0032215634 35:0.16662804 36:0.18181818 37:0.2 38:0.16666667 40:0.18701033 41:0.21212121 42:0.066666667 44:0.14285714 45:0.3 49:0.4 51:0.125 53:0.33333333 54:0.16666667 55:0.2 56:0.33333333 57:0.125 
-23.41105626894177 0:0.67243511 1:0.55768044 2:1 3:0.068965517 4:0.20150659 5:0.36947791 6:0.79518072 7:0.34412955 8:0.21505376 9:0.75785404 10:0.23144269 11:0.61718638 12:0.15697674 13:0.075945748 14:0.052795031 15:0.20589615 16:0.26666667 17:0.11111111 18:0.30769231 19:0.33333333 20:0.29409508 21:0.33432351 22:0.72820202 23:0.089737472 24:0.02928697 25:0.29355165 26:0.41955254 27:0.5692892 28:0.48206332 29:0.46465459 30:0.49576523 31:0.28852318 32:0.105744 33:0.17002589 34:0.012312821 35:0.081008579 36:0.090909091 38:0.25 39:0.16666667 40:0.26156466 41:0.27272727 42:0.13333333 43:0.25 44:0.14285714 46:0.25 49:0.6 50:0.2 52:0.33333333 53:0.16666667 54:0.16666667 55:0.4 57:0.25 
-64 0:0.54140915 1:0.35837327 2:0.11111111 4:0.34274953 5:0.3253012 6:0.59036145 7:0.37246964 8:0.21505376 9:0.62924892 10:0.42970701 11:0.59965321 12:0.43895349 13:0.19263745 14:0.42546584 15:0.27778415 16:0.26666667 17:0.11111111 18:0.15384615 20:0.3517544 21:0.47042951 22:0.51586215 23:0.23438819 24:0.19602455 25:0.3505458 26:0.49825969 27:0.56019874 28:0.68521455 29:0.41151495 30:0.48851906 31:0.18181572 32:0.30054764 33:0.18509033 34:0.19298112 35:0.14929726 36:0.18181818 38:0.16666667 40:0.11354604 41:0.18181818 42:0.066666667 44:0.14285714 45:0.3 47:0.22222222 51:0.125 56:0.33333333 57:0.125 59:0.22222222 61:0.2 
64 0:0.63782447 1:0.509562 2:0.92222222 4:0.50094162 5:0.69076305 6:0.91566265 7:0.37651822 8:0.10752688 9:0.7958366 10:0.18942349 11:0.56316251 12:0.71511628 13:0.024997259 14:0.33229814 15:0.55542235 16:0.6 17:0.55555556 18:0.76923077 19:0.66666667 20:0.67184304 21:0.49249274 22:1 23:0.23438819 24:0.24264701 25:0.45926527 26:0.72162911 27:0.49639816 28:0.52753368 29:0.6644666 30:0.45052486 31:0.41294315 32:0.63498721 33:0.14449568 34:0.1904767 35:0.45433671 36:0.36363636 37:0.2 38:0.66666667 39:0.33333333 40:0.71915522 41:0.63636364 43:0.5 44:0.14285714 45:0.4 46:0.25 47:0.11111111 49:0.4 50:0.2 51:0.375 52:0.33333333 53:0.33333333 54:0.33333333 55:0.2 56:0.33333333 57:0.25 58:0.11111111 59:0.33333333 
64 0:0.71693449 1:0.61597779 2:0.92222222 4:0.15065913 5:0.47791165 6:0.55421687 7:0.65991903 8:0.51612903 9:0.68901674 10:0.51714383 11:0.39196668 12:0.49418605 13:0.31157612 14:0.068322981 15:0.23307307 16:0.066666667 18:0.38461538 19:0.16666667 20:0.50860869 21:0.58788892 22:1 23:0.23438819 24:0.56185089 25:0.56489759 26:0.68221595 27:0.59570915 28:0.75775254 29:0.5401978 30:0.47663581 31:0.43243151 32:0.34670334 33:0.27989871 34:0.049175839 35:0.35475677 36:0.27272727 38:0.41666667 39:0.16666667 40:0.29090496 41:0.27272727 43:0.25 46:0.25 47:0.22222222 51:0.375 53:0.16666667 54:0.16666667 56:0.33333333 58:0.44444444 59:0.11111111 60:0.33333333 
-64 0:0.73671199 1:0.62040975 2:0.92222222 4:0.38606403 5:0.45783133 6:0.59036145 7:0.67206478 8:0.41935484 9:0.67693183 10:0.5700969 11:0.54786032 12:0.28197674 13:0.12211541 14:0.074534161 15:0.46074619 16:0.2 18:0.46153846 20:0.47282011 21:0.47649745 22:1 23:0.23438819 24:0.45268324 25:0.4234504 26:0.49825969 27:0.46767672 28:0.34951897 29:0.41300159 30:0.48237457 31:0.35487844 32:0.22644597 33:0.11309261 34:0.010144924 35:0.46134993 36:0.27272727 38:0.41666667 40:0.36552742 41:0.36363636 42:0.066666667 43:0.25 44:0.14285714 47:0.22222222 48:0.16666667 49:0.2 51:0.375 52:0.33333333 54:0.16666667 55:0.4 56:0.33333333 57:0.125 58:0.11111111 59:0.22222222 
-4.042058700646815 0:0.57849197 1:0.42442936 2:0.45555556 4:0.10734463 5:0.53413655 6:0.8313253 7:0.4048583 8:0.10752688 9:0.53202897 10:0.45071661 11:0.30235092 12:0.3372093 13:0.26352291 14:0.11180124 15:0.11108447 16:0.26666667 17:0.22222222 18:0.23076923 19:0.33333333 20:0.37590934 21:0.47717502 22:0.35731898 23:0.23438819 24:0.49247314 25:0.49022848 26:1 27:0.61200032 28:0.70484846 29:0.52939049 30:0.5155432 31:0.37859432 32:0.30266292 33:0.39702137 34:0.078328869 35:0.21219723 36:0.36363636 38:0.25 39:0.16666667 40:0.14929034 41:0.21212121 43:0.25 44:0.14285714 45:0.1 47:0.33333333 51:0.25 52:0.33333333 53:0.16666667 55:0.2 56:0.33333333 59:0.11111111 60:0.33333333 
64 0:0.67861557 1:0.55631676 2:0.7 4:0.3653484 5:0.59839357 6:0.91566265 7:0.34412955 8:0.21505376 9:0.71050069 10:0.45575145 11:0.45934019 12:0.72965116 13:0.10215579 14:0.099378882 15:0.41444015 16:0.33333333 17:0.22222222 18:0.46153846 19:0.16666667 20:0.52917418 21:0.53259279 22:0.54855152 23:0.23438819 24:0.51861423 25:0.42371641 26:0.69792344 27:0.63580425 28:0.569723 29:0.55398858 30:0.54337845 31:0.29752895 32:0.65361872 33:0.10276162 34:0.10000991 35:0.3478752 36:0.36363636 38:0.5 39:0.16666667 40:0.39539003 41:0.36363636 42:0.066666667 44:0.14285714 46:0.5 47:0.11111111 49:0.4 51:0.25 52:0.33333333 53:0.5 54:0.33333333 55:0.2 56:0.33333333 57:0.125 59:0.11111111 
-64 0:0.84796044 1:0.69370759 2:0.7 4:0.43126177 5:0.69076305 6:0.96385542 7:0.70040486 8:0.21505376 9:0.75554675 10:0.42578149 11:0.54271725 12:0.37209302 13:0.18867224 14:0.02484472 15:0.45584663 16:0.33333333 17:0.11111111 18:0.69230769 19:0.66666667 20:0.73414856 21:0.6056686 22:0.54855152 23:0.23438819 24:0.44894852 25:0.62791211 26:0.70858871 27:0.63595676 28:0.67478864 29:0.58807927 30:0.71171166 31:0.24324635 32:0.26074562 33:0.16666423 34:0.033647645 35:0.39550932 36:0.45454545 37:0.2 38:0.66666667 39:0.66666667 40:0.51570342 41:0.51515152 42:0.13333333 43:0.25 44:0.14285714 45:0.1 47:0.33333333 49:0.4 51:0.5 53:0.33333333 55:0.2 56:0.33333333 57:0.25 58:0.11111111 59:0.33333333 
-64 0:0.592089 1:0.46699568 2:0.11111111 4:0.48587571 5:0.6746988 6:0.8313253 7:0.48582996 8:0.10752688 9:0.64299732 10:0.28627728 11:0.52219302 12:0.64244186 13:0.26895077 14:0.25465839 15:0.37967413 16:0.46666667 17:0.22222222 18:0.38461538 19:0.16666667 20:0.61112509 21:0.54514873 22:0.51586215 23:0.23438819 24:0.21270505 25:0.44519884 26:1 27:0.57634471 28:0.55929709 29:0.68051921 30:0.44512024 31:0.51697229 32:0.42664754 33:0.29684304 34:0.056152798 35:0.28105641 36:0.18181818 37:0.2 38:0.41666667 39:0.16666667 40:0.43113432 41:0.45454545 42:0.26666667 44:0.28571429 45:0.1 46:0.5 47:0.11111111 51:0.375 53:0.16666667 55:0.6 56:0.33333333 57:0.25 58:0.11111111 59:0.11111111 
-25.7680339261327 0:0.39431397 1:0.27855981 2:0.92222222 4:0.32391714 5:0.29317269 6:0.92771084 7:0.25101215 8:0.21505376 9:0.4271327 10:0.20725223 11:0.39833213 12:0.49709302 13:0.16120924 14:0.01552795 15:0.32751988 16:0.53333333 17:0.11111111 18:0.30769231 19:0.16666667 20:0.49587018 21:0.44606738 22:1 23:0.23438819 24:0.02928697 25:0.3723732 26:0.41717743 27:0.42993098 28:0.44607397 29:0.44688569 30:0.34488457 31:0.36614388 32:0.23102295 33:0.01559353 34:0.075444695 35:0.14769758 36:0.090909091 38:0.33333333 39:0.16666667 40:0.52362893 41:0.45454545 42:0.13333333 44:0.14285714 45:0.3 46:0.5 50:0.2 51:0.125 54:0.33333333 55:0.6 56:0.33333333 58:0.11111111 59:0.22222222 61:0.6 
64 0:0.63906057 1:0.51104257 2:0.96666667 3:0.068965517 4:0.24858757 5:0.57429719 6:0.8313253 7:0.24696356 8:0.21505376 9:0.69027337 10:0.17104009 11:0.68143295 12:0.38662791 13:0.011631082 14:0.0031055901 15:0.35451958 16:0.4 17:0.11111111 18:0.46153846 19:0.16666667 20:0.81031039 21:0.6433803 22:0.73779826 23:0.089737472 24:0.34429195 25:0.68212548 26:1 27:0.63258467 28:0.42000254 29:0.71060748 30:0.57746634 31:0.5502706 32:0.46846522 33:0.30078888 34:0.0011039108 35:0.51089596 36:0.27272727 37:0.2 38:0.5 39:0.16666667 40:0.53841263 41:0.54545455 42:0.2 44:0.14285714 45:0.3 47:0.33333333 50:0.2 51:0.75 54:0.16666667 55:0.4 57:0.25 59:0.11111111 61:0.4 
64 0:0.58714462 1:0.40999383 2:0.92222222 4:0.071563089 5:0.41767068 6:0.71084337 7:0.36437247 8:0.38709677 9:0.48108856 10:0.30150737 12:0.014244186 13:0.0036989438 14:0.015217391 15:0.084063924 16:0.13333333 18:0.15384615 19:0.16666667 20:0.42141647 21:0.71089961 22:1 23:0.23438819 24:0.23584425 25:0.75462354 26:0.72162911 27:0.55848412 28:0.77892231 29:0.56834147 30:0.58523291 32:0.020949252 33:0.0040417919 34:0.027836535 35:0.14520158 36:0.18181818 38:0.33333333 39:0.33333333 40:0.05307142 41:0.090909091 44:0.28571429 46:0.25 47:0.22222222 51:0.25 56:0.33333333 60:0.66666667 
-25.00751079229884 0:0.64647713 1:0.54148674 2:0.11111111 4:0.26741996 5:0.42971888 6:0.8313253 7:0.63562753 8:0.78494624 9:0.26913138 10:0.60076979 12:0.014244186 13:0.0036989438 14:0.015217391 15:0.22570288 16:0.13333333 18:0.23076923 19:0.16666667 20:0.45280084 21:0.93581267 22:0.51586215 23:0.23438819 24:0.076766924 25:0.79869766 26:1 27:0.85829077 28:0.92437721 29:0.21105697 30:0.64338184 32:0.020949252 33:0.0040417919 34:0.027836535 35:0.22035915 38:0.25 39:0.16666667 40:0.035971386 41:0.03030303 45:0.2 46:0.25 51:0.375 54:0.16666667 56:0.33333333 
-64 0:0.68726823 1:0.57711289 2:0.7 3:0.068965517 4:0.23163842 5:0.51405622 6:0.6746988 7:0.58299595 8:0.50537634 9:0.59472984 10:0.54492273 11:0.25391159 12:0.5755814 13:0.048228059 14:0.29192547 15:0.24039113 16:0.2 18:0.15384615 20:0.37509619 21:0.43007072 22:0.54855152 23:0.089737472 24:0.10444185 25:0.33482546 26:0.49825969 27:0.6003784 28:0.76844136 29:0.38937038 30:0.40368737 31:0.32050348 32:0.28593905 33:0.15099401 34:0.11123422 35:0.1894332 36:0.090909091 38:0.16666667 40:0.19870558 41:0.27272727 42:0.33333333 44:0.14285714 45:0.2 47:0.11111111 49:0.2 50:0.2 51:0.125 57:0.25 58:0.11111111 59:0.11111111 
46.30049507085554 0:0.89122373 1:0.77661937 2:0.92222222 3:0.068965517 4:0.31638418 5:0.562249 6:0.91566265 7:0.8582996 8:0.17204301 9:0.82335143 10:0.66295466 11:0.40948984 12:0.39244186 13:0.11995966 14:0.027950311 15:0.26538931 16:0.26666667 17:0.11111111 18:0.46153846 19:0.5 20:0.80556271 21:0.77272829 22:1 23:0.089737472 24:0.20030906 25:0.54748955 26:1 27:0.78109689 28:0.4234 29:0.62258732 30:0.70403138 31:0.19438924 32:0.32852377 33:0.031509877 34:0.0058285911 35:0.21561063 36:0.18181818 37:0.2 38:0.5 39:0.5 40:0.43656183 41:0.39393939 42:0.4 44:0.14285714 45:0.1 49:0.2 50:0.2 51:0.625 52:0.33333333 53:0.33333333 54:0.16666667 59:0.11111111 
-64 0:0.51545117 1:0.31651877 2:1 3:0.068965517 4:0.38606403 5:0.2248996 6:1 7:0.15789474 8:0.21505376 9:0.33071624 10:0.2179746 11:0.2284562 12:0.72383721 13:0.16348801 14:0.51552795 15:0.29100253 16:0.4 17:0.22222222 18:0.23076923 19:0.16666667 20:0.26685877 21:0.34692093 22:0.72820202 23:0.089737472 24:0.52430816 25:0.2497461 26:0.39584687 27:0.53716545 28:0.68861202 29:0.29882802 30:0.52307132 31:0.23722174 32:0.40522538 33:0.19188044 34:0.091021252 35:0.26016461 36:0.36363636 38:0.25 39:0.16666667 40:0.1588282 41:0.18181818 44:0.14285714 45:0.1 49:0.4 50:0.2 51:0.125 53:0.66666667 57:0.25 59:0.11111111 
20.19380225980243 0:0.63906057 1:0.51395743 2:0.42222222 3:0.068965517 4:0.31638418 5:0.45381526 6:1 7:0.71255061 8:0.21505376 9:0.74240608 10:0.41002429 11:0.65530093 12:0.35465116 13:0.4001773 14:0.01863354 15:0.28299645 16:0.26666667 17:0.11111111 18:0.23076923 19:0.33333333 20:0.3493246 21:0.39960746 22:0.44924319 23:0.089737472 24:0.091761456 25:0.49484207 26:0.72162911 27:0.5312579 28:0.34951897 29:0.56613987 30:0.46609326 31:0.52901524 32:0.31790628 33:0.33827355 34:0.12161441 35:0.19375618 36:0.18181818 38:0.25 39:0.33333333 40:0.2762121 41:0.27272727 42:0.066666667 44:0.28571429 45:0.1 46:0.25 48:0.16666667 49:0.4 50:0.2 51:0.125 52:1 53:0.16666667 57:0.125 58:0.11111111 
-23.45655454867434 0:0.68850433 1:0.5891425 2:0.45555556 4:0.20338983 5:0.57429719 6:0.63855422 7:0.61538462 8:0.70967742 9:0.53927529 10:0.63066804 11:0.35934117 12:0.25 13:0.054478104 14:0.080745342 15:0.19106195 16:0.066666667 18:0.23076923 20:0.34533884 21:0.43587697 22:0.35731898 23:0.23438819 24:0.14176428 25:0.35244743 26:0.30207656 27:0.59890479 28:0.68521455 29:0.4043941 30:0.64581332 31:0.25676989 32:0.15012069 33:0.071271448 34:0.079939858 35:0.21336027 36:0.18181818 38:0.25 40:0.14411264 41:0.21212121 42:0.13333333 44:0.14285714 46:0.5 47:0.22222222 51:0.125 54:0.16666667 56:0.33333333 57:0.25 58:0.11111111 59:0.11111111 
55.87307978878154 0:0.55500618 1:0.38029706 2:0.45555556 3:0.068965517 4:0.30885122 5:0.44176707 6:0.71084337 7:0.55060729 8:0.17204301 9:0.49947467 10:0.4307673 11:0.11825262 12:0.63372093 13:0.015614922 14:0.44720497 15:0.25569443 16:0.26666667 17:0.11111111 18:0.23076923 19:0.16666667 20:0.32989589 21:0.43862913 22:0.35731898 23:0.089737472 24:0.021564363 25:0.5440092 26:0.72162911 27:0.62064321 28:0.56895138 29:0.4360149 30:0.69690829 31:0.18571034 32:0.25404041 33:0.15068322 34:0.12608483 35:0.12160219 36:0.18181818 37:0.2 38:0.25 39:0.16666667 40:0.17497445 41:0.18181818 44:0.14285714 45:0.2 46:0.25 47:0.11111111 50:0.2 51:0.125 53:0.16666667 54:0.16666667 58:0.22222222 59:0.22222222 
64 0:0.73671199 1:0.63388613 2:0.71111111 3:0.068965517 4:0.20903955 5:0.57429719 6:0.75903614 7:0.58299595 8:0.21505376 9:0.59015646 10:0.37388264 11:0.51096255 12:0.1744186 13:0.080358344 14:0.01242236 15:0.1981611 16:0.2 17:0.11111111 18:0.30769231 19:0.33333333 20:0.44600361 21:0.49001278 22:0.57308988 23:0.089737472 24:0.15076195 25:0.50900908 26:0.72162911 27:0.5397797 28:0.67478864 29:0.46917205 30:0.43749587 31:0.45120094 32:0.16615381 33:0.19922573 34:0.078179681 35:0.16538141 36:0.18181818 37:0.2 38:0.33333333 39:0.33333333 40:0.29219939 41:0.3030303 42:0.2 45:0.1 46:0.5 47:0.11111111 49:0.2 50:0.2 51:0.125 52:0.33333333 53:0.16666667 55:0.2 57:0.125 58:0.22222222 59:0.11111111 
-64 0:0.62175525 1:0.49358745 2:0.92222222 3:0.068965517 4:0.30131827 5:0.48192771 6:0.8313253 7:0.48178138 8:0.17204301 9:0.61165845 10:0.24194749 11:0.49718427 12:0.5494186 13:0.30754133 14:0.043478261 15:0.32255778 16:0.33333333 17:0.22222222 18:0.46153846 19:0.33333333 20:0.52997714 21:0.53339207 22:1 23:0.089737472 24:0.2401533 25:0.4994894 26:1 27:0.54353259 28:0.48464442 29:0.60000351 30:0.31708874 31:0.56415263 32:0.6673399 33:0.46508501 34:0.066055892 35:0.38617866 36:0.27272727 38:0.5 39:0.33333333 40:0.38655615 41:0.36363636 42:0.066666667 44:0.28571429 45:0.2 46:0.5 47:0.11111111 48:0.16666667 50:0.2 51:0.375 53:0.16666667 54:0.16666667 57:0.125 58:0.11111111 59:0.22222222 
-64 0:0.89369592 1:0.77921036 2:0.81111111 3:0.068965517 4:0.033898305 5:0.57831325 6:0.46987952 7:0.75303644 8:0.74193548 9:0.65994398 10:0.65946426 11:0.26953961 12:0.25 13:0.080443502 14:0.055900621 15:0.060129056 20:0.40511318 21:0.3940478 22:0.74953155 23:0.089737472 24:0.02928697 25:0.3009971 26:0.2198888 27:0.55272373 28:0.59966253 29:0.38815663 30:0.49722875 31:0.21491558 32:0.1781116 33:0.048658466 34:0.057292793 35:0.045783844 40:0.30269104 41:0.39393939 42:1 46:0.25 50:0.2 54:0.5 
64 0:0.63782447 1:0.51233806 2:0.92222222 4:0.31073446 5:0.42570281 6:0.72289157 7:0.52226721 8:0.21505376 9:0.54300399 10:0.21484277 11:0.47579371 12:0.43604651 13:0.19195105 14:0.037267081 15:0.35591648 16:0.26666667 17:0.11111111 18:0.38461538 19:0.16666667 20:0.40477032 21:0.46514698 22:1 23:0.23438819 24:0.34945897 25:0.40820151 26:0.52553165 27:0.48220026 28:0.44322672 29:0.34251214 30:0.447059 31:0.22669271 32:0.30694018 33:0.063780908 34:0.12603519 35:0.45148765 36:0.27272727 38:0.33333333 40:0.26601567 41:0.27272727 43:0.25 44:0.14285714 45:0.1 48:0.16666667 49:0.2 51:0.375 52:0.33333333 53:0.33333333 56:0.33333333 57:0.375 59:0.11111111 
-53.84541735694295 0:0.592089 1:0.44478717 2:0.41111111 3:0.068965517 4:0.06779661 5:0.58232932 6:1 7:0.46963563 8:0.50537634 9:0.44567849 10:0.64372854 11:0.18626297 12:0.17732558 13:0.037122448 14:0.049689441 15:0.093320963 16:0.13333333 18:0.15384615 19:0.33333333 20:0.2356936 21:0.28775589 22:0.37203277 23:0.089737472 24:0.12761826 25:0.43464355 26:0.41955254 27:0.48787144 28:0.59966253 29:0.34184374 30:0.62972352 31:0.23709742 32:0.10161915 33:0.1118785 34:0.090390529 35:0.050750216 36:0.18181818 38:0.16666667 39:0.33333333 40:0.14765527 41:0.21212121 42:0.066666667 44:0.14285714 45:0.1 46:0.25 47:0.22222222 49:0.4 50:0.2 54:0.16666667 57:0.25 58:0.11111111 61:0.2 
64 0:0.80964153 1:0.68229488 2:1 4:0.1826742 5:0.75100402 6:0.91566265 7:0.43319838 8:0.31182796 9:0.72193669 10:0.50719369 11:0.38290564 12:0.47674419 13:0.11840864 14:0.031055901 15:0.22049058 16:0.2 18:0.61538462 19:0.83333333 20:0.62037148 21:0.57429127 22:0.72820202 23:0.23438819 24:0.076766924 25:0.51333507 26:0.70858871 27:0.58484233 28:0.58197106 29:0.61883437 30:0.52213391 31:0.31985326 32:0.40444472 33:0.078140464 34:0.022875939 35:0.17897112 36:0.090909091 38:0.58333333 39:0.66666667 40:0.51291019 41:0.42424242 42:0.066666667 43:0.5 44:0.28571429 46:0.25 49:0.4 51:0.25 52:0.33333333 53:0.16666667 54:0.5 56:0.33333333 57:0.125 58:0.11111111 59:0.22222222 60:0.33333333 
-64 0:0.65760198 1:0.52436767 2:0.35555556 4:0.24482109 5:0.78313253 6:0.96385542 7:0.26315789 8:0.21505376 9:0.82697459 10:0.23067047 11:0.65020965 12:0.35174419 13:0.056742555 14:0.01552795 15:0.41551388 16:0.46666667 17:0.22222222 18:0.69230769 19:0.83333333 20:0.62030769 21:0.45768287 22:0.58071357 23:0.23438819 24:0.21950332 25:0.59611275 26:0.70858871 27:0.39664648 28:0.39775637 29:0.66710377 30:0.22067913 31:0.67855894 32:0.42552286 33:0.13459435 34:0.015495687 35:0.41735788 36:0.36363636 37:0.2 38:0.58333333 39:0.5 40:0.68836153 41:0.63636364 42:0.13333333 43:0.5 44:0.14285714 45:0.3 47:0.22222222 48:0.16666667 49:0.6 51:0.375 53:0.16666667 54:0.5 55:0.4 56:0.33333333 57:0.125 59:0.22222222 61:0.2 
2.677386914480499 0:0.6538937 1:0.54990746 2:0.14444444 3:0.068965517 4:0.15819209 5:0.48594378 6:0.71084337 7:0.7854251 8:0.48387097 9:0.52249341 10:0.66628258 12:0.014244186 13:0.0036989438 14:0.015217391 15:0.1027448 16:0.066666667 18:0.23076923 19:0.33333333 20:0.26689555 21:0.41865776 23:0.089737472 24:0.39252895 25:0.51362592 26:0.72162911 27:0.67929902 28:0.54557132 29:0.42983696 30:0.65984882 32:0.020949252 33:0.0040417919 34:0.027836535 35:0.24967103 36:0.27272727 38:0.25 39:0.33333333 40:0.06572045 41:0.090909091 42:0.066666667 46:0.75 47:0.11111111 48:0.16666667 50:0.2 51:0.125 53:0.16666667 61:0.2 
59.97173611165352 0:0.6946848 1:0.56474679 2:0.92222222 3:0.068965517 4:0.079096045 5:0.65461847 6:0.72289157 7:0.44939271 8:0.37634409 9:0.60487312 10:0.58913299 11:0.27709643 12:0.21802326 13:0.11696509 14:0.02484472 15:0.24178803 16:0.13333333 18:0.38461538 19:0.16666667 20:0.39451658 21:0.35893659 22:1 23:0.089737472 24:0.16955442 25:0.44499926 26:0.53400463 27:0.43584537 28:0.34951897 29:0.43595756 30:0.52809031 31:0.31955648 32:0.18728294 33:0.067207446 34:0.01523504 35:0.33093897 36:0.36363636 37:0.2 38:0.33333333 40:0.43233791 41:0.45454545 42:0.2 43:0.25 45:0.1 47:0.22222222 48:0.16666667 50:0.2 51:0.25 53:0.16666667 54:0.33333333 57:0.375 59:0.33333333 61:0.4 
64 0:0.68603214 1:0.56449885 2:0.96666667 3:0.068965517 4:0.1920904 5:0.57831325 6:0.60240964 7:0.48178138 8:0.17204301 9:0.81804675 10:0.37265381 11:0.57971077 12:0.20639535 13:0.26045464 14:0.01552795 15:0.21349568 16:0.26666667 17:0.22222222 18:0.23076923 20:0.53210752 21:0.53551267 22:0.73779826 23:0.089737472 24:0.091732295 25:0.49591231 26:0.52553165 27:0.61871423 28:0.56895138 29:0.76640617 30:0.35395193 31:0.6263069 32:0.39925614 33:0.24172591 34:0.25654972 35:0.22812939 36:0.090909091 38:0.25 40:0.35103895 41:0.36363636 42:0.2 44:0.14285714 45:0.3 46:0.25 47:0.11111111 50:0.2 51:0.25 52:1 54:0.16666667 57:0.125 58:0.11111111 59:0.11111111 
-64 0:0.74660074 1:0.68922318 2:0.42222222 4:0.29378531 5:0.64658635 6:0.8313253 7:0.69635628 8:0.51612903 9:0.81225793 10:0.61479132 11:0.73962534 12:0.27034884 13:0.55960825 14:0.18322981 15:0.30305336 16:0.13333333 18:0.38461538 19:0.33333333 20:0.60125589 21:0.83341136 22:0.44924319 23:0.23438819 24:0.13593813 25:1 26:1 27:0.69648773 28:0.77157591 29:0.80287122 30:0.78762213 31:0.63033551 32:0.16515847 33:0.52125329 34:0.011042408 35:0.27683289 38:0.41666667 39:0.33333333 40:0.21834904 41:0.18181818 44:0.28571429 51:0.5 56:0.33333333 57:0.125 58:0.33333333 59:0.22222222 
-64 0:0.75030902 1:0.66995682 2:0.41111111 4:0.19774011 5:0.80321285 6:0.87951807 7:0.58704453 8:0.39784946 9:0.68276184 10:0.65252036 11:0.31862433 12:0.10174419 13:0.14545943 14:0.02484472 15:0.1756961 16:0.13333333 18:0.30769231 19:0.5 20:0.43435386 21:0.52625521 22:0.37203277 23:0.23438819 24:0.10907899 25:0.76011112 26:1 27:0.46225445 28:0.569723 29:0.47885348 30:0.68730285 31:0.21025711 32:0.11402443 33:0.1479625 34:0.011908307 35:0.077077922 36:0.18181818 37:0.2 38:0.33333333 39:0.5 40:0.19007608 41:0.24242424 42:0.066666667 44:0.14285714 47:0.22222222 49:0.2 51:0.25 52:0.33333333 55:0.2 56:0.33333333 57:0.375 59:0.22222222 
64 0:0.61681088 1:0.48714785 2:0.96666667 3:0.068965517 4:0.15065913 5:0.62248996 6:0.92771084 7:0.24696356 8:0.17204301 9:0.47756583 10:0.24194749 11:0.35539821 12:0.46511628 13:0.097381784 14:0.040372671 15:0.24998176 16:0.2 17:0.11111111 18:0.38461538 19:0.33333333 20:0.27835561 21:0.29264218 22:0.73779826 23:0.089737472 24:0.10138555 25:0.40664199 26:0.46192869 27:0.34393622 28:0.34951897 29:0.30910709 30:0.32531776 31:0.39919873 32:0.29811595 33:0.16884017 34:0.010846231 35:0.33066514 36:0.18181818 38:0.41666667 39:0.33333333 40:0.38312706 41:0.33333333 44:0.14285714 45:0.1 48:0.33333333 50:0.2 51:0.125 54:0.16666667 55:0.2 57:0.25 58:0.33333333 59:0.55555556 
-64 0:0.68232386 1:0.57063541 2:1 4:0.18644068 5:0.72289157 6:1 7:0.28340081 8:0.10752688 9:0.62489956 10:0.38913421 11:0.41802302 12:0.48546512 13:0.14979565 14:0.14285714 15:0.18965463 16:0.26666667 17:0.22222222 18:0.30769231 19:0.33333333 20:0.42024122 21:0.48343431 22:0.72820202 23:0.23438819 24:0.13599585 25:0.50123683 26:0.70858871 27:0.55327951 28:0.66343076 29:0.55406382 30:0.51119593 31:0.3729922 32:0.3980489 33:0.22663296 34:0.21761916 35:0.13141375 36:0.18181818 38:0.33333333 39:0.33333333 40:0.22591121 41:0.27272727 42:0.066666667 44:0.28571429 45:0.1 47:0.22222222 49:0.4 51:0.125 52:0.33333333 55:0.2 56:0.33333333 57:0.25 59:0.22222222 
-64 0:0.42398022 1:0.19309068 2:0.11111111 4:0.44067797 5:0.18875502 6:0.28915663 7:0.37246964 8:0.21505376 9:0.5747085 10:0.14656157 11:0.70307885 12:0.45639535 13:0.6400156 14:0.14285714 15:0.35311226 16:0.46666667 17:0.22222222 18:0.15384615 20:0.36069479 21:0.4566215 22:0.40486165 23:0.23438819 24:0.079821182 25:0.3505458 26:0.46192869 27:0.6166953 28:0.64226099 29:0.46692889 30:0.43070763 31:0.52444427 32:0.27402576 33:0.48555082 34:0.023449092 35:0.23641124 36:0.090909091 38:0.16666667 40:0.18932667 41:0.21212121 42:0.066666667 44:0.14285714 45:0.2 51:0.25 53:0.16666667 55:0.6 56:0.33333333 57:0.125 58:0.11111111 59:0.11111111 
27.77384108569974 0:0.86897404 1:0.81516039 2:0.41111111 3:0.068965517 4:0.071563089 5:0.73895582 6:0.96385542 7:0.79352227 8:0.50537634 9:0.99056488 10:0.50615488 11:0.63108856 12:0.15406977 13:0.55511836 14:0.0093167702 15:0.16331168 16:0.066666667 18:0.38461538 19:0.33333333 20:0.54045545 21:0.62553332 22:0.37203277 23:0.089737472 24:0.34603208 25:0.62948608 26:0.69792344 27:0.72856159 28:0.42000254 29:0.80662712 30:0.37485847 31:0.66966572 32:0.20318306 33:0.73945445 34:0.045253191 35:0.30797778 36:0.27272727 37:0.2 38:0.41666667 39:0.33333333 40:0.24342001 41:0.27272727 42:0.13333333 45:0.1 47:0.33333333 49:0.4 50:0.2 51:0.375 52:0.33333333 54:0.16666667 57:0.125 59:0.11111111 
-7.476728378990559 1:0.13736377 2:0.11111111 3:0.068965517 4:0.43691149 5:0.27309237 6:0.63855422 7:0.13765182 8:0.17204301 9:0.44252142 10:0.23932129 11:0.28464918 12:0.54360465 13:0.0073665298 14:0.0031055901 15:0.47416264 16:1 17:0.55555556 18:0.15384615 20:0.28161391 21:0.20204787 22:0.47177659 23:0.089737472 24:0.13681579 25:0.26750816 26:0.20684841 27:0.36804528 28:0.42000254 29:0.34668389 30:0.34001383 31:0.26190826 32:0.53346786 33:0.025284558 34:0.043693132 35:0.24033995 36:0.45454545 37:0.4 38:0.16666667 40:0.8414216 41:0.87878788 42:0.26666667 44:0.57142857 45:0.6 46:0.25 47:0.33333333 48:0.16666667 49:0.2 50:0.4 54:0.33333333 55:0.8 58:0.66666667 59:0.11111111 61:0.2 
-6.00999589603552 0:0.70333745 1:0.59816471 2:0.066666667 3:0.068965517 4:0.18644068 5:0.56626506 6:0.63855422 7:0.69635628 8:0.74193548 9:0.62643436 10:0.58990521 11:0.23209606 12:0.61918605 13:0.069316237 14:0.099378882 15:0.22805884 16:0.13333333 18:0.15384615 20:0.20403338 21:0.22786625 22:0.089737472 23:0.089737472 24:0.24294004 25:0.27098788 26:0.20684841 27:0.51727827 28:0.59966253 29:0.32454429 30:0.38093441 31:0.18357945 32:0.48519368 33:0.011438401 34:0.15796094 35:0.14959514 36:0.36363636 38:0.16666667 40:0.17715454 41:0.27272727 42:0.2 45:0.1 47:0.33333333 49:0.4 50:0.4 52:0.33333333 57:0.25 58:0.11111111 59:0.11111111 
64 0:0.79233622 1:0.6344137 2:0.92222222 3:0.068965517 4:0.18079096 5:0.78313253 6:0.96385542 7:0.26315789 8:0.21505376 9:0.76210806 10:0.36634113 11:0.55206726 12:0.27325581 13:0.25029611 14:5.1715577e-16 15:0.2887404 16:0.26666667 17:0.11111111 18:0.61538462 19:0.66666667 20:0.67153469 21:0.5218425 22:1 23:0.089737472 24:0.20835383 25:0.58785082 26:0.72162911 27:0.35233735 28:0.33909305 29:0.74157588 30:0.38833823 31:0.6632906 32:0.40269924 33:0.17611042 34:0.0038979958 35:0.49552129 36:0.27272727 37:0.2 38:0.58333333 39:0.33333333 40:0.61807653 41:0.57575758 42:0.26666667 43:0.25 44:0.14285714 45:0.2 46:0.25 47:0.11111111 48:0.16666667 49:0.2 50:0.2 51:0.5 53:0.16666667 54:0.33333333 57:0.25 58:0.22222222 59:0.22222222 
64 0:0.59456119 1:0.46761258 2:0.45555556 4:0.37288136 5:0.68273092 6:0.92771084 7:0.3562753 8:0.17204301 9:0.71985343 10:0.20876913 11:0.74636985 12:0.51453488 13:0.38882012 14:0.074534161 15:0.39790674 16:0.4 17:0.22222222 18:0.38461538 19:0.16666667 20:0.48443875 21:0.45186916 22:0.35731898 23:0.23438819 24:0.42625505 25:0.41168897 26:0.53400463 27:0.57113303 28:0.52753368 29:0.54363624 30:0.54020794 31:0.38167975 32:0.5727437 33:0.0733777 34:0.084909805 35:0.33176103 36:0.36363636 38:0.5 39:0.16666667 40:0.4360168 41:0.42424242 42:0.13333333 44:0.14285714 45:0.1 46:0.25 47:0.22222222 49:0.2 50:0.2 51:0.125 53:0.16666667 55:0.4 56:0.33333333 57:0.125 58:0.11111111 59:0.33333333 60:0.33333333 61:0.2 
64 0:0.58838072 1:0.45404072 2:0.81111111 3:0.068965517 4:0.13182674 5:0.79116466 6:0.96385542 7:0.25101215 8:0.21505376 9:0.60612975 10:0.50046735 11:0.3598422 12:0.30523256 13:0.19953546 14:0.040372671 15:0.1475914 16:0.33333333 17:0.22222222 18:0.38461538 19:0.5 20:0.37263403 21:0.39170141 22:0.74953155 23:0.089737472 24:0.26102995 25:0.47420849 26:0.44325821 27:0.45081293 28:0.43382592 29:0.48841567 30:0.49160269 31:0.41597195 32:0.30283082 33:0.34411521 34:0.082418986 35:0.10400505 36:0.36363636 37:0.2 38:0.41666667 39:0.5 40:0.27877824 41:0.33333333 44:0.14285714 45:0.3 46:0.75 47:0.33333333 49:0.2 50:0.2 53:0.16666667 57:0.25 58:0.11111111 59:0.22222222 
10.75059613576967 0:0.71322621 1:0.59942422 2:0.45555556 3:0.068965517 4:0.31638418 5:0.45783133 6:1 7:0.56680162 8:0.21505376 9:0.64524536 10:0.40277084 11:0.56927546 12:0.59302326 13:0.24640207 14:0.01552795 15:0.32364194 16:0.2 17:0.11111111 18:0.30769231 19:0.16666667 20:0.34263855 21:0.36018487 22:0.35731898 23:0.089737472 24:0.14572301 25:0.29273632 26:0.39584687 27:0.57759796 28:0.68521455 29:0.3568875 30:0.4694823 31:0.23364222 32:0.24415203 33:0.046024946 34:0.040425541 35:0.13853526 36:0.18181818 38:0.25 39:0.16666667 40:0.28098104 41:0.33333333 42:0.2 43:0.25 45:0.2 47:0.22222222 49:0.4 50:0.2 55:0.2 57:0.25 58:0.11111111 59:0.22222222 61:0.2 
64 0:0.45488257 1:0.19494139 2:0.11111111 4:0.23728814 5:0.30120482 6:0.3373494 7:0.39271255 8:0.10752688 9:0.31272402 10:0.45984552 11:0.10646184 12:0.40406977 13:0.080816268 14:0.18322981 15:0.20168461 16:0.26666667 17:0.22222222 18:0.15384615 20:0.11942733 21:0.1344671 22:0.36093528 23:0.23438819 24:0.20643942 25:0.23599309 26:0.1705174 27:0.41258077 28:0.38036119 29:0.26682939 30:0.48563495 31:0.20571246 32:0.42477821 33:0.26062903 34:0.41907796 35:0.14676997 36:0.27272727 38:0.083333333 40:0.14181901 41:0.15151515 43:0.25 45:0.1 48:0.16666667 53:0.33333333 54:0.16666667 55:0.2 56:0.33333333 58:0.11111111 59:0.22222222 61:0.2 
-28.93702163488222 0:0.58467244 1:0.44270512 2:0.81111111 3:0.068965517 4:0.13182674 5:0.24497992 6:0.36144578 7:0.49797571 8:0.4516129 9:0.52447624 10:0.38768781 11:0.37051575 12:0.38372093 13:0.26876019 14:0.031055901 15:0.18682957 16:0.13333333 18:0.23076923 20:0.21974011 21:0.24643236 22:0.74953155 23:0.089737472 24:0.20970813 25:0.2514112 26:0.53400463 27:0.45299398 28:0.42000254 29:0.31714835 30:0.26700804 31:0.36871931 32:0.30126362 33:0.079974393 34:0.054282075 35:0.17015117 36:0.45454545 37:0.4 38:0.16666667 40:0.15919155 41:0.27272727 43:0.25 46:0.25 47:0.44444444 49:0.2 50:0.2 51:0.125 53:0.16666667 55:0.2 57:0.375 61:0.4 
44.59932443864187 0:0.40173053 1:0.31950838 2:0.92222222 4:0.53483992 5:0.58634538 6:0.79518072 7:0.032388664 8:0.17204301 9:0.55065715 10:0.051800803 11:0.4335698 12:0.40116279 13:0.056150285 14:0.0093167702 15:0.48780844 16:0.66666667 17:0.44444444 18:0.46153846 19:0.33333333 20:0.37147368 21:0.30357385 22:1 23:0.23438819 24:0.47561221 25:0.3377497 26:0.41955254 27:0.18666316 29:0.46922689 30:0.17834973 31:0.40718534 32:0.24603592 33:0.07891212 34:0.0012177137 35:0.41684746 36:0.54545455 37:0.4 38:0.41666667 39:0.16666667 40:0.58015215 41:0.57575758 42:0.13333333 43:0.25 44:0.57142857 45:0.2 46:0.5 48:0.33333333 49:0.2 50:0.2 51:0.25 52:0.33333333 53:0.5 56:0.33333333 57:0.25 58:0.11111111 59:0.11111111 
64 0:0.78244747 1:0.66261567 2:0.41111111 3:0.068965517 4:0.35781544 5:0.6626506 6:1 7:0.46963563 8:0.47311828 9:0.96408266 10:0.43502991 11:0.83062287 12:0.16569767 13:0.066556826 14:0.0062111801 15:0.34934898 16:0.26666667 18:0.38461538 19:0.33333333 20:0.52519112 21:0.50759812 22:0.37203277 23:0.089737472 24:0.15432107 25:0.58605 26:0.72162911 27:0.45037292 28:0.5063639 29:0.6529083 30:0.49356067 31:0.45519089 32:0.28571521 33:0.14286986 34:0.016452151 35:0.17361426 36:0.090909091 38:0.41666667 39:0.33333333 40:0.40045418 41:0.39393939 42:0.33333333 44:0.14285714 45:0.1 46:0.25 49:0.4 50:0.2 51:0.125 53:0.16666667 55:0.2 57:0.25 58:0.22222222 59:0.22222222 
64 0:0.63535229 1:0.50984672 2:0.7 3:0.068965517 4:0.32391714 5:0.6064257 6:0.92771084 7:0.56680162 8:0.21505376 9:0.50645578 10:0.53398279 11:0.28899089 12:0.27034884 13:0.19614278 14:0.11490683 15:0.24099576 16:0.26666667 17:0.11111111 18:0.15384615 19:0.16666667 20:0.37768369 21:0.50815218 22:0.54855152 23:0.089737472 24:0.2021101 25:0.53864179 26:0.46192869 27:0.68190457 28:0.85444863 29:0.49895259 30:0.68278532 31:0.33442461 32:0.19392819 33:0.16639108 34:0.077583167 35:0.19058545 36:0.090909091 38:0.16666667 39:0.16666667 40:0.15848757 41:0.18181818 42:0.26666667 44:0.14285714 45:0.1 50:0.2 51:0.125 53:0.16666667 55:0.2 59:0.22222222 61:0.2 
-64 0:0.70210136 1:0.5822267 2:0.81111111 4:0.32015066 5:0.67871486 6:0.8313253 7:0.46963563 8:0.21505376 9:0.76358361 10:0.27572345 11:0.53120785 12:0.59593023 13:0.46953003 14:0.034161491 15:0.40222252 16:0.26666667 17:0.11111111 18:0.46153846 19:0.16666667 20:0.68713929 21:0.68983267 22:0.74953155 23:0.23438819 24:0.29636976 25:0.78317653 26:1 27:0.50718346 28:0.42205695 29:0.70539232 30:0.55970891 31:0.37290749 32:0.85446108 33:0.33560776 34:0.0010975166 35:0.53504374 36:0.18181818 38:0.5 39:0.16666667 40:0.37940275 41:0.36363636 42:0.13333333 44:0.28571429 45:0.2 46:0.25 47:0.11111111 48:0.16666667 49:0.2 51:0.625 56:0.33333333 57:0.125 58:0.22222222 
-64 0:0.59332509 1:0.47624923 2:0.96666667 3:0.068965517 4:0.45574388 5:0.65461847 6:0.6746988 7:0.4534413 8:0.17204301 9:0.78753452 10:0.33205346 11:0.43318563 12:0.64534884 13:0.075089179 14:0.043478261 15:0.57162217 16:0.46666667 17:0.22222222 18:0.46153846 20:0.53196745 21:0.39801293 22:0.73779826 23:0.089737472 24:0.4765438 25:0.35229323 26:0.28974281 27:0.57177307 28:0.56895138 29:0.52904418 30:0.57095283 31:0.33711876 32:0.71218386 33:0.029686535 34:0.044513894 35:0.46947173 36:0.27272727 38:0.5 40:0.69004201 41:0.63636364 42:0.26666667 44:0.14285714 45:0.5 47:0.11111111 48:0.16666667 49:0.2 50:0.2 51:0.125 53:0.16666667 54:0.5 57:0.125 58:0.33333333 59:0.55555556 
64 0:0.74412855 1:0.70018507 2:0.92222222 3:0.068965517 5:0.78313253 6:0.75903614 7:0.69230769 8:0.46236559 9:0.79387182 10:0.61274732 11:0.46725573 12:0.39534884 13:0.22161526 14:0.41925466 15:0.12102953 18:0.30769231 19:0.16666667 20:0.16341501 21:0.2037945 22:1 23:0.089737472 24:0.24455112 25:0.31616011 26:0.19618313 27:0.4000429 28:0.34951897 29:0.49789397 30:0.34748136 31:0.48857987 32:0.69161695 33:0.17754111 34:0.76126399 35:0.35430782 36:0.18181818 38:0.16666667 40:0.13103213 41:0.15151515 42:0.13333333 43:0.5 48:0.33333333 49:0.4 50:0.2 51:0.125 57:0.125 61:0.2 
64 0:0.60444994 1:0.48202344 2:0.11111111 4:0.23163842 5:0.46586345 6:1 7:0.34817814 8:0.41935484 9:0.57346992 10:0.38043437 11:0.35845348 12:0.42151163 13:0.15833899 14:0.02173913 15:0.41126065 16:0.26666667 18:0.30769231 19:0.33333333 20:0.24848913 21:0.21835647 22:0.47177659 23:0.23438819 24:0.31266348 25:0.29772344 26:0.41717743 27:0.40530407 28:0.33569559 29:0.37491957 30:0.38341329 31:0.38099528 32:0.23843651 33:0.060968988 34:0.0063145792 35:0.32526765 36:0.45454545 37:0.2 38:0.33333333 39:0.33333333 40:0.48075395 41:0.54545455 42:0.2 44:0.28571429 45:0.1 47:0.33333333 48:0.33333333 49:0.6 52:0.33333333 54:0.16666667 55:0.2 56:0.33333333 57:0.375 58:0.22222222 59:0.22222222 
64 0:0.43263288 1:0.35040099 2:0.41111111 3:0.068965517 4:0.43691149 5:0.34939759 6:0.92771084 7:0.38461538 8:0.21505376 9:0.50726437 10:0.24570447 11:0.41371532 12:0.52034884 13:0.053761084 14:0.049689441 15:0.5606138 16:0.4 17:0.11111111 18:0.38461538 19:0.16666667 20:0.18462368 21:0.16544812 22:0.37203277 23:0.089737472 24:0.57676912 25:0.28678919 26:0.41717743 27:0.30612953 28:0.33909305 29:0.3284262 30:0.17932199 31:0.41794903 32:0.55434473 33:0.15495951 34:0.042267536 35:0.55298763 36:0.72727273 37:0.2 38:0.5 39:0.16666667 40:0.63338254 41:0.60606061 42:0.13333333 45:0.1 46:0.25 47:0.22222222 48:0.5 49:0.2 50:0.2 53:0.5 54:0.5 55:0.4 57:0.25 59:0.44444444 60:0.33333333 61:0.2 
-7.003394415286356 0:0.62422744 1:0.49376928 2:0.11111111 3:0.068965517 4:0.15442561 5:0.72690763 6:0.92771084 7:0.24696356 8:0.17204301 9:0.75042489 10:0.24189846 11:0.49080734 12:0.61627907 13:0.23187249 14:0.32919255 15:0.21302657 16:0.26666667 17:0.22222222 18:0.23076923 19:0.16666667 20:0.33732391 21:0.40391487 22:0.36093528 23:0.089737472 24:0.11720339 25:0.42334321 26:0.41717743 27:0.45494446 28:0.46466814 29:0.52830457 30:0.34652648 31:0.40208596 32:0.33756168 33:0.20013796 34:0.28090923 35:0.094172316 36:0.18181818 38:0.25 39:0.16666667 40:0.25141365 41:0.24242424 42:0.2 44:0.14285714 46:0.25 50:0.2 53:0.33333333 54:0.16666667 55:0.2 58:0.11111111 59:0.33333333 61:0.2 
0.7822936720623409 0:0.68355995 1:0.58757652 2:0.7 3:0.068965517 4:0.10169492 5:0.54216867 6:0.6746988 7:0.70445344 8:0.62365591 9:0.56029315 10:0.61305686 11:0.16648391 12:0.41569767 13:0.15234678 14:0.16149068 15:0.11654696 16:0.066666667 18:0.076923077 20:0.23834904 21:0.30544416 22:0.54855152 23:0.089737472 24:0.02928697 25:0.21049121 26:0.2198888 27:0.61932795 28:0.59966253 29:0.30875377 30:0.55686534 31:0.11325669 32:0.20209387 33:0.056189782 34:0.031663123 35:0.08028578 38:0.083333333 40:0.12008629 41:0.18181818 42:0.33333333 44:0.14285714 46:0.25 49:0.2 50:0.2 54:0.33333333 57:0.25 
4.572836230980434 0:0.64400494 1:0.51813371 2:0.45555556 3:0.068965517 4:0.22975518 5:0.39759036 6:0.63855422 7:0.6194332 8:0.37634409 9:0.77518439 10:0.42936993 11:0.56937343 12:0.5 13:0.44888703 14:0.0031055901 15:0.3284998 16:0.2 18:0.30769231 20:0.39557662 21:0.39960859 22:0.35731898 23:0.089737472 24:0.079821182 25:0.51218402 26:0.41293195 27:0.613986 28:0.44607397 29:0.71501353 30:0.40222115 31:0.63579173 32:0.41620363 33:0.55114458 34:0.046488686 35:0.33947974 36:0.18181818 38:0.33333333 40:0.32669467 41:0.36363636 42:0.13333333 44:0.14285714 46:0.25 47:0.22222222 50:0.2 51:0.25 54:0.33333333 55:0.4 57:0.375 58:0.11111111 59:0.22222222 
-64 0:0.58220025 1:0.44337192 2:0.96666667 4:0.44821092 5:0.45381526 6:0.75903614 7:0.37246964 8:0.21505376 9:0.56525023 10:0.30627561 11:0.44073783 12:0.24418605 13:0.11170088 14:0.1242236 15:0.41646252 16:0.4 17:0.11111111 18:0.38461538 19:0.16666667 20:0.51118937 21:0.56253297 22:0.73779826 23:0.23438819 24:0.35979268 25:0.49838129 26:0.43021782 27:0.56785645 28:0.67818611 29:0.62976695 30:0.52359653 31:0.51255047 32:0.24157769 33:0.41382867 34:0.0059376536 35:0.32437139 36:0.27272727 37:0.2 38:0.41666667 39:0.16666667 40:0.27884637 41:0.3030303 42:0.066666667 44:0.28571429 45:0.2 46:0.5 47:0.11111111 51:0.25 53:0.33333333 56:0.33333333 57:0.25 59:0.22222222 
-64 0:0.61681088 1:0.48813273 2:1 3:0.068965517 4:0.36346516 5:0.30522088 6:0.91566265 7:0.4534413 8:0.17204301 9:0.77208656 10:0.22190013 11:0.5371604 12:0.56104651 13:0.30894701 14:0.36956522 15:0.31889875 16:0.4 17:0.33333333 18:0.38461538 19:0.33333333 20:0.58567466 21:0.58883388 22:0.72820202 23:0.089737472 24:0.14708762 25:0.50114368 26:1 27:0.59174981 28:0.4234 29:0.54541043 30:0.51106964 31:0.22131516 32:0.40079864 33:0.1761782 34:0.17157992 35:0.3007303 36:0.18181818 37:0.2 38:0.41666667 39:0.33333333 40:0.37495174 41:0.36363636 42:0.066666667 44:0.42857143 45:0.1 49:0.2 50:0.2 51:0.5 52:0.33333333 53:0.33333333 54:0.16666667 57:0.375 59:0.11111111 
-64 0:0.66131026 1:0.54310611 2:1 4:0.10734463 5:0.6064257 6:0.79518072 7:0.27530364 8:0.21505376 9:0.59969202 10:0.25257181 11:0.49754561 12:0.31976744 13:0.16508301 14:0.040372671 15:0.14549605 16:0.2 17:0.11111111 18:0.30769231 19:0.33333333 20:0.44660421 21:0.51459664 22:0.72820202 23:0.23438819 24:0.25084328 25:0.41912472 26:0.52553165 27:0.53682788 28:0.67139118 29:0.5639257 30:0.46383584 31:0.42163359 32:0.41626401 33:0.44930599 34:0.11492032 35:0.2158811 36:0.27272727 37:0.2 38:0.33333333 39:0.33333333 40:0.24718974 41:0.27272727 44:0.28571429 46:0.25 47:0.22222222 49:0.2 51:0.25 52:0.33333333 53:0.16666667 56:0.33333333 57:0.125 58:0.33333333 59:0.11111111 
-64 0:0.5908529 1:0.41776681 2:0.41111111 3:0.068965517 5:0.3373494 6:0.91566265 7:0.52631579 8:0.40860215 9:0.34072298 10:0.28598921 12:0.014244186 13:0.0036989438 14:0.015217391 15:0.05489591 18:0.076923077 19:0.16666667 20:0.14282467 21:0.18400537 22:0.37203277 23:0.089737472 24:0.17864929 25:0.17405305 26:0.69792344 27:0.38666108 28:0.33569559 29:0.19397117 30:0.18766787 32:0.020949252 33:0.0040417919 34:0.027836535 35:0.22023826 36:0.18181818 37:0.2 38:0.083333333 39:0.16666667 40:0.053139548 41:0.090909091 47:0.11111111 48:0.16666667 49:0.2 50:0.2 51:0.125 57:0.125 58:0.33333333 61:0.2 
-64 0:0.60074166 1:0.45774213 2:0.45555556 4:0.086629002 5:0.40160643 6:0.27710843 7:0.61538462 8:0.40860215 9:0.62825751 10:0.4937961 11:0.20236207 12:0.64825581 13:0.1132133 14:0.38509317 15:0.17496638 16:0.066666667 18:0.15384615 20:0.37119214 21:0.47080251 22:0.35731898 23:0.23438819 24:0.08259308 25:0.45866541 26:0.53400463 27:0.72696488 28:0.64226099 29:0.61296708 30:0.65898536 31:0.36003342 32:0.56338055 33:0.29730177 34:0.44318041 35:0.17704061 36:0.090909091 38:0.16666667 40:0.20245259 41:0.21212121 42:0.066666667 45:0.1 46:0.5 47:0.11111111 51:0.125 52:0.33333333 54:0.33333333 56:0.33333333 57:0.125 58:0.11111111 61:0.4 
64 0:0.83559951 1:0.6308379 2:0.35555556 3:1 4:0.12052731 5:0.79116466 6:0.87951807 7:0.37246964 8:0.24731183 9:0.97793148 10:0.32258747 11:0.62447809 12:0.31104651 13:0.051549706 14:0.0031055901 15:0.44748611 16:0.13333333 18:0.84615385 19:0.66666667 20:0.63870958 21:0.40621563 22:0.58071357 23:0.73779826 24:0.36833107 25:0.74980319 26:0.70858871 27:0.33915027 28:0.34951897 29:0.78364178 30:0.25281022 31:0.65655144 32:0.64715304 33:0.075755996 34:0.0803066 35:0.69209662 36:0.63636364 37:0.2 38:0.83333333 39:0.66666667 40:0.86544794 41:0.81818182 42:0.066666667 43:0.25 44:0.28571429 46:0.25 47:0.44444444 48:0.5 49:0.2 51:0.5 52:0.33333333 53:0.16666667 54:0.66666667 57:0.5 58:0.11111111 59:0.55555556 61:0.2 
64 0:0.66007417 1:0.53939108 2:1 3:0.068965517 4:0.15630885 5:0.64658635 6:1 7:0.43724696 8:0.12903226 9:0.67984683 10:0.49425271 11:0.4617996 12:0.23837209 13:0.12610653 14:0.027950311 15:0.13092247 16:0.26666667 17:0.33333333 18:0.23076923 19:0.16666667 20:0.35797396 21:0.39207839 22:0.72820202 23:0.089737472 24:0.27726498 25:0.42498847 26:0.41293195 27:0.50799486 28:0.1686139 29:0.48152419 30:0.37782215 31:0.40951835 32:0.36953023 33:0.067173409 34:0.12700505 35:0.16544339 36:0.27272727 37:0.2 38:0.25 39:0.16666667 40:0.29229022 41:0.3030303 42:0.26666667 44:0.14285714 45:0.1 47:0.11111111 49:0.6 50:0.4 51:0.125 53:0.16666667 54:0.16666667 58:0.11111111 61:0.2 
-61.42743553369868 0:0.55624227 1:0.39876619 2:0.42222222 3:0.068965517 4:0.086629002 5:0.3815261 6:0.34939759 7:0.5708502 8:0.17204301 9:0.58132905 10:0.45825813 11:0.38870365 12:0.087209302 13:0.26249739 14:0.02484472 15:0.098293494 16:0.13333333 17:0.11111111 18:0.076923077 20:0.18094433 21:0.20674348 22:0.44924319 23:0.089737472 24:0.11188005 25:0.19984022 26:0.13456105 27:0.47251202 28:0.4234 29:0.37755495 30:0.38623534 31:0.27378243 32:0.16735673 33:0.31781062 34:0.068839004 35:0.086137905 36:0.27272727 37:0.2 38:0.083333333 40:0.14159192 41:0.24242424 42:0.13333333 44:0.14285714 46:0.25 47:0.22222222 50:0.2 53:0.16666667 57:0.375 58:0.22222222 59:0.11111111 61:0.2 
64 0:0.68108776 1:0.54628007 2:0.066666667 3:0.068965517 4:0.15819209 5:0.74698795 6:0.96385542 7:0.51012146 8:0.17204301 9:0.76155959 10:0.3782433 11:0.51187318 12:0.28197674 13:0.061924778 14:0.031055901 15:0.26817267 16:0.33333333 17:0.22222222 18:0.46153846 19:0.5 20:0.46030257 21:0.37859562 22:0.089737472 23:0.089737472 24:0.26784809 25:0.38363341 26:0.68221595 27:0.54439004 28:0.52753368 29:0.51425109 30:0.41008271 31:0.39220408 32:0.30544924 33:0.069162502 34:0.024613914 35:0.2727678 36:0.36363636 38:0.58333333 39:0.66666667 40:0.56766209 41:0.54545455 42:0.13333333 44:0.28571429 47:0.22222222 49:0.6 50:0.4 51:0.125 53:0.16666667 54:0.16666667 55:0.2 57:0.375 58:0.33333333 59:0.33333333 60:0.33333333 
4.168670644577792 0:0.71569839 1:0.59265885 2:0.92222222 4:0.22222222 5:0.42971888 6:0.40963855 7:0.6437247 8:0.4516129 9:0.58345352 10:0.47464048 11:0.34099259 12:0.41860465 13:0.17236874 14:0.0031055901 15:0.34021704 16:0.066666667 18:0.38461538 20:0.4427997 21:0.42968562 22:1 23:0.23438819 24:0.67186351 25:0.52450105 26:0.68221595 27:0.44165707 28:0.33569559 29:0.40752008 30:0.29891585 31:0.40906701 32:0.46893244 33:0.28227219 34:0.043133207 35:0.4843375 36:0.63636364 37:0.4 38:0.5 39:0.16666667 40:0.32487794 41:0.39393939 42:0.066666667 46:0.25 47:0.55555556 48:0.16666667 49:0.2 51:0.375 53:0.16666667 54:0.16666667 56:0.33333333 57:0.25 58:0.11111111 59:0.11111111 60:0.33333333 
-13.78137321152606 0:0.51421508 1:0.32819247 2:1 4:0.18079096 5:0.28514056 6:0.91566265 7:0.21052632 8:0.17204301 9:0.52111319 10:0.22093789 11:0.49371208 12:0.23837209 13:0.26962952 14:0.0031055901 15:0.17489341 16:0.33333333 17:0.11111111 18:0.15384615 19:0.16666667 20:0.37750751 21:0.47933402 22:0.72820202 23:0.23438819 24:0.087736336 25:0.27498026 26:0.69792344 27:0.6000311 28:0.56895138 29:0.54263227 30:0.52522215 31:0.27848142 32:0.52414687 33:0.19299151 34:0.30765486 35:0.13871231 36:0.090909091 38:0.16666667 39:0.16666667 40:0.21476099 41:0.21212121 42:0.13333333 44:0.14285714 45:0.3 49:0.2 50:0.2 51:0.125 56:0.33333333 58:0.11111111 59:0.11111111 61:0.4 
-50.06526936433871 0:0.70951792 1:0.62060457 2:0.45555556 4:0.24293785 5:0.6184739 6:0.6746988 7:0.62348178 8:0.31182796 9:0.70648873 10:0.35236741 11:0.55775506 12:0.77616279 13:0.47333641 14:0.44409938 15:0.33971666 16:0.13333333 18:0.30769231 20:0.31572182 21:0.39586699 22:0.35731898 23:0.23438819 24:0.50364622 25:0.42048815 26:0.30207656 27:0.60736394 28:0.569723 29:0.51141062 30:0.53044576 31:0.28503332 32:0.74351405 33:0.19997904 34:0.64150066 35:0.3046766 36:0.36363636 38:0.33333333 40:0.17383899 41:0.21212121 42:0.066666667 47:0.22222222 49:0.2 51:0.125 53:0.16666667 54:0.16666667 56:0.66666667 57:0.25 59:0.33333333 
64 0:0.70333745 1:0.60431832 2:0.92222222 4:0.34651601 5:0.5502008 6:1 7:0.61538462 8:0.21505376 9:0.7056209 10:0.47895212 11:0.6691756 12:0.13953488 13:0.078850714 14:0.02173913 15:0.34271894 16:0.2 17:0.11111111 18:0.38461538 19:0.16666667 20:0.42443918 21:0.51375428 22:1 23:0.23438819 24:0.25896767 25:0.49938726 26:0.41293195 27:0.46051211 28:0.33569559 29:0.43384523 30:0.35391934 31:0.52581169 32:0.18182754 33:0.13128223 34:0.00442526 35:0.30381567 36:0.27272727 37:0.2 38:0.41666667 39:0.16666667 40:0.2569547 41:0.24242424 42:0.066666667 44:0.14285714 46:0.25 47:0.11111111 48:0.16666667 49:0.6 51:0.25 53:0.16666667 55:0.2 56:0.33333333 58:0.22222222 
-64 0:0.79480841 1:0.6674892 2:0.96666667 3:0.068965517 4:0.14689266 5:0.77911647 6:1 7:0.3562753 8:0.17204301 9:0.58766635 10:0.59578277 11:0.31705152 12:0.25 13:0.052203307 14:0.0031055901 15:0.20165334 16:0.2 17:0.11111111 18:0.46153846 19:0.66666667 20:0.4118182 21:0.38646651 22:0.73779826 23:0.089737472 24:0.2651138 25:0.4732309 26:0.43021782 27:0.38637511 28:0.33909305 29:0.40570719 30:0.51986065 31:0.36679179 32:0.1468599 33:0.032276279 34:0.0044203271 35:0.19606015 36:0.27272727 37:0.2 38:0.5 39:0.66666667 40:0.44802998 41:0.42424242 42:0.2 44:0.14285714 45:0.1 46:0.25 47:0.11111111 48:0.16666667 49:0.4 50:0.2 52:0.33333333 53:0.16666667 54:0.33333333 57:0.25 59:0.44444444 
64 0:0.45488257 1:0.23935842 2:0.11111111 4:0.1393597 5:0.42570281 6:0.6746988 7:0.008097166 8:0.10752688 9:0.52719037 10:0.087001687 11:0.58018342 12:0.40406977 13:0.48415006 14:0.0031055901 15:0.24553046 16:0.4 17:0.44444444 18:0.15384615 20:0.2648069 21:0.3270854 22:0.51586215 23:0.23438819 24:0.36516861 25:0.28210853 26:0.20684841 27:0.57038747 28:0.60056522 29:0.40987836 30:0.45564827 31:0.37072883 32:0.62388063 33:0.31653079 34:0.35799176 35:0.38087732 36:0.18181818 38:0.16666667 40:0.18351311 41:0.21212121 42:0.13333333 45:0.4 48:0.16666667 49:0.2 51:0.125 55:0.2 56:0.66666667 57:0.125 59:0.11111111 
-43.47499823151782 0:0.65883807 1:0.53608883 2:0.11111111 3:0.068965517 4:0.60263653 5:0.62248996 6:1 7:0.32793522 8:0.17204301 9:0.81594033 10:0.31285489 11:0.72402326 12:0.30813953 13:0.44997371 14:0.059006211 15:0.46457202 16:0.46666667 17:0.22222222 18:0.53846154 19:0.5 20:0.57033731 21:0.59943011 22:0.51586215 23:0.089737472 24:0.41896388 25:0.54481595 26:0.70858871 27:0.6029411 28:0.52753368 29:0.75117828 30:0.47001954 31:0.63409285 32:0.61926296 33:0.43845628 34:0.3019915 35:0.48460323 36:0.18181818 38:0.5 39:0.33333333 40:0.37265811 41:0.33333333 42:0.066666667 43:0.25 44:0.28571429 45:0.3 46:0.25 49:0.4 50:0.4 51:0.375 53:0.16666667 57:0.125 59:0.11111111 
64 0:0.66007417 1:0.53939108 2:0.11111111 3:0.068965517 4:0.12429379 5:0.59839357 6:0.37349398 7:0.56680162 8:0.21505376 9:0.69023218 10:0.47492854 11:0.40169825 12:0.75 13:0.1123603 14:0.13975155 15:0.30399158 16:0.2 17:0.11111111 18:0.38461538 20:0.40967323 21:0.44959466 22:0.51586215 23:0.089737472 24:0.027390519 25:0.49883655 26:0.46192869 27:0.61090337 28:0.42000254 29:0.52114885 30:0.64463959 31:0.2531146 32:0.62562994 33:0.13826171 34:0.20676516 35:0.29202071 36:0.18181818 37:0.2 38:0.33333333 40:0.29558306 41:0.3030303 43:0.25 45:0.2 46:0.25 47:0.22222222 49:0.4 50:0.2 51:0.25 54:0.16666667 55:0.2 57:0.125 58:0.33333333 
-64 0:0.7144623 1:0.60645208 2:0.7 3:0.068965517 4:0.49340866 5:0.38554217 6:0.91566265 7:0.58704453 8:0.21505376 9:0.73904813 10:0.47620639 11:0.53549703 12:0.31976744 13:0.29458075 14:0.065217391 15:0.43120289 16:0.33333333 17:0.11111111 18:0.38461538 19:0.33333333 20:0.47386442 21:0.52100837 22:0.54855152 23:0.089737472 24:0.24950987 25:0.40801675 26:0.69792344 27:0.71843833 28:0.71945424 29:0.50195359 30:0.59505887 31:0.35068349 32:0.1458676 33:0.2595533 34:0.0009150355 35:0.22591621 36:0.18181818 38:0.41666667 39:0.33333333 40:0.31722493 41:0.3030303 42:0.2 45:0.2 46:0.25 47:0.11111111 49:0.8 50:0.2 51:0.125 53:0.16666667 54:0.16666667 55:0.4 
-64 0:0.78615575 1:0.77359655 2:1 4:0.35969868 5:0.74698795 6:0.96385542 7:0.71255061 8:0.21505376 9:0.66366757 10:0.65575023 11:0.45704019 12:0.2877907 13:0.43596797 14:0.30745342 15:0.28493542 16:0.2 17:0.11111111 18:0.38461538 19:0.5 20:0.43279077 21:0.62834798 22:0.72820202 23:0.23438819 24:0.33796805 25:0.5070528 26:0.69792344 27:0.64685804 28:0.67818611 29:0.54062626 30:0.70755012 31:0.34847172 32:0.23044578 33:0.46449853 34:0.23924281 35:0.16421143 36:0.27272727 37:0.2 38:0.41666667 39:0.5 40:0.15455887 41:0.15151515 42:0.066666667 44:0.14285714 47:0.11111111 49:0.8 51:0.125 53:0.33333333 56:0.33333333 59:0.11111111 
64 0:0.53646477 1:0.32213561 2:1 4:0.28060264 5:0.3815261 6:0.8313253 7:0.30364372 8:0.21505376 9:0.28338094 10:0.5121795 11:0.086923789 12:0.20348837 13:0.09883718 14:0.2173913 15:0.19993328 16:0.33333333 17:0.33333333 18:0.23076923 19:0.16666667 20:0.37543398 21:0.57703362 22:0.72820202 23:0.23438819 24:0.22464177 25:0.58332497 26:1 27:0.58410355 28:0.64226099 29:0.35996395 30:0.79133009 31:0.053827489 32:0.15792557 33:0.076471625 34:0.20034336 35:0.15697519 36:0.18181818 38:0.25 39:0.16666667 40:0.11465879 41:0.12121212 44:0.28571429 46:0.25 49:0.2 51:0.25 53:0.33333333 55:0.2 56:0.33333333 58:0.11111111 
51.45087050727906 0:0.66254635 1:0.52591988 2:0.81111111 4:0.19962335 5:0.70682731 6:1 7:0.24291498 8:0.21505376 9:0.66842888 10:0.22905553 11:0.39389399 12:0.51162791 13:0.058128773 14:0.02173913 15:0.4362901 16:0.4 17:0.11111111 18:0.61538462 19:0.5 20:0.50894225 21:0.35590263 22:0.74953155 23:0.23438819 24:0.25177691 25:0.4504059 26:0.41955254 27:0.51861821 28:0.36176702 29:0.4103257 30:0.33675972 31:0.33219399 32:0.43467181 33:0.065864732 34:0.080370654 35:0.25522318 36:0.45454545 37:0.4 38:0.66666667 39:0.5 40:0.7667083 41:0.72727273 42:0.26666667 43:0.25 44:0.14285714 45:0.2 46:0.5 47:0.33333333 48:0.16666667 49:1 53:0.16666667 54:0.83333333 55:0.4 56:0.33333333 57:0.125 59:0.11111111 60:0.33333333 
-64 0:0.53646477 1:0.41799211 2:0.11111111 3:0.068965517 4:0.29001883 5:0.65461847 6:1 7:0.40080972 8:0.17204301 9:0.53800061 10:0.24719989 11:0.48092971 12:0.375 13:0.12077923 14:0.02484472 15:0.34827525 16:0.33333333 17:0.11111111 18:0.38461538 19:0.33333333 20:0.23984783 21:0.22084438 22:0.36093528 23:0.089737472 24:0.2573185 25:0.44988316 26:0.40651215 27:0.28374769 28:0.33909305 29:0.36462181 30:0.29231773 31:0.42232456 32:0.43504364 33:0.16193276 34:0.17573423 35:0.26840756 36:0.63636364 37:0.6 38:0.5 39:0.5 40:0.50450778 41:0.48484848 42:0.066666667 44:0.14285714 46:0.25 47:0.22222222 48:0.33333333 49:0.4 50:0.2 53:0.5 54:0.16666667 55:0.2 57:0.125 58:0.33333333 59:0.33333333 60:0.33333333 
-64 0:0.72558714 1:0.58359038 2:0.45555556 4:0.30885122 5:0.51004016 6:0.92771084 7:0.50607287 8:0.24731183 9:0.72548256 10:0.2975543 11:0.66515604 12:0.26453488 13:0.011866455 14:0.0031055901 15:0.45722268 16:0.26666667 18:0.53846154 19:0.16666667 20:0.54587929 21:0.44333533 22:0.35731898 23:0.23438819 24:0.31743282 25:0.50803149 26:0.52553165 27:0.44853292 28:0.48464442 29:0.47229283 30:0.39353049 31:0.4120707 32:0.46630964 33:0.16424315 34:0.14237347 35:0.53430081 36:0.36363636 38:0.5 39:0.16666667 40:0.56579993 41:0.54545455 42:0.066666667 43:0.25 45:0.2 47:0.22222222 48:0.16666667 51:0.375 52:0.66666667 53:0.16666667 54:0.33333333 55:0.2 56:0.33333333 57:0.375 58:0.11111111 59:0.44444444 
-64 0:0.7750309 1:0.77673714 2:0.92222222 4:0.29001883 5:0.54216867 6:0.87951807 7:0.87044534 8:0.78494624 9:0.78593539 10:0.66392297 11:0.4371296 12:0.072674419 13:0.48213803 14:0.077639752 15:0.2385147 16:0.13333333 18:0.38461538 19:0.33333333 20:0.52759783 21:0.83865544 22:1 23:0.23438819 24:0.28670008 25:0.57912996 26:0.72162911 27:0.85034578 28:1 29:0.66298042 30:0.86762609 31:0.21535258 32:0.15432226 33:0.29381848 34:0.19580538 35:0.18377362 36:0.090909091 38:0.41666667 39:0.33333333 40:0.12026797 41:0.12121212 42:0.066666667 44:0.14285714 45:0.1 46:0.5 47:0.11111111 51:0.25 56:0.33333333 59:0.22222222 
64 0:0.65512979 1:0.52917952 2:0.11111111 4:0.4613936 5:0.53012048 6:0.96385542 7:0.5708502 8:0.17204301 9:0.73882411 10:0.4700898 11:0.71575527 12:0.19186047 13:0.15297817 14:0.0031055901 15:0.4073827 16:0.33333333 17:0.11111111 18:0.38461538 19:0.16666667 20:0.49786008 21:0.48175284 22:0.47177659 23:0.23438819 24:0.33750647 25:0.35244743 26:0.41293195 27:0.61395548 28:0.52753368 29:0.45377098 30:0.57187896 31:0.3508503 32:0.40508366 33:0.11033756 34:0.035236378 35:0.30289099 36:0.27272727 37:0.2 38:0.41666667 39:0.16666667 40:0.37722266 41:0.39393939 42:0.2 44:0.57142857 46:0.5 47:0.22222222 49:0.2 50:0.2 51:0.125 56:0.33333333 58:0.22222222 59:0.22222222 61:0.2 
-64 0:0.88627936 1:0.81830388 2:0.92222222 4:0.35404896 5:0.69076305 6:0.96385542 7:0.77732794 8:0.67741935 9:0.84382082 10:0.5358153 11:0.56343126 12:0.40116279 13:0.50516664 14:0.037267081 15:0.3066707 16:0.13333333 18:0.46153846 19:0.5 20:0.63846016 21:0.70412374 22:1 23:0.23438819 24:0.02928697 25:0.75572131 26:1 27:0.62587329 28:0.73555961 29:0.6716945 30:0.60172127 31:0.44214582 32:0.34913707 33:0.29036135 34:0.0045694918 35:0.1177519 38:0.5 39:0.5 40:0.34651981 41:0.3030303 42:0.2 44:0.28571429 46:0.25 49:0.4 51:0.25 52:0.33333333 54:0.16666667 56:0.33333333 57:0.125 58:0.11111111 59:0.22222222 
-64 0:0.34363412 1:0.26334362 2:0.11111111 3:0.068965517 4:0.70809793 5:0.34939759 6:0.34939759 7:0.29959514 8:0.12903226 9:0.54213105 10:0.042356287 11:0.7705311 12:0.47674419 13:0.13799305 14:0.034161491 15:0.5702774 16:0.8 17:0.66666667 18:0.30769231 20:0.45816021 21:0.3769749 22:0.51586215 23:0.089737472 24:0.41828698 25:0.57722833 26:0.46192869 27:0.42224792 28:0.1686139 29:0.67531708 30:0.41773543 31:0.51837207 32:0.67125849 33:0.045882577 34:0.014477699 35:0.46049214 36:0.54545455 37:0.6 38:0.33333333 40:0.50584762 41:0.54545455 42:0.2 44:0.14285714 45:0.6 47:0.33333333 50:0.6 51:0.375 53:0.16666667 55:0.4 58:0.11111111 59:0.22222222 
35.36670555974583 0:0.55377009 1:0.44663788 2:0.7 3:0.068965517 4:0.21280603 5:0.31325301 6:0.8313253 7:0.46963563 8:0.24731183 9:0.52799896 10:0.3598599 11:0.37142352 12:0.64534884 13:0.046531751 14:0.01242236 15:0.36923911 16:0.33333333 18:0.38461538 19:0.16666667 20:0.42047535 21:0.32270491 22:0.54855152 23:0.089737472 24:0.28355713 25:0.47422769 26:1 27:0.40638439 29:0.57575675 30:0.32451418 31:0.44162571 32:0.43983512 33:0.084606826 35:0.49731231 36:0.54545455 37:0.2 38:0.41666667 39:0.16666667 40:0.64366981 41:0.63636364 42:0.2 44:0.14285714 45:0.1 47:0.22222222 48:0.33333333 50:0.4 51:0.5 52:0.33333333 53:0.16666667 54:0.33333333 55:0.2 57:0.375 58:0.22222222 59:0.22222222 61:0.2 
-61.97543114165057 0:0.59950556 1:0.45204764 2:0.96666667 4:0.22787194 5:0.44176707 6:0.87951807 7:0.42105263 8:0.21505376 9:0.45134883 10:0.15210203 11:0.4607704 12:0.084302326 13:0.20926721 14:0.040372671 15:0.17229768 16:0.26666667 17:0.11111111 18:0.15384615 19:0.16666667 20:0.3389273 21:0.45176827 22:0.73779826 23:0.23438819 24:0.016975651 25:0.30641435 26:0.70858871 27:0.58857062 28:0.64226099 29:0.36794642 30:0.40756049 31:0.24415307 32:0.14498417 33:0.058401058 34:0.0059743876 35:0.07709637 36:0.090909091 38:0.16666667 39:0.16666667 40:0.18676053 41:0.18181818 42:0.066666667 44:0.14285714 49:0.2 51:0.125 52:0.66666667 53:0.16666667 54:0.16666667 55:0.4 56:0.33333333 58:0.11111111 59:0.11111111 
-61.01806011824075 0:0.58220025 1:0.43946638 2:0.11111111 4:0.084745763 5:0.69477912 6:0.87951807 7:0.33198381 8:0.10752688 9:0.76076904 10:0.45782299 11:0.53566278 12:0.27034884 13:0.34118797 14:0.11180124 15:0.15558706 16:0.33333333 17:0.33333333 18:0.30769231 19:0.33333333 20:0.51838336 21:0.59944304 22:0.40486165 23:0.23438819 24:0.082877483 25:0.66323209 26:1 27:0.5845848 28:0.60056522 29:0.68860107 30:0.60366705 31:0.49612371 32:0.50528358 33:0.37667865 34:0.30441398 35:0.18800548 36:0.18181818 38:0.41666667 39:0.5 40:0.3099807 41:0.27272727 42:0.066666667 44:0.14285714 49:0.2 51:0.375 53:0.33333333 54:0.16666667 55:0.4 56:0.33333333 57:0.125 58:0.11111111 59:0.11111111 60:0.33333333 
64 0:0.36588381 1:0.27267119 2:0.77777778 3:0.068965517 4:0.15442561 5:0.61445783 6:0.59036145 7:0.12145749 8:0.12903226 9:0.75929349 10:0.0157572 11:0.55939392 12:0.31104651 13:0.21506542 14:0.0062111801 15:0.26375265 16:0.53333333 17:0.33333333 18:0.23076923 20:0.36209736 21:0.31248033 22:0.42337731 23:0.089737472 24:0.23777578 25:0.45671654 26:0.49825969 27:0.4156518 28:0.1686139 29:0.63614972 30:0.33585497 31:0.54561589 32:0.65061242 33:0.27568638 34:0.046493214 35:0.44310622 36:0.27272727 37:0.2 38:0.33333333 40:0.54188714 41:0.51515152 42:0.13333333 43:0.25 44:0.42857143 45:0.1 47:0.11111111 48:0.16666667 50:0.4 51:0.25 52:0.33333333 54:0.16666667 55:0.6 58:0.33333333 59:0.11111111 60:0.66666667 
64 0:0.48454883 1:0.32296694 2:0.11111111 3:0.068965517 4:0.21468927 5:0.33333333 6:0.34939759 7:0.44939271 8:0.40860215 9:0.49769271 10:0.4333935 11:0.27807752 12:0.56104651 13:0.17257631 14:0.01863354 15:0.22655769 16:0.33333333 20:0.22643408 21:0.2457382 22:0.47177659 23:0.089737472 24:0.17100853 25:0.17302941 26:0.12152066 27:0.51623398 28:0.62987827 29:0.33001385 30:0.47744133 31:0.26686886 32:0.21893212 33:0.20863181 34:0.038151912 35:0.074789345 36:0.27272727 40:0.22700125 41:0.3030303 42:0.33333333 44:0.28571429 47:0.11111111 50:0.2 53:0.33333333 55:0.2 58:0.33333333 59:0.11111111 61:0.2 
64 0:0.78615575 1:0.58618137 2:0.92222222 3:0.068965517 4:0.29755179 5:0.62650602 6:0.92771084 7:0.44939271 8:0.17204301 9:0.89435438 10:0.16708701 11:0.79991321 12:0.36627907 13:0.53238844 14:0.01242236 15:0.59845508 16:0.46666667 17:0.22222222 18:0.69230769 19:0.16666667 20:0.69739761 21:0.38923662 22:1 23:0.089737472 24:0.41808531 25:0.33118229 26:0.46192869 27:0.51672738 28:0.42205695 29:0.54011573 30:0.25561387 31:0.52398518 32:0.45422521 33:0.28865928 34:0.004692936 35:0.45174503 36:0.45454545 38:0.75 39:0.16666667 40:0.97581469 41:1 42:0.46666667 44:0.42857143 45:0.2 47:0.33333333 48:0.16666667 50:0.2 51:0.125 53:0.16666667 55:0.2 57:0.875 58:0.33333333 59:1 61:0.2 
-64 0:0.66007417 1:0.53436151 2:0.11111111 4:0.26553672 5:0.54618474 6:1 7:0.44939271 8:0.50537634 9:0.63003947 10:0.43394815 11:0.51460737 12:0.34883721 13:0.064845457 14:0.055900621 15:0.28939715 16:0.2 18:0.23076923 19:0.16666667 20:0.3143459 21:0.30821478 22:0.40486165 23:0.23438819 24:0.23358393 25:0.21192382 26:0.39584687 27:0.54454275 28:0.69746261 29:0.44095385 30:0.4195668 31:0.40180986 32:0.17914114 33:0.079926613 34:0.082409427 35:0.13552722 36:0.27272727 38:0.25 39:0.16666667 40:0.33804928 41:0.39393939 42:0.26666667 47:0.22222222 49:0.6 53:0.16666667 54:0.33333333 55:0.4 56:0.33333333 57:0.375 59:0.11111111 61:0.2 
44.9653360337137 0:0.74165637 1:0.60499423 2:0.92222222 3:0.068965517 4:0.14124294 5:0.74297189 6:0.96385542 7:0.38866397 8:0.21505376 9:0.72624996 10:0.3730614 11:0.32705083 12:0.375 13:0.096913385 14:0.040372671 15:0.24043283 16:0.2 17:0.11111111 18:0.46153846 19:0.16666667 20:0.34051889 21:0.30362562 22:1 23:0.089737472 24:0.02928697 25:0.45232673 26:0.40651215 27:0.448707 28:0.39775637 29:0.47054112 30:0.33412217 31:0.24351482 32:0.26095453 33:0.097365158 34:0.014390368 35:0.14788489 36:0.090909091 38:0.16666667 39:0.16666667 40:0.48416033 41:0.48484848 42:0.33333333 43:1 44:0.14285714 45:0.2 48:0.16666667 49:0.2 50:0.2 51:0.125 54:0.16666667 58:0.55555556 59:0.11111111 
28.33987895339046 0:0.44499382 1:0.20291368 2:0.41111111 3:0.068965517 4:0.079096045 5:0.52610442 6:0.96385542 7:0.10526316 8:0.12903226 9:0.30454043 10:0.39164089 11:0.19136115 12:0.32848837 13:0.19578254 14:0.12111801 15:0.070866388 16:0.4 17:0.44444444 18:0.15384615 19:0.33333333 20:0.24259085 21:0.31161527 22:0.37203277 23:0.089737472 24:0.036885002 25:0.40399961 26:0.41717743 27:0.42138533 28:0.1686139 29:0.41676953 30:0.46882859 31:0.29210162 32:0.26411259 33:0.12650715 34:0.15500196 35:0.044179048 36:0.090909091 37:0.2 38:0.16666667 39:0.33333333 40:0.17754059 41:0.18181818 44:0.14285714 45:0.4 49:0.2 50:0.4 57:0.125 58:0.11111111 59:0.22222222 61:0.2 
-64 0:0.6328801 1:0.50586058 2:0.96666667 4:0.19962335 5:0.60240964 6:0.6746988 7:0.24696356 8:0.21505376 9:0.78644267 10:0.38691559 11:0.58587602 12:0.24418605 13:0.40692896 14:0.0031055901 15:0.22298206 16:0.26666667 17:0.11111111 18:0.23076923 20:0.52819433 21:0.55515008 22:0.73779826 23:0.23438819 25:0.58788608 26:0.52553165 27:0.64646149 28:0.569723 29:0.70750747 30:0.54559895 31:0.53766539 32:0.37739397 33:0.28818064 34:0.0040652189 35:0.19498895 38:0.25 40:0.3388441 41:0.33333333 42:0.13333333 44:0.28571429 45:0.2 49:0.2 51:0.25 52:0.66666667 54:0.16666667 56:0.33333333 57:0.25 58:0.11111111 59:0.11111111 61:0.2 
-64 0:0.60939431 1:0.47851121 2:0.11111111 4:0.24293785 5:0.6184739 6:0.79518072 7:0.27125506 8:0.21505376 9:0.62510044 10:0.40505995 11:0.30334612 12:0.59593023 13:0.13858029 14:0.043478261 15:0.30482554 16:0.26666667 17:0.22222222 18:0.30769231 19:0.16666667 20:0.38704579 21:0.40684398 22:0.51586215 23:0.23438819 24:0.217451 25:0.29040066 26:0.41955254 27:0.65202258 28:0.67139118 29:0.39223734 30:0.6087483 31:0.23729351 32:0.31602214 33:0.044214633 34:0.027938758 35:0.14513452 36:0.18181818 37:0.2 38:0.33333333 39:0.16666667 40:0.30316793 41:0.33333333 42:0.066666667 45:0.4 46:0.25 47:0.22222222 49:0.4 54:0.16666667 56:0.33333333 57:0.25 58:0.22222222 59:0.22222222 
-64 0:0.54017305 1:0.40869833 2:0.92222222 3:0.068965517 4:0.28436911 5:0.41365462 6:0.6746988 7:0.3562753 8:0.17204301 9:0.63876644 10:0.018046313 11:0.53681712 12:0.38372093 13:0.033747019 14:0.031055901 15:0.3245176 16:0.4 17:0.33333333 18:0.30769231 19:0.16666667 20:0.42411886 21:0.41202031 22:1 23:0.089737472 24:0.32083114 25:0.44874175 26:0.35914095 27:0.48974538 28:0.084306952 29:0.57569776 30:0.17803629 31:0.53148641 32:0.36343894 33:0.068800109 34:0.032907207 35:0.36743531 36:0.27272727 37:0.2 38:0.33333333 40:0.40767571 41:0.39393939 42:0.13333333 43:0.25 44:0.28571429 45:0.3 47:0.11111111 48:0.16666667 49:0.2 50:0.4 51:0.25 52:0.33333333 58:0.11111111 59:0.11111111 60:0.33333333 61:0.2 
-64 0:0.55624227 1:0.39111659 2:0.96666667 3:0.068965517 4:0.10546139 5:0.29718876 6:0.87951807 7:0.34412955 8:0.21505376 9:0.43539358 10:0.36120825 11:0.32334737 12:0.15406977 13:0.18003634 14:0.034161491 15:0.094092383 16:0.2 17:0.11111111 18:0.15384615 19:0.16666667 20:0.37995393 21:0.48263892 22:0.73779826 23:0.089737472 24:0.17282313 25:0.37110459 26:0.70858871 27:0.48997923 28:0.62987827 29:0.49275045 30:0.60946332 31:0.31177261 32:0.20668929 33:0.20425105 34:0.077553723 35:0.1178509 36:0.090909091 38:0.25 39:0.33333333 40:0.21630521 41:0.21212121 42:0.066666667 44:0.14285714 45:0.1 50:0.2 51:0.125 53:0.16666667 57:0.25 58:0.11111111 59:0.22222222 60:0.33333333 61:0.4 
-64 0:0.57478368 1:0.44787168 2:0.41111111 4:0.19774011 5:0.63855422 6:0.91566265 7:0.43319838 8:0.21505376 9:0.62157771 10:0.41132361 11:0.39944292 12:0.29360465 13:0.28982721 14:0.0062111801 15:0.26449279 16:0.26666667 17:0.11111111 18:0.23076923 19:0.16666667 20:0.40480704 21:0.3801522 22:0.37203277 23:0.23438819 24:0.35898261 25:0.41027591 26:0.69792344 27:0.5334493 28:0.68521455 29:0.47367331 30:0.43618636 31:0.37122153 32:0.35836451 33:0.014209207 34:0.0062304957 35:0.21957495 36:0.36363636 38:0.33333333 39:0.16666667 40:0.34536164 41:0.42424242 42:0.13333333 44:0.28571429 47:0.44444444 49:0.4 51:0.125 55:0.4 56:0.33333333 57:0.25 58:0.22222222 59:0.11111111 60:0.33333333 61:0.2 
64 0:0.64153276 1:0.51719618 2:0.45555556 3:0.068965517 4:0.033898305 5:0.46184739 6:0.8313253 7:0.57894737 8:0.50537634 9:0.64220677 10:0.29018133 11:0.58542625 12:0.25581395 13:0.33816265 14:0.0031055901 15:0.11016711 16:0.066666667 18:0.15384615 19:0.16666667 20:0.40470796 21:0.46507326 22:0.35731898 23:0.089737472 24:0.51308855 25:0.50389403 26:1 27:0.5882119 28:0.42000254 29:0.61770438 30:0.35522595 31:0.61070969 32:0.19722804 33:0.43097631 34:0.020573195 35:0.29676964 36:0.36363636 37:0.2 38:0.25 39:0.16666667 40:0.19602589 41:0.27272727 42:0.13333333 47:0.44444444 50:0.2 51:0.375 54:0.16666667 55:0.2 57:0.125 58:0.11111111 60:0.33333333 61:0.2 
-64 0:0.78368356 1:0.74901533 2:0.41111111 3:0.068965517 4:0.28060264 5:0.62650602 6:0.92771084 7:0.75303644 8:0.79569892 9:0.76607373 10:0.46989371 11:0.49058734 12:0.125 13:0.32415961 14:0.027950311 15:0.22748548 16:0.13333333 18:0.38461538 19:0.33333333 20:0.39599948 21:0.53479851 22:0.37203277 23:0.089737472 24:0.073995026 25:0.5165015 26:0.70858871 27:0.58321573 28:0.74727533 29:0.62123473 30:0.50851676 31:0.50412325 32:0.16354874 33:0.48618393 34:0.010520502 35:0.20976354 38:0.25 39:0.33333333 40:0.17320313 41:0.18181818 42:0.066666667 43:0.5 45:0.1 50:0.2 51:0.25 52:0.33333333 55:0.2 57:0.25 59:0.22222222 
-64 0:0.59332509 1:0.47269587 2:0.71111111 4:0.3126177 5:0.5060241 6:1 7:0.32793522 8:0.21505376 9:0.82124502 10:0.2198776 11:0.74141253 12:0.49709302 13:0.041141125 14:0.096273292 15:0.43283956 16:0.4 17:0.11111111 18:0.46153846 19:0.33333333 20:0.58534141 21:0.47318885 22:0.57308988 23:0.23438819 24:0.34360424 25:0.48215889 26:0.70858871 27:0.59385385 28:0.38036119 29:0.7013781 30:0.44496942 31:0.66398272 32:0.37587164 33:0.021539215 34:0.040833573 35:0.55724766 36:0.27272727 37:0.2 38:0.58333333 39:0.33333333 40:0.607653 41:0.54545455 42:0.066666667 45:0.1 47:0.11111111 48:0.16666667 49:0.6 51:0.375 52:0.33333333 53:0.16666667 54:0.16666667 55:0.8 56:0.33333333 57:0.375 58:0.11111111 59:0.11111111 60:0.33333333 61:0.2 
-64 0:0.7342398 1:0.59823512 2:0.42222222 4:0.33709981 5:0.72289157 6:0.91566265 7:0.40890688 8:0.10752688 9:0.7071196 10:0.30704783 11:0.39495716 12:0.46802326 13:0.097772867 14:0.02173913 15:0.32821833 16:0.33333333 17:0.22222222 18:0.46153846 19:0.33333333 20:0.61756998 21:0.53144316 22:0.44924319 23:0.23438819 24:0.43183574 25:0.65884228 26:0.69792344 27:0.46498425 28:0.55929709 29:0.53124809 30:0.36500106 31:0.43562234 32:0.49576003 33:0.07358629 34:0.0007126436 35:0.40422904 36:0.45454545 37:0.2 38:0.41666667 39:0.16666667 40:0.48813444 41:0.48484848 42:0.33333333 43:0.25 45:0.1 47:0.11111111 49:0.2 51:0.5 53:0.5 54:0.16666667 56:0.66666667 57:0.125 58:0.22222222 59:0.11111111 
-64 0:0.67737948 1:0.57248612 2:0.81111111 4:0.11299435 5:0.69076305 6:0.8313253 7:0.49797571 8:0.44086022 9:0.79527008 10:0.47054641 11:0.45990544 12:0.45348837 13:0.49479378 14:0.23602484 15:0.15094812 16:0.13333333 18:0.23076923 19:0.16666667 20:0.40026101 21:0.51007199 22:0.74953155 23:0.23438819 24:0.1652251 25:0.62791211 26:1 27:0.55733939 28:0.55589963 29:0.62701914 30:0.49075891 31:0.48695628 32:0.22791528 33:0.60184757 34:0.14737541 35:0.14467958 36:0.18181818 37:0.2 38:0.25 39:0.16666667 40:0.14527081 41:0.21212121 42:0.13333333 45:0.1 46:0.25 47:0.22222222 51:0.25 55:0.2 56:0.33333333 57:0.25 58:0.11111111 59:0.11111111 
64 0:0.66007417 1:0.53436151 2:0.45555556 3:0.068965517 4:0.15630885 5:0.48995984 6:0.91566265 7:0.50202429 8:0.21505376 9:0.63437078 10:0.41893563 11:0.33850092 12:0.27906977 13:0.072261492 14:0.02484472 15:0.23017503 16:0.26666667 17:0.11111111 18:0.30769231 19:0.33333333 20:0.45528131 21:0.44148872 22:0.35731898 23:0.089737472 24:0.13098964 25:0.60856851 26:0.69792344 27:0.60916962 28:0.42000254 29:0.62816303 30:0.54301163 31:0.46106142 32:0.35734803 33:0.24856886 34:0.015200463 35:0.19725548 36:0.36363636 37:0.2 38:0.25 39:0.16666667 40:0.30296355 41:0.39393939 42:0.2 43:0.25 45:0.4 47:0.44444444 49:0.4 50:0.2 51:0.25 57:0.125 58:0.11111111 61:0.2 
64 0:0.31025958 1:0.10806692 2:0.14444444 3:0.068965517 4:0.38418079 5:0.20481928 6:0.6746988 7:0.13765182 8:0.17204301 9:0.39117416 10:0.026262 11:0.58159656 12:0.51453488 13:0.24530164 14:0.20807453 15:0.28407018 16:0.6 17:0.55555556 18:0.23076923 19:0.16666667 20:0.26543526 21:0.28912763 23:0.089737472 25:0.3513395 26:0.41293195 27:0.37346915 28:0.38036119 29:0.43213983 30:0.36101327 31:0.45317588 32:0.39425586 33:0.17237082 34:0.059108153 35:0.27500142 36:0.090909091 38:0.16666667 40:0.29160895 41:0.3030303 43:0.25 44:0.42857143 45:0.1 48:0.16666667 49:0.2 50:0.2 51:0.25 55:1 57:0.125 61:0.2 
64 0:0.76761434 1:0.69413942 2:0.77777778 4:0.14312618 5:0.68674699 6:0.96385542 7:0.41295547 8:0.10752688 9:0.86538205 10:0.21775703 11:0.78590827 12:0.10465116 13:0.32028652 14:0.027950311 15:0.21575782 16:0.13333333 17:0.11111111 18:0.38461538 19:0.33333333 20:0.47750226 21:0.58065893 22:0.42337731 23:0.23438819 24:0.040436465 25:0.73290276 26:1 27:0.6078164 28:0.39775637 29:0.75720558 30:0.52030622 31:0.66222628 32:0.20634841 33:0.2241534 34:0.15159374 35:0.28076221 36:0.090909091 38:0.33333333 39:0.33333333 40:0.24580447 41:0.24242424 42:0.2 43:0.25 44:0.14285714 45:0.1 48:0.16666667 49:0.2 51:0.375 54:0.16666667 56:0.33333333 57:0.125 59:0.11111111 
-64 0:0.61557478 1:0.4924258 2:0.14444444 3:0.068965517 4:0.23352166 5:0.58232932 6:0.79518072 7:0.39676113 8:0.48387097 9:0.56448283 10:0.37159353 11:0.48289292 12:0.40988372 13:0.046764862 14:0.0062111801 15:0.31863813 16:0.26666667 18:0.30769231 19:0.33333333 20:0.41238818 21:0.32499099 23:0.089737472 24:0.39770218 25:0.42176667 26:0.68221595 27:0.44216857 28:0.54557132 29:0.43625485 30:0.38796224 31:0.41538879 32:0.19697933 33:0.0069582864 34:0.003085819 35:0.2995403 36:0.63636364 37:0.2 38:0.41666667 39:0.5 40:0.54486204 41:0.60606061 42:0.26666667 44:0.14285714 46:0.5 47:0.44444444 48:0.16666667 49:0.2 50:0.2 51:0.125 52:0.33333333 53:0.33333333 55:0.2 57:0.25 58:0.33333333 59:0.11111111 60:0.33333333 61:0.2 
-64 0:0.54882571 1:0.3703317 2:0.11111111 4:0.06779661 5:0.562249 6:0.59036145 7:0.4534413 8:0.4516129 9:0.49107216 10:0.48866322 11:0.43984842 12:0.36046512 13:0.21936841 14:0.2173913 15:0.14480803 16:0.13333333 18:0.076923077 20:0.37203033 21:0.49992751 22:0.40486165 23:0.23438819 24:0.095458943 25:0.56201735 26:0.49825969 27:0.58199242 28:0.51535558 29:0.46504303 30:0.596852 31:0.40514754 32:0.55920281 33:0.30491942 34:0.65751873 35:0.3087562 36:0.090909091 38:0.16666667 40:0.18494379 41:0.18181818 42:0.2 45:0.1 48:0.16666667 51:0.25 54:0.16666667 55:0.2 56:0.33333333 60:0.33333333 61:0.4 
36.47653208474487 0:0.73671199 1:0.70371824 2:0.45555556 3:0.068965517 4:0.079096045 5:0.58634538 6:0.96385542 7:0.61133603 8:0.41935484 9:0.76828058 10:0.67189354 11:0.42085648 12:0.30813953 13:0.46432708 14:0.32919255 15:0.11387826 16:0.066666667 18:0.30769231 19:0.5 20:0.44823082 21:0.70219635 22:0.35731898 23:0.089737472 24:0.20993315 25:0.48692231 26:1 27:0.79848502 28:0.77745688 29:0.64657664 30:0.68336351 31:0.41227719 32:0.33669989 33:0.55879864 34:0.42549023 35:0.25458234 36:0.090909091 38:0.33333333 39:0.5 40:0.14413535 41:0.12121212 45:0.1 47:0.11111111 49:0.2 50:0.2 51:0.375 54:0.33333333 58:0.11111111 59:0.11111111 
63.82140003490948 0:0.72558714 1:0.58060077 2:0.7 3:0.068965517 4:0.37288136 5:0.81927711 6:0.92771084 7:0.4048583 8:0.17204301 9:0.77459982 10:0.3915153 11:0.46211147 12:0.43604651 13:0.035820697 14:0.0093167702 15:0.44998801 16:0.4 17:0.22222222 18:0.69230769 19:0.66666667 20:0.74503927 21:0.57531077 22:0.54855152 23:0.089737472 24:0.57900586 25:0.60586996 26:0.72162911 27:0.61793399 28:0.4234 29:0.63631044 30:0.49712556 31:0.30985415 32:0.56997429 33:0.062780846 34:0.013827899 35:0.52639155 36:0.45454545 37:0.2 38:0.75 39:0.66666667 40:0.65148178 41:0.57575758 42:0.066666667 44:0.42857143 45:0.1 46:0.25 47:0.33333333 50:0.4 51:0.5 53:0.16666667 54:0.5 58:0.11111111 59:0.55555556 61:0.2 
-22.17103294953554 0:0.55995056 1:0.35299198 2:0.71111111 3:0.068965517 4:0.084745763 5:0.24899598 6:0.68674699 7:0.25101215 8:0.21505376 9:0.60163366 10:0.63965595 12:0.014244186 13:0.0036989438 14:0.015217391 15:0.12502215 16:0.2 17:0.11111111 18:0.076923077 20:0.2168063 21:0.32392512 22:0.57308988 23:0.089737472 24:0.19241086 25:0.15974473 26:0.23192806 27:0.58420824 28:0.76115 29:0.39238794 30:0.53756567 32:0.020949252 33:0.0040417919 34:0.027836535 35:0.085874926 36:0.18181818 38:0.083333333 40:0.056568639 41:0.090909091 45:0.2 47:0.11111111 49:0.4 50:0.2 52:0.33333333 53:0.16666667 58:0.11111111 61:0.2 
-64 0:0.58961681 1:0.4525166 2:0.45555556 3:0.068965517 4:0.15819209 5:0.40963855 6:0.60240964 7:0.4291498 8:0.17204301 9:0.49878456 10:0.3571632 11:0.35800138 12:0.1744186 13:0.25648576 14:0.037267081 15:0.14265014 16:0.26666667 17:0.22222222 18:0.15384615 20:0.42016659 21:0.46126868 22:0.35731898 23:0.089737472 24:0.23571518 25:0.36076312 26:0.52553165 27:0.68535071 28:0.56895138 29:0.47829208 30:0.60378284 31:0.29658049 32:0.37079706 33:0.036812901 34:0.033664672 35:0.23757851 36:0.27272727 38:0.16666667 40:0.2155331 41:0.3030303 42:0.2 45:0.3 46:0.25 47:0.33333333 50:0.2 51:0.25 52:0.33333333 55:0.2 57:0.125 61:0.2 
-64 0:0.80840544 1:0.76866132 2:0.41111111 4:0.071563089 5:0.71485944 6:1 7:0.60728745 8:0.31182796 9:0.6838125 10:0.74588375 11:0.37160496 12:0.37790698 13:0.24302091 14:0.14596273 15:0.18843496 16:0.066666667 18:0.46153846 19:0.66666667 20:0.49293866 21:0.63527135 22:0.37203277 23:0.23438819 24:0.14176428 25:0.60586996 26:0.72162911 27:0.60680261 28:0.58197106 29:0.58675695 30:0.78858879 31:0.34210269 32:0.48800802 33:0.23657695 34:0.20971 35:0.27170536 36:0.090909091 38:0.5 39:0.66666667 40:0.26796866 41:0.21212121 46:0.25 49:0.4 51:0.25 54:0.16666667 56:0.66666667 57:0.25 58:0.22222222 59:0.22222222 
-64 0:0.40420272 1:0.23956406 2:0.11111111 3:0.068965517 4:0.31638418 5:0.48995984 6:0.91566265 7:0.24696356 8:0.17204301 9:0.53192853 10:0.31241975 11:0.30669098 12:0.45348837 13:0.21316275 14:0.13975155 15:0.28854233 16:0.53333333 17:0.33333333 18:0.23076923 19:0.16666667 20:0.38843831 21:0.40830711 22:0.36093528 23:0.089737472 24:0.16865199 25:0.60856851 26:0.69792344 27:0.54362636 28:0.43382592 29:0.54855136 30:0.35129859 31:0.4660509 32:0.24462063 33:0.18447637 34:0.035791749 35:0.30401286 36:0.27272727 37:0.2 38:0.33333333 39:0.16666667 40:0.30716476 41:0.33333333 42:0.066666667 44:0.28571429 45:0.3 46:0.25 47:0.11111111 49:0.2 50:0.4 51:0.25 53:0.16666667 55:0.2 57:0.25 60:0.33333333 
64 0:0.58343634 1:0.44108575 2:0.45555556 3:0.068965517 4:0.24293785 5:0.52610442 6:0.71084337 7:0.33603239 8:0.21505376 9:0.49252966 10:0.48088266 11:0.36938405 12:0.4244186 13:0.12529725 14:0.0062111801 15:0.25508981 16:0.2 17:0.11111111 18:0.30769231 19:0.16666667 20:0.37626901 21:0.43145705 22:0.35731898 23:0.089737472 24:0.28302575 25:0.49399148 26:0.72162911 27:0.59626012 28:0.69903793 29:0.47511076 30:0.4765938 31:0.42745821 32:0.60715801 33:0.30517183 34:0.34142161 35:0.31751843 36:0.18181818 38:0.25 39:0.16666667 40:0.24873396 41:0.27272727 43:0.25 44:0.14285714 45:0.1 46:0.25 47:0.11111111 49:0.2 50:0.2 51:0.25 53:0.16666667 54:0.16666667 57:0.375 61:0.4 
-64 0:0.6736712 1:0.54006169 2:1 3:0.068965517 4:0.38606403 5:0.51004016 6:0.92771084 7:0.38866397 8:0.24731183 9:0.73441041 10:0.33911689 11:0.52864382 12:0.76162791 13:0.072934194 14:6.0460163e-17 15:0.58914591 16:0.33333333 18:0.61538462 19:0.33333333 20:0.49407232 21:0.40414279 22:0.72820202 23:0.089737472 24:0.57249757 25:0.46777034 26:0.70858871 27:0.44172725 28:0.33909305 29:0.55301194 30:0.33877032 31:0.42564263 32:0.70357747 33:0.207079 34:0.010857131 35:0.72237254 36:0.63636364 37:0.6 38:0.75 39:0.33333333 40:0.56891109 41:0.54545455 44:0.28571429 47:0.33333333 48:0.33333333 49:0.4 50:0.2 51:0.375 53:0.33333333 54:0.16666667 55:0.2 57:0.375 59:0.44444444 60:0.33333333 
64 0:0.74042027 1:0.6245008 2:0.7 3:0.068965517 4:0.11299435 5:0.79518072 6:0.87951807 7:0.15789474 8:0.21505376 9:0.82776514 10:0.50343063 11:0.28346759 12:0.41569767 13:0.057363229 14:0.0093167702 15:0.16197734 16:0.26666667 17:0.33333333 18:0.38461538 19:0.5 20:0.53980713 21:0.54317693 22:0.54855152 23:0.089737472 24:0.12484636 25:0.70866078 26:1 27:0.55472514 28:0.59966253 29:0.63840776 30:0.54487049 31:0.32334001 32:0.34036071 33:0.15392221 34:0.041458935 35:0.1737183 36:0.090909091 38:0.41666667 39:0.5 40:0.37810832 41:0.36363636 42:0.26666667 44:0.14285714 45:0.1 46:0.25 49:0.2 50:0.2 51:0.25 53:0.16666667 54:0.16666667 55:0.2 57:0.25 58:0.11111111 59:0.22222222 
64 0:0.53893696 1:0.42024515 2:0.7 4:0.27495292 5:0.41365462 6:0.87951807 7:0.15789474 8:0.10752688 9:0.64751146 10:0.19908557 11:0.56531655 12:0.48255814 13:0.14130554 14:0.040372671 15:0.37634868 16:0.4 17:0.22222222 18:0.38461538 19:0.16666667 20:0.51922534 21:0.45057492 22:0.54855152 23:0.23438819 24:0.31231272 25:0.5440092 26:0.70858871 27:0.41457078 28:0.58197106 29:0.61756159 30:0.48551709 31:0.43014736 32:0.45703324 33:0.06727062 34:0.0086529634 35:0.31945565 36:0.36363636 37:0.2 38:0.5 39:0.33333333 40:0.50389463 41:0.48484848 42:0.13333333 44:0.28571429 45:0.1 46:0.25 47:0.22222222 49:0.2 51:0.25 53:0.16666667 54:0.5 55:0.2 56:0.66666667 57:0.125 58:0.11111111 59:0.22222222 60:0.33333333 
64 0:0.70580964 1:0.56955583 2:0.41111111 4:0.1393597 5:0.48995984 6:0.63855422 7:0.55870445 8:0.40860215 9:0.63907285 10:0.63455061 11:0.29356066 12:0.40988372 13:0.026585833 14:0.0093167702 15:0.25984342 16:0.13333333 18:0.30769231 20:0.46549787 21:0.39396325 22:0.37203277 23:0.23438819 24:0.3245851 25:0.41874072 26:0.41293195 27:0.53756776 28:0.64226099 29:0.57810701 30:0.5686222 31:0.42239788 32:0.34921144 33:0.056887803 34:0.061424824 35:0.34773091 36:0.27272727 38:0.33333333 40:0.42647894 41:0.51515152 42:0.26666667 44:0.14285714 46:0.5 47:0.33333333 51:0.25 52:0.33333333 54:0.33333333 55:0.2 56:0.33333333 57:0.625 58:0.11111111 59:0.11111111 
64 0:0.51668727 1:0.40843924 3:0.068965517 4:0.071563089 5:0.59839357 6:0.91566265 7:0.27530364 8:0.24731183 9:0.48951422 10:0.27637615 11:0.39254297 12:0.30813953 13:0.078763849 14:0.01863354 15:0.25493344 16:0.33333333 18:0.46153846 19:0.5 20:0.3932545 21:0.32787303 22:0.23438819 23:0.089737472 24:0.31714486 25:0.5242542 26:0.69792344 27:0.48829198 28:0.33569559 29:0.50034188 30:0.33493871 31:0.49812189 32:0.31623281 33:0.024008405 34:0.035912329 35:0.42673971 36:0.54545455 37:0.2 38:0.5 39:0.33333333 40:0.56073578 41:0.54545455 43:0.25 45:0.2 46:0.25 47:0.33333333 48:0.16666667 49:0.2 50:0.2 51:0.25 53:0.16666667 54:0.33333333 55:0.2 56:0.33333333 57:0.25 58:0.22222222 59:0.22222222 60:0.33333333 61:0.2 
64 0:0.58714462 1:0.44594386 2:0.45555556 4:0.3992467 5:0.7188755 6:0.96385542 7:0.23481781 8:0.10752688 9:0.80640477 10:0.24194749 11:0.76472921 12:0.43604651 13:0.61666922 14:0.0062111801 15:0.30675409 16:0.4 17:0.33333333 18:0.38461538 19:0.5 20:0.4576409 21:0.52764254 22:0.35731898 23:0.23438819 24:0.35684874 25:0.70501685 26:0.70858871 27:0.41285685 28:0.48464442 29:0.67886234 30:0.62687869 31:0.53761877 32:0.21601077 33:0.31615952 34:0.027250163 35:0.30130411 36:0.27272727 38:0.41666667 39:0.5 40:0.27387306 41:0.27272727 42:0.066666667 44:0.28571429 45:0.2 46:0.25 47:0.11111111 48:0.16666667 49:0.4 51:0.25 53:0.16666667 55:0.2 56:0.33333333 59:0.11111111 
64 0:0.50309023 1:0.33582665 2:0.41111111 4:0.15065913 5:0.65060241 6:0.96385542 7:0.44534413 8:0.10752688 9:0.47872203 10:0.31415421 11:0.30795622 12:0.22965116 13:0.036438926 14:0.01863354 15:0.21620607 16:0.33333333 17:0.22222222 18:0.23076923 19:0.16666667 20:0.35003413 21:0.40044616 22:0.37203277 23:0.23438819 24:0.12827325 25:0.35322232 26:0.46192869 27:0.58703894 28:0.67478864 29:0.41701146 30:0.52058425 31:0.16061991 32:0.38550782 33:0.091432367 34:0.044289179 35:0.17520198 36:0.27272727 37:0.2 38:0.25 39:0.16666667 40:0.24253435 41:0.27272727 44:0.14285714 45:0.2 47:0.22222222 49:0.2 51:0.125 53:0.16666667 54:0.16666667 55:0.2 56:0.33333333 57:0.125 58:0.11111111 59:0.22222222 61:0.2 
64 0:0.62422744 1:0.49290561 2:0.96666667 3:0.068965517 4:0.18455744 5:0.67068273 6:0.8313253 7:0.44939271 8:0.21505376 9:0.51247371 10:0.53398279 11:0.3324945 12:0.21802326 13:0.14358897 14:0.046583851 15:0.1835354 16:0.26666667 17:0.11111111 18:0.23076923 19:0.16666667 20:0.41207987 21:0.52603823 22:0.73779826 23:0.089737472 24:0.094297118 25:0.72337334 26:1 27:0.51623398 28:0.5063639 29:0.51072218 30:0.61385217 31:0.26679106 32:0.11476494 33:0.26705036 34:0.039861722 35:0.11945924 36:0.27272727 37:0.2 38:0.25 39:0.16666667 40:0.190394 41:0.21212121 42:0.13333333 44:0.28571429 47:0.11111111 50:0.2 51:0.25 53:0.33333333 58:0.11111111 59:0.22222222 61:0.2 
-64 0:0.71817058 1:0.64338253 2:0.7 4:0.22222222 5:0.4939759 6:0.87951807 7:0.62348178 8:0.5483871 9:0.68812576 10:0.52873039 11:0.54224556 12:0.30523256 13:0.35387784 14:0.099378882 15:0.20190353 16:0.13333333 18:0.23076923 19:0.16666667 20:0.43848459 21:0.59660705 22:0.54855152 23:0.23438819 24:0.32346222 25:0.60622748 26:0.70858871 27:0.54734186 28:0.77892231 29:0.48008235 30:0.71867156 31:0.41047003 32:0.23180242 33:0.34178926 34:0.029884671 35:0.23309904 36:0.18181818 38:0.25 39:0.16666667 40:0.1077779 41:0.18181818 42:0.2 44:0.14285714 45:0.1 46:0.25 47:0.22222222 51:0.25 56:0.33333333 57:0.125 59:0.11111111 
64 0:0.33868974 1:0.14312153 2:0.11111111 3:0.11494253 4:0.088512241 5:0.52208835 6:0.71084337 7:0.10931174 8:0.17204301 9:0.44474632 10:0.042356287 11:0.28112297 12:0.36918605 13:0.098478162 14:0.17701863 15:0.095624798 16:0.53333333 17:0.55555556 18:0.15384615 19:0.16666667 20:0.34137204 21:0.3736085 22:0.51586215 23:0.47177659 24:0.34612031 25:0.47685087 26:0.72162911 27:0.45602451 28:0.44607397 29:0.38418369 30:0.43792113 31:0.27526614 32:0.39658514 33:0.17218773 34:0.14794406 35:0.1802289 36:0.18181818 38:0.16666667 39:0.16666667 40:0.22856818 41:0.3030303 44:0.57142857 45:0.4 46:0.5 47:0.22222222 50:0.2 51:0.125 52:0.33333333 54:0.16666667 57:0.125 
64 0:0.54635352 1:0.39917262 2:0.92222222 3:0.068965517 4:0.33898305 5:0.437751 6:1 7:0.37246964 8:0.21505376 9:0.60001648 10:0.1076742 11:0.5592979 12:0.14244186 13:0.1288454 14:0.01242236 15:0.31378027 16:0.4 17:0.44444444 18:0.30769231 19:0.16666667 20:0.35143381 21:0.38480238 22:1 23:0.089737472 24:0.24257449 25:0.37491761 26:0.39584687 27:0.62124333 28:0.42000254 29:0.4611622 30:0.36194147 31:0.37288233 32:0.26912091 33:0.068255265 34:0.0048199071 35:0.16324207 36:0.27272727 37:0.2 38:0.33333333 39:0.16666667 40:0.2897695 41:0.3030303 45:0.3 47:0.22222222 49:0.8 50:0.2 51:0.125 53:0.16666667 54:0.16666667 55:0.4 57:0.125 58:0.11111111 
-50.08813774858022 0:0.47342398 1:0.32994578 2:0.11111111 3:0.068965517 4:0.34651601 5:0.59839357 6:0.91566265 7:0.32793522 8:0.17204301 9:0.81594033 10:0.34270533 11:0.58512953 12:0.4505814 13:0.35079791 14:0.23602484 15:0.33051174 16:0.53333333 17:0.44444444 18:0.38461538 19:0.33333333 20:0.47704232 21:0.48070028 22:0.40486165 23:0.089737472 24:0.099118508 25:0.54277362 26:0.69792344 27:0.61582461 28:0.56895138 29:0.80144733 30:0.46679792 31:0.57850549 32:0.53550664 33:0.28056929 34:0.26523109 35:0.33183312 36:0.18181818 38:0.33333333 39:0.16666667 40:0.38003861 41:0.36363636 43:0.25 44:0.14285714 45:0.4 49:0.4 50:0.2 51:0.375 53:0.33333333 54:0.16666667 55:0.2 57:0.25 58:0.11111111 
64 0:0.62917182 1:0.50067859 2:0.7 3:0.068965517 4:0.079096045 5:0.60240964 6:0.3253012 7:0.34412955 8:0.46236559 9:0.59537875 10:0.40802324 11:0.28132772 12:0.63953488 13:0.15941892 14:0.50931677 15:0.16229007 16:0.066666667 18:0.15384615 20:0.21817453 21:0.25368523 22:0.54855152 23:0.089737472 24:0.2389951 25:0.42721899 26:0.30207656 27:0.34827365 28:0.43382592 29:0.49271901 30:0.41166537 31:0.34319365 32:0.60389751 33:0.30398779 34:0.45267167 35:0.23005663 36:0.36363636 37:0.2 38:0.16666667 40:0.12867038 41:0.24242424 42:0.066666667 47:0.44444444 50:0.2 51:0.125 54:0.16666667 55:0.2 57:0.375 59:0.22222222 61:0.2 
45.68436329022303 0:0.43016069 1:0.35933545 2:0.11111111 4:0.48587571 5:0.51405622 6:0.92771084 7:0.21052632 8:0.21505376 9:0.61659749 10:0.093194851 11:0.46800149 12:0.39825581 13:0.051970706 14:0.0031055901 15:0.51967642 16:0.6 17:0.22222222 18:0.61538462 19:0.5 20:0.22835786 21:0.19001013 22:0.47177659 23:0.23438819 24:0.35525656 25:0.43716004 26:0.41717743 27:0.38410224 28:0.55589963 29:0.5367569 30:0.28255868 31:0.43486123 32:0.29713022 33:0.020043972 34:0.042794264 35:0.23065541 36:0.90909091 37:0.6 38:0.33333333 39:0.16666667 40:0.66917225 41:0.66666667 43:1 44:0.14285714 47:0.33333333 49:0.4 51:0.125 53:1 54:0.83333333 55:0.2 56:0.66666667 58:0.22222222 59:0.22222222 
-64 0:0.65512979 1:0.52090506 2:0.81111111 3:0.068965517 4:0.11487759 5:0.63052209 6:0.68674699 7:0.44129555 8:0.17204301 9:0.81814719 10:0.19686695 11:0.7187962 12:0.40988372 13:0.29153119 14:0.01242236 15:0.34705557 16:0.33333333 17:0.22222222 18:0.53846154 19:0.33333333 20:0.61441719 21:0.42025177 22:0.74953155 23:0.089737472 24:0.18505381 25:0.4325684 26:0.49825969 27:0.50976655 28:0.44607397 29:0.59806949 30:0.33670531 31:0.60519742 32:0.43044479 33:0.33298191 34:0.0032443272 35:0.45987382 36:0.27272727 38:0.58333333 40:0.80447371 41:0.72727273 42:0.13333333 43:0.25 45:0.3 46:0.5 47:0.11111111 49:0.4 50:0.4 51:0.25 52:0.66666667 53:0.16666667 54:0.5 57:0.5 58:0.33333333 59:0.11111111 60:0.33333333 61:0.2 
-64 0:0.60939431 1:0.47690242 2:1 3:0.068965517 4:0.11299435 5:0.47389558 6:0.63855422 7:0.46153846 8:0.17204301 9:0.6875 10:0.41585282 11:0.66594651 12:0.11046512 13:0.16944668 14:0.0031055901 15:0.21256789 16:0.26666667 17:0.33333333 18:0.23076923 20:0.45491475 21:0.49992657 22:0.72820202 23:0.089737472 24:0.15750249 25:0.43617294 26:0.53400463 27:0.59194069 28:0.56895138 29:0.61602793 30:0.51299748 31:0.58695056 32:0.22443704 33:0.28848268 34:0.0021383346 35:0.2863885 36:0.090909091 38:0.25 40:0.29496991 41:0.3030303 42:0.2 45:0.3 47:0.11111111 49:0.2 50:0.2 51:0.25 54:0.33333333 55:0.2 57:0.125 59:0.11111111 61:0.2 
6.142141865076594 0:0.56118665 1:0.44052249 2:0.11111111 4:0.10546139 5:0.42971888 6:0.59036145 7:0.36032389 8:0.21505376 9:0.61001813 10:0.45755641 11:0.31541424 12:0.36337209 13:0.045233323 14:1.1797437e-16 15:0.1893002 16:0.26666667 17:0.11111111 18:0.23076923 20:0.25217288 21:0.2309792 22:0.36093528 23:0.23438819 24:0.1503354 25:0.29596454 26:0.49825969 27:0.32272932 28:0.38036119 29:0.53704774 30:0.43816901 31:0.32248306 32:0.35676387 33:0.044290874 34:0.069940802 35:0.22212627 36:0.54545455 38:0.16666667 40:0.35562621 41:0.48484848 42:0.26666667 43:0.5 45:0.1 46:0.25 47:0.44444444 48:0.16666667 51:0.125 52:0.33333333 53:0.16666667 55:0.4 56:0.33333333 57:0.25 58:0.11111111 60:0.33333333 
