svm_type epsilon_svr
kernel_type rbf
gamma 0.0625
nr_class 2
total_sv 597
rho 0.110952
SV
-8 0:0.49561447 1:0.70821144 2:0.49088391 4:0.051616525 5:0.6064149 6:0.54323582 7:0.76835922 8:0.80415518 9:0.48936663 10:0.62008863 11:0.66761255 12:0.27975277 13:0.48456075 14:0.023017171 15:0.18174537 16:0.41473801 17:0.68821293 18:0.59113429 19:0.69999999 20:0.066666656 22:0.70571429 23:0.40963857 24:0.51515152 25:0.91954022 26:0.18181819 27:0.33978695 28:0.75772969 29:0.39242927 30:0.7302803 31:0.094674558 32:0.425 33:0.68296394 34:0.2 35:0.21386931 36:0.3125 37:0.1 38:0.33333333 39:0.4 40:0.21428571 42:0.42857143 43:0.1 47:0.28571429 48:0.25 49:0.375 51:0.16666667 59:0.25 
1.236175387158367 0:0.23754624 1:0.31701798 2:0.49088391 5:0.086987251 6:0.32498136 7:0.27335263 8:0.27167557 9:0.27355386 10:0.3096304 11:0.37710076 12:0.037470112 13:0.25010586 14:0.056877293 15:0.31732668 16:0.34077346 17:0.57414449 18:0.43358865 19:0.69999999 20:0.066666656 22:0.12 23:0.35742973 24:0.14015151 25:0.37931034 26:0.18181819 27:0.3269694 28:0.63448862 29:0.14421992 30:0.22979337 31:0.01479289 32:0.39444443 33:0.43625473 34:0.225 35:0.19809487 36:0.3125 37:0.2 38:0.16666667 39:0.1 40:0.14285714 42:0.14285714 43:0.1 44:0.16666667 45:0.22222222 48:0.25 49:0.125 51:0.33333333 52:0.14285714 53:0.16666667 56:0.14285714 57:0.25 
-7.646773471251112 0:0.52252837 1:0.62125429 2:0.49088391 4:0.19671658 5:0.2772564 6:0.67351928 7:0.4811673 8:0.60831035 9:0.56983668 10:0.51765306 11:0.73707202 12:0.076144126 13:0.52846454 14:0.06598823 15:0.438134 16:0.43445615 17:0.74397973 18:0.64863104 19:0.69999999 20:0.066666656 21:0.27108434 22:0.18857143 23:0.80722893 24:0.43181819 25:1 26:0.18181819 27:0.42764421 28:0.88281603 29:0.2853897 30:0.6124594 31:0.02071006 32:0.45555556 33:0.34197643 34:0.275 35:0.31699371 36:0.25 37:0.2 38:0.38888889 39:0.4 40:0.14285714 43:0.2 44:0.16666667 45:0.11111111 47:0.42857143 48:0.25 49:0.25 50:0.33333333 51:0.16666667 52:0.14285714 53:0.16666667 56:0.14285714 59:0.25 
-8 0:0.67720471 1:0.5784737 2:0.49088391 3:0.077453688 4:0.067703415 5:0.26615463 6:0.67657187 7:0.2784764 8:1 9:0.29892277 10:0.1906619 11:0.51251614 12:0.050971254 13:0.49897641 14:0.038203647 15:0.31771145 16:0.35989461 17:0.79974651 18:0.66487614 19:0.69999999 21:0.10843373 22:0.18857143 23:0.76706828 24:0.5189394 25:0.96551722 26:0.18181819 27:0.35676563 28:0.80852778 29:0.14491743 30:0.6040806 31:3.8092366e-16 32:0.43333333 33:0.42985519 34:0.45 35:0.52194703 36:0.3125 37:0.1 38:0.55555556 39:0.7 40:0.14285714 42:0.14285714 43:0.1 44:0.16666667 45:0.22222222 46:0.25 47:0.28571429 49:0.5 51:0.33333333 52:0.28571429 53:0.16666667 54:0.33333333 55:0.125 57:0.375 59:0.25 
8 0:0.63334809 1:0.42111316 2:0.49088391 5:0.032264597 6:0.59437777 7:0.21118659 8:0.89778894 9:0.25328568 10:0.19532381 11:0.47324317 12:0.04675962 13:0.28084113 14:0.0031123444 15:0.5961336 16:0.22952243 17:0.78200253 18:0.62438886 19:0.69999999 20:0.066666656 22:0.05142857 23:0.72289157 24:0.21212121 25:0.88505744 26:0.18181819 27:0.1512488 28:0.77390595 29:0.086588924 30:0.50992539 31:1.763451e-09 32:0.47777777 33:0.17136474 34:0.625 35:0.64949514 36:0.3125 37:0.2 38:0.66666667 39:0.7 40:0.28571429 42:0.14285714 43:0.1 44:0.33333333 45:0.44444444 46:0.25 47:0.42857143 48:0.25 49:0.25 50:0.33333333 51:0.16666667 52:0.28571429 53:0.33333333 55:0.25 56:0.28571429 57:0.25 59:0.25 
-5.807047181440802 0:0.45917147 1:0.70331948 2:0.49088391 3:0.077453688 4:0.27346645 5:0.16258719 6:0.73455782 7:0.51675452 8:1 9:0.60077051 10:0.41272817 11:0.84327375 12:0.61078942 13:0.69329355 14:0.14014717 15:0.5906157 16:0.63580464 17:0.78326997 18:0.74185138 19:0.69999999 21:0.22891566 22:0.16 23:0.56626507 24:0.61742425 25:0.83908045 26:0.87012987 27:0.51470627 28:0.84166336 29:0.38398524 30:0.42869735 31:0.19230769 32:0.50833333 33:0.31245163 34:0.175 35:0.1481425 36:0.0625 38:0.22222222 39:0.3 40:0.14285714 42:0.14285714 44:0.16666667 45:0.22222222 49:0.5 54:0.33333333 55:0.125 56:0.28571429 
0.5408956961793524 0:0.15440842 1:0.30158814 2:0.49088391 4:0.27346645 5:0.31921341 6:0.17287196 7:0.44335204 8:0.39776571 9:0.46909844 10:0.50119954 11:0.31914578 12:0.3138899 13:0.26305467 14:0.30356162 15:0.29057548 16:0.81271691 17:0.54119139 18:0.3229821 19:0.69999999 20:0.066666656 21:0.22891566 22:0.33714285 23:0.30120482 24:0.38257576 25:0.080459748 26:0.18181819 27:0.57505052 28:0.33551775 29:0.22277173 30:0.13804051 31:0.31656804 32:0.29722221 33:0.77115554 34:0.1 35:0.099599923 36:0.1875 37:0.1 38:0.11111111 40:0.071428571 42:0.14285714 43:0.1 46:0.5 48:0.25 49:0.25 53:0.16666667 57:0.125 59:0.25 
-1.300921219819304 0:0.33784998 1:0.31231982 2:0.49088391 5:0.17906498 6:0.28652075 7:0.23256121 8:0.41994649 9:0.30551509 10:0.24091638 11:0.37453968 12:0.18496139 13:0.44692304 14:0.0059410858 15:0.20921157 16:0.14716975 17:0.60583016 18:0.4940763 19:0.69999999 20:0.066666656 22:0.12857143 23:0.53815261 24:0.3219697 25:0.96551722 26:0.12987013 27:0.36471975 28:0.56047469 29:0.035676079 30:0.29236214 31:0.0147929 32:0.20833331 33:0.20258444 34:0.4 35:0.42758621 36:0.3125 37:0.1 38:0.38888889 39:0.5 40:0.14285714 42:0.28571429 43:0.1 44:0.16666667 45:0.22222222 46:0.25 47:0.28571429 48:0.25 51:0.16666667 52:0.14285714 53:0.16666667 55:0.125 56:0.28571429 57:0.375 58:0.5 59:0.25 
-1.523672508918299 0:0.32925894 1:0.78741095 2:0.49088391 4:0.022177809 5:0.26064519 6:0.6288452 7:0.57661196 8:0.89778894 9:0.41361737 10:0.48272115 11:0.074060083 12:0.48875482 13:0.44453566 14:0.023241113 15:0.020663745 16:0.41320055 17:0.71736376 18:0.6988266 19:0.69999999 20:0.066666656 22:0.21714286 23:0.55421688 24:0.41666667 25:0.8045977 26:0.12987013 27:0.46802422 28:0.15786782 29:0.47532193 30:0.36693428 31:0.10059172 32:0.094444443 33:0.3156832 34:0.05 35:0.029434176 36:0.125 37:0.1 38:0.11111111 39:0.3 40:0.071428571 42:0.14285714 43:0.1 44:0.16666667 45:0.11111111 47:0.14285714 48:0.25 49:0.25 
-2.944780169812887 0:0.49351183 1:0.58661978 2:0.49088391 3:0.077453688 5:0.37946304 6:0.4974313 7:0.43868803 8:0.89778894 9:0.37015977 10:0.35955411 11:0.42547546 12:0.15456534 13:0.30631511 14:0.050350617 15:0.40842052 16:0.21943375 17:0.66413182 18:0.55280314 19:0.69999999 22:0.26857143 23:0.57831326 24:0.3409091 25:0.91954022 26:0.051948064 27:0.3286215 28:0.51153934 29:0.046557638 30:0.40009197 31:0.0147929 32:0.4 33:0.22605738 34:0.275 35:0.27083254 36:0.25 37:0.1 38:0.27777778 39:0.4 40:0.071428571 42:0.28571429 43:0.1 44:0.33333333 45:0.22222222 47:0.28571429 49:0.25 51:0.16666667 54:0.33333333 55:0.125 56:0.28571429 59:0.25 
0.1518466890559821 0:0.35176067 1:0.37505339 2:0.49088391 4:0.37862599 5:0.163448 6:0.48655839 7:0.41841255 8:0.80415518 9:0.45293028 10:0.40937616 11:0.50294422 12:0.14476749 13:0.34063648 14:0.0058939825 15:0.30111026 16:0.39949354 17:0.61596959 18:0.49895698 19:0.69999999 20:0.066666656 21:0.33734939 22:0.18285714 23:0.53413656 24:0.33333334 25:0.91954022 26:0.12987013 27:0.31135201 28:0.70738294 29:0.026972731 30:0.5686017 31:8.8172547e-10 32:0.14166666 33:0.30605236 34:0.325 35:0.29830444 36:0.3125 37:0.2 38:0.27777778 39:0.2 40:0.21428571 43:0.4 45:0.22222222 47:0.28571429 48:0.5 49:0.25 50:0.33333333 52:0.14285714 55:0.25 56:0.14285714 
-3.35279124016574 0:0.36407061 1:0.27554666 2:0.49088391 4:0.27346645 5:0.16258719 6:0.36617887 7:0.27846472 8:1 10:0.19339979 11:0.49216773 12:0.03898437 13:0.46340363 14:0.022487559 15:0.45183181 16:0.28899734 17:0.56780735 18:0.47196871 19:0.69999999 20:0.066666656 21:0.22891566 22:0.16 23:0.31325301 24:0.43181819 25:0.83908045 26:0.22077923 27:0.37741664 28:0.53155586 29:0.049735627 30:0.33353239 31:0.011834322 32:0.61666666 33:0.26511022 34:0.525 35:0.5449419 36:0.3125 38:0.44444444 39:0.6 40:0.21428571 42:0.14285714 43:0.1 45:0.22222222 46:0.5 48:0.5 49:0.5 50:0.33333333 51:0.16666667 52:0.28571429 53:0.16666667 55:0.375 56:0.28571429 57:0.25 59:0.25 
-8 0:0.34898755 1:0.4388428 2:0.49088391 3:0.077453688 4:0.25558864 5:0.32128805 6:0.4702587 7:0.42164837 8:0.47494857 9:0.37015977 10:0.22511129 11:0.57253002 12:0.26769066 13:0.69303265 14:0.23676214 15:0.59250376 16:0.49229602 17:0.53612168 18:0.39121098 19:0.69999999 21:0.1686747 22:0.33714285 23:0.38554218 24:0.36363636 25:0.60919539 26:0.051948064 27:0.22667829 28:0.72738198 29:0.28989387 30:0.68486622 31:0.1183432 32:0.54444444 33:0.4647789 34:0.25 35:0.26311678 36:0.375 37:0.3 38:0.16666667 39:0.1 40:0.071428571 42:0.28571429 43:0.2 44:0.16666667 47:0.14285714 48:0.25 49:0.25 51:0.16666667 52:0.14285714 54:0.33333333 55:0.25 56:0.14285714 57:0.125 
-8 0:0.59948032 1:0.58230782 2:0.49088391 4:0.27346645 5:0.058568225 6:0.75646421 7:0.43491299 8:0.80415518 9:0.56432037 10:0.3241673 11:0.62324936 12:0.22226624 13:0.49357567 14:0.015580062 15:0.48882895 16:0.28172874 17:0.94043092 18:0.82078938 19:0.69999999 20:0.066666656 21:0.22891566 22:0.12 23:0.94377512 24:0.50378788 25:1 26:0.42857144 27:0.30079602 28:0.87109091 29:0.48007876 30:0.56579676 31:0.10946745 32:0.63888888 33:0.3623165 34:0.375 35:0.46382168 36:0.1875 38:0.5 39:0.7 40:0.21428571 43:0.1 47:0.57142857 48:0.25 49:0.25 51:0.33333333 52:0.28571429 55:0.25 56:0.28571429 57:0.375 
-8 0:0.55646831 1:0.51653815 2:0.49088391 4:0.27346645 5:0.058568225 6:0.75646421 7:0.43491299 8:0.80415518 9:0.040536375 10:0.31209797 11:0.62324936 12:0.22226624 13:0.49357567 14:0.015580062 15:0.48882895 16:0.26747606 17:0.89100127 18:0.76191826 19:0.69999999 20:0.066666656 21:0.22891566 22:0.12 23:0.94377512 24:0.50378788 25:1 26:0.077922065 27:0.30079602 28:0.87109091 29:0.48007876 30:0.59326415 31:0.10946745 32:0.63888888 33:0.34128998 34:0.4 35:0.49375119 36:0.25 37:0.1 38:0.5 39:0.7 40:0.21428571 43:0.1 47:0.57142857 48:0.5 49:0.25 51:0.33333333 52:0.28571429 55:0.25 56:0.28571429 57:0.375 
-7.988134717261709 0:0.36261747 1:0.70825887 2:0.49088391 3:0.077453688 4:0.12289845 5:0.16432372 6:0.47076811 7:0.82409309 8:0.47494857 9:0.75176102 10:0.70513953 11:0.55879006 12:0.29074637 13:0.2390355 14:0.073744515 15:0.069291871 16:0.63474057 17:0.72623575 18:0.68638142 19:0.69999999 21:0.25301204 22:0.16285714 23:0.48594378 24:0.77272728 25:0.66666664 26:0.87012987 27:0.74802691 28:0.64481981 29:0.32551664 30:0.23116128 31:0.014792903 32:0.013888884 33:0.7638164 34:0.1 35:0.10306725 36:0.1875 38:0.22222222 39:0.3 40:0.14285714 43:0.1 49:0.375 50:0.33333333 51:0.33333333 54:0.33333333 57:0.125 
8 0:0.35169898 1:0.47030393 2:0.49088391 3:0.077453688 4:0.27346645 5:0.2937706 6:0.37225584 7:0.53252461 8:0.39776571 9:0.70357601 10:0.49512352 11:0.4623958 12:0.1842739 13:0.49437075 14:0.0084631055 15:0.22687226 16:0.27253034 17:0.66920153 18:0.5619296 19:0.69999999 21:0.22891566 22:0.36285714 23:0.67469881 24:0.64772728 25:0.70114942 26:0.18181819 27:0.33791521 28:0.85544575 29:0.66235534 30:0.62341357 31:0.035502955 32:0.33611111 33:0.43635635 34:0.225 35:0.20261002 36:0.3125 37:0.2 38:0.33333333 39:0.5 40:0.28571429 41:0.25 43:0.4 47:0.28571429 49:0.125 50:0.33333333 51:0.16666667 54:0.33333333 55:0.125 
-1.112011891695769 0:0.51249161 1:0.31029073 2:0.49088391 4:0.037456133 5:0.32176038 6:0.42100744 7:0.030672875 8:0.61579132 10:0.23487003 11:0.43128129 12:0.06933408 13:0.24030429 14:0.0092835275 15:0.20194736 16:0.14697036 17:0.62357414 18:0.51890482 19:0.69999999 20:0.066666656 22:0.43714285 23:0.66666666 24:0.26136364 25:0.93103444 26:0.12987013 27:0.33127287 28:0.71371431 29:0.13490416 30:0.48804451 31:8.8172547e-10 32:0.35 33:0.23058672 34:0.7 35:0.69255096 36:0.4375 37:0.1 38:0.77777778 39:0.9 40:0.5 42:0.42857143 43:0.2 44:0.16666667 45:0.44444444 46:0.5 48:0.25 49:0.25 50:0.33333333 51:0.16666667 52:0.28571429 53:0.16666667 55:0.125 56:0.14285714 57:0.5 59:0.5 
-0.07030514024196075 0:0.37160476 1:0.61318303 2:0.49088391 3:0.077453688 4:0.037456133 6:0.67429166 7:0.57781678 8:0.89778894 9:0.53190795 10:0.60349084 11:0.58042397 12:0.32555322 13:0.32348811 14:0.061147316 15:0.22007384 16:0.3118302 17:0.71356147 18:0.64196169 19:0.69999999 23:0.63855423 24:0.65530303 25:0.93103444 26:0.051948064 27:0.50368316 28:0.71114832 29:0.36896242 30:0.43809874 31:0.023668639 32:0.19999999 33:0.32260179 34:0.15 35:0.17961516 36:0.1875 37:0.1 38:0.22222222 39:0.4 40:0.14285714 43:0.1 44:0.16666667 49:0.25 52:0.14285714 53:0.33333333 54:0.33333333 56:0.14285714 57:0.25 
6.354489433653963 0:0.55280844 1:0.74035661 2:0.49088391 5:0.060642862 6:0.76622954 7:0.64933252 8:0.89778894 9:0.31367464 10:0.55110024 11:0.594474 12:0.05743948 13:0.13386854 14:0.13160106 15:0.63259559 16:0.53961833 17:0.78073511 18:0.7125163 19:0.69999999 20:0.066666656 22:0.12 23:0.7309237 24:0.65151516 25:0.88505744 26:0.42857144 27:0.65104 28:0.6181976 29:0.068806744 30:0.12746214 31:0.038461534 32:0.31388889 33:0.3436715 34:0.225 35:0.27725281 36:0.125 38:0.27777778 39:0.3 40:0.071428571 43:0.1 44:0.33333333 48:0.25 49:0.5 51:0.16666667 52:0.28571429 55:0.25 56:0.14285714 57:0.125 
1.588611868295911 0:0.27705918 1:0.28046781 2:0.49088391 4:0.34116986 5:0.22919102 6:0.20829711 7:0.4078763 8:0.39776571 9:0.27355386 10:0.35893873 11:0.35303645 12:0.10522325 13:0.3971583 14:0.0028819849 15:0.41686479 16:0.50391761 17:0.65525982 18:0.54106909 19:0.69999999 20:0.066666656 21:0.33734939 22:0.26285714 23:0.41365461 24:0.5189394 25:0.65517239 26:0.53246753 27:0.47145521 28:0.52736152 29:0.050866043 30:0.2685461 31:0.079881652 32:0.25833332 33:0.69002816 34:0.35 35:0.36155458 36:0.3125 38:0.38888889 39:0.2 40:0.28571429 42:0.14285714 43:0.2 44:0.16666667 45:0.11111111 46:0.5 48:0.5 49:0.125 53:0.16666667 55:0.125 56:0.14285714 57:0.5 
8 0:0.41174533 1:0.58808271 2:0.49088391 3:0.077453688 5:0.060642862 6:0.44781527 7:0.65168138 8:0.80415518 9:0.40476094 10:0.43302576 11:0.624607 12:0.35016168 13:0.45697701 14:0.0071156086 15:0.17195863 16:0.23480587 17:0.75918885 18:0.69335072 19:0.69999999 22:0.12 23:0.51004017 24:0.71212122 25:0.91954022 26:0.29870131 27:0.54007223 28:0.79327661 29:0.37173363 30:0.44321264 31:0.073964501 32:0.4 33:0.44474434 34:0.2 35:0.2603734 36:0.125 38:0.27777778 39:0.4 40:0.071428571 43:0.1 44:0.16666667 47:0.28571429 49:0.125 51:0.16666667 52:0.28571429 54:0.33333333 55:0.125 56:0.14285714 57:0.25 58:0.5 
-8 0:0.26985482 1:0.38484792 2:0.49088391 4:0.067703415 5:0.23724521 6:0.39856085 7:0.34768659 8:0.51358025 9:0.53076008 10:0.24681574 11:0.38208692 12:0.28939713 13:0.3507991 14:0.024092513 15:0.31908764 16:0.18863219 17:0.73510773 18:0.65867014 19:0.69999999 20:0.066666656 21:0.10843373 22:0.26 23:0.65461846 24:0.48106062 25:0.93103444 26:0.58441559 27:0.4277215 28:0.660642 29:0.33916978 30:0.48739094 31:0.068047347 32:0.43611111 33:0.46468328 34:0.2 35:0.17517622 36:0.1875 38:0.22222222 39:0.3 40:0.14285714 42:0.14285714 43:0.1 44:0.16666667 45:0.22222222 47:0.14285714 48:0.25 53:0.16666667 55:0.125 56:0.14285714 57:0.375 
2.43146009040628 0:0.41574359 1:0.74383197 2:0.49088391 4:0.067703415 5:0.22459085 6:0.56219658 7:0.86566781 8:0.80415518 9:0.53076008 10:0.5608483 11:0.60819841 12:0.35223367 13:0.32367771 14:0.2925982 15:0.32240897 16:0.21478388 17:0.82256021 18:0.84713168 19:0.69999999 20:0.066666656 21:0.10843373 22:0.22857142 23:0.68674699 24:0.80303031 25:0.91954022 26:0.18181819 27:0.58998728 28:0.81009876 29:0.39490116 30:0.43109405 31:0.18343195 32:0.23055555 33:0.3361594 34:0.125 35:0.14919032 36:0.125 37:0.1 38:0.33333333 39:0.7 40:0.21428571 43:0.2 47:0.14285714 48:0.25 49:0.25 57:0.25 59:0.25 
8 0:0.55271248 1:0.47148493 2:0.29542074 3:0.077453688 4:0.16035458 5:0.23436299 6:0.46612035 7:0.44407261 8:0.80415518 9:0.39265231 10:0.33035001 11:0.49963307 12:0.087558754 13:0.43484794 14:0.016678618 15:0.57025866 16:0.34705642 17:0.76045627 18:0.63092568 19:0.77777778 21:0.25301204 22:0.21428571 23:0.69076306 24:0.37878788 25:0.91954022 26:0.12987013 27:0.2283582 28:0.76863189 29:0.025866809 30:0.66762541 31:0.065088759 32:0.41666666 33:0.4064378 34:0.45 35:0.51887979 36:0.375 37:0.3 38:0.5 39:0.4 40:0.14285714 41:0.25 42:0.28571429 43:0.2 47:0.28571429 48:0.25 49:0.375 50:0.33333333 51:0.16666667 52:0.28571429 54:0.33333333 55:0.375 56:0.14285714 57:0.375 
8 0:0.72004325 1:0.51169432 2:0.37824065 4:0.067703415 5:0.61124747 6:0.5553392 7:0.27236895 8:0.89778894 9:0.27091391 10:0.34636937 11:0.53183874 12:0.13047359 13:0.63905212 14:0.00075221795 15:0.4894802 16:0.35330344 17:0.71102661 18:0.57926988 19:0.11111111 20:0.066666656 21:0.10843373 22:0.62571428 23:0.70682731 24:0.23484848 25:0.93103444 26:0.18181819 27:0.1706097 28:0.75859249 29:0.051697993 30:0.76991233 31:0.023668633 32:0.58055555 33:0.52601714 34:0.575 35:0.63766431 36:0.5625 37:0.1 38:0.66666667 39:0.7 40:0.35714286 42:0.28571429 43:0.3 44:0.16666667 45:0.11111111 46:0.5 47:0.28571429 48:0.25 49:0.5 51:0.5 53:0.16666667 55:0.125 56:0.14285714 57:0.375 
7.002196259012355 0:0.18251848 1:0.16721974 2:0.37824065 5:0.032264597 6:0.39019701 7:0.12555114 8:0.2110854 9:0.020268188 10:0.23682027 11:0.40455305 12:0.029314244 13:0.3372132 14:0.035929807 15:0.47332898 16:0.3612669 17:0.51964512 18:0.41312851 19:0.11111111 20:0.066666656 22:0.05142857 23:0.40160643 24:0.46969697 25:0.40229883 26:0.16883116 27:0.40709218 28:0.58488499 29:0.057662086 30:0.39379428 31:0.050295855 32:0.41944444 33:0.3581217 34:0.4 35:0.3275862 36:0.25 38:0.22222222 40:0.14285714 42:0.14285714 43:0.1 44:0.5 45:0.44444444 46:0.5 48:0.25 51:0.16666667 52:0.14285714 53:0.16666667 55:0.375 56:0.14285714 57:0.25 
7.303820241435059 0:0.37049573 1:0.5672337 2:0.37824065 3:0.077453688 4:0.12733736 5:0.40414356 6:0.92300473 7:0.24486193 8:1 9:0.41361737 10:0.35647774 11:0.61068124 12:0.55870064 13:0.5616159 14:0.091673284 15:0.27273184 16:0.3237852 17:0.52598226 18:0.34485006 19:0.11111111 21:0.10843373 22:0.34857143 23:0.60642571 24:0.25757576 25:0.83908045 26:0.12987013 27:0.25591455 28:0.55296631 29:0.46715664 30:0.43685599 31:0.038461541 32:0.25833333 33:0.48229242 34:0.175 35:0.18091065 36:0.375 37:0.2 38:0.16666667 39:0.2 40:0.14285714 42:0.28571429 43:0.2 44:0.16666667 48:0.25 49:0.375 52:0.14285714 53:0.16666667 54:0.33333333 
-8 0:0.30661748 1:0.34407606 2:0.37824065 4:0.067703415 5:0.12521282 6:0.47331466 7:0.25497027 8:0.70194411 9:0.39334918 10:0.28139657 11:0.55940921 12:0.2284188 13:0.50152775 14:0.20061391 15:0.38804326 16:0.278523 17:0.64385298 18:0.52878611 19:0.11111111 20:0.066666656 21:0.10843373 22:0.15428571 23:0.69477912 24:0.42424243 25:0.8045977 26:0.18181819 27:0.41740685 28:0.75276983 29:0.14053676 30:0.45052631 31:0.10650888 32:0.31388889 33:0.26080268 34:0.3 35:0.28816918 36:0.25 37:0.1 38:0.33333333 39:0.4 40:0.28571429 41:0.25 42:0.42857143 43:0.1 44:0.16666667 45:0.11111111 46:0.25 47:0.14285714 48:0.25 49:0.125 52:0.28571429 56:0.14285714 57:0.125 
-0.2475069414774601 0:0.21695354 1:0.23023663 2:0.37824065 3:0.077453688 4:0.004353379 5:0.060683623 6:0.44498545 7:0.13667529 8:0.80415518 9:0.35253153 10:0.16966978 11:0.43121546 12:0.21865509 13:0.47463246 14:0.0042961588 15:0.12775695 16:0.13089763 17:0.59062104 18:0.47157758 19:0.11111111 22:0.05142857 23:0.73895583 24:0.37878789 25:0.91954022 26:0.18181819 27:0.34696146 28:0.80260786 29:0.10645241 30:0.63445997 31:0.017751482 32:0.13333332 33:0.14704216 34:0.325 35:0.30445799 36:0.25 37:0.1 38:0.33333333 39:0.5 40:0.071428571 41:0.25 42:0.14285714 43:0.2 45:0.33333333 46:0.25 47:0.14285714 49:0.125 50:1 52:0.14285714 54:0.66666667 56:0.14285714 57:0.125 58:0.5 
-0.2248949586969808 0:0.59141932 1:0.36947706 2:0.37824065 5:0.15940486 6:0.85033033 7:0.40056533 8:0.80415518 9:0.020268188 10:0.30003877 11:0.64513924 12:0.041768568 13:0.30869962 14:0.028377157 15:0.54818566 16:0.23394361 17:0.49302915 18:0.43550119 19:0.11111111 20:0.066666656 22:0.12 23:0.78714861 24:0.1439394 25:0.91954022 26:0.16883116 27:0.24112626 28:0.60829535 29:0.061577387 30:0.40482346 31:0.017751473 32:0.36944444 33:0.1460143 34:0.675 35:0.66549819 36:0.5625 37:0.4 38:0.5 39:0.5 40:0.14285714 42:0.57142857 43:0.4 44:0.16666667 45:0.55555556 46:0.25 47:0.28571429 48:0.25 49:0.375 50:0.66666667 52:0.14285714 53:0.16666667 55:0.125 56:0.57142857 57:0.125 59:0.25 
6.400219132551546 0:0.39156999 1:0.59957521 2:0.37824065 3:0.077453688 4:0.23341083 5:0.16378762 6:0.30482422 7:0.59211357 8:0.89778894 9:0.30551509 10:0.48509225 11:0.41086113 12:0.13447797 13:0.46334849 14:0.06379071 15:0.39055171 16:0.57774005 17:0.57414449 18:0.41916558 19:0.11111111 21:0.1686747 22:0.12857143 23:0.21285141 24:0.4128788 25:0.91954022 26:0.18181819 27:0.35297264 28:0.48540344 29:0.145357 30:0.31224666 31:0.17455621 32:0.38611111 33:0.4269882 34:0.175 35:0.19281768 36:0.25 37:0.1 38:0.16666667 39:0.3 42:0.28571429 43:0.1 44:0.16666667 45:0.11111111 46:0.25 47:0.14285714 49:0.375 51:0.16666667 52:0.14285714 54:0.33333333 58:0.5 
8 0:0.47817956 1:0.37678596 2:0.37824065 4:0.059633942 5:0.1565051 6:0.4755482 7:0.43316979 8:0.89778894 9:0.31367464 10:0.2082166 11:0.50532698 12:0.10451841 13:0.66342616 14:0.042449642 15:0.42217511 16:0.33956689 17:0.58555133 18:0.4838476 19:0.11111111 20:0.066666656 22:0.18 23:0.56224901 24:0.34469698 25:0.72413792 26:0.12987013 27:0.15436116 28:0.73130199 29:0.079347684 30:0.52641937 31:0.03550295 32:0.33888888 33:0.31605444 34:0.5 35:0.51085921 36:0.5 37:0.3 38:0.55555556 39:0.7 40:0.35714286 42:0.28571429 43:0.2 44:0.16666667 45:0.11111111 46:0.25 47:0.28571429 48:0.5 49:0.25 50:0.33333333 51:0.33333333 53:0.16666667 55:0.25 56:0.14285714 57:0.125 59:0.25 
8 0:0.46388779 1:0.62095268 2:0.37824065 3:0.077453688 4:0.022177809 5:0.13032259 6:0.53200485 7:0.4932545 8:1 9:0.49259504 10:0.24157738 11:0.82798726 12:0.51155469 13:0.70524309 14:0.043287485 15:0.27963871 16:0.49828584 17:0.75158429 18:0.67315842 19:0.11111111 22:0.10857143 23:0.61847391 24:0.52651516 25:0.91954022 26:0.051948064 27:0.35659546 28:0.85372015 29:0.44162782 30:0.5375707 31:0.0443787 32:0.19166666 33:0.25628633 34:0.225 35:0.20647743 36:0.125 37:0.1 38:0.16666667 39:0.2 42:0.28571429 45:0.22222222 47:0.28571429 49:0.5 54:0.33333333 55:0.375 56:0.28571429 
0.3244549775991827 0:0.34374505 1:0.45962327 2:0.37824065 4:0.037456133 5:0.18889082 6:0.65907038 7:0.2841768 8:0.89778894 9:0.2911821 10:0.26770742 11:0.68305527 12:0.46092353 13:0.62925788 14:0.016445393 15:0.32089125 16:0.36941362 17:0.61470216 18:0.48834746 19:0.11111111 20:0.066666656 22:0.22857142 23:0.58232932 24:0.29924242 25:0.77011492 26:0.12987013 27:0.29488382 28:0.76823791 29:0.61242783 30:0.63128517 31:0.044378699 32:0.24722222 33:0.35218822 34:0.225 35:0.21625071 36:0.3125 37:0.2 38:0.22222222 39:0.3 40:0.14285714 42:0.14285714 43:0.1 44:0.33333333 45:0.11111111 48:0.5 49:0.25 51:0.33333333 55:0.125 56:0.14285714 57:0.125 
6.662473314478613 0:0.4143611 1:0.74135674 2:0.37824065 4:0.27346645 5:0.27382096 6:0.51495776 7:0.7504886 8:0.52505143 9:0.7814058 10:0.60312818 11:0.6614037 12:0.35556986 13:0.39446178 14:0.050377469 15:0.12419955 16:0.70863897 17:0.67173638 18:0.5756193 19:0.11111111 20:0.066666656 21:0.22891566 22:0.24 23:0.38554218 24:0.59848485 25:0.49425287 26:0.87012987 27:0.46571317 28:0.6379972 29:0.38172754 30:0.30999383 31:0.091715979 32:0.11944444 33:0.62962189 34:0.125 35:0.14061726 36:0.1875 38:0.22222222 39:0.3 40:0.14285714 42:0.14285714 43:0.1 44:0.16666667 48:0.25 49:0.375 51:0.16666667 56:0.14285714 58:0.5 
-0.8061817046289863 0:0.38811161 1:0.43622889 2:0.37824065 4:0.19671658 5:0.05513915 6:0.2760523 7:0.357582 8:0.80415518 9:0.56432037 10:0.34126671 11:0.60555361 12:0.18844415 13:0.68349426 14:0.015982388 15:0.20879325 16:0.30192853 17:0.70342206 18:0.59651411 19:0.11111111 20:0.066666656 21:0.27108434 22:0.054285714 23:0.49799198 24:0.25757576 25:0.91954022 26:0.18181819 27:0.57707075 28:0.66432762 29:0.1911299 30:0.48680272 31:0.023668639 32:0.34444444 33:0.26636344 34:0.3 35:0.25722995 36:0.25 37:0.1 38:0.27777778 39:0.3 40:0.14285714 42:0.42857143 44:0.16666667 45:0.33333333 47:0.42857143 48:0.25 49:0.125 50:0.33333333 51:0.16666667 55:0.125 56:0.28571429 
4.757562667722033 0:0.34976513 1:0.53541958 2:0.37824065 3:0.077453688 4:0.037456133 5:0.13032259 6:0.40182472 7:0.62715319 8:0.61579132 9:0.52419959 10:0.46625023 11:0.49776558 12:0.17125169 13:0.33454496 14:0.07586084 15:0.27248153 16:0.4365435 17:0.66666667 18:0.56192959 19:0.11111111 22:0.10857143 23:0.58634538 24:0.50378789 25:0.93103444 26:0.051948064 27:0.5423616 28:0.60872427 29:0.19766653 30:0.33487629 31:0.050295857 32:0.083333326 33:0.29668085 34:0.175 35:0.19521814 36:0.1875 37:0.1 38:0.16666667 39:0.3 40:0.071428571 42:0.14285714 43:0.1 45:0.11111111 49:0.375 51:0.16666667 52:0.42857143 54:0.33333333 57:0.25 
8 0:0.29345796 1:0.44900807 2:0.37824065 4:0.071347324 5:0.13032259 6:0.59968372 7:0.45946526 8:0.80415518 9:0.54013628 10:0.40711481 11:0.54467675 12:0.44605913 13:0.5269082 14:0.2013876 15:0.27384405 16:0.33113692 17:0.64892269 18:0.5345502 19:0.11111111 20:0.066666656 21:0.11445783 22:0.10857143 23:0.46987953 24:0.46212122 25:0.91954022 26:0.46753248 27:0.18678707 28:0.65585918 29:0.41919133 30:0.69600422 31:0.15384615 32:0.27777777 33:0.33654322 34:0.175 35:0.1479901 36:0.1875 38:0.22222222 39:0.3 40:0.071428571 42:0.28571429 45:0.11111111 47:0.14285714 48:0.25 49:0.25 50:0.66666667 53:0.16666667 55:0.25 59:0.25 
5.435368564793638 0:0.3785896 1:0.57965491 2:0.37824065 5:0.18749368 6:0.82844723 7:0.61285813 8:1 9:0.32578327 10:0.49848018 11:0.57696123 12:0.27890985 13:0.32915551 14:0.15867738 15:0.25473417 16:0.25078844 17:0.61977187 18:0.48956976 19:0.11111111 20:0.066666656 22:0.25714286 23:0.78313254 24:0.51515152 25:0.91954022 26:0.37662337 27:0.58680376 28:0.62111769 29:0.16045837 30:0.176661 31:0.16863905 32:0.43888889 33:0.32601645 34:0.175 35:0.19403696 36:0.25 38:0.11111111 39:0.3 42:0.28571429 43:0.1 47:0.28571429 48:0.25 49:0.375 51:0.16666667 52:0.28571429 55:0.25 
0.4837329448698147 0:0.4512581 1:0.40056887 2:0.37824065 4:0.27346645 5:0.29026313 6:0.30473227 7:0.46123988 8:0.52505143 9:0.34748484 10:0.3246008 11:0.4162858 12:0.059806681 13:0.3761518 14:0.11012962 15:0.6434833 16:0.48665009 17:0.45500634 18:0.36000652 19:0.11111111 20:0.066666656 21:0.22891566 22:0.23714286 23:0.42168676 24:0.21212122 25:0.40229886 26:0.18181819 27:0.20534666 28:0.61048977 29:0.078639006 30:0.30705352 31:0.062130177 32:0.65555555 33:0.36106048 34:0.425 35:0.50763955 36:0.375 37:0.3 38:0.22222222 39:0.1 42:0.28571429 43:0.3 44:0.16666667 46:0.25 47:0.14285714 48:0.25 49:0.375 52:0.42857143 53:0.16666667 55:0.25 56:0.57142857 57:0.125 58:0.5 
-2.877846039383662 0:0.29094473 1:0.2570548 2:0.37824065 4:0.52981697 5:0.4405399 6:0.29044637 7:0.28977185 8:0.39776571 9:0.31919096 10:0.27885054 11:0.46633249 12:0.089784141 13:0.55289489 14:0.0068038198 15:0.34099905 16:0.3720392 17:0.25475285 18:0.1797588 19:0.11111111 20:0.066666656 21:0.5 22:0.50857142 23:0.22088354 24:0.02272727 25:0.68965517 26:0.12987013 27:0.056869888 28:0.5711026 29:0.42124337 30:0.67887876 31:0.029585792 32:0.53888888 33:0.5645585 34:0.425 35:0.44406554 36:0.875 37:0.7 38:0.22222222 39:0.1 40:0.14285714 42:0.57142857 43:0.3 47:0.14285714 48:0.75 49:0.25 51:0.5 53:0.33333333 55:0.125 56:0.14285714 57:0.25 
3.291428277724478 0:0.52714189 1:0.51166266 2:0.37824065 4:0.022177809 5:0.22115541 6:0.58118862 7:0.33287183 8:0.89778894 9:0.41361737 10:0.047087092 11:0.50986566 12:0.21249079 13:0.66242932 14:0.1491014 15:0.64697204 16:0.38131063 17:0.78326996 18:0.66646912 19:0.11111111 20:0.066666656 22:0.27999999 23:0.68674699 24:0.47348485 25:0.88505744 26:0.12987013 27:0.25669417 28:0.79464812 29:0.090595597 30:0.65204432 31:0.023668637 32:0.48055555 33:0.31068367 34:0.375 35:0.44029339 36:0.1875 37:0.1 38:0.5 39:0.6 40:0.14285714 42:0.28571429 43:0.1 44:0.33333333 45:0.11111111 46:0.5 47:0.14285714 48:0.25 49:0.25 50:0.33333333 52:0.14285714 55:0.125 56:0.14285714 57:0.375 58:0.5 
0.9558091216158225 0:0.27051176 1:0.48380612 2:0.37824065 3:0.077453688 5:0.090832822 6:0.49563337 7:0.34248204 8:0.61579132 9:0.37015977 10:0.28345261 11:0.43584964 12:0.36273585 13:0.42027064 14:0.41122263 15:0.44803727 16:0.2818449 17:0.67427123 18:0.58018253 19:0.11111111 22:0.17142857 23:0.70682731 24:0.30303031 25:0.88505744 26:0.051948064 27:0.47325578 28:0.57437675 29:0.44632491 30:0.37669415 31:0.13905325 32:0.35277777 33:0.24258283 34:0.125 35:0.099695179 36:0.1875 37:0.2 38:0.16666667 39:0.3 40:0.14285714 42:0.28571429 44:0.16666667 49:0.125 51:0.16666667 54:0.33333333 55:0.25 57:0.25 
8 0:0.31282285 1:0.4787263 2:0.37824065 3:0.077453688 4:0.23341083 5:0.27246734 6:0.32576884 7:0.61954934 8:0.47494857 9:0.7814058 10:0.46603522 11:0.54966899 12:0.29744515 13:0.49410589 14:0.039693876 15:0.29778872 16:0.25102481 17:0.55259823 18:0.38591917 19:0.11111111 21:0.1686747 22:0.21142857 23:0.40963856 24:0.39772728 25:0.60919539 26:0.18181819 27:0.19739255 28:0.72908516 29:0.59415535 30:0.72102968 31:0.06804734 32:0.24722222 33:0.33081543 34:0.175 35:0.14225567 36:0.3125 37:0.1 38:0.27777778 39:0.4 40:0.28571429 42:0.28571429 43:0.2 44:0.16666667 49:0.125 50:0.33333333 51:0.16666667 54:0.33333333 59:0.25 
-0.9058728531844017 0:0.15135267 1:0.15185789 2:0.37824065 3:0.44016946 5:0.30742774 6:0.069552807 7:0.30714536 8:0.013557028 9:0.50657135 10:0.2826842 11:0.14082776 12:0.013321899 13:0.1370819 14:0.095151442 15:0.23651046 16:0.0064641791 17:0.12927757 19:0.11111111 20:0.35555556 22:0.17142857 23:0.22891566 24:0.15530303 25:0.40229883 26:0.18181819 27:0.1827961 28:0.42797723 29:0.043046127 30:0.30999831 31:0.01183432 32:0.44722221 33:0.11210132 34:0.35 35:0.23880739 36:0.6875 37:0.6 38:0.055555556 40:0.071428571 42:0.28571429 43:0.8 45:0.44444444 51:0.33333333 55:0.125 57:0.125 59:0.5 
-2.365468587234894 0:0.28777156 1:0.26553999 2:0.41604356 4:0.12289845 5:0.090832822 6:0.29399937 7:0.20127602 8:0.27910375 9:0.35253153 10:0.28927718 11:0.34697638 12:0.078074567 13:0.28972041 14:0.037540613 15:0.30552189 16:0.15773863 17:0.57667934 18:0.4666969 19:0.11111111 20:0.066666656 21:0.25301204 22:0.17142857 23:0.53815262 24:0.18939394 25:0.68965517 26:0.18181819 27:0.24874005 28:0.71142263 29:0.10798515 30:0.50785048 31:0.094674546 32:0.42777777 33:0.43395275 34:0.4 35:0.42432844 36:0.4375 37:0.2 38:0.38888889 39:0.5 40:0.21428571 43:0.2 45:0.11111111 47:0.28571429 48:0.25 50:0.33333333 51:0.33333333 52:0.14285714 53:0.33333333 54:0.33333333 55:0.25 56:0.14285714 57:0.375 58:0.5 
-5.577356460994316 0:0.49882351 1:0.33079239 2:0.41604356 5:0.064529194 6:0.54823994 7:0.25785846 8:1 9:0.29340645 10:0.13222078 11:0.4877741 12:0.049094641 13:0.64447474 14:0.003418644 15:0.56822215 16:0.37035438 17:0.68314322 18:0.55765157 19:0.11111111 20:0.066666656 22:0.24571428 23:0.61847391 24:0.53409092 25:0.91954022 26:0.48051948 27:0.39808931 28:0.61021547 29:0.1624354 30:0.39926082 31:0.0059171621 32:0.3611111 33:0.26363475 34:0.625 35:0.53057725 36:0.3125 38:0.44444444 39:0.3 40:0.071428571 41:0.5 42:0.14285714 43:0.2 44:0.16666667 45:0.88888889 46:0.25 47:0.14285714 48:0.25 49:0.625 50:0.33333333 53:0.33333333 55:0.375 56:0.42857143 
-1.391704660064168 0:0.2751944 1:0.34558115 2:0.41604356 4:0.048708996 5:0.14349837 6:0.61070165 7:0.23858726 8:0.89778894 9:0.36775303 10:0.20871361 11:0.39327473 12:0.20452893 13:0.41108838 14:0.048964579 15:0.42003902 16:0.29702157 17:0.52471483 18:0.37671601 19:0.11111111 20:0.066666656 22:0.13142857 23:0.59437752 24:0.14015151 25:0.72413792 26:0.12987013 27:0.345529 28:0.50540248 29:0.14498694 30:0.44019428 31:0.056213015 32:0.41388889 33:0.19337562 34:0.25 35:0.21546962 36:0.3125 37:0.2 38:0.11111111 39:0.2 40:0.071428571 42:0.42857143 43:0.1 44:0.33333333 45:0.22222222 47:0.14285714 48:0.5 49:0.125 55:0.125 56:0.42857143 
8 0:0.37599252 1:0.274661 2:0.41604356 4:0.059633942 5:0.42699945 6:0.2486462 7:0.29742512 8:0.23158263 9:0.32578327 10:0.23456322 11:0.39665884 12:0.15672209 13:0.38559048 14:0.001121662 15:0.18949999 16:0.060081398 17:0.36882128 18:0.32590027 19:0.11111111 20:0.066666656 22:0.65142855 23:0.40160642 24:0.094696967 25:0.93103444 26:0.12987013 27:0.19739255 28:0.82434996 29:0.1059207 30:0.92755075 31:0.041420112 32:0.25833332 33:0.37654434 34:0.55 35:0.6428653 36:0.8125 37:0.7 38:0.38888889 39:0.4 40:0.21428571 42:0.14285714 43:0.9 48:0.5 51:0.33333333 52:0.57142857 56:0.14285714 57:0.875 
3.415392954075261 0:0.28894755 1:0.36296273 2:0.41604356 3:0.36588189 4:0.037456133 5:0.25891101 6:0.54706416 7:0.30855834 8:0.89778894 9:0.32578327 10:0.29500352 11:0.40095344 12:0.11214824 13:0.30163499 14:0.11035028 15:0.46276901 16:0.27352627 17:0.34727504 18:0.15123859 19:0.11111111 20:0.11111111 22:0.13428571 23:0.52208836 24:0.094696967 25:0.72413792 26:0.12987013 27:0.056869888 28:0.45093624 29:0.10525873 30:0.23778845 31:0.16863905 32:0.35277777 33:0.096868182 34:0.25 35:0.19670413 36:0.5 37:0.5 38:0.055555556 39:0.1 42:0.57142857 43:0.4 44:0.33333333 45:0.22222222 48:0.25 49:0.125 50:0.33333333 52:0.14285714 55:0.125 
1.021325851955299 0:0.40528945 1:0.50999857 2:0.41604356 4:0.27346645 6:0.56679601 7:0.51723802 8:0.89778894 9:0.56050676 10:0.34995019 11:0.52520541 12:0.03755425 13:0.4580723 14:0.02682427 15:0.35203435 16:0.50014352 17:0.77059569 18:0.68916328 19:0.11111111 20:0.066666656 21:0.22891566 23:0.54618475 24:0.65530304 25:0.72413792 26:0.53246754 27:0.54092302 28:0.65515102 29:0.089922961 30:0.34198346 31:0.017751477 32:0.35555555 33:0.38231093 34:0.25 35:0.22425224 36:0.1875 38:0.33333333 39:0.4 40:0.21428571 41:0.25 43:0.1 44:0.16666667 45:0.22222222 48:0.25 49:0.375 51:0.16666667 53:0.16666667 55:0.125 56:0.14285714 57:0.125 
-0.5169042031540825 0:0.50557768 1:0.37066587 2:0.41604356 4:0.12289845 5:0.25453766 6:0.53942073 7:0.1907039 8:0.80415518 9:0.27091391 10:0.30678568 11:0.58536585 12:0.05116831 13:0.5589922 14:0.022528458 15:0.3608105 16:0.30375344 17:0.5792142 18:0.48262375 19:0.11111111 20:0.066666656 21:0.25301204 22:0.20857143 23:0.61044178 24:0.25757576 25:1 26:0.18181819 27:0.33978695 28:0.6815787 29:0.094401085 30:0.58072084 31:0.0029585824 32:0.56111111 33:0.36966887 34:0.55 35:0.58178701 36:0.4375 37:0.2 38:0.38888889 39:0.3 41:0.25 42:0.28571429 43:0.3 44:0.16666667 45:0.22222222 46:0.25 47:0.57142857 48:0.25 49:0.25 51:0.33333333 52:0.14285714 55:0.5 56:0.42857143 57:0.125 59:0.25 
-7.507190631001819 0:0.27998376 1:0.21102493 2:0.41604356 3:0.077453688 4:0.037456133 5:0.33052036 6:0.51377692 7:0.26280045 8:0.61579132 9:0.4326621 10:0.27778446 11:0.27187805 12:0.049381169 13:0.27887782 14:0.02437872 15:0.21445868 16:0.1037875 17:0.27249683 18:0.24413298 19:0.11111111 22:0.35142857 23:0.73493976 24:0.25757576 25:0.96551722 26:0.051948064 27:0.098441026 28:0.58121686 29:0.10171749 30:0.3426831 31:0.017751482 32:0.28333333 33:0.18212491 34:0.525 35:0.43111069 36:0.6875 37:0.5 38:0.22222222 39:0.3 40:0.21428571 42:0.42857143 43:0.7 45:0.44444444 46:0.25 47:0.14285714 49:0.125 51:0.16666667 52:0.14285714 54:0.33333333 55:0.375 57:0.25 
-8 0:0.34368177 1:0.61481111 2:0.41604356 4:0.022177809 5:0.35439203 6:0.63761134 7:0.56619364 8:1 9:0.41361737 10:0.44489253 11:0.59771269 12:0.44402644 13:0.51156963 14:0.14729238 15:0.2057641 16:0.47099237 17:0.63244614 18:0.50488918 19:0.11111111 20:0.066666656 22:0.34571429 23:0.47791165 24:0.63257577 25:0.83908045 26:0.12987013 27:0.38264819 28:0.77118041 29:0.76283378 30:0.66081609 31:0.076923077 32:0.13333333 33:0.49425756 34:0.125 35:0.10920175 36:0.25 37:0.1 38:0.11111111 39:0.2 40:0.071428571 42:0.28571429 43:0.1 45:0.11111111 47:0.14285714 48:0.25 49:0.375 51:0.16666667 56:0.14285714 
-5.506718217617125 0:0.38446093 1:0.51429715 2:0.41604356 4:0.27346645 5:0.18749368 6:0.28398225 7:0.46474882 8:0.61579132 9:0.61839875 10:0.40183463 11:0.63967592 12:0.090407459 13:0.56052449 14:0.058881377 15:0.26131123 16:0.27665269 17:0.66666667 18:0.55850718 19:0.11111111 20:0.066666656 21:0.22891566 22:0.25714286 23:0.40160643 24:0.34469698 25:1 26:0.18181819 27:0.31113236 28:0.7740606 29:0.27875201 30:0.61969624 31:0.02662722 32:0.25 33:0.34524615 34:0.225 35:0.27664317 36:0.25 37:0.1 38:0.27777778 39:0.4 40:0.071428571 42:0.14285714 43:0.1 47:0.42857143 48:0.25 49:0.125 51:0.33333333 55:0.125 56:0.28571429 57:0.125 58:1 
-8 0:0.34873069 1:0.57537918 2:0.41604356 5:0.44310935 6:0.54664288 7:0.57661196 8:0.70194411 9:0.27355386 10:0.52926412 11:0.57205082 12:0.26119311 13:0.42516215 14:0.069554657 15:0.12210171 16:0.4020798 17:0.50063372 18:0.2881356 19:0.11111111 20:0.066666656 22:0.34571429 23:0.42971889 24:0.31439394 25:0.8045977 26:0.18181819 27:0.37634618 28:0.55608091 29:0.29012648 30:0.56535901 31:0.085798822 32:0.20555555 33:0.54380965 34:0.15 35:0.14025529 36:0.375 37:0.2 38:0.11111111 39:0.2 42:0.28571429 43:0.3 44:0.16666667 45:0.11111111 47:0.14285714 48:0.25 49:0.25 51:0.16666667 59:0.25 
-8 0:0.48453734 1:0.43036076 2:0.41604356 3:0.077453688 4:0.26442 5:0.59542441 6:0.54664288 7:0.42238274 8:0.70194411 9:0.27355386 10:0.23201103 11:0.57205082 12:0.17639867 13:0.42516215 14:0.011531401 15:0.39329259 16:0.34490943 17:0.47782003 18:0.38054107 19:0.11111111 21:0.37951807 22:0.59428571 23:0.42971889 24:0.31439394 25:0.8045977 26:0.18181819 27:0.26897957 28:0.5599086 29:0.16664677 30:0.56535901 31:0.047337279 32:0.62777778 33:0.63054748 34:0.425 35:0.42735759 36:0.625 37:0.2 38:0.33333333 39:0.3 40:0.071428571 42:0.57142857 43:0.3 44:0.16666667 45:0.33333333 47:0.28571429 48:0.25 49:0.25 51:0.16666667 53:0.16666667 54:0.33333333 56:0.14285714 57:0.25 59:0.25 
-3.707113443347916 0:0.42615906 1:0.83236731 2:0.41604356 4:0.27346645 5:0.20498061 6:0.61643379 7:0.80163592 8:1 9:0.69227195 10:0.54541079 11:0.62063928 12:0.52876839 13:0.48606315 14:0.3523091 15:0.33751288 16:0.54665301 17:0.6818758 18:0.59926514 19:0.11111111 20:0.066666656 21:0.22891566 22:0.20857143 23:0.59437752 24:0.53787879 25:0.83908045 26:0.18181819 27:0.4277215 28:0.68857837 29:0.70700122 30:0.57691213 31:0.53846154 32:0.50555556 33:0.65045317 34:0.1 35:0.11878453 36:0.25 37:0.1 38:0.16666667 39:0.3 40:0.071428571 42:0.14285714 43:0.1 44:0.16666667 47:0.14285714 48:0.25 49:0.375 53:0.33333333 
-8 0:0.93455183 1:0.62334352 2:0.41604356 4:0.19671658 5:0.56527532 6:0.94880346 7:0.37381823 8:1 9:0.25328568 10:0.22774316 11:0.69492784 12:0.03244319 13:0.68615839 14:0.0025844503 15:0.35622328 16:0.48551848 17:0.63371356 18:0.52428292 19:0.11111111 20:0.066666656 21:0.27108434 22:0.71428571 23:0.6626506 24:0.32575758 25:0.83908045 26:0.18181819 27:0.19075022 28:0.79955063 29:0.21414846 30:0.69451891 31:0.0088757312 32:0.27777777 33:0.57377505 34:0.625 35:0.73202514 36:0.6875 37:0.4 38:0.61111111 39:0.6 40:0.071428571 42:0.42857143 43:0.3 45:0.22222222 46:0.25 47:0.28571429 48:0.25 49:1 51:0.5 52:0.14285714 53:0.33333333 55:0.125 56:0.14285714 57:0.25 59:0.25 
8 0:0.39923453 1:0.38674932 2:0.41604356 4:0.19671658 5:0.22614407 6:0.47065021 7:0.33881225 8:0.35877957 9:0.4326621 10:0.32798887 11:0.42967555 12:0.012423464 13:0.29874043 14:0.5562825 15:0.9865849 16:0.63767325 17:0.53105197 18:0.41881 19:0.11111111 20:0.066666656 21:0.27108434 22:0.23714286 23:0.53815261 24:0.35227273 25:0.43678161 26:0.18181819 27:0.25273102 28:0.74869022 29:0.2759737 30:0.51361725 31:0.2928994 32:0.78888889 33:0.51561422 34:0.375 35:0.34214136 36:0.4375 37:0.2 38:0.22222222 42:0.28571429 43:0.2 44:0.5 45:0.44444444 46:0.25 47:0.28571429 48:0.25 49:0.125 51:0.33333333 53:0.16666667 55:0.125 56:0.14285714 57:0.125 
8 0:0.52915153 1:0.36268499 2:0.41604356 3:0.077453688 4:0.087338285 5:0.20498061 6:0.57472688 7:0.28369998 8:0.80415518 9:0.46909844 10:0.15646962 11:0.51372347 12:0.080086638 13:0.61593133 14:0.0010381699 15:0.34223243 16:0.25756136 17:0.44106464 18:0.38970434 19:0.11111111 22:0.20857143 23:0.73092371 24:0.10984849 25:1 26:0.18181819 27:0.26017466 28:0.58419924 29:0.051243973 30:0.49928252 31:0.014792899 32:0.27499999 33:0.28535009 34:0.6 35:0.68786435 36:0.5625 37:0.3 38:0.44444444 39:0.5 40:0.071428571 42:0.14285714 43:0.2 44:0.16666667 45:0.22222222 46:0.25 47:0.57142857 49:0.25 51:0.66666667 52:0.57142857 53:0.33333333 54:0.33333333 55:0.125 56:0.28571429 57:0.125 58:0.5 59:0.25 
1.228966586483853 0:0.56910175 1:0.36633353 2:0.41604356 4:0.067703415 5:0.52287789 6:0.33583689 7:0.44707952 8:0.35877957 9:0.4326621 10:0.34027684 11:0.53760702 12:0.18347922 13:0.48515201 14:0.0064827707 15:0.59286137 16:0.35826556 17:0.51584283 18:0.44743392 19:0.11111111 20:0.066666656 21:0.10843373 22:0.7742857 23:0.52208835 24:0.14015152 25:0.68965517 26:0.18181819 27:0.13906239 28:0.76851222 29:0.41542813 30:0.78761516 31:0.017751484 32:0.56944443 33:0.50977736 34:0.65 35:0.66414555 36:0.75 37:0.4 38:0.55555556 39:0.3 40:0.21428571 41:0.25 42:0.42857143 43:0.6 45:0.22222222 46:0.25 47:0.14285714 48:0.25 49:0.375 50:0.33333333 51:0.33333333 53:0.16666667 55:0.375 56:0.14285714 57:0.5 
1.022434015551506 0:0.38341542 1:0.45520729 2:0.41604356 4:0.087338285 5:0.22911543 6:0.33631846 7:0.30720354 8:0.47494857 9:0.50657135 10:0.42823369 11:0.45212611 12:0.14332271 13:0.31791561 14:0.0028513861 15:0.20217776 16:0.49553741 17:0.62484158 18:0.50564972 19:0.11111111 20:0.066666656 22:0.25714286 23:0.50200804 24:0.35606061 25:0.60919539 26:0.42857144 27:0.48597436 28:0.64066538 29:0.18630123 30:0.32532845 31:0.0059171577 32:0.29166666 33:0.4884932 34:0.275 35:0.27689084 36:0.25 38:0.22222222 39:0.1 40:0.071428571 42:0.28571429 43:0.1 45:0.33333333 47:0.42857143 48:0.25 49:0.25 52:0.42857143 53:0.16666667 58:0.5 
-0.3113142830789606 0:0.35847239 1:0.47939936 2:0.41604356 3:0.077453688 4:0.65742352 5:0.35243583 6:0.38981806 7:0.60713684 8:0.79557787 9:0.32578327 10:0.33554353 11:0.54262807 12:0.16592964 13:0.63114845 14:0.031775379 15:0.28409986 16:0.45766207 17:0.52217997 18:0.36342894 19:0.11111111 21:0.69879516 22:0.27999999 23:0.23293172 24:0.26136364 25:0.77011492 26:0.18181819 27:0.27423281 28:0.57858855 29:0.13681224 30:0.66798128 31:0.0059171647 32:0.13333333 33:0.5411813 34:0.225 35:0.26917507 36:0.4375 37:0.2 38:0.22222222 39:0.3 40:0.071428571 43:0.4 44:0.66666667 48:0.5 52:0.14285714 53:0.16666667 54:0.33333333 57:0.25 
-8 0:0.29211358 1:0.52248243 2:0.41604356 5:0.058568225 6:0.65907038 7:0.2841768 8:0.89778894 9:0.31367464 10:0.34790259 11:0.51154285 12:0.46092353 13:0.47846593 14:0.22362652 15:0.27926383 16:0.25717905 17:0.70468948 18:0.63494133 19:0.11111111 20:0.066666656 22:0.12 23:0.58232932 24:0.54924243 25:0.77011492 26:0.48051948 27:0.4277215 28:0.73998736 29:0.61242783 30:0.52335329 31:0.044378699 32:0.24722222 33:0.26868043 34:0.125 35:0.098875974 36:0.125 38:0.16666667 39:0.3 40:0.14285714 43:0.1 44:0.33333333 45:0.11111111 48:0.25 49:0.125 51:0.16666667 55:0.125 56:0.14285714 57:0.125 
-2.403639649335221 0:0.40568772 1:0.4561038 2:0.41604356 4:0.067703415 5:0.11713645 6:0.33283579 7:0.53485417 8:0.61579132 9:0.53076008 10:0.36042985 11:0.47780883 12:0.1393379 13:0.50962253 14:0.015003756 15:0.24154909 16:0.36712002 17:0.70215462 18:0.59507308 19:0.11111111 20:0.066666656 21:0.10843373 22:0.23999999 23:0.51004016 24:0.46212121 25:0.88505744 26:0.18181819 27:0.45342778 28:0.76535773 29:0.19661139 30:0.4774906 31:4.7583678e-16 32:0.40833332 33:0.45149428 34:0.3 35:0.29297009 36:0.3125 37:0.1 38:0.33333333 39:0.3 40:0.21428571 43:0.2 44:0.16666667 45:0.11111111 48:0.25 49:0.25 51:0.16666667 53:0.33333333 55:0.375 57:0.375 
8 0:0.38772809 1:0.46035496 2:0.41604356 5:0.32038689 6:0.44517838 7:0.45203492 8:0.60831035 9:0.32578327 10:0.26780925 11:0.63980353 12:0.31727992 13:0.66113679 14:0.0027855816 15:0.22727582 16:0.21875997 17:0.55259823 18:0.41894828 19:0.11111111 20:0.066666656 22:0.32857142 23:0.63855422 24:0.10984849 25:1 26:0.18181819 27:0.23152005 28:0.80319635 29:0.40587761 30:0.74483293 31:0.038461534 32:0.24722222 33:0.43711074 34:0.275 35:0.30935416 36:0.4375 37:0.2 38:0.22222222 39:0.3 40:0.071428571 42:0.28571429 43:0.3 44:0.33333333 47:0.28571429 48:0.25 51:0.33333333 52:0.28571429 55:0.125 57:0.25 
-8 0:0.29482006 1:0.28477896 2:0.41604356 3:0.077453688 4:0.022177809 5:0.21559474 6:0.30054853 7:0.17432286 8:0.61579132 9:0.020268188 10:0.15006515 11:0.49020007 12:0.23705961 13:0.54724966 14:0.037300429 15:0.3362729 16:0.16487121 17:0.36248415 18:0.25328908 19:0.11111111 22:0.29142856 23:0.46586345 24:0.034090904 25:0.88505744 26:0.051948064 27:0.048575458 28:0.47814693 29:0.064598628 30:0.62473132 31:0.017751473 32:0.34166666 33:0.31004335 34:0.375 35:0.40411507 36:0.6875 37:0.6 38:0.27777778 39:0.4 40:0.14285714 42:0.42857143 43:0.3 44:0.16666667 46:0.25 48:0.25 49:0.125 50:0.33333333 51:0.16666667 53:0.5 54:0.33333333 56:0.14285714 57:0.375 
-5.733907759954379 0:0.59503472 1:0.52927908 2:0.90089105 3:0.077453688 5:0.14349837 6:0.63047799 7:0.4173319 8:1 9:0.40646694 10:0.29386607 11:0.69525523 12:0.22433052 13:0.60654193 14:0.0047045196 15:0.28145894 16:0.32355418 17:0.7705957 18:0.6440678 19:0.81111111 21:0.15060241 22:0.13142857 23:0.58634539 24:0.44318182 25:0.91954022 26:0.53246754 27:0.42304991 28:0.73516466 29:0.32808945 30:0.42534835 31:0.011834317 32:0.22222221 33:0.23412821 34:0.425 35:0.41047819 36:0.1875 38:0.38888889 39:0.3 40:0.14285714 41:0.25 42:0.28571429 44:0.16666667 45:0.22222222 47:0.14285714 49:0.625 52:0.14285714 53:0.16666667 54:0.33333333 55:0.625 56:0.28571429 
-6.444761811029892 0:0.45747906 1:0.48862154 2:0.90089105 3:0.077453688 5:0.24155637 6:0.4737028 7:0.4173319 8:0.61579132 9:0.39265231 10:0.29386607 11:0.54752079 12:0.30575195 13:0.64793272 14:0.011969418 15:0.20733762 16:0.43947977 17:0.67300381 18:0.56056063 19:0.81111111 22:0.18857143 23:0.60240964 24:0.48106061 25:0.88505744 26:0.40259741 27:0.42081003 28:0.74826129 29:0.29796894 30:0.48553199 31:0.017751483 32:0.23888888 33:0.2298185 34:0.325 35:0.29603734 36:0.1875 38:0.22222222 39:0.2 40:0.071428571 42:0.14285714 43:0.1 44:0.16666667 45:0.22222222 49:0.5 52:0.14285714 53:0.16666667 54:0.33333333 55:0.625 56:0.14285714 57:0.125 
-3.140358902886066 0:0.28327372 1:0.33567688 2:0.90089105 4:0.27781982 5:0.30012459 6:0.45155482 7:0.12337587 8:0.35877957 9:0.020268188 10:0.16323448 11:0.26738948 12:0.18268209 13:0.34353777 14:0.042188894 15:0.55846487 16:0.49997686 17:0.47148289 18:0.3215993 19:0.81111111 20:0.066666656 21:0.22891566 22:0.30857142 23:0.55421687 24:0.14015151 25:0.36781607 26:0.16883116 27:0.1470165 28:0.53755557 29:0.35683058 30:0.57089407 31:0.15384616 32:0.64166666 33:0.39862656 34:0.275 35:0.27431892 36:0.375 37:0.1 38:0.11111111 42:0.14285714 43:0.3 44:0.33333333 45:0.22222222 46:0.25 48:0.5 49:0.25 51:0.16666667 56:0.42857143 57:0.125 
-1.394545774333443 0:0.2498422 1:0.38207336 2:0.90089105 3:0.077453688 4:0.067703415 5:0.29290978 6:0.45440193 7:0.40867668 8:0.39776571 9:0.27091391 10:0.4878707 11:0.30309481 12:0.023901885 13:0.25365449 14:0.25983155 15:0.49351059 16:0.50002869 17:0.45373892 18:0.23337679 19:0.81111111 21:0.10843373 22:0.26857143 23:0.27710844 24:0.30303031 26:0.18181819 27:0.36009763 28:0.35398571 29:0.076510981 30:0.33693405 31:0.22189349 32:0.43055555 33:0.63324694 34:0.175 35:0.15987807 36:0.375 37:0.1 38:0.11111111 40:0.071428571 42:0.14285714 43:0.2 44:0.16666667 46:0.25 49:0.25 50:0.33333333 51:0.16666667 53:0.33333333 54:0.33333333 55:0.125 
-0.7268511008290742 0:0.50744152 1:0.77739687 2:0.90089105 4:0.25635053 5:0.29795578 6:0.77091032 7:0.39848677 8:1 9:0.41361737 10:0.50914235 11:0.69989152 12:0.49490947 13:0.53208885 14:0.0059993934 15:0.30668192 16:0.32972306 17:0.71356148 18:0.63428944 19:0.81111111 20:0.066666656 21:0.27108434 22:0.28857143 23:0.67871487 24:0.32954546 25:0.83908045 26:0.12987013 27:0.38829126 28:0.70994893 29:0.59792625 30:0.53831983 31:0.0029585718 32:0.45833333 33:0.42356313 34:0.175 35:0.23160602 36:0.25 37:0.2 38:0.27777778 39:0.4 40:0.071428571 42:0.14285714 43:0.2 44:0.16666667 47:0.28571429 48:0.5 49:0.375 56:0.14285714 58:0.5 
-4.72370618238705 0:0.38364575 1:0.51320251 2:0.90089105 4:0.071347324 5:0.37440839 6:0.56288354 7:0.48512237 8:0.70194411 9:0.54013628 10:0.36781337 11:0.3550596 12:0.063066543 13:0.18615808 14:0.08260142 15:0.35516412 16:0.22590441 17:0.5982256 18:0.46610169 19:0.81111111 20:0.066666656 21:0.11445783 22:0.50571427 23:0.45381527 24:0.32954545 25:0.8045977 26:0.18181819 27:0.18379537 28:0.56781097 29:0.36565104 30:0.54648577 31:0.011834319 32:0.35277778 33:0.61959258 34:0.225 35:0.26056391 36:0.375 37:0.2 38:0.22222222 39:0.1 40:0.071428571 42:0.14285714 43:0.4 44:0.16666667 47:0.14285714 48:0.25 49:0.125 50:0.33333333 51:0.16666667 52:0.14285714 56:0.14285714 57:0.25 
-3.173830393185301 0:0.43608005 1:0.46563362 2:0.90089105 3:0.077453688 4:0.16035458 5:0.30012459 6:0.72452262 7:0.17210941 8:0.89778894 9:0.31367464 10:0.17112597 11:0.72653393 12:0.52460724 13:0.80574838 14:0.014923828 15:0.25794398 16:0.33400969 17:0.66539924 18:0.5523468 19:0.81111111 21:0.25301204 22:0.30857142 23:0.65461848 24:0.15909091 25:0.77011492 26:0.051948064 27:0.30575844 28:0.8533087 29:0.50011547 30:0.74831665 31:0.0029585762 32:0.31388888 33:0.35002095 34:0.325 35:0.39232234 36:0.3125 37:0.1 38:0.33333333 39:0.4 41:0.25 43:0.3 44:0.66666667 45:0.11111111 48:0.5 49:0.125 52:0.42857143 54:0.33333333 55:0.125 57:0.375 
-8 0:0.37649672 1:0.50360269 2:0.90089105 3:0.077453688 4:0.19671658 5:0.15646434 6:0.24803127 7:0.50715032 8:0.89778894 9:0.29892277 10:0.39070945 11:0.5066425 12:0.13083308 13:0.44264082 14:0.023091572 15:0.42034428 16:0.39479863 17:0.6539924 18:0.54139504 19:0.81111111 21:0.27108434 22:0.24857142 23:0.40160643 24:0.40909092 25:0.88505744 26:0.22077923 27:0.30259659 28:0.65652253 29:0.20738176 30:0.37950748 31:0.27514793 32:0.65277778 33:0.55538709 34:0.225 35:0.27374738 36:0.25 38:0.22222222 39:0.3 40:0.071428571 42:0.14285714 43:0.1 44:0.16666667 46:0.25 47:0.14285714 49:0.25 51:0.16666667 52:0.14285714 53:0.16666667 54:0.33333333 56:0.28571429 57:0.25 
-1.767397569217479 0:0.59487185 1:0.55241212 2:0.90089105 3:0.077453688 4:0.022177809 5:0.3462353 6:0.49178195 7:0.46193805 8:0.89778894 9:0.49259504 10:0.38257556 11:0.5454532 12:0.29160104 13:0.58004165 14:0.0017005581 15:0.27644977 16:0.34460312 17:0.59062105 18:0.4797914 19:0.81111111 22:0.50857143 23:0.41767069 24:0.36742425 25:0.91954022 26:0.051948064 27:0.1284569 28:0.78278586 29:0.36187893 30:0.9176249 31:0.0443787 32:0.43055556 33:0.59111548 34:0.4 35:0.44646599 36:0.5625 37:0.4 38:0.33333333 39:0.2 41:0.25 42:0.57142857 43:0.2 44:0.16666667 47:0.71428571 49:0.25 51:0.16666667 52:0.14285714 53:0.33333333 54:0.33333333 55:0.375 
1.948795011630399 0:0.29535715 1:0.57688704 2:0.90089105 3:0.077453688 4:0.19671658 6:0.35942722 7:0.46191823 8:0.89778894 9:0.55880076 10:0.42109414 11:0.65906672 12:0.53097923 13:0.48835764 14:0.45939451 15:0.44062203 16:0.42863996 17:0.63751585 18:0.51214887 19:0.81111111 21:0.27108434 23:0.32530121 24:0.42045455 25:0.72413792 26:0.18181819 27:0.54873479 28:0.65224842 29:0.54980883 30:0.43444398 31:0.3816568 32:0.35833333 33:0.37153975 34:0.1 35:0.081291672 36:0.125 37:0.1 38:0.11111111 39:0.2 42:0.14285714 44:0.33333333 45:0.22222222 47:0.14285714 49:0.125 51:0.16666667 52:0.14285714 54:0.33333333 58:0.5 
8 0:0.52160601 1:0.53066286 2:0.90089105 4:0.23341083 5:0.38281105 6:0.50838363 7:0.32142151 8:0.60831035 9:0.30551509 10:0.11492777 11:0.59876315 12:0.27533604 13:0.78035416 14:0.0044608849 15:0.50968744 16:0.5860262 17:0.7756654 18:0.66492829 19:0.81111111 20:0.066666656 21:0.1686747 22:0.34571429 23:0.65060242 24:0.46212121 25:1 26:0.18181819 27:0.28009553 28:0.7867283 29:0.2851307 30:0.77744142 31:0.0088757339 32:0.29444444 33:0.46264502 34:0.35 35:0.40302914 36:0.25 37:0.1 38:0.44444444 39:0.5 40:0.14285714 41:0.25 42:0.14285714 43:0.2 44:0.33333333 45:0.11111111 46:0.5 47:0.42857143 48:0.25 49:0.25 51:0.16666667 52:0.14285714 56:0.14285714 57:0.125 
8 0:0.44435495 1:0.49982836 2:0.90089105 4:0.037456133 5:0.19485179 6:0.62655676 7:0.35188531 8:1 9:0.45293028 10:0.26565384 11:0.61927749 12:0.34165387 13:0.65307432 14:0.057489852 15:0.53658708 16:0.39022468 17:0.48922687 18:0.35298154 19:0.81111111 20:0.066666656 22:0.21142857 23:0.40160643 24:0.32575758 25:0.83908045 26:0.12987013 27:0.10724594 28:0.55992609 29:0.44717872 30:0.63449056 31:0.11834319 32:0.39166666 33:0.32603479 34:0.3 35:0.30455325 36:0.375 37:0.2 38:0.22222222 39:0.2 40:0.071428571 42:0.14285714 43:0.3 44:0.33333333 45:0.11111111 48:0.25 49:0.375 51:0.33333333 52:0.28571429 55:0.25 59:0.25 
8 0:0.39993076 1:0.61240603 2:0.90089105 4:0.12289845 5:0.31781627 6:0.47806609 7:0.57195707 8:0.61579132 9:0.58681291 10:0.3716005 11:0.53480302 12:0.45852331 13:0.51271505 14:0.011212531 15:0.39896007 16:0.3356711 17:0.74144487 18:0.67731422 19:0.81111111 20:0.066666656 21:0.25301204 22:0.36571429 23:0.52610443 24:0.61742425 25:1 26:0.42857144 27:0.37364532 28:0.67536699 29:0.45743751 30:0.4616509 31:0.076923081 32:0.29722222 33:0.5273601 34:0.175 35:0.21975614 36:0.125 38:0.22222222 39:0.3 42:0.14285714 43:0.1 44:0.16666667 47:0.42857143 48:0.25 49:0.125 52:0.28571429 55:0.25 57:0.125 59:0.25 
-0.869366361467831 0:0.3243179 1:0.23637718 2:0.90089105 4:0.2679747 5:0.36415098 6:0.19052168 7:0.220557 8:0.48424683 9:0.2911821 10:0.20113862 11:0.50496751 12:0.16428794 13:0.46978224 14:0.0083065809 15:0.61098392 16:0.33554714 17:0.2572877 18:0.24281796 19:0.81111111 20:0.066666656 21:0.50602408 22:0.23714286 23:0.30923695 24:0.12121212 25:0.62068965 26:0.12987013 27:0.04062134 28:0.64001457 29:0.11864379 30:0.52311899 31:0.02662722 32:0.57222222 33:0.34688447 34:0.55 35:0.61697466 36:0.6875 37:0.5 38:0.33333333 39:0.2 42:0.57142857 43:0.2 44:0.16666667 45:0.11111111 46:0.25 47:0.14285714 48:0.75 49:0.25 50:0.33333333 51:0.33333333 52:0.42857143 53:0.16666667 55:0.25 56:0.14285714 57:0.25 58:0.5 59:0.25 
-8 0:0.33073377 1:0.41577321 2:0.90089105 4:0.29268873 5:0.37307725 6:0.47207001 7:0.39093624 8:0.51358025 9:0.32578327 10:0.097629995 11:0.59841901 12:0.71217125 13:0.81182278 14:0.024240363 15:0.29723127 16:0.38448651 17:0.55640051 18:0.41697983 19:0.81111111 20:0.066666656 21:0.27108434 22:0.34 23:0.57028113 24:0.24621212 25:0.77011492 26:0.12987013 27:0.28585924 28:0.67385832 29:0.42337335 30:0.55617214 31:0.053254426 32:0.42222222 33:0.38000024 34:0.25 35:0.2649076 36:0.375 37:0.2 38:0.27777778 39:0.3 40:0.14285714 42:0.28571429 43:0.2 44:0.33333333 45:0.11111111 47:0.14285714 48:0.75 49:0.125 52:0.14285714 57:0.125 59:0.25 
-6.200119569512203 0:0.45957333 1:0.36198021 2:0.90089105 3:0.077453688 4:0.27086696 5:0.38925419 6:0.49251433 7:0.26280045 8:0.42284037 9:0.25328568 10:0.20416562 11:0.33638243 12:0.11194976 13:0.49048142 14:0.034683599 15:0.59246819 16:0.38311129 17:0.36121673 18:0.30436042 19:0.81111111 21:0.1686747 22:0.33714285 23:0.46184739 24:0.24242424 25:0.96551722 26:0.051948064 27:0.18943843 28:0.44005644 29:0.050974352 30:0.39725157 31:0.035502963 32:0.77222222 33:0.41632097 34:0.5 35:0.51108782 36:0.625 37:0.2 38:0.27777778 39:0.2 42:0.42857143 43:0.4 44:0.33333333 45:0.33333333 46:0.25 47:0.28571429 48:0.25 49:0.25 52:0.14285714 53:0.33333333 54:0.33333333 55:0.25 56:0.14285714 57:0.125 58:0.5 
-8 0:0.350262 1:0.46837433 2:0.90089105 4:0.12289845 5:0.24520745 6:0.41445278 7:0.36636335 8:0.43389919 9:0.54669213 10:0.39432968 11:0.32921858 12:0.1978704 13:0.36543169 14:0.027780833 15:0.37495303 16:0.229684 17:0.63751584 18:0.51914928 19:0.81111111 20:0.066666656 21:0.25301204 22:0.23714286 23:0.437751 24:0.36363637 25:0.96551722 26:0.18181819 27:0.20534666 28:0.78160885 29:0.37417033 30:0.70479111 31:0.041420124 32:0.30555555 33:0.41485291 34:0.225 35:0.24978091 36:0.3125 37:0.3 38:0.22222222 39:0.4 42:0.28571429 43:0.1 44:0.16666667 45:0.11111111 47:0.14285714 48:0.25 49:0.125 53:0.33333333 55:0.125 56:0.14285714 57:0.375 59:0.25 
8 0:0.41530108 1:0.55570974 2:0.24355698 4:0.12289845 5:0.413433 6:0.50458149 7:0.63952132 8:0.61579132 9:0.34748484 10:0.30612561 11:0.63761931 12:0.55144854 13:0.75024587 14:0.022871447 15:0.28092399 16:0.60812157 17:0.73764259 18:0.65433507 19:0.45555555 20:0.066666656 21:0.25301204 22:0.38857142 23:0.49799196 24:0.67045456 25:0.88505744 26:0.54545456 27:0.51852094 28:0.85799425 29:0.51683752 30:0.80384447 31:0.071005914 32:0.13333332 33:0.57909166 34:0.225 35:0.24570394 36:0.1875 38:0.22222222 39:0.2 42:0.28571429 43:0.1 44:0.16666667 45:0.22222222 46:0.25 48:0.25 49:0.375 56:0.28571429 57:0.375 
7.452142387520998 0:0.40582577 1:0.39318628 2:0.24355698 4:0.067703415 5:0.32860981 6:0.55198389 7:0.46850678 8:0.61579132 9:0.50657135 10:0.3188209 11:0.41497921 12:0.31137086 13:0.44847667 14:0.015668616 15:0.34622933 16:0.27684075 17:0.57667934 18:0.46361266 19:0.45555555 20:0.066666656 21:0.10843373 22:0.26857143 23:0.54216868 24:0.42045455 25:0.96551722 26:0.18181819 27:0.18943844 28:0.60402123 29:0.22456908 30:0.62327798 31:0.014792898 32:0.35555556 33:0.38716629 34:0.375 35:0.37313774 36:0.4375 37:0.2 38:0.27777778 39:0.3 40:0.14285714 43:0.3 44:0.16666667 45:0.33333333 47:0.14285714 48:0.25 49:0.25 51:0.33333333 52:0.14285714 53:0.33333333 56:0.28571429 57:0.25 
6.004384211950217 0:0.3552231 1:0.63547492 2:0.24355698 4:0.27346645 5:0.13032259 6:0.44806757 7:0.61884551 8:1 9:0.29892277 10:0.43288038 11:0.55970322 12:0.44261375 13:0.40115322 14:0.22967272 15:0.33870617 16:0.64396529 17:0.7148289 18:0.65319427 19:0.45555555 20:0.066666656 21:0.22891566 22:0.10857143 23:0.40963856 24:0.52651516 25:0.83908045 26:0.22077923 27:0.44362972 28:0.74627887 29:0.6294192 30:0.51102144 31:0.068047337 32:0.18333333 33:0.4231213 34:0.125 35:0.11600305 36:0.125 38:0.16666667 39:0.3 40:0.071428571 42:0.14285714 44:0.16666667 45:0.11111111 46:0.25 47:0.14285714 48:0.25 49:0.375 53:0.16666667 55:0.125 
-4.082284172179716 0:0.48960563 1:0.55099744 2:0.24355698 4:0.19671658 5:0.15231507 6:0.7595168 7:0.3529726 8:0.80415518 9:0.55880076 10:0.43581766 11:0.56702876 12:0.082491009 13:0.32442549 14:0.018879836 15:0.35430297 16:0.43563334 17:0.79340938 18:0.6988266 19:0.45555555 20:0.066666656 21:0.27108434 22:0.24857142 23:0.90361446 24:0.43560607 25:0.91954022 26:0.42857144 27:0.58845586 28:0.82305824 29:0.099266256 30:0.3754161 31:0.014792903 32:0.28055555 33:0.36618636 34:0.3 35:0.28605449 36:0.1875 38:0.27777778 39:0.4 40:0.071428571 42:0.42857143 45:0.33333333 47:0.42857143 48:0.25 49:0.375 52:0.14285714 55:0.25 56:0.14285714 57:0.125 
0.1882346497428671 0:0.24186754 1:0.15328392 2:0.24355698 6:0.31472817 7:0.25870624 8:0.31329646 9:0.25328568 10:0.13642951 11:0.52083874 12:0.045326365 13:0.61775466 14:0.034827692 15:0.53310002 16:0.56379222 17:0.4765526 18:0.42171388 19:0.45555555 20:0.066666656 23:0.48192772 24:0.25 25:0.77011494 26:0.22077923 27:0.19498251 28:0.58178788 29:0.065260067 30:0.47668851 31:0.0029585832 32:0.44444444 33:0.27910222 34:0.65 35:0.5954658 36:0.25 38:0.38888889 39:0.1 40:0.071428571 41:0.25 42:0.14285714 44:0.5 45:0.77777778 46:1 47:0.14285714 48:0.25 49:0.25 51:0.33333333 52:0.42857143 53:0.16666667 55:0.25 56:0.28571429 57:0.125 59:0.25 
-8 0:0.541007 1:0.72450947 2:0.24355698 4:0.27346645 5:0.13032259 6:0.58868228 7:0.64202845 8:1 9:0.56050676 10:0.41625715 11:0.71670321 12:0.289161 13:0.67286691 14:0.0061190528 15:0.30905215 16:0.52075427 17:0.91128011 18:0.88877119 19:0.45555555 20:0.066666656 21:0.22891566 22:0.18 23:0.60240965 24:0.82196971 25:0.88505744 26:0.77922078 27:0.70569783 28:0.73190797 29:0.1843168 30:0.49168148 31:8.8172547e-10 32:0.22222221 33:0.36554742 34:0.225 35:0.2426748 36:0.0625 38:0.33333333 39:0.4 40:0.071428571 41:0.25 42:0.14285714 45:0.22222222 47:0.14285714 48:0.25 49:0.625 52:0.14285714 55:0.125 56:0.14285714 57:0.125 
-2.310030423326975 0:0.31947081 1:0.45591466 2:0.24355698 4:0.12289845 5:0.28906421 6:0.40587301 7:0.52844934 8:0.61579132 9:0.46909844 10:0.31407998 11:0.75279796 12:0.5466327 13:0.87014776 14:0.001001606 15:0.3898075 16:0.54330936 17:0.60836502 18:0.47614081 19:0.45555555 20:0.066666656 21:0.25301204 22:0.21714286 23:0.46987952 24:0.38636364 25:0.88505744 26:0.18181819 27:0.20456703 28:0.82621273 29:0.6745261 30:0.83739591 31:0.10650887 32:0.41944444 33:0.42812862 34:0.2 35:0.21646028 36:0.1875 37:0.1 38:0.22222222 39:0.3 40:0.071428571 42:0.14285714 43:0.2 45:0.11111111 46:0.25 48:0.25 49:0.375 50:0.33333333 52:0.28571429 57:0.125 59:0.25 
-6.710290743081257 0:0.33580617 1:0.42218384 2:0.24355698 4:0.037456133 5:0.14349837 6:0.25266824 7:0.63332967 8:0.48424683 9:0.45293028 10:0.56041391 11:0.36552966 12:0.039939901 13:0.2269685 14:0.063923417 15:0.27076251 16:0.31268475 17:0.60456274 18:0.47818084 19:0.45555555 20:0.066666656 22:0.13142857 23:0.40963856 24:0.3939394 25:0.62068965 26:0.12987013 27:0.37469408 28:0.50326542 29:0.27414571 30:0.31930115 31:0.03550296 32:0.16666666 33:0.16875475 34:0.25 35:0.18576872 36:0.25 37:0.2 38:0.27777778 39:0.5 40:0.21428571 43:0.3 44:0.16666667 45:0.33333333 48:0.25 49:0.25 50:0.33333333 53:0.16666667 55:0.125 59:0.25 
-8 0:0.25488457 1:0.17260003 2:0.24355698 3:0.077453688 4:0.022177809 5:0.25579835 6:0.18640064 7:0.25726401 8:0.47494857 9:0.31919096 10:0.26186453 11:0.40402675 12:0.076943098 13:0.45821507 14:0.0016230376 15:0.18707934 16:0.11694532 17:0.1166033 18:0.16360348 19:0.45555555 22:0.27999999 23:0.21686748 24:0.02272727 25:0.68965517 26:0.12987013 27:0.13906239 28:0.64291718 29:0.34342142 30:0.55245195 31:1.763451e-09 32:0.32777778 33:0.19913976 34:0.6 35:0.55526767 36:0.8125 37:0.5 38:0.22222222 39:0.2 40:0.21428571 42:0.28571429 43:0.7 45:0.44444444 47:0.14285714 48:0.25 49:0.125 51:0.33333333 52:0.42857143 53:0.16666667 54:0.33333333 55:0.125 56:0.28571429 57:0.125 58:0.5 
0.2807876779497391 0:0.15077865 1:0.13757055 2:0.24355698 4:0.051616525 5:0.032264597 6:0.21481555 7:0.28624897 8:0.37273751 9:0.48936663 10:0.2607244 11:0.3386761 12:0.05233768 13:0.36709218 14:0.15385081 15:0.50868978 16:0.19245641 17:0.41951838 18:0.31908622 19:0.45555555 20:0.066666656 22:0.05142857 23:0.47389558 24:0.26136364 25:0.68965517 26:0.18181819 27:0.1706097 28:0.51410534 29:0.082196526 30:0.40362755 31:0.0088757409 32:0.56388888 33:0.27330355 34:0.4 35:0.32615736 36:0.4375 37:0.2 38:0.27777778 39:0.4 40:0.28571429 42:0.14285714 43:0.1 44:0.16666667 45:0.44444444 46:0.25 47:0.14285714 48:0.25 51:0.5 52:0.14285714 53:0.33333333 56:0.14285714 57:0.125 59:0.25 
-8 0:0.26613734 1:0.35541053 2:0.24355698 4:0.067703415 5:0.13032259 6:0.21901481 7:0.56756235 8:0.47494857 9:0.53076008 10:0.28161909 11:0.39842751 12:0.35326327 13:0.54021696 14:0.020914322 15:0.16726547 16:0.35177578 17:0.59442332 18:0.46096805 19:0.45555555 20:0.066666656 21:0.10843373 22:0.10857143 23:0.52208836 24:0.31439394 25:0.65517239 26:0.18181819 27:0.28841164 28:0.73722192 29:0.61411996 30:0.69026223 31:0.059171592 32:0.41666666 33:0.44400951 34:0.225 35:0.20249571 36:0.3125 37:0.2 38:0.22222222 39:0.3 40:0.14285714 43:0.1 45:0.22222222 48:0.25 49:0.25 51:0.33333333 53:0.33333333 55:0.125 57:0.25 58:0.5 
1.063134837232494 0:0.20961067 1:0.37476764 2:0.24355698 4:0.19671658 6:0.5561708 7:0.39778697 8:0.80415518 9:0.54669213 10:0.50449985 11:0.32357621 12:0.15295582 13:0.16229243 14:0.34215973 15:0.44701635 16:0.29299764 17:0.67934095 18:0.589309 19:0.45555555 20:0.066666656 21:0.27108434 23:0.73493977 24:0.42803031 25:0.91954022 26:0.53246754 27:0.61701148 28:0.48967755 29:0.28883488 30:0.26311646 31:0.1035503 32:0.21666666 33:0.21199265 34:0.125 35:0.084377981 36:0.0625 38:0.11111111 39:0.2 40:0.071428571 42:0.14285714 45:0.11111111 47:0.28571429 48:0.25 49:0.125 55:0.375 56:0.14285714 59:0.25 
-0.4999227253965389 0:0.7088386 1:0.41867824 2:0.24355698 3:0.077453688 5:0.34838704 6:0.27901609 7:0.46318836 8:0.61579132 9:0.39265231 10:0.23649916 11:0.41967988 12:0.048612888 13:0.42961087 14:0.0029178664 15:0.45400223 16:0.32639992 17:0.75411914 18:0.59767493 19:0.45555555 22:0.32 23:0.51405623 24:0.42045455 25:0.88505744 26:0.18181819 27:0.32253914 28:0.65793887 29:0.10049154 30:0.47871069 31:0.0029585806 32:0.45833333 33:0.38438127 34:0.725 35:0.80394362 36:0.3125 37:0.1 38:0.72222222 39:0.5 40:0.42857143 42:0.57142857 44:0.16666667 45:0.11111111 46:0.25 47:0.28571429 49:0.375 52:0.42857143 53:0.16666667 54:0.33333333 55:0.375 56:0.85714286 57:0.375 59:0.25 
7.289614911779445 0:0.30569898 1:0.43618877 2:0.24355698 3:0.077453688 4:0.19671658 5:0.12601144 6:0.50502568 7:0.5283396 8:0.80415518 9:0.60077051 10:0.41345881 11:0.33279351 12:0.064009832 13:0.27566697 14:0.00081764823 15:0.13595434 16:0.3228891 17:0.61216731 18:0.4816167 19:0.45555555 21:0.27108434 22:0.18 23:0.40963857 24:0.44318182 25:0.91954022 26:0.18181819 27:0.38271938 28:0.49016879 29:0.19771807 30:0.46819026 31:0.017751481 32:0.17777777 33:0.6232194 34:0.2 35:0.19138883 36:0.3125 37:0.2 38:0.16666667 39:0.2 40:0.071428571 42:0.14285714 43:0.1 45:0.11111111 47:0.42857143 49:0.125 50:0.33333333 53:0.5 54:0.33333333 55:0.125 56:0.14285714 
2.46008179746298 0:0.27428211 1:0.53572359 2:0.24355698 3:0.077453688 5:0.42068857 6:0.37390988 7:0.78003289 8:0.29555465 9:0.35253153 10:0.6646788 11:0.28496936 12:0.10282002 13:0.043998889 14:0.097819719 15:0.092473122 16:0.52393279 17:0.65272497 18:0.54201731 19:0.45555555 22:0.35999999 23:0.38554218 24:0.51515152 25:0.68965517 26:0.18181819 27:0.59955013 28:0.45975876 29:0.24079192 30:0.15437275 31:0.3224852 32:0.30277777 33:0.45931436 34:0.1 35:0.06004953 36:0.1875 37:0.1 38:0.11111111 39:0.2 41:0.25 42:0.14285714 43:0.2 44:0.33333333 45:0.22222222 49:0.125 54:0.33333333 57:0.125 
8 0:0.36804844 1:0.37355862 2:0.24355698 3:0.077453688 4:0.22324777 5:0.093746841 6:0.34260992 7:0.44469212 8:0.43389919 9:0.41361737 10:0.37074918 11:0.47254525 12:0.16725144 13:0.43009832 14:0.070422923 15:0.60868545 16:0.35742477 17:0.60963245 18:0.49413298 19:0.45555555 21:0.27108434 22:0.12857143 23:0.68273092 24:0.32575758 25:0.93103444 26:0.12987013 27:0.22487771 28:0.71734256 29:0.41559177 30:0.7310808 31:0.071005918 32:0.49166667 33:0.42938767 34:0.35 35:0.37073728 36:0.375 37:0.2 38:0.38888889 39:0.4 40:0.14285714 42:0.14285714 43:0.1 44:0.16666667 45:0.22222222 47:0.14285714 48:0.25 49:0.125 51:0.16666667 53:0.33333333 54:0.33333333 55:0.125 56:0.14285714 57:0.375 58:0.5 59:0.25 
-0.4624498099458472 0:0.18100608 1:0.29818162 2:0.24355698 4:0.048708996 5:0.23392106 6:0.27513191 7:0.38540507 8:0.41994649 9:0.36775303 10:0.41384333 11:0.35501629 12:0.20774326 13:0.37082663 14:0.10414233 15:0.12008762 16:0.24998735 17:0.54879595 18:0.36816768 19:0.45555555 20:0.066666656 22:0.19999999 23:0.65060241 24:0.02272727 25:0.96551722 26:0.12987013 27:0.4276442 28:0.47926657 29:0.39395004 30:0.49210231 31:0.0088757356 32:0.047222203 33:0.28317406 34:0.15 35:0.14629453 36:0.3125 37:0.4 38:0.055555556 39:0.1 42:0.28571429 43:0.2 44:0.16666667 45:0.11111111 47:0.14285714 48:0.5 56:0.28571429 57:0.25 
-8 0:0.34202943 1:0.31622399 2:0.24355698 3:0.077453688 4:0.067703415 5:0.28178321 6:0.37596329 7:0.31508575 8:0.35877957 9:0.55220845 10:0.29554193 11:0.40215368 12:0.19147085 13:0.36752159 14:0.034423934 15:0.45199422 16:0.3059804 17:0.62737643 18:0.51431325 19:0.45555555 21:0.10843373 22:0.21714286 23:0.59839357 24:0.36742425 25:0.93103444 26:0.18181819 27:0.13906239 28:0.74212442 29:0.4520192 30:0.56244011 31:0.038461538 32:0.35833333 33:0.35584844 34:0.4 35:0.34749476 36:0.3125 37:0.1 38:0.27777778 39:0.2 40:0.14285714 42:0.28571429 43:0.1 45:0.55555556 47:0.14285714 49:0.25 50:0.33333333 51:0.16666667 52:0.14285714 53:0.16666667 54:0.33333333 56:0.42857143 57:0.25 
2.511708069855819 0:0.53832283 1:0.49958788 2:0.24355698 4:0.19671658 5:0.21733127 6:0.55922339 7:0.56688172 8:1 9:0.60443786 10:0.43928811 11:0.53751475 12:0.10996173 13:0.41425608 14:0.02139882 15:0.24629257 16:0.17931645 17:0.79721166 18:0.67382801 19:0.45555555 20:0.066666656 21:0.27108434 22:0.2942857 23:0.69477912 24:0.53409091 25:0.93103444 26:0.18181819 27:0.24112626 28:0.78851126 29:0.31762439 30:0.56612688 31:0.029585809 32:0.34166665 33:0.3849417 34:0.4 35:0.47136598 36:0.3125 37:0.2 38:0.5 39:0.6 40:0.14285714 42:0.28571429 43:0.2 45:0.11111111 47:0.14285714 48:0.25 49:0.25 50:0.33333333 52:0.14285714 53:0.16666667 55:0.125 56:0.28571429 57:0.625 59:0.25 
8 0:0.52076865 1:0.55661048 4:0.19671658 5:0.19485179 6:0.71599858 7:0.39991226 8:1 9:0.51049189 10:0.40573062 11:0.7780468 12:0.42130509 13:0.66246205 14:0.012922484 15:0.34746006 16:0.35332328 17:0.81115336 18:0.70977836 19:0.14444444 20:0.066666656 21:0.27108434 22:0.21142857 23:0.82730924 24:0.45833334 25:0.88505744 26:0.54545456 27:0.53807981 28:0.82748699 29:0.20213838 30:0.47997072 31:0.088757397 32:0.48055555 33:0.32046473 34:0.325 35:0.3396647 36:0.1875 38:0.44444444 39:0.6 40:0.28571429 42:0.14285714 43:0.1 45:0.11111111 46:0.25 47:0.14285714 48:0.25 49:0.5 50:0.33333333 51:0.16666667 55:0.125 56:0.28571429 57:0.125 
6.574206675685255 0:0.32300678 1:0.38310277 3:0.077453688 4:0.022177809 5:0.21598981 6:0.29272035 7:0.44081332 8:0.61579132 9:0.49259504 10:0.34576874 11:0.4107446 12:0.1452519 13:0.27016267 14:0.032773767 15:0.22312783 16:0.18328271 17:0.66159696 18:0.54976097 19:0.14444444 22:0.21142857 23:0.60240964 24:0.45075758 25:0.88505744 26:0.051948064 27:0.56826584 28:0.62182092 29:0.10437825 30:0.30325949 31:0.017751485 32:0.18333333 33:0.22783334 34:0.275 35:0.24995237 36:0.25 37:0.2 38:0.33333333 39:0.5 40:0.35714286 42:0.42857143 46:0.25 49:0.25 53:0.16666667 54:0.33333333 55:0.25 56:0.14285714 57:0.25 
1.014494192228126 0:0.20821664 1:0.1912252 3:0.077453688 4:0.044355617 5:0.32248634 6:0.19211817 7:0.32841539 8:0.27910375 9:0.35253153 10:0.040497584 11:0.28786657 12:0.11780297 13:0.38565518 14:0.072523802 15:0.39496695 16:0.30176346 17:0.40430926 18:0.30480132 19:0.14444444 22:0.37999999 23:0.46987953 24:0.125 25:0.68965517 26:0.12987013 27:0.2148817 28:0.58825641 29:0.080959943 30:0.44568018 31:0.44378698 32:0.68888889 33:0.4322684 34:0.4 35:0.36738427 36:0.4375 37:0.2 38:0.33333333 39:0.4 40:0.21428571 42:0.57142857 43:0.1 44:0.16666667 45:0.22222222 46:0.5 47:0.28571429 48:0.25 51:0.16666667 54:0.33333333 55:0.125 56:0.14285714 57:0.125 59:0.5 
-0.5462464797524678 0:0.45125833 1:0.53618547 6:0.41002083 7:0.57746756 8:0.89778894 9:0.25328568 10:0.33863278 11:0.71348204 12:0.48742644 13:0.8046656 14:0.033665573 15:0.4210264 16:0.55455668 17:0.78073511 18:0.69274229 19:0.14444444 20:0.066666656 23:0.4618474 24:0.68181819 25:0.88505744 26:0.48051948 27:0.41669839 28:0.70242306 29:0.36637274 30:0.50317364 31:0.082840233 32:0.41666666 33:0.37641201 34:0.275 35:0.29847589 36:0.0625 38:0.38888889 39:0.5 40:0.14285714 44:0.5 45:0.22222222 46:0.5 47:0.14285714 48:0.25 49:0.25 52:0.14285714 53:0.16666667 55:0.125 57:0.125 58:0.5 
-8 0:0.35249244 1:0.6884828 5:0.26269439 6:0.79467118 7:0.57694257 8:0.80415518 9:0.31367464 10:0.63980514 11:0.57063877 12:0.50756843 13:0.46406108 14:0.0071520347 15:0.0051720815 16:0.37977162 17:0.7287706 18:0.69135949 19:0.14444444 20:0.066666656 22:0.18857143 23:0.87550202 24:0.40151515 25:1 26:0.18181819 27:0.62085396 28:0.66968147 29:0.57074859 30:0.45342231 31:0.09763314 32:0.091666664 33:0.26322531 34:0.1 35:0.10424843 36:0.125 37:0.1 38:0.16666667 39:0.4 40:0.071428571 42:0.28571429 44:0.16666667 46:0.25 47:0.28571429 48:0.25 49:0.25 55:0.125 
-1.178665218345681 0:0.29714764 1:0.28705205 3:0.077453688 5:0.12309742 6:0.30253793 7:0.39150933 8:0.70194411 9:0.39265231 10:0.31717545 11:0.38768739 12:0.21655004 13:0.36222081 14:0.005268842 15:0.39989474 16:0.19033445 17:0.75285171 18:0.63660068 19:0.14444444 22:0.22285714 23:0.52208835 24:0.54166667 25:0.96551722 26:0.22077923 27:0.27321186 28:0.79682507 29:0.096325683 30:0.62807824 31:0.023668635 32:0.46388888 33:0.39933257 34:0.375 35:0.35633454 36:0.25 38:0.44444444 39:0.5 40:0.28571429 42:0.28571429 44:0.16666667 45:0.22222222 46:0.5 47:0.14285714 51:0.33333333 54:0.33333333 55:0.25 57:0.625 
6.943118322026767 0:0.48381419 1:0.5169121 4:0.27346645 6:0.73943162 7:0.59005877 8:1 9:0.30722109 10:0.46413167 11:0.62803017 12:0.15890083 13:0.58362303 14:0.0069222277 15:0.49602412 16:0.40918913 17:0.87325729 18:0.77685789 19:0.14444444 20:0.066666656 21:0.22891566 23:0.70281126 24:0.77272728 25:1 26:0.88311689 27:0.76001535 28:0.79678519 29:0.12066243 30:0.50506503 31:0.023668637 32:0.26666666 33:0.36822603 34:0.325 35:0.33562583 36:0.125 38:0.44444444 39:0.6 40:0.21428571 41:0.25 44:0.16666667 45:0.11111111 46:0.25 47:0.28571429 48:0.25 49:0.375 51:0.16666667 53:0.16666667 55:0.375 56:0.14285714 57:0.125 
-8 0:0.32949565 1:0.35113516 5:0.16258719 6:0.52031218 7:0.40422686 8:0.89778894 10:0.24007842 11:0.73976315 12:0.21769164 13:0.70758286 14:0.053938655 15:0.67702942 16:0.55708599 17:0.55259823 18:0.43050847 19:0.14444444 20:0.066666656 22:0.16 23:0.48594378 24:0.5 25:0.72413792 26:0.18181819 27:0.44024823 28:0.61650696 29:0.24067817 30:0.39755042 31:0.0059171612 32:0.43611111 33:0.38607897 34:0.325 35:0.28847399 36:0.25 37:0.1 38:0.33333333 39:0.4 40:0.21428571 42:0.14285714 43:0.1 44:0.33333333 45:0.33333333 46:0.75 48:0.25 49:0.375 51:0.16666667 53:0.16666667 59:0.25 
-8 0:0.18363138 1:0.35866598 4:0.004353379 6:0.49563337 7:0.3716447 8:0.51358025 9:0.36775303 10:0.40063003 11:0.37430278 12:0.52966823 13:0.48699704 14:0.0053427554 15:0.0034299838 16:0.43187577 17:0.69961977 18:0.63411165 19:0.14444444 20:0.066666656 23:0.65060241 24:0.52651515 25:0.77011492 26:0.49350649 27:0.71664362 28:0.56892565 29:0.52559526 30:0.4124985 31:0.14201182 32:0.13333331 33:0.29804943 34:0.1 35:0.10413412 36:0.0625 38:0.11111111 39:0.3 40:0.071428571 44:0.16666667 46:0.25 48:0.25 49:0.125 51:0.16666667 55:0.125 56:0.28571429 57:0.25 
5.034670513877175 0:0.14575811 1:0.17153649 3:0.077453688 4:0.16035458 5:0.083166488 6:0.48653165 7:0.16381475 8:0.89778894 9:0.29340645 10:0.21045645 11:0.37623488 12:0.0086917401 13:0.44046202 14:0.0046585338 15:0.17054799 16:0.31242635 17:0.42585551 18:0.2668405 19:0.14444444 21:0.25301204 22:0.12 23:0.54216868 24:0.083333332 25:0.72413792 26:0.051948064 27:0.15842329 28:0.48297459 29:0.40295833 30:0.50061114 31:0.073964496 32:0.29722222 33:0.43712577 34:0.275 35:0.29676128 36:0.3125 37:0.1 38:0.22222222 39:0.3 40:0.071428571 43:0.3 44:0.16666667 46:0.75 49:0.125 50:0.33333333 51:0.16666667 52:0.14285714 54:0.66666667 55:0.125 57:0.25 59:0.25 
2.854278382019269 0:0.18772336 1:0.23503303 5:0.2486677 6:0.28508137 7:0.23014109 8:0.35877957 9:0.29892277 10:0.21606471 11:0.35529433 12:0.18211601 13:0.47141335 14:0.048090636 15:0.38960315 16:0.34896492 17:0.31812421 18:0.11419587 19:0.14444444 20:0.066666656 22:0.23714286 23:0.20481929 24:0.12121213 25:0.68965517 26:0.12987013 27:0.04062134 28:0.39905841 29:0.26219153 30:0.55637486 31:0.19822485 32:0.49166667 33:0.38494036 34:0.25 35:0.2495904 36:0.5625 37:0.5 38:0.11111111 39:0.1 41:0.25 42:0.42857143 43:0.1 46:0.25 47:0.14285714 48:0.25 49:0.25 53:0.83333333 55:0.125 59:0.25 
8 0:0.31632878 1:0.37513183 5:0.169802 6:0.44823097 7:0.46187174 8:0.89778894 9:0.27355386 10:0.24336426 11:0.55916769 12:0.43331138 13:0.61128418 14:0.018924743 15:0.4491555 16:0.39184237 17:0.68948036 18:0.58322468 19:0.14444444 20:0.066666656 22:0.19999999 23:0.4497992 24:0.63257577 25:0.72413792 26:0.53246753 27:0.44243248 28:0.75723845 29:0.30614618 30:0.57490651 31:0.059171601 32:0.51666666 33:0.47439086 34:0.275 35:0.30502953 36:0.125 38:0.27777778 39:0.3 42:0.14285714 44:0.16666667 45:0.11111111 46:0.5 47:0.14285714 48:0.25 49:0.25 50:0.33333333 53:0.16666667 55:0.25 56:0.28571429 57:0.25 59:0.25 
-5.052687956792174 0:0.38030222 1:0.29890086 4:0.12289845 5:0.034339234 6:0.48670921 7:0.30016871 8:0.79557787 9:0.46909844 10:0.27196559 11:0.32333341 12:0.022472752 13:0.33134352 14:0.0026094713 15:0.18151511 16:0.20113073 17:0.63117871 18:0.52035347 19:0.14444444 20:0.066666656 21:0.25301204 22:0.05142857 23:0.58232932 24:0.36363637 25:0.8045977 26:0.50649352 27:0.38926271 28:0.56688585 29:0.04998479 30:0.45172126 31:0.0059171603 32:0.39166666 33:0.23071802 34:0.5 35:0.46204992 36:0.25 38:0.5 39:0.4 40:0.28571429 42:0.14285714 44:0.33333333 45:0.44444444 46:0.25 47:0.14285714 48:0.25 49:0.125 50:0.33333333 51:0.33333333 53:0.16666667 55:0.25 56:0.42857143 57:0.125 58:0.5 59:0.25 
1.72695273109416 0:0.39111017 1:0.46439186 2:0.81009908 4:0.037456133 5:0.024598262 6:0.31910123 7:0.49395252 8:0.47494857 9:0.45293028 10:0.26945753 11:0.53611138 12:0.068286385 13:0.52853162 14:0.0067332661 15:0.29817682 16:0.29426045 17:0.7617237 18:0.66992612 19:1 20:0.066666656 23:0.57831326 24:0.58333334 25:0.68965517 26:0.12987013 27:0.58507436 28:0.77647195 29:0.10801993 30:0.45707359 31:0.0029585744 32:0.17777777 33:0.10506628 34:0.275 35:0.31506954 36:0.0625 37:0.1 38:0.38888889 39:0.6 40:0.21428571 41:0.25 43:0.1 44:0.33333333 45:0.11111111 47:0.14285714 48:0.25 49:0.125 52:0.71428571 57:0.125 59:0.25 
-8 0:0.46218284 1:0.4284631 2:0.81009908 4:0.051616525 5:0.35321454 6:0.35130307 7:0.35998849 8:0.39776571 9:0.39334918 10:0.27720873 11:0.45141392 12:0.14091656 13:0.44681489 14:0.024268936 15:0.44337689 16:0.36364494 17:0.77693282 18:0.65478147 19:1 20:0.066666656 22:0.39142857 23:0.5381526 24:0.44318182 25:0.93103444 26:0.18181819 27:0.53403935 28:0.7720432 29:0.29542849 30:0.47880541 31:0.068047331 32:0.41944444 33:0.49835848 34:0.4 35:0.42135645 36:0.3125 37:0.1 38:0.5 39:0.4 40:0.071428571 42:0.28571429 43:0.1 44:0.16666667 45:0.33333333 46:0.25 47:0.28571429 48:0.25 49:0.125 50:0.66666667 51:0.16666667 53:0.16666667 55:0.125 57:0.5 59:0.25 
-0.2936117686557951 0:0.41305838 1:0.46443848 2:0.81009908 4:0.004353379 5:0.550359 6:0.26302852 7:0.5868287 8:0.35877957 9:0.36775303 10:0.40860588 11:0.40001711 12:0.25304283 13:0.31107656 14:0.034341957 15:0.37803433 16:0.29038363 17:0.60583017 18:0.48555548 19:1 20:0.066666656 22:0.72571427 23:0.32931727 24:0.43181819 25:0.40229886 26:0.18181819 27:0.35117206 28:0.56781097 29:0.31931702 30:0.4340675 31:0.01183432 32:0.48611111 33:0.64312692 34:0.3 35:0.32543342 36:0.4375 37:0.3 38:0.22222222 40:0.071428571 42:0.42857143 43:0.3 45:0.11111111 47:0.42857143 48:0.25 49:0.125 51:0.16666667 56:0.42857143 57:0.25 
-5.977419276822307 0:0.68517548 1:0.5625698 2:0.81009908 3:0.077453688 4:0.29999763 5:0.57357166 6:0.66859617 7:0.31568833 8:1 9:0.36775303 10:0.36484855 11:0.54283576 12:0.096089382 13:0.53883338 14:0.034341957 15:0.37803433 16:0.34004696 17:0.59569075 18:0.49032194 19:1 21:0.22891566 22:0.72571427 23:0.46586346 24:0.23484849 25:0.83908045 26:0.12987013 27:0.35117206 28:0.56781097 29:0.15139246 30:0.4340675 31:0.01183432 32:0.48611111 33:0.53853731 34:0.475 35:0.54949514 36:0.625 37:0.5 38:0.38888889 39:0.2 40:0.071428571 42:0.71428571 43:0.3 45:0.11111111 47:0.42857143 48:0.25 49:0.5 51:0.16666667 54:0.33333333 56:0.57142857 57:0.25 
-8 0:0.50273129 1:0.34437404 2:0.81009908 4:0.12289845 5:0.27587807 6:0.29540457 7:0.42994322 8:0.70194411 9:0.29340645 10:0.24037736 11:0.57498954 12:0.04380068 13:0.57613919 14:0.014794046 15:0.48590509 16:0.28671489 17:0.56020278 18:0.47272574 19:1 20:0.066666656 21:0.25301204 22:0.34857142 23:0.60642571 24:0.31439394 25:0.8045977 26:0.18181819 27:0.27428231 28:0.79133408 29:0.10669854 30:0.63937243 31:0.026627225 32:0.43333332 33:0.42639769 34:0.6 35:0.62733854 36:0.5625 37:0.3 38:0.5 39:0.3 40:0.14285714 42:0.14285714 43:0.3 44:0.33333333 45:0.33333333 46:0.25 47:0.28571429 48:0.25 49:0.125 51:0.33333333 52:0.14285714 53:0.5 55:0.375 56:0.14285714 57:0.5 59:0.25 
-8 0:0.35751964 1:0.47811999 2:0.81009908 3:0.077453688 4:0.071347324 5:0.15353525 6:0.37531846 7:0.35859303 8:0.70194411 9:0.50657135 10:0.29995694 11:0.52379865 12:0.39477111 13:0.48310066 14:0.12376578 15:0.42233046 16:0.29060363 17:0.67807352 18:0.57390809 19:1 21:0.11445783 22:0.10857143 23:0.60642571 24:0.25000001 25:0.8045977 26:0.18181819 27:0.26910022 28:0.60098148 29:0.17644956 30:0.46725723 31:0.038461541 32:0.30555555 33:0.19150515 34:0.225 35:0.21232616 36:0.1875 37:0.1 38:0.16666667 39:0.3 42:0.28571429 44:0.16666667 45:0.22222222 47:0.14285714 49:0.25 50:0.33333333 51:0.16666667 54:0.33333333 55:0.125 56:0.42857143 57:0.125 
-6.148502639745947 0:0.69976715 1:0.46570739 2:0.81009908 5:0.12309742 6:0.47986983 7:0.36586036 8:0.61579132 9:0.020268188 10:0.35316867 11:0.46402589 12:0.13832738 13:0.38613656 14:0.017257309 15:0.58224706 16:0.32677927 17:0.81495564 18:0.64663462 19:1 20:0.066666656 22:0.22285714 23:0.59437752 24:0.41287879 25:1 26:0.16883116 27:0.31113236 28:0.71483394 29:0.0401526 30:0.57493002 31:0.017751472 32:0.58888888 33:0.27298112 34:0.625 35:0.63890265 36:0.4375 37:0.2 38:0.72222222 39:0.7 40:0.42857143 42:0.28571429 43:0.1 45:0.33333333 46:0.25 47:0.42857143 48:0.25 49:0.5 50:0.33333333 51:0.5 52:0.14285714 53:0.16666667 55:0.25 56:0.14285714 57:0.25 
8 0:0.60830024 1:0.61935944 2:0.81009908 3:0.077453688 4:0.12289845 5:0.46144758 6:0.56297233 7:0.46058349 8:0.79557787 9:0.55880076 10:0.35412603 11:0.66735889 12:0.2793369 13:0.62416252 14:0.020803284 15:0.33987189 16:0.19818175 17:0.82382763 18:0.71447197 19:1 21:0.25301204 22:0.56571427 23:0.59839357 24:0.42803031 25:1 26:0.42857144 27:0.31536465 28:0.82193862 29:0.45524414 30:0.65909956 31:0.068047339 32:0.53333333 33:0.42470483 34:0.35 35:0.36347875 36:0.3125 38:0.5 39:0.6 40:0.28571429 42:0.42857143 43:0.2 44:0.33333333 45:0.22222222 47:0.28571429 49:0.125 52:0.14285714 54:0.33333333 57:0.375 
-8 0:0.31552339 1:0.26764433 2:0.81009908 4:0.071347324 5:0.16466183 6:0.28284917 7:0.27880901 8:0.60831035 9:0.52419959 10:0.25337757 11:0.45317647 12:0.1451525 13:0.45683431 14:0.048983058 15:0.37745784 16:0.1954395 17:0.58681876 18:0.48088658 19:1 20:0.066666656 21:0.11445783 22:0.16 23:0.51405624 24:0.41666667 25:1 26:0.18181819 27:0.27958505 28:0.67987551 29:0.032150563 30:0.59008341 31:0.026627222 32:0.41666667 33:0.27237022 34:0.45 35:0.39352258 36:0.3125 37:0.1 38:0.27777778 39:0.1 40:0.21428571 42:0.14285714 43:0.2 45:0.33333333 47:0.42857143 48:0.25 49:0.125 50:0.33333333 51:0.16666667 52:0.14285714 53:0.16666667 55:0.5 56:0.42857143 
-0.07443179437961429 0:0.1910443 1:0.20240359 2:0.81009908 5:0.060642862 6:0.35199321 7:0.22091238 8:0.60831035 9:0.25328568 10:0.14608161 11:0.29855107 12:0.061127925 13:0.24988503 14:0.13291786 15:0.38313174 16:0.13130616 17:0.68060837 18:0.56877445 19:1 20:0.066666656 22:0.12 23:0.53815262 24:0.46212122 25:1 26:0.53246753 27:0.44820235 28:0.53041876 29:0.10053987 30:0.2654872 31:0.10650888 32:0.34444444 33:0.065335926 34:0.325 35:0.21447895 36:0.0625 38:0.27777778 39:0.3 40:0.14285714 42:0.14285714 44:0.16666667 45:0.77777778 46:0.25 47:0.28571429 48:0.25 55:0.125 56:0.14285714 57:0.125 58:0.5 59:0.25 
-8 0:0.29112821 1:0.5207182 2:0.81009908 3:0.077453688 5:0.18510108 6:0.51377692 7:0.51473906 8:0.80415518 9:0.39265231 10:0.41117492 11:0.54500782 12:0.34900782 13:0.35536853 14:0.01983296 15:0.097834905 16:0.089125536 17:0.66159696 18:0.55736636 19:1 22:0.29142856 23:0.61044177 24:0.32954545 25:0.91954022 26:0.18181819 27:0.2919911 28:0.82562422 29:0.62764872 30:0.54335827 31:0.45266271 32:0.42499999 33:0.41298475 34:0.125 35:0.12086111 36:0.25 37:0.2 38:0.16666667 39:0.3 40:0.14285714 43:0.3 47:0.14285714 49:0.125 53:0.16666667 54:0.33333333 55:0.125 57:0.25 
-6.781902771044152 0:0.3161562 1:0.61751142 2:0.81009908 4:0.067703415 6:0.46644648 7:0.42075263 8:0.89778894 9:0.53076008 10:0.46294199 11:0.65130427 12:0.68039097 13:0.64342243 14:0.068199551 15:0.0639528 16:0.31362933 17:0.70849177 18:0.65153491 19:1 20:0.066666656 21:0.10843373 23:0.35742972 24:0.43181818 25:0.91954022 26:0.18181819 27:0.5802326 28:0.83738924 29:0.77132919 30:0.63521449 31:0.026627217 32:0.02499999 33:0.38589794 34:0.1 35:0.10421032 36:0.1875 37:0.1 38:0.16666667 39:0.3 40:0.071428571 44:0.33333333 47:0.14285714 48:0.25 49:0.125 51:0.5 55:0.125 57:0.125 
-8 0:0.27052416 1:0.36130121 2:0.81009908 3:0.077453688 4:0.067703415 6:0.59796651 7:0.25728766 8:0.80415518 9:0.34748484 10:0.29561667 11:0.5679748 12:0.01969782 13:0.52786234 14:0.042686433 15:0.46058038 16:0.41081701 17:0.67173638 18:0.56535203 19:1 21:0.10843373 23:0.71887551 24:0.26136364 25:0.91954022 26:0.18181819 27:0.41898778 28:0.61625507 29:0.22568459 30:0.42477832 31:0.038461541 32:0.41944444 33:0.21961199 34:0.225 35:0.19096971 36:0.125 37:0.1 38:0.16666667 39:0.2 40:0.14285714 42:0.14285714 45:0.22222222 46:0.25 47:0.28571429 49:0.25 51:0.16666667 54:0.33333333 55:0.125 56:0.42857143 
-0.9966968845585615 0:0.25507845 1:0.4982153 2:0.81009908 3:0.077453688 5:0.16081626 6:0.39425729 7:0.34422438 8:0.80415518 9:0.39816863 10:0.32639829 11:0.48148444 12:0.42365541 13:0.37697319 14:0.40504981 15:0.38829524 16:0.31762442 17:0.57160964 18:0.38271898 19:1 22:0.10857143 23:0.40963856 24:0.10606061 25:0.91954022 26:0.051948064 27:0.15677119 28:0.45148485 29:0.59704414 30:0.47725475 31:0.3224852 32:0.30277777 33:0.32142155 34:0.1 35:0.08565441 36:0.25 37:0.2 38:0.055555556 39:0.1 40:0.071428571 42:0.14285714 43:0.1 47:0.14285714 49:0.25 53:0.33333333 54:0.33333333 55:0.125 56:0.14285714 
8 0:0.25670417 1:0.45908473 2:0.81009908 3:0.077453688 4:0.004353379 5:0.1452349 6:0.28493939 7:0.48642239 8:0.29555465 9:0.4467307 10:0.31913067 11:0.42998645 12:0.23249145 13:0.43099032 14:0.099918622 15:0.17494685 16:0.34956104 17:0.61343474 18:0.47066493 19:1 22:0.20571429 23:0.40160643 24:0.50378789 25:0.57471264 26:0.18181819 27:0.09048692 28:0.5225787 29:0.42828929 30:0.65571343 31:0.39349113 32:0.36944444 33:0.48716877 34:0.125 35:0.12766241 36:0.25 37:0.1 38:0.16666667 39:0.2 41:0.25 43:0.2 44:0.33333333 47:0.14285714 50:0.66666667 51:0.16666667 53:0.16666667 54:0.33333333 56:0.14285714 
-3.8543733959349 0:0.28985198 1:0.47807065 2:0.81009908 4:0.12289845 6:0.38543808 7:0.42117861 8:0.43389919 9:0.56432037 10:0.404161 11:0.56894786 12:0.4890322 13:0.5246211 14:0.10462781 15:0.24898026 16:0.51300844 17:0.67173638 18:0.57246013 19:1 20:0.066666656 21:0.25301204 23:0.38955824 24:0.58712121 25:0.31034482 26:0.53246754 27:0.4630618 28:0.61862655 29:0.37672503 30:0.32807238 31:0.053254435 32:0.25555555 33:0.71885872 34:0.15 35:0.16210707 36:0.1875 38:0.22222222 39:0.2 40:0.14285714 47:0.14285714 48:0.25 49:0.25 51:0.33333333 52:0.14285714 53:0.16666667 55:0.125 57:0.125 59:0.25 
-4.390087812121651 0:0.32047673 1:0.76644583 2:0.81009908 3:0.077453688 4:0.27346645 5:0.52093607 6:0.48228269 7:0.6984307 8:0.41994649 9:0.86532419 10:0.75245453 11:0.31158323 12:0.56524419 13:0.52391903 14:0.39167018 15:0.37541242 16:0.51246424 17:0.6210393 18:0.46762277 19:1 21:0.22891566 22:0.44571428 23:0.39759036 24:0.27651516 25:0.96551722 26:0.18181819 27:0.73892505 28:0.37621908 29:0.59924802 30:0.47925219 31:0.55621301 32:0.52222221 33:0.74603764 34:0.05 35:0.057001329 36:0.25 37:0.2 38:0.055555556 39:0.1 43:0.4 47:0.14285714 49:0.25 54:0.33333333 57:0.125 
-8 0:0.31631581 1:0.3369767 2:0.81009908 4:0.071347324 5:0.23647354 6:0.32283438 7:0.20146821 8:0.43389919 9:0.27091391 10:0.22292845 11:0.5811313 12:0.3145102 13:0.72836385 14:0.035041782 15:0.46994407 16:0.32057314 17:0.55513309 18:0.43324642 19:1 20:0.066666656 21:0.11445783 22:0.21142857 23:0.5301205 24:0.22727273 25:0.68965517 26:0.22077923 27:0.31164283 28:0.61470652 29:0.22537292 30:0.69202094 31:0.002958585 32:0.3 33:0.39676634 34:0.325 35:0.36046866 36:0.3125 38:0.33333333 39:0.3 40:0.071428571 41:0.25 42:0.14285714 43:0.1 45:0.11111111 46:0.25 47:0.28571429 48:0.25 49:0.25 50:0.33333333 51:0.33333333 52:0.14285714 53:0.16666667 56:0.28571429 58:0.5 59:0.25 
8 0:0.48748672 1:0.47293573 2:0.81009908 4:0.21197111 5:0.27218425 6:0.42951609 7:0.47128463 8:0.48424683 9:0.45293028 10:0.20504712 11:0.77916153 12:0.22094047 13:0.75286318 14:0.075037454 15:0.4321907 16:0.29492834 17:0.69455006 18:0.57935285 19:1 20:0.066666656 21:0.25301204 22:0.29142857 23:0.57831326 24:0.44318182 25:0.62068965 26:0.12987013 27:0.39033317 28:0.81243033 29:0.27838787 30:0.55437538 31:0.014792899 32:0.19722222 33:0.31706238 34:0.375 35:0.4044961 36:0.3125 37:0.2 38:0.5 39:0.5 40:0.21428571 42:0.14285714 43:0.3 44:0.16666667 45:0.11111111 47:0.14285714 48:0.5 49:0.25 50:1 52:0.14285714 55:0.125 56:0.14285714 57:0.125 59:0.25 
-1.977903825970783 0:0.32197689 1:0.57595026 2:0.019489687 4:0.50687727 5:0.24155637 6:0.50458149 7:0.56312822 8:0.61579132 9:0.65299992 10:0.61759239 11:0.51072822 12:0.14646065 13:0.1136592 14:0.16834111 15:0.34930737 16:0.70003918 17:0.60836502 18:0.46153846 19:0.066666656 20:0.066666656 21:0.39759036 22:0.18857143 23:0.40562249 24:0.47727273 25:0.88505744 26:0.18181819 27:0.40120779 28:0.4941287 29:0.34220765 30:0.2742088 31:0.062130177 32:0.275 33:0.4738942 34:0.125 35:0.15980187 36:0.25 37:0.1 38:0.11111111 39:0.2 42:0.14285714 43:0.1 44:0.33333333 48:0.5 49:0.25 52:0.14285714 53:0.16666667 56:0.14285714 57:0.125 
-2.246139525034586 0:0.66582659 1:0.38221682 2:0.019489687 3:0.077453688 5:0.34838704 6:0.27901609 7:0.42003222 8:0.61579132 9:0.27355386 10:0.23649916 11:0.41967988 12:0.048612888 13:0.42961087 14:0.0029178664 15:0.45400223 16:0.31988678 17:0.70468948 18:0.56710948 19:0.066666656 22:0.32 23:0.51405623 24:0.42045455 25:0.88505744 26:0.18181819 27:0.32253914 28:0.65793887 29:0.10049154 30:0.47871069 31:0.0029585806 32:0.45833333 33:0.37968368 34:0.75 35:0.83387313 36:0.375 37:0.1 38:0.72222222 39:0.5 40:0.42857143 42:0.57142857 44:0.16666667 45:0.11111111 46:0.25 47:0.28571429 48:0.25 49:0.375 52:0.42857143 53:0.16666667 54:0.33333333 55:0.375 56:0.85714286 57:0.375 59:0.25 
-1.53261259178413 0:0.32030636 1:0.35955533 2:0.019489687 4:0.27346645 5:0.70878405 6:0.67055211 7:0.1900857 8:0.47494857 9:0.040536375 10:0.12946316 11:0.66761255 12:0.45288545 13:0.81738298 14:0.060797158 15:0.36583452 16:0.4974847 17:0.4486692 18:0.30686887 19:0.066666656 20:0.066666656 21:0.22891566 22:0.69142857 23:0.59437752 24:0.23484848 25:0.68965517 26:0.077922065 27:0.19440085 28:0.66172175 29:0.3992401 30:0.62234232 31:0.079881656 32:0.45 33:0.66049367 34:0.3 35:0.3039055 36:0.5625 37:0.3 38:0.22222222 39:0.2 40:0.14285714 42:0.28571429 43:0.3 45:0.11111111 46:0.25 47:0.28571429 48:0.75 49:0.375 51:0.33333333 
0.6301270885754977 0:0.40161161 1:0.29364124 2:0.019489687 4:0.49236084 5:0.20915312 6:0.23102939 7:0.2771378 8:0.41994649 9:0.32578327 10:0.12520413 11:0.39212067 12:0.042157896 13:0.56397104 14:0.0057352249 15:0.3743379 16:0.4887175 17:0.52217997 18:0.44013847 19:0.066666656 20:0.066666656 21:0.5 22:0.24857142 23:0.48192771 24:0.24621212 25:0.96551722 26:0.12987013 27:0.34321795 28:0.60072467 29:0.16060884 30:0.55264064 31:0.0059171568 32:0.37777777 33:0.56145392 34:0.55 35:0.6260621 36:0.625 37:0.4 38:0.38888889 39:0.2 42:0.28571429 43:0.2 44:0.16666667 45:0.22222222 46:0.25 47:0.57142857 48:0.75 49:0.125 50:0.33333333 51:0.66666667 52:0.28571429 55:0.125 56:0.28571429 57:0.375 
0.5342688871443976 0:0.1057482 1:0.12378015 2:0.019489687 5:0.22614407 6:0.22838037 7:0.15922163 8:0.39776571 9:0.040536375 10:0.25268058 11:0.35001106 12:0.072818489 13:0.3205246 14:0.21786808 15:0.55791577 16:0.20810941 17:0.33333334 18:0.15580182 19:0.066666656 20:0.066666656 22:0.23714286 23:0.42971888 24:0.11363636 25:0.40229886 26:0.077922065 27:0.27163093 28:0.53996692 29:0.11054885 30:0.38447061 31:0.27218935 32:0.89166667 33:0.43452206 34:0.275 35:0.27805296 36:0.5625 37:0.4 38:0.055555556 40:0.071428571 43:0.3 47:0.14285714 48:0.75 49:0.125 51:0.16666667 53:0.5 55:0.25 56:0.28571429 57:0.125 
-1.447503132064593 0:0.66090138 1:0.52218537 2:0.019489687 4:0.072056795 5:0.68594313 6:0.50852025 7:0.48923297 8:1 9:0.36775303 10:0.38207679 11:0.49072029 12:0.13387272 13:0.35555713 14:0.019885077 15:0.48308456 16:0.21105157 17:0.73003802 18:0.59944952 19:0.066666656 20:0.066666656 21:0.10843373 22:0.78285714 23:0.75903616 24:0.48863637 25:1 26:0.42857144 27:0.31531515 28:0.74626139 29:0.15912893 30:0.41529625 31:0.068047341 32:0.70277778 33:0.45809117 34:0.5 35:0.5962469 36:0.375 38:0.55555556 39:0.5 40:0.14285714 43:0.5 44:0.16666667 47:0.57142857 48:0.5 49:0.25 50:0.66666667 52:0.28571429 55:0.375 56:0.28571429 57:0.125 59:0.25 
-5.710230890060936 0:0.20777664 1:0.31751766 2:0.019489687 3:0.077453688 4:0.16035458 5:0.33068445 6:0.43214052 7:0.3267192 8:0.39776571 9:0.53190795 10:0.27308701 11:0.53493444 12:0.47981442 13:0.54611619 14:0.25711054 15:0.50235413 16:0.4077988 17:0.46894804 18:0.25684485 19:0.066666656 21:0.25301204 22:0.26857143 23:0.39759037 24:0.10227273 25:0.36781607 26:0.051948064 27:0.25041997 28:0.52894998 29:0.35270226 30:0.59125556 31:0.15680473 32:0.51666666 33:0.42838146 34:0.175 35:0.14705658 36:0.375 37:0.3 38:0.055555556 40:0.071428571 43:0.4 45:0.11111111 48:0.25 49:0.25 51:0.16666667 54:0.33333333 55:0.125 56:0.14285714 57:0.125 
-5.247447314531227 0:0.30900147 1:0.34677186 2:0.019489687 3:0.077453688 4:0.051616525 5:0.11713645 6:0.33283579 7:0.37813291 8:0.61579132 9:0.30551509 10:0.38245397 11:0.57194491 12:0.14002247 13:0.58433306 14:0.094344946 15:0.58256156 16:0.45860633 17:0.68060836 18:0.57057572 19:0.066666656 22:0.23999999 23:0.52610442 24:0.35606061 25:0.88505744 26:0.051948064 27:0.41288373 28:0.86895384 29:0.28722941 30:0.4909842 31:0.15088756 32:0.57222221 33:0.4010481 34:0.3 35:0.36222137 36:0.1875 37:0.1 38:0.33333333 39:0.4 40:0.071428571 43:0.1 44:0.16666667 45:0.11111111 46:0.5 48:0.25 49:0.25 51:0.16666667 52:0.14285714 54:0.33333333 56:0.28571429 57:0.5 59:0.25 
2.959208517997434 0:0.73986147 1:0.632321 2:1 4:0.31782206 5:0.55426286 6:0.58834979 7:0.25726401 8:0.80415518 9:0.41361737 10:0.33859773 11:0.5858094 12:0.18928733 13:0.46838509 14:0.0021569878 15:0.38832584 16:0.47796757 17:0.61089988 18:0.50169492 19:0.92222222 20:0.066666656 21:0.22891566 22:0.6 23:0.46987953 24:0.14015151 25:0.91954022 26:0.12987013 27:0.18678706 28:0.63366571 29:0.030500129 30:0.34435903 31:0.020710061 32:0.74444444 33:0.55824453 34:0.45 35:0.48790246 36:0.625 37:0.3 38:0.55555556 39:0.6 40:0.28571429 42:0.71428571 43:0.1 44:0.16666667 45:0.11111111 47:0.28571429 48:0.5 49:0.625 51:0.33333333 53:0.16666667 59:0.25 
8 0:0.37093009 1:0.49612774 2:1 4:0.067703415 6:0.50165971 7:0.28652733 8:0.70194411 9:0.53076008 10:0.26213228 11:0.54554815 12:0.19088118 13:0.46804371 14:0.013775597 15:0.13349697 16:0.27146732 17:0.7427123 18:0.66117992 19:0.92222222 20:0.066666656 21:0.10843373 23:0.57429719 24:0.45833334 25:0.88505744 26:0.42857144 27:0.47208636 28:0.69993192 29:0.4030571 30:0.4578044 31:0.062130175 32:0.29166666 33:0.2851551 34:0.225 35:0.19876167 36:0.1875 38:0.27777778 39:0.4 40:0.14285714 42:0.14285714 44:0.16666667 45:0.33333333 47:0.14285714 48:0.25 49:0.25 50:0.33333333 52:0.14285714 53:0.33333333 57:0.125 
-5.277667349150546 0:0.5952969 1:0.60605577 2:1 3:0.077453688 4:0.071347324 5:0.17576297 6:0.63263932 7:0.52078941 8:0.80415518 9:0.58681291 10:0.44649891 11:0.61864894 12:0.21026923 13:0.39332487 14:0.022354362 15:0.28949929 16:0.25788098 17:0.85424588 18:0.74576272 19:0.92222222 21:0.11445783 22:0.18285714 23:0.69076306 24:0.60606061 25:0.91954022 26:0.18181819 27:0.62190273 28:0.64944801 29:0.05542602 30:0.30675352 31:0.08579881 32:0.44722221 33:0.24971033 34:0.35 35:0.36454562 36:0.1875 37:0.1 38:0.55555556 39:0.7 40:0.28571429 43:0.2 44:0.33333333 45:0.11111111 47:0.14285714 49:0.25 50:1 52:0.14285714 53:0.16666667 54:0.33333333 55:0.25 57:0.125 
-8 0:0.3055234 1:0.65704596 2:1 3:0.077453688 4:0.037456133 5:0.3837426 6:0.38323929 7:0.71419354 8:0.47494857 9:0.53190795 10:0.48107819 11:0.45838596 12:0.56628854 13:0.52500289 14:0.0017804991 16:0.26007109 17:0.67807352 18:0.59752282 19:0.92222222 22:0.43999999 23:0.5060241 24:0.47727273 25:0.66666664 26:0.051948064 27:0.65576108 28:0.33475221 29:0.43181298 30:0.32750082 31:0.352071 32:0.33055555 33:0.50816424 34:0.075 35:0.06155458 36:0.1875 37:0.1 38:0.16666667 39:0.3 40:0.14285714 42:0.14285714 43:0.2 49:0.25 50:0.33333333 54:0.33333333 57:0.125 
-3.127613616709625 0:0.49038926 1:0.41792428 2:1 5:0.37995287 6:0.47076811 7:0.45840451 8:0.47494857 9:0.31919096 10:0.32639366 11:0.5780267 12:0.042669581 13:0.39870576 14:0.012182098 15:0.26842094 16:0.099782859 17:0.65019011 18:0.53564537 19:0.92222222 20:0.066666656 22:0.50285713 23:0.51807228 24:0.23863637 25:0.65517239 26:0.12987013 27:0.19739255 28:0.73053646 29:0.08836542 30:0.44453031 31:0.03846153 32:0.39166666 33:0.31006996 34:0.45 35:0.41745094 36:0.5 37:0.3 38:0.61111111 39:0.8 40:0.71428571 42:0.14285714 43:0.4 45:0.11111111 48:0.25 49:0.25 51:0.33333333 52:0.14285714 53:0.16666667 57:0.25 
8 0:0.54547867 1:0.61417816 2:1 4:0.36334767 5:0.32845095 6:0.58493956 7:0.27251294 8:1 9:0.4326621 10:0.22753533 11:0.47556629 12:0.10495471 13:0.51087578 14:0.12402059 15:0.64402299 16:0.37645177 17:0.55766794 18:0.43079668 19:0.92222222 20:0.066666656 21:0.33734939 22:0.23714286 23:0.48995985 24:0.14772727 25:0.91954022 26:0.051948064 27:0.072778112 28:0.52067606 29:0.35969265 30:0.46528375 31:0.014792903 32:0.41388889 33:0.345968 34:0.3 35:0.34355115 36:0.4375 37:0.3 38:0.33333333 39:0.4 40:0.14285714 42:0.28571429 43:0.3 46:0.25 47:0.14285714 48:0.25 49:0.625 53:0.16666667 54:0.33333333 55:0.125 58:0.5 
-1.262286367218173 0:0.4707286 1:0.43644597 2:1 4:0.037456133 5:0.48311273 6:0.37517445 7:0.3902452 8:0.47494857 9:0.39334918 10:0.21147975 11:0.61975474 12:0.012600352 13:0.67731482 14:0.029902313 15:0.31770767 16:0.31329887 17:0.69328264 18:0.5762145 19:0.92222222 20:0.066666656 22:0.37714285 23:0.6184739 24:0.37878788 25:0.68965517 26:0.12987013 27:0.42197945 28:0.70012644 29:0.16008961 30:0.48073469 31:0.10059171 32:0.5361111 33:0.24366845 34:0.4 35:0.37967232 36:0.25 37:0.1 38:0.5 39:0.8 40:0.35714286 41:0.25 42:0.14285714 43:0.3 44:0.16666667 46:0.25 48:0.25 49:0.375 55:0.625 57:0.125 59:0.25 
8 0:0.39675531 1:0.70983498 2:1 4:0.067703415 5:0.47034453 6:0.51947028 7:0.69208906 8:0.47494857 9:0.53076008 10:0.38044135 11:0.6032282 12:0.31304387 13:0.60599747 14:0.18986101 15:0.2969751 16:0.36493363 17:0.64892269 18:0.53455019 19:0.92222222 20:0.066666656 21:0.10843373 22:0.50857142 23:0.36144579 24:0.51515152 25:0.60919539 26:0.18181819 27:0.181144 28:0.72012548 29:0.67967695 30:0.8262537 31:0.40532544 32:0.38333333 33:0.61149353 34:0.125 35:0.13429225 36:0.25 37:0.1 38:0.22222222 39:0.3 40:0.14285714 42:0.14285714 43:0.3 48:0.25 49:0.375 57:0.125 59:0.25 
8 0:0.46158876 1:0.36358397 2:1 5:0.32898555 6:0.57538703 7:0.22236387 8:1 9:0.27091391 10:0.15660627 11:0.7361621 12:0.16475034 13:0.85952984 14:0.0001529452 15:0.40075717 16:0.44003074 17:0.52471483 18:0.43517311 19:0.92222222 20:0.066666656 21:0.15060241 22:0.32285714 23:0.57831326 24:0.31060606 25:0.83908045 26:0.12987013 27:0.34187836 28:0.710303 29:0.13227004 30:0.54398053 31:0.0029585753 32:0.5 33:0.33336254 34:0.5 35:0.51463136 36:0.4375 37:0.1 38:0.38888889 39:0.3 40:0.14285714 41:0.25 43:0.4 45:0.22222222 46:0.5 48:0.5 49:0.75 50:0.33333333 51:0.33333333 52:0.14285714 55:0.25 56:0.28571429 
-0.1377267906745206 0:0.29888943 1:0.45734345 2:1 3:0.077453688 4:0.022177809 5:0.58283481 6:0.32786576 7:0.49648815 8:0.39776571 9:0.49259504 10:0.36644314 11:0.47950486 12:0.41980558 13:0.45830392 14:0.018965181 15:0.34164174 16:0.2707659 17:0.37008873 18:0.10430248 19:0.92222222 22:0.50857143 23:0.088353421 24:0.24242425 25:0.080459775 26:0.051948064 27:0.016248528 28:0.51581346 29:0.73624931 30:0.69125149 31:0.056213017 32:0.37222222 33:0.55054219 34:0.175 35:0.17085159 36:0.5625 37:0.6 38:0.055555556 42:0.28571429 43:0.4 47:0.14285714 49:0.25 50:0.33333333 51:0.16666667 53:0.33333333 54:0.33333333 
-2.277578648573492 0:0.40087538 1:0.61385569 2:1 3:0.077453688 4:0.037456133 5:0.70117001 6:0.44141554 7:0.62535241 8:0.39776571 9:0.53190795 10:0.34691916 11:0.70694718 12:0.70295811 13:0.7411867 14:0.11950959 15:0.25300352 16:0.49403075 17:0.45500634 18:0.23533247 19:0.92222222 22:0.54285714 23:0.17269077 24:0.31439394 25:0.32183908 26:0.051948064 27:0.016248528 28:0.68287536 29:0.86332248 30:0.76737836 31:0.085798816 32:0.30277777 33:0.50564866 34:0.175 35:0.17319489 36:0.4375 37:0.4 38:0.055555556 42:0.42857143 43:0.3 49:0.5 53:0.16666667 54:0.33333333 55:0.125 56:0.14285714 
-5.521939838973607 0:0.54857481 1:0.3761466 2:1 4:0.037456133 5:0.061012134 6:0.41795169 7:0.41231087 8:0.89778894 9:0.45293028 10:0.26623412 11:0.44078504 12:0.088340396 13:0.44868734 14:0.00258688 15:0.35505109 16:0.16408923 17:0.58048162 18:0.48685705 19:0.92222222 20:0.066666656 22:0.05142857 23:0.57028113 24:0.29924243 25:0.8045977 26:0.12987013 27:0.20534666 28:0.71702837 29:0.1123515 30:0.60508932 31:0.014792901 32:0.48055555 33:0.22014835 34:0.6 35:0.57951991 36:0.5 37:0.2 38:0.61111111 39:0.5 40:0.5 42:0.14285714 43:0.2 44:0.5 45:0.33333333 47:0.14285714 48:0.25 49:0.125 51:0.5 52:0.14285714 53:0.33333333 55:0.125 56:0.42857143 57:0.125 59:0.25 
