svm_type epsilon_svr
kernel_type rbf
gamma 0.03125
nr_class 2
total_sv 1534
rho -0.203921
SV
16 0:0.82513661 1:0.69949317 2:0.11111111 3:0.068965517 4:0.32304527 5:0.77377049 6:0.97169811 7:0.33333333 8:0.17777778 9:0.91569477 10:0.50210879 11:0.6176282 12:0.434375 13:0.12338252 14:0.0093167702 15:0.45609007 16:0.4 17:0.33333333 18:0.71428571 19:0.66666667 20:0.72952102 21:0.55024199 22:0.46041996 23:0.14536378 24:0.11694701 25:0.65474321 26:0.90697284 27:0.51691867 28:0.59172312 29:0.97572031 30:0.5009686 31:0.73305889 32:0.33754776 33:0.12098427 34:0.0089576087 35:0.30660897 36:0.23076923 37:0.2 38:0.76923077 39:0.66666667 40:0.54304517 41:0.46341463 42:0.21428571 44:0.28571429 45:0.375 46:0.16666667 47:0.25 49:0.6 50:0.25 51:0.375 53:0.16666667 54:0.28571429 57:0.25 58:0.16666667 59:0.33333333 
-14.72630210095897 0:0.67103825 1:0.59047749 2:0.92222222 3:0.068965517 4:0.26748971 5:0.49180328 6:0.67924528 7:0.48192771 8:0.22222222 9:0.41776078 10:0.51949999 12:0.0090625 13:0.0039747416 14:0.015217391 15:0.16968159 16:0.2 17:0.11111111 18:0.14285714 20:0.26469418 21:0.56080286 22:1 23:0.14536378 24:0.11446436 25:0.27832011 26:0.52810869 27:0.67110135 28:0.89502589 29:0.5858253 30:0.61086367 32:0.025382385 33:0.0068152999 34:0.03276934 35:0.16524116 38:0.15384615 40:0.052089327 41:0.048780488 42:0.28571429 44:0.14285714 45:0.25 50:0.25 51:0.25 
14.17513910570167 0:0.6284153 1:0.50493836 2:0.77777778 3:0.068965517 4:0.21604938 5:0.41639344 6:0.48113208 7:0.3815261 8:0.46666667 9:0.4673644 10:0.30562695 12:0.0090625 13:0.0039747416 14:0.015217391 15:0.18464484 16:0.13333333 18:0.21428571 20:0.13496433 21:0.29584158 22:0.37993542 23:0.14536378 24:0.073178779 25:0.23360707 26:0.47159429 27:0.55330842 28:0.73603757 29:0.18084526 30:0.51916519 32:0.025382385 33:0.0068152999 34:0.03276934 35:0.1306332 36:0.076923077 38:0.15384615 40:0.064729574 41:0.048780488 43:0.25 44:0.14285714 45:0.125 47:0.125 50:0.25 51:0.125 58:0.33333333 59:0.11111111 61:0.25 
16 0:0.62622951 1:0.53396747 2:0.7 4:0.11111111 5:0.6852459 6:0.90566038 7:0.3935743 8:0.22222222 9:0.5527319 10:0.37795264 11:0.37084464 12:0.3 13:0.07033893 14:0.027950311 15:0.12926611 16:0.26666667 17:0.22222222 18:0.21428571 19:0.16666667 20:0.20852137 21:0.25645906 22:0.51406944 23:0.20876262 24:0.11129842 25:0.33572669 26:0.69814502 27:0.49824021 28:0.70605467 29:0.37038063 30:0.44270044 31:0.26222611 32:0.17559774 33:0.044004941 34:0.0082176671 35:0.06975181 36:0.23076923 38:0.15384615 39:0.16666667 40:0.19436853 41:0.2195122 42:0.28571429 43:0.25 44:0.14285714 45:0.25 47:0.25 51:0.125 53:0.16666667 56:0.33333333 58:0.5 59:0.11111111 
-0.7531934970308368 2:0.11111111 3:0.068965517 7:0.13654618 8:0.13333333 9:0.13926271 10:0.057342689 11:0.24427772 12:0.221875 13:0.13779413 14:0.0062111801 15:0.018927766 16:0.93333333 17:1 20:0.056597067 21:0.050885393 22:0.45587368 23:0.14536378 24:0.023184889 27:0.32578185 28:0.28397959 29:0.21699089 30:0.38522887 31:0.12511937 32:0.09102515 33:0.029356239 34:0.0040344684 36:0.15384615 37:0.2 40:0.36473317 41:0.36585366 44:0.42857143 45:0.875 50:0.5 53:0.16666667 55:0.33333333 57:0.375 58:0.33333333 61:0.75 
16 0:0.85136612 1:0.86683468 2:0.96666667 4:0.49382716 5:0.72459016 6:0.93396226 7:0.79518072 8:0.56666667 9:0.98008074 10:0.40670193 11:0.74936005 12:0.4375 13:0.83484079 14:0.055900621 15:0.38140978 16:0.2 18:0.57142857 19:0.66666667 20:0.59168277 21:0.94178519 22:0.68916452 23:0.20876262 24:0.18529749 25:0.64002147 26:1 27:0.8844505 28:0.77656475 29:0.75092204 30:0.62416059 31:0.41594734 32:0.31580293 33:0.32515835 34:0.050786694 35:0.24666061 36:0.076923077 38:0.61538462 39:0.66666667 40:0.20130898 41:0.12195122 44:0.28571429 45:0.125 47:0.125 49:0.2 51:0.5 56:0.33333333 59:0.33333333 
16 0:0.81748634 1:0.73304271 2:0.45555556 3:0.068965517 4:0.35596708 5:0.64262295 6:1 7:0.65863454 8:0.22222222 9:0.82184136 10:0.23611821 11:0.83079459 12:0.459375 13:0.043205053 14:0.31987578 15:0.43886139 16:0.2 17:0.11111111 18:0.5 19:0.16666667 20:0.55075722 21:0.5653197 22:0.33459764 23:0.14536378 24:0.22892873 25:0.37478375 26:0.52810869 27:0.69379756 28:0.72826733 29:0.58980817 30:0.56042521 31:0.49895414 32:0.43556527 33:0.098627834 34:0.16382428 35:0.40125197 36:0.076923077 38:0.53846154 39:0.16666667 40:0.38361263 41:0.29268293 42:0.21428571 44:0.14285714 45:0.125 47:0.125 49:0.6 50:0.25 51:0.375 54:0.28571429 55:0.16666667 58:0.33333333 59:0.11111111 61:0.25 
16 0:0.47650273 1:0.44540563 2:0.42222222 3:0.068965517 4:0.55761317 5:0.58032787 6:0.74528302 7:0.31726908 8:0.17777778 9:0.79270559 10:0.18833993 11:0.73290505 12:0.65 13:0.29671008 14:0.0031055901 15:0.54661713 16:0.73333333 17:0.66666667 18:0.35714286 20:0.47992568 21:0.34801276 22:0.41892977 23:0.14536378 24:0.26488986 25:0.39201329 26:0.69140711 27:0.52548718 28:0.49727994 29:0.53183994 30:0.46325538 31:0.43322417 32:0.35170961 33:0.18113255 34:0.010676009 35:0.31440969 36:0.23076923 38:0.46153846 39:0.16666667 40:0.51569692 41:0.48780488 42:0.35714286 45:1 47:0.125 49:0.4 50:0.5 51:0.25 53:0.16666667 55:0.16666667 57:0.375 58:0.16666667 59:0.11111111 60:0.33333333 
16 0:0.72349727 1:0.6049802 2:0.45555556 3:0.068965517 4:0.44032922 5:0.67213115 6:0.94339623 7:0.33333333 8:0.17777778 9:0.88632459 10:0.18431579 11:0.79991321 12:0.54375 13:0.54164555 14:0.01242236 15:0.82072426 16:0.66666667 17:0.44444444 18:0.78571429 19:0.16666667 20:0.59818605 21:0.24197707 22:0.33459764 23:0.14536378 24:0.52333499 25:0.20120571 26:0.47600923 27:0.43703329 28:0.36291836 29:0.49301754 30:0.25754117 31:0.47859722 32:0.410056 33:0.22475692 34:0.00099116089 35:0.55592452 36:0.61538462 38:0.84615385 39:0.16666667 40:1 41:1 42:0.64285714 44:0.42857143 45:0.5 47:0.5 48:0.33333333 49:0.2 50:0.5 51:0.125 53:0.16666667 55:0.16666667 57:1 58:0.5 59:1 61:0.25 
-16 0:0.65355191 1:0.54880458 2:0.14444444 3:0.068965517 4:0.16460905 5:0.61311475 6:0.48113208 7:0.74297189 8:0.25555556 9:0.28087546 10:0.62579518 12:0.0090625 13:0.0039747416 14:0.015217391 15:0.15448048 16:0.066666667 18:0.21428571 20:0.13620962 21:0.37658645 23:0.14536378 24:0.12739739 25:0.4624789 26:0.43571775 27:0.69764791 28:0.44973333 29:0.21287597 30:0.59025774 32:0.025382385 33:0.0068152999 34:0.03276934 35:0.25637172 36:0.076923077 38:0.23076923 40:0.041211162 45:0.125 46:0.16666667 48:0.16666667 50:0.25 51:0.125 58:0.33333333 59:0.11111111 
-9.582953371051545 0:0.74863388 1:0.63155222 2:1 3:0.068965517 4:1 5:0.66885246 6:1 7:0.33333333 8:0.17777778 9:0.81039054 10:0.33270423 11:0.72402326 12:0.4 13:0.17369997 14:0.034161491 15:1 16:0.73333333 17:0.44444444 18:1 19:0.5 20:0.97911561 21:0.60205297 22:0.69939382 23:0.14536378 24:0.54076815 25:0.43562491 26:0.69814502 27:0.61005983 28:0.58728236 29:0.74612922 30:0.45995535 31:0.62580665 32:0.6078257 33:0.21886485 34:0.033105845 35:0.88090032 36:0.30769231 38:1 39:0.33333333 40:0.78626654 41:0.6097561 42:0.071428571 43:0.25 44:0.28571429 45:0.625 46:0.16666667 49:1 50:0.75 51:0.75 53:0.33333333 54:0.14285714 57:0.25 58:0.33333333 59:0.11111111 61:0.25 
9.792205624297273 0:0.72459016 1:0.62820244 2:0.11111111 3:0.068965517 4:0.66255144 5:0.66885246 6:0.93396226 7:0.40963855 8:0.22222222 9:0.90100968 10:0.20170699 11:0.8648495 12:0.53125 13:0.82231118 14:0.0093167702 15:0.66657227 16:0.46666667 17:0.22222222 18:0.78571429 19:0.66666667 20:0.79181042 21:0.64630318 22:0.35195697 23:0.14536378 24:0.34339309 25:0.53978241 26:1 27:0.59433423 28:0.36413366 29:0.80223774 30:0.35680909 31:0.75644396 32:0.75839334 33:0.58879498 34:0.045694436 35:0.74772241 36:0.15384615 38:0.76923077 39:0.5 40:0.54698288 41:0.41463415 43:0.25 44:0.71428571 48:0.16666667 49:0.4 50:0.25 51:0.875 53:0.16666667 54:0.28571429 55:0.16666667 57:0.125 58:0.33333333 59:0.11111111 
16 0:0.73879781 1:0.69305696 2:0.11111111 3:0.068965517 4:0.086419753 5:0.9147541 6:0.94339623 7:0.47389558 8:0.25555556 9:0.86495403 10:0.64088293 11:0.48570518 12:0.346875 13:0.27126692 14:0.10869565 15:0.15798059 16:0.13333333 18:0.35714286 19:0.33333333 20:0.16521688 21:0.2717718 22:0.45587368 23:0.14536378 24:0.11331115 25:0.39351544 26:0.39629004 27:0.48375872 28:0.44529257 29:0.4935472 30:0.44083567 31:0.34430468 32:0.21342024 33:0.30655775 34:0.010816358 35:0.14089221 36:0.15384615 38:0.38461538 39:0.33333333 40:0.19294807 41:0.12195122 42:0.14285714 44:0.14285714 48:0.16666667 50:0.25 54:0.14285714 56:0.33333333 59:0.55555556 61:0.25 
16 0:0.79125683 1:0.74839589 2:0.96666667 3:0.068965517 4:0.27160494 5:0.86229508 6:0.97169811 7:0.58232932 8:0.52222222 9:0.69938331 10:0.79037258 11:0.26698504 12:0.69375 13:0.13724913 14:0.19254658 15:0.40413217 16:0.13333333 18:0.5 19:0.5 20:0.14806521 21:0.21025896 22:0.68916452 23:0.14536378 24:0.34355097 25:0.33265043 26:0.40622379 27:0.45452832 28:0.32683142 29:0.37286609 30:0.36424569 31:0.40416433 32:0.586522 33:0.22870606 34:0.14845587 35:0.27866934 36:0.38461538 37:0.4 38:0.53846154 39:0.5 40:0.21572929 41:0.17073171 44:0.14285714 47:0.25 48:0.33333333 49:0.6 50:0.25 53:0.16666667 57:0.125 59:0.44444444 
-16 0:0.78688525 1:0.80103535 2:0.71111111 3:0.068965517 4:0.092592593 5:0.60327869 6:0.74528302 7:0.78714859 8:0.82222222 9:0.61619277 10:0.77001471 11:0.19081688 12:0.36875 13:0.22839622 14:0.37267081 15:0.096813656 18:0.14285714 20:0.1677091 21:0.32843424 22:0.55478921 23:0.14536378 24:0.057900101 25:0.12224782 26:0.26579703 27:0.62267609 28:0.72583671 29:0.34295003 30:0.5702401 31:0.15530482 32:0.19874753 33:0.17522886 34:0.23616019 35:0.038870398 38:0.15384615 40:0.078286824 41:0.073170732 42:0.28571429 49:0.2 50:0.25 52:0.33333333 57:0.25 59:0.11111111 61:0.25 
-16 0:0.71038251 1:0.66146101 2:0.14444444 3:0.068965517 4:0.086419753 5:0.69180328 6:0.81132075 7:0.57429719 8:0.48888889 9:0.56892565 10:0.72260144 11:0.44590012 12:0.14375 13:0.52840193 14:0.14906832 15:0.13504299 16:0.066666667 18:0.28571429 19:0.16666667 20:0.18557974 21:0.36161528 23:0.14536378 24:0.16266605 25:0.48299669 26:0.60511786 27:0.52226355 28:0.55119594 29:0.43859163 30:0.52177997 31:0.49684792 32:0.00087445088 33:0.54560044 34:0.004016794 35:0.243949 36:0.15384615 38:0.30769231 39:0.16666667 40:0.11635141 41:0.073170732 42:0.071428571 46:0.16666667 48:0.16666667 50:0.25 51:0.125 53:0.16666667 57:0.125 58:0.33333333 59:0.22222222 
16 0:0.7136612 1:0.62270962 2:1 3:0.068965517 4:0.84567901 5:0.64590164 6:1 7:0.48192771 8:0.11111111 9:0.91587181 10:0.016383625 11:0.9045681 12:0.60625 13:0.15975317 14:0.02484472 15:0.71781657 16:0.6 17:0.33333333 18:0.71428571 19:0.5 20:0.61491617 21:0.54667473 22:0.69939382 23:0.14536378 24:0.258353 25:0.56478763 26:1 27:0.60272889 28:0.54770493 29:0.6552037 30:0.40537304 31:0.6331673 32:0.59972938 33:0.18997754 34:0.07438021 35:0.31049068 36:0.30769231 37:0.2 38:0.76923077 39:0.5 40:0.48081487 41:0.36585366 42:0.071428571 44:0.42857143 45:0.25 46:0.16666667 49:1 50:0.25 51:0.25 53:0.5 54:0.14285714 56:0.33333333 57:0.125 59:0.22222222 
16 0:0.7442623 1:0.62750574 2:0.41111111 4:0.61934156 5:0.77704918 6:0.97169811 7:0.37349398 8:0.11111111 9:0.83466369 10:0.27548321 11:0.70144861 12:0.734375 13:0.1427102 14:0.0062111801 15:0.76361247 16:0.6 17:0.22222222 18:0.85714286 19:0.66666667 20:0.7420244 21:0.44149874 22:0.37154208 23:0.20876262 24:0.56320728 25:0.56316039 26:0.70807878 27:0.48490286 28:0.44973333 29:0.65616365 30:0.3388359 31:0.56039509 32:0.69881654 33:0.19288582 34:0.24700145 35:0.82796439 36:0.53846154 37:0.4 38:0.84615385 39:0.5 40:0.73236119 41:0.63414634 42:0.28571429 43:0.25 44:0.14285714 45:0.25 46:0.33333333 47:0.25 48:0.33333333 49:0.6 51:0.5 52:0.33333333 53:0.5 54:0.28571429 55:0.5 56:0.33333333 57:0.125 59:0.22222222 
7.011041198070682 0:0.70163934 1:0.61864422 2:0.11111111 4:0.037037037 5:0.62622951 6:0.97169811 7:0.59839357 8:0.38888889 9:0.68379553 10:0.46227897 11:0.41491203 12:0.45 13:0.13472283 14:0.15838509 15:0.23801864 16:0.13333333 18:0.35714286 19:0.33333333 20:0.057051614 21:0.065122713 22:0.45587368 23:0.20876262 24:0.12092613 25:0.053334926 26:0.40622379 27:0.3474196 28:0.32683142 29:0.2737019 30:0.27168342 31:0.3265021 32:0.37254667 33:0.080698612 34:0.14723746 35:0.16902827 36:0.46153846 37:0.8 38:0.30769231 39:0.16666667 40:0.2318937 41:0.26829268 42:0.14285714 43:0.25 44:0.14285714 47:0.5 48:0.16666667 49:0.6 50:0.25 54:0.14285714 56:0.33333333 57:0.25 58:0.16666667 59:0.11111111 
16 0:0.63387978 1:0.54057966 2:0.11111111 4:0.32921811 5:0.93114754 6:0.90566038 7:0.18072289 8:0.22222222 9:0.95375031 10:0.44766099 11:0.73491501 12:0.375 13:0.50155191 14:0.055900621 15:0.24431657 16:0.46666667 17:0.44444444 18:0.5 19:0.83333333 20:0.50518154 21:0.65207727 22:0.45587368 23:0.20876262 24:0.17934961 25:0.83265796 26:1 27:0.50427496 28:0.68212156 29:0.71965488 30:0.75886086 31:0.33696618 32:0.12240176 33:0.056138811 34:0.0092602449 35:0.11860214 36:0.15384615 38:0.53846154 39:0.83333333 40:0.2524813 41:0.19512195 44:0.42857143 45:0.125 46:0.33333333 47:0.125 49:0.4 51:0.25 53:0.16666667 55:0.33333333 56:0.33333333 59:0.11111111 
16 0:0.72896175 1:0.62337715 2:0.96666667 3:0.068965517 4:0.67078189 5:0.6 6:0.97169811 7:0.48594378 8:0.22222222 9:0.76584898 10:0.28129485 11:0.53830381 12:0.259375 13:0.04475829 14:0.027950311 15:0.64959279 16:0.53333333 17:0.11111111 18:0.57142857 19:0.33333333 20:0.66211663 21:0.44788661 22:0.68916452 23:0.14536378 24:0.11609144 25:0.27179583 26:0.52810869 27:0.51536516 28:0.50612346 29:0.52657744 30:0.40499067 31:0.43299527 32:0.20004391 33:0.042265 34:0.0054472823 35:0.27555511 36:0.15384615 38:0.61538462 39:0.33333333 40:0.6422792 41:0.53658537 42:0.35714286 44:0.14285714 45:0.625 47:0.125 49:0.6 50:0.25 51:0.25 52:0.33333333 53:0.16666667 54:0.28571429 55:0.16666667 58:0.5 59:0.33333333 61:0.25 
16 0:0.64918033 1:0.56917104 2:0.11111111 3:0.068965517 4:0.31687243 5:0.8852459 6:0.93396226 7:0.27710843 8:0.22222222 9:0.80029375 10:0.18806855 11:0.64631651 12:0.5 13:0.38921404 14:1.4108301e-15 15:0.38305223 16:0.53333333 17:0.22222222 18:0.57142857 19:0.66666667 20:0.72271438 21:0.52511048 22:0.46041996 23:0.14536378 24:0.14962759 25:0.79858467 26:1 27:0.39981886 28:0.44973333 29:0.7350027 30:0.30467339 31:0.584152 32:0.32319362 33:0.10714193 34:0.010456639 35:0.37497189 36:0.076923077 38:0.61538462 39:0.66666667 40:0.58258415 41:0.48780488 42:0.28571429 44:0.28571429 45:0.625 48:0.16666667 49:0.4 50:0.25 51:0.625 54:0.14285714 55:0.16666667 57:0.25 58:0.33333333 59:0.11111111 61:0.25 
3.118255030601937 0:0.37923497 1:0.26123712 2:0.066666667 3:0.068965517 4:0.38065844 5:0.46557377 6:0.50943396 7:0.13654618 8:0.13333333 9:0.4941287 10:0.27388914 11:0.37542309 12:0.953125 13:0.074658082 14:0.28571429 15:0.3249663 16:0.6 17:0.44444444 18:0.21428571 20:0.13709463 21:0.1603643 22:0.14536378 23:0.14536378 24:0.11946702 25:0.33475177 26:0.47600923 27:0.33038796 28:0.28397959 29:0.53903995 30:0.38677922 31:0.39858561 32:0.59054685 33:0.10050182 34:0.25371981 35:0.2073057 36:0.23076923 37:0.2 38:0.23076923 40:0.27731228 41:0.24390244 42:0.071428571 45:0.375 46:0.16666667 49:0.2 50:0.75 51:0.125 53:0.16666667 55:0.5 57:0.25 58:0.33333333 
16 0:0.74098361 1:0.65627682 2:0.42222222 4:0.3909465 5:0.6 6:0.93396226 7:0.68674699 8:0.25555556 9:0.89508975 10:0.38187697 11:0.69072211 12:0.3875 13:0.49212985 14:0.11801242 15:0.40230849 16:0.26666667 18:0.5 19:0.33333333 20:0.49466119 21:0.5080342 22:0.41892977 23:0.20876262 24:0.35577064 25:0.35606866 26:0.90697284 27:0.57273541 28:0.40920615 29:0.70315175 30:0.25656861 31:0.76886079 32:0.21761647 33:0.49470362 34:0.019719166 35:0.39135041 36:0.30769231 37:0.2 38:0.53846154 39:0.33333333 40:0.3321706 41:0.29268293 42:0.071428571 44:0.14285714 45:0.25 46:0.16666667 47:0.375 48:0.16666667 49:0.4 51:0.375 52:0.33333333 55:0.16666667 56:0.33333333 58:0.33333333 59:0.11111111 
-16 0:0.78032787 1:0.83515352 2:0.11111111 3:0.068965517 4:0.092592593 5:0.77377049 6:0.97169811 7:1 8:0.53333333 9:0.37328152 10:0.74139327 12:0.0090625 13:0.0039747416 14:0.015217391 15:0.11926418 16:0.066666667 18:0.28571429 19:0.16666667 20:0.15568308 21:0.37733312 22:0.36373261 23:0.14536378 24:0.16985066 25:0.24556247 26:0.40622379 27:0.7308824 28:0.76449629 29:0.20148572 30:0.57795914 32:0.025382385 33:0.0068152999 34:0.03276934 35:0.0785874 36:0.076923077 38:0.30769231 39:0.16666667 40:0.058580265 41:0.024390244 42:0.071428571 47:0.125 49:0.2 50:0.25 55:0.16666667 58:0.16666667 59:0.33333333 
16 0:0.87322404 1:0.90057793 2:1 3:0.068965517 4:0.24897119 5:0.76393443 6:0.93396226 7:0.65461847 8:0.22222222 9:0.77522011 10:0.74666215 11:0.4054418 12:0.48125 13:0.34896591 14:0.080745342 15:0.2698481 16:0.13333333 17:0.11111111 18:0.57142857 19:0.66666667 20:0.62753855 21:0.99811759 22:0.69939382 23:0.14536378 24:0.11446436 25:0.76918419 26:1 27:0.81043057 28:0.89502589 29:0.70875977 30:0.80388058 31:0.2588304 32:0.33188465 33:0.17443383 34:0.012964167 35:0.31513063 38:0.61538462 39:0.66666667 40:0.22452172 41:0.12195122 44:0.14285714 45:0.125 49:0.4 50:0.25 51:0.625 54:0.14285714 57:0.125 59:0.11111111 
-16 0:0.61420765 1:0.51590491 2:0.42222222 3:0.068965517 4:0.12345679 5:0.67868852 6:0.53773585 7:0.37751004 8:0.17777778 9:0.72012548 10:0.42852601 11:0.47564807 12:0.634375 13:0.40181111 14:0.3757764 15:0.23375961 16:0.26666667 17:0.22222222 18:0.21428571 20:0.12364584 21:0.16504502 22:0.41892977 23:0.14536378 24:0.19701976 25:0.22055748 26:0.13386276 27:0.44162233 28:0.59172312 29:0.36617057 30:0.46950058 31:0.21028503 32:0.42417137 33:0.099071895 34:0.32680179 35:0.094874284 36:0.30769231 38:0.23076923 40:0.16653481 41:0.19512195 42:0.14285714 44:0.14285714 45:0.125 47:0.375 49:0.2 50:0.25 53:0.16666667 55:0.16666667 57:0.125 58:0.33333333 59:0.22222222 
16 0:0.64808743 1:0.54780762 2:0.92222222 3:0.068965517 4:0.12962963 5:0.49508197 6:0.67924528 7:0.48594378 8:0.22222222 9:0.52067606 10:0.55110995 11:0.19017692 12:0.165625 13:0.22764355 14:0.17080745 15:0.17711224 16:0.2 17:0.11111111 18:0.21428571 20:0.1795683 21:0.35045362 22:1 23:0.14536378 25:0.29670889 26:0.52810869 27:0.51411304 28:0.46882122 29:0.47308228 30:0.50022231 31:0.27685354 32:0.30705502 33:0.30703709 34:0.36322582 35:0.066380903 36:0.076923077 37:0.2 38:0.23076923 40:0.085011507 41:0.073170732 42:0.071428571 45:0.25 47:0.125 49:0.4 50:0.25 51:0.125 55:0.16666667 57:0.125 58:0.16666667 
-16 0:0.62076503 1:0.51084342 2:0.066666667 3:0.068965517 4:0.25308642 5:0.49836066 6:0.93396226 7:0.562249 8:0.46666667 9:0.66605322 10:0.43642457 11:0.42483451 12:0.54375 13:0.16698594 14:0.38819876 15:0.22186604 16:0.2 18:0.21428571 19:0.16666667 20:0.14374144 21:0.23803211 22:0.14536378 23:0.14536378 24:0.19859466 25:0.31707016 26:0.70807878 27:0.55947799 28:0.40920615 29:0.42207691 30:0.39737388 31:0.49426636 32:0.2461647 33:0.36173049 34:0.27060402 35:0.24236218 36:0.23076923 38:0.30769231 39:0.16666667 40:0.17570483 41:0.12195122 42:0.14285714 45:0.125 48:0.16666667 49:0.2 50:0.5 51:0.125 53:0.16666667 58:0.33333333 59:0.11111111 60:0.33333333 
-16 0:0.57595628 1:0.41620895 2:0.92222222 3:0.068965517 4:0.11522634 5:0.40655738 6:0.93396226 7:0.16465863 8:0.17777778 9:0.53316179 10:0.32434084 11:0.44878085 12:0.159375 13:0.53178999 14:0.16459627 15:0.075575139 16:0.33333333 17:0.44444444 18:0.21428571 19:0.16666667 20:0.23773375 21:0.45845142 22:1 23:0.14536378 24:0.14957004 25:0.28634025 26:0.70807878 27:0.55193971 28:0.48577762 29:0.60687059 30:0.45234827 31:0.45452683 32:0.33237167 33:0.49970717 34:0.39292714 35:0.12850136 36:0.15384615 37:0.2 38:0.23076923 39:0.16666667 40:0.091664269 41:0.073170732 42:0.071428571 44:0.14285714 45:0.25 49:0.2 50:0.25 51:0.25 53:0.33333333 57:0.125 
16 0:0.73661202 1:0.63369384 2:0.11111111 3:0.068965517 4:0.40946502 5:0.73114754 6:0.77358491 7:0.35341365 8:0.17777778 9:0.759964 10:0.33805106 11:0.53931255 12:0.803125 13:0.02366538 14:0.052795031 15:0.47960536 16:0.4 17:0.11111111 18:0.5 19:0.16666667 20:0.63748275 21:0.48061988 22:0.46041996 23:0.14536378 24:0.046056214 25:0.51016374 26:0.90697284 27:0.54563638 28:0.49727994 29:0.62526867 30:0.357484 31:0.7340242 32:0.23503444 33:0.066077737 34:0.037920592 35:0.34342414 36:0.076923077 38:0.53846154 39:0.16666667 40:0.53320987 41:0.46341463 42:0.5 45:0.625 46:0.16666667 48:0.16666667 49:0.2 50:0.25 51:0.375 54:0.14285714 55:0.16666667 57:0.25 58:0.16666667 59:0.22222222 61:0.25 
-16 0:0.81639344 1:0.81284549 2:0.96666667 3:0.068965517 5:0.76393443 6:0.97169811 7:0.70682731 8:0.52222222 9:0.78474587 10:0.48714766 11:0.52814682 12:0.25625 13:0.40620691 14:0.077639752 15:0.049160087 18:0.28571429 19:0.16666667 20:0.19514713 21:0.31879471 22:0.68916452 23:0.14536378 24:0.28011087 25:0.28179781 26:0.40622379 27:0.45502981 28:0.46882122 29:0.51725366 30:0.31247306 31:0.54692615 32:0.37073614 33:0.45462137 34:0.28704003 35:0.14411716 36:0.38461538 37:0.6 38:0.30769231 39:0.16666667 40:0.077423763 41:0.12195122 42:0.14285714 47:0.625 49:0.2 50:0.25 51:0.125 58:0.16666667 59:0.22222222 
-0.3779187159424487 0:0.78142077 1:0.77361896 2:0.96666667 3:0.068965517 4:0.086419753 5:0.83606557 6:0.94339623 7:0.59839357 8:0.52222222 9:0.6032158 10:0.74666215 11:0.36304584 12:0.140625 13:0.178063 14:0.13664596 15:0.084954068 16:0.066666667 18:0.28571429 19:0.16666667 20:0.1863666 21:0.33161817 22:0.68916452 23:0.14536378 24:0.13554135 25:0.3182816 26:0.39629004 27:0.49693718 28:0.46882122 29:0.35946203 30:0.45922308 31:0.27822099 32:0.081947409 33:0.089160141 34:0.077945388 35:0.036475555 36:0.23076923 37:0.2 38:0.30769231 39:0.16666667 40:0.09087313 41:0.097560976 42:0.14285714 44:0.14285714 47:0.375 50:0.25 59:0.44444444 61:0.25 
16 0:0.81748634 1:0.72583611 2:1 4:0.49382716 5:0.64918033 6:1 7:0.46987952 8:0.43333333 9:0.82193862 10:0.31798644 11:0.67848101 12:0.59375 13:0.45767515 14:0.071428571 15:0.4215874 16:0.33333333 18:0.57142857 19:0.66666667 20:0.60087917 21:0.58646037 22:0.69939382 23:0.20876262 24:0.22324732 25:0.53646825 26:0.81394568 27:0.56484317 28:0.69096508 29:0.71819756 30:0.46929538 31:0.5744094 32:0.3159128 33:0.27594525 34:0.038747015 35:0.18497214 36:0.15384615 38:0.61538462 39:0.66666667 40:0.3611191 41:0.31707317 42:0.28571429 44:0.42857143 45:0.25 46:0.33333333 47:0.25 49:0.4 51:0.125 54:0.14285714 56:0.33333333 59:0.33333333 
-10.56762907988779 0:0.63825137 1:0.56330873 2:0.11111111 4:0.36213992 5:0.72459016 6:0.83962264 7:0.1686747 8:0.11111111 9:0.87844465 10:0.20438041 11:0.73288445 12:0.471875 13:0.44129138 14:0.0093167702 15:0.58757632 16:0.6 17:0.44444444 18:0.64285714 19:0.33333333 20:0.60097264 21:0.39268927 22:0.46041996 23:0.20876262 24:0.30985693 25:0.35822923 26:0.61505162 27:0.43388436 28:0.35529014 29:0.6725092 30:0.28426933 31:0.69047957 32:0.38957247 33:0.2755115 34:0.025845165 35:0.57230099 36:0.23076923 37:0.2 38:0.69230769 39:0.33333333 40:0.65200662 41:0.56097561 42:0.28571429 44:0.28571429 45:0.25 46:0.33333333 48:0.33333333 49:0.6 51:0.25 52:0.33333333 53:0.16666667 55:0.66666667 56:0.33333333 57:0.375 58:0.16666667 59:0.22222222 61:0.25 
-16 0:0.88961749 1:0.71729075 2:1 3:0.068965517 4:0.21604938 5:0.77377049 6:0.86792453 7:0.44578313 8:0.22222222 9:0.72994796 10:0.21774747 11:0.5869397 12:0.4875 13:0.057882674 14:0.027950311 15:0.421089 16:0.33333333 17:0.22222222 18:0.85714286 19:0.66666667 20:1 21:0.61497857 22:0.69939382 23:0.14536378 24:0.16564651 25:1 26:1 27:0.59374993 28:0.68757565 29:0.70288629 30:0.42495842 31:0.45800204 32:0.41094207 33:0.032774552 34:0.0029759909 35:0.50492876 36:0.30769231 37:0.2 38:0.92307692 39:0.83333333 40:0.73732379 41:0.6097561 42:0.28571429 43:0.25 45:0.125 46:0.16666667 47:0.25 49:0.2 50:0.25 51:0.875 53:0.33333333 54:0.42857143 55:0.33333333 57:0.25 58:0.5 59:0.22222222 60:0.33333333 
-16 0:0.96612022 1:0.85487117 2:0.81111111 4:0.21193416 5:0.7442623 6:0.94339623 7:0.69477912 8:0.43333333 9:0.81056758 10:0.4952178 11:0.60529255 12:0.484375 13:0.23843351 14:0.037267081 15:0.35707894 16:0.13333333 18:0.78571429 19:0.83333333 20:0.79166748 21:0.73626922 22:0.90420519 23:0.20876262 24:0.25195683 25:0.57592871 26:0.90697284 27:0.79547439 28:0.73403523 29:0.85064962 30:0.54891886 31:0.6274685 32:0.52944713 33:0.40163053 34:0.10104964 35:0.42060777 36:0.076923077 38:0.76923077 39:0.66666667 40:0.45105725 41:0.34146341 42:0.14285714 43:0.25 44:0.28571429 46:0.5 47:0.125 49:0.2 51:0.375 52:0.33333333 54:0.42857143 56:0.33333333 57:0.125 59:0.33333333 
16 0:0.63606557 1:0.53052698 2:0.92222222 3:0.068965517 4:0.20164609 5:0.48852459 6:0.48113208 7:0.56626506 8:0.47777778 9:0.64670004 10:0.4336794 11:0.25562715 12:0.7625 13:0.10701585 14:0.76086957 15:0.25678783 16:0.13333333 18:0.21428571 20:0.1102574 21:0.20207978 22:1 23:0.14536378 24:0.068908311 25:0.31072147 26:0.47159429 27:0.45630662 28:0.32683142 29:0.56924834 30:0.37873238 31:0.48967532 32:0.52700397 33:0.173815 34:0.47134242 35:0.15279799 36:0.15384615 37:0.2 38:0.23076923 40:0.097885501 41:0.097560976 42:0.071428571 44:0.14285714 45:0.125 47:0.125 48:0.16666667 50:0.25 51:0.125 57:0.25 58:0.16666667 59:0.22222222 
16 0:0.72568306 1:0.66066344 2:0.11111111 3:0.73563218 4:0.29012346 5:0.68196721 6:0.97169811 7:0.26907631 8:0.22222222 9:0.84256605 10:0.31229646 11:0.69808676 12:0.234375 13:0.641437 14:0.065217391 15:0.25611952 16:0.26666667 17:0.22222222 18:0.28571429 19:0.16666667 20:0.35884568 21:0.49725879 22:0.46041996 23:0.55478921 24:0.10315852 25:0.33725692 26:0.43571775 27:0.60591181 28:0.78908039 29:0.55064206 30:0.46580223 31:0.45954764 32:0.29248343 33:0.29528279 34:0.030265813 35:0.13450214 36:0.076923077 38:0.30769231 39:0.16666667 40:0.20627158 41:0.17073171 42:0.14285714 44:0.28571429 45:0.125 49:0.4 51:0.125 52:0.66666667 53:0.33333333 57:0.125 58:0.16666667 59:0.11111111 
-16 0:0.6568306 1:0.5700926 2:0.14444444 3:0.068965517 4:0.36213992 5:0.43278689 6:0.71698113 7:0.59839357 8:0.56666667 9:0.64319147 10:0.32434084 11:0.56234344 12:0.6125 13:0.3378511 14:0.30745342 15:0.417385 16:0.26666667 18:0.28571429 20:0.1794983 21:0.22159026 23:0.14536378 24:0.43160495 25:0.206784 26:0.47159429 27:0.56713862 28:0.64412736 29:0.41270124 30:0.43516178 31:0.44262547 32:0.20676887 33:0.28329535 34:0.015702116 35:0.25966792 36:0.46153846 37:0.2 38:0.30769231 40:0.17800633 41:0.2195122 42:0.21428571 44:0.28571429 45:0.125 47:0.5 48:0.16666667 50:0.25 51:0.125 53:0.16666667 59:0.33333333 
16 0:0.87213115 1:0.73442368 2:0.7 4:0.38271605 5:0.72459016 6:0.93396226 7:0.5060241 8:0.22222222 9:0.81329313 10:0.43119942 11:0.54498636 12:0.265625 13:0.1909776 14:0.0093167702 15:0.42939184 16:0.26666667 17:0.11111111 18:0.57142857 19:0.5 20:0.6633125 21:0.50015872 22:0.51406944 23:0.20876262 24:0.37901265 25:0.60043083 26:0.70807878 27:0.54224485 28:0.32683142 29:0.53917669 30:0.36928916 31:0.49699372 32:0.30491885 33:0.021051126 34:0.00089204563 35:0.52276066 36:0.38461538 37:0.2 38:0.61538462 39:0.5 40:0.49129747 41:0.46341463 42:0.42857143 44:0.14285714 46:0.16666667 47:0.375 48:0.16666667 49:0.4 51:0.5 52:0.33333333 53:0.16666667 55:0.33333333 56:0.33333333 57:0.125 58:0.33333333 59:0.11111111 
16 0:0.60874317 1:0.54647834 2:0.96666667 3:0.068965517 4:0.87037037 5:0.55409836 6:0.97169811 7:0.4497992 8:0.17777778 9:0.79415689 10:0.17497286 11:0.80067198 12:0.55 13:0.20305411 14:0.01863354 15:0.88075847 16:0.73333333 17:0.55555556 18:0.78571429 19:0.33333333 20:0.60953923 21:0.37331788 22:0.68916452 23:0.14536378 24:0.59340591 25:0.40378258 26:0.47600923 27:0.50000991 28:0.36291836 29:0.76503594 30:0.38630727 31:0.60846834 32:0.42623975 33:0.051467794 34:0.031881467 35:0.5669871 36:0.53846154 37:0.2 38:0.84615385 39:0.33333333 40:0.74600834 41:0.6097561 44:0.28571429 45:0.375 46:0.16666667 47:0.125 48:0.16666667 49:0.6 50:0.5 51:0.25 52:0.33333333 53:0.66666667 55:0.16666667 57:0.25 58:0.66666667 59:0.55555556 61:0.25 
16 0:0.70273224 1:0.63340372 2:0.11111111 4:0.30658436 5:0.7704918 6:0.94339623 7:0.34939759 8:0.22222222 9:0.89587277 10:0.65490824 11:0.68507714 12:0.3 13:0.41630735 14:0.0031055901 15:0.24719368 16:0.33333333 17:0.33333333 18:0.5 19:0.66666667 20:0.48794969 21:0.7221524 22:0.45587368 23:0.20876262 24:0.17236446 25:0.6516677 26:0.90697284 27:0.75994486 28:0.69907797 29:0.82637808 30:0.71845298 31:0.58797869 32:0.1819038 33:0.46497907 34:0.026794816 35:0.25985407 36:0.076923077 38:0.53846154 39:0.66666667 40:0.22169879 41:0.14634146 44:0.14285714 45:0.125 46:0.33333333 49:0.2 51:0.25 53:0.16666667 55:0.33333333 56:0.33333333 57:0.125 59:0.22222222 
16 0:0.7431694 1:0.6776616 2:0.45555556 3:0.068965517 4:0.36625514 5:0.56721311 6:0.90566038 7:0.72690763 8:0.53333333 9:0.85799426 10:0.52283166 11:0.81499663 12:0.14375 13:0.51959744 14:0.074534161 15:0.4107246 16:0.2 18:0.5 19:0.33333333 20:0.4456994 21:0.57614802 22:0.33459764 23:0.14536378 24:0.35893825 25:0.49618001 26:0.69814502 27:0.68590247 28:0.40920615 29:0.72222786 30:0.38786118 31:0.75795577 32:0.23560145 33:0.5886452 34:0.00095877423 35:0.48722697 36:0.23076923 38:0.53846154 39:0.33333333 40:0.24996404 41:0.19512195 44:0.28571429 45:0.125 46:0.16666667 47:0.25 48:0.16666667 50:0.25 51:0.375 58:0.33333333 59:0.33333333 
16 0:0.61420765 1:0.53385018 2:0.11111111 3:0.068965517 4:0.62345679 5:0.66885246 6:0.93396226 7:0.34939759 8:0.22222222 9:0.82807548 10:0.19903358 11:0.77049686 12:0.4875 13:0.37457132 14:0.02484472 15:0.49972248 16:0.6 17:0.33333333 18:0.5 19:0.33333333 20:0.58293836 21:0.54249192 22:0.35195697 23:0.14536378 24:0.012077567 25:0.56039236 26:0.70807878 27:0.66761991 28:0.50612346 29:0.85636707 30:0.51686081 31:0.63601669 32:0.59801984 33:0.43584816 34:0.24455347 35:0.34519591 36:0.076923077 38:0.53846154 39:0.33333333 40:0.43136867 41:0.34146341 42:0.21428571 44:0.42857143 45:0.125 49:0.4 50:0.25 51:0.5 53:0.16666667 54:0.28571429 55:0.66666667 59:0.11111111 
-16 0:0.70054645 1:0.63027042 2:0.41111111 4:0.17901235 5:0.83934426 6:0.97169811 7:0.48594378 8:0.25555556 9:0.599004 10:0.65341398 11:0.33570059 12:0.253125 13:0.22729215 14:0.12732919 15:0.19319688 16:0.13333333 18:0.35714286 19:0.5 20:0.17677767 21:0.26819507 22:0.37154208 23:0.20876262 24:0.12915406 25:0.50646348 26:0.69814502 27:0.38304531 28:0.44529257 29:0.34436969 30:0.55126265 31:0.25617619 32:0.16701783 33:0.15844652 34:0.15119528 35:0.15674981 36:0.23076923 37:0.2 38:0.38461538 39:0.5 40:0.15959436 41:0.14634146 44:0.14285714 47:0.25 48:0.16666667 49:0.2 51:0.125 55:0.16666667 56:0.33333333 57:0.25 58:0.16666667 59:0.33333333 
16 0:0.80983607 1:0.67149292 2:0.81111111 3:0.068965517 4:0.38271605 5:0.7704918 6:0.90566038 7:0.37751004 8:0.22222222 9:0.68464086 10:0.47537466 11:0.53935515 12:0.353125 13:0.1272766 14:0.01863354 15:0.54012664 16:0.46666667 17:0.22222222 18:0.71428571 19:0.5 20:0.78717244 21:0.49880957 22:0.90420519 23:0.14536378 24:0.47491446 25:0.67591445 26:0.90697284 27:0.46302366 28:0.50213756 29:0.69116999 30:0.42668458 31:0.46217522 32:0.44377378 33:0.038468779 34:0.0026887706 35:0.58521916 36:0.30769231 38:0.69230769 39:0.33333333 40:0.63330696 41:0.58536585 42:0.5 43:0.25 44:0.14285714 45:0.375 46:0.33333333 47:0.25 48:0.16666667 49:0.4 50:0.25 51:0.5 53:0.16666667 55:0.33333333 57:0.25 58:0.16666667 59:0.11111111 61:0.25 
-16 0:0.67759563 1:0.60607437 2:0.11111111 3:0.068965517 4:0.40329218 5:0.63606557 6:0.67924528 7:0.75903614 8:0.76666667 9:0.31771807 10:0.67188454 12:0.0090625 13:0.0039747416 14:0.015217391 15:0.27490004 16:0.2 18:0.21428571 20:0.23962498 21:0.56782603 22:0.46041996 23:0.14536378 24:0.16052058 25:0.52080172 26:0.52810869 27:0.71827754 28:0.64412736 29:0.17465906 30:0.54899312 32:0.025382385 33:0.0068152999 34:0.03276934 35:0.21738675 36:0.076923077 38:0.23076923 40:0.053150173 41:0.024390244 42:0.14285714 45:0.125 50:0.25 51:0.25 53:0.16666667 55:0.16666667 59:0.11111111 
-16 0:0.5989071 1:0.49104739 2:0.42222222 3:0.068965517 4:0.094650206 5:0.47213115 6:0.49056604 7:0.57429719 8:0.17777778 9:0.58319928 10:0.48072148 11:0.38870365 12:0.0875 13:0.28206952 14:0.02484472 15:0.10014386 16:0.13333333 17:0.11111111 18:0.14285714 20:0.12389981 21:0.17735523 22:0.41892977 23:0.14536378 24:0.12459295 25:0.1721438 26:0.37856714 27:0.47245256 28:0.48577762 29:0.43550726 30:0.43038938 31:0.33690757 32:0.18547888 33:0.3146286 34:0.12985459 35:0.097696178 36:0.23076923 37:0.2 38:0.15384615 40:0.13485328 41:0.17073171 42:0.14285714 44:0.14285714 46:0.16666667 47:0.25 50:0.25 53:0.16666667 57:0.375 58:0.33333333 59:0.11111111 61:0.25 
16 0:0.79453552 1:0.71001294 2:0.7 3:0.068965517 4:0.26337449 5:0.64262295 6:0.93396226 7:0.60240964 8:0.46666667 9:0.95357327 10:0.39392135 11:0.73060117 12:0.51875 13:0.092940637 14:0.0093167702 15:0.34887804 16:0.2 18:0.5 19:0.33333333 20:0.52123825 21:0.53517481 22:0.51406944 23:0.14536378 24:0.28682883 25:0.39669927 26:0.70807878 27:0.67288986 28:0.65366284 29:0.64557466 30:0.51205457 31:0.54758003 32:0.34398793 33:0.026709096 34:0.030239069 35:0.32950888 36:0.15384615 37:0.2 38:0.53846154 39:0.33333333 40:0.34657293 41:0.29268293 42:0.14285714 44:0.28571429 45:0.125 46:0.16666667 47:0.25 49:0.8 50:0.25 51:0.25 54:0.14285714 57:0.125 58:0.33333333 61:0.25 
-16 0:0.68196721 1:0.60729287 2:0.96666667 3:0.068965517 4:0.2654321 5:0.48196721 6:0.74528302 7:0.47389558 8:0.22222222 9:0.6408599 10:0.44348714 11:0.52828865 12:0.325 13:0.29255234 14:0.31987578 15:0.28381455 16:0.2 17:0.11111111 18:0.28571429 20:0.16089057 21:0.28825779 22:0.68916452 23:0.14536378 24:0.18705416 25:0.11708174 26:0.23618746 27:0.54437521 28:0.55119594 29:0.34216367 30:0.50384036 31:0.28684787 32:0.22746255 33:0.10403059 34:0.24866278 35:0.08962833 36:0.15384615 38:0.30769231 40:0.14195555 41:0.097560976 42:0.071428571 44:0.14285714 49:0.2 50:0.25 53:0.33333333 54:0.14285714 57:0.125 58:0.16666667 59:0.33333333 
16 0:0.75409836 1:0.6913698 2:1 3:0.068965517 4:0.3436214 5:0.73770492 6:0.97169811 7:0.63855422 8:0.22222222 9:0.90042118 10:0.27121573 11:0.73147751 12:0.303125 13:0.51574216 14:0.10248447 15:0.29850594 16:0.26666667 17:0.11111111 18:0.5 19:0.5 20:0.39741082 21:0.5145074 22:0.69939382 23:0.14536378 24:0.075959061 25:0.46687284 26:0.69814502 27:0.58105179 28:0.46882122 29:0.63989127 30:0.52078784 31:0.52483884 32:0.1741282 33:0.26758319 34:0.018650756 35:0.19055971 36:0.15384615 37:0.2 38:0.53846154 39:0.5 40:0.24000288 41:0.19512195 44:0.28571429 45:0.125 46:0.16666667 47:0.25 49:0.4 50:0.25 51:0.125 55:0.16666667 57:0.125 58:0.16666667 59:0.33333333 
-15.02987152976257 0:0.40546448 1:0.14486979 2:0.11111111 4:0.27160494 5:0.17704918 6:0.17924528 7:0.1686747 8:0.22222222 9:0.092579155 10:0.34045309 11:0.10054763 12:0.35625 13:0.10009675 14:0.11180124 15:0.19434093 16:0.46666667 17:0.33333333 18:0.14285714 20:0.19002344 21:0.33784213 22:0.46041996 23:0.20876262 24:0.018058959 25:0.39984779 26:0.47600923 27:0.43905164 28:0.56683546 29:0.29787441 30:0.60544851 31:0.056095536 32:0.29392038 33:0.051401302 34:0.30051988 35:0.13150438 36:0.076923077 38:0.15384615 40:0.11054373 41:0.097560976 45:0.625 46:0.16666667 51:0.125 53:0.16666667 55:0.16666667 56:0.33333333 57:0.125 58:0.16666667 
-16 0:0.75191257 1:0.72426946 2:0.066666667 3:0.068965517 4:0.086419753 5:0.67213115 6:0.67924528 7:0.79518072 8:0.52222222 9:0.77647195 10:0.64612994 11:0.38260742 12:0.640625 13:0.43709657 14:0.40062112 15:0.16325906 16:0.066666667 18:0.21428571 20:0.14819868 21:0.26665611 22:0.14536378 23:0.14536378 24:0.19287877 25:0.33725692 26:0.52810869 27:0.53415182 28:0.46882122 29:0.55801848 30:0.45490826 31:0.40301785 32:0.62490286 33:0.42202201 34:0.53207962 35:0.18713852 36:0.23076923 37:0.2 38:0.23076923 40:0.08346519 41:0.097560976 42:0.14285714 47:0.25 49:0.2 50:0.5 51:0.125 52:0.33333333 57:0.25 59:0.11111111 
16 0:0.62185792 1:0.55739999 2:0.41111111 3:0.068965517 4:0.50411523 5:0.6557377 6:0.94339623 7:0.11646586 8:0.17777778 9:0.7522611 10:0.31293285 11:0.57303928 12:0.428125 13:0.1336429 14:0.02173913 15:0.64010059 16:0.73333333 17:0.33333333 18:0.78571429 19:0.66666667 20:0.77638537 21:0.42349961 22:0.37154208 23:0.14536378 24:0.22262542 25:0.46238674 26:0.90697284 27:0.39620352 28:0.48577762 29:0.60580554 30:0.38924242 31:0.47645006 32:0.46589481 33:0.12925494 34:0.019353247 35:0.45906444 36:0.46153846 37:0.4 38:0.84615385 39:0.66666667 40:0.79885285 41:0.70731707 42:0.21428571 44:0.57142857 45:0.125 46:0.16666667 47:0.25 49:0.6 50:0.5 51:0.5 53:0.5 54:0.42857143 55:0.33333333 57:0.5 58:0.16666667 59:0.33333333 61:0.25 
-16 0:0.53879781 1:0.50151131 2:0.42222222 3:0.068965517 4:0.92592593 5:0.7147541 6:0.94339623 7:0.1686747 8:0.17777778 9:0.95416177 10:0.19903358 11:0.80734916 12:0.80625 13:0.13730052 14:0.046583851 15:0.82503993 16:0.86666667 17:0.55555556 18:0.71428571 19:0.5 20:0.89298746 21:0.56634627 22:0.41892977 23:0.14536378 24:0.1881433 25:0.67089856 26:1 27:0.56025228 28:0.49727994 29:0.85529385 30:0.51197841 31:0.66032234 32:0.41673383 33:0.050308132 34:0.089774697 35:0.49392906 36:0.30769231 38:0.76923077 39:0.5 40:0.69472814 41:0.58536585 42:0.14285714 44:0.57142857 45:0.625 47:0.125 50:0.25 51:0.75 53:0.5 54:0.14285714 55:0.16666667 57:0.125 58:0.33333333 59:0.44444444 61:0.25 
-16 0:0.77923497 1:0.66859311 2:0.42222222 3:0.068965517 4:0.60082305 5:0.78032787 6:1 7:0.53413655 8:0.43333333 9:0.74626139 10:0.31793653 11:0.4485388 12:0.784375 13:0.15997868 14:0.071428571 15:0.5846539 16:0.33333333 18:0.57142857 19:0.5 20:0.66112332 21:0.51823056 22:0.41892977 23:0.14536378 24:0.023028107 25:0.48155638 26:1 27:0.58594832 28:0.64412736 29:0.56975436 30:0.4831447 31:0.26727935 32:0.39611221 33:0.1090195 34:0.0070969013 35:0.20445854 38:0.61538462 39:0.5 40:0.55255682 41:0.43902439 42:0.14285714 45:0.625 46:0.16666667 49:0.8 50:0.25 51:0.25 52:0.66666667 54:0.28571429 57:0.375 58:0.33333333 59:0.11111111 61:0.25 
16 0:0.8579235 1:0.83759054 2:0.7 4:0.11522634 5:0.75081967 6:0.86792453 7:0.67068273 8:0.43333333 9:0.80243081 10:0.78772103 11:0.30045453 12:0.265625 13:0.10917066 14:0.0093167702 15:0.11687414 16:0.066666667 18:0.35714286 19:0.33333333 20:0.52373152 21:0.72176825 22:0.51406944 23:0.20876262 24:0.13749247 25:0.6780765 26:1 27:0.57994616 28:0.70792149 29:0.7443276 30:0.6917742 31:0.38995141 32:0.39360535 33:0.17835453 34:0.089023617 35:0.20906958 36:0.076923077 38:0.38461538 39:0.33333333 40:0.23299051 41:0.17073171 42:0.21428571 51:0.5 52:0.66666667 53:0.16666667 54:0.14285714 56:0.33333333 57:0.125 58:0.16666667 59:0.11111111 
16 0:0.61530055 1:0.51727573 2:0.42222222 3:0.068965517 4:0.21604938 5:0.52459016 6:0.71698113 7:0.48995984 8:0.52222222 9:0.54686934 10:0.32600668 11:0.53888505 12:0.434375 13:0.3378253 14:0.27639752 15:0.21783356 16:0.2 18:0.14285714 20:0.13677348 21:0.18180251 22:0.41892977 23:0.14536378 24:0.058989243 25:0.10388306 26:0.22625371 27:0.53570373 28:0.46882122 29:0.28832816 30:0.5375892 31:0.12186822 32:0.18061824 33:0.029595293 34:0.027656752 35:0.02915672 36:0.15384615 37:0.2 38:0.15384615 40:0.17779056 41:0.19512195 42:0.21428571 45:0.375 47:0.25 49:0.2 50:0.25 57:0.125 58:0.66666667 59:0.11111111 
15.8547989247654 0:0.88306011 1:0.69027314 2:1 3:0.068965517 4:0.53909465 5:0.84918033 6:1 7:0.45783133 8:0.17777778 9:0.86303391 10:0.15723851 11:0.78614881 12:0.509375 13:0.074397267 14:0.01863354 15:0.61254149 16:0.53333333 17:0.22222222 18:0.85714286 19:0.83333333 20:0.93912125 21:0.47374884 22:0.69939382 23:0.14536378 24:0.72239201 25:0.48341785 26:1 27:0.43022602 28:0.46882122 29:0.89835018 30:0.27813003 31:0.85428776 32:0.47975982 33:0.16566146 35:0.89120972 36:0.69230769 37:0.6 38:0.92307692 39:0.83333333 40:0.81330912 41:0.7804878 42:0.5 44:0.14285714 45:0.125 47:0.75 49:0.6 50:1 51:1 54:0.14285714 55:0.5 57:0.375 58:0.33333333 59:0.11111111 
16 0:0.83715847 1:0.73046795 2:0.81111111 4:0.58641975 5:0.82295082 6:0.97169811 7:0.62248996 8:0.42222222 9:0.90759789 10:0.36453567 11:0.7296689 12:0.43125 13:0.24691834 14:0.0093167702 15:0.51321319 16:0.4 18:0.85714286 19:1 20:0.62674485 21:0.55717864 22:0.90420519 23:0.20876262 24:0.2004079 25:0.42570259 26:0.61505162 27:0.61592392 28:0.61312325 29:0.67105048 30:0.50666637 31:0.54877232 32:0.3262451 33:0.018461819 34:0.0034794751 35:0.33215497 36:0.23076923 38:0.69230769 39:0.5 40:0.48137227 41:0.36585366 42:0.071428571 43:0.75 44:0.28571429 46:0.33333333 49:0.2 51:0.25 53:0.5 55:0.16666667 56:0.33333333 58:0.33333333 59:0.44444444 61:0.25 
-16 0:0.68743169 1:0.62337715 2:0.71111111 3:0.068965517 4:0.23868313 5:0.5147541 6:0.72641509 7:0.74698795 8:0.25555556 9:0.64336852 10:0.84557844 12:0.0090625 13:0.0039747416 14:0.015217391 15:0.18448625 16:0.13333333 18:0.28571429 19:0.16666667 20:0.15040117 21:0.32736991 22:0.55478921 23:0.14536378 24:0.2488531 25:0.34715689 26:0.38298207 27:0.57147964 28:0.34378782 29:0.64040625 30:0.58240271 32:0.025382385 33:0.0068152999 34:0.03276934 35:0.29633759 36:0.15384615 37:0.2 38:0.23076923 40:0.078772296 41:0.048780488 42:0.071428571 43:0.25 45:0.125 46:0.33333333 48:0.16666667 50:0.25 52:0.33333333 53:0.16666667 59:0.11111111 
16 0:0.71147541 1:0.64165475 2:0.066666667 4:0.19341564 5:0.76065574 6:0.94339623 7:0.45381526 8:0.45555556 9:0.82407567 10:0.48315156 11:0.42431165 12:0.796875 13:0.23254885 14:0.46583851 15:0.30904025 16:0.13333333 18:0.35714286 19:0.33333333 20:0.15522555 21:0.22000853 22:0.14536378 23:0.20876262 24:0.37036917 25:0.28083482 26:0.47600923 27:0.38353198 28:0.53074853 29:0.62735736 30:0.26545876 31:0.51798552 32:0.71031708 33:0.26985758 34:0.50147248 35:0.32108523 36:0.38461538 37:0.2 38:0.38461538 39:0.33333333 40:0.189334 41:0.17073171 42:0.071428571 45:0.125 47:0.375 48:0.16666667 49:0.2 50:0.25 51:0.125 54:0.14285714 56:0.33333333 58:0.16666667 59:0.33333333 
16 0:0.65901639 1:0.57530709 2:0.42222222 3:0.14942529 4:0.27777778 5:0.59672131 6:0.93396226 7:0.48995984 8:0.55555556 9:0.65258502 10:0.44552416 11:0.2676353 12:0.93125 13:0.090707827 14:0.1242236 15:0.67906618 16:0.066666667 18:0.5 19:0.16666667 22:0.41892977 24:0.54225247 25:0.41452653 26:0.70807878 27:0.27621067 28:0.32683142 29:0.33083808 30:0.28426198 31:0.36225229 32:0.64563915 33:0.016814425 34:0.05396409 35:0.69929475 36:0.61538462 37:0.4 38:0.53846154 39:0.16666667 40:0.41123058 41:0.3902439 42:0.071428571 45:0.25 47:0.375 48:1 49:0.4 51:0.125 54:0.14285714 57:0.375 58:0.16666667 59:0.44444444 
16 0:0.81311475 1:0.74498407 2:0.11111111 3:0.068965517 4:0.42798354 5:0.65901639 6:0.93396226 7:0.76706827 8:0.25555556 9:0.79543115 10:0.55216744 11:0.59781489 12:0.440625 13:0.30430334 14:0.20496894 15:0.46281844 16:0.2 18:0.57142857 19:0.33333333 20:0.52620573 21:0.60187745 22:0.35195697 23:0.14536378 24:0.41363724 25:0.47502139 26:1 27:0.60443098 28:0.44973333 29:0.83980671 30:0.3859448 31:0.64274467 32:0.61519913 33:0.40321452 34:0.34570652 35:0.48512453 36:0.23076923 38:0.61538462 39:0.33333333 40:0.34236551 41:0.24390244 42:0.071428571 45:0.25 47:0.125 48:0.16666667 49:0.4 50:0.25 51:0.5 53:0.16666667 54:0.14285714 58:0.33333333 59:0.22222222 
-16 0:0.77595628 1:0.73836932 2:1 4:0.2654321 5:0.71803279 6:0.90566038 7:0.55823293 8:0.56666667 9:0.70216623 10:0.55825046 11:0.49673336 12:0.44375 13:0.10208044 14:0.27329193 15:0.25138475 16:0.13333333 18:0.42857143 19:0.33333333 20:0.19740262 21:0.29828405 22:0.69939382 23:0.20876262 24:0.29532324 25:0.35606866 26:0.69814502 27:0.49400518 28:0.67061924 29:0.52732184 30:0.42169495 31:0.44196462 32:0.3411013 33:0.34349788 34:0.15208558 35:0.14314758 36:0.30769231 37:0.2 38:0.30769231 39:0.16666667 40:0.1264744 41:0.14634146 42:0.071428571 43:0.5 45:0.125 47:0.375 49:0.2 51:0.125 53:0.16666667 56:0.33333333 57:0.125 59:0.22222222 
16 0:0.66775956 1:0.58261812 2:0.92222222 3:0.068965517 4:0.30041152 5:0.66229508 6:0.86792453 7:0.48995984 8:0.22222222 9:0.77968874 10:0.44731784 11:0.63947031 12:0.446875 13:0.12935587 14:1.14233e-15 15:0.36219884 16:0.33333333 17:0.22222222 18:0.5 19:0.16666667 20:0.58128313 21:0.49467391 22:1 23:0.14536378 24:0.30214101 25:0.63466344 26:1 27:0.57469279 28:0.68974978 29:0.72477967 30:0.44928363 31:0.71463815 32:0.35348845 33:0.13697273 34:0.0016918459 35:0.43754235 36:0.30769231 38:0.53846154 39:0.16666667 40:0.41581559 41:0.3902439 42:0.071428571 44:0.14285714 45:0.25 46:0.16666667 47:0.375 49:0.2 50:0.25 51:0.5 53:0.16666667 55:0.16666667 57:0.375 58:0.5 59:0.11111111 61:0.25 
-0.8110813102578172 0:0.57814208 1:0.46326545 2:0.11111111 3:0.068965517 4:0.48148148 5:0.51147541 6:0.50943396 7:0.46184739 8:0.22222222 9:0.73886774 10:0.25784867 11:0.72167606 12:0.9625 13:0.49235592 14:0.71118012 15:0.46474406 16:0.33333333 17:0.11111111 18:0.28571429 20:0.11914506 21:0.17088113 22:0.46041996 23:0.14536378 24:0.39596784 25:0.11385662 26:0.13386276 27:0.47936874 28:0.49799556 29:0.35243424 30:0.29335443 31:0.32083282 32:0.65366754 33:0.12536976 34:0.67030767 35:0.23885462 36:0.30769231 38:0.30769231 40:0.21051496 41:0.17073171 42:0.071428571 45:0.25 47:0.125 48:0.16666667 49:0.2 50:0.25 53:0.33333333 55:0.16666667 58:0.16666667 59:0.33333333 61:0.25 
-16 0:0.64808743 1:0.55302248 2:0.96666667 3:0.068965517 4:0.20164609 5:0.51147541 6:0.5 7:0.3815261 8:0.22222222 9:0.48163804 10:0.57296825 11:0.2095191 12:0.56875 13:0.21137012 14:0.1552795 15:0.19693486 16:0.2 17:0.11111111 18:0.21428571 20:0.22583407 21:0.36700645 22:0.68916452 23:0.14536378 24:0.16818271 25:0.22576435 26:0.47159429 27:0.44636798 28:0.64412736 29:0.39984633 30:0.51411757 31:0.17235258 32:0.59829649 33:0.070932849 34:0.45557629 35:0.24032941 36:0.15384615 38:0.23076923 40:0.11548835 41:0.12195122 42:0.071428571 44:0.14285714 47:0.125 50:0.25 51:0.25 52:0.33333333 53:0.16666667 55:0.16666667 57:0.375 59:0.11111111 
16 0:0.58907104 1:0.49519031 2:1 4:0.66460905 5:0.55409836 6:0.86792453 7:0.14457831 8:0.22222222 9:0.68668065 10:0.20705382 11:0.81308038 12:0.53125 13:0.50229715 14:1.311422e-16 15:0.52124418 16:0.53333333 17:0.33333333 18:0.5 19:0.33333333 20:0.55177339 21:0.63088834 22:0.69939382 23:0.20876262 24:0.11446436 25:0.54368925 26:1 27:0.5303918 28:0.69907797 29:0.65355448 30:0.48647451 31:0.53186718 32:0.25532076 33:0.34400996 34:0.02529661 35:0.25693797 36:0.076923077 38:0.53846154 39:0.33333333 40:0.33939873 41:0.24390244 44:0.28571429 45:0.25 46:0.16666667 49:0.4 51:0.375 53:0.16666667 55:0.5 56:0.33333333 58:0.16666667 59:0.11111111 61:0.25 
16 0:0.67868852 1:0.59440236 2:0.42222222 4:0.29423868 5:0.62622951 6:0.86792453 7:0.49799197 8:0.32222222 9:0.86226837 10:0.14203404 11:0.76977161 12:0.45625 13:0.53575434 14:0.02484472 15:0.39270301 16:0.26666667 18:0.42857143 19:0.16666667 20:0.52176491 21:0.56466703 22:0.41892977 23:0.20876262 24:0.19737506 25:0.50164005 26:1 27:0.62417449 28:0.56805077 29:0.79809472 30:0.44472582 31:0.65298101 32:0.42448896 33:0.45465128 34:0.089372242 35:0.34267305 36:0.15384615 38:0.46153846 39:0.16666667 40:0.32607523 41:0.26829268 42:0.071428571 44:0.14285714 45:0.375 47:0.25 49:0.2 51:0.5 54:0.28571429 56:0.33333333 58:0.5 59:0.11111111 
11.31093985195449 0:0.51038251 1:0.49916648 2:0.41111111 3:0.068965517 4:0.58230453 5:0.68196721 6:0.90566038 8:0.066666667 9:0.8013336 10:0.057342689 11:0.71952629 12:0.49375 13:0.063017412 14:0.0093167702 15:0.62800313 16:0.93333333 17:0.77777778 18:0.78571429 19:0.5 20:0.77022349 21:0.40866352 22:0.37154208 23:0.14536378 24:0.31491726 25:0.43122964 26:0.69814502 27:0.40567914 28:0.3459069 29:0.573974 30:0.36874166 31:0.49452124 32:0.42173392 33:0.11018937 34:0.013518364 35:0.43869633 36:0.38461538 37:0.2 38:0.84615385 39:0.33333333 40:0.82037543 41:0.73170732 42:0.21428571 43:0.25 44:0.57142857 45:0.5 46:0.16666667 47:0.25 49:0.6 50:0.25 51:0.375 53:0.33333333 54:0.28571429 55:0.5 56:0.33333333 57:0.375 59:0.33333333 60:0.33333333 61:0.25 
-16 0:0.65245902 1:0.5721999 2:0.45555556 3:0.068965517 4:0.19753086 5:0.64262295 6:0.86792453 7:0.3815261 8:0.22222222 9:0.84303487 10:0.28413984 11:0.74234713 12:0.6 13:0.09591832 14:0.043478261 15:0.39425484 16:0.4 17:0.11111111 18:0.5 19:0.33333333 20:0.60941926 21:0.4120101 22:0.33459764 23:0.14536378 24:0.035262457 25:0.73429805 26:1 27:0.49819834 28:0.55119594 29:0.78752778 30:0.43962186 31:0.49633746 32:0.33947988 33:0.060614457 34:0.013716209 35:0.23766357 36:0.23076923 37:0.2 38:0.61538462 39:0.66666667 40:0.59766974 41:0.53658537 42:0.28571429 43:0.25 44:0.14285714 45:0.5 47:0.375 49:0.4 50:0.25 51:0.375 54:0.42857143 55:0.16666667 57:0.125 58:0.5 59:0.11111111 60:0.66666667 
16 0:0.83825137 1:0.8112708 2:0.96666667 3:0.068965517 4:0.23868313 5:0.6295082 6:0.86792453 7:0.76706827 8:0.56666667 9:0.80911628 10:0.55655659 11:0.69223721 12:0.265625 13:0.34723362 14:0.0031055901 15:0.25237022 16:0.13333333 18:0.42857143 19:0.16666667 20:0.49891973 21:0.68798437 22:0.68916452 23:0.14536378 24:0.26918273 25:0.48327796 26:1 27:0.75721319 28:0.77212399 29:0.73175433 30:0.58257939 31:0.60719073 32:0.37084962 33:0.56395406 34:0.055757999 35:0.3008243 36:0.15384615 38:0.46153846 39:0.16666667 40:0.20936421 41:0.17073171 42:0.14285714 44:0.14285714 46:0.16666667 47:0.25 50:0.25 51:0.375 52:0.33333333 55:0.16666667 58:0.16666667 59:0.22222222 
10.35299512874995 0:0.86448087 1:0.74711645 2:0.7 3:0.068965517 4:0.32716049 5:0.71147541 6:0.93396226 7:0.42570281 8:0.43333333 9:0.78609991 10:0.22282291 11:0.52799757 12:0.46875 13:0.20385078 14:0.074534161 15:0.49468188 16:0.26666667 18:0.71428571 19:0.33333333 20:0.83560694 21:0.71110434 22:0.51406944 23:0.14536378 24:0.17236446 25:0.65771524 26:1 27:0.57109452 28:0.50490815 29:0.66588368 30:0.43987549 31:0.55959027 32:0.3832893 33:0.3039789 34:0.0497088 35:0.65096267 36:0.15384615 38:0.76923077 39:0.33333333 40:0.50499856 41:0.3902439 42:0.14285714 45:0.125 49:0.2 50:0.25 51:0.875 53:0.33333333 54:0.28571429 55:0.16666667 57:0.5 58:0.16666667 59:0.22222222 
16 0:0.47978142 1:0.45237452 2:0.81111111 3:0.068965517 4:0.7037037 5:0.59344262 6:0.77358491 7:0.15261044 8:0.17777778 9:0.65438547 10:0.16793216 11:0.58955094 12:0.55 13:0.11851895 14:0.02173913 15:0.58432541 16:0.8 17:0.55555556 18:0.57142857 19:0.33333333 20:0.79113094 21:0.55469027 22:0.90420519 23:0.14536378 24:0.012933029 25:0.55531435 26:0.90697284 27:0.48788724 28:0.59172312 29:0.70071585 30:0.4828101 31:0.51255754 32:0.29731879 33:0.11338103 34:0.013432169 35:0.43180803 38:0.61538462 39:0.33333333 40:0.58015679 41:0.51219512 42:0.21428571 44:0.57142857 45:0.5 46:0.5 49:0.2 50:0.25 51:0.5 54:0.14285714 55:0.66666667 57:0.375 58:0.16666667 
16 0:0.69508197 1:0.61021729 2:0.11111111 4:0.218107 5:0.60655738 6:0.81132075 7:0.47791165 8:0.46666667 9:0.61356941 10:0.49342412 11:0.37193169 12:0.578125 13:0.11683607 14:0.10869565 15:0.40421146 16:0.13333333 18:0.35714286 19:0.16666667 20:0.17408311 21:0.18065857 22:0.35195697 23:0.20876262 24:0.47547754 25:0.21804255 26:0.60511786 27:0.22265891 28:0.36413366 29:0.41412315 30:0.23741701 31:0.66804108 32:0.48639487 33:0.21176819 34:0.0086877632 35:0.5190507 36:0.38461538 38:0.38461538 39:0.16666667 40:0.31172684 41:0.29268293 42:0.35714286 44:0.14285714 46:0.33333333 47:0.125 48:0.5 53:0.16666667 54:0.14285714 56:0.33333333 57:0.125 58:0.16666667 59:0.33333333 
-8.649437881090476 0:0.62185792 1:0.5495879 2:0.11111111 3:0.068965517 4:0.24485597 5:0.74754098 6:0.93396226 7:0.27309237 8:0.22222222 9:0.73843881 10:0.27121573 11:0.53695606 12:0.403125 13:0.095087581 14:9.3040312e-16 15:0.34091501 16:0.46666667 17:0.22222222 18:0.42857143 19:0.33333333 20:0.63944754 21:0.46437303 22:0.36373261 23:0.14536378 24:0.13749247 25:0.64184116 26:1 27:0.50555158 28:0.50490815 29:0.75369149 30:0.43667496 31:0.60710385 32:0.39547771 33:0.06919418 34:0.0061426518 35:0.2855756 36:0.076923077 38:0.53846154 39:0.33333333 40:0.54184048 41:0.48780488 42:0.35714286 44:0.42857143 45:0.125 47:0.125 49:0.4 50:0.25 51:0.5 54:0.28571429 55:0.5 57:0.375 58:0.16666667 60:0.33333333 61:0.25 
7.570148447113424 0:0.5442623 1:0.41793702 2:0.42222222 3:0.068965517 4:0.11111111 5:0.35081967 6:0.50943396 7:0.3935743 8:0.22222222 9:0.4158057 10:0.3217392 11:0.38154558 12:0.121875 13:0.30370704 14:0.0031055901 15:0.1742238 16:0.26666667 17:0.11111111 18:0.14285714 20:0.1613615 21:0.22836327 22:0.41892977 23:0.14536378 24:0.051182145 25:0.09080557 26:0.34269059 27:0.53341446 28:0.64412736 29:0.29460188 30:0.49912503 31:0.14694168 32:0.26892372 33:0.033488681 34:0.094935941 35:0.097699259 36:0.076923077 38:0.15384615 40:0.20601985 41:0.17073171 42:0.14285714 45:0.25 46:0.16666667 49:0.2 50:0.25 53:0.16666667 55:0.16666667 58:1 
16 0:0.6273224 1:0.50992315 2:0.92222222 3:0.068965517 4:0.33744856 5:0.57704918 6:0.94339623 7:0.54618474 8:0.22222222 9:0.35404802 10:0.42852601 11:0.29675534 12:0.28125 13:0.35299141 14:0.28571429 15:0.25372948 16:0.26666667 17:0.11111111 18:0.28571429 19:0.16666667 20:0.20574645 21:0.39905951 22:1 23:0.14536378 24:0.24864512 25:0.18738573 26:0.39629004 27:0.58170929 28:0.63998535 29:0.29040076 30:0.59790591 31:0.084157317 33:0.098076046 34:0.002990894 35:0.12400942 36:0.15384615 38:0.30769231 39:0.16666667 40:0.12338176 41:0.073170732 45:0.125 50:0.25 51:0.125 53:0.33333333 55:0.16666667 57:0.125 59:0.33333333 61:0.25 
16 0:0.8 1:0.70912517 2:0.42222222 4:0.086419753 5:0.74098361 6:0.86792453 7:0.37751004 8:0.11111111 9:0.74577015 10:0.53193124 11:0.5121328 12:0.3375 13:0.1929626 14:5.6287954e-16 15:0.22311204 16:0.13333333 17:0.11111111 18:0.5 19:0.33333333 20:0.63717664 21:0.62176239 22:0.41892977 23:0.20876262 24:0.28011087 25:0.6593374 26:1 27:0.37999058 28:0.55920725 29:0.72129842 30:0.4969926 31:0.51312649 32:0.33645932 33:0.40890881 34:0.023348607 35:0.45212989 36:0.30769231 37:0.2 38:0.53846154 39:0.33333333 40:0.35085227 41:0.31707317 42:0.071428571 45:0.125 47:0.5 51:0.75 52:0.33333333 54:0.28571429 55:0.16666667 56:0.33333333 57:0.125 58:0.33333333 59:0.11111111 
16 0:0.87759563 1:0.7062069 3:0.068965517 4:0.29012346 5:0.74754098 6:0.97169811 7:0.51004016 8:0.43333333 9:0.77696318 10:0.35479969 11:0.69007022 12:0.34375 13:0.2532634 14:0.0093167702 15:0.61983621 16:0.4 18:0.85714286 19:0.5 20:0.57307566 21:0.34000983 22:0.20876262 23:0.14536378 24:0.22356901 25:0.43122964 26:0.70807878 27:0.55112474 28:0.64412736 29:0.5139635 30:0.42890337 31:0.35203531 32:0.42488823 33:0.0546272 34:0.0012306542 35:0.29382724 36:0.23076923 38:0.76923077 39:0.33333333 40:0.72137514 41:0.63414634 42:0.21428571 43:0.5 44:0.42857143 47:0.25 49:0.8 50:0.25 51:0.125 52:0.33333333 54:0.28571429 55:0.33333333 56:0.33333333 57:0.5 58:0.33333333 59:0.55555556 61:0.25 
-16 0:0.60218579 1:0.45229889 2:0.71111111 3:0.068965517 4:0.092592593 5:0.36393443 6:0.75471698 7:0.25702811 8:0.22222222 9:0.60286172 10:0.66538042 12:0.0090625 13:0.0039747416 14:0.015217391 15:0.12918682 16:0.2 17:0.11111111 18:0.14285714 20:0.10479966 21:0.234233 22:0.55478921 23:0.14536378 24:0.14679219 25:0.048660162 26:0.27573078 27:0.52303785 28:0.75299397 29:0.35994764 30:0.51750696 32:0.025382385 33:0.0068152999 34:0.03276934 35:0.054074601 36:0.15384615 38:0.15384615 40:0.067534522 41:0.048780488 45:0.25 47:0.125 49:0.4 50:0.25 52:0.33333333 53:0.16666667 58:0.16666667 61:0.25 
16 0:0.49398907 1:0.42418463 2:0.77777778 3:0.068965517 4:0.6399177 5:0.41967213 6:0.71698113 7:0.31726908 8:0.13333333 9:0.45305582 10:0.19903358 11:0.52034986 12:0.596875 13:0.24853614 14:0.02484472 15:0.52781396 16:0.53333333 17:0.22222222 18:0.35714286 20:0.15348108 21:0.14379782 22:0.37993542 23:0.14536378 24:0.18337267 25:0.22431106 26:0.47159429 27:0.35238082 28:0.28397959 29:0.36874083 30:0.39800657 31:0.32526383 32:0.31146561 33:0.078571136 34:0.0044651566 35:0.17652458 36:0.38461538 37:0.6 38:0.23076923 40:0.32289269 41:0.34146341 42:0.21428571 43:0.5 44:0.42857143 45:0.375 47:0.25 48:0.16666667 50:0.5 51:0.125 53:0.16666667 57:0.125 59:0.22222222 61:0.25 
16 0:0.74098361 1:0.66020169 2:0.96666667 4:0.45679012 5:0.54098361 6:1 7:0.47389558 8:0.22222222 9:0.68401247 10:0.42332889 11:0.45257031 12:0.56875 13:0.22928588 14:0.096273292 15:0.41031682 16:0.26666667 17:0.11111111 18:0.57142857 19:0.5 20:0.53060272 21:0.57416725 22:0.68916452 23:0.20876262 24:0.15946494 25:0.38147022 26:0.61505162 27:0.60443098 28:0.73603757 29:0.5789223 30:0.59347066 31:0.2363882 32:0.46906713 33:0.15384589 34:0.16628514 35:0.28086083 36:0.076923077 38:0.61538462 39:0.5 40:0.37613277 41:0.26829268 44:0.14285714 45:0.25 46:0.33333333 47:0.125 49:0.8 51:0.125 54:0.28571429 55:0.16666667 56:0.33333333 58:0.33333333 59:0.11111111 61:0.25 
16 0:0.66775956 1:0.58299443 2:0.11111111 3:0.068965517 4:0.25102881 5:0.70163934 6:0.93396226 7:0.36546185 8:0.22222222 9:0.87158214 10:0.33635718 11:0.6402725 12:0.384375 13:0.35780114 14:0.11180124 15:0.25568909 16:0.33333333 17:0.33333333 18:0.42857143 19:0.33333333 20:0.46836365 21:0.56863787 22:0.35195697 23:0.14536378 24:0.11446436 25:0.48739196 26:1 27:0.63658145 28:0.69907797 29:0.73873444 30:0.44869185 31:0.6692291 32:0.53839282 33:0.2006306 34:0.18403726 35:0.32002301 36:0.076923077 38:0.46153846 39:0.33333333 40:0.2517441 41:0.2195122 42:0.071428571 44:0.42857143 46:0.16666667 49:0.2 50:0.25 51:0.375 53:0.16666667 55:0.16666667 57:0.5 59:0.11111111 
16 0:0.63278689 1:0.51989275 2:0.92222222 3:0.068965517 4:0.33744856 5:0.59344262 6:0.71698113 7:0.59036145 8:0.22222222 9:0.36045919 10:0.43083441 11:0.43550635 12:0.296875 13:0.51617773 14:0.30124224 15:0.23735034 16:0.26666667 17:0.11111111 18:0.21428571 20:0.20195981 21:0.39202872 22:1 23:0.14536378 24:0.21762277 25:0.17778748 26:0.37067989 27:0.62269868 28:0.63998535 29:0.32303975 30:0.55224137 31:0.21354514 32:0.0078861905 33:0.23838505 34:0.01224292 35:0.10620054 36:0.15384615 38:0.23076923 40:0.10861982 41:0.073170732 42:0.14285714 45:0.125 49:0.2 50:0.25 51:0.125 53:0.33333333 55:0.16666667 59:0.11111111 61:0.25 
11.97973143043534 0:0.61857923 1:0.51277161 2:0.41111111 3:0.068965517 4:0.076131687 5:0.49180328 6:0.49056604 7:0.57028112 8:0.22222222 9:0.51181364 10:0.38315593 11:0.34261739 12:0.34375 13:0.30467739 14:0.059006211 15:0.11046294 16:0.13333333 17:0.11111111 18:0.071428571 20:0.1187769 21:0.1835799 22:0.37154208 23:0.14536378 24:0.067488502 25:0.14294012 26:0.22213579 27:0.44955265 28:0.63998535 29:0.28599619 30:0.49138433 31:0.091119412 32:0.19590069 33:0.060754056 34:0.024339471 35:0.033197692 36:0.15384615 37:0.2 38:0.076923077 40:0.11257552 41:0.14634146 42:0.21428571 45:0.25 47:0.25 50:0.25 52:0.33333333 57:0.25 59:0.11111111 61:0.5 
-16 0:0.60765027 1:0.4971051 2:0.11111111 4:0.20781893 5:0.59672131 6:0.90566038 7:0.21285141 8:0.41111111 9:0.60615829 10:0.19915525 11:0.51595911 12:0.346875 13:0.2732413 14:0.031055901 15:0.20174892 16:0.26666667 18:0.35714286 19:0.33333333 20:0.22555843 21:0.33935951 22:0.46041996 23:0.20876262 25:0.2346797 26:0.69814502 27:0.45598891 28:0.56683546 29:0.51891464 30:0.39194031 31:0.42689983 32:0.33920111 33:0.19883484 34:0.15733588 35:0.15772054 36:0.076923077 38:0.23076923 39:0.16666667 40:0.1621296 41:0.14634146 43:0.5 44:0.14285714 45:0.125 51:0.25 53:0.16666667 55:0.16666667 56:0.33333333 57:0.375 59:0.11111111 61:0.25 
16 0:0.75846995 1:0.70452966 2:0.96666667 3:0.068965517 4:0.20987654 5:0.52131148 6:0.97169811 7:0.62650602 8:0.25555556 9:0.69526383 10:0.47696873 11:0.51122342 12:0.25 13:0.31357214 14:0.02173913 15:0.29634244 16:0.13333333 18:0.35714286 19:0.16666667 20:0.16660247 21:0.23549939 22:0.68916452 23:0.14536378 24:0.18494219 25:0.14727683 26:0.40622379 27:0.51869698 28:0.44529257 29:0.36994573 30:0.39187654 31:0.39958432 32:0.20953181 33:0.20275578 34:0.0023977197 35:0.19442271 36:0.23076923 38:0.38461538 39:0.16666667 40:0.17388881 41:0.17073171 42:0.14285714 44:0.14285714 45:0.125 47:0.25 48:0.16666667 49:0.2 50:0.25 57:0.25 59:0.44444444 
16 0:0.87103825 1:0.73361134 2:0.96666667 3:0.068965517 4:0.48765432 5:0.63606557 6:0.97169811 7:0.53413655 8:0.17777778 9:0.71557707 10:0.47122885 11:0.59688214 12:0.646875 13:0.12168344 14:0.034161491 15:0.61481825 16:0.26666667 17:0.11111111 18:0.78571429 19:0.5 20:0.72483782 21:0.5466994 22:0.68916452 23:0.14536378 24:0.078205479 25:0.50646117 26:1 27:0.44737562 28:0.49727994 29:0.70360369 30:0.48466605 31:0.50984591 32:0.35102339 33:0.066972977 34:0.0016731748 35:0.35043149 36:0.15384615 38:0.76923077 39:0.5 40:0.60232667 41:0.46341463 42:0.14285714 43:0.25 44:0.14285714 45:0.125 47:0.25 49:0.4 50:0.25 51:0.5 54:0.57142857 55:0.33333333 58:0.16666667 59:0.44444444 61:0.5 
-16 0:0.6284153 1:0.51773267 2:0.96666667 3:0.068965517 4:0.34156379 5:0.32459016 6:0.90566038 7:0.29317269 8:0.22222222 9:0.53804681 10:0.36309131 11:0.31858196 12:0.484375 13:0.20356604 14:0.47826087 15:0.26279125 16:0.26666667 17:0.11111111 18:0.28571429 19:0.16666667 20:0.27031513 21:0.47449914 22:0.68916452 23:0.14536378 24:0.018058959 25:0.29011152 26:0.69814502 27:0.52586565 28:0.50490815 29:0.53239529 30:0.51772771 31:0.31012904 32:0.4743015 33:0.21067026 34:0.53825261 35:0.1840129 36:0.076923077 38:0.30769231 39:0.16666667 40:0.12072066 41:0.097560976 44:0.28571429 45:0.125 47:0.125 49:0.2 50:0.25 51:0.25 55:0.16666667 57:0.125 58:0.16666667 59:0.11111111 
16 0:0.80655738 1:0.72207615 2:0.14444444 3:0.068965517 4:0.28395062 5:0.83606557 6:0.90566038 7:0.50200803 8:0.53333333 9:0.82748698 10:0.54255313 11:0.50953629 12:0.534375 13:0.2032178 14:0.093167702 15:0.31158887 16:0.2 18:0.42857143 19:0.33333333 20:0.5125213 21:0.52627302 23:0.14536378 24:0.12967741 25:0.6780765 26:1 27:0.45624029 28:0.50213756 29:0.83381932 30:0.48458182 31:0.64565431 32:0.33487759 33:0.40101694 34:0.0038733003 35:0.31001715 36:0.23076923 38:0.46153846 39:0.33333333 40:0.33864356 41:0.29268293 42:0.28571429 44:0.14285714 45:0.125 47:0.125 48:0.16666667 49:0.2 50:0.25 51:0.5 52:0.33333333 53:0.16666667 57:0.125 58:0.33333333 59:0.11111111 
16 0:0.48196721 1:0.44932225 2:0.11111111 3:0.068965517 4:0.52880658 5:0.6852459 6:0.77358491 7:0.18072289 8:0.22222222 9:0.73190797 10:0.14021849 11:0.45668982 12:0.65625 13:0.18799726 14:0.01552795 15:0.46494795 16:0.8 17:0.55555556 18:0.35714286 19:0.16666667 20:0.60634866 21:0.44022966 22:0.46041996 23:0.14536378 24:0.44933189 25:0.42289959 26:0.90697284 27:0.54563617 28:0.77212399 29:0.67196622 30:0.50474433 31:0.45944953 32:0.60844275 33:0.036446339 34:0.028281297 35:0.36777817 36:0.23076923 38:0.38461538 39:0.16666667 40:0.49679948 41:0.48780488 42:0.42857143 44:0.28571429 45:0.875 46:0.16666667 47:0.25 49:0.2 50:0.25 51:0.375 52:0.33333333 53:0.16666667 54:0.14285714 55:0.33333333 
-8.216378683492977 0:0.60327869 1:0.4908385 2:0.14444444 4:0.24485597 5:0.59344262 6:0.97169811 7:0.24096386 8:0.11111111 9:0.63548857 10:0.51684844 11:0.17762784 12:0.509375 13:0.12994675 14:0.30434783 15:0.20533965 16:0.26666667 17:0.22222222 18:0.28571429 19:0.33333333 20:0.19481996 21:0.29451629 23:0.20876262 24:0.035105675 25:0.46210673 26:1 27:0.33376303 28:0.35529014 29:0.38411571 30:0.52126044 31:0.23346994 32:0.30996696 33:0.10793785 34:0.17459597 35:0.18261188 36:0.15384615 38:0.30769231 39:0.33333333 40:0.1742664 41:0.14634146 42:0.14285714 44:0.28571429 45:0.125 48:0.33333333 49:0.2 51:0.25 55:0.16666667 56:0.33333333 57:0.125 59:0.11111111 
16 0:0.72240437 1:0.66774952 2:0.92222222 3:0.068965517 4:0.086419753 5:0.5147541 6:0.77358491 7:0.58634538 8:0.47777778 9:0.70848014 10:0.46870515 11:0.4552466 12:0.271875 13:0.35439237 14:0.14906832 15:0.066173555 16:0.066666667 18:0.21428571 19:0.16666667 20:0.24623892 21:0.39906417 22:1 23:0.14536378 25:0.34316699 26:0.90697284 27:0.46143492 28:0.50490815 29:0.47803202 30:0.43007392 31:0.32954292 32:0.22620246 33:0.20188927 34:0.024766616 35:0.033858389 38:0.23076923 39:0.16666667 40:0.14262083 41:0.12195122 42:0.21428571 46:0.16666667 50:0.25 51:0.125 55:0.16666667 57:0.25 58:0.5 59:0.11111111 
16 0:0.78688525 1:0.6648988 2:0.7 4:0.46090535 5:0.64590164 6:0.93396226 7:0.60240964 8:0.22222222 9:0.79678518 10:0.41533051 11:0.58722203 12:0.415625 13:0.12687782 14:0.0062111801 15:0.63586421 16:0.33333333 17:0.11111111 18:0.64285714 19:0.16666667 20:0.80005738 21:0.56097697 22:0.51406944 23:0.20876262 24:0.350944 25:0.56674105 26:0.70807878 27:0.45901645 28:0.40920615 29:0.63505304 30:0.37064985 31:0.33327797 32:0.63277229 33:0.027799606 34:0.020047491 35:0.67779473 36:0.23076923 38:0.69230769 39:0.16666667 40:0.61234177 41:0.51219512 42:0.35714286 44:0.14285714 45:0.375 46:0.16666667 47:0.125 48:0.16666667 49:0.4 51:0.625 53:0.16666667 54:0.28571429 56:0.33333333 57:0.125 58:0.5 59:0.11111111 61:0.25 
-0.2749867638498302 0:0.60437158 1:0.47752197 2:0.96666667 3:0.068965517 4:0.5473251 5:0.44262295 6:0.94339623 7:0.60240964 8:0.17777778 9:0.48669517 10:0.26319549 11:0.5269246 12:0.296875 13:0.29077004 14:0.29192547 15:0.37540636 16:0.4 17:0.33333333 18:0.35714286 19:0.16666667 20:0.22999011 21:0.40586568 22:0.68916452 23:0.14536378 24:0.08184134 25:0.32303138 26:0.39629004 27:0.68662252 28:0.59172312 29:0.34105664 30:0.58073462 31:0.14494305 32:0.070798535 33:0.077942166 34:0.064865602 35:0.16146309 36:0.076923077 38:0.38461538 39:0.16666667 40:0.16518628 41:0.097560976 45:0.5 46:0.16666667 50:0.5 55:0.16666667 59:0.44444444 
-11.5182130270033 0:0.76502732 1:0.76115697 2:1 5:0.56065574 6:0.53773585 7:0.83534137 8:0.45555556 9:0.57986282 10:0.74972862 11:0.1456284 12:0.1875 13:0.17524963 14:0.19254658 15:0.17028193 18:0.28571429 20:0.11992077 21:0.23970399 22:0.69939382 23:0.20876262 24:0.23480152 25:0.068743828 26:0.13386276 27:0.56050753 28:0.53074853 29:0.25354704 30:0.48158921 31:0.14965063 32:0.13994025 33:0.16909743 34:0.16716787 35:0.097447428 36:0.30769231 37:0.4 38:0.30769231 40:0.058724108 41:0.073170732 47:0.5 49:0.4 54:0.14285714 56:0.33333333 58:0.16666667 59:0.22222222 
16 0:0.73224044 1:0.63231911 2:0.35555556 4:0.57201646 5:0.73442623 6:0.93396226 7:0.37751004 8:0.46666667 9:0.77182627 10:0.29022287 11:0.60269659 12:0.728125 13:0.17521187 14:0.02484472 15:0.57831066 16:0.33333333 18:0.64285714 19:0.5 20:0.62719764 21:0.49158052 22:0.50982901 23:0.20876262 24:0.46147322 25:0.68776857 26:0.90697284 27:0.33077512 28:0.32683142 29:0.67125334 30:0.39666231 31:0.62064129 32:0.54661073 33:0.12510774 34:0.060267893 35:0.46756244 36:0.38461538 37:0.4 38:0.69230769 39:0.5 40:0.49510932 41:0.43902439 42:0.14285714 44:0.28571429 45:0.125 46:0.33333333 47:0.25 48:0.16666667 49:0.4 51:0.375 53:0.33333333 54:0.14285714 56:0.33333333 57:0.375 58:0.16666667 59:0.22222222 61:0.25 
16 0:0.62076503 1:0.54758607 2:0.41111111 3:0.068965517 4:0.44238683 5:0.60983607 6:1 7:0.40562249 8:0.17777778 9:0.68328682 10:0.26606234 11:0.50669809 12:0.534375 13:0.16130706 14:0.043478261 15:0.48885969 16:0.53333333 17:0.33333333 18:0.5 19:0.5 20:0.46055941 21:0.34678667 22:0.37154208 23:0.14536378 24:0.13323738 25:0.3248088 26:0.61505162 27:0.47655457 28:0.50213756 29:0.47978252 30:0.34184626 31:0.49183377 32:0.39343118 33:0.041543339 34:0.039132049 35:0.2413496 36:0.23076923 38:0.53846154 39:0.5 40:0.50273303 41:0.46341463 42:0.28571429 44:0.42857143 45:0.5 46:0.33333333 47:0.125 48:0.16666667 49:0.8 50:0.25 53:0.16666667 57:0.25 58:0.5 59:0.11111111 
16 0:0.5715847 1:0.39088618 2:0.066666667 5:0.47868852 6:0.47169811 7:0.34538153 8:0.17777778 9:0.22755028 10:0.48930635 12:0.0090625 13:0.0039747416 14:0.015217391 15:0.10157108 16:0.13333333 17:0.11111111 18:0.14285714 20:0.077776315 21:0.17904031 22:0.14536378 23:0.20876262 24:0.035163226 25:0.18255869 26:0.23206955 27:0.45746942 28:0.59172312 29:0.20338959 30:0.48649077 32:0.025382385 33:0.0068152999 34:0.03276934 35:0.040196246 36:0.076923077 38:0.15384615 40:0.081271577 41:0.048780488 45:0.125 49:0.2 50:0.25 56:0.33333333 57:0.25 59:0.11111111 61:0.75 
16 0:0.73770492 1:0.64650662 2:1 4:0.38683128 5:0.61967213 6:0.75471698 7:0.437751 8:0.22222222 9:0.74626139 10:0.3818052 11:0.71648411 12:0.446875 13:0.30640128 14:0.02173913 15:0.45353012 16:0.33333333 17:0.11111111 18:0.42857143 20:0.38769704 21:0.36123626 22:0.69939382 23:0.20876262 24:0.11674438 25:0.23993405 26:0.27573078 27:0.5697421 28:0.70605467 29:0.42024016 30:0.52568752 31:0.33340066 32:0.25699641 33:0.078923479 34:0.038655391 35:0.11213154 36:0.15384615 38:0.46153846 40:0.40213248 41:0.34146341 42:0.14285714 44:0.14285714 45:0.25 47:0.125 49:1 52:0.66666667 53:0.16666667 54:0.14285714 55:0.16666667 56:0.33333333 57:0.25 58:0.16666667 59:0.11111111 61:0.25 
16 0:0.70601093 1:0.63434371 2:0.96666667 4:0.12345679 5:0.47213115 6:0.71698113 7:0.53815261 8:0.11111111 9:0.48793447 10:0.47345931 11:0.25208995 12:0.225 13:0.13716022 14:0.0093167702 15:0.15953241 16:0.13333333 17:0.11111111 18:0.28571429 20:0.21362123 21:0.2995204 22:0.68916452 23:0.20876262 24:0.018058959 25:0.1562114 26:0.34269059 27:0.58889842 28:0.55920725 29:0.41810974 30:0.53445718 31:0.28035461 32:0.36695326 33:0.062146481 34:0.10929288 35:0.11852931 36:0.15384615 38:0.30769231 40:0.15540492 41:0.17073171 42:0.14285714 45:0.125 46:0.16666667 47:0.25 55:0.16666667 56:0.33333333 57:0.375 58:0.16666667 59:0.33333333 
-16 0:0.54972678 1:0.32094393 2:0.81111111 4:0.22427984 5:0.27213115 6:0.45283019 7:0.22891566 8:0.11111111 10:0.27442573 12:0.0090625 13:0.0039747416 14:0.015217391 15:0.16798251 16:0.26666667 17:0.22222222 18:0.14285714 20:0.17845865 21:0.4290187 22:0.90420519 23:0.20876262 24:0.012933029 25:0.29191486 26:0.38298207 27:0.55345711 28:0.65365043 29:0.26336467 30:0.6447728 32:0.025382385 33:0.0068152999 34:0.03276934 35:0.028231758 38:0.15384615 40:0.04482523 41:0.024390244 42:0.071428571 45:0.5 46:0.16666667 49:0.2 56:0.33333333 61:0.25 
16 0:0.54535519 1:0.39442922 2:0.41111111 3:0.068965517 4:0.31481481 5:0.52131148 6:0.97169811 7:0.16465863 8:0.22222222 9:0.43033122 10:0.3818052 11:0.21980858 12:0.6375 13:0.22315015 14:0.29503106 15:0.23556064 16:0.4 17:0.33333333 18:0.21428571 19:0.16666667 20:0.13805614 21:0.22910002 22:0.37154208 23:0.14536378 24:0.10877676 25:0.15979537 26:0.40622379 27:0.51411988 28:0.77656475 29:0.36551477 30:0.48836319 31:0.29563027 32:0.21770335 33:0.13684244 34:0.065744484 35:0.055886451 36:0.15384615 38:0.23076923 39:0.16666667 40:0.12541355 41:0.12195122 42:0.071428571 44:0.14285714 45:0.375 47:0.125 49:0.4 50:0.25 53:0.16666667 55:0.16666667 57:0.125 59:0.11111111 
16 0:0.74863388 1:0.66828231 2:1 3:0.068965517 4:0.63580247 5:0.6557377 6:0.97169811 7:0.45381526 8:0.22222222 9:0.83601773 10:0.49393884 11:0.66716883 12:0.584375 13:0.21393282 14:0.062111801 15:0.53751005 16:0.4 17:0.22222222 18:0.5 19:0.16666667 20:0.56511836 21:0.6112699 22:0.69939382 23:0.14536378 24:0.057900101 25:0.44885835 26:0.69140711 27:0.6505085 28:0.80502347 29:0.6430198 30:0.57125613 31:0.51192462 32:0.47214851 33:0.16169973 34:0.0056699765 35:0.23362081 38:0.61538462 39:0.33333333 40:0.36609968 41:0.26829268 42:0.21428571 44:0.28571429 45:0.375 49:0.6 50:0.25 51:0.25 54:0.14285714 55:0.16666667 59:0.22222222 60:0.33333333 
-16 0:0.61530055 1:0.53261585 2:0.11111111 3:0.068965517 4:0.39300412 5:0.6295082 6:0.97169811 7:0.44176707 8:0.22222222 9:0.89614707 10:0.24671206 11:0.70238802 12:0.46875 13:0.56081384 14:0.0062111801 15:0.37285774 16:0.4 17:0.11111111 18:0.35714286 19:0.16666667 20:0.41266301 21:0.40340598 22:0.35195697 23:0.14536378 24:0.09179145 25:0.36611553 26:0.47159429 27:0.47637242 28:0.55119594 29:0.63964694 30:0.41636812 31:0.65094601 32:0.28852487 33:0.24288048 34:0.0034003813 35:0.24611872 36:0.15384615 38:0.46153846 39:0.16666667 40:0.36840118 41:0.31707317 42:0.071428571 44:0.42857143 46:0.16666667 47:0.125 49:0.4 50:0.25 51:0.125 52:0.66666667 53:0.16666667 54:0.14285714 55:0.33333333 57:0.25 58:0.16666667 59:0.11111111 60:0.33333333 
16 0:0.71038251 1:0.63044449 2:0.42222222 3:0.068965517 4:0.39300412 5:0.72459016 6:0.97169811 7:0.5502008 8:0.22222222 9:0.84972034 10:0.12952484 11:0.8253523 12:0.45 13:0.84527715 14:0.031055901 15:0.39929545 16:0.26666667 17:0.11111111 18:0.5 19:0.33333333 20:0.43821776 21:0.50204005 22:0.41892977 23:0.14536378 24:0.2488531 25:0.64197489 26:1 27:0.55969821 28:0.69096508 29:0.7404878 30:0.44838816 31:0.66865761 32:0.39249616 33:0.56013072 34:0.090365451 35:0.28962324 36:0.15384615 38:0.53846154 39:0.33333333 40:0.32170598 41:0.24390244 45:0.125 46:0.16666667 47:0.125 49:0.2 50:0.25 51:0.25 53:0.16666667 54:0.14285714 55:0.33333333 57:0.25 58:0.16666667 59:0.33333333 61:0.25 
-16 0:0.67540984 1:0.5934019 2:0.7 3:0.068965517 4:0.32510288 5:0.56721311 6:0.71698113 7:0.36144578 8:0.17777778 9:0.47759834 10:0.44819757 11:0.45761529 12:0.496875 13:0.12880326 14:0.26086957 15:0.32214583 16:0.26666667 17:0.11111111 18:0.28571429 20:0.30083341 21:0.41826897 22:0.51406944 23:0.14536378 24:0.091080956 25:0.38790873 26:0.52810869 27:0.49211488 28:0.58728236 29:0.57528287 30:0.5699276 31:0.30039192 32:0.70088125 33:0.10329975 34:0.47129092 35:0.2723057 36:0.076923077 38:0.30769231 40:0.1996368 41:0.17073171 42:0.21428571 44:0.14285714 45:0.25 50:0.5 51:0.25 57:0.25 58:0.16666667 59:0.22222222 
-11.96016570322754 0:0.71693989 1:0.62050898 2:0.7 3:0.068965517 4:0.35802469 5:0.67868852 6:0.81132075 7:0.39759036 8:0.22222222 9:0.65285932 10:0.12952484 11:0.51385252 12:0.515625 13:0.091299152 14:0.040372671 15:0.51656604 16:0.33333333 17:0.11111111 18:0.57142857 19:0.16666667 20:0.59689037 21:0.46777291 22:0.51406944 23:0.14536378 24:0.37485234 25:0.3499733 26:0.60511786 27:0.52158756 28:0.67061924 29:0.43986159 30:0.48038231 31:0.22466934 32:0.40217585 33:0.11755879 34:0.13110607 35:0.41196181 36:0.38461538 37:0.2 38:0.69230769 39:0.33333333 40:0.51269419 41:0.43902439 42:0.071428571 44:0.14285714 45:0.125 46:0.5 47:0.25 49:0.2 50:0.25 51:0.125 52:0.66666667 53:0.5 54:0.42857143 57:0.375 59:0.33333333 60:0.33333333 
4.886909349900811 0:0.76284153 1:0.66562223 2:0.92222222 3:0.068965517 4:0.15432099 5:0.76721311 6:0.97169811 7:0.3935743 8:0.22222222 9:0.72353679 10:0.39399311 11:0.32705083 12:0.396875 13:0.10413937 14:0.040372671 15:0.25459035 16:0.2 17:0.11111111 18:0.5 19:0.16666667 20:0.23042808 21:0.20524794 22:1 23:0.14536378 24:0.023028107 25:0.34012195 26:0.43571775 27:0.40132366 28:0.37111688 29:0.4474786 30:0.30242528 31:0.22822951 32:0.21932153 33:0.060916362 34:0.013643395 35:0.11290972 36:0.076923077 38:0.23076923 39:0.16666667 40:0.40608818 41:0.36585366 42:0.35714286 43:1 44:0.14285714 45:0.25 48:0.16666667 49:0.2 50:0.25 51:0.125 54:0.14285714 58:0.83333333 59:0.11111111 
16 0:0.87540984 1:0.78119111 2:0.11111111 3:0.068965517 4:0.27572016 5:0.75409836 6:0.90566038 7:0.57028112 8:0.38888889 9:0.81792133 10:0.64006878 11:0.48831621 12:0.540625 13:0.11998789 14:0.037267081 15:0.33352967 16:0.2 18:0.5 19:0.33333333 20:0.54793209 21:0.53496535 22:0.36373261 23:0.14536378 24:0.31308045 25:0.51574203 26:1 27:0.44486237 28:0.50612346 29:0.59978401 30:0.48733371 31:0.36372349 32:0.42702417 33:0.02081213 34:0.013819158 35:0.24075481 36:0.23076923 38:0.53846154 39:0.33333333 40:0.37264456 41:0.31707317 42:0.21428571 44:0.14285714 47:0.25 50:0.25 51:0.375 52:0.66666667 53:0.16666667 54:0.14285714 55:0.16666667 57:0.125 58:0.16666667 59:0.44444444 
-16 0:0.57595628 1:0.43000023 2:0.96666667 4:0.22633745 5:0.48852459 6:0.90566038 7:0.22891566 8:0.11111111 9:0.50785373 10:0.23346666 11:0.41559925 12:0.2 13:0.48279483 14:0.19565217 15:0.15887543 16:0.33333333 17:0.33333333 18:0.21428571 19:0.16666667 20:0.26404903 21:0.46383418 22:0.68916452 23:0.20876262 24:0.012933029 25:0.36352826 26:0.69814502 27:0.51563729 28:0.65365043 29:0.59130804 30:0.42525566 31:0.42235169 32:0.29465404 33:0.37388808 34:0.30123317 35:0.13239008 38:0.23076923 39:0.16666667 40:0.12778697 41:0.097560976 42:0.14285714 45:0.375 46:0.16666667 51:0.125 55:0.33333333 56:0.33333333 58:0.16666667 59:0.11111111 
15.99063397703705 0:0.90601093 1:0.82187181 2:0.45555556 4:0.34979424 5:0.65901639 6:0.81132075 7:0.77911647 8:0.43333333 9:0.75073002 10:0.54687051 11:0.36696763 12:0.778125 13:0.16673307 14:0.1863354 15:0.46636385 16:0.13333333 18:0.71428571 19:0.5 20:0.64713229 21:0.66373831 22:0.33459764 23:0.20876262 24:0.42121756 25:0.49881431 26:0.90697284 27:0.62005473 28:0.69096508 29:0.67126095 30:0.5674685 31:0.31684373 32:0.7219526 33:0.070930139 34:0.42365087 35:0.39576234 36:0.23076923 38:0.76923077 39:0.5 40:0.38212025 41:0.29268293 42:0.071428571 46:0.5 47:0.375 49:0.4 51:0.25 54:0.42857143 55:0.33333333 56:0.33333333 59:0.33333333 
16 0:0.95628415 1:0.83441182 2:0.92222222 3:0.068965517 4:0.25925926 5:0.73770492 6:0.90566038 7:0.66666667 8:0.38888889 9:0.98008074 10:0.58586432 11:0.57336844 12:0.5375 13:0.13249918 14:0.052795031 15:0.36874596 16:0.2 18:0.71428571 19:0.66666667 20:0.72767777 21:0.64680743 22:1 23:0.14536378 24:0.19287877 25:0.52469184 26:1 27:0.60511703 28:0.50612346 29:0.75092204 30:0.44629174 31:0.60576637 32:0.32147778 33:0.24990811 34:0.029935878 35:0.28223242 36:0.30769231 37:0.2 38:0.76923077 39:0.66666667 40:0.45474324 41:0.36585366 42:0.21428571 47:0.375 49:0.4 50:0.25 51:0.625 53:0.16666667 54:0.28571429 55:0.33333333 58:0.16666667 59:0.33333333 
16 0:0.58688525 1:0.43614814 2:0.11111111 4:0.15020576 5:0.62295082 6:0.74528302 7:0.35742972 8:0.32222222 9:0.30218766 10:0.29709199 11:0.20927067 12:0.790625 13:0.25009988 14:0.79192547 15:0.20408233 16:0.2 18:0.21428571 20:0.13307776 21:0.26413303 22:0.35195697 23:0.20876262 24:0.31941975 25:0.32774991 26:0.52810869 27:0.44926067 28:0.56805077 29:0.3423153 30:0.28466169 31:0.21889429 32:0.63996284 33:0.24418571 34:0.75379106 35:0.34949219 36:0.30769231 37:0.2 38:0.23076923 40:0.082458285 41:0.073170732 42:0.071428571 44:0.14285714 46:0.16666667 47:0.125 48:0.16666667 49:0.2 51:0.125 53:0.33333333 54:0.14285714 56:0.33333333 
16 0:0.79453552 1:0.71676603 2:0.96666667 3:0.068965517 4:0.2962963 5:0.7147541 6:0.90566038 7:0.59036145 8:0.22222222 9:0.82311561 10:0.42360027 11:0.56378142 12:0.4125 13:0.43819244 14:0.049689441 15:0.287915 16:0.33333333 17:0.22222222 18:0.57142857 19:0.5 20:0.61923432 21:0.66944194 22:0.68916452 23:0.14536378 24:0.24159351 25:0.48403643 26:1 27:0.5792989 28:0.68212156 29:0.7404878 30:0.36686043 31:0.61718891 32:0.28809549 33:0.30701709 34:0.0046670004 35:0.29159239 36:0.15384615 38:0.61538462 39:0.5 40:0.34358818 41:0.26829268 42:0.071428571 44:0.14285714 46:0.16666667 47:0.25 49:0.2 50:0.25 51:0.5 52:0.33333333 55:0.66666667 58:0.16666667 59:0.22222222 
-0.5773793812380487 0:0.60327869 1:0.52639466 2:0.45555556 3:0.068965517 4:0.34567901 5:0.51803279 6:0.71698113 7:0.36144578 8:0.17777778 9:0.61866643 10:0.37432155 11:0.5112428 12:0.6375 13:0.030060336 14:0.25776398 15:0.4517291 16:0.4 17:0.33333333 18:0.28571429 20:0.085243842 21:0.076323831 22:0.33459764 23:0.14536378 24:0.3173697 25:0.1265367 26:0.22625371 27:0.37745367 28:0.1419898 29:0.34131414 30:0.3252483 31:0.44832688 32:0.40603803 33:0.045039924 34:0.052690072 35:0.29755811 36:0.53846154 37:0.4 38:0.30769231 40:0.36216197 41:0.36585366 42:0.28571429 44:0.28571429 47:0.375 48:0.33333333 49:0.6 50:0.5 52:0.66666667 53:0.16666667 54:0.14285714 55:0.33333333 59:0.11111111 
-5.887896043779507 0:0.66666667 1:0.58170424 2:0.42222222 3:0.068965517 4:0.40946502 5:0.62622951 6:0.86792453 7:0.47389558 8:0.22222222 9:0.66813291 10:0.40549473 11:0.71836956 12:0.2375 13:0.40756246 14:0.052795031 15:0.37720739 16:0.33333333 17:0.11111111 18:0.42857143 19:0.16666667 20:0.5751915 21:0.69698262 22:0.41892977 23:0.14536378 24:0.3374452 25:0.71340001 26:1 27:0.63297332 28:0.46882122 29:0.85599499 30:0.50531145 31:0.8744315 32:0.2287982 33:0.44434211 34:0.0047092183 35:0.48247869 36:0.23076923 37:0.2 38:0.46153846 39:0.16666667 40:0.25287687 41:0.2195122 44:0.28571429 45:0.125 46:0.16666667 47:0.25 50:0.25 51:0.625 52:0.33333333 53:0.16666667 55:0.16666667 57:0.125 58:0.16666667 
8.951325845562451 0:0.67868852 1:0.59778852 2:0.41111111 3:0.068965517 4:0.24691358 5:0.73770492 6:0.90566038 7:0.45783133 8:0.17777778 9:0.71322308 10:0.51814927 11:0.54289386 12:0.440625 13:0.40509681 14:0.12732919 15:0.23066729 16:0.26666667 17:0.22222222 18:0.28571429 19:0.33333333 20:0.22372041 21:0.3132715 22:0.37154208 23:0.14536378 24:0.055975282 25:0.39059926 26:0.69814502 27:0.54554813 28:0.49727994 29:0.50356206 30:0.52509634 31:0.38248354 32:0.20051819 33:0.29046563 34:0.00010436824 35:0.1108524 36:0.076923077 38:0.30769231 39:0.33333333 40:0.19019707 41:0.17073171 42:0.21428571 44:0.14285714 45:0.125 50:0.5 51:0.125 55:0.16666667 57:0.375 59:0.33333333 
-2.364977807578451 0:0.49836066 1:0.32188124 2:1 4:0.27777778 5:0.32786885 6:0.24528302 7:0.25301205 8:0.11111111 9:0.29220562 10:0.19282888 11:0.43357185 12:0.3875 13:0.42043796 14:0.11180124 15:0.20709536 16:0.33333333 17:0.22222222 18:0.14285714 20:0.13503754 21:0.22435755 22:0.69939382 23:0.20876262 24:0.012933029 25:0.082739528 26:0.184088 27:0.57587245 28:0.65365043 29:0.28519786 30:0.51158245 31:0.22887461 32:0.17539009 33:0.15085918 34:0.03443666 35:0.036658043 38:0.15384615 40:0.13834148 41:0.12195122 42:0.071428571 44:0.14285714 45:0.25 49:0.4 55:0.33333333 56:0.33333333 57:0.25 61:0.5 
7.615942157592029 0:0.5431694 1:0.50425295 2:0.41111111 4:0.48765432 5:0.71147541 6:0.93396226 7:0.20481928 8:0.17777778 9:0.84321191 10:0.18726058 11:0.7731235 12:0.4125 13:0.27472387 14:0.0031055901 15:0.64818821 16:0.6 17:0.22222222 18:0.64285714 19:0.33333333 20:0.72349372 21:0.45816646 22:0.37154208 23:0.20876262 24:0.22046072 25:0.73398882 26:1 27:0.4010962 28:0.44973333 29:0.70486302 30:0.38537393 31:0.62208611 32:0.57161963 33:0.094349051 34:0.046218317 35:0.69396409 36:0.15384615 38:0.69230769 39:0.33333333 40:0.71274453 41:0.58536585 42:0.14285714 44:0.14285714 45:0.5 48:0.16666667 49:0.4 50:0.25 51:0.75 54:0.42857143 55:0.5 56:0.33333333 57:0.5 58:0.16666667 59:0.11111111 61:0.5 
-0.9586653108223977 0:0.90273224 1:0.77910224 2:0.96666667 4:0.2037037 5:0.64918033 6:0.94339623 7:0.61044177 8:0.52222222 9:0.66705317 10:0.63423528 11:0.31399171 12:0.359375 13:0.038503084 14:0.01552795 15:0.32123965 16:0.13333333 18:0.64285714 19:0.5 20:0.70930872 21:0.60362412 22:0.68916452 23:0.20876262 24:0.58726748 25:0.66679626 26:1 27:0.53314801 28:0.77333981 29:0.71571488 30:0.54752491 31:0.50773313 32:0.43793918 33:0.058489797 34:0.0022061967 35:0.44661159 36:0.30769231 38:0.69230769 39:0.5 40:0.44426064 41:0.3902439 42:0.14285714 45:0.125 46:0.16666667 47:0.375 51:0.5 52:0.33333333 53:0.16666667 54:0.14285714 56:0.33333333 57:0.375 58:0.16666667 59:0.44444444 61:0.25 
-16 0:0.75628415 1:0.69411144 2:0.92222222 3:0.068965517 4:0.26131687 5:0.45245902 6:0.78301887 7:0.59839357 8:0.52222222 9:0.6244891 10:0.54925068 11:0.31038425 12:0.403125 13:0.25539085 14:0.071428571 15:0.19899641 16:0.13333333 18:0.35714286 19:0.33333333 20:0.28190088 21:0.36705838 22:1 23:0.14536378 24:0.055975282 25:0.34316699 26:0.90697284 27:0.52831519 28:0.7182085 29:0.43380034 30:0.49224169 31:0.28475837 32:0.27639064 33:0.05101465 34:0.024615736 35:0.089543778 38:0.30769231 39:0.16666667 40:0.22026036 41:0.19512195 42:0.21428571 43:0.25 46:0.16666667 50:0.25 51:0.125 55:0.33333333 57:0.375 58:0.33333333 59:0.22222222 
16 0:0.78251366 1:0.68738196 2:0.11111111 3:0.068965517 4:0.20164609 5:0.72131148 6:0.90566038 7:0.51807229 8:0.17777778 9:0.79464813 10:0.2588282 11:0.67182688 12:0.534375 13:0.091079372 14:0.02484472 15:0.33953309 16:0.2 17:0.11111111 18:0.57142857 19:0.5 20:0.53205304 21:0.49525166 22:0.45587368 23:0.14536378 24:0.22744703 25:0.50542279 26:0.90697284 27:0.40635313 28:0.44973333 29:0.63927176 30:0.16589712 31:0.65746202 32:0.69483672 33:0.25484635 34:0.24729149 35:0.46645014 36:0.23076923 38:0.69230769 39:0.5 40:0.43361623 41:0.34146341 42:0.14285714 44:0.28571429 45:0.125 46:0.33333333 47:0.125 48:0.33333333 49:0.2 50:0.25 51:0.25 52:0.33333333 54:0.14285714 57:0.125 58:0.16666667 59:0.33333333 60:0.33333333 
-16 0:0.68087432 1:0.60363735 2:0.92222222 4:0.23045267 5:0.5442623 6:0.97169811 7:0.36546185 8:0.46666667 9:0.46507272 10:0.26689835 11:0.44014173 12:0.34375 13:0.15584878 14:0.15217391 15:0.17661384 16:0.2 18:0.35714286 19:0.5 20:0.22086964 21:0.35920692 22:1 23:0.20876262 24:0.012077567 25:0.27370409 26:0.70807878 27:0.51220549 28:0.57503398 29:0.43221483 30:0.44931466 31:0.17798113 32:0.17495302 33:0.10311718 34:0.012845419 35:0.039705406 36:0.076923077 38:0.30769231 39:0.33333333 40:0.15535098 41:0.12195122 43:0.25 44:0.14285714 47:0.125 49:0.4 51:0.125 55:0.33333333 56:0.33333333 57:0.125 58:0.16666667 59:0.11111111 61:0.25 
16 0:0.84699454 1:0.73905047 2:0.11111111 3:0.068965517 4:0.19341564 5:0.70163934 6:0.90566038 7:0.52610442 8:0.38888889 9:0.8702281 10:0.38680888 11:0.52007741 12:0.46875 13:0.11993299 14:0.01552795 15:0.55207684 16:0.13333333 18:0.71428571 19:0.5 20:0.60600166 21:0.53875861 22:0.35195697 23:0.14536378 24:0.50524951 25:0.77113761 26:1 27:0.35249618 28:0.36413366 29:0.84591754 30:0.32284918 31:0.53004448 32:0.64713534 33:0.067292508 34:0.0049345879 35:0.67708061 36:0.38461538 38:0.76923077 39:0.5 40:0.46279848 41:0.36585366 42:0.071428571 45:0.125 46:0.16666667 47:0.25 48:0.33333333 49:0.4 50:0.25 51:0.625 53:0.16666667 54:0.42857143 57:0.25 59:0.22222222 
16 0:0.44808743 1:0.41298801 2:0.11111111 3:0.068965517 4:0.29423868 5:0.70163934 6:1 7:0.42570281 8:0.22222222 9:0.74227905 10:0.25250184 11:0.6256322 12:0.196875 13:0.043608565 14:0.01552795 15:0.36728475 16:0.6 17:0.44444444 18:0.35714286 19:0.16666667 20:0.29773283 21:0.23277221 22:0.35195697 23:0.14536378 24:0.2884559 25:0.2459517 26:0.41615755 27:0.41836861 28:0.32683142 29:0.45696151 30:0.43742886 31:0.28385456 32:0.206099 33:0.10462694 34:0.0024078932 35:0.24411581 36:0.53846154 37:0.6 38:0.38461538 39:0.16666667 40:0.51842995 41:0.43902439 42:0.071428571 44:0.28571429 45:0.25 47:0.125 48:0.16666667 49:0.6 50:0.25 51:0.125 52:0.66666667 53:0.83333333 54:0.42857143 58:0.16666667 59:0.11111111 61:0.5 
-16 0:0.72349727 1:0.6417317 2:0.11111111 4:0.26131687 5:0.77704918 6:1 7:0.59036145 8:0.22222222 9:0.98504061 10:0.48214398 11:0.77325512 12:0.384375 13:0.24247397 14:0.0031055901 15:0.31669744 16:0.33333333 17:0.33333333 18:0.42857143 19:0.33333333 20:0.39508769 21:0.42849514 22:0.45587368 23:0.20876262 24:0.15433901 25:0.30368931 26:0.61505162 27:0.6575732 28:0.69096508 29:0.6247634 30:0.51738265 31:0.5155959 32:0.20577841 33:0.11968272 34:0.013560079 35:0.13784671 36:0.076923077 38:0.46153846 39:0.33333333 40:0.34339039 41:0.26829268 42:0.071428571 44:0.14285714 45:0.25 46:0.16666667 47:0.125 49:0.8 52:0.66666667 54:0.14285714 55:0.33333333 56:0.33333333 58:0.33333333 59:0.11111111 
-6.888125708072365 0:0.70382514 1:0.63906776 2:0.14444444 4:0.36419753 5:0.55737705 6:0.67924528 7:0.77911647 8:0.7 9:0.58447354 10:0.74057913 11:0.19699888 12:0.490625 13:0.14434189 14:0.40993789 15:0.31104516 16:0.13333333 18:0.21428571 20:0.21884621 21:0.35602795 23:0.20876262 24:0.24144879 25:0.4970855 26:0.52810869 27:0.56295189 28:0.50213756 29:0.41871094 30:0.63099854 31:0.1631304 32:0.4258735 33:0.1267156 34:0.39108238 35:0.2535506 36:0.23076923 38:0.23076923 40:0.11340262 41:0.12195122 42:0.28571429 45:0.125 47:0.125 48:0.16666667 49:0.2 51:0.25 53:0.16666667 56:0.33333333 57:0.125 
-16 0:0.75846995 1:0.6553995 2:0.11111111 3:0.068965517 4:0.60082305 5:0.6 6:0.93396226 7:0.43373494 8:0.22222222 9:0.63521427 10:0.24904232 11:0.71616193 12:0.453125 13:0.1718088 14:0.040372671 15:0.8067125 16:0.4 17:0.11111111 18:0.71428571 19:0.33333333 20:0.6996447 21:0.57100717 22:0.35195697 23:0.14536378 24:0.22775077 25:0.63466344 26:1 27:0.57925507 28:0.67316858 29:0.69919674 30:0.42145672 31:0.45723941 32:0.59405964 33:0.078848909 34:0.0077492132 35:0.54990083 36:0.15384615 38:0.84615385 39:0.5 40:0.57756761 41:0.41463415 42:0.071428571 44:0.14285714 45:0.25 48:0.16666667 49:0.8 50:0.25 51:0.5 53:0.16666667 54:0.28571429 55:0.33333333 57:0.125 58:0.16666667 59:0.22222222 60:0.33333333 61:0.25 
-8.201064745854918 0:0.77377049 1:0.68405876 2:0.11111111 3:0.72413793 4:0.34979424 5:0.69836066 6:0.86792453 7:0.53815261 8:0.43333333 9:0.62482077 10:0.53239606 11:0.4026844 12:0.446875 13:0.11298392 14:0.049689441 15:0.35902722 16:0.26666667 18:0.42857143 19:0.33333333 20:0.6862796 21:0.66951872 22:0.46041996 23:0.51406944 24:0.16564651 25:0.56234578 26:1 27:0.6426888 28:0.64412736 29:0.71043108 30:0.47776295 31:0.51364389 32:0.43332881 33:0.28853074 34:0.033855375 35:0.3394489 36:0.076923077 38:0.46153846 39:0.33333333 40:0.39164988 41:0.31707317 42:0.21428571 44:0.28571429 45:0.25 47:0.125 50:0.25 51:0.625 52:0.66666667 54:0.14285714 58:0.33333333 59:0.11111111 61:0.25 
16 0:0.66666667 1:0.58170424 2:0.81111111 3:0.068965517 4:0.15432099 5:0.41967213 6:0.67924528 7:0.57429719 8:0.22222222 9:0.6925208 10:0.41844688 11:0.43005183 12:0.41875 13:0.50976263 14:0.42236025 15:0.17332895 16:0.13333333 17:0.11111111 18:0.21428571 19:0.16666667 20:0.2080204 21:0.40328162 22:0.90420519 23:0.14536378 24:0.16818271 25:0.33981146 26:0.81394568 27:0.35071031 28:0.50213756 29:0.62383035 30:0.24469645 31:0.55763869 32:0.50211077 33:0.61152235 34:0.59206393 35:0.28484548 36:0.076923077 38:0.23076923 39:0.16666667 40:0.096483026 41:0.073170732 42:0.14285714 46:0.33333333 48:0.16666667 50:0.25 51:0.125 52:0.33333333 55:0.33333333 57:0.125 
4.101120602651043 0:0.76284153 1:0.74254706 2:1 3:0.068965517 4:0.53497942 5:0.70163934 6:0.90566038 7:0.62650602 8:0.22222222 9:0.69105202 10:0.31538479 11:0.80507314 12:0.178125 13:0.71573495 14:0.16459627 15:0.36635592 16:0.26666667 17:0.11111111 18:0.5 19:0.5 20:0.56990467 21:0.98440255 22:0.69939382 23:0.14536378 24:0.24100629 25:0.76918419 26:1 27:0.88546115 28:0.78908039 29:0.76898952 30:0.69564677 31:0.63763846 32:0.068430186 33:0.50899492 34:0.057850348 35:0.34041143 36:0.076923077 38:0.53846154 39:0.5 40:0.17885141 41:0.097560976 44:0.28571429 45:0.125 46:0.16666667 49:0.2 50:0.25 51:0.5 53:0.16666667 59:0.11111111 
-16 0:0.42185792 1:0.29270325 2:0.066666667 3:0.068965517 4:0.38065844 5:0.46557377 6:0.50943396 7:0.26104418 8:0.17777778 9:0.4941287 10:0.27388914 11:0.37542309 12:0.953125 13:0.074658082 14:0.48136646 15:0.3249663 16:0.53333333 17:0.33333333 18:0.21428571 20:0.17884972 21:0.22081105 22:0.14536378 23:0.14536378 24:0.11946702 25:0.33475177 26:0.47600923 27:0.41885893 28:0.49727994 29:0.53903995 30:0.38677922 31:0.39858561 32:0.59054685 33:0.16712275 34:0.37219719 35:0.2073057 36:0.15384615 38:0.23076923 40:0.24906502 41:0.2195122 42:0.071428571 45:0.375 46:0.16666667 49:0.2 50:0.5 51:0.125 53:0.16666667 55:0.5 57:0.25 58:0.33333333 
-16 0:0.63387978 1:0.52188667 2:0.92222222 4:0.1563786 5:0.40327869 6:0.47169811 7:0.57429719 8:0.42222222 9:0.74900442 10:0.3556357 11:0.52630601 12:0.43125 13:0.62296804 14:0.43478261 15:0.16012143 16:0.13333333 18:0.21428571 20:0.26080905 21:0.50129614 22:1 23:0.20876262 24:0.36389681 25:0.36911848 26:0.47600923 27:0.66185729 28:0.61312325 29:0.76408292 30:0.40333968 31:0.6151376 32:0.61679688 33:0.67387455 34:0.72661291 35:0.27482094 36:0.23076923 38:0.23076923 40:0.080228711 41:0.073170732 45:0.125 47:0.25 51:0.375 53:0.16666667 56:0.33333333 58:0.5 
-14.36536747189793 0:0.46885246 1:0.33358593 2:0.4 3:0.068965517 4:0.2654321 5:0.44918033 6:0.53773585 7:0.26104418 8:0.17777778 9:0.47483783 10:0.20170699 11:0.43726576 12:0.596875 13:0.16303325 14:0.19875776 15:0.21094661 16:0.33333333 17:0.22222222 18:0.14285714 20:0.10550675 21:0.14189038 22:0.68222615 23:0.14536378 24:0.12550284 25:0.13814569 26:0.184088 27:0.41885893 28:0.59172312 29:0.21548372 30:0.36089284 31:0.1571237 32:0.16757584 33:0.03712844 34:0.011689167 35:0.055508455 36:0.15384615 37:0.2 38:0.23076923 40:0.19195915 41:0.19512195 44:0.14285714 45:0.25 47:0.25 49:0.2 50:0.25 55:0.33333333 57:0.25 58:0.5 59:0.11111111 60:0.33333333 
-4.113466259397606 0:0.68196721 1:0.59876333 2:0.11111111 4:0.21193416 5:0.61311475 6:0.93396226 7:0.47389558 8:0.43333333 9:0.73189049 10:0.31229646 11:0.64942036 12:0.303125 13:0.1602526 14:0.0093167702 15:0.25942707 16:0.26666667 18:0.42857143 19:0.33333333 20:0.55333788 21:0.63266353 22:0.35195697 23:0.20876262 24:0.030690238 25:0.52558049 26:0.90697284 27:0.73638198 28:0.70670618 29:0.69943864 30:0.45327763 31:0.54715154 32:0.24269375 33:0.11639286 34:0.014267992 35:0.33025381 36:0.076923077 38:0.46153846 39:0.33333333 40:0.30433688 41:0.24390244 42:0.071428571 44:0.14285714 45:0.125 46:0.33333333 49:0.2 51:0.375 52:0.33333333 53:0.16666667 54:0.14285714 55:0.16666667 56:0.33333333 57:0.375 61:0.25 
-16 0:0.49071038 1:0.45091792 2:0.11111111 3:0.068965517 4:0.36831276 5:0.5442623 6:0.83962264 7:0.47389558 8:0.17777778 9:0.78551141 10:0.11615778 11:0.65336601 12:0.365625 13:0.0987556 14:0.02484472 15:0.43499881 16:0.66666667 17:0.33333333 18:0.42857143 19:0.16666667 20:0.55070344 21:0.41497589 22:0.35195697 23:0.14536378 24:0.23653731 25:0.44108958 26:0.61505162 27:0.54402315 28:0.58728236 29:0.73342631 30:0.4549679 31:0.47549305 32:0.40028199 33:0.0065381698 34:0.042120926 35:0.24301967 36:0.38461538 37:0.2 38:0.53846154 39:0.33333333 40:0.50057537 41:0.46341463 42:0.21428571 44:0.28571429 45:0.625 46:0.33333333 47:0.25 49:0.4 50:0.25 51:0.125 53:0.5 57:0.125 58:0.33333333 59:0.11111111 60:0.33333333 61:0.25 
16 0:0.77377049 1:0.68917649 2:1 3:0.068965517 4:0.31481481 5:0.73114754 6:0.90566038 7:0.62650602 8:0.22222222 9:0.90500949 10:0.25649794 11:0.73020133 12:0.29375 13:0.14418811 14:0.0031055901 15:0.33751685 16:0.26666667 17:0.11111111 18:0.57142857 19:0.5 20:0.57585283 21:0.59094743 22:0.69939382 23:0.14536378 24:0.35546889 25:0.6833733 26:1 27:0.61492422 28:0.50490815 29:0.82452169 30:0.38080129 31:0.67411761 32:0.46123201 33:0.32129377 34:0.023048566 35:0.36532029 36:0.38461538 37:0.4 38:0.61538462 39:0.5 40:0.36649525 41:0.29268293 46:0.16666667 47:0.125 49:0.2 50:0.25 51:0.5 52:0.33333333 53:0.66666667 54:0.14285714 57:0.375 58:0.16666667 59:0.22222222 
-16 0:0.69617486 1:0.62400381 2:0.45555556 3:0.068965517 4:0.037037037 5:0.70819672 6:0.90566038 7:0.2811245 8:0.25555556 9:0.71935994 10:0.36532177 11:0.52571452 12:0.14375 13:0.162412 14:0.031055901 15:0.10464076 16:0.13333333 18:0.28571429 19:0.33333333 20:0.2512977 21:0.37690958 22:0.33459764 23:0.14536378 24:0.08912577 25:0.58357558 26:1 27:0.41914529 28:0.44973333 29:0.54374719 30:0.3039676 31:0.53527629 32:0.21389721 33:0.21555973 34:0.15437203 35:0.14306183 36:0.23076923 38:0.30769231 39:0.33333333 40:0.16151827 41:0.14634146 42:0.14285714 44:0.14285714 45:0.125 47:0.25 48:0.16666667 50:0.25 51:0.25 58:0.16666667 59:0.22222222 61:0.25 
-14.85561861308435 0:0.61092896 1:0.54441796 2:0.7 4:0.64197531 5:0.67868852 6:1 7:0.41365462 8:0.11111111 9:0.77039739 10:0.18431579 11:0.66235097 12:0.603125 13:0.016374198 14:0.10248447 15:0.6530136 16:0.73333333 17:0.44444444 18:0.71428571 19:0.66666667 20:0.76246518 21:0.51620417 22:0.51406944 23:0.20876262 24:0.40634731 25:0.7324189 26:1 27:0.52831499 28:0.64920967 29:0.77994159 30:0.40843485 31:0.45156884 32:0.41353788 33:0.063727643 34:0.014101653 35:0.38759477 36:0.38461538 37:0.2 38:0.76923077 39:0.66666667 40:0.59766974 41:0.53658537 42:0.14285714 44:0.57142857 45:0.5 46:0.16666667 47:0.375 49:1 51:0.5 53:0.16666667 54:0.28571429 55:0.16666667 56:0.66666667 57:0.125 
-16 0:0.58142077 1:0.49616511 2:0.11111111 3:0.068965517 4:0.086419753 5:0.58360656 6:0.77358491 7:0.30120482 8:0.22222222 9:0.61498082 10:0.35205451 11:0.55771078 12:0.203125 13:0.19196424 14:0.0031055901 15:0.23840377 16:0.26666667 17:0.11111111 18:0.35714286 19:0.16666667 20:0.21631756 21:0.22378856 22:0.35195697 23:0.14536378 24:0.12471622 25:0.44265222 26:0.90697284 27:0.2797959 28:0.32683142 29:0.53229972 30:0.32155002 31:0.45557003 32:0.29170018 33:0.11674077 34:0.023811229 35:0.29456224 36:0.38461538 37:0.4 38:0.38461538 39:0.16666667 40:0.33830193 41:0.29268293 42:0.071428571 46:0.16666667 47:0.25 48:0.16666667 50:0.5 51:0.25 53:0.16666667 54:0.28571429 55:0.33333333 57:0.125 58:0.5 59:0.22222222 
-16 0:0.66775956 1:0.58339141 2:0.14444444 3:0.068965517 4:0.074074074 5:0.58032787 6:0.93396226 7:0.50200803 8:0.17777778 9:0.74655317 10:0.50345952 11:0.36133787 12:0.340625 13:0.30233769 14:0.12732919 15:0.12258306 16:0.2 17:0.11111111 18:0.28571429 19:0.33333333 20:0.23006263 21:0.37364987 23:0.14536378 24:0.17828025 25:0.35794922 26:0.70807878 27:0.56613481 28:0.59172312 29:0.54454166 30:0.56412036 31:0.45883926 32:0.24745044 33:0.1606422 34:0.13835168 35:0.17602248 36:0.15384615 38:0.30769231 39:0.33333333 40:0.13287543 41:0.12195122 42:0.14285714 44:0.14285714 45:0.25 46:0.16666667 47:0.125 48:0.16666667 49:0.2 50:0.25 51:0.125 57:0.125 59:0.11111111 
-16 0:0.88961749 1:0.76813569 2:0.41111111 3:0.068965517 4:0.35185185 5:0.8 6:0.97169811 7:0.437751 8:0.43333333 9:1 10:0.38582934 11:0.72338315 12:0.465625 13:0.17811267 14:0.01552795 15:0.44092294 16:0.2 18:0.71428571 19:0.66666667 20:0.65103088 21:0.55402948 22:0.37154208 23:0.14536378 24:0.080928209 25:0.50646348 26:0.70807878 27:0.54464874 28:0.64412736 29:0.64435804 30:0.43244389 31:0.34179333 32:0.49066916 33:0.0063470026 34:0.03890294 35:0.30295747 36:0.076923077 38:0.76923077 39:0.66666667 40:0.51555308 41:0.3902439 42:0.071428571 44:0.28571429 46:0.16666667 49:0.4 50:0.25 51:0.25 52:0.33333333 53:0.16666667 54:0.42857143 57:0.5 59:0.55555556 61:0.25 
1.446466788025089 0:0.80765027 1:0.83891982 2:0.7 3:0.068965517 4:0.074074074 5:0.75081967 6:0.94339623 7:0.8875502 8:0.53333333 9:0.67711006 10:0.70904094 11:0.32420216 12:0.221875 13:0.38527186 14:0.22670807 15:0.081306707 16:0.066666667 18:0.28571429 19:0.33333333 20:0.30082026 21:0.57558634 22:0.51406944 23:0.14536378 24:0.1020315 25:0.40468882 26:0.69814502 27:0.65839169 28:0.64412736 29:0.612906 30:0.5393972 31:0.40563074 32:0.47135763 33:0.44668393 34:0.55598455 35:0.15843053 36:0.076923077 38:0.30769231 39:0.33333333 40:0.099629603 41:0.073170732 42:0.21428571 47:0.125 50:0.25 51:0.25 55:0.16666667 58:0.16666667 59:0.22222222 
16 0:0.74098361 1:0.66020169 2:0.92222222 3:0.068965517 4:0.094650206 5:0.73770492 6:1 7:0.36947791 8:0.17777778 9:0.6632703 10:0.55780751 11:0.3818764 12:0.2375 13:0.15096558 14:0.031055901 15:0.13291347 16:0.2 17:0.11111111 18:0.35714286 19:0.16666667 20:0.43707927 21:0.47363407 22:1 23:0.14536378 24:0.10325764 25:0.44533885 26:0.47462485 27:0.51317791 28:0.58728236 29:0.63781348 30:0.51729268 31:0.55017008 32:0.19279986 33:0.1347718 34:0.0008803781 35:0.17698953 36:0.15384615 38:0.38461538 39:0.16666667 40:0.29554445 41:0.26829268 42:0.21428571 44:0.28571429 45:0.125 46:0.33333333 47:0.25 49:0.4 50:0.25 51:0.125 52:0.33333333 54:0.14285714 58:0.5 
16 0:0.74098361 1:0.64654996 2:0.7 4:0.3744856 5:0.80983607 6:0.93396226 7:0.13253012 8:0.22222222 9:0.8202928 10:0.35056025 11:0.64102334 12:0.375 13:0.33689538 14:0.071428571 15:0.28884383 16:0.46666667 17:0.33333333 18:0.5 19:0.33333333 20:0.62171351 21:0.55271079 22:0.51406944 23:0.20876262 24:0.055975282 25:0.58539758 26:0.70807878 27:0.47856503 28:0.56805077 29:0.78707132 30:0.42098061 31:0.66753555 32:0.30098409 33:0.37034351 34:0.016426391 35:0.31044928 36:0.15384615 38:0.53846154 39:0.33333333 40:0.45972382 41:0.36585366 42:0.35714286 45:0.125 49:0.2 51:0.5 52:0.33333333 53:0.33333333 54:0.28571429 55:0.66666667 56:0.33333333 59:0.22222222 
16 0:0.69508197 1:0.6133854 2:0.96666667 3:0.068965517 4:0.086419753 5:0.76065574 6:1 7:0.37751004 8:0.25555556 9:0.65387675 10:0.47441698 11:0.30957322 12:0.35625 13:0.1386418 14:0.090062112 15:0.1056149 16:0.13333333 18:0.35714286 19:0.5 20:0.16416531 21:0.19108063 22:0.68916452 23:0.14536378 24:0.069977669 25:0.41975106 26:0.70807878 27:0.27567646 28:0.34378782 29:0.39394297 30:0.38597789 31:0.24190361 32:0.23021952 33:0.061358198 34:0.026450993 35:0.12086005 36:0.46153846 37:0.6 38:0.38461538 39:0.5 40:0.23748562 41:0.24390244 42:0.071428571 44:0.14285714 47:0.5 48:0.16666667 49:0.4 50:0.25 51:0.125 53:0.16666667 54:0.28571429 57:0.125 58:0.16666667 59:0.22222222 
16 0:0.71803279 1:0.63595983 2:0.11111111 3:0.068965517 4:0.19341564 5:0.62622951 6:0.86792453 7:0.45783133 8:0.22222222 9:0.67420747 10:0.34472057 11:0.56683041 12:0.2125 13:0.1255182 14:0.02173913 15:0.21656491 16:0.26666667 17:0.11111111 18:0.42857143 19:0.16666667 20:0.55062635 21:0.59569169 22:0.45587368 23:0.14536378 24:0.23591387 25:0.53944028 26:1 27:0.59218152 28:0.68974978 29:0.72437404 30:0.47363317 31:0.43234237 32:0.59843457 33:0.10109498 34:0.12272698 35:0.40994993 36:0.23076923 38:0.46153846 39:0.16666667 40:0.2730689 41:0.26829268 42:0.21428571 43:0.25 44:0.28571429 45:0.125 46:0.16666667 47:0.25 50:0.25 51:0.5 53:0.16666667 57:0.25 60:0.33333333 
