svm_type epsilon_svr
kernel_type rbf
gamma 0.0625
nr_class 2
total_sv 1763
rho -0.22118
SV
4 0:0.6863354 1:0.63138925 2:0.11111111 3:0.068965517 4:0.41294643 5:0.62328767 6:0.94444444 7:0.5 8:0.1754386 9:0.77575797 10:0.33452575 11:0.58896475 12:0.43304843 13:0.19024076 14:0.0031055901 15:0.37190704 16:0.35294118 17:0.090909091 18:0.61538462 19:0.66666667 20:0.72195956 21:0.58769063 22:0.22145646 24:0.61985505 25:0.67790691 26:0.90881949 27:0.60424348 28:0.39980342 29:0.73926861 30:0.38596449 31:0.50203401 32:0.49385998 33:0.20496299 34:0.068538884 35:0.59835006 36:0.54545455 38:0.61538462 39:0.8 40:0.50501069 41:0.46875 42:0.3 46:0.4 47:0.18181818 49:0.2 50:0.33333333 51:0.57142857 53:0.6 55:0.33333333 59:0.125 61:0.4 
0.2377250845036286 0:0.33385093 1:0.29566305 2:0.11111111 3:0.068965517 4:0.265625 5:0.3390411 6:0.57936508 7:0.41785714 8:0.1754386 9:0.40579958 10:0.29374273 11:0.1260344 12:0.13675214 13:0.14202984 14:0.14906832 15:0.30140161 16:0.29411765 17:0.090909091 18:0.15384615 20:0.14067608 21:0.21555822 22:0.22145646 24:0.15593457 25:0.38198733 26:0.46192108 27:0.43872769 28:0.28246929 29:0.50492225 30:0.17723034 31:0.38062858 32:0.020708073 33:0.44433189 34:0.027902274 35:0.2586175 36:0.36363636 37:0.2 38:0.15384615 40:0.1378509 41:0.15625 42:0.1 44:0.28571429 48:0.33333333 49:0.2 50:0.33333333 51:0.14285714 53:0.4 57:0.28571429 
4 0:0.34627329 1:0.28853211 2:0.14444444 4:0.140625 5:0.18150685 6:0.38888889 7:0.425 8:0.4122807 9:0.32556999 10:0.40592953 12:0.013960114 13:0.003005842 14:0.015217391 15:0.20644378 16:0.11764706 18:0.076923077 20:0.027098041 21:0.05178871 22:0.015405408 23:0.0075033323 24:0.16760194 26:0.10720914 27:0.27112729 28:0.28246929 29:0.19889105 30:0.28023298 32:0.0279218 33:0.0037827953 34:0.036722606 35:0.16382555 36:0.27272727 38:0.076923077 40:0.1042596 41:0.125 42:0.1 48:0.66666667 49:0.2 55:0.16666667 56:0.33333333 57:0.42857143 61:0.2 
4 0:0.27795031 1:0.16055046 2:0.35555556 4:0.10044643 5:0.092465753 6:0.38888889 7:0.22142857 8:0.1754386 9:0.08160123 10:0.1566888 12:0.013960114 13:0.003005842 14:0.015217391 15:0.1497846 16:0.23529412 17:0.18181818 18:0.076923077 20:0.073223505 21:0.12562981 22:0.5439285 23:0.0075033323 24:0.13936325 25:0.088441219 26:0.22664811 27:0.25053048 28:0.27521527 29:0.1111615 30:0.26140935 32:0.0279218 33:0.0037827953 34:0.036722606 35:0.12289061 36:0.27272727 38:0.076923077 40:0.074236986 41:0.09375 45:0.42857143 47:0.090909091 48:0.33333333 49:0.2 56:0.33333333 57:0.14285714 61:0.2 
4 0:0.81677019 1:0.6637931 2:0.11111111 3:0.068965517 4:0.34375 5:0.96575342 6:1 7:0.43571429 8:0.37719298 9:0.85148291 10:0.44534633 11:0.51691766 12:0.53276353 13:0.064809154 14:0.01242236 15:0.46420727 16:0.35294118 18:0.69230769 19:0.5 20:0.58385813 21:0.37947214 22:0.22145646 24:0.32987393 25:0.71563445 26:0.77972638 27:0.3140767 28:0.26832728 29:0.60066647 30:0.24884275 31:0.52841101 32:0.24166391 33:0.13398071 34:0.00082432189 35:0.34120972 36:0.63636364 37:0.2 38:0.61538462 39:0.6 40:0.64228064 41:0.71875 42:0.4 43:0.5 44:0.14285714 45:0.28571429 46:0.2 47:0.45454545 49:1 50:0.33333333 51:0.14285714 52:0.33333333 53:0.2 55:0.16666667 57:0.28571429 58:0.33333333 59:0.125 
4 0:0.30434783 1:0.34504014 2:0.14444444 4:0.35044643 5:0.51712329 6:0.73015873 7:0.23928571 8:0.1754386 9:0.57993462 10:0.1915418 11:0.43812428 12:0.6980057 13:0.14899007 14:0.10559006 15:0.42543535 16:0.35294118 17:0.18181818 18:0.15384615 20:0.16563109 21:0.20336034 22:0.015405408 23:0.0075033323 24:0.29968224 25:0.19464772 26:0.5061863 27:0.29465056 28:0.35175583 29:0.41660453 30:0.14536911 31:0.44919929 32:0.46588254 33:0.21546135 34:0.31578672 35:0.35787335 36:0.36363636 38:0.15384615 40:0.29505986 41:0.3125 42:0.4 44:0.14285714 45:0.42857143 48:1 51:0.14285714 52:0.33333333 55:0.16666667 56:0.33333333 59:0.125 
4 0:0.6242236 1:0.67201835 2:0.45555556 3:0.068965517 4:0.14955357 5:0.70890411 6:0.95238095 7:0.79285714 8:0.4122807 9:0.51598563 10:0.70196882 12:0.013960114 13:0.003005842 14:0.015217391 15:0.13855955 16:0.11764706 18:0.30769231 19:0.33333333 20:0.13966195 21:0.23961846 22:0.19356563 25:0.33514843 26:0.42830452 27:0.46821493 28:0.17769122 29:0.15997484 30:0.31324765 32:0.0279218 33:0.0037827953 34:0.036722606 35:0.0035492824 36:0.27272727 37:0.2 38:0.23076923 39:0.4 40:0.079921987 41:0.09375 43:0.5 45:0.14285714 47:0.18181818 50:0.33333333 57:0.14285714 59:0.375 
4 0:0.5015528 1:0.52118187 3:0.068965517 4:0.77901786 5:0.75 6:0.97619048 7:0.33928571 8:0.1754386 9:0.88725174 10:0.22225341 11:0.87159331 12:0.45868946 13:0.25410002 14:0.0093167702 15:0.768582 16:0.64705882 17:0.18181818 18:0.61538462 19:0.33333333 20:0.59102378 21:0.34154782 22:0.0075033323 24:0.53849833 25:0.76405861 26:0.77972638 27:0.28821865 28:0.35538245 29:0.68431987 30:0.22662998 31:0.44031539 32:0.39019355 33:0.19964409 34:0.00082545413 35:0.54143858 36:0.81818182 37:0.4 38:0.61538462 39:0.4 40:0.78643899 41:0.875 42:0.6 44:0.42857143 45:0.42857143 47:0.45454545 49:0.6 50:0.33333333 51:0.28571429 53:0.4 54:0.14285714 55:0.16666667 56:0.33333333 57:0.14285714 58:0.16666667 59:0.375 61:0.2 
3.062867355718832 0:0.71273292 1:0.60822821 2:0.81111111 3:0.068965517 4:0.46875 5:0.78424658 6:0.92063492 7:0.375 8:0.1754386 9:0.81862773 10:0.34453036 11:0.654667 12:0.48433048 13:0.09736381 14:0.0031055901 15:0.67906074 16:0.47058824 17:0.18181818 18:0.76923077 19:0.33333333 20:0.88470888 21:0.49839373 22:0.89577139 24:0.37580828 25:0.78513502 26:0.90881949 27:0.39689436 28:0.39980342 29:0.87173045 30:0.27245633 31:0.57717383 32:0.44824844 33:0.016327815 34:1.9375446e-05 35:0.75987395 36:0.36363636 38:0.76923077 39:0.4 40:0.8165031 41:0.8125 42:0.6 44:0.14285714 45:0.42857143 46:0.4 47:0.090909091 48:0.33333333 49:0.4 50:0.33333333 51:0.57142857 53:0.2 55:0.33333333 57:0.57142857 58:0.16666667 59:0.25 61:0.2 
1.764246804781205 0:0.35403727 1:0.36549803 2:0.42222222 3:0.068965517 4:0.084821429 5:0.35616438 6:0.53174603 7:0.35 8:0.20175439 9:0.43262303 10:0.37311647 11:0.26302777 12:0.22222222 13:0.14119182 14:0.065217391 15:0.14929919 16:0.17647059 18:0.076923077 20:0.10997472 21:0.15681732 22:0.33435939 24:0.1119284 25:0.19726593 26:0.41768912 27:0.23631031 28:0.21743672 29:0.3204395 30:0.32476574 31:0.16167387 32:0.30346615 33:0.045211905 34:0.20786432 35:0.18956502 36:0.36363636 37:0.2 38:0.076923077 40:0.23125921 41:0.25 42:0.1 45:0.14285714 47:0.090909091 48:0.33333333 50:0.33333333 51:0.14285714 52:0.33333333 53:0.2 57:0.14285714 58:0.83333333 
-1.542423149517248 0:0.30590062 1:0.20183486 2:0.11111111 3:0.068965517 4:0.28571429 5:0.31164384 6:0.36507937 7:0.32142857 8:0.14035088 9:0.11534455 10:0.19904659 12:0.013960114 13:0.003005842 14:0.015217391 15:0.25446271 16:0.29411765 17:0.18181818 18:0.15384615 20:0.12843173 21:0.22035073 22:0.22145646 24:0.27869052 25:0.24817213 26:0.3189202 27:0.43471849 28:0.20329472 29:0.19782074 30:0.35343885 32:0.0279218 33:0.0037827953 34:0.036722606 35:0.26456624 36:0.36363636 37:0.2 38:0.15384615 40:0.11085752 41:0.09375 44:0.28571429 48:0.33333333 49:0.2 50:0.33333333 51:0.14285714 53:0.4 54:0.14285714 
4 0:0.88509317 1:0.74697665 2:1 3:0.068965517 4:0.34821429 5:0.78082192 6:1 7:0.63571429 8:0.33333333 9:0.78448398 10:0.45963939 11:0.54642787 12:0.48433048 13:0.35558389 14:0.0093167702 15:0.43423336 16:0.17647059 18:0.69230769 19:0.5 20:0.7593502 21:0.59174189 22:0.74820483 24:0.38269546 25:0.55542338 26:0.71415226 27:0.4316141 28:0.48462965 29:0.87117218 30:0.32984209 31:0.66420639 32:0.46118443 33:0.29489868 34:0.012807294 35:0.57275188 36:0.27272727 38:0.69230769 39:0.6 40:0.589767 41:0.5 42:0.2 45:0.14285714 47:0.090909091 49:0.6 50:0.33333333 51:0.57142857 53:0.2 54:0.14285714 57:0.14285714 58:0.66666667 59:0.25 61:0.2 
-4 0:0.4984472 1:0.47313237 2:0.35555556 3:0.068965517 4:0.13392857 5:0.42123288 6:0.95238095 7:0.67857143 8:0.1754386 9:0.38139868 10:0.53302267 12:0.013960114 13:0.003005842 14:0.015217391 15:0.091559978 16:0.17647059 17:0.090909091 18:0.15384615 19:0.16666667 20:0.18735875 21:0.3848791 22:0.5439285 24:0.023885333 25:0.31783981 26:0.42830452 27:0.58891002 28:0.39980342 29:0.30722752 30:0.46962556 32:0.0279218 33:0.0037827953 34:0.036722606 35:0.012571895 36:0.090909091 38:0.15384615 39:0.2 40:0.058987074 41:0.03125 42:0.1 44:0.14285714 45:0.14285714 50:0.33333333 59:0.25 61:0.2 
3.774461808377238 0:0.80745342 1:0.65130216 2:0.11111111 3:0.068965517 4:0.45089286 5:0.82876712 6:0.94444444 7:0.31071429 8:0.1754386 9:0.81249801 10:0.43052659 11:0.60736936 12:0.48148148 13:0.073502252 14:3.885215e-16 15:0.64708452 16:0.47058824 17:0.36363636 18:1 19:0.83333333 20:1 21:0.56869001 22:0.36777524 24:0.37245614 25:0.83304586 26:1 27:0.35855612 28:0.24408979 29:0.88003478 30:0.41519423 31:0.6711156 32:0.49664799 33:0.066869106 34:0.033692714 35:0.77966965 36:0.45454545 38:1 39:1 40:0.87841567 41:0.78125 42:0.1 45:0.57142857 47:0.18181818 48:0.33333333 49:0.2 50:0.33333333 51:1 52:0.33333333 53:0.2 54:0.28571429 55:0.33333333 57:0.28571429 58:0.16666667 59:0.625 
4 0:0.69099379 1:0.62155963 2:0.7 4:0.703125 5:0.76369863 6:0.95238095 7:0.42857143 8:0.1754386 9:0.89646125 10:0.045825445 11:0.9306037 12:0.25356125 13:0.052292317 14:0.0031055901 15:0.64265518 16:0.47058824 17:0.18181818 18:0.61538462 19:0.33333333 20:0.74478016 21:0.54134398 22:0.43552067 23:0.0075033323 24:0.28798381 25:0.63871768 26:0.77972638 27:0.38204183 28:0.45989557 29:0.73384253 30:0.29266329 31:0.51247344 32:0.18202198 33:0.11500741 34:0.010417739 35:0.68185229 36:0.18181818 38:0.61538462 39:0.4 40:0.61248625 41:0.5625 42:0.6 44:0.28571429 46:0.2 49:0.2 51:0.57142857 53:0.2 54:0.14285714 55:0.66666667 56:0.33333333 58:0.16666667 59:0.25 
4 0:0.41304348 1:0.37729358 2:1 4:0.084821429 5:0.40410959 6:0.88888889 7:0.52142857 8:0.087719298 9:0.41596116 10:0.35577816 12:0.013960114 13:0.003005842 14:0.015217391 15:0.14056186 16:0.23529412 17:0.18181818 18:0.23076923 19:0.16666667 20:0.21803477 21:0.34662041 22:0.74820483 23:0.0075033323 24:0.1469696 25:0.47537008 26:1 27:0.38419842 28:0.34450181 29:0.2989012 30:0.44852833 32:0.0279218 33:0.0037827953 34:0.036722606 35:0.26480108 36:0.27272727 38:0.23076923 39:0.2 40:0.14909642 41:0.125 42:0.1 44:0.14285714 45:0.14285714 48:0.66666667 49:0.2 51:0.28571429 55:0.16666667 56:0.33333333 
4 0:0.52173913 1:0.5206422 2:1 4:0.09375 5:0.53424658 6:0.58730159 7:0.41071429 8:0.087719298 9:0.35331566 10:0.49777024 12:0.013960114 13:0.003005842 14:0.015217391 15:0.19524301 16:0.11764706 17:0.090909091 18:0.23076923 20:0.16682356 21:0.28621973 22:0.74820483 23:0.0075033323 24:0.20148699 25:0.30532333 26:0.41768912 27:0.21853063 28:0.19183323 29:0.15849611 30:0.31167728 32:0.0279218 33:0.0037827953 34:0.036722606 35:0.25813808 36:0.27272727 37:0.2 38:0.23076923 40:0.11728946 41:0.09375 47:0.090909091 48:0.33333333 49:0.2 51:0.14285714 55:0.16666667 56:0.33333333 58:0.33333333 59:0.125 
3.784982354805488 0:0.086956522 1:0.13990826 2:0.4 4:0.16517857 5:0.11986301 6:0.46031746 7:0.13571429 8:0.087719298 9:0.31800048 10:0.093648064 11:0.32839809 12:0.42450142 13:0.14236955 14:0.071428571 15:0.1986894 16:0.47058824 17:0.27272727 18:0.076923077 20:0.11055097 21:0.15358652 22:0.68469728 23:0.0075033323 24:0.04090144 25:0.035658956 26:0.44692173 27:0.26718869 28:0.17769122 29:0.42776306 30:0.13965816 31:0.44973745 32:0.24440615 33:0.27423346 34:0.022118821 35:0.18862338 36:0.45454545 37:0.4 38:0.15384615 40:0.27130319 41:0.28125 42:0.1 44:0.28571429 45:0.28571429 47:0.090909091 50:0.66666667 51:0.14285714 53:0.2 54:0.14285714 56:0.33333333 58:0.33333333 60:0.33333333 
3.795245190711651 0:0.4363354 1:0.43683839 2:0.42222222 4:0.040178571 5:0.46575342 6:0.78571429 7:0.46428571 8:0.087719298 9:0.54354601 10:0.44194018 11:0.11353137 12:0.51566952 13:0.079636524 14:0.40993789 15:0.17781688 16:0.17647059 17:0.090909091 18:0.15384615 20:0.12078852 21:0.1740742 22:0.33435939 23:0.0075033323 24:0.14714977 25:0.14699192 26:0.31517511 27:0.43022822 28:0.19183323 29:0.33836858 30:0.26811247 31:0.24702843 32:0.27475279 33:0.21274624 34:0.18084342 35:0.11747885 36:0.45454545 37:0.4 38:0.15384615 40:0.17285308 41:0.21875 42:0.2 44:0.14285714 47:0.18181818 48:0.33333333 49:0.2 53:0.2 56:0.33333333 57:0.14285714 58:0.16666667 59:0.125 61:0.2 
4 0:0.56832298 1:0.56651376 2:0.96666667 3:0.068965517 4:0.13392857 5:0.53082192 6:0.76190476 7:0.43214286 8:0.4122807 9:0.52870942 10:0.50721068 11:0.32656655 12:0.12535613 13:0.071316373 14:0.031055901 15:0.17537771 16:0.17647059 18:0.15384615 20:0.2121161 21:0.2581399 22:0.67324694 24:0.023885333 25:0.13012519 26:0.22033856 27:0.43776116 28:0.39980342 29:0.36394335 30:0.31024265 31:0.24294977 32:0.13149182 33:0.071574026 34:0.00011179995 35:0.045565822 36:0.090909091 38:0.15384615 40:0.21526236 41:0.28125 42:0.5 44:0.14285714 45:0.14285714 50:0.33333333 57:0.71428571 59:0.25 
4 0:0.62111801 1:0.59300459 2:0.45555556 3:0.068965517 4:0.390625 5:0.66780822 6:0.95238095 7:0.32857143 8:0.1754386 9:0.76326846 10:0.28602939 11:0.5458578 12:0.3048433 13:0.29137463 14:0.090062112 15:0.45082216 16:0.29411765 17:0.090909091 18:0.53846154 19:0.33333333 20:0.57462113 21:0.49834724 22:0.19356563 24:0.33965731 25:0.73292148 26:1 27:0.38826735 28:0.46499414 29:0.77769184 30:0.37766192 31:0.5367163 32:0.26583001 33:0.24176065 34:0.0031429856 35:0.43082167 36:0.36363636 38:0.61538462 39:0.6 40:0.4678507 41:0.4375 42:0.1 44:0.42857143 46:0.2 47:0.18181818 49:0.2 50:0.33333333 51:0.28571429 53:0.2 54:0.14285714 57:0.14285714 58:0.33333333 59:0.375 60:0.33333333 
3.536628035412664 0:0.8757764 1:0.77438436 2:0.96666667 3:0.72413793 4:0.22544643 5:0.85616438 6:0.95238095 7:0.44642857 8:0.4122807 9:0.69600118 10:0.46535556 11:0.43533925 12:0.3048433 13:0.27749901 14:0.037267081 15:0.34994236 16:0.17647059 18:0.61538462 19:0.5 20:0.6685007 21:0.59563752 22:0.67324694 23:0.43552067 24:0.17695042 25:0.61466774 26:0.77972638 27:0.41111824 28:0.5310447 29:0.71081541 30:0.38394998 31:0.47505386 32:0.39411676 33:0.37646209 34:0.032031138 35:0.38447568 36:0.18181818 38:0.61538462 39:0.6 40:0.42268191 41:0.40625 42:0.2 44:0.28571429 45:0.14285714 47:0.18181818 49:0.4 51:0.42857143 57:0.28571429 58:0.33333333 59:0.375 
4 0:0.55900621 1:0.5461173 2:0.11111111 3:0.068965517 4:0.39508929 5:0.94520548 6:0.95238095 7:0.20357143 8:0.1754386 9:0.88974581 10:0.24112901 11:0.5099456 12:0.67236467 13:0.14964092 14:0.031055901 15:0.46566349 16:0.41176471 17:0.090909091 18:0.61538462 19:0.5 20:0.66736518 21:0.43552481 22:0.22145646 24:0.19529482 25:0.65812747 26:0.77972638 27:0.3122555 28:0.30693843 29:0.71122596 30:0.30464015 31:0.4848287 32:0.26589551 33:0.2074379 34:0.0036273599 35:0.34529566 36:0.36363636 38:0.61538462 39:0.6 40:0.75523373 41:0.6875 42:0.2 44:0.28571429 45:0.28571429 47:0.090909091 49:0.6 50:0.33333333 51:0.28571429 53:0.4 54:0.28571429 57:0.14285714 58:0.83333333 59:0.375 61:0.4 
4 0:0.5015528 1:0.52049885 2:0.45555556 4:0.34598214 5:0.70890411 6:0.97619048 7:0.19642857 8:0.1754386 9:0.76527482 10:0.25868117 11:0.65105236 12:0.31054131 13:0.093988737 14:0.0031055901 15:0.51904617 16:0.52941176 17:0.18181818 18:0.46153846 19:0.16666667 20:0.65617627 21:0.38811725 22:0.19356563 23:0.0075033323 24:0.23692547 25:0.51733085 26:0.60102285 27:0.47039081 28:0.38098594 29:0.63230624 30:0.3206135 31:0.43028645 32:0.21192311 33:0.02640318 34:0.0013815192 35:0.32629934 36:0.45454545 37:0.2 38:0.46153846 39:0.2 40:0.83488599 41:0.8125 42:0.6 44:0.28571429 45:0.28571429 47:0.090909091 49:0.6 51:0.14285714 52:0.66666667 53:0.6 54:0.28571429 55:0.16666667 56:0.33333333 58:0.5 59:0.25 61:0.6 
-4 0:0.63819876 1:0.60816031 2:0.96666667 3:0.068965517 4:0.25892857 5:0.62328767 6:0.94444444 7:0.23928571 8:0.1754386 9:0.81855959 10:0.089359617 11:0.79006673 12:0.27350427 13:0.57748159 14:0.068322981 15:0.35692009 16:0.35294118 17:0.18181818 18:0.61538462 19:0.66666667 20:0.72616045 21:0.64249768 22:0.67324694 24:0.069437756 25:0.66418638 26:0.77972638 27:0.48913535 28:0.61803365 29:0.83359639 30:0.41025795 31:0.64352604 32:0.26258125 33:0.30934513 34:0.036850141 35:0.3330098 36:0.090909091 38:0.69230769 39:1 40:0.49538353 41:0.40625 42:0.1 44:0.28571429 45:0.42857143 46:0.4 49:0.4 50:0.33333333 51:0.28571429 54:0.14285714 57:0.14285714 58:0.16666667 59:0.25 60:0.33333333 
4 0:0.36956522 1:0.36856034 2:0.92222222 4:0.09375 5:0.39041096 6:0.73015873 7:0.10357143 8:0.14035088 9:0.42113459 10:0.27421742 11:0.1823921 12:0.28205128 13:0.077733269 14:0.02484472 15:0.15792731 16:0.29411765 17:0.27272727 18:0.15384615 20:0.1786673 21:0.2428223 22:1 23:0.0075033323 24:0.10255267 25:0.28280515 26:0.5061863 27:0.26534184 28:0.28730292 29:0.36469277 30:0.30456636 31:0.092336719 32:0.32913317 33:0.060071737 34:0.010872607 35:0.14329575 36:0.27272727 38:0.15384615 40:0.2375874 41:0.21875 42:0.3 45:0.28571429 50:0.33333333 51:0.14285714 53:0.2 54:0.42857143 56:0.33333333 59:0.125 
4 0:0.41459627 1:0.41460833 2:0.14444444 3:0.068965517 4:0.18526786 5:0.58561644 6:1 7:0.30714286 8:0.14035088 9:0.53643015 10:0.14634733 11:0.58939797 12:0.21367521 13:0.33022198 14:0.10869565 15:0.31558765 16:0.29411765 17:0.18181818 18:0.30769231 19:0.16666667 20:0.16593354 21:0.22769721 22:0.015405408 24:0.3327661 25:0.2850292 26:0.55945276 27:0.29546238 28:0.26832728 29:0.43059463 30:0.086962309 31:0.49507833 32:0.1125095 33:0.15809046 34:0.0015181867 35:0.43412434 36:0.45454545 38:0.30769231 39:0.2 40:0.2461979 41:0.21875 45:0.28571429 47:0.090909091 48:0.33333333 49:0.6 50:1 51:0.14285714 54:0.14285714 57:0.14285714 
-1.717528982686918 0:0.1552795 1:0.22118693 2:0.066666667 3:0.11494253 4:0.28125 5:0.2739726 6:0.57142857 7:0.23928571 8:0.1754386 9:0.53247714 10:0.15464886 11:0.55522264 12:0.42450142 13:0.43064655 14:0.15217391 15:0.23133305 16:0.52941176 17:0.36363636 20:0.15099589 21:0.18923615 23:0.36777524 24:0.034789482 25:0.087296693 26:0.012372596 27:0.35954482 28:0.39980342 29:0.3103267 30:0.31024265 31:0.10009403 32:0.10440864 33:0.088095506 34:0.0074926283 36:0.18181818 40:0.22314667 41:0.3125 42:0.5 44:0.14285714 45:1 47:0.090909091 50:0.33333333 57:0.14285714 
4 0:0.4052795 1:0.40508116 2:0.066666667 4:0.1875 5:0.78082192 6:0.95238095 7:0.19285714 8:0.087719298 9:0.57549812 10:0.3743784 11:0.38714411 12:0.33618234 13:0.19769436 14:0.13664596 15:0.20114071 16:0.29411765 17:0.090909091 18:0.23076923 19:0.16666667 20:0.1522971 21:0.21149992 23:0.0075033323 24:0.1021502 25:0.37403738 26:0.42830452 27:0.25798727 28:0.34450181 29:0.44422563 30:0.35699218 31:0.32717967 32:0.26486768 33:0.088127751 34:0.20912483 35:0.099274734 36:0.27272727 38:0.23076923 39:0.2 40:0.22362388 41:0.21875 42:0.1 45:0.42857143 47:0.090909091 50:0.33333333 54:0.14285714 56:0.33333333 57:0.14285714 58:0.16666667 59:0.375 
4 0:0.25 1:0.29988532 2:0.96666667 4:0.14285714 5:0.40410959 6:0.58730159 7:0.14642857 8:0.087719298 9:0.44849898 10:0.20476275 11:0.47710278 12:0.37037037 13:0.32793829 14:0.1552795 15:0.19280383 16:0.41176471 17:0.27272727 18:0.15384615 20:0.11889726 21:0.15825831 22:0.67324694 23:0.0075033323 24:0.14558757 25:0.20266636 26:0.37074057 27:0.22457711 28:0.17769122 29:0.39854894 30:0.19825013 31:0.36765723 32:0.14134548 33:0.19888171 34:0.0055460896 35:0.14566984 36:0.54545455 37:0.6 38:0.15384615 40:0.21999295 41:0.3125 42:0.2 44:0.42857143 45:0.14285714 46:0.2 47:0.27272727 50:0.33333333 53:0.2 56:0.33333333 57:0.14285714 58:0.16666667 59:0.125 
4 0:0.40217391 1:0.36284404 2:0.11111111 3:0.068965517 4:0.36607143 5:0.41438356 6:0.92063492 7:0.37142857 8:0.052631579 9:0.40710308 10:0.4827232 12:0.013960114 13:0.003005842 14:0.015217391 15:0.28674231 16:0.29411765 17:0.090909091 18:0.23076923 19:0.16666667 20:0.19778587 21:0.31535341 22:0.36777524 24:0.069437756 25:0.35621398 26:0.71415226 27:0.29089938 28:0.0068879806 29:0.31265094 30:0.45053375 32:0.0279218 33:0.0037827953 34:0.036722606 35:0.13247461 36:0.18181818 37:0.2 38:0.23076923 39:0.2 40:0.15619229 41:0.125 45:0.42857143 50:0.33333333 51:0.14285714 56:0.33333333 57:0.14285714 58:0.16666667 59:0.25 
4 0:0.3447205 1:0.308799 4:0.40625 5:0.41780822 6:0.73015873 7:0.48928571 8:0.1754386 9:0.35410581 10:0.29942142 11:0.290274 12:0.66951567 13:0.32319662 14:0.72981366 15:0.33397245 16:0.35294118 17:0.090909091 18:0.15384615 20:0.13093202 21:0.20187991 22:0.0075033323 23:0.0075033323 24:0.023885333 25:0.33379282 26:0.5061863 27:0.41765797 28:0.27521527 29:0.19805226 30:0.30902624 31:0.2306217 32:0.56049924 33:0.27071016 34:0.68791299 35:0.21891335 36:0.18181818 38:0.15384615 40:0.15857833 41:0.15625 42:0.2 49:0.2 51:0.14285714 55:0.66666667 56:0.66666667 57:0.14285714 
-4 0:0.93944099 1:0.80458716 2:0.41111111 3:0.068965517 4:0.36607143 5:0.89726027 6:1 7:0.77142857 8:0.61403509 9:0.93040478 10:0.58244303 11:0.68370655 12:0.35612536 13:0.34006482 14:0.01242236 15:0.36429828 16:0.17647059 18:0.61538462 19:0.66666667 20:0.72241617 21:0.61245483 22:0.29229885 24:0.26450094 25:0.74348679 26:0.90881949 27:0.6132308 28:0.46499414 29:0.88945036 30:0.40869752 31:0.64167282 32:0.47817208 33:0.11975396 34:0.00082349262 35:0.46064692 36:0.18181818 38:0.61538462 39:0.8 40:0.45834803 41:0.4375 42:0.5 44:0.28571429 46:0.2 47:0.090909091 49:0.6 50:0.33333333 51:0.42857143 54:0.14285714 57:0.28571429 59:0.125 
4 0:0.51552795 1:0.50888761 2:0.7 3:0.068965517 4:0.12053571 5:0.29109589 6:0.65079365 7:0.61785714 8:0.1754386 9:0.38139868 10:0.53302267 12:0.013960114 13:0.003005842 14:0.015217391 15:0.077349675 16:0.17647059 17:0.090909091 18:0.076923077 20:0.18750809 21:0.34948962 22:0.43552067 24:0.023885333 25:0.27042374 26:0.41500579 27:0.55006661 28:0.39980342 29:0.30722752 30:0.46962556 32:0.0279218 33:0.0037827953 34:0.036722606 35:0.05234072 36:0.090909091 38:0.076923077 40:0.044733075 41:0.0625 42:0.4 44:0.14285714 45:0.14285714 46:0.2 50:0.33333333 
4 0:0.69720497 1:0.66324879 2:1 3:0.068965517 4:0.14732143 5:0.85616438 6:0.94444444 7:0.34285714 8:0.1754386 9:0.65142327 10:0.2311244 11:0.58766457 12:0.25641026 13:0.034174971 14:0.043478261 15:0.24963291 16:0.23529412 17:0.090909091 18:0.61538462 19:0.66666667 20:0.59772223 21:0.58972261 22:0.74820483 24:0.083800972 25:0.7734169 26:0.77972638 27:0.61562479 28:0.17769122 29:0.73020771 30:0.24173999 31:0.55744655 32:0.40684878 33:0.31003621 34:0.036721015 35:0.45153213 36:0.18181818 37:0.2 38:0.53846154 39:0.4 40:0.41660269 41:0.34375 43:0.5 44:0.14285714 45:0.28571429 46:0.2 47:0.090909091 49:0.6 50:0.33333333 51:0.42857143 54:0.28571429 58:0.33333333 
4 0:0.44099379 1:0.42514595 2:0.42222222 4:0.125 5:0.43150685 6:0.73015873 7:0.45 8:0.44736842 9:0.51705484 10:0.33034158 11:0.30542043 12:0.27635328 13:0.33990411 14:0.30124224 15:0.10774832 16:0.11764706 18:0.076923077 20:0.093875926 21:0.14986216 22:0.33435939 23:0.0075033323 24:0.13325665 25:0.19201249 26:0.5061863 27:0.21995385 28:0.35538245 29:0.33436569 30:0.31005777 31:0.19311477 32:0.35065875 33:0.22729868 34:0.4313379 35:0.1690792 36:0.36363636 37:0.2 38:0.076923077 40:0.10116812 41:0.15625 42:0.2 47:0.27272727 51:0.14285714 54:0.28571429 55:0.16666667 56:0.33333333 58:0.16666667 
-4 0:0.72981366 1:0.68874798 2:0.92222222 3:0.068965517 4:0.17857143 5:0.77739726 6:0.88888889 7:0.48214286 8:0.1754386 9:0.70120868 10:0.36262794 11:0.65302952 12:0.14245014 13:0.35011592 14:0.0062111801 15:0.30403495 16:0.17647059 17:0.090909091 18:0.61538462 19:0.5 20:0.81186911 21:0.78423512 22:1 24:0.20148699 25:0.95838679 26:1 27:0.4615609 28:0.4332425 29:0.78644426 30:0.38454113 31:0.6767018 32:0.33922092 33:0.25683127 34:0.047813452 35:0.49174225 36:0.18181818 38:0.69230769 39:0.8 40:0.46826566 41:0.34375 46:0.2 50:0.33333333 51:0.85714286 53:0.2 54:0.14285714 55:0.16666667 57:0.14285714 58:0.33333333 59:0.125 60:0.33333333 61:0.2 
4 0:0.3431677 1:0.25688073 2:0.35555556 4:0.040178571 5:0.24657534 6:0.3968254 7:0.40357143 8:0.4122807 9:0.25317827 10:0.37206839 12:0.013960114 13:0.003005842 14:0.015217391 15:0.045009405 16:0.11764706 20:0.071334568 21:0.12238895 22:0.5439285 23:0.0075033323 24:0.10373541 25:0.048700956 27:0.34597107 28:0.40669141 29:0.26243533 30:0.4220576 32:0.0279218 33:0.0037827953 34:0.036722606 35:0.03868484 36:0.27272727 40:0.049608897 41:0.09375 42:0.1 45:0.14285714 47:0.18181818 54:0.14285714 56:0.33333333 57:0.14285714 61:0.4 
0.4348439438656637 0:0.77639752 1:0.67481053 2:0.7 4:0.16964286 5:0.80479452 6:1 7:0.19642857 8:0.087719298 9:0.8382714 10:0.26505233 11:0.58466108 12:0.45584046 13:0.26299439 14:0.071428571 15:0.367235 16:0.29411765 17:0.090909091 18:0.76923077 19:0.83333333 20:0.85569775 21:0.63502232 22:0.43552067 23:0.0075033323 25:0.70770493 26:0.77972638 27:0.44480461 28:0.23683577 29:0.78765445 30:0.37856297 31:0.5412046 32:0.4697359 33:0.231583 34:0.060052262 35:0.56540583 36:0.090909091 38:0.76923077 39:1 40:0.66869307 41:0.53125 42:0.1 45:0.28571429 49:0.6 51:0.71428571 54:0.42857143 55:0.33333333 56:0.33333333 57:0.14285714 58:0.33333333 59:0.25 61:0.2 
4 0:0.73913043 1:0.65877815 2:0.11111111 3:0.068965517 4:0.1875 5:0.83219178 6:0.92063492 7:0.45714286 8:0.4122807 9:0.79898407 10:0.42588254 11:0.49597859 12:0.18803419 13:0.15952603 14:0.01242236 15:0.2604575 16:0.23529412 18:0.61538462 19:0.66666667 20:0.71375512 21:0.55973968 22:0.25049064 24:0.18601611 25:0.84125084 26:1 27:0.31178118 28:0.35538245 29:0.76757639 30:0.40733781 31:0.41868042 32:0.47444801 33:0.012076001 34:0.10514053 35:0.46691447 36:0.27272727 37:0.2 38:0.61538462 39:0.8 40:0.51519804 41:0.5 42:0.2 44:0.28571429 46:0.4 47:0.18181818 49:0.2 50:0.33333333 51:0.57142857 55:0.16666667 57:0.28571429 58:0.66666667 59:0.125 
4 0:0.44409938 1:0.47804718 2:0.81111111 4:0.375 5:0.67123288 6:0.94444444 7:0.35 8:0.11403509 9:0.82527503 10:0.16955414 11:0.81362435 12:0.42450142 13:0.31353474 14:0.071428571 15:0.43414841 16:0.41176471 17:0.18181818 18:0.53846154 19:0.16666667 20:0.56650777 21:0.47338671 22:0.89577139 23:0.0075033323 24:0.010904148 25:0.58239929 26:0.77972638 27:0.39190288 28:0.021029984 29:0.77767301 30:0.31260108 31:0.59240614 32:0.53127743 33:0.32877461 34:0.075890111 35:0.42742404 36:0.18181818 37:0.2 38:0.53846154 39:0.2 40:0.50675353 41:0.46875 42:0.1 45:0.85714286 46:0.4 48:0.33333333 49:0.2 51:0.28571429 54:0.14285714 56:0.33333333 57:0.42857143 58:0.16666667 59:0.25 
4 0:0.74068323 1:0.73263434 2:0.7 4:0.32589286 5:0.7739726 6:0.97619048 7:0.62857143 8:0.3245614 9:0.88309852 10:0.38419849 11:0.68344701 12:0.44159544 13:0.63053987 14:0.20496894 15:0.28840483 16:0.17647059 18:0.46153846 19:0.5 20:0.52011007 21:0.60917697 22:0.43552067 23:0.0075033323 24:0.21585021 25:0.70135438 26:0.77972638 27:0.54566231 28:0.27521527 29:0.90097792 30:0.29716358 31:0.74915879 32:0.26629551 33:0.52406579 34:0.026370542 35:0.30505577 36:0.18181818 38:0.46153846 39:0.6 40:0.31371247 41:0.25 42:0.1 45:0.14285714 46:0.2 49:0.4 51:0.28571429 52:0.33333333 53:0.2 56:0.33333333 57:0.14285714 58:0.33333333 59:0.125 
2.74458432685503 0:0.25776398 1:0.30633601 2:0.45555556 3:0.068965517 4:0.26339286 5:0.33219178 6:0.58730159 7:0.20357143 8:0.1754386 9:0.4855223 10:0.075317886 11:0.67189554 12:0.17378917 13:0.208195 14:0.01863354 15:0.25988714 16:0.35294118 17:0.18181818 18:0.15384615 20:0.10131381 21:0.14128882 22:0.19356563 24:0.35527593 25:0.24607897 26:0.44692173 27:0.19044321 28:0.17769122 29:0.34867173 30:0.20125623 31:0.48598558 32:0.21731264 33:0.15540763 34:0.077259077 35:0.30041429 36:0.63636364 37:0.2 38:0.15384615 40:0.2729423 41:0.3125 42:0.1 45:0.14285714 47:0.27272727 50:0.66666667 51:0.14285714 53:0.4 54:0.14285714 55:0.16666667 58:0.33333333 59:0.125 61:0.2 
-4 0:0.51242236 1:0.50372706 2:0.14444444 3:0.068965517 5:0.56164384 6:0.92063492 7:0.66071429 8:0.33333333 9:0.38139868 10:0.53302267 12:0.013960114 13:0.003005842 14:0.015217391 15:0.16914022 16:0.058823529 18:0.23076923 19:0.16666667 20:0.2450476 21:0.46055043 22:0.015405408 24:0.29080325 25:0.54395473 26:0.71415226 27:0.61259084 28:0.49932068 29:0.30722752 30:0.46962556 32:0.0279218 33:0.0037827953 34:0.036722606 35:0.33965266 36:0.27272727 38:0.23076923 39:0.2 40:0.12100338 41:0.0625 48:0.66666667 50:0.33333333 51:0.28571429 59:0.125 61:0.4 
4 0:0.76552795 1:0.66852812 2:0.96666667 3:0.068965517 4:0.77008929 5:0.82191781 6:0.97619048 7:0.48571429 8:0.14035088 9:0.77189226 10:0.42352446 11:0.50497722 12:0.52706553 13:0.12588869 14:0.086956522 15:0.68694861 16:0.47058824 17:0.18181818 18:0.84615385 19:0.66666667 20:0.84409364 21:0.62723176 22:0.67324694 24:0.47416627 25:0.72947377 26:0.90881949 27:0.58757217 28:0.20329472 29:0.71648032 30:0.50562205 31:0.40690643 32:0.42701933 33:0.031503276 34:0.012027726 35:0.71526263 36:0.45454545 37:0.4 38:0.84615385 39:0.8 40:0.62016308 41:0.53125 42:0.2 44:0.28571429 45:0.28571429 46:0.4 47:0.090909091 49:0.4 50:0.66666667 51:0.57142857 53:0.4 54:0.14285714 59:0.375 
-4 0:0.24378882 1:0.21559633 2:0.11111111 3:0.068965517 4:0.36383929 5:0.26027397 6:0.57936508 7:0.23928571 8:0.14035088 9:0.46475621 10:0.031783714 11:0.478812 12:0.17948718 13:0.4990593 14:0.034161491 15:0.26050604 16:0.47058824 17:0.36363636 18:0.076923077 20:0.12122805 21:0.18085785 22:0.25049064 24:0.15931928 25:0.1251734 26:0.12404605 27:0.3634239 28:0.20329472 29:0.4004824 30:0.23100901 31:0.25165856 32:0.27704417 33:0.25305302 34:0.20217026 35:0.072030323 36:0.36363636 37:0.2 38:0.076923077 40:0.17198166 41:0.1875 42:0.2 44:0.14285714 45:0.28571429 49:0.2 50:0.33333333 52:0.33333333 53:0.6 55:0.16666667 
-0.5620730385016245 0:0.17546584 1:0.21834862 2:0.066666667 4:0.10044643 5:0.49657534 6:0.58730159 7:0.05 8:0.1754386 9:0.36376475 10:0.20505685 11:0.32697546 12:0.47863248 13:0.079991889 14:0.18944099 15:0.20177174 16:0.41176471 17:0.36363636 18:0.15384615 20:0.1266856 21:0.17019586 23:0.0075033323 24:0.21658753 25:0.25216714 26:0.17870353 27:0.3409179 28:0.31382641 29:0.39909763 30:0.23620812 31:0.22162035 32:0.47247683 33:0.083958145 34:0.28087638 35:0.17711008 36:0.36363636 38:0.15384615 40:0.25470465 41:0.28125 44:0.42857143 45:0.14285714 47:0.090909091 49:0.2 50:0.33333333 53:0.2 54:0.14285714 56:0.33333333 57:0.28571429 58:0.16666667 59:0.125 61:0.2 
4 0:0.41614907 1:0.47629969 2:0.42222222 4:0.46875 5:0.53424658 6:0.80952381 7:0.37142857 8:0.1754386 9:0.71321469 10:0.19860544 11:0.5550118 12:0.5954416 13:0.11840972 14:0.02173913 15:0.62123658 16:0.47058824 17:0.090909091 18:0.61538462 19:0.16666667 20:0.66878911 21:0.4487861 22:0.33435939 23:0.0075033323 24:0.029594822 25:0.54919362 26:0.90881949 27:0.47194364 28:0.31382641 29:0.63551808 30:0.25948364 31:0.48072476 32:0.45632322 33:0.11136675 34:0.07462576 35:0.57617175 36:0.18181818 38:0.61538462 39:0.2 40:0.65852646 41:0.65625 44:0.42857143 45:0.42857143 46:0.4 47:0.090909091 51:0.42857143 55:0.16666667 56:0.33333333 57:0.71428571 58:0.83333333 59:0.375 
4 0:0.70186335 1:0.64121887 2:0.35555556 3:0.068965517 4:0.34821429 5:0.7260274 6:1 7:0.45 8:0.1754386 9:0.87879408 10:0.23873346 11:0.92031009 12:0.3960114 13:0.60317321 14:0.01552795 15:0.54109581 16:0.23529412 17:0.090909091 18:0.69230769 19:0.5 20:0.60573247 21:0.50222869 22:0.5439285 24:0.51756142 25:0.55687071 26:0.77972638 27:0.31863581 28:0.30144492 29:0.70536474 30:0.15920203 31:0.67854581 32:0.65031523 33:0.24116462 34:0.13898294 35:0.68796327 36:0.45454545 38:0.69230769 39:0.6 40:0.5259456 41:0.46875 44:0.28571429 45:0.14285714 46:0.2 47:0.18181818 48:0.66666667 49:1 50:0.33333333 51:0.28571429 54:0.14285714 57:0.14285714 58:0.16666667 59:0.125 61:0.2 
4 0:0.48757764 1:0.50677648 2:0.92222222 3:0.068965517 4:0.72098214 5:0.68493151 6:0.92063492 7:0.40714286 8:0.1754386 9:0.78438177 10:0.26433583 11:0.61268357 12:0.67806268 13:0.29612789 14:0.16149068 15:0.64571325 16:0.52941176 17:0.18181818 18:0.53846154 19:0.16666667 20:0.63170473 21:0.50215027 22:1 24:0.014189574 25:0.52693694 26:0.71415226 27:0.45652148 28:0.17769122 29:0.79197623 30:0.31155059 31:0.61543272 32:0.70540743 33:0.31162152 34:0.070733827 35:0.45541173 36:0.27272727 37:0.4 38:0.53846154 39:0.2 40:0.49444986 41:0.5 42:0.2 44:0.42857143 45:0.42857143 47:0.090909091 49:0.4 50:0.33333333 51:0.57142857 53:0.2 55:0.16666667 57:0.42857143 59:0.125 
4 0:0.51552795 1:0.52178899 2:0.41111111 4:0.16964286 5:0.57534247 6:0.92063492 7:0.41071429 8:0.087719298 9:0.87249822 10:0.17413669 11:0.72407594 12:0.27065527 13:0.48718758 14:0.01552795 15:0.26491111 16:0.29411765 17:0.090909091 18:0.38461538 19:0.33333333 20:0.55502379 21:0.52585673 22:0.29229885 23:0.0075033323 24:0.18287629 25:0.62090656 26:1 27:0.43983149 28:0.34450181 29:0.87173169 30:0.29278512 31:0.75244311 32:0.25543565 33:0.40853779 34:0.001327515 35:0.4211923 36:0.27272727 38:0.46153846 39:0.4 40:0.42815943 41:0.375 42:0.1 45:0.28571429 51:0.57142857 52:0.33333333 53:0.4 54:0.14285714 56:0.33333333 57:0.28571429 58:0.33333333 59:0.125 60:0.33333333 
-1.679386659842648 0:0.81521739 1:0.6840367 2:0.81111111 3:0.068965517 4:0.59821429 5:0.88013699 6:1 7:0.40357143 8:0.1754386 9:0.82440603 10:0.31962046 11:0.56621446 12:0.27635328 13:0.063142597 14:0.040372671 15:0.64670833 16:0.41176471 17:0.18181818 18:0.92307692 19:0.83333333 20:0.81727233 21:0.56844353 22:0.89577139 24:0.60882448 25:0.65849712 26:1 27:0.33541921 28:0.38098594 29:0.81995254 30:0.33564407 31:0.6833461 32:0.31852973 33:0.23883989 34:0.0038887329 35:0.5698672 36:0.45454545 37:0.2 38:0.84615385 39:1 40:0.641015 41:0.59375 42:0.1 43:0.5 44:0.42857143 45:0.14285714 46:0.4 47:0.27272727 49:0.8 50:0.33333333 51:0.42857143 53:0.2 54:0.28571429 55:0.16666667 59:0.25 
-2.428845820344274 0:0.55745342 1:0.55865007 2:0.92222222 4:0.43303571 5:0.70205479 6:0.88888889 7:0.41071429 8:0.1754386 9:0.8342694 10:0.1940229 11:0.86420016 12:0.28774929 13:0.68755822 14:0.065217391 15:0.40759663 16:0.29411765 17:0.090909091 18:0.46153846 19:0.33333333 20:0.60361156 21:0.70127512 22:1 23:0.0075033323 24:0.4040604 25:0.78671371 26:1 27:0.60292648 28:0.51023314 29:0.84568316 30:0.31798503 31:0.73464663 32:0.42050135 33:0.62390325 34:0.052616388 35:0.40004482 36:0.27272727 38:0.53846154 39:0.4 40:0.33661846 41:0.25 44:0.14285714 45:0.14285714 46:0.2 49:0.4 51:0.42857143 53:0.4 56:0.33333333 58:0.16666667 60:0.33333333 61:0.2 
4 0:0.76086957 1:0.7243406 2:0.41111111 4:0.39955357 5:0.8390411 6:0.97619048 7:0.61071429 8:0.4122807 9:0.82751989 10:0.50912232 11:0.72728164 12:0.17378917 13:0.4605442 14:0.02484472 15:0.41461076 16:0.23529412 18:0.53846154 19:0.66666667 20:0.58898414 21:0.61193122 22:0.29229885 23:0.0075033323 24:0.023885333 25:0.82505313 26:0.77972638 27:0.59034321 28:0.40669141 29:0.65427553 30:0.57648178 31:0.28713505 32:0.15915142 33:0.17968259 34:0.005491484 35:0.16566989 36:0.090909091 38:0.53846154 39:0.8 40:0.36184825 41:0.3125 42:0.2 44:0.42857143 49:0.4 51:0.28571429 56:0.33333333 57:0.28571429 59:0.375 61:0.2 
4 0:0.61024845 1:0.65137615 2:0.41111111 3:0.068965517 4:0.09375 5:0.61643836 6:0.76190476 7:0.78571429 8:0.66666667 9:0.57598583 10:0.77728671 12:0.013960114 13:0.003005842 14:0.015217391 15:0.18108125 16:0.058823529 18:0.15384615 20:0.12926101 21:0.22177354 22:0.29229885 24:0.16276085 25:0.19165603 26:0.22033856 27:0.45561128 28:0.41394543 29:0.30994114 30:0.47250734 32:0.0279218 33:0.0037827953 34:0.036722606 35:0.14341545 36:0.18181818 38:0.15384615 40:0.097682428 41:0.09375 42:0.3 48:0.33333333 50:0.33333333 57:0.14285714 58:0.16666667 59:0.25 
4 0:0.57453416 1:0.56061599 2:1 4:0.91517857 5:0.58219178 6:0.94444444 7:0.51428571 8:0.1754386 9:0.76495746 10:0.37393726 11:0.63485655 12:0.53846154 13:0.23086784 14:0.034161491 15:0.7818579 16:0.52941176 17:0.27272727 18:0.61538462 19:0.16666667 20:0.66242056 21:0.54391152 22:0.74820483 23:0.0075033323 24:0.42638172 25:0.63406295 26:0.77972638 27:0.43679015 28:0.40658943 29:0.75948132 30:0.32775212 31:0.45837407 32:0.49853441 33:0.2532046 34:0.06031891 35:0.69470045 36:0.45454545 37:0.2 38:0.61538462 39:0.2 40:0.51046746 41:0.46875 42:0.2 44:0.28571429 45:0.28571429 47:0.090909091 49:0.6 51:0.57142857 53:0.6 55:0.16666667 56:0.33333333 58:0.16666667 59:0.125 
-0.7090674402486394 0:0.18478261 1:0.1796048 2:0.96666667 3:0.068965517 4:0.29464286 5:0.26027397 6:1 7:0.05 8:0.1754386 9:0.36302782 10:0.045825445 11:0.42543634 12:0.34757835 13:0.4267225 14:0.10869565 15:0.20256052 16:0.58823529 17:0.72727273 18:0.23076923 19:0.16666667 20:0.16328448 21:0.22455067 22:0.67324694 24:0.083800972 25:0.16622874 26:0.55945276 27:0.25902044 28:0.45989557 29:0.35771958 30:0.29781495 31:0.30358295 32:0.2974661 33:0.2250187 34:0.028540494 35:0.10146423 36:0.090909091 38:0.23076923 39:0.2 40:0.25372949 41:0.21875 45:0.42857143 49:0.4 50:0.33333333 55:1 59:0.125 
4 0:0.73913043 1:0.65877815 2:0.92222222 3:0.068965517 4:0.54910714 5:0.65410959 6:0.88888889 7:0.52857143 8:0.1754386 9:0.70273154 10:0.32054552 11:0.50369038 12:0.54131054 13:0.24399229 14:0.052795031 15:0.6220739 16:0.35294118 17:0.090909091 18:0.61538462 19:0.33333333 20:0.7353557 21:0.57490067 22:1 24:0.24029998 25:0.71125518 26:1 27:0.40182281 28:0.39980342 29:0.69891797 30:0.34559157 31:0.487923 32:0.62749875 33:0.13098607 34:0.042786641 35:0.40284019 36:0.36363636 38:0.69230769 39:0.6 40:0.58260888 41:0.5 42:0.4 44:0.14285714 45:0.14285714 46:0.2 49:0.4 50:0.33333333 51:0.42857143 53:0.6 54:0.14285714 58:0.33333333 59:0.25 60:0.33333333 
4 0:0.59161491 1:0.58067998 2:0.42222222 4:0.42410714 5:0.66780822 6:0.94444444 7:0.43928571 8:0.1754386 9:0.74501559 10:0.31051688 11:0.56278261 12:0.53846154 13:0.29639389 14:0.13043478 15:0.45949882 16:0.29411765 17:0.090909091 18:0.53846154 19:0.33333333 20:0.67387837 21:0.65889627 22:0.33435939 23:0.0075033323 24:0.14664128 25:0.68569917 26:1 27:0.52785757 28:0.2941909 29:0.81232428 30:0.49501662 31:0.60427906 32:0.49370327 33:0.3269739 34:0.02226502 35:0.51424261 36:0.18181818 38:0.53846154 39:0.4 40:0.40890512 41:0.34375 44:0.42857143 49:0.2 51:0.71428571 53:0.2 54:0.14285714 56:0.33333333 57:0.28571429 58:0.16666667 59:0.125 61:0.2 
4 0:0.74689441 1:0.66346956 2:0.96666667 3:0.068965517 4:0.48883929 5:0.64383562 6:0.92063492 7:0.51428571 8:0.4122807 9:0.7043034 10:0.36960604 11:0.48316202 12:0.47863248 13:0.1220807 14:0.0062111801 15:0.45955949 16:0.23529412 18:0.69230769 19:0.66666667 20:0.72401065 21:0.56693783 22:0.67324694 24:0.4623978 25:0.76945537 26:1 27:0.27369217 28:0.44601851 29:0.85697027 30:0.31965539 31:0.64672773 32:0.27442873 33:0.1523829 34:0.0040233139 35:0.61704312 36:0.45454545 38:0.69230769 39:0.6 40:0.54905907 41:0.5 42:0.1 43:0.5 44:0.14285714 47:0.18181818 49:0.2 50:0.33333333 51:0.71428571 53:0.4 54:0.28571429 57:0.28571429 59:0.25 60:0.33333333 61:0.2 
-0.2071412809065585 0:0.6552795 1:0.67144495 2:0.92222222 4:0.040178571 5:0.72945205 6:0.81746032 7:0.68928571 8:0.39473684 9:0.80445993 10:0.42432651 11:0.58483975 12:0.54415954 13:0.35349441 14:0.57142857 15:0.25563983 16:0.058823529 18:0.38461538 19:0.16666667 20:0.20678372 21:0.29094896 22:1 23:0.0075033323 24:0.30827901 25:0.27571602 26:0.28591268 27:0.39960111 28:0.40669141 29:0.61795134 30:0.26886306 31:0.48479501 32:0.71255914 33:0.14460342 34:0.7292395 35:0.35560719 36:0.27272727 38:0.23076923 40:0.20385086 41:0.1875 42:0.2 43:1 48:0.66666667 49:0.2 51:0.14285714 56:0.33333333 57:0.14285714 59:0.125 61:0.2 
3.918982578764232 0:0.30434783 1:0.30187015 2:0.45555556 4:0.25 5:0.25 6:0.58730159 7:0.225 8:0.1754386 9:0.45137855 10:0.20318798 11:0.20940975 12:0.43304843 13:0.22811165 14:0.44720497 15:0.25971725 16:0.35294118 17:0.18181818 18:0.15384615 20:0.15145999 21:0.2105056 22:0.19356563 23:0.0075033323 24:0.37282681 25:0.22829132 26:0.3189202 27:0.21292046 28:0.18457921 29:0.44416024 30:0.21125748 31:0.3040259 32:0.47038098 33:0.1940053 34:0.46766438 35:0.22095607 36:0.45454545 37:0.2 38:0.15384615 40:0.16608918 41:0.21875 42:0.1 44:0.14285714 45:0.28571429 47:0.18181818 51:0.14285714 53:0.4 56:0.33333333 57:0.14285714 58:0.16666667 59:0.125 
-4 0:0.57142857 1:0.5940367 2:0.42222222 4:0.09375 5:0.81164384 6:0.78571429 7:0.48928571 8:0.11403509 9:0.38860099 10:0.54206368 12:0.013960114 13:0.003005842 14:0.015217391 15:0.14835265 16:0.11764706 18:0.23076923 20:0.16450063 21:0.28223427 22:0.33435939 23:0.0075033323 24:0.18179152 25:0.37753654 26:0.28591268 27:0.35430759 28:0.021029984 29:0.1641016 30:0.31763015 32:0.0279218 33:0.0037827953 34:0.036722606 35:0.134857 36:0.27272727 37:0.2 38:0.23076923 40:0.10268274 41:0.09375 42:0.1 44:0.14285714 47:0.090909091 48:0.33333333 49:0.4 56:0.33333333 58:0.16666667 59:0.125 
-4 0:0.38975155 1:0.32568807 2:0.45555556 4:0.25446429 5:0.26712329 6:0.55555556 7:0.38571429 8:0.087719298 9:0.29842496 10:0.42886628 12:0.013960114 13:0.003005842 14:0.015217391 15:0.20464778 16:0.23529412 17:0.090909091 18:0.15384615 20:0.18588822 21:0.31892904 22:0.19356563 23:0.0075033323 24:0.15714296 25:0.16265331 26:0.46192108 27:0.5034095 28:0.34450181 29:0.14540762 30:0.2977777 32:0.0279218 33:0.0037827953 34:0.036722606 35:0.28888105 36:0.27272727 38:0.15384615 40:0.057783679 41:0.09375 44:0.14285714 45:0.14285714 47:0.18181818 51:0.28571429 55:0.16666667 56:0.33333333 57:0.14285714 
4 0:0.65217391 1:0.59483063 2:1 3:0.068965517 4:0.37946429 5:0.81849315 6:0.92063492 7:0.44285714 8:0.1754386 9:0.73077964 10:0.33658443 11:0.50373956 12:0.22792023 13:0.12165544 14:2.7503871e-16 15:0.48262848 16:0.35294118 17:0.090909091 18:0.69230769 19:0.5 20:0.74589438 21:0.50801443 22:0.74820483 24:0.18883315 25:0.86064605 26:1 27:0.3591948 28:0.28730292 29:0.74094102 30:0.31596186 31:0.52334458 32:0.33728616 33:0.11287166 34:0.018524842 35:0.47635872 36:0.36363636 38:0.69230769 39:0.6 40:0.71572919 41:0.625 42:0.2 44:0.14285714 45:0.28571429 46:0.2 47:0.090909091 49:0.6 50:0.66666667 51:0.42857143 53:0.2 54:0.42857143 57:0.14285714 58:0.33333333 59:0.25 61:0.4 
4 0:0.55745342 1:0.54759174 2:0.41111111 3:0.068965517 4:0.59821429 5:0.55136986 6:0.94444444 7:0.28214286 8:0.14035088 9:0.69882753 10:0.28686891 11:0.50611816 12:0.59259259 13:0.14893033 14:0.043478261 15:0.4954311 16:0.52941176 17:0.36363636 18:0.69230769 19:0.66666667 20:0.74220825 21:0.53968925 22:0.29229885 24:0.19666339 25:0.61812761 26:1 27:0.43947769 28:0.33761383 29:0.85267125 30:0.3526714 31:0.63461702 32:0.3995561 33:0.41821366 34:0.0078524442 35:0.56403254 36:0.27272727 38:0.61538462 39:0.6 40:0.60545262 41:0.5625 42:0.1 43:0.5 44:0.42857143 45:0.42857143 46:0.2 47:0.090909091 49:0.2 50:0.66666667 51:0.71428571 52:0.33333333 55:0.16666667 57:0.14285714 58:0.33333333 59:0.125 
-4 1:0.16163689 2:0.42222222 3:0.068965517 4:0.1875 5:0.31506849 6:0.56349206 7:0.11428571 8:0.14035088 9:0.59430264 10:0.045825445 11:0.60960557 12:0.49287749 13:0.39221156 14:0.26086957 15:0.31676476 16:0.58823529 17:0.54545455 18:0.23076923 20:0.16905126 21:0.18973417 22:0.33435939 24:0.16140037 25:0.2579986 26:0.17870353 27:0.29587481 28:0.20329472 29:0.49757904 30:0.21209628 31:0.46046969 32:0.42589307 33:0.063793938 34:0.14438833 35:0.21467233 36:0.45454545 37:0.2 38:0.23076923 40:0.43143764 41:0.40625 44:0.28571429 45:0.71428571 48:0.66666667 49:0.2 50:0.33333333 53:0.4 54:0.28571429 58:0.16666667 59:0.25 61:0.2 
2.818059742579631 0:0.70186335 1:0.60848624 2:0.96666667 3:0.068965517 4:0.78348214 5:0.88013699 6:0.97619048 7:0.35 8:0.1754386 9:0.74653844 10:0.16726287 11:0.62445263 12:0.72364672 13:0.19265686 14:0.027950311 15:0.77784115 16:0.52941176 17:0.18181818 18:0.76923077 19:0.33333333 20:0.72516589 21:0.44287097 22:0.67324694 24:0.45338178 25:0.50660081 26:0.5061863 27:0.22925059 28:0.35538245 29:0.57408108 30:0.24204773 31:0.4454091 32:0.54039714 33:0.21155458 34:0.017862888 35:0.64125939 36:0.63636364 37:0.4 38:0.76923077 39:0.4 40:0.72936075 41:0.75 42:0.4 44:0.14285714 45:0.42857143 46:0.2 47:0.27272727 49:0.6 50:0.33333333 51:0.28571429 53:0.6 55:0.16666667 57:0.42857143 59:0.5 61:0.2 
4 0:0.82142857 1:0.63699479 2:0.42222222 3:0.068965517 4:0.45089286 5:0.69178082 6:0.92063492 7:0.37857143 8:0.1754386 9:0.80678786 10:0.37448268 11:0.61760911 12:0.38461538 13:0.024803608 14:3.2895719e-16 15:0.61512044 16:0.29411765 17:0.090909091 18:0.84615385 19:0.5 20:0.89598963 21:0.44919124 22:0.33435939 24:0.457464 25:0.75796021 26:0.90881949 27:0.13775394 28:0.28246929 29:0.88549559 30:0.1649882 31:0.6620453 32:0.53265804 33:0.0014253726 35:0.80642009 36:0.81818182 37:0.6 38:0.84615385 39:0.6 40:0.95348258 41:0.96875 42:0.5 45:0.14285714 46:0.4 47:0.45454545 48:0.33333333 49:0.2 50:0.33333333 51:0.71428571 52:0.33333333 53:0.4 54:0.57142857 55:0.16666667 57:0.28571429 58:0.33333333 59:0.375 61:0.2 
4 0:0.45186335 1:0.42889908 2:0.11111111 4:0.040178571 5:0.58219178 6:0.88888889 7:0.34642857 8:0.20175439 9:0.43661011 10:0.51072112 12:0.013960114 13:0.003005842 14:0.015217391 15:0.096341241 16:0.17647059 18:0.15384615 19:0.16666667 20:0.20811333 21:0.33130039 22:0.38492102 23:0.0075033323 24:0.028386433 25:0.47858935 26:1 27:0.30453973 28:0.24408979 29:0.33450534 30:0.40066092 32:0.0279218 33:0.0037827953 34:0.036722606 35:0.13670344 36:0.18181818 38:0.15384615 39:0.2 40:0.12436459 41:0.125 42:0.2 44:0.14285714 48:0.33333333 51:0.28571429 55:0.16666667 56:0.33333333 57:0.14285714 58:0.16666667 
-4 0:0.47826087 1:0.47018349 2:0.42222222 5:0.69520548 6:0.73015873 7:0.18214286 8:0.1754386 9:0.58482477 10:0.41282738 11:0.37661246 12:0.36182336 13:0.41843347 14:0.39440994 15:0.081536315 16:0.17647059 17:0.090909091 18:0.15384615 20:0.18897967 21:0.28336473 22:0.33435939 23:0.0075033323 24:0.11241623 25:0.35417981 26:0.5061863 27:0.26217934 28:0.2941909 29:0.54228386 30:0.22754342 31:0.46306415 32:0.38528311 33:0.53974489 34:0.47367361 35:0.15665904 36:0.27272727 38:0.15384615 40:0.14922091 41:0.15625 42:0.2 44:0.14285714 47:0.090909091 51:0.14285714 53:0.2 54:0.14285714 56:0.33333333 58:0.33333333 59:0.125 
4 0:0.44099379 1:0.49008847 2:0.11111111 3:0.068965517 4:0.66517857 5:0.8630137 6:0.92063492 7:0.10357143 8:0.087719298 9:0.69702139 10:0.045825445 11:0.9864741 12:0.3019943 13:0.080092683 14:0.01863354 15:0.5685456 16:0.58823529 17:0.36363636 18:0.61538462 19:0.33333333 20:0.70382954 21:0.45563403 22:0.38492102 24:0.20951757 25:0.66352423 26:1 27:0.26534184 28:0.33761383 29:0.64024612 30:0.28749714 31:0.58143141 32:0.61700138 33:0.087939264 34:0.14255765 35:0.50262837 36:0.36363636 38:0.61538462 39:0.4 40:0.74392597 41:0.6875 42:0.4 44:0.42857143 45:0.57142857 48:0.33333333 49:0.6 50:0.33333333 51:0.42857143 53:0.2 54:0.28571429 56:0.33333333 57:0.14285714 59:0.25 61:0.4 
4 0:0.73291925 1:0.80252294 2:0.92222222 3:1 5:0.60958904 6:0.88888889 7:0.83214286 8:0.57894737 9:0.71493776 10:0.92356723 12:0.013960114 13:0.003005842 14:0.015217391 15:0.077920029 18:0.38461538 19:0.33333333 20:0.51587706 21:0.80652851 22:1 23:0.67324694 25:0.73552907 26:1 27:0.84502072 28:0.53665457 29:0.86972064 30:0.84602947 32:0.0279218 33:0.0037827953 34:0.036722606 35:0.21897149 38:0.38461538 39:0.4 40:0.17478266 41:0.125 46:0.2 51:0.42857143 54:0.14285714 57:0.42857143 59:0.125 61:0.2 
-4 0:0.38819876 1:0.34426606 2:0.11111111 4:0.25 5:0.27739726 6:0.55555556 7:0.39642857 8:0.20175439 9:0.37289118 10:0.47246196 12:0.013960114 13:0.003005842 14:0.015217391 15:0.27579637 16:0.23529412 18:0.23076923 20:0.19411975 21:0.30969243 22:0.22145646 23:0.0075033323 24:0.2033233 25:0.34049491 26:0.50984233 27:0.29645671 28:0.35175583 29:0.38657405 30:0.41610195 32:0.0279218 33:0.0037827953 34:0.036722606 35:0.19147562 36:0.27272727 38:0.23076923 40:0.15181443 41:0.125 45:0.28571429 46:0.2 48:0.33333333 53:0.2 56:0.33333333 57:0.14285714 59:0.25 61:0.2 
4 0:0.83385093 1:0.75688073 2:0.92222222 3:0.068965517 4:0.65625 5:0.70547945 6:0.94444444 7:0.69285714 8:0.4122807 9:0.93397229 10:0.43985746 11:0.63123427 12:0.58689459 13:0.45365732 14:0.02484472 15:0.56532977 16:0.29411765 18:0.69230769 19:0.66666667 20:0.67087188 21:0.6252372 22:1 24:0.36424784 25:0.82066444 26:0.90881949 27:0.46974041 28:0.49827507 29:0.91629234 30:0.3767678 31:0.60389059 32:0.39387762 33:0.3569822 34:0.02002279 35:0.37009845 36:0.27272727 38:0.69230769 39:0.8 40:0.44795319 41:0.375 42:0.2 44:0.14285714 46:0.2 49:0.2 50:0.33333333 51:0.42857143 53:0.4 55:0.16666667 57:0.28571429 59:0.5 
4 0:0.66925466 1:0.62988894 2:0.11111111 4:0.16741071 5:0.8869863 6:0.97619048 7:0.50357143 8:0.1754386 9:0.84826684 10:0.5473387 11:0.4201668 12:0.24501425 13:0.32150938 14:0.027950311 15:0.2469389 16:0.29411765 17:0.18181818 18:0.38461538 19:0.16666667 20:0.4487982 21:0.41708495 22:0.22145646 23:0.0075033323 24:0.32605871 25:0.47034935 26:0.49387864 27:0.44372436 28:0.44601851 29:0.67217914 30:0.38950724 31:0.41845386 32:0.29518388 33:0.047119318 34:0.029349189 35:0.44660021 36:0.36363636 38:0.38461538 39:0.2 40:0.36674482 41:0.40625 42:0.4 44:0.14285714 45:0.14285714 47:0.18181818 49:0.4 51:0.28571429 52:0.33333333 53:0.2 55:0.16666667 56:0.33333333 57:0.28571429 59:0.125 
4 0:0.58695652 1:0.55844669 2:0.7 4:0.61607143 5:0.71232877 6:0.92063492 7:0.31071429 8:0.1754386 9:0.78686091 10:0.10768979 11:0.81053941 12:0.53846154 13:0.41684304 14:0.0031055901 15:0.76827862 16:0.52941176 17:0.27272727 18:0.76923077 19:0.5 20:0.80143078 21:0.49532079 22:0.43552067 23:0.0075033323 24:0.23627648 25:0.52482555 26:0.71415226 27:0.59933094 28:0.40669141 29:0.6758771 30:0.29795421 31:0.72942249 32:0.73187827 33:0.19163259 34:0.065256105 35:0.93576086 36:0.27272727 38:0.69230769 39:0.2 40:0.75139532 41:0.71875 42:0.4 43:0.5 44:0.14285714 45:0.71428571 46:0.2 48:0.33333333 51:0.71428571 53:0.2 54:0.14285714 55:0.16666667 56:0.33333333 57:0.42857143 58:0.16666667 59:0.375 
-4 0:0.64440994 1:0.58302752 2:0.42222222 3:0.068965517 4:0.140625 5:0.95547945 6:0.97619048 7:0.13571429 8:0.14035088 9:0.84704641 10:0.21508549 11:0.58834169 12:0.25356125 13:0.0010890912 14:0.0093167702 15:0.29812511 16:0.47058824 17:0.36363636 18:0.69230769 19:0.66666667 20:0.76337345 21:0.46253682 22:0.33435939 24:0.33894176 25:0.69605235 26:1 27:0.2835317 28:0.33761383 29:0.77720085 30:0.28196764 31:0.55121941 32:0.26251858 33:0.17135131 34:0.0094467887 35:0.41840785 36:0.36363636 38:0.69230769 39:0.8 40:0.77390709 41:0.75 42:0.3 44:0.28571429 45:0.42857143 47:0.27272727 49:0.8 50:0.33333333 51:0.57142857 54:0.14285714 55:0.33333333 58:1 59:0.125 
4 0:0.49534161 1:0.51146789 2:0.42222222 3:0.068965517 4:0.61383929 5:0.60273973 6:0.94444444 7:0.25357143 8:0.14035088 9:0.77101904 10:0.23600104 11:0.68036551 12:0.64957265 13:0.3155665 14:0.31055901 15:0.51968934 16:0.47058824 17:0.090909091 18:0.53846154 19:0.33333333 20:0.60575367 21:0.48393578 22:0.33435939 24:0.11152346 25:0.59290473 26:0.81763898 27:0.34454281 28:0.33761383 29:0.73630262 30:0.20777068 31:0.6423391 32:0.43299595 33:0.28293778 34:0.0087988342 35:0.36667563 36:0.36363636 38:0.53846154 39:0.4 40:0.52669253 41:0.5 42:0.2 44:0.28571429 45:0.57142857 46:0.6 47:0.090909091 48:0.33333333 49:0.6 50:0.33333333 51:0.14285714 52:0.33333333 53:0.2 58:0.33333333 
1.047491398547872 0:0.72670807 1:0.67775229 2:0.7 3:0.068965517 4:0.41964286 5:0.81506849 6:0.97619048 7:0.625 8:0.14035088 9:0.97288904 10:0.11885206 11:0.94839483 12:0.45014245 13:0.53856583 14:0.0093167702 15:0.44191493 16:0.29411765 17:0.18181818 18:0.53846154 19:0.5 20:0.57377237 21:0.54194023 22:0.43552067 24:0.14247579 25:0.73645842 26:1 27:0.52877062 28:0.33761383 29:0.97692615 30:0.19805843 31:0.82506143 32:0.2437908 33:0.43412509 34:0.0026633269 35:0.3240451 36:0.27272727 38:0.53846154 39:0.6 40:0.42726726 41:0.375 42:0.3 44:0.14285714 45:0.14285714 47:0.090909091 49:0.4 50:0.33333333 51:0.42857143 53:0.2 54:0.28571429 55:0.16666667 59:0.25 
-4 0:0.64130435 1:0.69724771 2:0.96666667 4:0.040178571 5:0.71232877 6:0.76984127 7:0.72857143 8:0.42105263 9:0.60959287 10:0.81947341 12:0.013960114 13:0.003005842 14:0.015217391 15:0.11130393 16:0.11764706 18:0.23076923 20:0.21493388 21:0.36876276 22:0.67324694 23:0.0075033323 24:0.10751266 25:0.26013855 26:0.29171937 27:0.56592142 28:0.40669141 29:0.36012695 30:0.52580315 32:0.0279218 33:0.0037827953 34:0.036722606 35:0.060259008 36:0.18181818 38:0.23076923 40:0.10869971 41:0.09375 42:0.1 44:0.14285714 47:0.090909091 52:0.33333333 56:0.33333333 58:0.16666667 59:0.375 
4 0:0.32919255 1:0.37547221 2:0.42222222 3:0.068965517 4:0.27232143 5:0.54109589 6:0.86507937 7:0.11785714 8:0.1754386 9:0.79036027 10:0.16726287 11:0.78491667 12:0.27350427 13:0.48356565 14:5.2091849e-17 15:0.28635398 16:0.41176471 17:0.18181818 18:0.30769231 19:0.16666667 20:0.44944742 21:0.4550426 22:0.33435939 24:0.13245171 25:0.72189226 26:0.72416917 27:0.33159481 28:0.4332425 29:0.82588989 30:0.43407754 31:0.60620246 32:0.34600429 33:0.32688503 34:0.03217711 35:0.34446013 36:0.18181818 38:0.38461538 39:0.4 40:0.38153827 41:0.34375 42:0.1 44:0.28571429 45:0.28571429 46:0.2 49:0.2 50:0.33333333 51:0.28571429 53:0.2 54:0.14285714 55:0.16666667 57:0.14285714 58:0.33333333 60:0.33333333 
4 0:0.5326087 1:0.53390507 2:1 3:0.068965517 4:0.37723214 5:0.78082192 6:0.97619048 7:0.29285714 8:0.14035088 9:0.84250769 10:0.34369083 11:0.70885307 12:0.2962963 13:0.23556384 14:0.052795031 15:0.41345792 16:0.47058824 17:0.27272727 18:0.46153846 19:0.33333333 20:0.5670218 21:0.44121621 22:0.74820483 24:0.2476202 25:0.69647682 26:0.90881949 27:0.29596542 28:0.35335347 29:0.73952604 30:0.34182441 31:0.53380102 32:0.46130417 33:0.1465825 34:0.054772864 35:0.31695873 36:0.36363636 38:0.53846154 39:0.4 40:0.56107227 41:0.53125 42:0.4 44:0.28571429 45:0.28571429 46:0.2 47:0.090909091 49:0.4 50:0.33333333 51:0.14285714 52:0.33333333 53:0.4 54:0.28571429 55:0.16666667 59:0.25 60:0.33333333 
-4 0:0.38509317 1:0.2921445 2:0.11111111 3:0.068965517 4:0.14285714 5:0.36643836 6:0.57142857 7:0.41428571 8:0.14035088 9:0.38139868 10:0.53302267 12:0.013960114 13:0.003005842 14:0.015217391 15:0.11012681 16:0.23529412 17:0.090909091 18:0.076923077 20:0.16990321 21:0.31550926 22:0.36777524 24:0.023885333 25:0.33141825 26:0.50984233 27:0.3339892 28:0.20329472 29:0.30722752 30:0.46962556 32:0.0279218 33:0.0037827953 34:0.036722606 35:0.038929679 36:0.18181818 37:0.2 38:0.076923077 40:0.064941801 41:0.0625 42:0.2 45:0.28571429 46:0.2 50:0.33333333 53:0.2 61:0.2 
4 0:0.51242236 1:0.51875337 2:0.45555556 3:0.068965517 4:0.39508929 5:0.60616438 6:0.94444444 7:0.38928571 8:0.1754386 9:0.8548992 10:0.18048382 11:0.81804572 12:0.13390313 13:0.396544 14:0.0031055901 15:0.36961349 16:0.35294118 17:0.090909091 18:0.38461538 19:0.33333333 20:0.55147751 21:0.54771791 22:0.19356563 24:0.3132577 25:0.57135871 26:0.77972638 27:0.45650263 28:0.49932068 29:0.79562955 30:0.29456094 31:0.60060455 32:0.26353634 33:0.2700503 34:0.038741996 35:0.39218524 36:0.27272727 38:0.38461538 39:0.4 40:0.36759549 41:0.34375 42:0.2 44:0.42857143 45:0.14285714 47:0.090909091 49:0.4 50:0.33333333 51:0.42857143 53:0.2 58:0.16666667 61:0.4 
-0.7095760548500533 0:0.39906832 1:0.37447873 2:0.11111111 4:0.084821429 5:0.69520548 6:0.94444444 7:0.13571429 8:0.14035088 9:0.53693279 10:0.29713015 11:0.44372213 12:0.23931624 13:0.49245972 14:0.26086957 15:0.095734482 16:0.29411765 17:0.27272727 18:0.15384615 19:0.16666667 20:0.20080922 21:0.29997055 22:0.36777524 23:0.0075033323 24:0.15073991 25:0.43694113 26:0.77972638 27:0.332026 28:0.30693843 29:0.54429365 30:0.34082659 31:0.48807623 32:0.11205299 33:0.5686945 34:0.13959107 35:0.17714873 36:0.18181818 38:0.15384615 39:0.2 40:0.16795651 41:0.15625 42:0.2 44:0.14285714 45:0.28571429 49:0.2 50:0.33333333 51:0.14285714 56:0.33333333 58:0.33333333 
-4 0:0.58385093 1:0.6043578 2:1 4:0.32142857 5:0.52739726 6:0.97619048 7:0.43571429 8:0.1754386 9:0.92740807 10:0.40246186 12:0.013960114 13:0.003005842 14:0.015217391 15:0.2757721 16:0.23529412 17:0.090909091 18:0.30769231 19:0.16666667 20:0.24003497 21:0.38059164 22:0.74820483 23:0.0075033323 24:0.18785457 25:0.33349501 26:0.49387864 27:0.41857695 28:0.40669141 29:0.62397065 30:0.38238958 32:0.0279218 33:0.0037827953 34:0.036722606 35:0.09716854 36:0.27272727 38:0.30769231 39:0.2 40:0.14141959 41:0.125 42:0.1 44:0.14285714 45:0.14285714 47:0.090909091 49:0.2 53:0.2 56:0.33333333 59:0.375 
0.2751829839914371 0:0.38819876 1:0.36134279 2:0.7 4:0.15625 5:0.30821918 6:0.76190476 7:0.16071429 8:0.1754386 9:0.59470306 10:0.15507127 11:0.57933509 12:0.39031339 13:0.6420495 14:0.42546584 15:0.15251502 16:0.29411765 17:0.18181818 18:0.15384615 20:0.1638412 21:0.24807641 22:0.43552067 23:0.0075033323 24:0.13717097 25:0.1420815 26:0.41500579 27:0.31881505 28:0.38098594 29:0.42234141 30:0.37026923 31:0.26610322 32:0.31433614 33:0.31177735 34:0.3869257 35:0.16201981 36:0.27272727 37:0.2 38:0.15384615 40:0.12208229 41:0.15625 42:0.2 44:0.14285714 45:0.14285714 46:0.2 47:0.090909091 53:0.2 55:0.16666667 56:0.33333333 57:0.14285714 59:0.125 
-4 0:0.39285714 1:0.38073394 2:0.11111111 4:0.20982143 5:0.44863014 6:0.52380952 7:0.50357143 8:0.1754386 9:0.58936349 10:0.35066893 11:0.34343588 12:0.2022792 13:0.31621514 14:0.027950311 15:0.21109156 16:0.23529412 17:0.090909091 18:0.15384615 20:0.19597568 21:0.27704142 22:0.36777524 23:0.0075033323 24:0.047770667 25:0.14896004 26:0.44692173 27:0.21212469 28:0.35538245 29:0.44661241 30:0.22851425 31:0.27581292 32:0.098791265 33:0.16972814 34:0.030993072 35:0.27360115 36:0.27272727 37:0.2 38:0.15384615 40:0.12486254 41:0.1875 42:0.1 45:0.28571429 47:0.18181818 51:0.28571429 55:0.16666667 56:0.33333333 57:0.42857143 
4 0:0.63975155 1:0.62981651 2:0.11111111 3:0.068965517 4:0.265625 5:0.80821918 6:0.88888889 7:0.48571429 8:0.14035088 9:0.83548982 10:0.61140878 11:0.43992125 12:0.42165242 13:0.085292729 14:0.24223602 15:0.25553061 16:0.29411765 17:0.18181818 18:0.46153846 19:0.5 20:0.57055334 21:0.62712307 22:0.38492102 24:0.25783846 25:0.96659178 26:1 27:0.52279846 28:0.20329472 29:0.80840139 30:0.64457343 31:0.3329729 32:0.34386058 33:0.099947617 34:0.18693008 35:0.316664 36:0.36363636 37:0.2 38:0.46153846 39:0.6 40:0.31199037 41:0.28125 42:0.2 44:0.14285714 45:0.14285714 46:0.2 47:0.090909091 49:0.2 50:0.33333333 51:0.57142857 53:0.4 58:0.16666667 
4 0:0.39130435 1:0.44462647 2:0.92222222 4:0.55357143 5:0.72945205 6:0.80952381 7:0.31071429 8:0.1754386 9:0.71500591 10:0.17413669 11:0.69958092 12:0.35327635 13:0.41817368 14:0.055900621 15:0.50584309 16:0.58823529 17:0.45454545 18:0.46153846 19:0.16666667 20:0.62158686 21:0.51388644 22:1 23:0.0075033323 24:0.023885333 25:0.61349113 26:0.90881949 27:0.47396246 28:0.40669141 29:0.65788173 30:0.40062479 31:0.52339653 32:0.42131493 33:0.11426619 34:0.0011050407 35:0.37866519 36:0.090909091 38:0.46153846 39:0.2 40:0.48517543 41:0.46875 42:0.3 44:0.42857143 45:0.57142857 46:0.2 49:0.4 51:0.42857143 55:0.33333333 56:0.33333333 57:0.14285714 58:0.16666667 
-4 0:0.3757764 1:0.40438647 2:0.35555556 4:0.040178571 5:0.80136986 6:0.97619048 7:0.22857143 8:0.1754386 9:0.57991969 10:0.32493825 11:0.35694823 12:0.15099715 13:0.097863444 14:0.02173913 15:0.13192161 16:0.29411765 17:0.18181818 18:0.23076923 19:0.16666667 20:0.19293055 21:0.22970658 22:0.5439285 23:0.0075033323 24:0.12211199 25:0.39458589 26:0.49387864 27:0.22425172 28:0.21743672 29:0.37832125 30:0.30268556 31:0.26458205 32:0.12576723 33:0.17219169 34:0.0047201803 35:0.10375695 36:0.36363636 37:0.2 38:0.23076923 39:0.2 40:0.32184576 41:0.3125 42:0.2 45:0.28571429 47:0.090909091 48:0.33333333 49:0.2 53:0.2 54:0.14285714 55:0.16666667 56:0.33333333 58:0.33333333 59:0.25 61:0.2 
-4 0:0.54037267 1:0.55275229 2:0.96666667 3:0.068965517 4:0.20089286 5:0.32534247 6:0.97619048 7:0.38928571 8:0.1754386 9:0.38139868 10:0.53302267 12:0.013960114 13:0.003005842 14:0.015217391 15:0.18025605 16:0.17647059 17:0.090909091 18:0.23076923 19:0.16666667 20:0.20982083 21:0.43442828 22:0.67324694 24:0.083800972 25:0.28675209 26:0.49387864 27:0.46154574 28:0.62491674 29:0.30722752 30:0.46962556 32:0.0279218 33:0.0037827953 34:0.036722606 35:0.093517915 36:0.090909091 38:0.23076923 39:0.2 40:0.077930162 41:0.03125 44:0.14285714 45:0.14285714 49:0.4 50:0.33333333 54:0.14285714 59:0.125 
-4 0:0.38975155 1:0.26671035 2:0.41111111 3:0.068965517 4:0.040178571 5:0.16438356 6:0.3968254 7:0.42857143 8:0.36842105 9:0.38139868 10:0.53302267 12:0.013960114 13:0.003005842 14:0.015217391 15:0.027304168 16:0.11764706 20:0.085978763 21:0.16124454 22:0.29229885 24:0.23569247 25:0.10151122 26:0.043089371 27:0.36103273 28:0.39980342 29:0.30722752 30:0.46962556 32:0.0279218 33:0.0037827953 34:0.036722606 35:0.09064337 36:0.27272727 38:0.076923077 40:0.015353653 41:0.03125 42:0.1 47:0.090909091 50:0.33333333 53:0.2 57:0.14285714 60:0.33333333 61:0.2 
-4 0:0.50310559 1:0.50286697 2:0.066666667 3:0.068965517 4:0.17857143 5:0.56164384 6:0.73015873 7:0.45714286 8:0.4122807 9:0.62266809 10:0.39151345 11:0.39347952 12:0.49002849 13:0.43169877 14:0.29192547 15:0.18252533 16:0.17647059 18:0.23076923 20:0.19989947 21:0.28209046 24:0.20598809 25:0.40073415 26:0.5061863 27:0.35638585 28:0.17769122 29:0.47658461 30:0.40251236 31:0.19508262 32:0.54483631 33:0.20499279 34:0.4357102 35:0.29972659 36:0.36363636 37:0.2 38:0.23076923 40:0.16986534 41:0.1875 42:0.1 45:0.14285714 46:0.2 47:0.18181818 50:0.66666667 51:0.14285714 57:0.14285714 58:0.33333333 59:0.125 
2.476940616708048 0:0.53726708 1:0.53555046 2:0.92222222 3:0.068965517 4:0.68080357 5:0.93150685 6:0.97619048 7:0.13214286 8:0.14035088 9:0.99526107 10:0.10335858 11:0.82451099 12:0.71225071 13:0.043528547 14:0.01863354 15:0.68639039 16:0.64705882 17:0.27272727 18:0.76923077 19:0.66666667 20:0.81239638 21:0.48776946 22:1 24:0.2382898 25:0.7834684 26:1 27:0.29596542 28:0.28730292 29:0.7808418 30:0.19146339 31:0.54018618 32:0.72166383 33:0.17917714 34:0.013971627 35:0.65257923 36:0.36363636 38:0.76923077 39:0.8 40:0.83797747 41:0.75 42:0.2 44:0.42857143 45:0.42857143 49:0.6 50:1 51:0.71428571 52:0.33333333 53:0.2 54:0.28571429 55:0.16666667 57:0.28571429 58:0.33333333 59:0.25 
4 0:0.56055901 1:0.54634609 2:0.11111111 4:1 5:0.64383562 6:0.88888889 7:0.4 8:0.14035088 9:0.76326846 10:0.29725316 11:0.64606186 12:0.75213675 13:0.11859474 14:0.01242236 15:1 16:0.58823529 17:0.090909091 18:0.84615385 19:0.33333333 20:0.80726015 21:0.4984247 22:0.25049064 23:0.0075033323 24:0.90359495 25:0.71451616 26:1 27:0.4418265 28:0.35335347 29:0.81088936 30:0.25225473 31:0.57811998 32:1 33:0.22349991 34:0.10430183 35:0.98146879 36:0.72727273 38:0.84615385 39:0.4 40:0.76401021 41:0.71875 44:0.28571429 45:0.28571429 46:0.4 47:0.27272727 49:0.2 50:0.33333333 51:0.57142857 52:0.33333333 53:0.6 54:0.14285714 55:0.16666667 56:0.33333333 57:0.14285714 58:0.16666667 59:0.5 61:0.2 
-4 0:0.29347826 1:0.2706422 2:0.11111111 4:0.26339286 5:0.28767123 6:0.45238095 7:0.25714286 8:0.1754386 9:0.43402875 10:0.28567378 11:0.18316599 12:0.23076923 13:0.20396067 14:0.0031055901 15:0.21004793 16:0.23529412 17:0.090909091 18:0.15384615 20:0.15698813 21:0.22687311 22:0.36777524 23:0.0075033323 24:0.21768652 25:0.22485589 26:0.32650861 27:0.25138798 28:0.28246929 29:0.34508654 30:0.29939425 31:0.15853138 32:0.083477489 33:0.059961433 34:0.012268689 35:0.24169896 36:0.27272727 38:0.15384615 40:0.19179617 41:0.1875 45:0.28571429 46:0.2 48:0.33333333 49:0.2 53:0.2 56:0.33333333 57:0.28571429 58:0.33333333 61:0.2 
-4 0:0.29503106 1:0.18577982 2:0.42222222 4:0.26339286 5:0.29794521 6:0.45238095 7:0.025 8:0.11403509 9:0.1640906 10:0.2602372 12:0.013960114 13:0.003005842 14:0.015217391 15:0.18784054 16:0.29411765 17:0.18181818 18:0.15384615 20:0.15958408 21:0.27379893 22:0.33435939 23:0.0075033323 24:0.010904148 25:0.37095811 26:0.35574122 27:0.22585872 28:0.021029984 29:0.17318233 30:0.32727361 32:0.0279218 33:0.0037827953 34:0.036722606 35:0.10957837 36:0.18181818 37:0.2 38:0.15384615 40:0.10423885 41:0.09375 44:0.28571429 45:0.28571429 46:0.2 48:0.33333333 49:0.2 56:0.33333333 58:0.16666667 
-4 0:0.69565217 1:0.63728702 2:0.11111111 3:0.068965517 4:0.30580357 5:0.79109589 6:0.88888889 7:0.21785714 8:0.1754386 9:0.79042842 10:0.27724394 11:0.6922828 12:0.41310541 13:0.25091032 14:0.062111801 15:0.34863176 16:0.35294118 17:0.090909091 18:0.61538462 19:0.5 20:0.74666183 21:0.60585424 22:0.22145646 24:0.17075207 25:0.74888356 26:1 27:0.34364921 28:0.39980342 29:0.72480047 30:0.42298078 31:0.51091213 32:0.37147131 33:0.10281208 34:0.013291872 35:0.3778095 36:0.27272727 38:0.61538462 39:0.6 40:0.53712887 41:0.46875 42:0.4 44:0.14285714 45:0.14285714 46:0.6 49:0.4 50:0.33333333 51:0.42857143 53:0.4 54:0.28571429 55:0.16666667 58:0.16666667 
-3.523407802651006 0:0.5310559 1:0.53297018 2:0.41111111 3:0.068965517 4:0.42857143 5:0.56506849 6:0.84126984 7:0.41071429 8:0.14035088 9:0.68390787 10:0.36878525 11:0.49184798 12:0.45014245 13:0.11129016 14:0.037267081 15:0.47710697 16:0.41176471 17:0.090909091 18:0.61538462 19:0.5 20:0.73829261 21:0.53716997 22:0.29229885 24:0.010904148 25:0.64411014 26:0.90881949 27:0.49891162 28:0.33761383 29:0.72191309 30:0.44481498 31:0.46134437 32:0.53460974 33:0.11446471 34:0.032172102 35:0.50880586 36:0.090909091 38:0.61538462 39:0.6 40:0.63387763 41:0.5625 42:0.1 44:0.28571429 45:0.28571429 46:0.6 50:0.33333333 51:0.42857143 52:0.33333333 54:0.28571429 55:0.33333333 57:0.28571429 58:0.5 59:0.25 
3.52647913140788 0:0.49223602 1:0.48707256 2:0.35555556 3:0.068965517 5:0.47945205 6:0.84126984 7:0.47142857 8:0.34210526 9:0.49156896 10:0.5211241 11:0.16331474 12:0.051282051 13:0.18315244 14:0.055900621 15:0.06556641 16:0.11764706 18:0.23076923 19:0.16666667 20:0.026818022 21:0.055729139 22:0.5439285 24:0.12926404 25:0.063466518 26:0.16799143 27:0.13523613 28:0.17769122 29:0.18556072 30:0.29889752 31:0.092267018 32:0.15192351 33:0.11057496 34:0.18834135 35:0.068417379 36:0.54545455 37:0.4 38:0.076923077 40:0.084465838 41:0.15625 43:1 47:0.36363636 49:0.2 50:0.33333333 53:0.2 54:0.14285714 61:0.2 
1.090921709220655 0:0.67701863 1:0.62549148 2:0.11111111 3:0.068965517 4:0.17857143 5:0.67465753 6:0.84126984 7:0.55 8:0.30701754 9:0.79466471 10:0.35081598 11:0.57101967 12:0.43874644 13:0.22982539 14:0.01863354 15:0.32220132 16:0.23529412 18:0.61538462 19:0.33333333 20:0.64124937 21:0.52834431 22:0.22145646 24:0.53812122 25:0.70187359 26:0.81763898 27:0.45257173 28:0.28730292 29:0.75681173 30:0.37936926 31:0.56010527 32:0.40913186 33:0.16656788 34:0.15033879 35:0.65573927 36:0.45454545 37:0.2 38:0.61538462 39:0.4 40:0.48907608 41:0.46875 42:0.2 45:0.14285714 46:0.8 47:0.18181818 49:0.2 50:0.33333333 51:0.28571429 53:0.4 54:0.42857143 57:0.28571429 59:0.125 
-4 0:0.52639752 1:0.52752294 2:0.4 5:0.52739726 6:0.76190476 7:0.42142857 8:0.33333333 9:0.28809302 10:0.41589666 12:0.013960114 13:0.003005842 14:0.015217391 15:0.015569444 16:0.058823529 18:0.076923077 20:0.14301675 21:0.24537431 22:0.68469728 23:0.0075033323 24:0.0090021998 25:0.287239 26:0.23035547 27:0.22642168 28:0.31382641 29:0.23082473 30:0.3884881 32:0.0279218 33:0.0037827953 34:0.036722606 35:0.0068966981 36:0.18181818 38:0.15384615 40:0.082432517 41:0.09375 42:0.2 47:0.090909091 56:0.33333333 57:0.14285714 58:0.33333333 59:0.125 60:0.33333333 
-3.79471675550819 0:0.23913043 1:0.18119266 2:0.11111111 3:0.068965517 4:0.32589286 5:0.30821918 6:0.36507937 7:0.15 8:0.1754386 9:0.51261834 10:0.11685488 11:0.5018161 12:0.52706553 13:0.55654109 14:0.57453416 15:0.26764153 16:0.41176471 17:0.18181818 18:0.15384615 20:0.11400254 21:0.17811503 22:0.22145646 24:0.3375503 25:0.2414279 26:0.24164746 27:0.30016304 28:0.38098594 29:0.5224318 30:0.21871906 31:0.53846211 32:0.41292259 33:0.62701238 34:0.50746882 35:0.22332327 36:0.54545455 37:0.4 38:0.15384615 40:0.13986348 41:0.15625 44:0.14285714 45:0.14285714 46:0.2 47:0.090909091 49:0.2 50:0.33333333 53:0.8 58:0.16666667 
4 0:0.54192547 1:0.54390564 2:0.11111111 3:0.068965517 4:0.084821429 5:0.85273973 6:1 7:0.47857143 8:0.1754386 9:0.86702236 10:0.45476275 11:0.69682157 12:0.17663818 13:0.32511415 14:0.01242236 15:0.20934409 16:0.23529412 17:0.090909091 18:0.38461538 19:0.33333333 20:0.47288739 21:0.55709261 22:0.22145646 24:0.14623881 25:0.75728267 26:1 27:0.62021172 28:0.55664819 29:0.93691995 30:0.43971943 31:0.75906614 32:0.24319851 33:0.44980463 34:0.10174437 35:0.36052882 36:0.18181818 38:0.38461538 39:0.4 40:0.30240471 41:0.25 44:0.14285714 45:0.14285714 49:0.4 50:0.33333333 51:0.42857143 53:0.2 54:0.14285714 57:0.28571429 58:0.16666667 61:0.2 
4 0:0.36024845 1:0.32756464 2:0.11111111 3:0.068965517 4:0.13616071 5:0.63013699 6:0.58730159 7:0.078571429 8:0.087719298 9:0.50248661 10:0.26204456 11:0.46882668 12:0.3048433 13:0.52015165 14:0.33229814 15:0.12592682 16:0.29411765 17:0.18181818 18:0.076923077 20:0.13315481 21:0.20500018 22:0.38492102 24:0.16307494 25:0.16894787 26:0.17607334 27:0.2776616 28:0.33761383 29:0.40072947 30:0.2575826 31:0.40345385 32:0.11101441 33:0.47075043 34:0.13832118 35:0.10915035 36:0.27272727 38:0.076923077 40:0.1327261 41:0.15625 42:0.2 44:0.28571429 45:0.14285714 47:0.090909091 50:0.33333333 52:0.33333333 56:0.33333333 59:0.125 61:0.2 
-4 0:0.32763975 1:0.26376147 2:0.11111111 4:0.27232143 5:0.31849315 6:0.48412698 7:0.42142857 8:0.087719298 9:0.44714226 10:0.29328285 12:0.013960114 13:0.003005842 14:0.015217391 15:0.23900249 16:0.29411765 17:0.090909091 18:0.15384615 20:0.19326861 21:0.30837816 22:0.36777524 23:0.0075033323 24:0.13590418 25:0.2905296 26:0.60102285 27:0.50693672 28:0.34450181 29:0.4527331 30:0.44349289 32:0.0279218 33:0.0037827953 34:0.036722606 35:0.13787004 36:0.27272727 38:0.15384615 40:0.11326431 41:0.125 44:0.14285714 45:0.28571429 47:0.090909091 51:0.14285714 53:0.2 56:0.33333333 57:0.14285714 59:0.125 61:0.2 
4 0:0.51242236 1:0.51791858 2:0.92222222 4:0.40178571 5:0.67808219 6:0.88888889 7:0.28571429 8:0.3245614 9:0.801312 10:0.35647063 11:0.64116382 12:0.34188034 13:0.42115652 14:0.01552795 15:0.36611856 16:0.29411765 18:0.46153846 19:0.33333333 20:0.61422749 21:0.63629314 22:1 23:0.0075033323 24:0.17670737 25:0.94600538 26:1 27:0.29690988 28:0.27521527 29:0.9723908 30:0.22082458 31:0.71759725 32:0.47208758 33:0.54754803 34:0.029278488 35:0.45579233 36:0.27272727 38:0.46153846 39:0.4 40:0.35060273 41:0.3125 44:0.14285714 45:0.14285714 46:0.2 51:0.71428571 53:0.4 56:0.33333333 57:0.42857143 58:0.16666667 61:0.2 
-4 0:0.71273292 1:0.68434633 2:0.96666667 3:0.068965517 4:0.43973214 5:0.84246575 6:0.97619048 7:0.40714286 8:0.1754386 9:0.69390753 10:0.49691198 11:0.51402625 12:0.32478632 13:0.22660929 14:0.090062112 15:0.40070384 16:0.29411765 17:0.090909091 18:0.53846154 19:0.16666667 20:0.67409488 21:0.69407015 22:0.67324694 24:0.04465813 25:0.69482389 26:0.60102285 27:0.64146825 28:0.49932068 29:0.8297596 30:0.42897852 31:0.69320959 32:0.49961848 33:0.43023808 34:0.12864307 35:0.4974786 36:0.090909091 38:0.53846154 39:0.2 40:0.3885719 41:0.3125 42:0.1 44:0.28571429 45:0.14285714 49:0.2 50:0.33333333 51:0.57142857 52:0.33333333 55:0.16666667 57:0.14285714 59:0.25 61:0.2 
-2.669934677428704 0:0.61645963 1:0.66055046 2:0.4 3:0.068965517 4:0.055803571 5:0.7260274 6:0.81746032 7:0.71428571 8:0.14035088 9:0.34502837 10:0.48736725 12:0.013960114 13:0.003005842 14:0.015217391 15:0.030544263 16:0.11764706 17:0.090909091 18:0.15384615 19:0.16666667 20:0.19712856 21:0.33821412 22:0.68469728 24:0.010904148 25:0.23485332 26:0.23035547 27:0.44834151 28:0.33761383 29:0.27474121 30:0.43512607 32:0.0279218 33:0.0037827953 34:0.036722606 35:0.018149191 36:0.090909091 38:0.15384615 40:0.097059983 41:0.09375 42:0.4 43:0.5 45:0.14285714 50:0.33333333 59:0.125 60:0.33333333 
-4 0:0.49378882 1:0.48894912 2:0.11111111 4:0.13392857 5:0.70890411 6:0.79365079 7:0.30357143 8:0.3245614 9:0.5761669 10:0.29109585 11:0.51413674 12:0.42450142 13:0.57013155 14:0.46273292 15:0.15505127 16:0.17647059 18:0.15384615 20:0.16371131 21:0.24789409 22:0.22145646 23:0.0075033323 24:0.069437756 25:0.32676563 26:0.35729349 27:0.26510528 28:0.27521527 29:0.37770007 30:0.29270687 31:0.27985371 32:0.17401071 33:0.32769252 34:0.2153477 35:0.055767691 36:0.18181818 38:0.15384615 40:0.12901218 41:0.15625 42:0.1 44:0.14285714 49:0.2 52:0.33333333 53:0.2 56:0.33333333 57:0.57142857 59:0.125 
4 0:0.36645963 1:0.45737109 2:0.11111111 3:0.068965517 4:0.31026786 5:0.47945205 6:0.86507937 7:0.4 8:0.087719298 9:0.73314164 10:0.18491931 11:0.80375048 12:0.3988604 13:0.066729827 14:0.02173913 15:0.49551605 16:0.47058824 17:0.090909091 18:0.53846154 19:0.16666667 20:0.62529635 21:0.40153632 22:0.22145646 24:0.42926263 25:0.58699048 26:0.72416917 27:0.30559603 28:0.2101827 29:0.82319932 30:0.25474069 31:0.62897539 32:0.58315162 33:0.04945775 34:0.0107997 35:0.70942046 36:0.63636364 37:0.2 38:0.61538462 39:0.6 40:0.7008735 41:0.71875 42:0.2 43:0.5 45:0.42857143 46:0.2 47:0.27272727 49:0.2 50:0.33333333 51:0.57142857 53:0.4 54:0.14285714 55:0.16666667 56:0.33333333 57:0.42857143 58:0.33333333 60:0.66666667 61:0.2 
0.8042976662792652 0:0.73757764 1:0.68577982 2:0.41111111 3:0.068965517 4:0.30357143 5:0.8630137 6:0.92063492 7:0.525 8:0.1754386 9:0.8008285 10:0.31819274 11:0.60062834 12:0.15099715 13:0.3316009 14:0.052795031 15:0.32354833 16:0.23529412 17:0.090909091 18:0.61538462 19:0.66666667 20:0.62101892 21:0.58247076 22:0.29229885 24:0.00040247004 25:0.78068284 26:0.81763898 27:0.46774461 28:0.28730292 29:0.8093471 30:0.31411608 31:0.49563867 32:0.4141383 33:0.23728338 34:0.083054768 35:0.32249089 36:0.090909091 38:0.53846154 39:0.6 40:0.43730938 41:0.375 42:0.2 43:0.5 44:0.28571429 45:0.14285714 46:0.4 49:0.4 50:0.33333333 51:0.28571429 54:0.28571429 57:0.14285714 58:0.16666667 59:0.125 
4 0:0.31055901 1:0.35020069 2:0.42222222 3:0.068965517 4:0.421875 5:0.53082192 6:0.78571429 7:0.035714286 8:0.14035088 9:0.51909949 10:0.22271329 11:0.56543048 12:0.35042735 13:0.28448923 14:0.19254658 15:0.34178751 16:0.47058824 17:0.36363636 18:0.15384615 20:0.16492081 21:0.20267485 22:0.33435939 24:0.034789482 25:0.18823787 26:0.28591268 27:0.25327696 28:0.22994779 29:0.41953355 30:0.29239297 31:0.28591183 32:0.081638788 33:0.27380339 34:0.031202761 35:0.13401838 36:0.18181818 38:0.15384615 40:0.29943772 41:0.3125 42:0.4 45:0.42857143 49:0.4 50:0.66666667 55:0.5 57:0.14285714 58:0.16666667 
-3.640126473110312 0:0.53726708 1:0.53555046 2:0.11111111 3:0.068965517 4:0.58035714 5:0.72260274 6:1 7:0.42857143 8:0.1754386 9:0.89024845 10:0.33353388 11:0.56575142 12:0.57834758 13:0.13510545 14:0.0031055901 15:0.74885019 16:0.52941176 17:0.090909091 18:0.69230769 19:0.16666667 20:0.7374822 21:0.4492103 22:0.22145646 24:0.5142364 25:0.5762805 26:0.55945276 27:0.32697537 28:0.26832728 29:0.84206502 30:0.25082398 31:0.54245283 32:0.74240033 33:0.17623568 34:0.044370921 35:0.82525118 36:0.63636364 37:0.4 38:0.76923077 39:0.2 40:0.73099985 41:0.75 42:0.3 44:0.42857143 45:0.42857143 46:0.2 47:0.36363636 48:0.33333333 49:1 50:0.33333333 51:0.42857143 53:0.2 54:0.28571429 55:0.16666667 57:0.14285714 60:0.33333333 
-4 0:0.31521739 1:0.27314429 2:0.35555556 4:0.1875 5:0.25342466 6:0.56349206 7:0.23928571 8:0.087719298 9:0.49451667 10:0.010721117 11:0.54079457 12:0.45014245 13:0.59953684 14:0.49068323 15:0.2063103 16:0.29411765 17:0.18181818 18:0.15384615 20:0.16489024 21:0.24954902 22:0.5439285 23:0.0075033323 24:0.18384774 25:0.21210668 26:0.31517511 27:0.37188666 28:0.34450181 29:0.4816718 30:0.20843192 31:0.35122905 32:0.1217099 33:0.41030413 34:0.15139871 35:0.080345454 36:0.36363636 37:0.2 38:0.15384615 40:0.16254124 41:0.15625 44:0.14285714 45:0.14285714 47:0.090909091 53:0.4 56:0.33333333 58:0.16666667 59:0.25 61:0.4 
-4 0:0.44254658 1:0.43577982 2:0.11111111 3:0.068965517 4:0.20089286 5:0.60616438 6:0.95238095 7:0.33571429 8:0.1754386 9:0.54738187 10:0.44534633 11:0.28382971 12:0.41310541 13:0.26030765 14:0.22049689 15:0.19383533 16:0.29411765 17:0.18181818 18:0.23076923 19:0.16666667 20:0.18964092 21:0.26888999 22:0.38492102 24:0.16760194 25:0.24730269 26:0.42830452 27:0.3678936 28:0.471622 29:0.44570174 30:0.32963794 31:0.30580841 32:0.33973905 33:0.23218458 34:0.32921789 35:0.12700279 36:0.18181818 38:0.23076923 39:0.2 40:0.17758367 41:0.1875 42:0.1 44:0.28571429 49:0.2 50:0.33333333 53:0.2 55:0.16666667 57:0.42857143 59:0.25 
4 0:0.49223602 1:0.50603573 2:0.11111111 3:0.11494253 4:0.52008929 5:0.56506849 6:1 7:0.33571429 8:0.1754386 9:0.90302547 10:0.16955414 11:0.98509179 12:0.41025641 13:0.7578234 14:0.055900621 15:0.52267459 16:0.41176471 17:0.18181818 18:0.46153846 19:0.33333333 20:0.44733776 21:0.41589805 22:0.38492102 23:0.36777524 24:0.084203442 25:0.37338588 26:0.55945276 27:0.42546816 28:0.2941909 29:0.74809634 30:0.25186428 31:0.59509558 32:0.43085959 33:0.47799137 34:0.051185917 35:0.3555228 36:0.090909091 38:0.46153846 39:0.4 40:0.43996514 41:0.40625 42:0.1 44:0.14285714 45:0.42857143 49:0.8 51:0.14285714 54:0.14285714 55:0.33333333 56:0.33333333 57:0.42857143 58:0.16666667 59:0.125 
-4 0:0.49068323 1:0.485196 2:0.14444444 3:0.068965517 4:0.09375 5:0.74657534 6:0.92063492 7:0.50714286 8:0.20175439 9:0.61176958 10:0.22820216 11:0.54839952 12:0.15099715 13:0.60792558 14:0.16459627 15:0.14994236 16:0.17647059 18:0.23076923 19:0.16666667 20:0.21107372 21:0.31437941 22:0.015405408 24:0.14745449 25:0.57976803 26:0.71415226 27:0.44875569 28:0.30693843 29:0.48586055 30:0.29644917 31:0.44756561 32:0.049260319 33:0.52180648 34:0.062813531 35:0.13808314 36:0.27272727 38:0.23076923 39:0.2 40:0.17731394 41:0.15625 42:0.1 45:0.14285714 47:0.090909091 48:0.33333333 50:0.33333333 51:0.14285714 55:0.16666667 58:0.16666667 59:0.25 61:0.2 
4 0:0.50310559 1:0.51456422 2:0.41111111 3:0.068965517 4:0.57589286 5:0.7260274 6:1 7:0.32142857 8:0.1754386 9:0.84485055 10:0.16152268 11:0.87632508 12:0.42735043 13:0.40816355 14:0.0093167702 15:0.59222135 16:0.41176471 17:0.18181818 18:0.53846154 19:0.33333333 20:0.57309297 21:0.49716739 22:0.29229885 24:0.14295339 25:0.74625346 26:0.90881949 27:0.34129154 28:0.19183323 29:0.77814068 30:0.28383035 31:0.68210064 32:0.24583944 33:0.45914794 34:0.023530627 35:0.5379966 36:0.27272727 37:0.2 38:0.53846154 39:0.4 40:0.44693653 41:0.4375 42:0.1 44:0.14285714 45:0.71428571 46:0.2 47:0.090909091 48:0.33333333 49:0.4 50:0.33333333 51:0.42857143 57:0.42857143 59:0.125 
4 0:0.76552795 1:0.70642202 2:0.11111111 3:0.068965517 4:0.41071429 5:0.71917808 6:1 7:0.41071429 8:0.1754386 9:0.79233678 10:0.3963901 11:0.45051593 12:0.52706553 13:0.1850349 14:0.077639752 15:0.45576118 16:0.29411765 17:0.090909091 18:0.53846154 19:0.16666667 20:0.57473802 21:0.54276861 22:0.22145646 24:0.21585021 25:0.5762805 26:0.55945276 27:0.57787689 28:0.56756161 29:0.65294356 30:0.47802934 31:0.30484428 32:0.56851831 33:0.15047432 34:0.038468262 35:0.45546155 36:0.18181818 38:0.53846154 39:0.2 40:0.44569164 41:0.375 42:0.3 44:0.14285714 45:0.14285714 49:0.8 50:0.33333333 51:0.28571429 53:0.2 55:0.16666667 58:0.5 59:0.125 
-4 0:0.42236025 1:0.41341743 2:0.45555556 3:0.068965517 4:0.125 5:0.44178082 6:0.56349206 7:0.43214286 8:0.30701754 9:0.53886029 10:0.3225427 11:0.32662457 12:0.3048433 13:0.3464472 14:0.19875776 15:0.18324131 16:0.17647059 18:0.15384615 20:0.18864908 21:0.26761372 22:0.19356563 24:0.0049035699 25:0.26339537 26:0.46192108 27:0.43595241 28:0.28730292 29:0.45549218 30:0.23133107 31:0.30842998 32:0.35192796 33:0.33234167 34:0.27239411 35:0.14591131 36:0.18181818 38:0.15384615 40:0.18569621 41:0.1875 42:0.1 44:0.14285714 45:0.14285714 47:0.090909091 50:0.33333333 51:0.14285714 54:0.28571429 57:0.14285714 58:0.33333333 59:0.125 
4 0:0.76397516 1:0.7918578 2:0.92222222 4:0.12723214 5:0.67808219 6:0.92063492 7:0.56071429 8:0.40350877 9:0.77018411 10:0.580887 11:0.54326551 12:0.25641026 13:0.30337948 14:0.25776398 15:0.21799648 16:0.11764706 18:0.46153846 19:0.33333333 20:0.62145115 21:0.82453367 22:1 23:0.0075033323 24:0.30361891 25:0.68813055 26:1 27:0.69456037 28:0.48159526 29:0.84771553 30:0.62237183 31:0.45463099 32:0.73743704 33:0.14117002 34:0.75965808 35:0.49814987 36:0.18181818 38:0.53846154 39:0.6 40:0.26804573 41:0.1875 47:0.090909091 51:0.71428571 52:0.33333333 55:0.16666667 56:0.33333333 58:0.16666667 59:0.125 60:0.33333333 
-3.119904326614242 0:0.26708075 1:0.38675459 2:0.11111111 3:0.068965517 4:0.12053571 5:0.34589041 6:0.76190476 7:0.33928571 8:0.30701754 9:0.50062725 10:0.2059204 11:0.38736644 12:0.53276353 13:0.019419866 14:0.01242236 15:0.24436624 16:0.29411765 18:0.15384615 20:0.17267097 21:0.17325537 22:0.22145646 24:0.16083814 25:0.1820631 26:0.38089402 27:0.26652934 28:0.26832728 29:0.41586886 30:0.19374957 31:0.32559587 32:0.38189893 33:0.029703968 34:0.003733908 35:0.23188154 36:0.36363636 38:0.15384615 40:0.50747972 41:0.5625 42:0.4 45:0.28571429 47:0.090909091 50:0.66666667 51:0.14285714 53:0.2 54:0.71428571 57:0.71428571 58:0.33333333 59:0.125 
-4 0:0.44409938 1:0.45101573 2:0.7 4:0.17857143 5:0.5239726 6:0.76190476 7:0.35357143 8:0.087719298 9:0.62727496 10:0.24327323 11:0.31122799 12:0.39031339 13:0.12493834 14:0.26708075 15:0.1952066 16:0.29411765 17:0.27272727 18:0.23076923 20:0.24392744 21:0.30456075 22:0.43552067 23:0.0075033323 24:0.010904148 25:0.34007975 26:0.44692173 27:0.31095822 28:0.34450181 29:0.49048459 30:0.18296383 31:0.29509532 32:0.41889159 33:0.16739016 34:0.29061456 35:0.1759084 36:0.18181818 38:0.23076923 40:0.21493039 41:0.25 42:0.2 45:0.42857143 47:0.090909091 51:0.14285714 55:0.16666667 56:0.33333333 57:0.42857143 59:0.25 
-4 0:0.2515528 1:0.22419725 2:0.11111111 4:0.265625 5:0.21917808 6:0.57936508 7:0.13214286 8:0.14035088 9:0.45582998 10:0.30400396 11:0.26301628 12:0.53561254 13:0.28738192 14:0.33540373 15:0.26514168 16:0.41176471 17:0.27272727 18:0.15384615 20:0.22326926 21:0.31216218 22:0.36777524 23:0.0075033323 24:0.066466426 25:0.34541303 26:0.60102285 27:0.31685311 28:0.33761383 29:0.40758029 30:0.36454178 31:0.2129024 32:0.17325045 33:0.096990481 34:0.12203543 35:0.19234936 36:0.18181818 38:0.15384615 40:0.1920244 41:0.1875 42:0.1 44:0.14285714 45:0.57142857 49:0.2 50:0.33333333 51:0.14285714 56:0.33333333 57:0.14285714 61:0.2 
4 0:0.69409938 1:0.64727185 2:1 4:0.10044643 5:0.7739726 6:1 7:0.36785714 8:0.35964912 9:0.72232199 10:0.20505685 11:0.55708647 12:0.20797721 13:0.19452942 14:0.02173913 15:0.23361447 16:0.23529412 18:0.53846154 19:0.5 20:0.56662625 21:0.51284399 22:0.74820483 23:0.0075033323 24:0.29965118 25:0.59946491 26:0.77972638 27:0.2020233 28:0.18457921 29:0.56486759 30:0.30435586 31:0.42885282 32:0.4124168 33:0.16318769 34:0.012495927 35:0.29533364 36:0.63636364 37:0.8 38:0.61538462 39:0.8 40:0.39187086 41:0.40625 42:0.1 44:0.14285714 46:0.2 47:0.36363636 49:0.8 51:0.28571429 53:0.4 56:0.33333333 57:0.14285714 60:0.33333333 61:0.2 
4 0:0.65372671 1:0.66972477 2:1 4:0.24776786 5:0.67808219 6:0.88888889 7:0.66785714 8:0.3245614 9:0.79292249 10:0.36086336 11:0.65466589 12:0.34472934 13:0.45459873 14:0.3757764 15:0.2240034 16:0.17647059 18:0.46153846 19:0.5 20:0.49764308 21:0.66522024 22:0.74820483 23:0.0075033323 24:0.19587822 25:0.89443852 26:1 27:0.66906757 28:0.27521527 29:0.86556595 30:0.35225602 31:0.73487019 32:0.3497616 33:0.57109317 34:0.38002403 35:0.31932074 36:0.27272727 38:0.46153846 39:0.6 40:0.21555284 41:0.1875 46:0.4 47:0.090909091 49:0.2 51:0.42857143 53:0.2 55:0.16666667 56:0.33333333 57:0.28571429 
-4 0:0.26863354 1:0.31536697 2:0.066666667 3:0.068965517 4:0.3125 5:0.33219178 6:0.55555556 7:0.26071429 8:0.1754386 9:0.45055855 10:0.26784626 11:0.15611374 12:0.57264957 13:0.042372869 14:0.13664596 15:0.30661974 16:0.41176471 17:0.27272727 18:0.23076923 20:0.20693001 21:0.24321722 24:0.19282163 25:0.27292335 26:0.35574122 27:0.31845437 28:0.28730292 29:0.5367741 30:0.36747629 31:0.28623333 32:0.52053419 33:0.075052382 34:0.12333509 35:0.2328479 36:0.27272727 38:0.23076923 40:0.32821545 41:0.3125 42:0.1 44:0.28571429 45:0.28571429 46:0.2 50:0.66666667 53:0.2 54:0.14285714 57:0.14285714 58:0.5 59:0.25 
2.591948278747599 0:0.41770186 1:0.43922018 2:0.81111111 3:0.72413793 4:0.20982143 5:0.48630137 6:0.65079365 7:0.31071429 8:0.1754386 9:0.69062331 10:0.26549348 11:0.39913809 12:0.51851852 13:0.2539831 14:0.23291925 15:0.23359019 16:0.23529412 17:0.090909091 18:0.30769231 20:0.4877388 21:0.51422105 22:0.89577139 23:0.43552067 24:0.25253365 25:0.48875312 26:0.72416917 27:0.433695 28:0.17769122 29:0.7737949 30:0.30015897 31:0.65433286 32:0.21024743 33:0.55595908 34:0.039623836 35:0.43007413 36:0.27272727 37:0.2 38:0.46153846 39:0.2 40:0.35713841 41:0.3125 42:0.1 44:0.28571429 46:0.6 47:0.090909091 50:0.33333333 51:0.14285714 53:0.2 54:0.28571429 58:0.33333333 60:0.66666667 
-3.601841715974386 0:0.10093168 1:0.12516383 2:0.11111111 3:0.068965517 4:0.34821429 5:0.095890411 6:0.34126984 7:0.14285714 8:0.1754386 9:0.43349203 10:0.13289379 11:0.41764155 12:0.62678063 13:0.066835316 14:0.46583851 15:0.30380438 16:0.52941176 17:0.27272727 18:0.076923077 20:0.13156525 21:0.18063064 22:0.22145646 24:0.1556858 25:0.16346988 26:0.17607334 27:0.3339892 28:0.2941909 29:0.41575824 30:0.25033032 31:0.30602594 32:0.39137996 33:0.13029519 34:0.33961606 35:0.13122214 36:0.36363636 38:0.15384615 40:0.24518124 41:0.25 42:0.2 44:0.28571429 45:0.42857143 50:0.33333333 53:0.4 54:0.14285714 56:0.33333333 59:0.125 60:0.33333333 
4 0:0.19254658 1:0.23348624 2:0.96666667 3:0.068965517 4:0.31473214 5:0.15068493 6:0.61111111 7:0.225 8:0.14035088 9:0.59046677 10:0.031783714 11:0.6294419 12:0.34757835 13:0.24468817 14:0.01242236 15:0.28588071 16:0.52941176 17:0.45454545 18:0.15384615 20:0.16175422 21:0.20629627 22:0.67324694 24:0.20359981 25:0.083891604 26:0.17607334 27:0.32002453 28:0.33761383 29:0.42657227 30:0.20571405 31:0.36567623 32:0.34754726 33:0.060142265 34:0.11155778 35:0.17409962 36:0.27272727 38:0.15384615 40:0.26657261 41:0.28125 42:0.2 44:0.14285714 45:0.57142857 47:0.090909091 49:0.2 50:0.66666667 55:0.33333333 59:0.125 61:0.2 
4 0:0.75 1:0.77637615 2:0.42222222 3:0.068965517 4:0.18526786 5:0.77739726 6:0.94444444 7:0.7 8:0.42105263 9:0.84694419 10:0.54393255 11:0.62074183 12:0.24216524 13:0.553827 14:0.12111801 15:0.19626236 16:0.11764706 18:0.38461538 19:0.33333333 20:0.51924536 21:0.69301756 22:0.33435939 24:0.30361891 25:0.72735201 26:1 27:0.70514915 28:0.6523985 29:0.82513023 30:0.47839992 31:0.6062397 32:0.17018345 33:0.56290602 34:0.10294728 35:0.40965999 36:0.18181818 38:0.38461538 39:0.4 40:0.23213063 41:0.1875 42:0.1 44:0.14285714 47:0.090909091 49:0.2 50:0.33333333 51:0.57142857 52:0.33333333 58:0.33333333 
-4 0:0.42857143 1:0.38302752 4:0.16517857 5:0.45547945 6:0.73015873 7:0.33928571 8:0.087719298 9:0.13631086 10:0.22536546 12:0.013960114 13:0.003005842 14:0.015217391 15:0.15196893 16:0.23529412 17:0.090909091 18:0.15384615 20:0.21151446 21:0.36289605 22:0.0075033323 23:0.0075033323 24:0.034789482 25:0.47413718 26:0.5061863 27:0.52520162 28:0.34450181 29:0.034177138 30:0.17965428 32:0.0279218 33:0.0037827953 34:0.036722606 35:0.20464165 36:0.18181818 38:0.15384615 40:0.10079466 41:0.09375 42:0.2 44:0.14285714 45:0.14285714 46:0.2 51:0.14285714 56:0.66666667 58:0.16666667 
4 0:0.40993789 1:0.46853211 2:0.45555556 4:0.32589286 5:0.54794521 6:0.92063492 7:0.19285714 8:0.1754386 9:0.67597201 10:0.10998107 11:0.64741766 12:0.45868946 13:0.24175415 14:0.0031055901 15:0.39922335 16:0.47058824 17:0.18181818 18:0.61538462 19:0.5 20:0.6532564 21:0.46713857 22:0.19356563 23:0.0075033323 24:0.41067412 25:0.56532785 26:0.90881949 27:0.25798727 28:0.2941909 29:0.74963482 30:0.3293191 31:0.58767029 32:0.44979916 33:0.31319095 34:0.023292278 35:0.57311007 36:0.54545455 37:0.2 38:0.61538462 39:0.6 40:0.58128099 41:0.59375 44:0.42857143 45:0.42857143 46:0.6 47:0.36363636 51:0.42857143 53:0.2 54:0.28571429 56:0.33333333 58:0.5 59:0.25 
4 0:0.52950311 1:0.53211009 2:0.96666667 4:0.453125 5:0.61643836 6:0.97619048 7:0.38928571 8:0.087719298 9:0.8517172 10:0.39157496 11:0.48640344 12:0.39031339 13:0.11211902 14:0.046583851 15:0.50691099 16:0.47058824 17:0.18181818 18:0.46153846 19:0.16666667 20:0.50208074 21:0.39761724 22:0.67324694 23:0.0075033323 24:0.10422724 25:0.35571802 26:0.49387864 27:0.43874319 28:0.34450181 29:0.60197899 30:0.38421418 31:0.34827873 32:0.28799362 33:0.10128669 34:0.014476858 35:0.18067648 36:0.18181818 38:0.46153846 39:0.2 40:0.57713136 41:0.53125 42:0.2 44:0.28571429 45:0.57142857 49:0.6 52:0.66666667 53:0.2 54:0.14285714 56:0.33333333 57:0.14285714 58:0.5 59:0.375 
1.979041557879936 0:0.80434783 1:0.77568807 2:0.11111111 4:0.515625 5:0.73972603 6:0.97619048 7:0.78214286 8:0.64035088 9:0.90434811 10:0.59503301 11:0.71091423 12:0.29344729 13:0.46147952 14:0.049689441 15:0.44668406 16:0.23529412 18:0.61538462 19:0.66666667 20:0.49533757 21:0.5496943 22:0.22145646 23:0.0075033323 24:0.48799246 25:0.62139117 26:0.68854587 27:0.46234498 28:0.35538245 29:0.84141765 30:0.35223571 31:0.78158563 32:0.1644232 33:0.65908882 34:0.026835216 35:0.29556737 36:0.45454545 37:0.2 38:0.61538462 39:0.8 40:0.31788286 41:0.28125 42:0.1 44:0.14285714 46:0.4 47:0.18181818 49:0.6 53:0.4 56:0.33333333 59:0.375 
4 0:0.4689441 1:0.49377457 2:0.35555556 4:0.23214286 5:0.65410959 6:0.92063492 7:0.38928571 8:0.087719298 9:0.6956796 10:0.32004287 11:0.5706911 12:0.45868946 13:0.10525268 14:0.01552795 15:0.29746981 16:0.41176471 17:0.36363636 18:0.53846154 19:0.33333333 20:0.61528337 21:0.50925147 22:0.5439285 23:0.0075033323 24:0.4844892 25:0.67127358 26:0.81763898 27:0.58211507 28:0.2101827 29:0.67391146 30:0.27623357 31:0.57453967 32:0.62046243 33:0.10409638 34:0.012434265 35:0.61643425 36:0.63636364 37:0.6 38:0.53846154 39:0.4 40:0.48316285 41:0.46875 44:0.14285714 45:0.14285714 46:0.6 47:0.18181818 51:0.42857143 52:0.33333333 53:0.8 56:0.33333333 57:0.14285714 58:0.33333333 59:0.125 61:0.2 
-4 0:0.43167702 1:0.40206422 2:0.41111111 3:0.068965517 4:0.10044643 5:0.41780822 6:0.53968254 7:0.36785714 8:0.37719298 9:0.38001127 10:0.40265168 12:0.013960114 13:0.003005842 14:0.015217391 15:0.18688186 16:0.17647059 18:0.15384615 20:0.16714395 21:0.26803822 22:0.29229885 24:0.097990545 25:0.38027761 26:0.60102285 27:0.27105268 28:0.26832728 29:0.27476769 30:0.40364893 32:0.0279218 33:0.0037827953 34:0.036722606 35:0.13469014 36:0.36363636 37:0.4 38:0.15384615 40:0.08627093 41:0.125 44:0.14285714 47:0.18181818 49:0.2 50:0.33333333 51:0.14285714 53:0.2 57:0.28571429 61:0.2 
0.9684752347488185 0:0.45962733 1:0.44766472 2:0.41111111 4:0.098214286 5:0.42465753 6:0.65079365 7:0.53214286 8:0.44736842 9:0.57631812 10:0.36128577 11:0.47591546 12:0.18518519 13:0.52797102 14:0.20186335 15:0.11729871 16:0.17647059 18:0.15384615 20:0.069726705 21:0.11596251 22:0.29229885 23:0.0075033323 24:0.17548302 25:0.17219318 26:0.41500579 27:0.25466023 28:0.2829501 29:0.39089446 30:0.13424914 31:0.4226166 32:0.12642926 33:0.49292987 34:0.15716915 35:0.11042005 36:0.45454545 37:0.2 38:0.076923077 40:0.076830508 41:0.15625 42:0.1 43:0.5 46:0.2 47:0.27272727 52:0.33333333 53:0.2 55:0.16666667 56:0.33333333 57:0.14285714 
-4 0:0.60714286 1:0.64678899 2:0.7 3:0.068965517 4:0.09375 5:0.69863014 6:0.76984127 7:0.78928571 8:0.4122807 9:0.43513625 10:0.60047911 12:0.013960114 13:0.003005842 14:0.015217391 15:0.092761362 16:0.11764706 18:0.15384615 20:0.22662106 21:0.3888145 22:0.43552067 24:0.023885333 25:0.4588825 26:0.57756711 27:0.5814308 28:0.17769122 29:0.17800614 30:0.33239634 32:0.0279218 33:0.0037827953 34:0.036722606 35:0.074865477 36:0.18181818 37:0.2 38:0.15384615 40:0.090420566 41:0.09375 42:0.2 44:0.14285714 47:0.090909091 50:0.33333333 51:0.14285714 52:0.33333333 58:0.16666667 59:0.125 
4 0:0.51242236 1:0.52015934 2:0.41111111 4:0.62723214 5:0.73972603 6:0.97619048 7:0.5 8:0.087719298 9:0.8962951 10:0.036660356 11:0.96184168 12:0.37037037 13:0.85122922 14:0.0031055901 15:0.52351192 16:0.47058824 17:0.27272727 18:0.46153846 19:0.33333333 20:0.43279425 21:0.40407851 22:0.29229885 23:0.0075033323 24:0.10889469 25:0.62748957 26:0.68854587 27:0.48489958 28:0.2101827 29:0.71228802 30:0.29233551 31:0.58228652 32:0.26204378 33:0.4293746 34:0.050013938 35:0.22040509 36:0.27272727 37:0.2 38:0.46153846 39:0.4 40:0.42201797 41:0.40625 42:0.2 44:0.57142857 45:0.14285714 46:0.2 49:0.4 50:0.33333333 52:0.33333333 53:0.2 56:0.33333333 57:0.28571429 59:0.375 
-2.705206284808662 0:0.47049689 1:0.46674312 2:0.92222222 4:0.29464286 5:0.40068493 6:0.53174603 7:0.52857143 8:0.35964912 9:0.4429209 10:0.54120013 11:0.35508581 12:0.037037037 13:0.29324107 14:0.01863354 15:0.31544202 16:0.17647059 18:0.23076923 20:0.22780712 21:0.3180014 22:1 23:0.0075033323 24:0.57596762 25:0.39647533 26:0.41768912 27:0.42866637 28:0.18457921 29:0.46159157 30:0.41261863 31:0.31372188 32:0.067415117 33:0.21951328 34:0.059468297 35:0.47922815 36:0.54545455 37:0.4 38:0.23076923 40:0.15799739 41:0.1875 42:0.1 47:0.18181818 48:0.33333333 51:0.42857143 53:0.4 56:0.33333333 57:0.14285714 58:0.16666667 
-2.175540514666684 0:0.5015528 1:0.49082569 2:0.11111111 3:0.068965517 4:0.17410714 5:0.56164384 6:0.92063492 7:0.32857143 8:0.36842105 9:0.23033768 10:0.34339674 12:0.013960114 13:0.003005842 14:0.015217391 15:0.18502518 16:0.17647059 18:0.23076923 19:0.33333333 20:0.25038983 21:0.42959466 22:0.22145646 24:0.27003046 25:0.54395473 26:1 27:0.33634433 28:0.51346268 29:0.031016844 30:0.17629814 32:0.0279218 33:0.0037827953 34:0.036722606 35:0.25936315 36:0.27272727 38:0.23076923 39:0.4 40:0.13563085 41:0.09375 42:0.1 48:0.33333333 50:0.33333333 51:0.28571429 53:0.2 55:0.16666667 59:0.125 61:0.2 
-4 0:0.31832298 1:0.33158585 2:0.81111111 4:0.10044643 5:0.4760274 6:0.97619048 7:0.16428571 8:0.052631579 9:0.45603442 10:0.031783714 11:0.399804 12:0.071225071 13:0.11794271 14:0.046583851 15:0.18370245 16:0.35294118 17:0.27272727 18:0.30769231 19:0.33333333 20:0.20326082 21:0.25970742 22:0.89577139 23:0.0075033323 24:0.10889469 25:0.28368694 26:0.62297175 27:0.16711844 28:0.0068879806 29:0.49078505 30:0.18357741 31:0.22446017 32:0.12878765 33:0.088836948 34:0.067521638 35:0.13214657 36:0.36363636 37:0.4 38:0.30769231 39:0.4 40:0.28368986 41:0.25 44:0.28571429 45:0.14285714 46:0.2 48:0.33333333 49:0.4 50:0.33333333 53:0.2 54:0.28571429 56:0.33333333 57:0.14285714 59:0.125 
4 0:0.83385093 1:0.80183486 2:1 3:0.068965517 4:0.22544643 5:0.82534247 6:0.94444444 7:0.71785714 8:0.53508772 9:0.88112201 10:0.54786539 11:0.65491129 12:0.52136752 13:0.27820784 14:0.062111801 15:0.33178812 16:0.11764706 18:0.53846154 19:0.5 20:0.65093906 21:0.7098739 22:0.74820483 24:0.23973554 25:0.76521192 26:1 27:0.49678066 28:0.39980342 29:0.81613708 30:0.5274051 31:0.46711577 32:0.35601454 33:0.10067416 34:0.023506124 35:0.34024033 36:0.18181818 38:0.53846154 39:0.6 40:0.37033425 41:0.28125 42:0.2 49:0.6 50:0.33333333 51:0.57142857 53:0.2 54:0.28571429 57:0.14285714 61:0.2 
4 0:0.63975155 1:0.64484827 2:0.11111111 4:0.0625 5:0.80821918 6:0.86507937 7:0.63214286 8:0.35964912 9:0.80337157 10:0.46668429 11:0.48637492 12:0.2991453 13:0.30783064 14:0.20496894 15:0.20473272 16:0.17647059 18:0.46153846 19:0.5 20:0.5269173 21:0.65647176 22:0.38492102 23:0.0075033323 24:0.069437756 25:0.68854758 26:0.90881949 27:0.58879429 28:0.18457921 29:0.70260688 30:0.56311044 31:0.2205063 32:0.39181593 33:0.1675571 34:0.35991836 35:0.23132873 36:0.18181818 37:0.2 38:0.46153846 39:0.6 40:0.24520198 41:0.21875 44:0.28571429 46:0.4 47:0.090909091 49:0.2 51:0.28571429 56:0.33333333 57:0.28571429 59:0.125 61:0.2 
-4 0:0.47049689 1:0.43405963 2:0.14444444 3:0.068965517 4:0.16964286 5:0.54452055 6:0.86507937 7:0.39285714 8:0.14035088 9:0.38139868 10:0.53302267 12:0.013960114 13:0.003005842 14:0.015217391 15:0.18697895 16:0.17647059 17:0.090909091 18:0.23076923 19:0.16666667 20:0.23004015 21:0.43158357 22:0.015405408 24:0.1229814 25:0.57137008 26:0.68854587 27:0.53873617 28:0.33761383 29:0.30722752 30:0.46962556 32:0.0279218 33:0.0037827953 34:0.036722606 35:0.25478975 36:0.18181818 38:0.23076923 39:0.2 40:0.090067847 41:0.0625 45:0.28571429 46:0.2 48:0.33333333 49:0.2 50:0.33333333 51:0.14285714 57:0.14285714 
-4 0:0.60559006 1:0.65854358 2:0.92222222 5:0.6609589 6:0.92063492 7:0.61071429 8:0.35964912 9:0.38139868 10:0.53302267 12:0.013960114 13:0.003005842 14:0.015217391 15:0.090577028 16:0.058823529 18:0.23076923 19:0.16666667 20:0.22031827 21:0.41281872 22:1 23:0.0075033323 24:0.0045010999 25:0.54096304 26:0.71415226 27:0.31305474 28:0.18457921 29:0.30722752 30:0.46962556 32:0.0279218 33:0.0037827953 34:0.036722606 35:0.0047526956 36:0.27272727 37:0.4 38:0.23076923 39:0.2 40:0.07100027 41:0.0625 47:0.18181818 51:0.14285714 56:0.33333333 58:0.16666667 59:0.25 61:0.2 
-2.141414476917139 0:0.52639752 1:0.52752294 2:1 3:0.068965517 4:0.18526786 5:0.42808219 6:0.78571429 7:0.53571429 8:0.1754386 9:0.68221888 10:0.91064038 12:0.013960114 13:0.003005842 14:0.015217391 15:0.25790911 16:0.17647059 17:0.090909091 18:0.23076923 20:0.23524284 21:0.40360691 22:0.74820483 24:0.28798381 25:0.29495708 26:0.28591268 27:0.511312 28:0.41394543 29:0.52027636 30:0.695877 32:0.0279218 33:0.0037827953 34:0.036722606 35:0.34919114 36:0.18181818 38:0.23076923 40:0.12639791 41:0.09375 42:0.1 44:0.14285714 45:0.14285714 48:0.33333333 49:0.4 50:0.33333333 51:0.14285714 58:0.16666667 
4 0:0.49534161 1:0.50688073 2:0.81111111 3:0.068965517 4:0.45758929 5:0.49315068 6:1 7:0.41785714 8:0.40350877 9:0.6912921 10:0.38310235 11:0.56333398 12:0.27920228 13:0.28975289 14:0.071428571 15:0.39764577 16:0.29411765 18:0.46153846 19:0.33333333 20:0.57237401 21:0.54074064 22:0.89577139 24:0.2241545 25:0.71006398 26:1 27:0.34275043 28:0.17769122 29:0.7009034 30:0.43185663 31:0.41111969 32:0.38440065 33:0.17404519 34:0.026271553 35:0.37531068 36:0.27272727 37:0.2 38:0.53846154 39:0.4 40:0.4182418 41:0.375 44:0.28571429 46:0.4 47:0.090909091 49:0.4 50:0.33333333 51:0.28571429 53:0.2 54:0.14285714 55:0.16666667 57:0.28571429 58:0.16666667 60:0.33333333 61:0.2 
3.266939078236781 0:0.58540373 1:0.58165138 2:0.41111111 4:0.34151786 5:0.60616438 6:0.94444444 7:0.525 8:0.087719298 9:0.80395729 10:0.24985295 11:0.83484706 12:0.14814815 13:0.6314734 14:0.0031055901 15:0.31381591 16:0.29411765 17:0.18181818 18:0.46153846 19:0.5 20:0.47303614 21:0.52673673 22:0.29229885 23:0.0075033323 24:0.22658072 25:0.51524289 26:0.77972638 27:0.63843753 28:0.34450181 29:0.81247712 30:0.38715714 31:0.72832854 32:0.14750543 33:0.65286075 34:0.0075082029 35:0.29229081 36:0.27272727 38:0.46153846 39:0.6 40:0.31122269 41:0.28125 44:0.14285714 45:0.14285714 46:0.4 49:0.4 51:0.14285714 52:0.33333333 53:0.4 56:0.33333333 57:0.42857143 59:0.125 
-4 0:0.51086957 1:0.50959133 2:0.45555556 3:0.068965517 4:0.515625 5:0.44178082 6:0.78571429 7:0.525 8:0.47368421 9:0.60121829 10:0.60213942 11:0.32617998 12:0.64387464 13:0.36280322 14:0.70186335 15:0.46468054 16:0.23529412 18:0.23076923 20:0.19670146 21:0.29420425 22:0.19356563 24:0.09332309 25:0.33376207 26:0.28591268 27:0.52400795 28:0.19183323 29:0.39207344 30:0.43504347 31:0.17778251 32:0.27354008 33:0.20955274 34:0.33704374 35:0.14867194 36:0.27272727 37:0.2 38:0.23076923 40:0.14917941 41:0.15625 42:0.2 44:0.28571429 45:0.14285714 47:0.090909091 48:0.33333333 49:0.4 50:0.33333333 59:0.125 
-4 0:0.43944099 1:0.42326939 2:0.92222222 4:0.10044643 5:0.40753425 6:0.73015873 7:0.39642857 8:0.1754386 9:0.43326197 10:0.51225311 11:0.09573494 12:0.062678063 13:0.1086076 14:0.068322981 15:0.11834233 16:0.17647059 17:0.090909091 18:0.15384615 20:0.22042814 21:0.32751075 22:1 23:0.0075033323 24:0.014189574 25:0.30364248 26:0.5061863 27:0.40401279 28:0.27521527 29:0.48161551 30:0.32907352 31:0.24854664 32:0.23178434 33:0.29145693 34:0.28598838 35:0.095153221 36:0.18181818 38:0.15384615 40:0.14542399 41:0.15625 42:0.1 44:0.14285714 49:0.2 51:0.14285714 53:0.2 56:0.33333333 57:0.42857143 58:0.16666667 61:0.2 
-4 0:0.31055901 1:0.33807339 2:1 4:0.25 5:0.44520548 6:0.78571429 7:0.31071429 8:0.1754386 9:0.54920716 10:0.16726287 11:0.67838681 12:0.40740741 13:0.26614193 14:0.19875776 15:0.23264365 16:0.41176471 17:0.27272727 18:0.15384615 20:0.24615328 21:0.29317852 22:0.74820483 23:0.0075033323 24:0.014189574 25:0.27160035 26:0.46192108 27:0.316771 28:0.27521527 29:0.49232542 30:0.34180389 31:0.4193158 32:0.2130735 33:0.15966051 34:0.10614115 35:0.14286167 36:0.18181818 38:0.15384615 40:0.24269145 41:0.28125 42:0.3 44:0.42857143 45:0.14285714 49:0.2 51:0.14285714 53:0.2 55:0.16666667 56:0.33333333 57:0.28571429 58:0.16666667 
-0.3757957802687296 0:0.4378882 1:0.37987385 2:0.066666667 4:0.32589286 5:0.44178082 6:0.84126984 7:0.375 8:0.33333333 9:0.38139868 10:0.53302267 12:0.013960114 13:0.003005842 14:0.015217391 15:0.25271525 16:0.23529412 18:0.23076923 19:0.16666667 20:0.16115692 21:0.29862748 23:0.0075033323 24:0.26050834 25:0.41580704 26:0.46192108 27:0.58291108 28:0.2829501 29:0.30722752 30:0.46962556 32:0.0279218 33:0.0037827953 34:0.036722606 35:0.24320667 36:0.27272727 38:0.15384615 40:0.090420566 41:0.0625 43:0.5 44:0.14285714 49:0.2 50:0.33333333 51:0.14285714 53:0.2 56:0.33333333 61:0.2 
