svm_type epsilon_svr
kernel_type rbf
gamma 0.0625
nr_class 2
total_sv 483
rho 0.162405
SV
4 0:0.45729781 1:0.40240181 2:0.53567194 3:0.20524921 4:0.033485111 5:0.17333513 6:0.46218104 7:0.29067757 8:0.66146962 9:0.57873165 10:0.4773636 11:0.60776612 12:0.053742036 13:0.40785519 14:0.0074054352 15:0.4204473 16:0.24793815 17:0.62720157 18:0.50975221 19:0.69999999 22:0.19999999 23:0.38306452 24:0.18431373 25:0.88505744 26:0.11111111 27:0.2029501 28:0.69059752 29:0.15309619 30:0.56589744 31:0.043478257 32:0.4611111 33:0.37821424 34:0.46875 35:0.52222123 36:0.27272727 37:0.11764706 38:0.33333333 39:0.25 40:0.13333333 42:0.28571429 43:0.083333333 44:0.25 45:0.22222222 47:0.2 49:0.25 51:0.2 52:0.3 53:0.2 54:0.66666667 55:0.14285714 56:0.14285714 57:0.22222222 58:0.33333333 
-4 0:0.50456763 1:0.56283522 2:0.53567194 3:0.13045002 4:0.18848246 5:0.23447754 6:0.50939197 7:0.56647365 8:0.44486849 9:0.74731183 10:0.61034842 11:0.67640097 12:0.07748813 13:0.43421224 14:0.081355877 15:0.35699095 16:0.31705635 17:0.77495109 18:0.70912326 19:0.69999999 20:0.066666656 21:0.35714287 22:0.18857143 23:0.77822582 24:0.48627452 25:1 26:0.22222222 27:0.40713368 28:0.90408758 29:0.28928459 30:0.63653839 31:0.023411372 32:0.45555555 33:0.36354372 34:0.3125 35:0.39285714 36:0.18181818 37:0.11764706 38:0.38888889 39:0.33333333 40:0.13333333 43:0.16666667 44:0.25 45:0.11111111 47:0.6 48:0.25 49:0.25 50:0.33333333 51:0.2 52:0.1 53:0.2 56:0.14285714 59:0.25 
-1.205143355229428 0:0.22825415 1:0.20245023 2:0.53567194 3:0.20524921 4:0.078471062 5:0.026401856 6:0.25768559 7:0.34000525 8:0.70880742 9:0.37259638 10:0.45514945 11:0.43837039 12:0.037352496 13:0.36996689 14:0.035702122 15:0.27360967 16:0.21245134 17:0.74070451 18:0.64434217 19:0.69999999 21:0.14285715 22:0.05142857 23:0.45161291 24:0.58823529 25:0.73563216 26:0.43333333 27:0.50277893 28:0.69182486 29:0.066924506 30:0.51025185 31:0.010033443 32:0.38611111 33:0.2945925 34:0.46875 35:0.41844051 36:0.13636364 38:0.33333333 39:0.25 40:0.13333333 41:0.5 42:0.14285714 44:0.25 45:0.44444444 46:0.16666667 47:0.4 49:0.125 51:0.4 52:0.1 54:0.33333333 55:0.28571429 56:0.28571429 57:0.11111111 
-2.026892951443374 0:0.47185576 1:0.38307497 2:0.53567194 3:0.13045002 4:0.42341649 5:0.47574795 6:0.36068586 7:0.35844893 8:0.44791678 9:0.26202634 10:0.48254117 11:0.62709375 12:0.16082137 13:0.50628642 14:0.086882429 15:0.56774807 16:0.24498265 17:0.35029355 18:0.21472175 19:0.69999999 20:0.066666656 21:0.30158731 22:0.52 23:0.17741936 24:0.18039216 25:0.25287357 26:0.13333331 27:0.2473474 28:0.59326557 29:0.15673238 30:0.62291861 31:0.036789299 32:0.44166666 33:0.35360348 34:0.53125 35:0.63194692 36:0.5 37:0.29411765 38:0.38888889 39:0.25 40:0.13333333 42:0.28571429 43:0.41666667 47:0.2 48:0.75 49:0.25 52:0.1 53:0.4 55:0.14285714 56:0.14285714 58:1 59:0.5 
-4 0:0.40128839 1:0.4730978 2:0.53567194 3:0.53567194 5:0.1537261 6:0.25642655 7:0.52337684 8:0.67732342 9:0.53798443 10:0.48730797 11:0.49737705 12:0.15555012 13:0.4584043 14:0.018750744 15:0.29239646 16:0.36124473 17:0.77592956 18:0.71723369 19:0.69999999 20:0.69999999 22:0.10857143 23:0.53629033 24:0.40784314 25:0.91954022 26:0.22222222 27:0.39122397 28:0.76349754 29:0.27475255 30:0.58617654 31:0.02341137 32:0.31666666 33:0.23507283 34:0.28125 35:0.27818846 36:0.090909091 37:0.11764706 38:0.33333333 39:0.33333333 40:0.33333333 42:0.14285714 43:0.083333333 44:0.25 45:0.11111111 46:0.16666667 47:0.2 49:0.25 53:0.2 55:0.14285714 56:0.28571429 
-4 0:0.6015065 1:0.57721086 2:0.53567194 3:0.20524921 4:0.20469233 5:0.084345494 6:0.37600285 7:0.44887612 8:0.70880742 9:0.72158707 10:0.49481604 11:0.66502065 12:0.40392858 13:0.60937346 14:0.14631162 15:0.51370981 16:0.36217955 17:0.73972604 18:0.64749145 19:0.69999999 21:0.22222223 22:0.12 23:0.53225806 24:0.36078432 25:0.72413792 26:0.22222222 27:0.18593779 28:0.87197511 29:0.43198407 30:0.74191238 31:1.9934664e-09 32:0.2111111 33:0.29668656 34:0.40625 35:0.43696562 36:0.18181818 37:0.058823529 38:0.44444444 39:0.5 40:0.13333333 42:0.14285714 44:0.5 45:0.33333333 49:0.5 51:0.2 52:0.1 53:0.4 54:0.33333333 55:0.14285714 57:0.11111111 59:0.5 
-2.677255249230314 0:0.63340227 1:0.74724675 2:0.53567194 3:0.13045002 4:0.068800557 5:0.56706439 6:0.84770953 7:0.77133131 8:1 9:0.65266679 10:0.48114023 11:0.91660017 12:0.38424741 13:0.6765619 14:0.08550262 15:0.31866341 16:0.29335785 17:0.76810177 18:0.7046756 19:0.69999999 20:0.066666656 22:0.61428571 23:0.6451613 24:0.43921569 25:0.91954022 26:0.17777777 27:0.035332364 28:0.8409092 29:0.47876437 30:0.80773379 31:0.026755847 32:0.37777777 33:0.44027315 34:0.28125 35:0.35968115 36:0.22727273 37:0.11764706 38:0.38888889 39:0.5 40:0.2 42:0.14285714 43:0.25 44:0.25 47:0.2 48:0.25 49:0.5 50:0.33333333 51:0.2 52:0.1 
3.135427831344195 0:0.12233034 1:0.17125501 2:0.53567194 3:0.20524921 4:0.068800557 6:0.2822433 7:0.25420755 8:0.37027705 9:0.36231416 10:0.318156 11:0.2952699 12:0.24565514 13:0.3962984 14:0.3043204 15:0.37289881 16:0.18675848 17:0.70058709 18:0.5960257 19:0.69999999 23:0.6532258 24:0.5254902 25:0.77011492 26:0.11111111 27:0.4713281 28:0.68551627 29:0.4334651 30:0.40946489 31:0.14046822 32:0.34166665 33:0.13936251 34:0.1875 35:0.12072497 36:0.045454545 37:0.058823529 38:0.16666667 39:0.16666667 40:0.13333333 43:0.083333333 44:0.25 45:0.44444444 46:0.16666667 54:0.33333333 55:0.14285714 57:0.22222222 59:0.25 
-2.703687226272244 0:0.79166209 1:0.53571577 2:0.53567194 3:0.20524921 4:0.17108622 5:0.5015684 6:0.69868531 7:0.49039574 8:1 9:0.66815083 10:0.45177064 11:0.77014152 12:0.037509702 13:0.42370559 14:0.014886464 15:0.43262832 16:0.25676185 17:0.65166342 18:0.55256575 19:0.69999999 22:0.65428571 23:0.60483872 24:0.42745099 25:1 26:0.11111111 27:0.17191541 28:0.80218754 29:0.016509506 30:0.66498682 31:0.11036789 32:0.54166666 33:0.46358095 34:0.6875 35:0.74011399 36:0.5 37:0.23529412 38:0.5 39:0.41666667 40:0.13333333 42:0.57142857 43:0.33333333 44:0.25 45:0.33333333 47:1 49:0.5 51:0.2 52:0.2 53:0.2 54:0.66666667 55:0.14285714 
-4 0:0.32767585 1:0.36551594 2:0.53567194 3:0.13045002 4:0.17236435 5:0.17966572 6:0.28622181 7:0.58703901 8:0.35482507 9:0.37259638 10:0.44981981 11:0.46474692 12:0.20301641 13:0.47948404 14:0.052983882 15:0.29995146 16:0.28550419 17:0.58904111 18:0.42743834 19:0.69999999 20:0.066666656 22:0.18285714 23:0.31854839 24:0.3882353 25:0.68965517 26:0.22222222 27:0.25386524 28:0.68988775 29:0.221824 30:0.55024116 31:0.093645482 32:0.44166666 33:0.36977423 34:0.3125 35:0.38947274 36:0.22727273 37:0.11764706 38:0.33333333 39:0.25 40:0.13333333 42:0.28571429 43:0.083333333 44:0.5 46:0.16666667 47:0.4 48:0.25 51:0.4 52:0.1 55:0.14285714 58:1 
-4 0:0.41254858 1:0.30107354 2:0.53567194 3:0.20524921 5:0.22377744 6:0.19050608 7:0.43542333 8:0.46365125 9:0.56844943 10:0.46826809 11:0.34762382 12:0.090094977 13:0.17080784 14:0.0038187385 15:0.28503083 16:0.097275121 17:0.67318983 18:0.57029283 19:0.69999999 22:0.22857142 23:0.50806451 24:0.18431373 25:0.65517239 26:0.22222222 27:0.12990174 28:0.63810365 29:0.062860426 30:0.53779197 31:0.010033451 32:0.28333331 33:0.22868666 34:0.625 35:0.51894817 36:0.27272727 37:0.11764706 38:0.38888889 39:0.33333333 40:0.33333333 42:0.14285714 43:0.25 45:0.66666667 49:0.125 51:0.2 52:0.1 53:0.2 54:0.33333333 55:0.28571429 56:0.28571429 57:0.44444444 
-4 0:0.36419629 1:0.42928844 2:0.53567194 3:0.20524921 4:0.23817744 5:0.30867482 6:0.49635188 7:0.46190891 8:0.46365125 9:0.56540818 10:0.38279832 11:0.60063882 12:0.16858065 13:0.55491312 14:0.19534923 15:0.47441984 16:0.36837497 17:0.61448142 18:0.4582231 19:0.69999999 21:0.22222223 22:0.33714285 23:0.35483871 24:0.41568627 25:0.60919539 26:0.11111111 27:0.21407172 28:0.7631969 29:0.29385023 30:0.70627483 31:0.13377927 32:0.54444444 33:0.48232124 34:0.28125 35:0.32988956 36:0.27272727 37:0.17647059 38:0.16666667 39:0.083333333 40:0.066666667 42:0.28571429 43:0.16666667 44:0.25 47:0.2 48:0.25 49:0.25 51:0.2 52:0.1 54:0.33333333 55:0.28571429 56:0.14285714 57:0.11111111 
-2.724949048862033 0:0.40424877 1:0.5755793 2:0.53567194 3:0.20524921 5:0.0330583 6:0.41266375 7:0.76121878 8:0.46365125 9:0.56844943 10:0.67461982 11:0.69306024 12:0.11937356 13:0.32053827 14:0.34908224 15:0.54875153 16:0.32303026 17:0.74266146 18:0.67798966 19:0.69999999 23:0.58467741 24:0.47450981 25:0.93103444 26:0.22222222 27:0.6188693 28:0.77723356 29:0.32679188 30:0.41184906 31:0.080267549 32:0.2972222 33:0.26300324 34:0.1875 35:0.22152209 36:0.13636364 37:0.058823529 38:0.22222222 39:0.33333333 40:0.066666667 43:0.16666667 45:0.22222222 49:0.25 51:0.2 54:0.33333333 56:0.14285714 57:0.33333333 59:0.25 
-4 0:0.60482092 1:0.55466552 2:0.53567194 3:0.13045002 4:0.35461594 5:0.060669266 6:0.58818172 7:0.51430953 8:0.67732342 9:0.7318693 10:0.48197093 11:0.60961321 12:0.26544245 13:0.40147243 14:0.010122501 15:0.39167437 16:0.24072319 17:0.92661449 18:0.87692121 19:0.69999999 20:0.066666656 21:0.30158731 22:0.12 23:0.91532259 24:0.56078431 25:1 26:0.43333333 27:0.28527441 28:0.89345953 29:0.48663069 30:0.59159666 31:0.12374581 32:0.63888887 33:0.38321712 34:0.4375 35:0.56445939 36:0.13636364 38:0.5 39:0.58333333 40:0.2 43:0.083333333 47:0.8 48:0.25 49:0.25 51:0.4 52:0.2 55:0.28571429 56:0.28571429 57:0.33333333 
-3.54346502662623 0:0.55835742 1:0.49062529 2:0.53567194 3:0.13045002 4:0.35461594 5:0.060669266 6:0.58818172 7:0.51430953 8:0.67732342 9:0.26202634 10:0.4380719 11:0.60961321 12:0.26544245 13:0.43879443 14:0.010122501 15:0.39167437 16:0.22747066 17:0.88845402 18:0.81954117 19:0.69999999 20:0.066666656 21:0.30158731 22:0.12 23:0.91532259 24:0.56078431 25:1 26:0.13333331 27:0.28527441 28:0.89345953 29:0.48663069 30:0.61805106 31:0.12374581 32:0.63888887 33:0.36287977 34:0.46875 35:0.5994389 36:0.18181818 37:0.058823529 38:0.5 39:0.58333333 40:0.2 43:0.083333333 47:0.8 48:0.5 49:0.25 51:0.4 52:0.2 55:0.28571429 56:0.28571429 57:0.33333333 
-4 0:0.42668357 1:0.56821566 2:0.53567194 3:0.13045002 5:0.26705213 6:0.70748898 7:0.56095224 8:1 9:0.37259638 10:0.36024889 11:0.70351189 12:0.46588245 13:0.55337687 14:0.12886726 15:0.34654887 16:0.43290125 17:0.78962819 18:0.75804748 19:0.69999999 20:0.066666656 22:0.39999999 23:0.66129032 24:0.64705882 25:0.96551722 26:0.38888888 27:0.5360813 28:0.8123703 29:0.52634487 30:0.50318755 31:0.35785951 32:0.56388887 33:0.57002626 34:0.21875 35:0.32554774 36:0.090909091 38:0.27777778 39:0.25 40:0.13333333 43:0.16666667 46:0.16666667 47:0.2 48:0.25 49:0.375 52:0.3 57:0.22222222 
0.2222538133199031 0:0.25777925 1:0.27318537 2:0.53567194 3:0.20524921 4:0.078471062 5:0.068869433 6:0.37455402 7:0.19051411 8:1 9:0.37308425 11:0.4765621 12:0.34853043 13:0.80056171 14:0.21726602 15:0.36904126 16:0.51623327 17:0.63405089 18:0.50101974 19:0.69999999 21:0.14285715 22:0.079999999 23:0.26612904 24:0.28235295 25:0.83908045 26:0.22222222 27:0.19093688 28:0.55955281 29:0.073081216 30:0.46383964 31:0.013377926 32:0.26666665 33:0.30661351 34:0.34375 35:0.37074724 36:0.18181818 37:0.058823529 38:0.38888889 39:0.5 40:0.26666667 42:0.14285714 44:0.25 46:0.5 49:0.375 50:0.33333333 51:0.4 53:0.2 54:0.33333333 55:0.14285714 59:0.25 
-3.95291737505996 0:0.41028416 1:0.73957271 2:0.53567194 3:0.20524921 4:0.18031996 5:0.15025405 6:0.46276781 7:0.90463664 8:0.46365125 9:0.89725735 10:0.8103502 11:0.62093202 12:0.33142645 13:0.2248006 14:0.054416483 15:0.042918117 16:0.62715332 17:0.76125246 18:0.74591751 19:0.69999999 21:0.33333333 22:0.16285714 23:0.45564516 24:0.83921569 25:0.66666664 26:0.81111111 27:0.71491578 28:0.68835977 29:0.32995916 30:0.26930259 31:0.016722412 32:0.013888875 33:0.77155752 34:0.09375 35:0.14283487 36:0.13636364 38:0.22222222 39:0.25 40:0.13333333 43:0.083333333 49:0.375 50:0.33333333 51:0.4 54:0.33333333 57:0.11111111 
0.02041862161390657 0:0.81905682 1:0.50501561 2:0.53567194 3:0.20524921 4:0.18031996 5:0.55851512 6:0.49189801 7:0.43090784 8:1 9:0.37308425 10:0.33587926 11:0.6282221 12:0.086816308 13:0.63204965 14:0.0048904166 15:0.49560865 16:0.57160683 17:0.78571429 18:0.66747702 19:0.69999999 21:0.33333333 22:0.72571429 23:0.63709678 24:0.60000001 25:0.91954022 26:0.22222222 27:0.15630592 28:0.8505947 29:0.064413257 30:0.69994021 31:0.020066892 32:0.45277777 33:0.48526195 34:0.78125 35:0.84652208 36:0.36363636 37:0.17647059 38:0.72222222 39:0.58333333 40:0.26666667 41:0.25 42:0.57142857 43:0.33333333 45:0.22222222 46:0.5 47:0.8 49:0.75 52:0.1 54:0.33333333 55:0.28571429 57:0.11111111 
4 0:0.77282772 1:0.52311015 2:0.53567194 3:0.13045002 5:0.29894659 6:0.50863688 7:0.47547529 8:1 9:0.50409742 10:0.40439173 11:0.84512784 12:0.027002052 13:0.70876035 14:0.029333297 15:0.29025501 16:0.13644911 17:0.82387476 18:0.70912326 19:0.69999999 20:0.066666656 22:0.46857143 23:0.80241934 24:0.49411765 25:0.93103444 26:0.22222222 27:0.2390998 28:0.88764823 29:0.061130721 30:0.74523216 31:0.076923071 32:0.3222222 33:0.3040047 34:0.6875 35:0.70275205 36:0.31818182 37:0.11764706 38:0.66666667 39:0.66666667 40:0.4 42:0.42857143 43:0.083333333 45:0.33333333 47:0.2 48:0.25 49:0.5 50:0.33333333 51:0.2 53:0.4 55:0.14285714 56:0.42857143 57:0.33333333 
-4 0:0.42217272 1:0.49776421 2:0.53567194 3:0.13045002 4:0.18848246 5:0.11621928 6:0.32460444 7:0.67639666 8:0.67732342 9:0.74731183 10:0.58477184 11:0.4802902 12:0.25204723 13:0.32687511 14:0.0032909799 15:0.14531173 16:0.2356984 17:0.76614483 18:0.70153608 19:0.69999999 20:0.066666656 21:0.35714287 22:0.23142857 23:0.35483872 24:0.60000001 25:0.91954022 26:0.22222222 27:0.47172342 28:0.77094531 29:0.31916082 30:0.53544643 31:0.070234116 32:0.30555555 33:0.622646 34:0.28125 35:0.33919665 36:0.22727273 37:0.058823529 38:0.33333333 39:0.25 40:0.2 43:0.16666667 44:0.25 45:0.11111111 47:0.8 48:0.25 49:0.125 51:0.2 52:0.1 53:0.4 
4 0:0.48460292 1:0.512886 2:0.53567194 3:0.13045002 4:0.078471062 5:0.034414362 6:0.62676505 7:0.48127077 8:1 9:0.6689976 10:0.53305009 11:0.62398752 12:0.18023362 13:0.30506021 14:0.020404052 15:0.29554745 16:0.14053197 17:0.78669277 18:0.72012535 19:0.69999999 20:0.066666656 21:0.14285715 23:0.76612903 24:0.18431373 25:0.88505744 26:0.22222222 27:0.4981276 28:0.84881808 29:0.06214967 30:0.27807962 31:0.010033439 32:0.39722221 33:0.19203743 34:0.34375 35:0.39889116 36:0.18181818 37:0.17647059 38:0.38888889 39:0.5 40:0.26666667 42:0.14285714 43:0.083333333 44:0.25 47:0.2 48:0.25 49:0.25 51:0.2 52:0.1 53:0.2 55:0.28571429 56:0.14285714 57:0.22222222 
4 0:0.26925727 1:0.35748854 2:0.53567194 3:0.13045002 4:0.18848246 5:0.091611578 6:0.3010651 7:0.51912474 8:0.38613085 9:0.7318693 10:0.48928676 11:0.53659439 12:0.2048725 13:0.45371035 14:0.0092014108 15:0.19201769 16:0.11543897 17:0.71037183 18:0.61394341 19:0.69999999 20:0.066666656 21:0.35714287 22:0.17428571 23:0.54032258 24:0.47058824 25:0.8045977 26:0.22222222 27:0.34385754 28:0.91958437 29:0.50168418 30:0.86101765 31:0.01003344 32:0.2361111 33:0.41591769 34:0.21875 35:0.25358479 36:0.18181818 37:0.058823529 38:0.22222222 39:0.25 40:0.13333333 42:0.14285714 43:0.083333333 44:0.25 45:0.11111111 47:0.4 48:0.25 50:0.33333333 51:0.2 52:0.1 53:0.2 56:0.14285714 57:0.11111111 
-4 0:0.44283245 1:0.58983216 2:0.53567194 3:0.13045002 4:0.033485111 5:0.20638286 6:0.68099668 7:0.52574221 8:1 9:0.49332733 10:0.74542812 11:0.61183444 12:0.21470661 13:0.24378962 14:0.17614601 15:0.44229042 16:0.30251639 17:0.76027398 18:0.7046756 19:0.69999999 20:0.066666656 21:0.19841271 22:0.35142857 23:0.56451614 24:0.58431373 25:0.83908045 26:0.17777777 27:0.48140055 28:0.84354021 29:0.4036157 30:0.51720193 31:0.050167234 32:0.37222222 33:0.41486958 34:0.21875 35:0.24601443 36:0.18181818 37:0.058823529 38:0.27777778 39:0.33333333 40:0.13333333 41:0.25 42:0.28571429 43:0.083333333 45:0.11111111 48:0.5 49:0.5 55:0.14285714 57:0.11111111 
1.420227225297194 0:0.27992172 1:0.26973531 2:0.53567194 3:0.13045002 4:0.433087 5:0.20789938 6:0.1439993 7:0.4750929 8:0.44486849 9:0.49332733 10:0.50822344 11:0.39183008 12:0.060839702 13:0.35081173 14:0.040402904 15:0.43562968 16:0.55834339 17:0.70645793 18:0.60428563 19:0.69999999 20:0.066666656 21:0.44444446 22:0.26285714 23:0.3830645 24:0.57647059 25:0.65517239 26:0.52222221 27:0.4492216 28:0.5818916 29:0.051560243 30:0.30530866 31:0.090300998 32:0.25833332 33:0.70018776 34:0.40625 35:0.44493676 36:0.22727273 38:0.38888889 39:0.16666667 40:0.26666667 42:0.14285714 43:0.16666667 44:0.25 45:0.11111111 46:0.33333333 48:0.5 49:0.125 53:0.2 55:0.14285714 56:0.14285714 57:0.44444444 
-4 0:0.59812798 1:0.5485571 2:0.53567194 3:0.13045002 4:0.35461594 5:0.28738067 6:0.51586606 7:0.51428143 8:0.67732342 9:0.73539841 10:0.62082458 11:0.63640153 12:0.11890292 13:0.36657329 14:0.019841414 15:0.35939466 16:0.23256737 17:0.80821919 18:0.73014854 19:0.69999999 20:0.066666656 21:0.30158731 22:0.36857143 23:0.70564516 24:0.39607844 25:0.91954022 26:0.22222222 27:0.59884623 28:0.85022174 29:0.078710926 30:0.32142793 31:0.073578593 32:0.49999999 33:0.37771452 34:0.4375 35:0.47873619 36:0.18181818 37:0.058823529 38:0.5 39:0.5 40:0.26666667 42:0.28571429 43:0.083333333 44:0.5 45:0.22222222 47:0.4 48:0.25 49:0.25 51:0.2 52:0.1 55:0.14285714 56:0.14285714 57:0.11111111 58:0.33333333 
4 0:0.51910841 1:0.52261609 2:0.37220854 3:0.13045002 4:0.068800557 5:0.37314996 6:0.50361528 7:0.62774004 8:0.67732342 9:0.49332733 10:0.37728296 11:0.62894999 12:0.36978489 13:0.56456569 14:0.31941 15:0.4662807 16:0.31723983 17:0.64579257 18:0.52187691 19:0.77777778 20:0.066666656 21:0.19841271 22:0.36571429 23:0.67741935 24:0.078431374 25:0.96551722 26:0.17777777 27:0.035332364 28:0.76785317 29:0.58107685 30:0.79498845 31:0.013377924 32:0.30277777 33:0.5061783 34:0.375 35:0.44967937 36:0.40909091 37:0.29411765 38:0.27777778 39:0.25 41:0.25 42:0.14285714 43:0.41666667 45:0.11111111 47:0.4 48:0.5 49:0.375 53:0.4 55:0.14285714 57:0.22222222 
-4 0:0.30039997 1:0.49530321 2:0.37220854 3:0.13045002 5:0.060669266 6:0.62501404 7:0.40194722 8:1 9:0.50409742 10:0.45671172 11:0.62331998 12:0.50713233 13:0.4310011 14:0.016320478 15:0.086627914 16:0.24922118 17:0.80136987 18:0.82476232 19:0.77777778 20:0.066666656 22:0.12 23:0.77419354 24:0.59215686 25:0.88505744 26:0.22222222 27:0.48354645 28:0.8441098 29:0.46388868 30:0.47018319 31:0.036789289 32:0.069444424 33:0.33837427 34:0.125 35:0.14047471 36:0.090909091 37:0.058823529 38:0.16666667 39:0.25 41:0.25 42:0.14285714 45:0.22222222 48:0.25 49:0.25 51:0.2 55:0.14285714 57:0.33333333 
4 0:0.59636678 1:0.48307546 2:0.37220854 3:0.20524921 4:0.24912052 5:0.23233435 6:0.42517817 7:0.51935455 8:0.67732342 9:0.57921952 10:0.46619 11:0.59975707 12:0.11905267 13:0.4253473 14:0.030170834 15:0.53023465 16:0.31170475 17:0.78767124 18:0.69186635 19:0.77777778 21:0.33333333 22:0.21428571 23:0.66129032 24:0.43137255 25:0.91954022 26:0.17777777 27:0.21568556 28:0.80058721 29:0.026219829 30:0.68966986 31:0.073578597 32:0.41666665 33:0.42589231 34:0.53125 35:0.62880744 36:0.27272727 37:0.17647059 38:0.5 39:0.33333333 40:0.13333333 41:0.25 42:0.28571429 43:0.16666667 47:0.4 48:0.25 49:0.375 50:0.33333333 51:0.2 52:0.2 54:0.33333333 55:0.42857143 56:0.14285714 57:0.33333333 
-2.658670218801213 0:0.42123823 1:0.35607826 2:0.37220854 3:0.13045002 5:0.026401856 6:0.3078847 7:0.55592309 8:0.44791678 9:0.49332733 10:0.47665535 11:0.50288892 12:0.10865037 13:0.51668053 14:0.010016992 15:0.33354493 16:0.33041758 17:0.6966732 18:0.59237227 19:0.77777778 20:0.066666656 22:0.12285714 23:0.5 24:0.51764707 25:0.68965517 26:0.22222222 27:0.27508603 28:0.68803882 29:0.10761331 30:0.64948356 31:4.9836659e-09 32:0.32777777 33:0.34911752 34:0.5 35:0.50075704 36:0.18181818 37:0.058823529 38:0.38888889 39:0.33333333 40:0.066666667 41:0.5 42:0.14285714 43:0.083333333 45:0.33333333 48:0.25 49:0.375 52:0.1 53:0.4 55:0.42857143 56:0.28571429 57:0.22222222 59:0.5 
4 0:0.71496234 1:0.48438154 2:0.46002962 3:0.13045002 4:0.078471062 5:0.55471828 6:0.53885726 7:0.29673676 8:0.70880742 9:0.35927292 10:0.44744236 11:0.55885743 12:0.11638503 13:0.61123179 14:0.015032196 15:0.38575912 16:0.34932176 17:0.74951077 18:0.64151887 19:0.11111111 20:0.066666656 21:0.14285715 22:0.62571428 23:0.67741935 24:0.28235294 25:0.93103444 26:0.22222222 27:0.1602083 28:0.79148716 29:0.052403547 30:0.78818443 31:0.026755846 32:0.58055555 33:0.54155234 34:0.6875 35:0.76763448 36:0.40909091 37:0.058823529 38:0.66666667 39:0.58333333 40:0.33333333 42:0.28571429 43:0.25 44:0.25 45:0.11111111 46:0.33333333 47:0.4 48:0.25 49:0.5 51:0.6 53:0.2 55:0.14285714 56:0.14285714 57:0.33333333 
-0.5964894274553258 0:0.62081523 1:0.56926298 2:0.46002962 3:1 4:0.061370316 5:0.82363988 6:0.30260092 7:0.60006667 8:0.46365125 9:0.58357204 10:0.51891231 11:0.53022117 12:0.040541195 13:0.24161331 14:0.011021914 15:0.52869484 16:0.35547381 17:0.592955 18:0.46328915 19:0.11111111 20:0.92222222 22:1 23:0.36290323 24:0.36078432 25:0.60919539 26:0.17777777 27:0.22669127 28:0.58400503 29:0.09761305 30:0.45861441 31:0.026755853 32:0.59722222 33:0.63378929 34:0.4375 35:0.46250446 36:0.40909091 37:0.17647059 38:0.27777778 39:0.083333333 40:0.13333333 42:1 43:0.16666667 45:0.11111111 47:0.4 48:0.25 49:0.5 52:0.1 55:0.14285714 56:0.14285714 
-2.355869406674527 0:0.20473454 1:0.33523386 2:0.46002962 3:0.20524921 4:0.13760111 5:0.35694606 6:0.2400728 7:0.60951047 8:0.1567242 9:0.57921952 10:0.41245957 11:0.36666742 12:0.34367269 13:0.26924225 14:0.20702591 15:0.21507092 16:0.099961613 17:0.53718201 18:0.22432869 19:0.11111111 22:0.59428572 23:0.21370969 24:0.35294118 25:0.13793104 26:0.11111111 27:0.041665907 28:0.3713332 29:0.37710619 30:0.31940785 31:0.14381271 32:0.34166666 33:0.63263397 34:0.125 35:0.15223103 36:0.27272727 37:0.17647059 38:0.055555556 39:0.083333333 42:0.28571429 43:0.25 44:0.25 47:0.4 54:0.66666667 55:0.14285714 59:0.25 
-4 0:0.3027183 1:0.49918229 2:0.46002962 3:0.13045002 5:0.23862348 6:0.45335991 7:0.58497224 8:0.46365125 9:0.50409742 10:0.49155109 11:0.61719533 12:0.73273079 13:0.56928352 14:0.015248478 15:0.083230775 16:0.36837785 17:0.71330725 18:0.62461778 19:0.11111111 20:0.066666656 22:0.21714286 23:0.37500001 24:0.69411765 25:1 26:0.43333333 27:0.43903323 28:0.76095469 29:0.70131808 30:0.63546883 31:0.12374581 32:0.30833332 33:0.44921299 34:0.125 35:0.14877984 36:0.13636364 38:0.11111111 39:0.16666667 40:0.066666667 42:0.14285714 43:0.083333333 45:0.11111111 47:0.4 48:0.25 49:0.25 51:0.2 52:0.1 55:0.14285714 
4 0:0.45288512 1:0.75044447 2:0.46002962 3:0.13045002 4:0.35461594 5:0.21458303 6:0.49197183 7:0.76576236 8:0.64601764 9:0.89725735 10:0.7216487 11:0.67251545 12:0.36028728 13:0.33692652 14:0.15632008 15:0.19855534 16:0.5997674 17:0.71917809 18:0.63796075 19:0.11111111 20:0.066666656 21:0.30158731 22:0.24 23:0.35483871 24:0.65882353 25:0.49425287 26:0.81111111 27:0.4437054 28:0.68217552 29:0.38693721 30:0.34522778 31:0.10367893 32:0.11944443 33:0.64176136 34:0.125 35:0.1867207 36:0.13636364 38:0.22222222 39:0.25 40:0.13333333 42:0.14285714 43:0.083333333 44:0.25 48:0.25 49:0.375 51:0.2 56:0.14285714 58:0.33333333 
-1.644134327610714 0:0.40127337 1:0.38576278 2:0.46002962 3:0.20524921 4:0.033485111 5:0.1457136 6:0.27877426 7:0.43358527 8:0.66146962 9:0.66815083 10:0.46034344 11:0.39052105 12:0.13053716 13:0.3185706 14:0.10752337 15:0.35676676 16:0.16325935 17:0.68688847 18:0.57887046 19:0.11111111 22:0.16 23:0.40322581 24:0.64705883 25:0.88505744 26:0.11111111 27:0.41664735 28:0.60650431 29:0.23713641 30:0.40979103 31:0.040133778 32:0.37777777 33:0.22657483 34:0.40625 35:0.40432402 36:0.13636364 37:0.058823529 38:0.33333333 39:0.41666667 40:0.13333333 42:0.28571429 45:0.33333333 47:0.2 49:0.25 50:0.33333333 51:0.2 52:0.1 54:0.33333333 55:0.14285714 56:0.42857143 57:0.11111111 59:0.5 
-0.4596202833073667 0:0.36870655 1:0.37162282 2:0.46002962 3:0.13045002 4:0.18848246 5:0.20912916 6:0.25218589 7:0.49523906 8:0.44791678 9:0.75035307 10:0.5046255 11:0.50564274 12:0.065070413 13:0.36350539 14:0.06578488 15:0.24057376 16:0.17219825 17:0.70352252 18:0.60060044 19:0.11111111 20:0.066666656 21:0.35714287 22:0.28857143 23:0.51612904 24:0.46666667 25:0.70114942 26:0.43333333 27:0.30787131 28:0.72731424 29:0.11683461 30:0.48489624 31:0.036789302 32:0.56111111 33:0.5080649 34:0.375 35:0.39118721 36:0.22727273 38:0.38888889 39:0.41666667 40:0.2 42:0.42857143 45:0.11111111 47:0.6 48:0.25 49:0.125 50:0.66666667 52:0.1 53:0.4 55:0.28571429 59:0.25 
4 0:0.54736634 1:0.57921255 2:0.46002962 3:0.13045002 4:0.35461594 5:0.20370617 6:0.48412708 7:0.58946194 8:1 9:0.73235716 10:0.50222108 11:0.65999939 12:0.092867078 13:0.36354003 14:0.035110013 15:0.4989711 16:0.40860647 17:0.74755383 18:0.66394443 19:0.11111111 20:0.066666656 21:0.30158731 22:0.16 23:0.54032258 24:0.47058824 25:0.83908045 26:0.22222222 27:0.32474099 28:0.71499773 29:0.12655542 30:0.56744337 31:0.023411369 32:0.19444443 33:0.24953233 34:0.34375 35:0.33815016 36:0.18181818 37:0.058823529 38:0.38888889 39:0.5 40:0.2 41:0.25 42:0.28571429 43:0.083333333 44:0.25 45:0.22222222 48:0.25 49:0.5 51:0.2 55:0.28571429 58:0.33333333 
3.812126370212781 0:0.33810645 1:0.44964842 2:0.46002962 3:0.13045002 4:0.35461594 5:0.11621928 6:0.3010651 7:0.52985506 8:0.38613085 9:0.83461195 10:0.59991818 11:0.5304454 12:0.10089807 13:0.32137141 14:0.049054036 15:0.32843658 16:0.34996457 17:0.72015657 18:0.63173403 19:0.11111111 20:0.066666656 21:0.30158731 22:0.23142857 23:0.54032258 24:0.43529412 25:0.8045977 26:0.43333333 27:0.46711963 28:0.78807408 29:0.3429165 30:0.55330184 31:0.27090302 32:0.375 33:0.58754734 34:0.21875 35:0.26200125 36:0.18181818 38:0.22222222 39:0.16666667 40:0.13333333 42:0.42857143 44:0.25 45:0.11111111 47:0.4 48:0.25 49:0.125 52:0.2 53:0.2 57:0.11111111 
-0.2772477026739783 0:0.40882521 1:0.62579496 2:0.46002962 3:0.13045002 6:0.65936152 7:0.64970958 8:1 9:0.50360955 10:0.65942533 11:0.59458488 12:0.31062751 13:0.31250254 14:0.14486581 15:0.22160596 16:0.20595863 17:0.75733856 18:0.71493942 19:0.11111111 20:0.066666656 23:0.50806452 24:0.83921569 25:0.96551722 26:0.22222222 27:0.54944394 28:0.76482889 29:0.47342372 30:0.40493465 31:0.0066889708 32:0.14722222 33:0.25629844 34:0.15625 35:0.24160581 36:0.090909091 37:0.058823529 38:0.22222222 39:0.41666667 40:0.066666667 42:0.14285714 47:0.2 48:0.25 49:0.375 52:0.2 53:0.2 55:0.14285714 57:0.11111111 59:0.25 
0.5306686774471709 0:0.28692605 1:0.33802482 2:0.46002962 3:0.13045002 4:0.38810105 5:0.1537261 6:0.14586269 7:0.38403396 8:0.46365125 9:0.38803891 10:0.35560378 11:0.52823744 12:0.24844591 13:0.58458932 14:0.050789476 15:0.54141551 16:0.63094888 17:0.56457926 18:0.37816528 19:0.11111111 20:0.066666656 21:0.30158731 22:0.10857143 23:0.28225807 24:0.27058823 25:0.68965517 26:0.17777777 27:0.10952499 28:0.5339094 29:0.27935649 30:0.46975928 31:0.023411373 32:0.20555555 33:0.4549314 34:0.28125 35:0.32256412 36:0.31818182 37:0.17647059 38:0.16666667 39:0.16666667 40:0.13333333 42:0.28571429 43:0.083333333 46:0.16666667 47:0.2 48:0.5 49:0.375 53:0.6 55:0.14285714 56:0.14285714 
0.502297551253584 0:0.50661008 1:0.46503186 2:0.46002962 3:0.13045002 4:0.033485111 5:0.20638286 6:0.44478566 7:0.37314205 8:0.70880742 9:0.52165362 10:0.18208159 11:0.59308759 12:0.31959609 13:0.66013864 14:0.27933218 15:0.66434648 16:0.43286172 17:0.80528376 18:0.72650955 19:0.11111111 20:0.066666656 22:0.27999999 23:0.65725807 24:0.52941177 25:0.88505744 26:0.17777777 27:0.24290708 28:0.82416921 29:0.09183201 30:0.67466341 31:0.02675585 32:0.48055555 33:0.33327661 34:0.4375 35:0.53696116 36:0.13636364 37:0.058823529 38:0.5 39:0.5 40:0.13333333 42:0.28571429 43:0.083333333 44:0.5 45:0.11111111 46:0.33333333 47:0.2 48:0.25 49:0.25 50:0.33333333 52:0.1 55:0.14285714 56:0.14285714 57:0.33333333 58:0.33333333 
4 0:0.35383636 1:0.39469747 2:0.46002962 3:0.13045002 4:0.078471062 5:0.297597 6:0.33196116 7:0.51559007 8:0.46365125 9:0.50360955 10:0.55021108 11:0.51816449 12:0.08054307 13:0.4064077 14:0.0061111206 15:0.20229448 16:0.1558872 17:0.65655578 18:0.52973444 19:0.11111111 20:0.066666656 21:0.14285715 22:0.34857142 23:0.5 24:0.48627451 25:0.96551722 26:0.22222222 27:0.32093371 28:0.70437416 29:0.18811798 30:0.51943159 31:0.046822756 32:0.1722222 33:0.39797155 34:0.3125 35:0.36166281 36:0.31818182 37:0.17647059 38:0.27777778 39:0.41666667 40:0.2 42:0.42857143 43:0.16666667 47:0.4 48:0.5 49:0.125 52:0.1 53:0.2 55:0.14285714 57:0.22222222 
0.7779317186989094 0:0.1893166 1:0.22273862 2:0.46002962 3:0.20524921 4:0.027885205 5:0.096453195 6:0.21629371 7:0.3718872 8:0.19866974 9:0.46201557 10:0.38097684 11:0.43637285 12:0.45289512 13:0.50066564 14:0.0055483966 15:0.27275547 16:0.3605107 17:0.62035226 18:0.46764166 19:0.11111111 22:0.17142857 23:0.54435484 24:0.40784314 25:0.50574712 26:0.25555555 27:0.13651468 28:0.69656929 29:0.50695914 30:0.63354819 31:0.026755855 32:0.42222221 33:0.28673897 34:0.28125 35:0.31281172 36:0.13636364 38:0.27777778 39:0.33333333 40:0.2 42:0.28571429 43:0.083333333 44:0.5 46:0.33333333 50:0.33333333 52:0.1 54:0.33333333 55:0.14285714 56:0.14285714 57:0.11111111 58:0.33333333 
-6.183237962425342e-05 0:0.30728018 1:0.38377756 2:0.46002962 3:0.20524921 4:0.068800557 5:0.14788734 6:0.35289064 7:0.47976716 8:0.33879305 9:0.72778889 10:0.62580778 11:0.40417454 12:0.01570243 13:0.11925482 14:0.0078307029 15:0.16639529 16:0.024824443 17:0.70841488 18:0.60960694 19:0.11111111 22:0.22285714 23:0.81048387 24:0.35294118 25:0.96551722 26:0.11111111 27:0.55519199 28:0.73918547 29:0.30582847 30:0.4580756 31:0.040133767 32:0.22777776 33:0.24725337 34:0.25 35:0.25026719 36:0.22727273 37:0.11764706 38:0.27777778 39:0.41666667 40:0.26666667 42:0.42857143 43:0.083333333 47:0.2 51:0.2 54:0.33333333 55:0.28571429 57:0.33333333 
2.220020861745231 0:0.32979921 1:0.59266101 2:0.46002962 3:0.74790864 5:0.19840813 6:0.33706287 7:0.65834996 8:0.38613085 9:0.83461195 10:0.64925151 11:0.45612372 12:0.12419094 13:0.05487216 14:0.3535986 15:0.2874964 16:0.12398757 17:0.72798436 18:0.66343369 19:0.11111111 20:0.81111111 22:0.27999999 23:0.37096774 24:0.47450981 25:0.8045977 26:0.43333333 27:0.3212131 28:0.74764362 29:0.57922196 30:0.48395565 31:0.63210702 32:0.52499999 33:0.49099484 34:0.09375 35:0.16826238 36:0.090909091 38:0.11111111 39:0.083333333 42:0.28571429 43:0.083333333 44:0.75 47:0.2 52:0.2 56:0.14285714 57:0.11111111 
-0.19847462945014 0:0.28363724 1:0.50840012 2:0.46002962 3:0.20524921 4:0.068800557 5:0.12133853 6:0.22819577 7:0.76057338 8:0.37027705 9:0.72778889 10:0.66082415 11:0.41067569 12:0.20891857 13:0.1243469 14:0.054864901 15:0.043284694 16:0.037656327 17:0.78473582 18:0.80414137 19:0.11111111 22:0.23999999 23:0.59677419 24:0.79607843 25:0.93103444 26:0.11111111 27:0.7173886 28:0.65162719 29:0.32906365 30:0.26853142 31:0.016722414 32:0.013888877 33:0.25328599 34:0.09375 35:0.11945582 36:0.090909091 37:0.058823529 38:0.22222222 39:0.41666667 40:0.2 42:0.14285714 43:0.083333333 44:0.25 54:0.33333333 55:0.14285714 57:0.33333333 
4 0:0.48094828 1:0.56718383 2:0.46002962 3:0.20524921 4:0.35461594 5:0.060669266 6:0.58606889 7:0.48215706 8:1 9:0.57873165 10:0.36180057 11:0.62143428 12:0.40780878 13:0.42420186 14:0.0012861867 15:0.29934432 16:0.33637302 17:0.75146772 18:0.67798966 19:0.11111111 21:0.30158731 22:0.12 23:0.68145161 24:0.36078432 25:0.93103444 26:0.22222222 27:0.29237775 28:0.64387879 29:0.18629327 30:0.51381155 31:0.010033442 32:0.18333332 33:0.3565006 34:0.28125 35:0.37595743 36:0.18181818 37:0.058823529 38:0.27777778 39:0.33333333 40:0.066666667 42:0.14285714 44:0.25 45:0.11111111 47:0.2 49:0.375 52:0.2 53:0.4 54:0.66666667 56:0.14285714 57:0.22222222 
4 0:0.32611203 1:0.46351645 2:0.46002962 3:0.20524921 4:0.20469233 5:0.25388227 6:0.32574709 7:0.61714126 8:0.46365125 9:0.89725735 10:0.62336802 11:0.54232852 12:0.31131672 13:0.39328397 14:0.095328571 15:0.25815023 16:0.16209657 17:0.62720158 18:0.45306531 19:0.11111111 21:0.22222223 22:0.21142857 23:0.37903226 24:0.4509804 25:0.60919539 26:0.22222222 27:0.18593778 28:0.76474072 29:0.60226415 30:0.74110458 31:0.076923079 32:0.24722221 33:0.35274853 34:0.1875 35:0.18863555 36:0.22727273 37:0.058823529 38:0.27777778 39:0.33333333 40:0.26666667 42:0.28571429 43:0.16666667 44:0.25 49:0.125 50:0.33333333 51:0.2 54:0.33333333 59:0.25 
1.819918223889544 0:0.27832611 1:0.42423766 2:0.46002962 3:0.13045002 4:0.36063993 5:0.084345494 6:0.30517325 7:0.5121577 8:0.44791678 9:0.57873165 10:0.63832167 11:0.54604296 12:0.27899611 13:0.3720205 14:0.063477865 15:0.11797326 16:0.32009617 17:0.6409002 18:0.47066043 19:0.11111111 20:0.066666656 21:0.66666667 22:0.12 23:0.38709677 24:0.41568627 25:0.66666664 26:0.22222222 27:0.24122486 28:0.68118096 29:0.3120713 30:0.58572083 31:0.25752508 32:0.37777776 33:0.55267451 34:0.15625 35:0.23998041 36:0.18181818 37:0.058823529 38:0.22222222 39:0.33333333 42:0.14285714 43:0.083333333 44:0.25 48:0.25 49:0.125 50:0.33333333 51:0.2 52:0.1 54:0.33333333 57:0.22222222 59:0.5 
4 0:0.39696614 1:0.52843661 2:0.51941132 3:0.5583634 5:0.11621928 6:0.34347347 7:0.59379082 8:0.3653997 9:0.82128848 10:0.48769718 11:0.56062131 12:0.33603696 13:0.45139404 14:0.024763295 15:0.26326144 16:0.17771475 17:0.75440314 18:0.69400123 19:0.11111111 20:0.71111111 22:0.23142857 23:0.60887097 24:0.28627451 25:0.96551722 26:0.22222222 27:0.29384893 28:0.86760364 29:0.64673751 30:0.70147941 31:0.070234121 32:0.21388887 33:0.39961944 34:0.21875 35:0.25543285 36:0.18181818 37:0.11764706 38:0.27777778 39:0.25 40:0.13333333 42:0.28571429 43:0.083333333 47:0.4 49:0.125 50:0.66666667 51:0.4 55:0.14285714 56:0.14285714 57:0.11111111 
-1.149181872263835 0:0.21212656 1:0.26436782 2:0.51941132 3:0.13045002 4:0.066970222 5:0.12075973 6:0.21772961 7:0.29219119 8:0.35464685 9:0.49028608 10:0.35391507 11:0.29826721 12:0.089646448 13:0.16041958 14:0.23450193 15:0.4206377 16:0.11750378 17:0.6076321 18:0.4378162 19:0.11111111 20:0.066666656 22:0.23428571 23:0.57258065 24:0.062745095 25:1 26:0.17777777 27:0.19325212 28:0.58608229 29:0.39381379 30:0.44705355 31:0.010033449 32:0.2111111 33:0.23867189 34:0.25 35:0.248241 36:0.31818182 37:0.29411765 38:0.16666667 39:0.25 40:0.066666667 42:0.42857143 43:0.083333333 44:0.25 45:0.22222222 47:0.6 48:0.5 50:0.33333333 51:0.2 53:0.2 
-2.252720994981711 0:0.27570917 1:0.19645426 2:0.51941132 3:0.13045002 4:0.18848246 5:0.089817423 6:0.28736118 7:0.019357832 8:0.38613085 9:0.36231416 10:0.27129 11:0.3873446 12:0.14321122 13:0.49735852 14:0.032191633 15:0.18335292 16:0.23055868 17:0.68688846 18:0.58412877 19:0.11111111 20:0.066666656 21:0.35714287 22:0.25142857 23:0.63709678 24:0.32941177 25:1 26:0.22222222 27:0.25851657 28:0.83675021 29:0.25482602 30:0.68883256 31:0.010033439 32:0.29722221 33:0.47050967 34:0.65625 35:0.67868275 36:0.36363636 37:0.058823529 38:0.5 39:0.41666667 40:0.13333333 41:0.5 42:0.42857143 43:0.083333333 44:0.25 45:0.33333333 46:0.33333333 47:0.8 48:0.25 51:0.6 52:0.2 53:0.2 55:0.14285714 57:0.33333333 
4 0:0.5050517 1:0.35524347 2:0.51941132 3:0.13045002 4:0.10228567 5:0.46613735 6:0.33076416 7:0.36624795 8:0.32293925 9:0.50360955 10:0.38704305 11:0.5280943 12:0.15613203 13:0.39291006 14:0.0081783093 15:0.20727651 16:0.059829718 17:0.48532289 18:0.39456657 19:0.11111111 20:0.066666656 22:0.65142855 23:0.37096773 24:0.1372549 25:0.93103444 26:0.17777777 27:0.18593778 28:0.85109196 29:0.10736627 30:0.94000912 31:0.046822736 32:0.25833332 33:0.39697864 34:0.65625 35:0.77371303 36:0.59090909 37:0.41176471 38:0.38888889 39:0.33333333 40:0.2 42:0.14285714 43:0.75 48:0.5 51:0.4 52:0.4 56:0.14285714 57:0.77777778 
-1.117154411965452 0:0.36944463 1:0.39119008 2:0.51941132 3:0.13045002 5:0.10465336 6:0.63333175 7:0.43699604 8:0.67732342 9:0.50409742 10:0.49009258 11:0.43224157 12:0.028294157 13:0.23218879 14:0.031488504 15:0.34946359 16:0.12871765 17:0.65753426 18:0.5347283 19:0.11111111 20:0.066666656 22:0.13142857 23:0.77822581 24:0.47058824 25:0.91954022 26:0.43333333 27:0.36810995 28:0.60333987 29:0.094245426 30:0.1829324 31:0.056856187 32:0.28888887 33:0.16449672 34:0.34375 35:0.38626648 36:0.18181818 38:0.22222222 39:0.33333333 40:0.2 42:0.14285714 43:0.083333333 44:0.25 47:0.2 48:0.25 49:0.25 51:0.2 52:0.2 53:0.2 55:0.28571429 56:0.42857143 
-4 0:0.58351516 1:0.56000888 2:0.51941132 3:0.13045002 4:0.28260563 5:0.33592156 6:0.66344333 7:0.51443771 8:0.70880742 9:0.59302873 10:0.39498097 11:0.78477373 12:0.20524218 13:0.67861151 14:0.043949145 15:0.32521147 16:0.31647524 17:0.70939335 18:0.60809791 19:0.11111111 20:0.066666656 21:0.33333333 22:0.47999999 23:0.60483872 24:0.4745098 25:0.91954022 26:0.17777777 27:0.10665097 28:0.79660455 29:0.16306013 30:0.75165469 31:0.013377922 32:0.25277776 33:0.49506823 34:0.40625 35:0.49178393 36:0.36363636 37:0.17647059 38:0.38888889 39:0.41666667 40:0.066666667 41:0.25 42:0.28571429 43:0.25 44:0.5 45:0.11111111 47:0.2 48:0.5 49:0.375 51:0.2 53:0.2 56:0.14285714 57:0.22222222 
-1.478096100037691 0:0.5191647 1:0.54940988 2:0.51941132 3:0.13045002 4:0.4569016 5:0.35793522 6:0.43167351 7:0.63087721 8:0.67732342 9:0.59302873 10:0.42122177 11:0.66190344 12:0.21839524 13:0.64886905 14:0.018043664 15:0.45433654 16:0.47476065 17:0.73874756 18:0.65130372 19:0.11111111 20:0.066666656 21:0.30158731 22:0.39714286 23:0.43951614 24:0.47058824 25:0.91954022 26:0.17777777 27:0.15630592 28:0.80289728 29:0.35331101 30:0.700953 31:0.033444818 32:0.37222221 33:0.36901801 34:0.34375 35:0.34356074 36:0.27272727 37:0.11764706 38:0.33333333 39:0.41666667 40:0.13333333 41:0.25 42:0.42857143 43:0.16666667 45:0.33333333 47:0.4 48:0.5 49:0.5 
-4 0:0.34377835 1:0.25175879 2:0.51941132 3:0.20524921 4:0.068800557 5:0.31454599 6:0.4853313 7:0.29992227 8:0.66146962 9:0.52165362 10:0.4182224 11:0.36311807 12:0.054717184 13:0.30890696 14:0.0043908502 15:0.23769206 16:0.11252539 17:0.41095891 18:0.31487026 19:0.11111111 22:0.35142857 23:0.70564516 24:0.30588236 25:0.96551722 26:0.11111111 27:0.090878009 28:0.6307079 29:0.10310569 30:0.37671147 31:0.020066892 32:0.28333332 33:0.20893147 34:0.625 35:0.52622907 36:0.5 37:0.29411765 38:0.22222222 39:0.25 40:0.2 42:0.42857143 43:0.58333333 45:0.44444444 46:0.16666667 47:0.2 49:0.125 51:0.2 52:0.1 54:0.33333333 55:0.42857143 57:0.22222222 
-4 0:0.52022882 1:0.4388948 2:0.51941132 3:0.20524921 4:0.26695352 5:0.53051084 6:0.42106446 7:0.45176267 8:0.44791678 9:0.49332733 10:0.41666257 11:0.56178943 12:0.11415002 13:0.31522047 14:0.030565251 15:0.3484208 16:0.26577285 17:0.56947163 18:0.44782343 19:0.11111111 21:0.50000002 22:0.59428571 23:0.39919356 24:0.36470589 25:0.8045977 26:0.22222222 27:0.25470929 28:0.61139337 29:0.1689211 30:0.59117506 31:0.053511707 32:0.62777778 33:0.64265661 34:0.5 35:0.52184271 36:0.45454545 37:0.11764706 38:0.33333333 39:0.25 40:0.066666667 42:0.57142857 43:0.25 44:0.25 45:0.33333333 47:0.4 48:0.25 49:0.25 51:0.2 53:0.2 54:0.33333333 56:0.14285714 57:0.22222222 59:0.25 
4 0:0.27511965 1:0.34341881 2:0.51941132 3:0.20524921 4:0.096685762 5:0.16627669 6:0.31827015 7:0.52798758 8:0.27399259 9:0.56540818 10:0.5313559 11:0.40780711 12:0.2761187 13:0.34503849 14:0.035718765 15:0.28542468 16:0.22950857 17:0.57142858 18:0.37610496 19:0.11111111 22:0.32571428 23:0.36693548 24:0.4745098 25:0.65517239 26:0.11111111 27:0.24164689 28:0.61268856 29:0.34140714 30:0.52425477 31:0.14046823 32:0.35833332 33:0.49408561 34:0.25 35:0.27043997 36:0.31818182 37:0.17647059 38:0.16666667 39:0.083333333 40:0.2 43:0.33333333 48:0.25 49:0.125 51:0.2 53:0.2 54:0.33333333 55:0.14285714 56:0.14285714 57:0.22222222 
-4 0:0.27917002 1:0.45978082 2:0.51941132 3:0.13045002 5:0.21303931 6:0.37836281 7:0.52157313 8:0.66146962 9:0.49332733 10:0.41202972 11:0.6423691 12:0.54398908 13:0.50618157 14:0.2701366 15:0.27180301 16:0.16319056 17:0.69275931 18:0.57791738 19:0.11111111 20:0.066666656 22:0.22857142 23:0.47580645 24:0.57254902 25:0.88505744 26:0.46666667 27:0.18306375 28:0.89345953 29:0.95539026 30:0.81912927 31:0.020066883 32:0.22222221 33:0.46462907 34:0.125 35:0.15784201 36:0.13636364 38:0.11111111 39:0.16666667 42:0.28571429 43:0.083333333 45:0.11111111 47:0.2 48:0.25 49:0.125 55:0.14285714 56:0.14285714 57:0.22222222 59:0.25 
-1.300078567026892 0:0.53939104 1:0.54297847 2:0.51941132 3:0.13045002 4:0.068800557 5:0.34432795 6:0.50282527 7:0.63569242 8:0.66146962 9:0.65266679 10:0.44397516 11:0.46882416 12:0.098530197 13:0.3264196 14:0.067066177 15:0.35311878 16:0.1430093 17:0.71819962 18:0.62061489 19:0.11111111 20:0.066666656 22:0.59428571 23:0.76612904 24:0.50196079 25:0.96551722 26:0.17777777 27:0.10665097 28:0.73879667 29:0.24730612 30:0.71182276 31:0.13712375 32:0.49444443 33:0.57493496 34:0.375 35:0.49866405 36:0.31818182 37:0.11764706 38:0.38888889 39:0.33333333 42:0.42857143 43:0.25 47:0.6 48:0.25 49:0.125 50:0.66666667 51:0.2 52:0.1 56:0.14285714 57:0.33333333 59:0.25 
3.176233701323786 0:0.64094437 1:0.61491843 2:0.51941132 3:0.13045002 5:0.46617977 6:0.5338482 7:0.56116927 8:0.66146962 9:0.49028608 10:0.53864834 11:0.77637791 12:0.087199182 13:0.80843634 14:0.015430033 15:0.17361607 16:0.39285894 17:0.65557731 18:0.53820617 19:0.11111111 20:0.066666656 22:0.55714285 23:0.41532258 24:0.58431373 25:0.88505744 26:0.17777777 27:0.34614609 28:0.68645883 29:0.2188681 30:0.58234115 31:0.060200666 32:0.21944443 33:0.54250814 34:0.40625 35:0.48298895 36:0.31818182 37:0.11764706 38:0.33333333 39:0.25 40:0.066666667 42:0.14285714 43:0.33333333 44:0.25 45:0.11111111 47:0.2 48:0.25 49:0.5 51:0.4 52:0.1 55:0.14285714 56:0.14285714 57:0.11111111 59:0.25 
-3.762230711976279 0:0.66515595 1:0.45104671 2:0.51941132 3:0.20524921 4:0.18031996 5:0.27152975 6:0.38825794 7:0.37616397 8:1 9:0.35927292 10:0.37969456 11:0.62421264 12:0.04143391 13:0.61874619 14:0.0030839967 15:0.287456 16:0.36901541 17:0.6448141 18:0.54633903 19:0.11111111 21:0.33333333 22:0.24 23:0.62500001 24:0.28627451 25:0.83908045 26:0.22222222 27:0.23687964 28:0.69694224 29:0.050510629 30:0.67867192 31:0.030100342 32:0.39999999 33:0.38468374 34:0.6875 35:0.71428571 36:0.40909091 37:0.17647059 38:0.61111111 39:0.41666667 40:0.33333333 41:0.25 42:0.42857143 43:0.16666667 44:0.25 45:0.22222222 46:0.16666667 47:0.2 49:0.5 51:0.4 52:0.1 53:0.4 54:0.33333333 55:0.14285714 56:0.14285714 57:0.11111111 58:0.33333333 
-0.6873900134549571 0:0.32903657 1:0.30296661 2:0.51941132 3:0.20524921 4:0.033485111 5:0.23783319 6:0.35285654 7:0.21255686 8:0.66146962 9:0.13101317 10:0.29400839 11:0.53085226 12:0.22518116 13:0.5515965 14:0.0027196529 15:0.2884323 16:0.13725553 17:0.48043053 18:0.32379445 19:0.11111111 22:0.29142856 23:0.43548387 24:0.0745098 25:0.88505744 26:0.11111111 27:0.042973647 28:0.53728184 29:0.065480245 30:0.64835771 31:0.020066882 32:0.34166665 33:0.33265727 34:0.4375 35:0.49467848 36:0.5 37:0.35294118 38:0.27777778 39:0.33333333 40:0.13333333 42:0.42857143 43:0.25 44:0.25 46:0.16666667 48:0.25 49:0.125 50:0.33333333 51:0.2 53:0.6 54:0.33333333 56:0.14285714 57:0.33333333 
0.6087832921948061 0:0.3813771 1:0.36673943 2:0.51941132 3:0.13045002 5:0.35529495 6:0.26655342 7:0.43750892 8:0.32293925 9:0.49332733 10:0.40577703 11:0.43073552 12:0.10877987 13:0.28337534 14:0.04413137 15:0.24228139 16:0.092573125 17:0.46868885 18:0.29549119 19:0.11111111 20:0.066666656 22:0.26 23:0.56854838 24:0.18039216 25:0.93103444 26:0.22222222 27:0.11429224 28:0.75169862 29:0.059483829 30:0.4964109 31:0.023411376 32:0.29166665 33:0.2364072 34:0.40625 35:0.44903367 36:0.40909091 37:0.29411765 38:0.27777778 39:0.16666667 40:0.066666667 42:0.71428571 43:0.16666667 44:0.25 45:0.11111111 47:0.2 48:0.25 51:0.2 52:0.1 53:0.2 55:0.14285714 57:0.22222222 58:0.66666667 59:0.25 
-3.633250664301501 0:0.34501856 1:0.34784168 2:0.74790864 3:0.13045002 4:0.078471062 6:0.2020572 7:0.48762865 8:0.17245867 9:0.6689976 10:0.50310401 11:0.36182364 12:0.043430231 13:0.15945756 14:0.053763189 15:0.16803636 17:0.90802349 18:0.87946851 19:0.81111111 20:0.066666656 21:0.14285715 23:0.5483871 24:0.76078432 25:0.49425287 26:0.76666665 27:0.64946115 28:0.70151035 29:0.087155776 30:0.26385668 31:0.060200667 32:0.23888887 33:0.050206818 34:0.375 35:0.32494657 38:0.72222222 39:1 40:1 44:0.25 48:0.25 52:0.3 
4 0:0.70314614 1:0.44761004 2:0.74790864 3:0.13045002 4:0.52570216 5:0.67137063 6:0.43933106 7:0.28657951 8:0.66146962 9:0.49332733 10:0.42973737 11:0.6187828 12:0.14746568 13:0.48078725 14:0.022234298 15:0.46774256 16:0.264848 17:0.62426615 18:0.53205092 19:0.81111111 20:0.066666656 21:0.30158731 22:0.75999999 23:0.75403226 24:0.41176471 25:0.88505744 26:0.17777777 27:0.19250318 28:0.89345952 29:0.0704716 30:0.81126225 31:0.023411367 32:0.73055556 33:0.41979193 34:0.75 35:0.8115203 36:0.5 37:0.23529412 38:0.61111111 39:0.5 40:0.2 41:0.25 42:0.57142857 43:0.33333333 44:0.75 45:0.22222222 48:0.75 49:0.375 51:0.2 55:0.14285714 56:0.42857143 57:0.33333333 59:0.25 
-4 0:0.6227715 1:0.52468305 2:0.74790864 3:0.20524921 5:0.09527129 6:0.64710642 7:0.48374038 8:1 9:0.57995063 10:0.45536762 11:0.72619777 12:0.23873738 13:0.54361648 14:0.016921582 15:0.22917219 16:0.26841317 17:0.79549903 18:0.70467561 19:0.81111111 21:0.19841271 22:0.13142857 23:0.55645162 24:0.49803922 25:0.91954022 26:0.52222222 27:0.40272007 28:0.77025139 29:0.33256709 30:0.45632801 31:0.013377924 32:0.22222221 33:0.25923032 34:0.5 35:0.50211525 36:0.13636364 38:0.38888889 39:0.25 40:0.13333333 41:0.25 42:0.28571429 44:0.25 45:0.22222222 47:0.2 49:0.625 52:0.1 53:0.2 54:0.33333333 55:0.71428571 56:0.28571429 
-1.854239229879256 0:0.490651 1:0.49404677 2:0.74790864 3:0.20524921 5:0.18818117 6:0.50688586 7:0.44630482 8:0.66146962 9:0.57921952 10:0.43500787 11:0.61909973 12:0.35568743 13:0.60654657 14:0.0049729725 15:0.19886164 16:0.38429147 17:0.71917809 18:0.62194919 19:0.81111111 22:0.18857143 23:0.57258065 24:0.53725491 25:0.88505744 26:0.41111111 27:0.39666591 28:0.78212262 29:0.30468731 30:0.51742744 31:0.023411376 32:0.24166665 33:0.25550731 34:0.375 35:0.35433737 36:0.13636364 38:0.22222222 39:0.16666667 40:0.066666667 42:0.14285714 43:0.083333333 44:0.25 45:0.22222222 49:0.5 52:0.1 53:0.2 54:0.33333333 55:0.85714286 57:0.11111111 
2.663994006031281 0:0.51428954 1:0.51777828 2:0.74790864 3:0.20524921 4:0.033485111 5:0.31226601 6:0.49647806 7:0.56293502 8:0.67732342 9:0.66815083 10:0.55520831 11:0.6628711 12:0.34728419 13:0.56269654 14:0.015477758 15:0.23148124 16:0.25021128 17:0.69863014 18:0.59392895 19:0.81111111 22:0.43714285 23:0.68951613 24:0.3254902 25:0.91954022 26:0.11111111 27:0.24706801 28:0.77017907 29:0.40676489 30:0.80475702 31:0.0033444784 32:0.34722221 33:0.693307 34:0.375 35:0.44865514 36:0.36363636 37:0.17647059 38:0.33333333 39:0.25 40:0.066666667 42:0.28571429 43:0.083333333 44:0.25 47:0.4 49:0.25 51:1 54:0.33333333 55:0.28571429 57:0.33333333 
-1.247170421001619 0:0.29299452 1:0.32682961 2:0.74790864 3:0.13045002 4:0.38250114 5:0.24885044 6:0.42475966 7:0.15191883 8:0.37627625 9:0.13101317 10:0.30028258 11:0.38761703 12:0.37845005 13:0.39011083 14:0.055291108 15:0.42174796 16:0.4282614 17:0.56457926 18:0.39037453 19:0.81111111 20:0.066666656 21:0.30158731 22:0.30857142 23:0.52419355 24:0.18431372 25:0.36781607 26:0.2111111 27:0.13754301 28:0.59113183 29:0.36170046 30:0.59650599 31:0.17391305 32:0.64166666 33:0.4183371 34:0.3125 35:0.34298183 36:0.27272727 37:0.058823529 38:0.11111111 42:0.14285714 43:0.25 44:0.5 45:0.22222222 46:0.16666667 48:0.5 49:0.25 51:0.2 56:0.42857143 57:0.11111111 
-0.1445476303802038 0:0.46984201 1:0.77881707 2:0.74790864 3:0.13045002 4:0.078471062 5:0.33002528 6:0.77006244 7:0.7188969 8:1 9:0.6689976 10:0.73476052 11:0.57083409 12:0.21514766 13:0.33855051 14:0.21854029 15:0.20072617 16:0.26978035 17:0.74755383 18:0.70245177 19:0.81111111 20:0.066666656 21:0.14285715 22:0.29714286 23:0.54032259 24:0.61176471 25:0.83908045 26:0.22222222 27:0.59059862 28:0.55940817 29:0.1219813 30:0.29901115 31:0.26421404 32:0.24999999 33:0.35704394 34:0.125 35:0.19429106 36:0.13636364 37:0.058823529 38:0.22222222 39:0.33333333 40:0.066666667 42:0.28571429 43:0.083333333 44:0.5 48:0.25 49:0.375 50:0.33333333 52:0.1 
-4 0:0.34537627 1:0.3482008 2:0.74790864 3:0.13045002 5:0.1418441 6:0.34312083 7:0.30316024 8:0.66146962 9:0.36231416 10:0.48487485 11:0.50171946 12:0.067073914 13:0.29041316 14:0.026341244 15:0.41061458 16:0.34094132 17:0.68884541 18:0.58058598 19:0.81111111 20:0.066666656 22:0.10857143 23:0.49193549 24:0.54901961 25:0.88505744 26:0.22222222 27:0.3886977 28:0.6966416 29:0.25369937 30:0.53496566 31:0.023411358 32:0.32777778 33:0.3996238 34:0.375 35:0.41262914 36:0.18181818 37:0.058823529 38:0.22222222 39:0.083333333 40:0.066666667 42:0.28571429 44:0.25 45:0.22222222 46:0.16666667 47:0.2 48:0.25 49:0.25 51:0.2 52:0.1 53:0.2 55:0.14285714 56:0.42857143 57:0.22222222 
-4 0:0.62469826 1:0.42396886 2:0.74790864 3:0.13045002 5:0.19857721 6:0.60329132 7:0.34884244 8:1 9:0.49332733 10:0.37317334 11:0.68311625 12:0.089034658 13:0.59238716 14:0.0061713279 15:0.50156948 16:0.23757717 17:0.66634051 18:0.56590871 19:0.81111111 20:0.066666656 22:0.2942857 23:0.44758064 24:0.23921569 25:0.88505744 26:0.22222222 27:0.23813982 28:0.73175803 29:0.10843248 30:0.66269416 31:0.023411362 32:0.40833332 33:0.25262935 34:0.6875 35:0.76453954 36:0.27272727 37:0.058823529 38:0.55555556 39:0.5 40:0.13333333 42:0.28571429 43:0.16666667 44:0.5 45:0.22222222 46:0.16666667 47:0.2 48:0.25 49:0.375 50:0.33333333 51:0.2 52:0.3 53:0.2 55:0.42857143 56:0.14285714 57:0.22222222 58:0.33333333 59:0.25 
-4 0:0.41513541 1:0.51912674 2:0.74790864 3:0.13045002 4:0.09196611 5:0.35881066 6:0.46424264 7:0.5608825 8:0.44486849 9:0.69178702 10:0.53148741 11:0.42145015 12:0.10929684 13:0.19879215 14:0.088453663 15:0.27182737 16:0.18879693 17:0.66242662 18:0.53121699 19:0.81111111 20:0.066666656 21:0.15079366 22:0.50571427 23:0.4233871 24:0.38039216 25:0.8045977 26:0.22222222 27:0.17287538 28:0.61855635 29:0.3706413 30:0.57299787 31:0.013377926 32:0.35277777 33:0.63206077 34:0.25 35:0.32690595 36:0.27272727 37:0.11764706 38:0.22222222 39:0.083333333 40:0.066666667 42:0.14285714 43:0.33333333 44:0.25 47:0.2 48:0.25 49:0.125 50:0.33333333 51:0.2 52:0.1 56:0.14285714 57:0.22222222 
-4 0:0.48239939 1:0.56889774 2:0.74790864 3:0.13045002 5:0.026401856 6:0.4611398 7:0.44821997 8:0.70880742 9:0.51905208 10:0.45400498 11:0.59237937 12:0.052745842 13:0.36963642 14:0.064431217 15:0.33779813 16:0.30131456 17:0.75342467 18:0.68112918 19:0.81111111 20:0.066666656 22:0.05142857 23:0.58064517 24:0.46666667 25:0.88505744 26:0.17777777 27:0.30532421 28:0.73918547 29:0.21129638 30:0.43681907 31:0.16053511 32:0.38055554 33:0.23570479 34:0.28125 35:0.31592893 36:0.18181818 37:0.11764706 38:0.38888889 39:0.41666667 40:0.26666667 42:0.14285714 44:0.25 45:0.11111111 48:0.25 49:0.375 51:0.4 53:0.2 56:0.14285714 57:0.11111111 59:0.25 
-0.05963019691114813 0:0.28450485 1:0.4337808 2:0.74790864 3:0.20524921 4:0.078471062 5:0.068869433 6:0.30496138 7:0.47656112 8:0.70880742 9:0.7441197 10:0.44107213 11:0.36811932 12:0.054076354 13:0.20970423 14:0.067528008 15:0.079750095 16:0.10609291 17:0.67416831 18:0.54045444 19:0.81111111 21:0.14285715 22:0.079999999 23:0.4233871 24:0.54117648 25:0.72413792 26:0.52222222 27:0.39372352 28:0.51978011 29:0.091654133 30:0.22553158 31:0.13377926 32:0.25833332 33:0.22979311 34:0.15625 35:0.17912807 36:0.090909091 38:0.16666667 39:0.25 40:0.13333333 43:0.083333333 44:0.5 49:0.125 53:0.2 54:0.33333333 55:0.28571429 56:0.28571429 59:0.25 
-4 0:0.47475766 1:0.32361539 2:0.74790864 3:0.13045002 4:0.48006716 5:0.17211545 6:0.40650599 7:0.115686 8:0.70880742 9:0.36231416 10:0.23415098 11:0.46963704 12:0.043666482 13:0.29814307 14:0.0023971684 15:0.45460274 16:0.37877441 17:0.63600783 18:0.53833324 19:0.81111111 20:0.066666656 21:0.45238097 22:0.28285714 23:0.47177419 24:0.27058823 25:0.88505744 26:0.17777777 27:0.10952499 28:0.86419056 29:0.14469089 30:0.8456869 31:1.9934664e-09 32:0.43888889 33:0.37660447 34:0.6875 35:0.7309405 36:0.36363636 37:0.11764706 38:0.5 39:0.41666667 40:0.13333333 41:0.25 42:0.57142857 43:0.16666667 44:0.5 45:0.11111111 46:0.33333333 47:0.2 48:0.5 49:0.375 50:0.33333333 52:0.1 53:0.2 55:0.57142857 56:0.14285714 57:0.22222222 
-1.665125113575456 0:0.52868918 1:0.70475795 2:0.74790864 3:0.20524921 4:0.033485111 5:0.11931174 6:0.64710642 7:0.33919716 8:1 9:0.66815083 10:0.57311335 11:0.64561288 12:0.20069187 13:0.32767002 14:0.074379052 15:0.31177292 16:0.21449983 17:0.68786694 18:0.57302497 19:0.81111111 22:0.10857143 23:0.57258065 24:0.2 25:0.83908045 26:0.11111111 27:0.3837937 28:0.70143803 29:0.18962386 30:0.37408091 31:0.013377927 32:0.24166665 33:0.14082115 34:0.21875 35:0.22406038 36:0.22727273 37:0.17647059 38:0.16666667 39:0.33333333 42:0.14285714 43:0.083333333 44:0.25 45:0.33333333 49:0.625 51:0.6 54:0.33333333 
-1.758341533552927 0:0.38652887 1:0.69621143 2:0.74790864 3:0.13045002 5:0.060816218 6:0.86201294 7:0.43930868 8:1 9:0.49332733 10:0.63710925 11:0.67009208 12:0.57746813 13:0.42654922 14:0.052878323 15:0.041660687 16:0.26392638 17:0.73091978 18:0.67071168 19:0.81111111 20:0.066666656 22:0.05142857 23:0.66532259 24:0.39215686 25:0.83908045 26:0.22222222 27:0.65607408 28:0.55777619 29:0.19349826 30:0.15178907 31:0.12040134 32:0.099999987 33:0.21429118 34:0.09375 35:0.10449323 36:0.090909091 37:0.058823529 38:0.16666667 39:0.33333333 40:0.066666667 42:0.14285714 43:0.083333333 44:0.25 45:0.22222222 48:0.25 49:0.375 59:0.25 
0.01524437822362894 0:0.28328524 1:0.40209474 2:0.74790864 3:0.13045002 4:0.070370003 5:0.092545661 6:0.30698159 7:0.54603333 8:0.17245867 9:0.65531715 10:0.64321823 11:0.40300088 12:0.16725731 13:0.24244924 14:0.047966552 15:0.17115633 16:0.21688026 17:0.71330725 18:0.6208055 19:0.81111111 20:0.066666656 22:0.079999999 23:0.58064516 24:0.50196079 25:0.65517239 26:0.42222222 27:0.43480392 28:0.65155488 29:0.23236726 30:0.53339343 31:0.040133772 32:0.18333331 33:0.39005036 34:0.1875 35:0.20433292 36:0.13636364 38:0.22222222 39:0.16666667 40:0.066666667 42:0.28571429 44:0.75 45:0.11111111 47:0.2 48:0.25 51:0.2 55:0.28571429 57:0.11111111 59:0.25 
-4 0:0.38859584 1:0.41142852 2:0.74790864 3:0.13045002 4:0.18031996 5:0.087071123 6:0.45793996 7:0.45777597 8:0.66146962 9:0.72158707 10:0.50125967 11:0.77499893 12:0.49852341 13:0.58217971 14:0.067642146 15:0.45165186 16:0.32078632 17:0.68982388 18:0.58107756 19:0.81111111 20:0.066666656 21:0.33333333 22:0.17142857 23:0.46370968 24:0.54901961 25:0.88505744 26:0.52222222 27:0.4032313 28:0.82372394 29:0.31310145 30:0.48954674 31:0.063545151 32:0.54444443 33:0.57518045 34:0.34375 35:0.38270395 36:0.22727273 38:0.22222222 39:0.083333333 40:0.066666667 43:0.083333333 44:0.25 45:0.22222222 48:0.25 49:0.25 51:0.6 52:0.1 53:0.2 55:0.14285714 56:0.28571429 57:0.33333333 
-4 0:0.36920845 1:0.66459593 2:0.74790864 3:0.13045002 4:0.068800557 5:0.24065027 6:0.50543704 7:0.65753646 8:0.66146962 9:0.65266679 10:0.56256195 11:0.67495177 12:0.61267449 13:0.45541765 14:0.31669651 15:0.25732932 16:0.31856982 17:0.67612525 18:0.53485598 19:0.81111111 20:0.066666656 22:0.34857142 23:0.3548387 24:0.34901961 25:0.88505744 26:0.17777777 27:0.23145851 28:0.63301795 29:0.63936483 30:0.53574777 31:0.053511711 32:0.044444432 33:0.54749804 34:0.09375 35:0.16294086 36:0.22727273 37:0.17647059 38:0.11111111 39:0.16666667 42:0.14285714 43:0.16666667 44:0.25 48:0.25 49:0.25 51:0.2 53:0.2 57:0.22222222 
4 0:0.33508049 1:0.37377567 2:0.74790864 3:0.13045002 5:0.1032838 6:0.39035461 7:0.39479934 8:0.41761484 9:0.50409742 10:0.50087679 11:0.4626207 12:0.30469983 13:0.36555476 14:0.068457305 15:0.28387795 16:0.072498281 17:0.66634052 18:0.54455996 19:0.81111111 20:0.066666656 22:0.079999999 23:0.76209677 24:0.2745098 25:0.96551722 26:0.22222222 27:0.49525357 28:0.65427405 29:0.21618486 30:0.35607165 31:0.04347826 32:0.29166666 33:0.18731401 34:0.3125 35:0.30150071 36:0.22727273 37:0.11764706 38:0.16666667 39:0.25 42:0.14285714 43:0.25 44:0.75 45:0.33333333 47:0.2 48:0.25 51:0.2 55:0.28571429 56:0.14285714 57:0.22222222 
-0.4542761845099772 0:0.23264727 1:0.35368619 2:0.74790864 3:0.20524921 4:0.068800557 5:0.132285 6:0.12998567 7:0.55518196 8:0.17245867 9:0.72778889 10:0.51807887 11:0.33552732 12:0.25590386 13:0.26698636 14:0.017509023 15:0.16605378 16:0.08591632 17:0.63111547 18:0.4501328 19:0.81111111 22:0.20857143 23:0.25403227 24:0.37254903 25:0.49425287 26:0.11111111 27:0.12399022 28:0.56842008 29:0.52457265 30:0.56918159 31:0.063545148 32:0.19722221 33:0.23414683 34:0.15625 35:0.15753028 36:0.13636364 37:0.11764706 38:0.16666667 39:0.16666667 40:0.066666667 42:0.14285714 43:0.083333333 44:0.5 45:0.22222222 47:0.2 53:0.2 54:0.33333333 56:0.14285714 59:0.5 
-4 0:0.31304982 1:0.28837605 2:0.74790864 3:0.20524921 4:0.18031996 5:0.084345494 6:0.3862728 7:0.012083814 8:0.48986232 9:0.36231416 10:0.2998906 11:0.45522967 12:0.47642863 13:0.47558699 14:0.058732649 15:0.40094981 16:0.30106439 17:0.69178083 18:0.58580187 19:0.81111111 21:0.33333333 22:0.12 23:0.4233871 24:0.40392157 25:0.77011492 26:0.22222222 27:0.11104375 28:0.81622417 29:0.37651486 30:0.84653958 31:0.010033451 32:0.51388887 33:0.48648077 34:0.4375 35:0.49111596 36:0.22727273 37:0.11764706 38:0.38888889 39:0.41666667 40:0.066666667 42:0.28571429 44:0.25 45:0.22222222 46:0.33333333 47:0.4 49:0.125 50:0.33333333 51:0.2 52:0.1 53:0.4 54:0.33333333 55:0.14285714 57:0.33333333 59:0.25 
-3.442613250826561 0:0.28656645 1:0.62465415 2:0.74790864 3:0.20524921 4:0.18848246 5:0.17499018 6:0.41981476 7:0.63280341 8:0.44486849 9:0.92989862 10:0.76444886 11:0.31828863 12:0.48935053 13:0.35429478 14:0.43061301 15:0.35045488 16:0.35075069 17:0.72407046 18:0.66612924 19:0.81111111 21:0.35714287 22:0.10857143 23:0.40725806 24:0.46274511 25:0.77011492 26:0.22222222 27:0.6576612 28:0.40799793 29:0.51309782 30:0.42701274 31:0.52508361 32:0.4361111 33:0.54808562 34:0.03125 35:0.08120324 36:0.090909091 37:0.058823529 38:0.055555556 39:0.083333333 43:0.16666667 44:0.25 47:0.2 49:0.125 54:0.33333333 55:0.14285714 56:0.14285714 57:0.11111111 
-4 0:0.47667864 1:0.50451186 2:0.74790864 3:0.20524921 4:0.09196611 5:0.38889243 6:0.55189805 7:0.5135205 8:0.46365125 9:0.76690912 10:0.50817531 11:0.64759252 12:0.093688825 13:0.3504085 14:0.050280347 15:0.32486114 16:0.1274468 17:0.73776909 18:0.6498992 19:0.81111111 21:0.15079366 22:0.53714285 23:0.60887096 24:0.37254902 25:0.93103444 26:0.22222222 27:0.29492484 28:0.84634754 29:0.29524888 30:0.67473786 31:0.12374583 32:0.36944444 33:0.45158504 34:0.34375 35:0.3890497 36:0.22727273 37:0.058823529 38:0.33333333 39:0.33333333 40:0.13333333 42:0.42857143 43:0.16666667 44:0.25 45:0.11111111 47:0.2 49:0.125 50:0.33333333 52:0.1 54:0.33333333 55:0.14285714 56:0.14285714 57:0.33333333 
0.2530365971813947 0:0.24569859 1:0.30649788 2:0.36075677 3:0.13045002 4:0.5628211 5:0.11931174 6:0.13193927 7:0.49285158 8:0.37627625 9:0.58357204 10:0.53434358 11:0.33311431 12:0.061527209 13:0.28385807 14:0.14787195 15:0.20476468 16:0.41804185 17:0.67612525 18:0.55456718 19:0.45555555 20:0.066666656 21:0.63492064 22:0.10857143 23:0.36290323 24:0.48627451 25:0.68965517 26:0.22222222 27:0.41884079 28:0.68477036 29:0.17057263 30:0.52808538 31:0.076923077 32:0.29444442 33:0.71695848 34:0.25 35:0.29199323 36:0.22727273 37:0.058823529 38:0.16666667 39:0.083333333 40:0.066666667 42:0.28571429 45:0.11111111 47:0.2 48:0.5 49:0.125 51:0.4 52:0.1 55:0.14285714 56:0.14285714 57:0.33333333 
4 0:0.4557489 1:0.4186126 2:0.36075677 3:0.13045002 4:0.078471062 5:0.3113217 6:0.4983721 7:0.49900854 8:0.66146962 9:0.6689976 10:0.49172492 11:0.45299574 12:0.29289743 13:0.35701641 14:0.011754869 15:0.28277839 16:0.18760927 17:0.64579257 18:0.528791 19:0.45555555 20:0.066666656 21:0.14285715 22:0.26857143 23:0.51209677 24:0.47450981 25:0.96551722 26:0.22222222 27:0.1782965 28:0.65137855 29:0.22763392 30:0.64695797 31:0.016722406 32:0.35555555 33:0.40725245 34:0.4375 35:0.45847435 36:0.31818182 37:0.11764706 38:0.27777778 39:0.25 40:0.13333333 43:0.25 44:0.25 45:0.33333333 47:0.2 48:0.25 49:0.25 51:0.4 52:0.1 53:0.4 56:0.28571429 57:0.22222222 
4 0:0.29265501 1:0.22252202 2:0.36075677 3:0.13045002 4:0.033485111 5:0.17828525 6:0.30235299 7:0.219518 8:0.66146962 9:0.26202634 10:0.29871518 11:0.56428597 12:0.088274667 13:0.60791568 14:0.020678191 15:0.49040102 16:0.39519181 17:0.61448141 18:0.50996707 19:0.45555555 20:0.066666656 22:0.23999999 23:0.54838709 24:0.16862745 25:0.93103444 26:0.13333331 27:0.26999184 28:0.85690325 29:0.38110893 30:0.75981371 31:0.0066889608 32:0.18888887 33:0.28444462 34:0.59375 35:0.59743498 36:0.31818182 37:0.23529412 38:0.38888889 39:0.41666667 40:0.066666667 42:0.57142857 43:0.16666667 44:0.25 45:0.44444444 46:0.5 48:0.5 49:0.125 55:0.28571429 57:0.66666667 58:0.33333333 
0.2724742877523718 0:0.087566779 1:0.066190668 2:0.36075677 3:0.20524921 4:0.078471062 6:0.12197014 7:0.012313619 8:0.37027705 9:0.36231416 10:0.20309494 11:0.28006749 12:0.11040805 13:0.26413914 14:0.021818877 15:0.18767535 16:0.081556002 17:0.49217222 18:0.40100801 19:0.45555555 21:0.14285715 23:0.27822581 24:0.38431373 25:0.77011492 26:0.22222222 27:0.27253894 28:0.61240377 29:0.22361301 30:0.42379077 31:0.0066889688 32:0.24444443 33:0.13204826 34:0.65625 35:0.57741807 36:0.18181818 37:0.058823529 38:0.27777778 39:0.25 40:0.2 42:0.14285714 44:0.25 45:0.44444444 46:0.33333333 51:0.4 52:0.2 53:0.2 54:0.33333333 55:0.71428571 56:0.42857143 57:0.22222222 58:0.33333333 59:0.25 
4 0:0.74185822 1:0.39970509 2:0.36075677 3:0.13045002 4:0.18031996 5:0.2267013 6:0.36396064 7:0.41563672 8:0.67732342 9:0.37259638 10:0.32079009 11:0.54961867 12:0.11180277 13:0.40632457 14:0.0017280409 15:0.68038402 16:0.2314896 17:0.76027398 18:0.64006754 19:0.45555555 20:0.066666656 21:0.33333333 22:0.21142857 23:0.48790323 24:0.27450981 25:0.93103444 26:0.22222222 27:0.38554428 28:0.68091202 29:0.021068383 30:0.50018579 31:0.016722413 32:0.625 33:0.32293522 34:0.9375 35:0.99971054 36:0.36363636 37:0.11764706 38:0.72222222 39:0.58333333 40:0.2 42:0.57142857 43:0.083333333 44:0.75 45:0.22222222 46:0.16666667 47:0.6 48:0.25 49:0.25 51:0.4 52:0.1 53:0.2 55:0.85714286 56:0.42857143 57:0.44444444 59:0.25 
4 0:0.44035924 1:0.58652158 2:0.36075677 3:0.20524921 5:0.24339657 6:0.4853313 7:0.71913515 8:0.46365125 9:0.59417418 10:0.48181634 11:0.56064925 12:0.42648591 13:0.48084495 14:0.086739033 15:0.31210948 16:0.24947293 17:0.79256361 18:0.76338467 19:0.45555555 22:0.35714285 23:0.5967742 24:0.53333334 25:0.96551722 26:0.11111111 27:0.11728219 28:0.89530848 29:0.72279838 30:0.78240222 31:0.016722415 32:0.12222221 33:0.41511414 34:0.21875 35:0.24897577 36:0.13636364 37:0.058823529 38:0.27777778 39:0.33333333 40:0.2 43:0.16666667 45:0.11111111 47:0.4 49:0.25 53:0.2 54:0.33333333 55:0.14285714 56:0.14285714 57:0.11111111 
-0.8179500268793858 0:0.58798717 1:0.73604105 2:0.36075677 3:0.13045002 4:0.35461594 5:0.11931174 6:0.55644454 7:0.64892354 8:1 9:0.73612952 10:0.55771519 11:0.76680244 12:0.292235 13:0.60815359 14:0.03232052 15:0.25800434 16:0.45478138 17:0.9041096 18:0.94318119 19:0.45555555 20:0.066666656 21:0.30158731 22:0.18 23:0.57258065 24:0.89019609 25:0.88505744 26:0.73333333 27:0.67425149 28:0.76729942 29:0.18683229 30:0.52021476 31:9.9673316e-10 32:0.2222222 33:0.38634215 34:0.25 35:0.3059984 36:0.045454545 38:0.33333333 39:0.33333333 40:0.066666667 41:0.25 42:0.14285714 45:0.22222222 47:0.2 48:0.25 49:0.625 52:0.1 55:0.14285714 56:0.14285714 57:0.11111111 
4 0:0.48465038 1:0.46548169 2:0.36075677 3:0.13045002 4:0.078471062 5:0.33977102 6:0.70748898 7:0.55784026 8:1 9:0.6689976 10:0.50423695 11:0.62991938 12:0.086088244 13:0.3366592 14:0.01078797 15:0.15994777 16:0.060514879 17:0.56262232 18:0.41748406 19:0.45555555 20:0.066666656 21:0.14285715 22:0.40857142 23:0.66129032 24:0.29803922 25:0.88505744 26:0.22222222 27:0.23687964 28:0.67986546 29:0.11425366 30:0.50206924 31:0.10367893 32:0.44444443 33:0.28465814 34:0.40625 35:0.44987977 36:0.36363636 37:0.23529412 38:0.33333333 39:0.41666667 40:0.2 42:0.28571429 43:0.25 45:0.11111111 47:0.2 48:0.25 49:0.25 51:0.2 53:0.4 56:0.28571429 57:0.11111111 58:0.33333333 59:0.25 
4 0:0.53443207 1:0.49042404 2:0.36075677 3:0.20524921 4:0.18848246 5:0.026401856 6:0.59263559 7:0.4780486 8:0.67732342 9:0.73491054 10:0.49289647 11:0.63594727 12:0.15007546 13:0.49719079 14:0.010570309 15:0.48184725 16:0.23986844 17:0.8894325 18:0.83082732 19:0.45555555 21:0.35714287 22:0.05142857 23:0.67741936 24:0.56862746 25:0.91954022 26:0.43333333 27:0.4138417 28:0.90067449 29:0.084308214 30:0.50749303 31:0.010033449 32:0.29999999 33:0.21501772 34:0.4375 35:0.43589687 36:0.045454545 38:0.5 39:0.58333333 40:0.26666667 41:0.25 42:0.14285714 45:0.33333333 47:0.4 49:0.375 52:0.1 54:0.33333333 55:0.28571429 56:0.28571429 57:0.11111111 59:0.25 
0.8285792395572197 0:0.2509865 1:0.27997048 2:0.36075677 3:0.13045002 5:0.063415566 6:0.43392894 7:0.38714573 8:0.70880742 9:0.46201557 10:0.37176844 11:0.45196777 12:0.20614771 13:0.42007875 14:0.011925358 15:0.25824033 16:0.28387571 17:0.66927594 18:0.54900762 19:0.45555555 20:0.066666656 22:0.12857143 23:0.60080646 24:0.37254902 25:0.96551722 26:0.17777777 27:0.27508603 28:0.64524631 29:0.215977 30:0.5180065 31:0.066889622 32:0.37499998 33:0.25156959 34:0.3125 35:0.35912451 36:0.13636364 37:0.058823529 38:0.22222222 39:0.25 40:0.066666667 42:0.14285714 44:0.25 45:0.22222222 46:0.16666667 47:0.4 48:0.25 49:0.125 51:0.2 52:0.3 53:0.2 55:0.14285714 57:0.11111111 58:0.33333333 
0.8960891939792186 0:0.19779192 1:0.24637906 2:0.36075677 3:0.20524921 4:0.027885205 5:0.084394428 6:0.24213687 7:0.31155897 8:0.64601764 9:0.52430398 10:0.2216629 11:0.33943197 12:0.087118874 13:0.36063005 14:0.28946916 15:0.4546113 16:0.25695235 17:0.56262232 18:0.36109413 19:0.45555555 22:0.05142857 23:0.29435484 24:0.40784314 25:0.68965517 26:0.22222222 27:0.098519293 28:0.44679192 29:0.057019031 30:0.50469789 31:0.040133779 32:0.13333332 33:0.23197373 34:0.25 35:0.23465889 36:0.18181818 37:0.11764706 38:0.16666667 39:0.25 40:0.066666667 42:0.42857143 45:0.22222222 46:0.16666667 47:0.2 49:0.125 50:0.33333333 53:0.2 54:0.33333333 55:0.14285714 56:0.14285714 58:0.33333333 59:0.25 
-4 0:0.2028507 1:0.30766505 2:0.36075677 3:0.13045002 4:0.094855427 5:0.21024943 6:0.27600342 7:0.47857939 8:0.33879305 9:0.58357204 10:0.58581001 11:0.3761661 12:0.21758401 13:0.24732681 14:0.13399956 15:0.11795301 16:0.14358256 17:0.62426615 18:0.43576343 19:0.45555555 20:0.066666656 22:0.19999999 23:0.62096774 24:0.062745095 25:0.96551722 26:0.17777777 27:0.40713367 28:0.53829672 29:0.39932651 30:0.52062008 31:0.01003344 32:0.047222194 33:0.30666865 34:0.15625 35:0.1933559 36:0.22727273 37:0.23529412 38:0.055555556 39:0.083333333 42:0.28571429 43:0.16666667 44:0.25 45:0.11111111 47:0.2 48:0.5 56:0.28571429 57:0.22222222 
4 0:0.62549243 1:0.54923311 2:0.36075677 3:0.13045002 4:0.18848246 5:0.24237364 6:0.58606889 7:0.57536737 8:1 9:0.76063529 10:0.605779 11:0.63657133 12:0.14604031 13:0.35621667 14:0.0090799356 15:0.25183071 16:0.13836386 17:0.81604697 18:0.73368205 19:0.45555555 20:0.066666656 21:0.35714287 22:0.2942857 23:0.66532258 24:0.59215686 25:0.93103444 26:0.22222222 27:0.22795145 28:0.81860655 29:0.3219592 30:0.59191461 31:0.033444828 32:0.34166664 33:0.40510077 34:0.46875 35:0.57327663 36:0.22727273 37:0.11764706 38:0.5 39:0.5 40:0.13333333 42:0.28571429 43:0.16666667 45:0.11111111 47:0.2 48:0.25 49:0.25 50:0.33333333 52:0.1 53:0.2 55:0.14285714 56:0.28571429 57:0.55555556 59:0.25 
-4 0:0.18611882 1:0.33039669 3:0.13045002 4:0.027885205 6:0.42759465 7:0.48189146 8:0.46365125 9:0.58357204 10:0.56987038 11:0.38077764 12:0.5534032 13:0.40681653 14:0.052067975 15:0.040998236 16:0.40768929 17:0.74070451 18:0.69497162 19:0.14444444 20:0.066666656 23:0.62096774 24:0.58431372 25:0.77011492 26:0.48888888 27:0.68476679 28:0.61956673 29:0.53276838 30:0.44395207 31:0.1605351 32:0.13333331 33:0.32105647 34:0.09375 35:0.14408176 36:0.045454545 38:0.11111111 39:0.25 40:0.066666667 44:0.25 46:0.16666667 48:0.25 49:0.125 51:0.2 55:0.14285714 56:0.28571429 57:0.22222222 
-4 0:0.56452849 1:0.41005749 3:0.20524921 4:0.433087 5:0.25003235 6:0.81273167 7:0.26087036 8:1 9:0.35927292 10:0.51300838 11:0.76640022 12:0.10401354 13:0.56280165 14:0.037391314 15:0.34165125 16:0.35663439 17:0.71722114 18:0.61318095 19:0.14444444 21:0.44444446 22:0.34857142 23:0.64516129 24:0.32156863 25:0.88505744 26:0.22222222 27:0.48574578 28:0.83442431 29:0.054885554 30:0.41941063 31:0.023411368 32:0.26944443 33:0.36041288 34:0.625 35:0.6264918 36:0.22727273 37:0.058823529 38:0.5 39:0.5 40:0.2 42:0.28571429 43:0.083333333 45:0.55555556 46:0.33333333 47:0.2 49:0.625 51:0.2 52:0.1 54:0.66666667 56:0.28571429 57:0.22222222 59:0.25 
-1.561931808972759 0:0.2509329 1:0.33295998 3:0.13045002 4:0.078471062 5:0.16264407 6:0.24411293 7:0.63162623 8:0.46365125 9:0.6689976 10:0.61842776 11:0.44412522 12:0.013548387 13:0.27702582 14:0.060361399 15:0.19888801 16:0.28307002 17:0.69960862 18:0.59437371 19:0.14444444 20:0.066666656 21:0.14285715 22:0.12 23:0.48387097 24:0.39607844 25:0.65517239 26:0.22222222 27:0.51857861 28:0.49317383 29:0.04310603 30:0.17593889 31:0.046822736 32:0.26944443 33:0.2266971 34:0.21875 35:0.21755878 36:0.13636364 37:0.11764706 38:0.27777778 39:0.41666667 40:0.33333333 43:0.25 46:0.16666667 48:0.25 49:0.125 50:0.33333333 55:0.14285714 56:0.14285714 57:0.11111111 
-1.34722227902153 0:0.35156059 1:0.46765782 3:0.13045002 4:0.49221705 5:0.18241015 6:0.47037442 7:0.4795178 8:0.67732342 9:0.65266679 10:0.59297986 11:0.47429707 12:0.17239501 13:0.45075425 14:0.040942185 15:0.3363382 16:0.66389783 17:0.57925637 18:0.37554901 19:0.14444444 20:0.066666656 21:0.30158731 22:0.18 23:0.25403226 24:0.062745095 25:0.91954022 26:0.17777777 27:0.33834133 28:0.40536692 29:0.1448268 30:0.26704232 31:0.086956521 32:0.48888888 33:0.48463943 34:0.21875 35:0.28437834 36:0.27272727 37:0.23529412 38:0.16666667 39:0.16666667 40:0.066666667 43:0.33333333 46:0.16666667 47:0.2 48:0.5 49:0.375 53:0.2 55:0.14285714 58:0.33333333 
1.341602278278971 0:0.47335443 1:0.35689977 3:0.20524921 4:0.17236435 5:0.29584933 6:0.35628184 7:0.26507646 8:0.48986232 9:0.38803891 10:0.45474464 11:0.44611572 12:0.033715454 13:0.41701464 14:0.048016752 15:0.45740661 16:0.29867459 17:0.60371821 18:0.49909503 19:0.14444444 22:0.42 23:0.49596775 24:0.31764706 25:0.68965517 26:0.22222222 27:0.33747644 28:0.71912057 29:0.30597188 30:0.4480767 31:0.0033444754 32:0.42777777 33:0.35396992 34:0.59375 35:0.63493053 36:0.31818182 37:0.11764706 38:0.44444444 39:0.41666667 40:0.2 42:0.14285714 43:0.33333333 44:0.25 45:0.22222222 46:0.33333333 47:0.4 49:0.25 50:0.33333333 51:0.2 52:0.1 53:0.2 54:0.33333333 55:0.14285714 56:0.28571429 57:0.11111111 58:0.33333333 
4 0:0.29969645 1:0.25439518 3:0.20524921 5:0.27312978 6:0.2014046 7:0.30758514 8:0.67732342 9:0.37308425 10:0.31915662 11:0.55301303 12:0.22960458 13:0.55502481 14:0.022369788 15:0.36607613 16:0.26524407 17:0.51174169 18:0.3822205 19:0.14444444 22:0.34285714 23:0.40725807 24:0.30588236 25:0.91954022 26:0.22222222 27:0.050941858 28:0.83966601 29:0.59038069 30:0.81806234 31:0.016722404 32:0.3361111 33:0.38347621 34:0.5 35:0.51774581 36:0.36363636 37:0.11764706 38:0.33333333 39:0.33333333 40:0.2 42:0.28571429 43:0.16666667 46:0.33333333 47:0.4 49:0.25 50:0.33333333 51:0.2 53:0.6 54:0.33333333 55:0.42857143 56:0.14285714 59:0.25 
-4 0:0.28726171 1:0.56505115 3:0.20524921 4:0.35461594 5:0.35793522 6:0.68064838 7:0.69808263 8:0.44486849 9:0.70997915 10:0.73769231 11:0.48138099 12:0.41040126 13:0.28955816 14:0.45802512 15:0.37286399 16:0.89492449 17:0.66829747 18:0.50719964 19:0.14444444 21:0.30158731 22:0.32571428 23:0.43145162 24:0.6509804 25:0.31034482 26:0.22222222 27:0.49833861 28:0.65640778 29:0.45791742 30:0.37949405 31:0.42809365 32:0.35555555 33:0.92461398 34:0.0625 35:0.10810028 36:0.13636364 37:0.058823529 38:0.055555556 42:0.14285714 43:0.083333333 46:0.16666667 49:0.375 53:0.2 54:0.33333333 55:0.14285714 57:0.11111111 
4 0:0.29837305 1:0.33282925 3:0.13045002 5:0.1295387 6:0.3914036 7:0.48211278 8:0.70880742 9:0.37308425 10:0.38783248 11:0.59353555 12:0.47745798 13:0.60698351 14:0.0043925669 15:0.30645927 16:0.42048484 17:0.73287672 18:0.64537351 19:0.14444444 20:0.066666656 22:0.19999999 23:0.41935484 24:0.69411765 25:0.72413792 26:0.52222221 27:0.42134033 28:0.79025981 29:0.31032434 30:0.60037045 31:0.066889636 32:0.51666665 33:0.49161815 34:0.3125 35:0.37887424 36:0.090909091 38:0.27777778 39:0.25 42:0.14285714 44:0.25 45:0.11111111 46:0.33333333 47:0.2 48:0.25 49:0.25 50:0.33333333 53:0.2 55:0.28571429 56:0.28571429 57:0.22222222 59:0.25 
-1.222046333342978 0:0.40216249 1:0.40521031 2:0.7206523 3:0.13045002 5:0.20638286 6:0.36063643 7:0.26406234 8:0.44486849 9:0.37308425 10:0.47383199 11:0.46312295 12:0.29194943 13:0.35251219 14:0.13155198 15:0.3516987 16:0.249339 17:0.8444227 18:0.79273919 19:1 20:0.066666656 22:0.27999999 23:0.81048387 24:0.47843138 25:0.93103444 26:0.43333333 27:0.26800353 28:0.77288239 29:0.094137317 30:0.55138271 31:0.046822743 32:0.26666666 33:0.32477493 34:0.375 35:0.45030281 36:0.13636364 38:0.44444444 39:0.58333333 40:0.2 42:0.14285714 43:0.083333333 45:0.11111111 46:0.16666667 47:0.2 48:0.25 49:0.125 50:0.33333333 51:0.2 52:0.2 55:0.14285714 57:0.55555556 
-1.48288306217784 0:0.43400081 1:0.39876387 2:0.7206523 3:0.13045002 4:0.078471062 5:0.49873492 6:0.54798267 7:0.48594128 8:1 9:0.26202634 10:0.54320425 11:0.57936267 12:0.17300128 13:0.41532063 14:0.0050691599 15:0.43004591 16:0.21839677 17:0.52152643 18:0.37474035 19:1 20:0.066666656 21:0.14285715 22:0.34571429 23:0.31854839 24:0.18039216 25:0.83908045 26:0.13333331 27:0.3053926 28:0.52617684 29:0.034595938 30:0.43447812 31:0.046822743 32:0.31388888 33:0.32984641 34:0.4375 35:0.43745547 36:0.36363636 37:0.17647059 38:0.22222222 39:0.083333333 40:0.13333333 42:0.42857143 43:0.25 45:0.22222222 47:0.2 48:0.5 49:0.375 52:0.1 53:0.2 55:0.28571429 56:0.14285714 58:0.33333333 
1.426518533458619 0:0.31366018 1:0.2467379 2:0.7206523 3:0.20524921 4:0.18848246 5:0.31501231 6:0.4050946 7:0.14399521 8:0.37627625 10:0.27283158 11:0.47285428 12:0.21076079 13:0.44612602 14:0.051347947 15:0.53482627 16:0.42620991 17:0.50587085 18:0.39265538 19:1 21:0.35714287 22:0.44571429 23:0.31048388 24:0.30980392 25:0.49425287 26:0.22222222 27:0.21568556 28:0.52215801 29:0.060598075 30:0.3847338 31:0.056856188 32:0.57777777 33:0.58302969 34:0.5625 35:0.60168774 36:0.40909091 37:0.17647059 38:0.38888889 39:0.16666667 40:0.2 42:0.42857143 43:0.083333333 44:0.25 45:0.11111111 46:0.5 47:0.6 49:0.25 51:0.6 52:0.1 53:0.4 54:0.33333333 55:0.14285714 58:0.33333333 
-4 0:0.45177446 1:0.47819384 2:0.7206523 3:0.13045002 4:0.027885205 5:0.4969794 6:0.2769483 7:0.65358028 8:0.37627625 9:0.58357204 10:0.56608929 11:0.48788988 12:0.23328356 13:0.2748652 14:0.02444359 15:0.28619146 16:0.19134948 17:0.66829747 18:0.55017805 19:1 20:0.066666656 22:0.72571427 23:0.2983871 24:0.48627452 25:0.40229886 26:0.22222222 27:0.33366917 28:0.61855635 29:0.32367494 30:0.4647256 31:0.013377927 32:0.4861111 33:0.65482374 34:0.34375 35:0.40272088 36:0.31818182 37:0.17647059 38:0.22222222 40:0.066666667 42:0.42857143 43:0.25 45:0.11111111 47:0.6 48:0.25 49:0.125 51:0.2 56:0.42857143 57:0.22222222 
-4 0:0.74929041 1:0.58315577 2:0.7206523 3:0.20524921 4:0.41598625 5:0.52889383 6:0.69009839 7:0.4134869 8:1 9:0.58357204 10:0.53541168 11:0.57592221 12:0.058586776 13:0.44334195 14:0.0024754776 15:0.28619146 16:0.26069749 17:0.66046967 18:0.55482379 19:1 21:0.30158731 22:0.72571427 23:0.43548388 24:0.28235294 25:0.83908045 26:0.17777777 27:0.33366917 28:0.61855635 29:0.1534586 30:0.4647256 31:0.013377927 32:0.4861111 33:0.55366214 34:0.5625 35:0.66458853 36:0.45454545 37:0.29411765 38:0.38888889 39:0.16666667 40:0.066666667 42:0.71428571 43:0.25 45:0.11111111 47:0.6 48:0.25 49:0.5 51:0.2 54:0.33333333 56:0.57142857 57:0.22222222 
4 0:0.6031412 1:0.48851631 2:0.7206523 3:0.13045002 4:0.14544128 5:0.09527129 6:0.47676176 7:0.30226536 8:0.67732342 9:0.59302873 10:0.40015271 11:0.76167404 12:0.059731823 13:0.71915377 14:0.011409682 15:0.40229462 16:0.33421999 17:0.7632094 18:0.66518041 19:1 20:0.066666656 21:0.14285715 22:0.13142857 23:0.625 24:0.25490196 25:0.91954022 26:0.17777777 27:0.17796957 28:0.89786717 29:0.096868659 30:0.79228009 31:0.0066889668 32:0.33888888 33:0.39650303 34:0.53125 35:0.62524492 36:0.31818182 37:0.23529412 38:0.5 39:0.33333333 40:0.2 42:0.28571429 44:0.5 47:0.4 48:0.5 49:0.375 51:0.4 52:0.1 53:0.4 55:0.42857143 56:0.14285714 57:0.22222222 
-3.503916608884821 0:0.28402967 1:0.50911643 2:0.7206523 3:0.13045002 4:0.078471062 6:0.34244478 7:0.50408166 8:0.70880742 9:0.6689976 10:0.52140713 11:0.63688586 12:0.74305764 13:0.56232889 14:0.11644471 15:0.093625546 16:0.21470139 17:0.74755383 18:0.71195358 19:1 20:0.066666656 21:0.14285715 23:0.3266129 24:0.48627451 25:0.91954022 26:0.22222222 27:0.55372079 28:0.8629112 29:0.78185599 30:0.65845426 31:0.030100332 32:0.024999981 33:0.40602567 34:0.09375 35:0.14417082 36:0.13636364 37:0.058823529 38:0.16666667 39:0.25 40:0.066666667 44:0.5 47:0.2 48:0.25 49:0.125 51:0.6 55:0.14285714 57:0.11111111 
-4 0:0.27173311 1:0.33916899 2:0.7206523 3:0.20524921 4:0.078471062 6:0.54964362 7:0.30337904 8:0.67732342 9:0.45255887 10:0.43865937 11:0.59880185 12:0.15760643 13:0.44993095 14:0.014902477 15:0.42809944 16:0.43209181 17:0.7191781 18:0.62795353 19:1 21:0.14285715 23:0.68951614 24:0.30980393 25:0.91954022 26:0.22222222 27:0.3988177 28:0.66246772 29:0.22876465 30:0.45577901 31:0.043478263 32:0.41944444 33:0.24518988 34:0.25 35:0.24556911 36:0.090909091 37:0.058823529 38:0.16666667 39:0.16666667 40:0.13333333 42:0.14285714 45:0.22222222 46:0.16666667 47:0.4 49:0.25 51:0.2 54:0.33333333 55:0.14285714 56:0.42857143 
-4 0:0.28431279 1:0.50963321 2:0.7206523 3:0.20524921 5:0.16310818 6:0.39483757 7:0.44657269 8:0.67732342 9:0.59417418 10:0.4918695 11:0.56498922 12:0.50747808 13:0.36915896 14:0.46159224 15:0.37578008 16:0.30253967 17:0.64187868 18:0.44994618 19:1 22:0.10857143 23:0.37903226 24:0.14901961 25:0.91954022 26:0.11111111 27:0.14691405 28:0.51311442 29:0.60519236 30:0.5063201 31:0.36454849 32:0.30277776 33:0.34366255 34:0.09375 35:0.12248397 36:0.18181818 37:0.11764706 38:0.055555556 39:0.083333333 40:0.066666667 42:0.14285714 43:0.083333333 47:0.2 49:0.25 53:0.4 54:0.33333333 55:0.14285714 56:0.14285714 
-4 0:0.27813483 1:0.45804873 2:0.7206523 3:0.13045002 4:0.18848246 5:0.035783929 6:0.42112057 7:0.53267462 8:0.67732342 9:0.84059778 10:0.65909393 11:0.44457211 12:0.34582718 13:0.36817404 14:0.0028226666 15:0.015292768 16:0.26876633 17:0.76908025 18:0.751376 19:1 20:0.066666656 21:0.35714287 22:0.05142857 23:0.70161291 24:0.47058824 25:0.91954022 26:0.53333333 27:0.61372758 28:0.68803882 29:0.45434713 30:0.43263009 31:0.36120402 32:0.31666666 33:0.45746691 34:0.125 35:0.17534289 36:0.090909091 38:0.16666667 39:0.16666667 40:0.13333333 42:0.14285714 47:0.6 48:0.25 49:0.125 52:0.1 53:0.2 55:0.14285714 56:0.14285714 
4 0:0.46930551 1:0.45081006 2:0.7206523 3:0.20524921 4:0.35461594 5:0.094357878 6:0.35059777 7:0.35897692 8:0.67732342 9:0.37259638 10:0.38674338 11:0.53408654 12:0.074288212 13:0.48082371 14:0.036973626 15:0.21210555 16:0.28242578 17:0.83268103 18:0.76821355 19:1 21:0.30158731 22:0.18285714 23:0.48790323 24:0.58431373 25:0.91954022 26:0.46666666 27:0.27833455 28:0.7635857 29:0.088855575 30:0.57943451 31:0.0066889668 32:0.34166666 33:0.45636266 34:0.40625 35:0.49345386 36:0.13636364 38:0.5 39:0.41666667 40:0.26666667 43:0.083333333 46:0.16666667 47:0.6 49:0.25 50:0.66666667 51:0.2 52:0.2 53:0.2 54:0.33333333 55:0.14285714 56:0.14285714 57:0.11111111 
-4 0:0.34032007 1:0.42523983 2:0.7206523 3:0.13045002 4:0.027885205 5:0.12869381 6:0.32772016 7:0.59649842 8:0.66146962 9:0.58357204 10:0.5589808 11:0.47396977 12:0.18205131 13:0.31691567 14:0.0073828718 15:0.30216036 16:0.19245227 17:0.80724072 18:0.77806194 19:1 20:0.066666656 22:0.10857143 23:0.54838709 24:0.76078431 25:0.88505744 26:0.48888888 27:0.6090346 28:0.81931631 29:0.31466351 30:0.45870055 31:0.053511701 32:0.18055555 33:0.31335044 34:0.25 35:0.24703865 36:0.090909091 38:0.27777778 39:0.25 40:0.2 42:0.14285714 44:0.25 45:0.33333333 47:0.4 48:0.25 49:0.125 52:0.1 53:0.2 56:0.14285714 57:0.11111111 
4 0:0.65110578 1:1 2:0.7206523 3:0.13045002 4:0.35461594 5:0.21714167 6:0.81273167 7:0.82922527 8:1 9:0.98366918 10:0.83552927 11:0.70023823 12:0.20374694 13:0.2313416 14:0.011964516 15:0.31264926 16:0.54054392 17:0.88649708 18:0.98590435 19:1 20:0.066666656 21:0.30158731 22:0.23714286 23:0.70967742 24:0.6627451 25:0.91954022 26:0.22222222 27:0.70769062 28:0.806559 29:0.35184958 30:0.40263695 31:0.086956515 32:0.43333332 33:0.49853508 34:0.15625 35:0.27803259 36:0.090909091 37:0.058823529 38:0.27777778 39:0.33333333 42:0.14285714 43:0.083333333 47:0.4 48:0.25 49:0.625 52:0.1 55:0.14285714 57:0.11111111 
-2.853939646462426 0:0.47596216 1:0.53092639 2:0.7206523 3:0.13045002 5:0.31142112 6:0.81929837 7:0.46326643 8:1 9:0.51905208 10:0.45737371 11:0.84878067 12:0.48358392 13:0.69119577 14:0.017814152 15:0.24942029 16:0.2198873 17:0.69080236 18:0.58162377 19:1 20:0.066666656 22:0.34571429 23:0.6451613 24:0.29411765 25:0.91954022 26:0.17777777 27:0.24068691 28:0.91864182 29:0.63610378 30:0.76906552 31:0.030100325 32:0.42222222 33:0.39546771 34:0.3125 35:0.36259797 36:0.27272727 37:0.11764706 38:0.22222222 39:0.25 40:0.066666667 42:0.28571429 43:0.083333333 45:0.11111111 47:0.4 48:0.25 49:0.375 51:0.4 53:0.2 55:0.14285714 56:0.28571429 57:0.11111111 
0.8328466064514226 0:0.48901502 1:0.65165106 2:0.7206523 3:0.13045002 4:0.18848246 5:0.22902367 6:0.38909702 7:0.71712364 8:0.44791678 9:0.73235716 10:0.60053335 11:0.57408685 12:0.32751363 13:0.34698878 14:0.15074465 15:0.24295084 16:0.53044645 17:0.75440314 18:0.69400123 19:1 20:0.066666656 21:0.35714287 22:0.23714286 23:0.28225807 24:0.58431373 25:0.40229886 26:0.22222222 27:0.41746469 28:0.56115311 29:0.17513534 30:0.36643649 31:0.046822744 32:0.3611111 33:0.68914509 34:0.21875 35:0.32548094 36:0.13636364 37:0.058823529 38:0.22222222 39:0.16666667 43:0.16666667 47:0.6 48:0.25 49:0.375 51:0.2 52:0.1 55:0.14285714 56:0.28571429 59:0.25 
-4 0:0.2663941 1:0.35365597 2:0.7206523 3:0.20524921 6:0.23997143 7:0.49986453 8:0.33879305 9:0.57921952 10:0.47681099 11:0.43923292 12:0.24501279 13:0.227713 14:0.12787106 15:0.30969961 16:0.086597703 17:0.77299414 18:0.72780341 19:1 23:0.58467742 24:0.52941177 25:0.96551722 26:0.22222222 27:0.38554428 28:0.86044068 29:0.49832068 30:0.55075017 31:0.066889636 32:0.29722221 33:0.27136447 34:0.21875 35:0.24617029 36:0.090909091 37:0.058823529 38:0.16666667 39:0.16666667 40:0.066666667 43:0.083333333 45:0.22222222 47:0.4 51:0.2 52:0.1 54:0.33333333 55:0.14285714 56:0.28571429 57:0.33333333 
-4 0:0.33324144 1:0.55025422 2:0.7206523 3:0.13045002 4:0.09196611 5:0.087071123 6:0.31669958 7:0.69159469 8:0.46365125 9:0.69178702 10:0.70791213 11:0.50346181 12:0.017147827 13:0.18813935 14:0.04616336 15:0.050723336 16:0.1811398 17:0.82289629 18:0.87368655 19:1 20:0.066666656 21:0.15079366 22:0.17142857 23:0.59677419 24:0.68235295 25:0.96551722 26:0.53333333 27:0.67974687 28:0.83719549 29:0.32929827 30:0.31349067 31:0.15050167 32:0.14166665 33:0.33579767 34:0.125 35:0.17799252 36:0.090909091 38:0.27777778 39:0.41666667 40:0.2 42:0.14285714 47:0.2 48:0.25 49:0.125 50:0.33333333 53:0.2 56:0.14285714 57:0.22222222 
-4 0:0.24638245 1:0.32686885 2:0.7206523 3:0.13045002 4:0.09196611 5:0.087091794 6:0.37362529 7:0.49214912 8:0.66146962 9:0.35927292 10:0.4102171 11:0.61742578 12:0.50166294 13:0.52286481 14:0.13399066 15:0.3813513 16:0.34422841 17:0.71037183 18:0.61394341 19:1 20:0.066666656 21:0.15079366 22:0.12857143 23:0.55645161 24:0.66274511 25:0.88505744 26:0.25555555 27:0.24122487 28:0.83191761 29:0.63939932 30:0.64909469 31:0.073578597 32:0.30277777 33:0.36740721 34:0.21875 35:0.29344051 36:0.090909091 38:0.27777778 39:0.25 40:0.066666667 42:0.14285714 46:0.16666667 47:0.4 48:0.25 49:0.125 50:0.33333333 51:0.2 52:0.1 55:0.14285714 56:0.14285714 57:0.11111111 59:0.5 
-0.5383492366750193 0:0.32214511 1:0.32487829 2:0.13045002 3:0.13045002 4:0.15694212 5:0.19851731 6:0.33428686 7:0.40424475 8:0.37627625 9:0.6689976 10:0.41146809 11:0.47184583 12:0.18283533 13:0.31606357 14:0.079091977 15:0.44107847 16:0.30607657 17:0.64579257 18:0.52187691 19:0.066666656 20:0.066666656 21:0.28571429 22:0.26285714 23:0.49193549 24:0.39607844 25:0.68965517 26:0.22222222 27:0.37664281 28:0.62178863 29:0.017644533 30:0.3405572 31:0.023411369 32:0.53888888 33:0.48366992 34:0.375 35:0.36691753 36:0.27272727 37:0.058823529 38:0.27777778 39:0.083333333 40:0.26666667 42:0.42857143 47:0.2 48:0.5 49:0.25 51:0.2 53:0.2 55:0.57142857 56:0.14285714 57:0.11111111 
-1.073315594121154 0:0.2109516 1:0.24829164 2:0.13045002 3:0.13045002 4:0.078471062 5:0.15048669 6:0.19812212 7:0.45541603 8:0.14097467 9:0.50409742 10:0.41490038 11:0.3737959 12:0.27579965 13:0.27186454 14:0.095400795 15:0.41933027 16:0.1365766 17:0.77103719 18:0.70938488 19:0.066666656 20:0.066666656 21:0.14285715 22:0.3 23:0.62903226 24:0.57647059 25:0.68965517 26:0.47777777 27:0.56638788 28:0.69966141 29:0.14056715 30:0.33373198 31:0.016722411 32:0.59722222 33:0.40607051 34:0.28125 35:0.23657375 36:0.13636364 38:0.27777778 39:0.25 40:0.2 42:0.28571429 45:0.33333333 47:0.4 48:0.5 50:0.33333333 55:0.28571429 57:0.22222222 
-4 0:0.68683102 1:0.3802502 2:0.13045002 3:0.20524921 5:0.32334163 6:0.32321505 7:0.45238133 8:0.66146962 9:0.49332733 10:0.36316657 11:0.47393575 12:0.067417714 13:0.36939427 14:0.011398304 15:0.44325774 16:0.28370922 17:0.7446184 18:0.62966647 19:0.066666656 22:0.32 23:0.48387097 24:0.47450981 25:0.88505744 26:0.22222222 27:0.30616238 28:0.70025132 29:0.101863 30:0.50772234 31:0.0033444824 32:0.45833332 33:0.40001508 34:0.90625 35:0.9969496 36:0.27272727 37:0.058823529 38:0.72222222 39:0.41666667 40:0.4 42:0.57142857 44:0.25 45:0.11111111 46:0.16666667 47:0.4 48:0.25 49:0.375 52:0.3 53:0.2 54:0.33333333 55:0.42857143 56:0.85714286 57:0.33333333 59:0.25 
-2.4587360891165 0:0.33225286 1:0.44181295 2:0.13045002 3:0.13045002 4:0.5430984 5:0.32844091 6:0.32483686 7:0.65843233 8:0.46365125 9:0.72158707 10:0.58860154 11:0.40572726 12:0.061820889 13:0.1810712 14:0.010732894 15:0.24455442 16:0.40893166 17:0.68003915 18:0.55879246 19:0.066666656 20:0.066666656 21:0.65873018 22:0.39714286 23:0.37903226 24:0.65882354 25:0.60919539 26:0.56666667 27:0.46992528 28:0.56847208 29:0.22611517 30:0.5346649 31:0.090301008 32:0.16111111 33:0.69022814 34:0.21875 35:0.25543285 36:0.18181818 38:0.27777778 39:0.25 40:0.13333333 43:0.16666667 45:0.11111111 47:0.2 48:0.5 49:0.25 51:0.2 55:0.14285714 57:0.11111111 59:0.5 
2.045521336145032 0:0.60340949 1:0.48873179 2:0.13045002 3:0.20524921 4:0.18848246 5:0.20912916 6:0.62676505 7:0.34521574 8:0.66146962 9:0.51905208 10:0.54128048 11:0.58543527 12:0.12609925 13:0.29618008 14:0.029874861 15:0.3419712 16:0.28701959 17:0.78473582 18:0.68866404 19:0.066666656 21:0.35714287 22:0.28857143 23:0.76612903 24:0.50196079 25:0.88505744 26:0.17777777 27:0.42281742 28:0.74169216 29:0.17878661 30:0.54281955 31:0.0033444764 32:0.37222222 33:0.42691947 34:0.53125 35:0.56802191 36:0.31818182 37:0.11764706 38:0.5 39:0.5 40:0.13333333 41:0.25 42:0.14285714 43:0.083333333 45:0.33333333 47:0.4 48:0.25 49:0.5 50:0.33333333 51:0.4 53:0.4 54:0.33333333 55:0.14285714 56:0.14285714 57:0.22222222 
-4 0:0.37791755 1:0.47242148 2:0.13045002 3:0.13045002 5:0.32537745 6:0.45191108 7:0.56053383 8:0.46365125 9:0.51905208 10:0.68620398 11:0.54555001 12:0.08331617 13:0.25571714 14:0.0043054546 15:0.31582022 16:0.44454599 17:0.53913895 18:0.32106521 19:0.066666656 20:0.066666656 22:0.33142856 23:0.24193549 24:0.28627451 25:0.60919539 26:0.17777777 27:0.23687964 28:0.59977078 29:0.42081308 30:0.65143582 31:0.0167224 32:0.59444444 33:0.69109943 34:0.25 35:0.29980851 36:0.40909091 37:0.23529412 38:0.16666667 39:0.083333333 40:0.13333333 43:0.33333333 48:0.5 49:0.375 51:0.4 53:0.4 57:0.11111111 
-4 0:0.30179988 1:0.54155294 2:0.13045002 3:0.20524921 4:0.033485111 6:0.79720598 7:0.53472983 8:0.67732342 9:0.51905208 10:0.53112126 11:0.42525088 12:0.36778819 13:0.2546164 14:0.35027649 15:0.2847806 16:0.14137798 17:0.73679062 18:0.68526764 19:0.066666656 23:0.97177419 24:0.56862746 25:0.91954022 26:0.11111111 27:0.60426733 28:0.59676681 29:0.25878179 30:0.20800809 31:0.12709029 32:0.10555553 33:0.1435669 34:0.09375 35:0.16552369 36:0.13636364 37:0.11764706 38:0.11111111 39:0.33333333 42:0.14285714 47:0.2 48:0.25 49:0.25 53:0.2 54:0.33333333 55:0.14285714 56:0.14285714 57:0.22222222 
-4 0:0.36931639 1:0.52547967 2:0.13045002 3:0.20524921 4:0.18031996 5:0.56044859 6:0.75268844 7:0.41175644 8:0.44791678 9:0.59417418 10:0.63426073 11:0.61763928 12:0.30245789 13:0.31183188 14:0.35843644 15:0.48125585 16:0.42589965 17:0.60176126 18:0.40350571 19:0.066666656 21:0.33333333 22:0.55428571 23:0.41129033 24:0.36862745 25:0.25287357 26:0.11111111 27:0.28370811 28:0.59132847 29:0.39964668 30:0.48103996 31:0.37458194 32:0.61111111 33:0.72703965 34:0.1875 35:0.21684628 36:0.27272727 37:0.11764706 38:0.16666667 39:0.16666667 40:0.066666667 42:0.42857143 43:0.083333333 45:0.11111111 48:0.25 49:0.375 53:0.2 54:0.33333333 57:0.11111111 59:0.25 
4 0:0.38075128 1:0.47597756 2:1 3:0.13045002 4:0.078471062 6:0.44557568 7:0.36425375 8:0.66146962 9:0.6689976 10:0.42499707 11:0.54701724 12:0.16514659 13:0.37680517 14:0.0037404742 15:0.13145445 16:0.19909033 17:0.77397261 18:0.72135431 19:0.92222222 20:0.066666656 21:0.14285715 23:0.54435484 24:0.51372549 25:0.88505744 26:0.43333333 27:0.44982793 28:0.73831524 29:0.40855786 30:0.48758708 31:0.070234111 32:0.29166666 33:0.30858476 34:0.25 35:0.25467581 36:0.13636364 38:0.27777778 39:0.33333333 40:0.13333333 42:0.14285714 44:0.25 45:0.33333333 47:0.2 48:0.25 49:0.25 50:0.33333333 52:0.1 53:0.4 57:0.11111111 
-0.9362985253790909 0:0.30088206 1:0.22864009 2:1 3:0.13045002 4:0.09196611 5:0.11347298 6:0.26094638 7:0.086908936 8:0.46365125 10:0.22404764 11:0.49623998 12:0.17559182 13:0.49960476 14:0.0053024945 15:0.3536724 16:0.19053279 17:0.73189824 18:0.62857125 19:0.92222222 20:0.066666656 21:0.15079366 22:0.22285714 23:0.39919355 24:0.25098039 25:0.66666664 26:0.28888888 27:0.40040481 28:0.75398836 29:0.14048041 30:0.37396851 31:0.026755862 32:0.4222222 33:0.31427723 34:0.59375 35:0.64726577 36:0.090909091 38:0.61111111 39:0.5 40:0.4 42:0.14285714 43:0.083333333 45:0.11111111 46:0.5 48:0.25 49:0.125 50:0.33333333 52:0.3 55:0.28571429 56:0.14285714 57:0.44444444 58:0.33333333 59:0.25 
-4 0:0.36814146 1:0.56295847 2:1 3:0.20524921 4:0.18848246 6:0.59263559 7:0.46949267 8:0.67732342 9:0.76112316 10:0.55071085 11:0.6715107 12:0.62772741 13:0.58585021 14:0.14434076 15:0.20697791 16:0.29165762 17:0.7710372 18:0.74367813 19:0.92222222 21:0.35714287 23:0.67741936 24:0.45882354 25:0.91954022 26:0.52222222 27:0.57187738 28:0.80691164 29:0.51559346 30:0.56213606 31:0.27090301 32:0.53055555 33:0.45489701 34:0.15625 35:0.20068133 36:0.090909091 38:0.16666667 39:0.16666667 40:0.066666667 44:0.25 45:0.11111111 47:0.4 49:0.25 53:0.4 54:0.33333333 55:0.14285714 56:0.28571429 
4 0:0.40923082 1:0.51171697 2:1 3:0.20524921 4:0.35461594 5:0.062185785 6:0.291265 7:0.59419067 8:0.67732342 9:0.7461685 10:0.54938051 11:0.45749108 12:0.21848474 13:0.32139333 14:0.072109387 15:0.2392716 16:0.2464533 17:0.78767124 18:0.74470451 19:0.92222222 21:0.30158731 22:0.10285714 23:0.61290323 24:0.39607844 25:0.91954022 26:0.22222222 27:0.22507742 28:0.68663515 29:0.33699746 30:0.69761522 31:0.046822742 32:0.40833332 33:0.31300652 34:0.25 35:0.28099394 36:0.13636364 37:0.058823529 38:0.33333333 39:0.41666667 40:0.2 41:0.25 43:0.16666667 47:0.2 49:0.25 50:0.33333333 53:0.2 54:0.33333333 55:0.28571429 56:0.14285714 57:0.11111111 
0.01621515158087006 0:0.14390209 1:0.23344777 2:1 3:0.13045002 5:0.20638286 6:0.32772016 7:0.41672252 8:0.37627625 9:0.36231416 10:0.40163102 11:0.57630263 12:0.20665936 13:0.48685646 14:0.47035351 15:0.49062093 16:0.28941541 17:0.67416831 18:0.53566464 19:0.92222222 20:0.066666656 22:0.27999999 23:0.37096774 24:0.57647059 25:0.36781607 26:0.47777777 27:0.40949647 28:0.69006407 29:0.10790016 30:0.24964957 31:0.81939798 32:0.68333333 33:0.52194811 34:0.125 35:0.12121482 36:0.090909091 38:0.055555556 40:0.066666667 42:0.14285714 43:0.083333333 45:0.11111111 46:0.16666667 48:0.25 49:0.125 55:0.28571429 56:0.14285714 57:0.22222222 
4 0:0.66145135 1:0.34009152 2:1 3:0.13045002 4:0.068800557 5:0.17211545 6:0.23120224 7:0.42948807 8:0.44486849 9:0.45255887 10:0.29372977 11:0.49112515 12:0.26586673 13:0.47868716 14:0.00024300702 15:0.39340045 16:0.15616949 17:0.82289628 18:0.68065825 19:0.92222222 20:0.066666656 22:0.21142857 23:0.59677419 24:0.46666667 25:0.93103444 26:0.17777777 27:0.17191541 28:0.90726785 29:0.57681138 30:0.80546229 31:0.013377926 32:0.34999999 33:0.32111305 34:1 35:0.98492608 36:0.31818182 37:0.11764706 38:0.83333333 39:0.58333333 40:0.46666667 42:0.42857143 43:0.16666667 45:0.33333333 46:0.16666667 48:0.25 49:0.125 51:0.2 53:0.2 55:1 56:0.42857143 57:1 59:0.25 
0.1241458651117492 0:0.4626586 1:0.4659443 2:1 3:0.13045002 4:0.070370003 5:0.51522531 6:0.46016083 7:0.52069941 8:0.44486849 9:0.53798443 10:0.4616899 11:0.59498957 12:0.37539791 13:0.40653871 14:0.0032721242 15:0.71948594 16:0.41613772 17:0.56947163 18:0.41780175 19:0.92222222 20:0.066666656 22:0.50571428 23:0.31048388 24:0.43529412 25:0.68965517 26:0.22222222 27:0.25776761 28:0.7435208 29:0.3935237 30:0.54454257 31:0.013377927 32:0.63888889 33:0.63319734 34:0.375 35:0.41670377 36:0.36363636 37:0.11764706 38:0.27777778 39:0.083333333 40:0.13333333 42:0.28571429 43:0.33333333 45:0.11111111 46:0.16666667 47:0.4 48:0.25 49:0.375 51:0.2 53:0.2 56:0.14285714 59:0.25 
-3.97345669314891 0:0.28522585 1:0.35610125 2:1 3:0.13045002 4:0.18031996 6:0.27422451 7:0.4910144 8:0.70880742 9:0.76112316 10:0.53630591 11:0.37327313 12:0.051201751 13:0.19650914 14:0.028259575 15:0.21802671 16:0.10555447 17:0.7818004 18:0.73469728 19:0.92222222 20:0.066666656 21:0.33333333 23:0.3266129 24:0.60784314 25:0.73563216 26:0.52222222 27:0.51960696 28:0.66993132 29:0.25750126 30:0.30556631 31:0.076923075 32:0.36388888 33:0.28677077 34:0.25 35:0.27275561 36:0.090909091 38:0.27777778 39:0.33333333 40:0.2 41:0.25 44:0.25 48:0.25 49:0.125 53:0.4 55:0.42857143 56:0.28571429 57:0.22222222 
1.195556035242885 0:0.10329892 1:0.13534063 2:1 3:0.13045002 4:0.18031996 6:0.33877573 7:0.073566178 8:0.37027705 9:0.13101317 10:0.32795189 11:0.37447988 12:0.088069716 13:0.2383251 14:0.14615875 15:0.32760883 16:0.17456775 17:0.6594912 18:0.52143214 19:0.92222222 20:0.066666656 21:0.33333333 23:0.6532258 24:0.30980392 25:0.77011492 26:0.2111111 27:0.41477494 28:0.54243986 29:0.13416846 30:0.15877919 31:0.14046823 32:0.26666665 33:0.16835176 34:0.21875 35:0.22370413 36:0.090909091 38:0.11111111 39:0.25 40:0.066666667 44:0.25 45:0.33333333 46:0.16666667 48:0.25 49:0.125 51:0.2 52:0.3 54:0.33333333 57:0.22222222 
2.604800111529162 0:0.51383946 1:0.47162986 2:1 3:0.13045002 4:0.18031996 5:0.055678436 6:0.50894746 7:0.40649099 8:0.67732342 9:0.50360955 10:0.33522356 11:0.45078803 12:0.061723145 13:0.47704033 14:0.0027473398 15:0.27089115 16:0.30763572 17:0.62524463 18:0.50331805 19:0.92222222 20:0.066666656 21:0.33333333 23:0.58870969 24:0.34901961 25:0.91954022 26:0.22222222 27:0.11489857 28:0.55263848 29:0.10533138 30:0.52126457 31:0.076923078 32:0.33333332 33:0.27685681 34:0.4375 35:0.51948254 36:0.31818182 37:0.17647059 38:0.33333333 39:0.33333333 40:0.066666667 43:0.25 44:0.25 45:0.22222222 47:0.2 48:0.5 49:0.375 50:0.33333333 51:0.2 52:0.2 53:0.4 56:0.14285714 57:0.11111111 58:0.33333333 
-4 0:0.56122138 1:0.66199414 2:1 3:0.20524921 4:0.078471062 5:0.30681214 6:0.67907781 7:0.56141462 8:1 9:0.7441197 10:0.58501408 11:0.64639193 12:0.26384948 13:0.41625905 14:0.0083320239 15:0.33380657 16:0.11220277 17:0.90215265 18:0.91973288 19:0.92222222 21:0.14285715 22:0.48571428 23:0.66129032 24:0.78431373 25:0.96551722 26:0.69999999 27:0.52953678 28:0.8629112 29:0.54731818 30:0.56397224 31:0.040133769 32:0.38333333 33:0.43851599 34:0.28125 35:0.36791949 36:0.090909091 38:0.44444444 39:0.5 40:0.2 42:0.28571429 44:0.25 47:0.4 49:0.25 50:0.33333333 52:0.1 54:0.33333333 55:0.14285714 56:0.14285714 57:0.22222222 
-4 0:0.48677016 1:0.60902227 2:1 3:0.13045002 4:0.35461594 5:0.16455617 6:0.50751156 7:0.60634689 8:1 9:0.82515525 10:0.52625572 11:0.65080565 12:0.14815172 13:0.43876054 14:0.011778187 15:0.17676336 16:0.23988224 17:0.74951077 18:0.67965753 19:0.92222222 20:0.066666656 21:0.30158731 22:0.23428571 23:0.56048387 24:0.47450981 25:0.91954022 26:0.22222222 27:0.37444349 28:0.76321273 29:0.16623129 30:0.56171792 31:0.0033444904 32:0.16666665 33:0.36953948 34:0.25 35:0.33242786 36:0.13636364 37:0.058823529 38:0.22222222 39:0.16666667 40:0.066666667 42:0.14285714 43:0.16666667 47:0.2 48:0.25 49:0.375 50:0.33333333 52:0.1 55:0.14285714 56:0.42857143 57:0.11111111 
-2.158135444611053 0:0.44031723 1:0.67443475 2:1 3:0.20524921 4:0.033485111 6:0.64304582 7:0.65632892 8:0.67732342 9:0.66815083 10:0.66850575 11:0.74472378 12:0.11477507 13:0.27791393 14:0.28926412 15:0.53395507 16:0.42869693 17:0.77005872 18:0.74162537 19:0.92222222 22:0.071428572 23:0.93145162 24:0.43921569 25:1 26:0.11111111 27:0.65198152 28:0.83843868 29:0.12512448 30:0.3270635 31:0.21739131 32:0.41111111 33:0.32940482 34:0.15625 35:0.24494567 36:0.18181818 37:0.17647059 38:0.22222222 39:0.33333333 41:0.25 42:0.28571429 47:0.4 49:0.375 51:0.2 52:0.1 53:0.2 54:0.33333333 57:0.11111111 
4 0:0.46082329 1:0.76372678 2:1 3:0.13045002 6:0.56123559 7:0.71723632 8:0.70880742 9:0.49028608 10:0.48527587 11:0.63998526 12:0.3199493 13:0.45216113 14:0.49282942 15:0.50899475 16:0.46091076 17:0.80332682 18:0.82920998 19:0.92222222 20:0.066666656 23:0.72580645 24:0.59607843 25:0.77011492 26:0.17777777 27:0.40262497 28:0.71468124 29:0.33744197 30:0.50001162 31:0.35785953 32:0.3 33:0.44285877 34:0.125 35:0.1963395 36:0.13636364 37:0.058823529 38:0.27777778 39:0.41666667 40:0.13333333 44:0.5 48:0.25 49:0.375 51:0.6 57:0.11111111 
3.718430766280816 0:0.76888171 1:0.50415285 2:1 3:0.13045002 4:0.027885205 5:0.085947926 6:0.7669856 7:0.295238 8:1 9:0.37259638 10:0.49165582 11:0.7221418 12:0.078950509 13:0.50535047 14:0.010565291 15:0.38093716 16:0.30675498 17:0.71232877 18:0.60740104 19:0.92222222 20:0.066666656 22:0.12857143 23:0.76612903 24:0.39607844 25:0.88505744 26:0.22222222 27:0.36294738 28:0.77577788 29:0.032997193 30:0.44212907 31:0.013377927 32:0.53055554 33:0.31975325 34:0.71875 35:0.83957517 36:0.31818182 37:0.17647059 38:0.55555556 39:0.5 40:0.13333333 42:0.28571429 43:0.16666667 44:0.25 45:0.22222222 46:0.16666667 47:0.2 48:0.25 49:0.625 51:0.2 52:0.3 53:0.4 55:0.14285714 56:0.42857143 57:0.33333333 59:0.25 
0.9570823357611403 0:0.31120424 1:0.36669971 2:1 3:0.13045002 5:0.12683113 6:0.28681112 7:0.56617618 8:0.35464685 9:0.49332733 10:0.39399628 11:0.44267389 12:0.063374676 13:0.33296988 14:0.016096653 15:0.26563628 16:0.16410142 17:0.63307242 18:0.48804856 19:0.92222222 20:0.066666656 22:0.25714286 23:0.40725807 24:0.39215687 25:1 26:0.22222222 27:0.11429224 28:0.64890803 29:0.13959637 30:0.55975135 31:0.013377927 32:0.1361111 33:0.44902802 34:0.28125 35:0.31227734 36:0.27272727 37:0.23529412 38:0.11111111 39:0.083333333 43:0.25 45:0.22222222 47:0.8 48:0.25 49:0.125 51:0.2 52:0.1 53:0.4 55:0.14285714 56:0.14285714 
-0.6724560922913499 0:0.59887707 1:0.45024513 2:1 3:0.13045002 4:0.18031996 5:0.1786827 6:0.33063332 7:0.45334904 8:0.33879305 9:0.72158707 10:0.5460183 11:0.51978193 12:0.18621631 13:0.29527589 14:0.031811082 15:0.31299357 16:0.23109214 17:0.81800392 18:0.71554765 19:0.92222222 20:0.066666656 21:0.33333333 22:0.34571428 23:0.70967742 24:0.46666667 25:0.96551722 26:0.51111111 27:0.50322179 28:0.77917065 29:0.072970832 30:0.40654907 31:3.9869327e-09 32:0.33888887 33:0.37299136 34:0.59375 35:0.65365604 36:0.18181818 38:0.5 39:0.25 40:0.13333333 43:0.16666667 45:0.33333333 47:0.4 48:0.25 49:0.25 50:0.33333333 51:0.2 52:0.2 53:0.2 55:0.42857143 56:0.28571429 57:0.44444444 58:0.33333333 
