svm_type epsilon_svr
kernel_type rbf
gamma 0.0625
nr_class 2
total_sv 491
rho 0.0430557
SV
3.022462807508668 0:0.54359813 1:0.6777336 2:0.54811081 3:0.23010938 4:0.21632282 5:0.16653461 6:0.79543758 7:0.58022373 8:1 9:0.75832487 10:0.69227507 11:0.54555049 12:0.24340637 13:0.28024616 14:0.084340521 15:0.095486174 16:0.14299597 17:0.70759495 18:0.7096431 19:0.69999999 21:0.22222223 22:0.10704226 23:0.78423238 24:0.48582997 25:0.83908045 26:0.22222222 27:0.67548458 28:0.62838109 29:0.26634741 30:0.34259897 31:0.056213017 32:0.13609466 33:0.12367432 34:0.18421053 35:0.17028695 36:0.13333333 37:0.1 38:0.3 39:0.5 40:0.25 42:0.16666667 43:0.083333333 44:0.5 49:0.25 54:0.33333333 55:0.125 56:0.16666667 
-4 0:0.67912568 1:0.76625098 2:0.54811081 3:0.15144045 4:0.087063176 5:0.63443177 6:0.63409631 7:0.81323374 8:0.8340381 9:0.64530456 10:0.67733012 11:0.71492819 12:0.31714457 13:0.46223835 14:0.015039962 15:0.1838261 16:0.35232325 17:0.65316457 18:0.60933718 19:0.69999999 20:0.066666656 22:0.69577466 23:0.40248964 24:0.55870446 25:0.91954022 26:0.22222222 27:0.33033963 28:0.7615596 29:0.39346154 30:0.74188912 31:0.094674558 32:0.45266271 33:0.67714557 34:0.23684211 35:0.25745431 36:0.33333333 37:0.1 38:0.35 39:0.33333333 40:0.1875 42:0.5 43:0.083333333 47:0.28571429 48:0.25 49:0.375 51:0.16666667 59:0.2 
4 0:0.36878098 1:0.38661141 2:0.54811081 3:0.15144045 5:0.085265541 6:0.35999892 7:0.37587928 8:0.35952411 9:0.46416128 10:0.40796137 11:0.46112964 12:0.1554156 13:0.26479889 14:0.026761627 15:0.28179011 16:0.21539318 17:0.53924051 18:0.45014409 19:0.69999999 20:0.066666656 22:0.11830986 23:0.34854773 24:0.15789475 25:0.37931034 26:0.22222222 27:0.31733866 28:0.63429349 29:0.14459929 30:0.2629433 31:0.01479289 32:0.42011833 33:0.42590867 34:0.26315789 35:0.24086246 36:0.33333333 37:0.2 38:0.2 39:0.083333333 40:0.125 42:0.16666667 43:0.083333333 44:0.25 45:0.22222222 48:0.25 49:0.125 51:0.33333333 52:0.14285714 53:0.16666667 56:0.16666667 57:0.28571429 
3.319352653106721 0:0.56778929 1:0.46673274 2:0.54811081 3:0.23010938 4:0.039898759 5:0.16548587 6:0.50683934 7:0.3356687 8:0.64311287 9:0.5628965 10:0.42329853 11:0.62735514 12:0.13324532 13:0.44015819 14:0.013569239 15:0.50582583 16:0.24757355 17:0.51772152 18:0.46074427 19:0.69999999 22:0.1971831 23:0.40663901 24:0.15789475 25:0.88505744 26:0.11111111 27:0.20386984 28:0.64751147 29:0.15143222 30:0.55895015 31:0.038461535 32:0.49112425 33:0.34534615 34:0.44736842 35:0.48234611 36:0.4 37:0.2 38:0.35 39:0.25 40:0.125 42:0.33333333 43:0.083333333 44:0.25 45:0.22222222 47:0.14285714 49:0.25 51:0.16666667 52:0.42857143 53:0.16666667 54:0.66666667 55:0.125 56:0.16666667 57:0.28571429 58:0.33333333 
0.2770602859427853 0:0.41329715 1:0.41873842 2:0.54811081 3:0.15144045 6:0.69944384 7:0.26680355 8:0.55536012 9:0.46416128 10:0.53534995 11:0.50217288 12:0.076587666 13:0.20097377 14:0.0070315971 15:0.26388786 16:0.071119179 17:0.82531647 18:0.82393626 19:0.69999999 20:0.066666656 23:0.94190873 24:0.46963564 25:0.96551722 26:0.52222221 27:0.74915352 28:0.83748353 29:0.068165041 30:0.24332751 31:0.15384615 32:0.36094672 33:0.084237036 34:0.28947368 35:0.23523164 38:0.3 39:0.41666667 40:0.125 44:0.5 45:0.55555556 47:0.28571429 48:0.25 52:0.28571429 55:0.125 57:0.28571429 
-4 0:0.19292526 1:0.19952316 2:0.54811081 3:0.15144045 4:0.020476868 5:0.10533026 6:0.34187883 7:0.30236137 8:0.35840316 9:0.32222894 10:0.21742403 11:0.3583743 12:0.44108686 13:0.37500748 14:0.43785554 15:0.55986259 16:0.25305078 17:0.44810127 18:0.29328942 19:0.69999999 20:0.066666656 22:0.12957747 23:0.24066391 24:0.29554657 25:0.31034482 26:0.48888888 27:0.33371933 28:0.38115447 29:0.025802327 30:0.15419202 31:0.47633136 32:0.63017751 33:0.29754763 34:0.21052632 35:0.12616223 36:0.2 38:0.05 40:0.0625 42:0.16666667 43:0.083333333 44:0.25 45:0.22222222 46:0.16666667 48:0.25 49:0.125 51:0.16666667 55:0.375 56:0.16666667 
-1.477909095724364 0:0.58554379 1:0.45387472 2:0.54811081 3:0.15144045 4:0.45168916 5:0.58623219 6:0.50626455 7:0.36694428 8:0.52902532 9:0.28386466 10:0.43799167 11:0.62976695 12:0.16235314 13:0.56979277 14:0.0040354002 15:0.58713566 16:0.2294455 17:0.15949367 18:0.15488185 19:0.69999999 20:0.066666656 21:0.30158731 22:0.51267606 23:0.19502075 24:0.15384617 25:0.25287357 26:0.13333331 27:0.25074608 28:0.5366255 29:0.15502889 30:0.61560661 31:0.03254438 32:0.47041419 33:0.31943445 34:0.5 35:0.58109571 36:0.73333333 37:0.5 38:0.4 39:0.25 40:0.125 42:0.33333333 43:0.41666667 47:0.14285714 48:0.75 49:0.25 52:0.14285714 53:0.33333333 55:0.125 56:0.16666667 58:1 59:0.4 
-0.2386024960464928 0:0.46590101 1:0.49336136 2:0.54811081 3:0.23010938 4:0.020476868 5:0.062410816 6:0.40696232 7:0.43378439 8:0.42996634 9:0.62778509 10:0.37652245 11:0.44977852 12:0.086198588 13:0.45855405 14:0.0063390947 15:0.22039699 16:0.15096958 17:0.68227849 18:0.64553314 19:0.69999999 22:0.11830986 23:0.67219917 24:0.36437248 25:0.93103444 26:0.42222222 27:0.26303468 28:0.54538856 29:0.12011397 30:0.47770941 31:0.12721894 32:0.2189349 33:0.13985446 34:0.26315789 35:0.26054024 36:0.13333333 38:0.25 39:0.33333333 40:0.125 42:0.16666667 43:0.083333333 44:0.5 45:0.22222222 49:0.125 52:0.14285714 54:0.33333333 56:0.5 57:0.28571429 
0.4577714971311072 0:0.26015916 1:0.2750413 2:0.54811081 3:0.15144045 6:0.38478089 7:0.28601908 8:0.35840316 9:0.48813418 10:0.37171156 11:0.4434442 12:0.2886878 13:0.31837315 14:0.32114762 15:0.52208196 16:0.21793626 17:0.61012659 18:0.54662824 19:0.69999999 20:0.066666656 23:0.60165975 24:0.34412956 25:0.35632184 26:0.47777777 27:0.41782852 28:0.59537875 29:0.1708437 30:0.27080202 31:0.48520709 32:0.65088756 33:0.22753292 34:0.23684211 35:0.1512504 36:0.066666667 38:0.15 40:0.0625 45:0.44444444 48:0.25 49:0.125 52:0.14285714 53:0.16666667 55:0.375 57:0.28571429 59:0.2 
-4 0:0.21415231 1:0.21665057 2:0.54811081 3:0.15144045 4:0.29208927 5:0.065100784 6:0.2300648 7:0.29132549 8:0.35840316 9:0.43873859 10:0.26049833 11:0.30288684 12:0.17568722 13:0.40872174 14:0.32604169 15:0.62643113 16:0.57615486 17:0.43924051 18:0.31354467 19:0.69999999 20:0.066666656 21:0.35714287 23:0.19502075 24:0.29959515 25:0.3908046 26:0.22222222 27:0.26683174 28:0.29496367 29:0.041587092 30:0.32668923 31:0.23076923 32:0.47928994 33:0.3219015 34:0.26315789 35:0.16924495 36:0.26666667 37:0.2 38:0.1 40:0.0625 42:0.16666667 43:0.25 44:0.25 45:0.44444444 46:0.33333333 47:0.14285714 48:0.25 49:0.125 55:0.125 
4 0:0.21700007 1:0.22976538 2:0.54811081 3:0.23010938 4:0.048042203 6:0.33328527 7:0.27334302 8:0.36443489 9:0.32222894 10:0.26282034 11:0.27783895 12:0.22843045 13:0.37783737 14:0.25653672 15:0.39560352 16:0.1544345 17:0.61265824 18:0.55018526 19:0.69999999 23:0.6846473 24:0.51012147 25:0.77011492 26:0.11111111 27:0.48723282 28:0.64172263 29:0.42875384 30:0.40351815 31:0.12426035 32:0.36390531 33:0.093868535 34:0.21052632 35:0.12101234 36:0.066666667 37:0.1 38:0.2 39:0.16666667 40:0.125 43:0.083333333 44:0.25 45:0.44444444 46:0.16666667 54:0.33333333 55:0.125 57:0.28571429 59:0.2 
-4 0:0.97571178 1:0.63193293 2:0.54811081 3:0.23010938 4:0.13598317 5:0.63493531 6:0.80857275 7:0.49928438 8:1 9:0.65440066 10:0.40420622 11:0.78295888 12:0.048435881 13:0.44213094 14:0.011156072 15:0.48929779 16:0.28972686 17:0.5493671 18:0.50512969 19:0.69999999 22:0.64507044 23:0.63485479 24:0.4089069 25:1 26:0.11111111 27:0.17110232 28:0.77464103 29:0.016330068 30:0.65740575 31:0.097633136 32:0.57692307 33:0.43522542 34:0.63157895 35:0.67844261 36:0.73333333 37:0.4 38:0.5 39:0.41666667 40:0.125 42:0.66666667 43:0.33333333 44:0.25 45:0.33333333 47:0.71428571 49:0.5 51:0.16666667 52:0.28571429 53:0.16666667 54:0.66666667 55:0.125 
-2.296365272983871 0:0.47823656 1:0.46724981 2:0.54811081 3:0.15144045 4:0.18545924 5:0.20020491 6:0.3579413 7:0.55554441 8:0.50944507 9:0.34723442 10:0.40177757 11:0.48270387 12:0.19915761 13:0.54031508 14:0.022658418 15:0.30094991 16:0.28517398 17:0.46835444 18:0.37540827 19:0.69999999 20:0.066666656 22:0.18028169 23:0.34024897 24:0.36842107 25:0.68965517 26:0.22222222 27:0.25762785 28:0.64670287 29:0.21941303 30:0.543394 31:0.082840234 32:0.47041419 33:0.33646 34:0.31578947 35:0.36287672 36:0.33333333 37:0.2 38:0.35 39:0.25 40:0.125 42:0.33333333 43:0.083333333 44:0.5 46:0.16666667 47:0.28571429 48:0.25 51:0.33333333 52:0.14285714 55:0.125 58:1 
0.4079673483999662 0:0.51907484 1:0.47142369 2:0.54811081 3:0.15144045 4:0.5462872 5:0.17045972 6:0.58108758 7:0.50419711 8:0.8340381 9:0.59183061 10:0.50300596 11:0.56749899 12:0.15860883 13:0.33834066 14:0.0071171753 15:0.29998738 16:0.33916692 17:0.58101267 18:0.51619597 19:0.69999999 20:0.066666656 21:0.44444446 22:0.18028169 23:0.53112035 24:0.36437248 25:0.91954022 26:0.17777777 27:0.3014978 28:0.70956853 29:0.027043682 30:0.58716922 31:8.8172519e-10 32:0.15088756 33:0.29331677 34:0.36842105 35:0.34626483 36:0.33333333 37:0.2 38:0.3 39:0.16666667 40:0.1875 43:0.33333333 45:0.22222222 47:0.28571429 48:0.5 49:0.25 50:0.33333333 52:0.14285714 55:0.25 56:0.16666667 
3.2913899981201 0:0.56452735 1:0.57518586 2:0.54811081 3:0.15144045 4:0.18919608 5:0.13674297 6:0.84267722 7:0.39682058 8:0.8340381 9:0.5628965 10:0.39583365 11:0.65199079 12:0.58445741 13:0.54791488 14:0.067219875 15:0.49842236 16:0.27428547 17:0.69620254 18:0.65794203 19:0.69999999 20:0.066666656 21:0.28571429 22:0.10704226 23:0.8547718 24:0.29959515 25:0.91954022 26:0.22222222 27:0.40428158 28:0.68251978 29:0.4651794 30:0.52393889 31:0.068047339 32:0.40828401 33:0.19514125 34:0.28947368 35:0.27925617 36:0.2 37:0.1 38:0.35 39:0.41666667 40:0.25 42:0.16666667 44:0.25 45:0.22222222 47:0.14285714 48:0.25 49:0.375 51:0.16666667 52:0.28571429 54:0.33333333 
-1.607601795178758 0:0.59653563 1:0.85834048 2:0.54811081 3:0.15144045 4:0.16375152 5:0.23569367 6:0.7377559 7:0.83228335 8:0.8340381 9:0.75039749 10:0.55654254 11:0.75996537 12:0.65572326 13:0.50524584 14:0.3816295 15:0.364586 16:0.42198981 17:0.821519 18:0.96463191 19:0.69999999 20:0.066666656 21:0.33333333 22:0.23380282 23:0.59336101 24:0.85829961 25:0.93103444 26:0.74444444 27:0.5997163 28:0.88382741 29:0.59817089 30:0.49937001 31:0.38461539 32:0.38461538 33:0.4544577 34:0.13157895 35:0.18942369 36:0.066666667 38:0.25 39:0.33333333 40:0.0625 43:0.083333333 47:0.14285714 48:0.25 49:0.375 52:0.14285714 56:0.16666667 57:0.28571429 
-0.3910914088711471 0:0.48768046 1:0.56978785 2:0.54811081 3:0.23010938 5:0.036431204 6:0.48129504 7:0.67350259 8:0.54023477 9:0.53789102 10:0.56649776 11:0.66392804 12:0.17175229 13:0.38467118 14:0.28602346 15:0.55470257 16:0.2814106 17:0.66708862 18:0.6351585 19:0.69999999 23:0.61410788 24:0.45748989 25:0.93103444 26:0.22222222 27:0.64301204 28:0.74621207 29:0.32324004 30:0.40588707 31:0.071005909 32:0.31656803 33:0.224045 34:0.21052632 35:0.21172651 36:0.2 37:0.1 38:0.25 39:0.33333333 40:0.0625 43:0.16666667 45:0.22222222 49:0.25 51:0.16666667 54:0.33333333 56:0.16666667 57:0.42857143 59:0.2 
2.771705514737196 0:0.13364269 1:0.12505376 2:0.54811081 3:0.15144045 6:0.22682363 7:0.33119705 8:0.16641658 9:0.34723442 10:0.15677302 11:0.30697627 12:0.37418061 13:0.34195022 14:0.63166735 15:0.72222895 16:0.50528025 17:0.56962026 18:0.48299712 19:0.69999999 20:0.066666656 23:0.56016598 24:0.55465588 25:0.43678161 26:0.46666666 27:0.48735522 28:0.54705204 29:0.15263981 30:0.28190644 31:0.44378698 32:0.57692307 33:0.44151811 34:0.21052632 35:0.16537753 36:0.066666667 38:0.1 40:0.0625 45:0.22222222 46:0.33333333 47:0.28571429 48:0.25 51:0.16666667 52:0.14285714 55:0.25 56:0.16666667 57:0.14285714 
2.393389320624611 0:0.97518671 1:0.58783084 2:0.54811081 3:0.23010938 4:0.16375152 5:0.69175986 6:0.66820077 7:0.49082737 8:1 9:0.34620185 10:0.26364309 11:0.70154364 12:0.066513513 13:0.70470524 14:0.061364 15:0.54001615 16:0.55204596 17:0.72278482 18:0.62425989 19:0.69999999 21:0.33333333 22:0.71549297 23:0.66804981 24:0.58704455 25:0.91954022 26:0.22222222 27:0.15462126 28:0.82978917 29:0.06371316 30:0.69213557 31:0.017751482 32:0.48224851 33:0.45805249 34:0.71052632 35:0.77420647 36:0.53333333 37:0.3 38:0.7 39:0.58333333 40:0.25 41:0.25 42:0.66666667 43:0.33333333 45:0.22222222 46:0.5 47:0.57142857 49:0.75 52:0.14285714 54:0.33333333 55:0.25 57:0.14285714 
3.120431194847727 0:0.66214069 1:0.70905916 2:0.54811081 3:0.15144045 5:0.062410816 6:0.73363278 7:0.61033628 8:0.72132203 9:0.48813418 10:0.62450463 11:0.59938067 12:0.048809956 13:0.13434712 14:0.20458618 15:0.72144985 16:0.4321668 17:0.74556963 18:0.73198847 19:0.69999999 20:0.066666656 22:0.11830986 23:0.73443984 24:0.70445345 25:0.88505744 26:0.43333333 27:0.64604655 28:0.61747041 29:0.068987737 30:0.16501644 31:0.038461534 32:0.33431952 33:0.33162632 34:0.26315789 35:0.32412231 36:0.13333333 38:0.3 39:0.25 40:0.0625 43:0.083333333 44:0.5 48:0.25 49:0.5 51:0.16666667 52:0.28571429 55:0.25 56:0.16666667 57:0.14285714 
1.708016270606252 0:0.72561549 1:0.55240943 2:0.54811081 3:0.15144045 4:0.40364695 5:0.21924976 6:0.7636857 7:0.46243918 8:1 9:0.73435196 10:0.45044809 11:0.69118373 12:0.036734899 13:0.39490811 14:0.013856797 15:0.23832831 16:0.15893812 17:0.66455697 18:0.59642652 19:0.69999999 20:0.066666656 21:0.30158731 22:0.22535211 23:0.82157678 24:0.37651823 25:0.91954022 26:0.22222222 27:0.38464364 28:0.82549905 29:0.065512208 30:0.47134264 31:0.020710054 32:0.42307691 33:0.20539622 34:0.5 35:0.50438843 36:0.33333333 37:0.2 38:0.35 39:0.33333333 40:0.125 42:0.5 43:0.083333333 45:0.33333333 47:0.14285714 48:0.25 49:0.5 53:0.16666667 55:0.25 56:0.83333333 57:0.28571429 
-3.747723969688126 0:0.56745869 1:0.51396876 2:0.54811081 3:0.15144045 4:0.048042203 5:0.16377587 6:0.64276901 7:0.50995496 8:0.8340381 9:0.34620185 10:0.38612178 11:0.560738 12:0.082436549 13:0.2848204 14:0.18000699 15:0.73984035 16:0.33066761 17:0.72151899 18:0.66974063 19:0.69999999 20:0.066666656 22:0.10704226 23:0.80912863 24:0.46558705 25:0.93103444 26:0.17777777 27:0.38995006 28:0.65352429 29:0.074319434 30:0.3381393 31:0.023668636 32:0.39053254 33:0.14020277 34:0.36842105 35:0.39700225 36:0.2 37:0.2 38:0.35 39:0.41666667 40:0.125 42:0.33333333 43:0.083333333 45:0.11111111 46:0.16666667 47:0.14285714 48:0.25 49:0.375 52:0.28571429 55:0.375 57:0.42857143 
2.53380104369596 0:0.81485943 1:0.50238865 2:0.54811081 3:0.23010938 4:0.048042203 5:0.51380993 6:0.65694217 7:0.34276729 8:0.8340381 9:0.51369793 10:0.34534301 11:0.62215318 12:0.23288925 13:0.51730982 14:0.0010863245 15:0.35932386 16:0.22623222 17:0.5721519 18:0.52449568 19:0.69999999 22:0.42253522 23:0.53112034 24:0.30364374 25:0.96551722 26:0.11111111 27:0.18590763 28:0.81452404 29:0.092520431 30:0.67988839 31:0.0029585877 32:0.31065088 33:0.37620777 34:0.71052632 35:0.78378487 36:0.66666667 37:0.4 38:0.65 39:0.5 40:0.4375 42:0.33333333 43:0.33333333 46:0.16666667 47:0.28571429 49:0.375 51:0.16666667 52:0.28571429 53:0.5 54:0.33333333 55:0.25 56:0.33333333 57:0.42857143 
-1.898700046802936 0:0.62464238 1:0.46862932 2:0.54811081 3:0.15144045 4:0.21632282 5:0.19221686 6:0.40156424 7:0.46931005 8:0.57058725 9:0.66065863 10:0.46359111 11:0.40269177 12:0.050994015 13:0.19830097 14:0.032093836 15:0.39092233 16:0.20806857 17:0.6721519 18:0.6011084 19:0.69999999 20:0.066666656 21:0.22222223 22:0.22535211 23:0.63485477 24:0.39271256 25:0.77011492 26:0.22222222 27:0.11598555 28:0.65326417 29:0.091053086 30:0.50673238 31:0.038461535 32:0.49408283 33:0.39619177 34:0.52631579 35:0.58374078 36:0.33333333 37:0.1 38:0.5 39:0.33333333 40:0.0625 42:0.16666667 43:0.083333333 44:0.75 45:0.22222222 47:0.14285714 48:0.25 49:0.125 50:0.66666667 51:0.5 52:0.42857143 55:0.375 57:0.42857143 58:0.33333333 
-0.6994289903696415 0:0.39800027 1:0.43665061 2:0.54811081 3:0.15144045 4:0.09459804 5:0.20428097 6:0.39539294 7:0.43844639 8:0.36443489 9:0.65563026 10:0.3601547 11:0.38187633 12:0.28395685 13:0.2782013 14:0.016871422 15:0.25629817 16:0.11807461 17:0.70000001 18:0.67757925 19:0.69999999 20:0.066666656 21:0.14285715 22:0.25633803 23:0.65560165 24:0.52226722 25:0.93103444 26:0.56666667 27:0.41953248 28:0.66130104 29:0.34006195 30:0.5094538 31:0.068047347 32:0.46449704 33:0.45485895 34:0.23684211 35:0.21675617 36:0.2 38:0.25 39:0.25 40:0.125 42:0.16666667 43:0.083333333 44:0.25 45:0.22222222 47:0.14285714 48:0.25 53:0.16666667 55:0.125 56:0.16666667 57:0.42857143 
-1.66903474084005 0:0.73397628 1:0.61398222 2:0.54811081 3:0.15144045 4:0.40364695 5:0.34796086 6:0.61736838 7:0.51787351 8:0.8340381 9:0.66843079 10:0.57665375 11:0.59635953 12:0.018361247 13:0.32753116 14:0.02851215 15:0.41042292 16:0.23651025 17:0.75189874 18:0.68923239 19:0.69999999 20:0.066666656 21:0.30158731 22:0.36338029 23:0.73858922 24:0.37651823 25:0.91954022 26:0.22222222 27:0.62187097 28:0.82936427 29:0.07785543 30:0.31604428 31:0.065088755 32:0.53254437 33:0.34482002 34:0.42105263 35:0.44321097 36:0.26666667 37:0.1 38:0.5 39:0.5 40:0.25 42:0.33333333 43:0.083333333 44:0.5 45:0.22222222 47:0.28571429 48:0.25 49:0.25 51:0.16666667 52:0.14285714 55:0.125 56:0.16666667 57:0.14285714 58:0.33333333 
4 0:0.34767161 1:0.3125706 2:0.54811081 3:0.15144045 4:0.048042203 5:0.1902835 6:0.34768004 7:0.23106547 8:0.37769231 9:0.28386466 10:0.29210584 11:0.38724779 12:0.11527966 13:0.43050631 14:0.054691049 15:0.58701793 16:0.25560361 17:0.4443038 18:0.37562783 19:0.69999999 20:0.066666656 22:0.17746479 23:0.45228216 24:0.14979758 25:0.40229883 26:0.13333331 27:0.18287313 28:0.51639818 29:0.12827745 30:0.3202951 31:0.0059171612 32:0.49999999 33:0.26902019 34:0.39473684 35:0.34037352 36:0.4 37:0.4 38:0.35 39:0.25 40:0.25 42:0.16666667 43:0.25 45:0.33333333 46:0.16666667 47:0.14285714 48:0.5 49:0.125 53:0.16666667 55:0.125 57:0.14285714 59:0.4 
1.637079832688019 0:0.57847772 1:0.77283816 2:0.54811081 3:0.15144045 4:0.09459804 5:0.22476725 6:0.62871146 7:0.88700988 8:0.8340381 9:0.65563026 10:0.61823364 11:0.65972061 12:0.42656024 13:0.32604771 14:0.29232171 15:0.32309339 16:0.18805984 17:0.78734178 18:0.86801153 19:0.69999999 20:0.066666656 21:0.14285715 22:0.22535211 23:0.68879668 24:0.86639677 25:0.91954022 26:0.22222222 27:0.58412021 28:0.81563903 29:0.39593993 30:0.45557994 31:0.18343195 32:0.24556212 33:0.32397636 34:0.15789474 35:0.18942369 36:0.13333333 37:0.1 38:0.35 39:0.58333333 40:0.1875 43:0.16666667 47:0.14285714 48:0.25 49:0.25 57:0.28571429 59:0.2 
1.160066441238429 0:0.60357706 1:0.42288142 2:0.36827847 3:0.15144045 4:0.58372461 5:0.24444007 6:0.38060939 7:0.48770758 8:0.52902532 9:0.5628965 10:0.27846734 11:0.58662403 12:0.11847422 13:0.47392615 14:0.0088329449 15:0.51007738 16:0.17855388 17:0.44050633 18:0.42146477 19:0.77777778 20:0.066666656 21:0.8888889 22:0.21971831 23:0.41078839 24:0.2874494 25:0.66666664 26:0.17777777 27:0.043374164 28:0.75062577 29:0.13758539 30:0.79412246 31:1.7634507e-09 32:0.44378697 33:0.48249463 34:0.60526316 35:0.70583521 36:0.73333333 37:0.4 38:0.65 39:0.58333333 40:0.1875 41:0.25 42:0.33333333 43:0.25 44:0.5 48:0.5 49:0.125 50:0.33333333 51:0.33333333 52:0.14285714 53:0.33333333 54:0.33333333 55:0.125 57:0.57142857 58:0.33333333 59:0.4 
-4 0:0.59858391 1:0.80230458 2:0.36827847 3:0.23010938 4:0.40364695 5:0.2077736 6:0.60644739 7:0.84715831 8:0.72132203 9:0.85086161 10:0.75354949 11:0.62394937 12:0.18901715 13:0.17274364 14:0.1279361 15:0.20292395 16:0.35794472 17:0.80000001 18:0.89106628 19:0.77777778 21:0.30158731 22:0.20845071 23:0.56846474 24:0.67206479 25:0.88505744 26:0.53333333 27:0.64987183 28:0.85463104 29:0.21717025 30:0.39719394 31:0.1597633 32:0.21893489 33:0.34694349 34:0.15789474 35:0.19501443 36:0.13333333 38:0.3 39:0.41666667 40:0.0625 41:0.25 42:0.33333333 44:0.25 49:0.375 54:0.33333333 56:0.16666667 57:0.28571429 
-0.4115241483344523 0:0.38222951 1:0.35109232 2:0.4681299 3:0.23010938 4:0.020476868 5:0.061838506 6:0.54281818 7:0.25120572 8:0.8340381 9:0.44989828 10:0.31988377 11:0.49528527 12:0.27560675 13:0.4599417 14:0.021542848 15:0.11769676 16:0.14779512 17:0.55569621 18:0.48853026 19:0.11111111 22:0.050704225 23:0.7427386 24:0.41295548 25:0.91954022 26:0.22222222 27:0.3376168 28:0.80790348 29:0.10673242 30:0.65019292 31:0.017751482 32:0.14201181 33:0.13138836 34:0.36842105 35:0.35273726 36:0.26666667 37:0.1 38:0.35 39:0.41666667 40:0.0625 41:0.25 42:0.16666667 43:0.16666667 45:0.33333333 46:0.16666667 47:0.14285714 49:0.125 50:1 52:0.14285714 54:0.66666667 56:0.16666667 57:0.14285714 58:0.33333333 
3.477796254813007 0:0.41439369 1:0.60886221 2:0.4681299 3:0.15144045 4:0.40364695 5:0.073283406 6:0.49715097 7:0.69339664 8:0.72132203 9:0.86734248 10:0.66383326 11:0.57217483 12:0.66405222 13:0.51213566 14:0.022765164 15:0.021492996 16:0.33113393 17:0.67974685 18:0.69602305 19:0.11111111 20:0.066666656 21:0.30158731 22:0.07887324 23:0.5560166 24:0.67206479 25:0.93103444 26:0.46666667 27:0.68448768 28:0.66462289 29:0.5634838 30:0.46936409 31:0.11834319 32:0.11834318 33:0.42688462 34:0.10526316 35:0.11866784 36:0.13333333 38:0.2 39:0.25 42:0.16666667 44:0.5 45:0.11111111 48:0.25 49:0.125 53:0.16666667 57:0.28571429 59:0.2 
2.119477649805209 0:0.35267276 1:0.34457065 2:0.4681299 3:0.23010938 5:0.34559272 6:0.43220685 7:0.38986389 8:0.36443489 9:0.43873859 10:0.44838307 11:0.40326069 12:0.0094099803 13:0.21704472 14:0.034050626 15:0.51590976 16:0.16784957 17:0.48101266 18:0.3907781 19:0.11111111 22:0.56056338 23:0.41908714 24:0.32388665 25:0.77011492 26:0.25555555 27:0.42409212 28:0.56169141 29:0.10184799 30:0.45043955 31:0.035502964 32:0.38757395 33:0.6177514 34:0.31578947 35:0.31660789 36:0.4 38:0.2 39:0.083333333 40:0.0625 42:0.66666667 43:0.083333333 44:0.25 45:0.11111111 46:0.16666667 47:0.14285714 52:0.14285714 53:0.16666667 54:0.33333333 55:0.125 56:0.16666667 57:0.42857143 
0.633103114841483 0:0.53072084 1:0.62385418 2:0.4681299 3:0.23010938 4:0.21632282 5:0.19157015 6:0.42384927 7:0.58941257 8:0.8340381 9:0.34723442 10:0.53230993 11:0.46573632 12:0.18720879 13:0.43240076 14:0.14067058 15:0.40604976 16:0.51358335 17:0.53924052 18:0.4355702 19:0.11111111 21:0.22222223 22:0.12676057 23:0.19917013 24:0.44939273 25:0.91954022 26:0.22222222 27:0.343714 28:0.48033921 29:0.14573935 30:0.34184777 31:0.17455621 32:0.41124259 33:0.41647207 34:0.21052632 35:0.2353118 36:0.26666667 37:0.1 38:0.2 39:0.25 42:0.33333333 43:0.083333333 44:0.25 45:0.11111111 46:0.16666667 47:0.14285714 49:0.375 51:0.16666667 52:0.14285714 54:0.33333333 58:0.33333333 
0.3262284826935206 0:0.59520157 1:0.74754304 2:0.4681299 3:0.15144045 4:0.29208927 5:0.098950709 6:0.84267722 7:0.60779631 8:1 9:0.68566411 10:0.70459455 11:0.71932932 12:0.087467285 13:0.31795116 14:0.23987104 15:0.40656179 16:0.27616243 17:0.72784812 18:0.7436932 19:0.11111111 20:0.066666656 21:0.35714287 22:0.12676057 23:0.8547718 24:0.56275305 25:0.91954022 26:0.43333333 27:0.65584042 28:0.87111164 29:0.20233836 30:0.49896467 31:0.40828403 32:0.43786981 33:0.50504808 34:0.18421053 35:0.2331276 36:0.2 38:0.25 39:0.33333333 40:0.0625 42:0.16666667 44:0.25 47:0.42857143 48:0.25 49:0.25 51:0.33333333 52:0.14285714 56:0.16666667 
-0.05852283516053262 0:0.4327433 1:0.4084378 2:0.4681299 3:0.15144045 4:0.16375152 5:0.59341134 6:0.50683934 7:0.32970228 8:0.47097468 9:0.46416128 10:0.42009661 11:0.38839593 12:0.14051966 13:0.35909149 14:0.014418603 15:0.16101225 16:0.16473821 17:0.42025317 18:0.32937964 19:0.11111111 20:0.066666656 21:0.33333333 22:0.72676056 23:0.31950208 24:0.15789475 25:0.77011492 26:0.22222222 27:0.32263888 28:0.38358533 29:0.22729927 30:0.39641855 31:0.011834318 32:0.39349111 33:0.65188162 34:0.34210526 35:0.35351875 36:0.6 37:0.2 38:0.2 39:0.083333333 42:0.33333333 43:0.33333333 44:0.5 45:0.22222222 48:0.5 49:0.125 51:0.16666667 53:0.16666667 56:0.16666667 57:0.42857143 
-4 0:0.46640626 1:0.60859298 2:0.4681299 3:0.15144045 5:0.27348593 6:0.52750887 7:0.69226543 8:0.66807619 9:0.48813418 10:0.4406386 11:0.65542568 12:0.82805893 13:0.65897889 14:0.0024475244 15:0.075204664 16:0.38643409 17:0.62911394 18:0.57982709 19:0.11111111 20:0.066666656 22:0.21408451 23:0.39834026 24:0.68421054 25:1 26:0.43333333 27:0.45313475 28:0.72766628 29:0.69369558 30:0.62807656 31:0.10946745 32:0.32840235 33:0.42009795 34:0.15789474 35:0.14626082 36:0.2 38:0.15 39:0.16666667 40:0.0625 42:0.16666667 43:0.083333333 45:0.11111111 47:0.28571429 48:0.25 49:0.25 51:0.16666667 52:0.14285714 55:0.125 
4 0:0.51661009 1:0.60612858 2:0.4681299 3:0.23010938 4:0.048042203 5:0.33631372 6:0.64483451 7:0.19966855 8:0.8340381 9:0.32222894 10:0.51556007 11:0.58259653 12:0.33982714 13:0.43220001 14:0.16906234 15:0.49269305 16:0.44211067 17:0.60632913 18:0.54030466 19:0.11111111 22:0.21408451 23:0.62655603 24:0.25506074 25:0.96551722 26:0.11111111 27:0.48311256 28:0.49771077 29:0.055464845 30:0.28821098 31:0.11538462 32:0.3964497 33:0.28129033 34:0.21052632 35:0.20781901 36:0.2 37:0.1 38:0.2 39:0.25 42:0.16666667 43:0.16666667 45:0.22222222 46:0.16666667 47:0.14285714 49:0.375 54:0.33333333 55:0.125 57:0.14285714 58:0.33333333 
4 0:0.65431713 1:0.70045985 2:0.4681299 3:0.23010938 4:0.039898759 5:0.13674297 6:0.633456 7:0.58594626 8:1 9:0.65440066 10:0.37586147 11:0.85233228 12:0.58955727 13:0.67416405 14:0.040055588 15:0.28452769 16:0.41630256 17:0.71645571 18:0.69221903 19:0.11111111 22:0.10704226 23:0.61825728 24:0.57085022 25:0.91954022 26:0.11111111 27:0.34738866 28:0.86068509 29:0.4427895 30:0.5574738 31:0.0443787 32:0.20414199 33:0.24263742 34:0.26315789 35:0.24967939 36:0.13333333 37:0.1 38:0.2 39:0.16666667 42:0.33333333 45:0.22222222 47:0.28571429 49:0.5 54:0.33333333 55:0.375 56:0.33333333 
-3.082392354712853 0:0.77089752 1:0.55208751 2:0.4681299 3:0.15144045 4:0.087063176 5:0.27348593 6:0.57291892 7:0.53226714 8:0.67540697 9:0.64530456 10:0.47762253 11:0.70027432 12:0.054920909 13:0.49069169 14:0.014315144 15:0.51131766 16:0.35652166 17:0.57215191 18:0.51834775 19:0.11111111 20:0.066666656 22:0.21408451 23:0.48962656 24:0.34008098 25:0.88505744 26:0.42222222 27:0.49221607 28:0.83499341 29:0.077382801 30:0.52932286 31:0.0029585806 32:0.55029585 33:0.40606889 34:0.55263158 35:0.61786631 36:0.53333333 38:0.55 39:0.5 40:0.125 41:0.5 42:0.16666667 43:0.083333333 44:0.25 45:0.22222222 48:0.25 49:0.625 51:0.5 52:0.14285714 53:0.5 56:0.33333333 57:0.14285714 58:0.33333333 59:0.2 
4 0:0.65942209 1:0.61825261 2:0.4681299 3:0.15144045 4:0.40364695 5:0.23161762 6:0.55622401 7:0.57286723 8:1 9:0.66738523 10:0.45074519 11:0.63246317 12:0.076017768 13:0.36035331 14:0.0082544734 15:0.50773007 16:0.35299644 17:0.67341773 18:0.62059761 19:0.11111111 20:0.066666656 21:0.30158731 22:0.15774648 23:0.56846474 24:0.45344131 25:0.83908045 26:0.22222222 27:0.33246096 28:0.67530955 29:0.12517991 30:0.56048619 31:0.020710057 32:0.20710058 33:0.20986202 34:0.34210526 35:0.31668804 36:0.26666667 37:0.1 38:0.4 39:0.5 40:0.1875 41:0.25 42:0.33333333 43:0.083333333 44:0.25 45:0.22222222 48:0.25 49:0.5 51:0.16666667 55:0.25 58:0.33333333 
0.8316733608775989 0:0.5902899 1:0.47001864 2:0.4681299 3:0.15144045 5:0.46965336 6:0.3857192 7:0.48843202 8:0.36443489 9:0.46416128 10:0.49299076 11:0.46985171 12:0.092366661 13:0.31508681 14:0.0051390876 15:0.27280617 16:0.080830104 17:0.53924051 18:0.48414985 19:0.11111111 20:0.066666656 22:0.73802817 23:0.53112033 24:0.38056681 25:0.77011492 26:0.22222222 27:0.30961593 28:0.68911717 29:0.27703319 30:0.47343184 31:0.11538461 32:0.66568047 33:0.57075199 34:0.47368421 35:0.55925377 36:0.53333333 37:0.2 38:0.45 39:0.41666667 40:0.0625 42:0.66666667 43:0.16666667 44:0.5 45:0.11111111 47:0.14285714 48:0.25 51:0.16666667 52:0.28571429 53:0.16666667 56:0.16666667 57:0.71428571 59:0.4 
4 0:0.5990243 1:0.63968447 2:0.4681299 3:0.23010938 4:0.44354571 5:0.17223411 6:0.63980108 7:0.36745053 8:1 9:0.5628965 10:0.51280207 11:0.72131956 12:0.36965185 13:0.55392449 14:0.031953672 15:0.29415299 16:0.26186482 17:0.5329114 18:0.44149856 19:0.11111111 21:0.30158731 22:0.20563381 23:0.55186723 24:0.085020254 25:0.83908045 26:0.11111111 27:0.18590763 28:0.74872533 29:0.59115872 30:0.68724048 31:0.28994083 32:0.62721893 33:0.37575007 34:0.26315789 35:0.31338169 36:0.4 37:0.2 38:0.25 39:0.33333333 40:0.0625 42:0.16666667 43:0.16666667 44:0.5 47:0.14285714 49:0.375 51:0.33333333 52:0.28571429 54:0.66666667 
-1.390957608205747 0:0.56234873 1:0.54942963 2:0.4681299 3:0.15144045 4:0.21632282 5:0.28735978 6:0.57291892 7:0.50346599 8:0.64311287 9:0.66946337 10:0.4136869 11:0.74034927 12:0.14580721 13:0.71419767 14:0.041936334 15:0.31376387 16:0.39516243 17:0.57341773 18:0.50297791 19:0.11111111 20:0.066666656 21:0.22222223 22:0.21408451 23:0.36099586 24:0.54655872 25:0.88505744 26:0.22222222 27:0.3375666 28:0.79122203 29:0.019491232 30:0.61795431 31:0.020710065 32:0.2633136 33:0.37169613 34:0.31578947 35:0.35225634 36:0.26666667 37:0.1 38:0.2 39:0.083333333 42:0.5 44:0.5 45:0.11111111 48:0.25 49:0.375 51:0.16666667 52:0.28571429 55:0.125 56:0.5 57:0.14285714 
4 0:0.5556358 1:0.62146752 2:0.48003719 3:0.57794334 5:0.16304442 6:0.51060868 7:0.58889825 8:0.47715096 9:0.77716827 10:0.44521042 11:0.63494342 12:0.46468935 13:0.55880732 14:0.062051153 15:0.20725102 16:0.20809554 17:0.68227849 18:0.65175793 19:0.11111111 20:0.71111111 22:0.22816902 23:0.63900416 24:0.26315791 25:0.96551722 26:0.22222222 27:0.29984404 28:0.8491667 29:0.63970824 30:0.69366493 31:0.062130184 32:0.22781063 33:0.36788285 34:0.23684211 35:0.24224511 36:0.26666667 37:0.2 38:0.3 39:0.25 40:0.125 42:0.33333333 43:0.083333333 47:0.28571429 49:0.125 50:0.66666667 51:0.33333333 55:0.125 56:0.16666667 57:0.14285714 
-4 0:0.63531988 1:0.41473341 2:0.48003719 3:0.15144045 5:0.064093716 6:0.64436302 7:0.36863819 8:1 9:0.34620185 10:0.21517705 11:0.56978772 12:0.10566659 13:0.67402197 14:0.0093312498 15:0.45707332 16:0.30128723 17:0.64810128 18:0.57550433 19:0.11111111 20:0.066666656 22:0.24225352 23:0.61825728 24:0.57894738 25:0.91954022 26:0.47777777 27:0.38947627 28:0.60922758 29:0.16286268 30:0.42511682 31:0.0059171621 32:0.38461537 33:0.25012071 34:0.68421053 35:0.59057391 36:0.33333333 38:0.45 39:0.25 40:0.0625 41:0.5 42:0.16666667 43:0.16666667 44:0.25 45:0.88888889 46:0.16666667 47:0.14285714 48:0.25 49:0.625 50:0.33333333 53:0.33333333 55:0.375 56:0.5 
-4 0:0.39622863 1:0.40108106 2:0.48003719 3:0.15144045 4:0.10027439 5:0.10533026 6:0.52654244 7:0.35152641 8:0.72132203 9:0.55405535 10:0.34870721 11:0.39484722 12:0.22849382 13:0.30543184 14:0.034472076 15:0.44796405 16:0.19829795 17:0.48987343 18:0.39267673 19:0.11111111 20:0.066666656 22:0.12957747 23:0.59336101 24:0.15789475 25:0.72413792 26:0.17777777 27:0.33616385 28:0.50099142 29:0.14536832 30:0.46428849 31:0.056213015 32:0.44082839 33:0.17857215 34:0.28947368 35:0.25913755 36:0.33333333 37:0.2 38:0.15 39:0.16666667 40:0.0625 42:0.5 43:0.083333333 44:0.5 45:0.22222222 47:0.14285714 48:0.5 49:0.125 55:0.125 56:0.5 
-1.54961506051081 0:0.4275891 1:0.316157 2:0.48003719 3:0.15144045 4:0.29208927 5:0.13099757 6:0.42067349 7:0.06083215 8:0.66807619 9:0.32222894 10:0.20391724 11:0.44583656 12:0.17820062 13:0.56570454 14:0.00061122273 15:0.20411804 16:0.25417008 17:0.59493671 18:0.53785154 19:0.11111111 20:0.066666656 21:0.35714287 22:0.24788733 23:0.66804981 24:0.30769232 25:1 26:0.22222222 27:0.26253888 28:0.81401675 29:0.25205636 30:0.68109897 31:0.0088757347 32:0.31656803 33:0.44252039 34:0.60526316 35:0.62315646 36:0.53333333 37:0.1 38:0.5 39:0.41666667 40:0.125 41:0.5 42:0.5 43:0.083333333 44:0.25 45:0.33333333 46:0.33333333 47:0.57142857 48:0.25 51:0.5 52:0.28571429 53:0.16666667 55:0.125 57:0.42857143 
4 0:0.49881961 1:0.35935333 2:0.48003719 3:0.15144045 4:0.087940962 5:0.41124568 6:0.32956655 7:0.3796862 8:0.28622573 9:0.48916675 10:0.34026446 11:0.44100177 12:0.1602954 13:0.34054524 14:0.0005788086 15:0.17424382 16:0.04457332 17:0.3341772 18:0.34132961 19:0.11111111 20:0.066666656 22:0.64225351 23:0.39419086 24:0.10931175 25:0.93103444 26:0.17777777 27:0.18590763 28:0.83035567 29:0.10619932 30:0.93066899 31:0.041420112 32:0.27514791 33:0.36510245 34:0.60526316 35:0.70868067 36:0.86666667 37:0.7 38:0.4 39:0.33333333 40:0.1875 42:0.16666667 43:0.75 48:0.5 51:0.33333333 52:0.57142857 56:0.16666667 57:1 
4 0:0.3964071 1:0.40126569 2:0.48003719 3:0.4681299 4:0.048042203 5:0.23140861 6:0.48153095 7:0.3843482 8:0.72132203 9:0.48916675 10:0.41161932 11:0.36534079 12:0.15517855 13:0.20737329 14:0.10867936 15:0.40482195 16:0.15739206 17:0.31265823 18:0.1648415 19:0.11111111 20:0.11111111 22:0.13239437 23:0.51867221 24:0.10931175 25:0.72413792 26:0.17777777 27:0.043374164 28:0.44474632 29:0.10553561 30:0.27059427 31:0.16863905 32:0.37573963 33:0.080293574 34:0.28947368 35:0.23939965 36:0.53333333 37:0.5 38:0.1 39:0.083333333 42:0.66666667 43:0.33333333 44:0.5 45:0.22222222 48:0.25 49:0.125 50:0.33333333 52:0.14285714 55:0.125 
-4 0:0.44427674 1:0.61491342 2:0.48003719 3:1 4:0.048042203 5:0.21002637 6:0.37643755 7:0.20758511 8:1 9:0.34723442 10:0.49572289 11:0.56396468 12:0.48142812 13:0.36106663 14:0.08287351 15:0.078959707 16:0.25486108 17:0.61012659 18:0.54461619 19:0.11111111 20:0.92222222 22:0.1859155 23:0.39419088 24:0.23481782 25:0.83908045 26:0.17777777 27:0.48908116 28:0.6238438 29:0.54482018 30:0.45321921 31:0.056213023 32:0.056213005 33:0.15560322 34:0.13157895 35:0.16391471 36:0.13333333 37:0.1 38:0.15 39:0.25 43:0.16666667 44:0.25 46:0.16666667 48:0.25 49:0.375 50:0.33333333 52:0.14285714 56:0.16666667 
-4 0:0.63577087 1:0.44240472 2:0.48003719 3:0.15144045 4:0.16375152 5:0.22905867 6:0.64631614 7:0.24577126 8:0.8340381 9:0.33842968 10:0.40532472 11:0.64313773 12:0.078006785 13:0.53373555 14:0.020931875 15:0.30153438 16:0.24383331 17:0.54430381 18:0.49969195 19:0.11111111 20:0.066666656 21:0.33333333 22:0.20563381 23:0.60995853 24:0.28340082 25:1 26:0.22222222 27:0.33033963 28:0.68292152 29:0.094649403 30:0.59876675 31:0.0029585824 32:0.59763312 33:0.3581008 34:0.60526316 35:0.64443732 36:0.46666667 37:0.2 38:0.4 39:0.25 41:0.25 42:0.33333333 43:0.25 44:0.25 45:0.22222222 46:0.16666667 47:0.57142857 48:0.25 49:0.25 51:0.33333333 52:0.14285714 55:0.5 56:0.5 57:0.14285714 59:0.2 
-4 0:0.40995235 1:0.31101774 2:0.48003719 3:0.23010938 4:0.048042203 5:0.33768491 6:0.58818344 7:0.30236137 8:0.64311287 9:0.44989828 10:0.3452692 11:0.36649339 12:0.048220281 13:0.32327466 14:0.0004536807 15:0.20313056 16:0.11464268 17:0.23797468 18:0.25870729 19:0.11111111 22:0.34647887 23:0.73858922 24:0.28340082 25:0.96551722 26:0.11111111 27:0.085540164 28:0.57928189 29:0.10198505 30:0.37097422 31:0.017751482 32:0.30177513 33:0.16711497 34:0.57894737 35:0.48595303 36:0.73333333 37:0.5 38:0.25 39:0.25 40:0.1875 42:0.5 43:0.58333333 45:0.44444444 46:0.16666667 47:0.14285714 49:0.125 51:0.16666667 52:0.14285714 54:0.33333333 55:0.375 57:0.28571429 
-4 0:0.52245829 1:0.69073946 2:0.48003719 3:0.15144045 4:0.039898759 5:0.37243664 6:0.72249138 7:0.64014729 8:1 9:0.58067092 10:0.54749268 11:0.65253478 12:0.50063352 13:0.47790195 14:0.13730002 15:0.19977662 16:0.39513597 17:0.59746837 18:0.52219021 19:0.11111111 20:0.066666656 22:0.34084508 23:0.47302906 24:0.68421054 25:0.83908045 26:0.17777777 27:0.3738142 28:0.77544961 29:0.76484038 30:0.67541467 31:0.076923077 32:0.14201182 33:0.48497599 34:0.15789474 35:0.14736294 36:0.26666667 37:0.1 38:0.15 39:0.16666667 40:0.0625 42:0.33333333 43:0.083333333 45:0.11111111 47:0.14285714 48:0.25 49:0.375 51:0.16666667 56:0.16666667 
-4 0:0.32707907 1:0.34077455 2:0.48003719 3:0.15144045 4:0.020476868 5:0.21177526 6:0.22164544 7:0.48769082 8:0.30501278 9:0.55405535 10:0.4708311 11:0.3998939 12:0.0076943158 13:0.25351856 14:0.16307167 15:0.39090742 16:0.086757378 17:0.53544305 18:0.44495677 19:0.11111111 20:0.066666656 22:0.25352113 23:0.4273859 24:0.53441296 25:0.37931034 26:0.43333333 27:0.40643111 28:0.60045943 29:0.28353112 30:0.5053802 31:0.20710058 32:0.5857988 33:0.37023242 34:0.26315789 35:0.2203631 36:0.26666667 38:0.2 39:0.16666667 40:0.25 42:0.16666667 43:0.16666667 45:0.11111111 47:0.14285714 48:0.25 51:0.16666667 52:0.14285714 55:0.125 56:0.33333333 57:0.14285714 
-4 0:0.63816619 1:0.50510095 2:0.48003719 3:0.23010938 4:0.38668731 5:0.61869756 6:0.56554804 7:0.51062237 8:0.55536012 9:0.46416128 10:0.35884848 11:0.59347137 12:0.21890351 13:0.42106329 14:0.00092631088 15:0.4004712 16:0.26495436 17:0.44303798 18:0.39654179 19:0.11111111 21:0.50000002 22:0.5859155 23:0.42323653 24:0.34412957 25:0.8045977 26:0.22222222 27:0.25851903 28:0.5572777 29:0.16708512 30:0.58406609 31:0.047337279 32:0.66863905 33:0.62376715 34:0.47368421 35:0.48200545 36:0.66666667 37:0.2 38:0.35 39:0.25 40:0.0625 42:0.66666667 43:0.25 44:0.25 45:0.33333333 47:0.28571429 48:0.25 49:0.25 51:0.16666667 53:0.16666667 54:0.33333333 56:0.16666667 57:0.28571429 59:0.2 
-4 0:0.6092914 1:0.6509696 2:0.48003719 3:0.23010938 4:0.11500063 5:0.16995618 6:0.66820077 7:0.50601062 8:0.8340381 9:0.66946337 10:0.51192582 11:0.55332272 12:0.086538214 13:0.34013053 14:0.099520298 15:0.39821315 16:0.1795772 17:0.6822785 18:0.64553315 19:0.11111111 21:0.15079366 22:0.23098592 23:0.62240666 24:0.34412957 25:1 26:0.22222222 27:0.5091647 28:0.56110174 29:0.14789149 30:0.31471847 31:0.02366864 32:0.27514792 33:0.20584179 34:0.26315789 35:0.27613017 36:0.26666667 37:0.2 38:0.35 39:0.5 40:0.125 43:0.25 45:0.11111111 47:0.28571429 49:0.25 50:1 51:0.16666667 52:0.14285714 54:0.33333333 
-3.248439294210447 0:0.3657398 1:0.48935086 2:0.48003719 3:0.15144045 4:0.11500063 5:0.098950709 6:0.52788021 7:0.40919957 8:0.54023477 9:0.68358976 10:0.41655579 11:0.48564517 12:0.57571952 13:0.43906571 14:0.15633294 15:0.14919075 16:0.21551554 17:0.64683546 18:0.61755306 19:0.11111111 20:0.066666656 21:0.15079366 22:0.12676057 23:0.62655603 24:0.5506073 25:0.60919539 26:0.73333333 27:0.53221054 28:0.61046107 29:0.50490199 30:0.41868815 31:0.46745562 32:0.46745561 33:0.25414292 34:0.13157895 35:0.12339692 36:0.066666667 38:0.15 39:0.16666667 40:0.125 43:0.083333333 47:0.14285714 48:0.25 49:0.125 50:0.33333333 52:0.14285714 55:0.125 56:0.33333333 
4 0:0.7730261 1:0.55347397 2:0.48003719 3:0.15144045 5:0.36219821 6:0.64364916 7:0.49800706 8:0.72132203 9:0.50590258 10:0.34888242 11:0.60319074 12:0.068337864 13:0.71569519 14:0.018973831 15:0.29068074 16:0.22658849 17:0.69493671 18:0.61773935 19:0.11111111 20:0.066666656 22:0.45352113 23:0.70124483 24:0.34817815 25:0.72413792 26:0.17777777 27:0.32575179 28:0.76386687 29:0.023601596 30:0.53256531 31:0.050295861 32:0.76627218 33:0.34292276 34:0.55263158 35:0.60660468 36:0.4 37:0.1 38:0.65 39:0.83333333 40:0.4375 43:0.41666667 44:0.25 46:0.16666667 47:0.14285714 48:0.25 49:0.375 52:0.14285714 53:0.16666667 55:0.25 56:0.16666667 57:0.28571429 59:0.2 
2.570009962346545 0:0.57030564 1:0.55720374 2:0.48003719 3:0.15144045 4:0.18545924 5:0.26072921 6:0.45287638 7:0.44335415 8:0.54023477 9:0.64445789 10:0.53661427 11:0.55327051 12:0.17215764 13:0.33935565 14:0.0049736014 15:0.18835377 16:0.44860473 17:0.58987343 18:0.5229587 19:0.11111111 20:0.066666656 22:0.25352113 23:0.49792532 24:0.38866398 25:0.60919539 26:0.43333333 27:0.47861891 28:0.64067199 29:0.18679129 30:0.35436652 31:0.0059171577 32:0.31065087 33:0.47910584 34:0.31578947 35:0.32374159 36:0.26666667 38:0.25 39:0.083333333 40:0.0625 42:0.33333333 43:0.083333333 45:0.33333333 47:0.42857143 48:0.25 49:0.25 52:0.42857143 53:0.16666667 58:0.33333333 
-4 0:0.74248471 1:0.60031 2:0.48003719 3:0.23010938 4:0.16375152 5:0.19221686 6:0.68634872 7:0.4604579 8:1 9:0.75935744 10:0.46331182 11:0.82836338 12:0.47646623 13:0.66450686 14:0.06158845 15:0.5368554 16:0.24236761 17:0.49746836 18:0.44149856 19:0.11111111 21:0.33333333 22:0.22535211 23:0.54356848 24:0.23886641 25:0.83908045 26:0.22222222 27:0.29079075 28:0.71282603 29:0.34661326 30:0.61038388 31:0.17159763 32:0.53550294 33:0.47065615 34:0.44736842 35:0.5509378 36:0.53333333 37:0.3 38:0.35 39:0.33333333 42:0.16666667 43:0.25 47:0.14285714 49:0.5 50:0.33333333 51:0.16666667 52:0.28571429 53:0.5 54:0.33333333 55:0.125 56:0.33333333 57:0.28571429 59:0.2 
4 0:0.48467151 1:0.47353692 2:0.48003719 3:0.15144045 5:0.2872913 6:0.47012248 7:0.48537173 8:0.66807619 9:0.48916675 10:0.38341339 11:0.5535684 12:0.27645593 13:0.51075948 14:0.0052243277 15:0.17655451 16:0.10048916 17:0.51772152 18:0.43535062 19:0.11111111 20:0.066666656 22:0.32394366 23:0.63900416 24:0.12550608 25:1 26:0.22222222 27:0.22052348 28:0.80851119 29:0.40694525 30:0.7558154 31:0.038461534 32:0.26331359 33:0.42678039 34:0.31578947 35:0.35788714 36:0.46666667 37:0.2 38:0.25 39:0.25 40:0.0625 42:0.33333333 43:0.25 44:0.5 47:0.28571429 48:0.25 51:0.33333333 52:0.28571429 55:0.125 57:0.28571429 
-2.918591112801421 0:0.41150269 1:0.35620156 2:0.48003719 3:0.23010938 4:0.039898759 5:0.21227361 6:0.40191802 7:0.22092163 8:0.64311287 9:0.14193233 10:0.26135974 11:0.4855309 12:0.22392323 13:0.51159435 14:0.045370255 15:0.33814886 16:0.12068602 17:0.3278481 18:0.26795913 19:0.11111111 22:0.28732394 23:0.46058092 24:0.044534419 25:0.88505744 26:0.11111111 27:0.034961045 28:0.47284571 29:0.064768551 30:0.64088299 31:0.017751473 32:0.36390531 33:0.29738101 34:0.42105263 35:0.45755851 36:0.73333333 37:0.6 38:0.3 39:0.33333333 40:0.125 42:0.5 43:0.25 44:0.25 46:0.16666667 48:0.25 49:0.125 50:0.33333333 51:0.16666667 53:0.5 54:0.33333333 56:0.16666667 57:0.42857143 
-2.330297109620369 0:0.49452239 1:0.44983413 2:0.72609594 3:0.15144045 4:0.09459804 6:0.33416542 7:0.52019476 8:0.2615568 9:0.65563026 10:0.47135415 11:0.37969615 12:0.051217975 13:0.1747332 14:0.052884251 15:0.1803184 16:0.018925919 17:0.88101267 18:0.84403458 19:0.81111111 20:0.066666656 21:0.14285715 23:0.57676349 24:0.75303644 25:0.49425287 26:0.76666665 27:0.67531199 28:0.65994397 29:0.086208495 30:0.25884125 31:0.053254437 32:0.25443785 34:0.36842105 35:0.30480523 38:0.7 39:1 40:0.9375 44:0.25 48:0.25 52:0.42857143 
-4 0:0.42000937 1:0.57611546 2:0.72609594 3:0.15144045 4:0.09459804 5:0.088871409 6:0.47144926 7:0.59247615 8:0.47715096 9:0.65563026 10:0.6330449 11:0.47137522 12:0.20635674 13:0.13352401 14:0.19378048 15:0.18499255 16:0.11849759 17:0.66962027 18:0.66282421 19:0.81111111 20:0.066666656 21:0.14285715 22:0.050704225 23:0.75103736 24:0.37246965 25:0.96551722 26:0.22222222 27:0.5997163 28:0.57027166 29:0.26901179 30:0.21463237 31:0.076923073 32:0.076923055 33:0.12003963 34:0.13157895 35:0.12241504 36:0.2 37:0.2 38:0.2 39:0.33333333 40:0.125 42:0.33333333 43:0.083333333 44:0.25 47:0.28571429 48:0.25 55:0.125 57:0.14285714 
-2.093705138594992 0:0.70638138 1:0.46359041 2:0.72609594 3:0.15144045 4:0.068519071 5:0.062410816 6:0.48228293 7:0.45693601 8:0.54023477 9:0.48916675 10:0.33267571 11:0.58594881 12:0.36477563 13:0.59093384 14:0.0063168936 15:0.42753877 16:0.2556322 17:0.63670887 18:0.56822535 19:0.81111111 20:0.066666656 22:0.11830986 23:0.63070541 24:0.44129556 25:0.70114942 26:0.17777777 27:0.2015979 28:0.81814719 29:0.31242382 30:0.71467768 31:0.011834322 32:0.41715975 33:0.19460519 34:0.65789474 35:0.74757535 36:0.33333333 37:0.2 38:0.6 39:0.5 40:0.125 41:0.25 43:0.25 44:0.5 45:0.11111111 47:0.28571429 48:0.5 49:0.25 50:0.66666667 51:0.16666667 52:0.42857143 55:0.5 56:0.5 57:0.14285714 58:0.33333333 59:0.2 
3.579718290703541 0:0.75385112 1:0.47987551 2:0.72609594 3:0.15144045 4:0.53963012 5:0.72291573 6:0.49328904 7:0.30892731 8:0.64311287 9:0.46416128 10:0.39461502 11:0.58397809 12:0.16097085 13:0.42720933 14:0.0008558155 15:0.49006858 16:0.22955204 17:0.51392405 18:0.48386167 19:0.81111111 20:0.066666656 21:0.30158731 22:0.74929578 23:0.78838175 24:0.39271256 25:0.88505744 26:0.17777777 27:0.19283962 28:0.87862315 29:0.069705656 30:0.80274559 31:0.020710055 32:0.77810651 33:0.38912167 34:0.68421053 35:0.742706 36:0.73333333 37:0.4 38:0.6 39:0.5 40:0.1875 41:0.25 42:0.66666667 43:0.33333333 44:0.75 45:0.22222222 48:0.75 49:0.375 51:0.16666667 55:0.125 56:0.5 57:0.42857143 59:0.2 
-4 0:0.79336825 1:0.61882835 2:0.72609594 3:0.23010938 5:0.10533026 6:0.71512048 7:0.51032026 8:1 9:0.56081835 10:0.40100585 11:0.81618855 12:0.25261525 13:0.67371704 14:0.005012256 15:0.39101514 16:0.27980344 17:0.7493671 18:0.67550433 19:0.81111111 21:0.19841271 22:0.12957747 23:0.58506225 24:0.48178139 25:0.91954022 26:0.52222222 27:0.34940961 28:0.80480564 29:0.22803204 30:0.53443012 31:0.014792899 32:0.20118342 33:0.2340966 34:0.47368421 35:0.49350754 36:0.2 38:0.4 39:0.25 40:0.0625 41:0.25 42:0.33333333 44:0.5 45:0.22222222 47:0.14285714 49:0.625 52:0.14285714 53:0.16666667 54:0.33333333 55:0.5 56:0.5 
-0.05462699218271167 0:0.38980998 1:0.40972554 2:0.72609594 3:0.23010938 4:0.09459804 5:0.22907361 6:0.3060626 7:0.5055664 8:0.18018189 9:0.72936 10:0.46616192 11:0.36718856 12:0.068564922 13:0.14083315 14:0.021488117 15:0.2780146 16:0.10732172 17:0.52025317 18:0.42420749 19:0.81111111 21:0.14285715 22:0.27605634 23:0.45228216 24:0.41295548 25:0.40229883 26:0.22222222 27:0.47464924 28:0.57001153 29:0.13462091 30:0.38219432 31:0.13313609 32:0.4674556 33:0.64799296 34:0.26315789 35:0.24953912 36:0.4 37:0.1 38:0.2 40:0.0625 42:0.66666667 44:0.5 45:0.11111111 51:0.16666667 53:0.16666667 54:0.33333333 55:0.125 56:0.16666667 57:0.42857143 
-4 0:0.5555143 1:0.5427522 2:0.72609594 3:0.23010938 4:0.048042203 5:0.38397902 6:0.45161346 7:0.59009974 8:0.72132203 9:0.66556035 10:0.50376795 11:0.58509177 12:0.14766962 13:0.43991742 14:0.0014942374 15:0.29311173 16:0.14971962 17:0.5164557 18:0.43381364 19:0.81111111 22:0.54647887 23:0.41493777 24:0.48178139 25:0.72413792 26:0.11111111 27:0.35506122 28:0.69456351 29:0.17983484 30:0.66677155 31:0.029585797 32:0.44970413 33:0.50658666 34:0.31578947 35:0.34510259 36:0.46666667 37:0.3 38:0.3 39:0.16666667 40:0.125 42:0.33333333 43:0.25 44:0.5 47:0.14285714 49:0.125 50:0.33333333 51:0.33333333 52:0.14285714 54:0.33333333 56:0.16666667 57:0.14285714 
-1.573955110726066 0:0.7742061 1:0.55424256 2:0.72609594 3:0.23010938 4:0.09459804 5:0.21002637 6:0.48953662 7:0.50354036 8:0.54023477 9:0.64445789 10:0.4762416 11:0.49619651 12:0.072699942 13:0.28628267 14:0.044946121 15:0.65560086 16:0.2587062 17:0.88987343 18:0.77553635 19:0.81111111 21:0.14285715 22:0.1859155 23:0.68049793 24:0.7651822 25:0.77011492 26:0.56666667 27:0.67271686 28:0.62528326 29:0.039781569 30:0.25450117 31:8.8172519e-10 32:0.3076923 33:0.18357589 34:0.55263158 35:0.52458721 36:0.13333333 38:0.7 39:0.75 40:0.375 41:0.25 42:0.16666667 44:1 45:0.44444444 49:0.375 51:0.16666667 52:0.14285714 54:0.33333333 55:0.25 56:0.16666667 57:0.14285714 59:0.2 
-4 0:0.68295555 1:0.57319699 2:0.72609594 3:0.15144045 5:0.33464438 6:0.51688642 7:0.56923204 8:0.66807619 9:0.48813418 10:0.38147484 11:0.64056027 12:0.11765525 13:0.47183323 14:0.0016614242 15:0.3193727 16:0.26375874 17:0.83037976 18:0.76719938 19:0.81111111 20:0.066666656 22:0.36056339 23:0.68049795 24:0.57894738 25:1 26:0.47777777 27:0.53650339 28:0.83879941 29:0.059990246 30:0.67151609 31:0.017751479 32:0.25443786 33:0.36674002 34:0.42105263 35:0.43810115 36:0.2 38:0.45 39:0.41666667 40:0.125 41:0.25 42:0.16666667 43:0.083333333 44:0.5 45:0.22222222 47:0.42857143 48:0.25 49:0.25 51:0.16666667 52:0.14285714 55:0.375 56:0.16666667 57:0.14285714 
3.306085421834662 0:0.43804655 1:0.60495278 2:0.72609594 3:0.36110126 5:0.28330978 6:0.60340307 7:0.57582889 8:0.47097468 9:0.68463153 10:0.57908429 11:0.45787048 12:0.044942447 14:0.67650033 15:0.64649788 16:0.45694191 17:0.60759495 18:0.53958607 19:0.81111111 20:0.11111111 22:0.26478874 23:0.56016599 24:0.48987855 25:0.35632184 26:0.43333333 27:0.52976601 28:0.46774701 29:0.020894982 31:0.49408284 32:0.49408283 33:0.37821418 34:0.13157895 35:0.092136901 36:0.13333333 38:0.1 42:0.16666667 43:0.083333333 44:0.5 45:0.22222222 49:0.25 51:0.16666667 52:0.14285714 55:0.125 
-4 0:0.37021219 1:0.42222692 2:0.72609594 3:0.23010938 4:0.09459804 5:0.30553279 6:0.55922084 7:0.48978333 8:0.47097468 9:0.33842968 10:0.53465594 11:0.40444653 12:0.023815195 13:0.24116757 14:0.28853163 15:0.51184029 16:0.42379591 17:0.41898735 18:0.24783862 19:0.81111111 21:0.14285715 22:0.26478874 23:0.26556017 24:0.33198382 26:0.22222222 27:0.35094095 28:0.3446294 29:0.076712239 30:0.36547261 31:0.22189349 32:0.45857987 33:0.62651615 34:0.21052632 35:0.20066527 36:0.4 37:0.1 38:0.15 40:0.0625 42:0.16666667 43:0.16666667 44:0.25 46:0.16666667 49:0.25 50:0.33333333 51:0.16666667 53:0.33333333 54:0.33333333 55:0.125 
-4 0:0.67191141 1:0.80121452 2:0.72609594 3:0.15144045 4:0.38003023 5:0.33056832 6:0.8639621 7:0.48618867 8:1 9:0.58067092 10:0.5941527 11:0.67153834 12:0.54585621 13:0.51504149 14:0.032678832 15:0.34331412 16:0.27687675 17:0.67848103 18:0.6529436 19:0.81111111 20:0.066666656 21:0.35714287 22:0.28450705 23:0.68049794 24:0.36032389 25:0.83908045 26:0.17777777 27:0.37953801 28:0.71221832 29:0.59949907 30:0.55819069 31:0.0029585718 32:0.48816567 33:0.41298414 34:0.21052632 35:0.27611013 36:0.26666667 37:0.2 38:0.3 39:0.33333333 40:0.0625 42:0.16666667 43:0.16666667 44:0.25 47:0.28571429 48:0.5 49:0.375 56:0.16666667 58:0.33333333 
-4 0:0.60240007 1:0.61436513 2:0.72609594 3:0.15144045 5:0.032046858 6:0.55653597 7:0.47638584 8:0.72132203 9:0.50590258 10:0.42208728 11:0.59504301 12:0.049632441 13:0.37059306 14:0.023807397 15:0.35645169 16:0.28417972 17:0.68101267 18:0.63841329 19:0.81111111 20:0.066666656 22:0.050704225 23:0.60995852 24:0.44939272 25:0.88505744 26:0.17777777 27:0.31196005 28:0.70286557 29:0.20899984 30:0.43069737 31:0.14201183 32:0.40532543 33:0.19530354 34:0.28947368 35:0.29668964 36:0.26666667 37:0.2 38:0.4 39:0.41666667 40:0.25 42:0.16666667 44:0.25 45:0.11111111 48:0.25 49:0.375 51:0.33333333 53:0.16666667 56:0.16666667 57:0.14285714 59:0.2 
-4 0:0.4847802 1:0.53839415 2:0.72609594 3:0.23010938 4:0.16375152 5:0.33306923 6:0.39560079 7:0.49176082 8:0.72132203 9:0.77212722 10:0.41075555 11:0.63944829 12:0.33655176 13:0.43300853 14:0.41676398 15:0.59962607 16:0.25819035 17:0.48354431 18:0.3621902 19:0.81111111 21:0.33333333 22:0.21408451 23:0.21576763 24:0.42105264 25:0.72413792 26:0.22222222 27:0.094471071 28:0.75311587 29:0.53460388 30:0.80729367 31:0.34319526 32:0.6005917 33:0.48961996 34:0.23684211 35:0.25771481 36:0.4 37:0.3 38:0.15 39:0.083333333 42:0.33333333 43:0.25 44:0.25 45:0.11111111 49:0.25 52:0.28571429 53:0.16666667 54:0.33333333 57:0.28571429 
-4 0:0.40129651 1:0.58582889 2:0.72609594 3:0.15144045 4:0.048042203 5:0.13674297 6:0.52877059 7:0.52922186 8:0.72132203 9:0.59183061 10:0.66982904 11:0.54767002 12:0.50688645 13:0.38212609 14:0.29013453 15:0.27711205 16:0.2333027 17:0.6379747 18:0.60472623 19:0.81111111 20:0.066666656 22:0.10704226 23:0.46058093 24:0.54251013 25:0.72413792 26:0.17777777 27:0.44600199 28:0.58667494 29:0.42084201 30:0.34597244 31:0.21005917 32:0.21005915 33:0.36643908 34:0.10526316 35:0.095864059 36:0.13333333 37:0.1 38:0.15 39:0.25 42:0.16666667 43:0.083333333 44:0.25 45:0.11111111 47:0.14285714 48:0.25 49:0.125 55:0.125 57:0.14285714 59:0.2 
-3.187680591522481 0:0.46192532 1:0.42117075 2:0.72609594 3:0.23010938 4:0.21179372 5:0.26550026 6:0.61683801 7:0.27651803 8:0.72132203 9:0.48813418 10:0.28605337 11:0.55747528 12:0.51322633 13:0.55163261 14:0.014134918 15:0.21645664 16:0.18126421 17:0.63037975 18:0.57014409 19:0.81111111 21:0.33333333 22:0.30422535 23:0.65560167 24:0.17813766 25:0.77011492 26:0.11111111 27:0.29582418 28:0.8602602 29:0.501431 30:0.75914918 31:0.0029585762 32:0.33431951 33:0.33809229 34:0.36842105 35:0.44515469 36:0.33333333 37:0.1 38:0.35 39:0.33333333 41:0.25 43:0.25 44:1 45:0.11111111 48:0.5 49:0.125 52:0.42857143 54:0.33333333 55:0.125 57:0.42857143 
-3.716743256788311 0:0.5752471 1:0.39717416 2:0.72609594 3:0.15144045 4:0.55854634 5:0.20083668 6:0.48032861 7:0.16106521 8:0.72132203 9:0.32222894 10:0.19668117 11:0.47455544 12:0.096780081 13:0.33477695 14:0.02982882 15:0.47565653 16:0.34937124 17:0.52911392 18:0.49037464 19:0.81111111 20:0.066666656 21:0.45238097 22:0.27887324 23:0.49792531 24:0.24696357 25:0.88505744 26:0.17777777 27:0.1052283 28:0.84527833 29:0.14311827 30:0.83695006 31:1.7634507e-09 32:0.46745562 33:0.34365129 34:0.63157895 35:0.67018676 36:0.53333333 37:0.2 38:0.5 39:0.41666667 40:0.125 41:0.25 42:0.66666667 43:0.16666667 44:0.5 45:0.11111111 46:0.33333333 47:0.14285714 48:0.5 49:0.375 50:0.33333333 52:0.14285714 53:0.16666667 55:0.5 56:0.16666667 57:0.28571429 
-4 0:0.54850084 1:0.58415136 2:0.72609594 3:0.15144045 5:0.23569367 6:0.80857275 7:0.46781643 8:0.8340381 9:0.48813418 10:0.36544416 11:0.5683635 12:0.15215183 13:0.28987124 14:0.035099042 15:0.32464691 16:0.13144784 17:0.81392406 18:0.82536023 19:0.81111111 20:0.066666656 22:0.23380282 23:0.63485479 24:0.73684212 25:0.91954022 26:0.47777777 27:0.59566822 28:0.66942029 29:0.095714607 30:0.28646162 31:0.035502951 32:0.34615383 33:0.1623043 34:0.26315789 35:0.22499199 36:0.066666667 38:0.35 39:0.5 40:0.25 42:0.16666667 44:0.25 45:0.22222222 47:0.14285714 48:0.25 49:0.25 55:0.25 56:0.16666667 57:0.14285714 
-2.826702009518427 0:0.68514091 1:1 2:0.72609594 3:0.23010938 4:0.29208927 6:0.83649597 7:0.95048095 8:1 9:0.71120467 10:0.62501665 11:0.84282294 12:1 13:0.79003604 14:0.031722234 15:0.030056421 16:0.45515735 17:0.79240508 18:0.90678544 19:0.81111111 21:0.35714287 23:0.71369296 24:0.95951418 25:0.91954022 26:0.43333333 27:0.60726646 28:0.80049238 29:0.73791784 30:0.62025749 31:0.10946746 32:0.10946744 33:0.40504989 34:0.13157895 35:0.20439243 36:0.066666667 38:0.25 39:0.33333333 44:0.5 47:0.14285714 49:0.5 52:0.28571429 53:0.16666667 54:0.33333333 
4 0:0.58778278 1:0.51365201 2:0.72609594 3:0.15144045 4:0.21632282 5:0.40222829 6:0.5915189 7:0.27236343 8:0.66807619 9:0.34723442 10:0.15601472 11:0.64564997 12:0.42630648 13:0.78255364 14:0.0011051426 15:0.51598571 16:0.47090618 17:0.74050634 18:0.68390284 19:0.81111111 20:0.066666656 21:0.22222223 22:0.34084508 23:0.6514523 24:0.5020243 25:1 26:0.22222222 27:0.26979405 28:0.79150529 29:0.28588073 30:0.78702041 31:0.0088757339 32:0.31360945 33:0.45278328 34:0.39473684 35:0.45641632 36:0.26666667 37:0.1 38:0.45 39:0.41666667 40:0.125 41:0.25 42:0.16666667 43:0.16666667 44:0.5 45:0.11111111 46:0.33333333 47:0.42857143 48:0.25 49:0.25 51:0.16666667 52:0.14285714 56:0.16666667 57:0.14285714 
3.444407556238816 0:0.61874499 1:0.46464031 2:0.72609594 3:0.15144045 5:0.13674297 6:0.75556403 7:0.36131396 8:1 9:0.46416128 10:0.36309439 11:0.9134296 12:0.034825115 13:0.61703965 14:0.021635697 15:0.24087542 16:0.15606126 17:0.54810128 18:0.49682998 19:0.81111111 20:0.066666656 22:0.10704226 23:0.76348549 24:0.4534413 25:0.91954022 26:0.22222222 27:0.36742201 28:0.89378786 29:0.21210404 30:0.56622808 31:0.011834319 32:0.32544378 33:0.19006617 34:0.52631579 35:0.5472908 36:0.33333333 37:0.2 38:0.35 39:0.33333333 41:0.25 42:0.16666667 44:0.5 45:0.44444444 47:0.14285714 48:0.25 49:0.5 52:0.57142857 53:0.66666667 55:0.25 56:0.16666667 59:0.2 
4 0:0.4188922 1:0.40926879 2:0.72609594 3:0.15144045 5:0.10307505 6:0.4891968 7:0.38387285 8:0.47715096 9:0.48813418 10:0.45735788 11:0.42236487 12:0.25332026 13:0.34398967 14:0.10221437 15:0.32877352 16:0.089689803 17:0.56835444 18:0.49682997 19:0.81111111 20:0.066666656 22:0.07887324 23:0.7966805 24:0.25101215 25:0.96551722 26:0.22222222 27:0.51249418 28:0.60612975 29:0.21383518 30:0.35046642 31:0.038461538 32:0.31065087 33:0.14435478 34:0.31578947 35:0.28370471 36:0.33333333 37:0.2 38:0.2 39:0.25 42:0.16666667 43:0.25 44:0.75 45:0.33333333 47:0.14285714 48:0.25 51:0.16666667 55:0.25 56:0.16666667 57:0.28571429 
-4 0:0.43616048 1:0.4423905 2:0.72609594 3:0.15144045 4:0.45894996 5:0.30705866 6:0.47138868 7:0.43346043 8:0.54023477 9:0.48916675 10:0.24293895 11:0.55578448 12:0.65190482 13:0.69245653 14:0.021667695 15:0.31045513 16:0.27705618 17:0.52151899 18:0.43336158 19:0.81111111 20:0.066666656 21:0.35714287 22:0.33521127 23:0.56846474 24:0.27125506 25:0.77011492 26:0.17777777 27:0.27564024 28:0.674949 29:0.42448701 30:0.57527463 31:0.053254426 32:0.44970413 33:0.36862177 34:0.28947368 35:0.31113738 36:0.4 37:0.2 38:0.3 39:0.25 40:0.125 42:0.33333333 43:0.16666667 44:0.5 45:0.11111111 47:0.14285714 48:0.75 49:0.125 52:0.14285714 57:0.14285714 59:0.2 
-4 0:0.58735363 1:0.57386007 2:0.72609594 3:0.15144045 4:0.048042203 5:0.11094779 6:0.48713868 7:0.57760118 8:0.64311287 9:0.59183061 10:0.53913073 11:0.63269384 12:0.32555833 13:0.39892817 14:0.24557268 15:0.53787992 16:0.24499134 17:0.72025317 18:0.68126801 19:0.81111111 20:0.066666656 22:0.23661971 23:0.56846473 24:0.57894738 25:0.88505744 26:0.17777777 27:0.46162007 28:0.69956688 29:0.376642 30:0.52905397 31:0.008875725 32:0.23076923 33:0.48776543 34:0.31578947 35:0.39367586 36:0.26666667 37:0.2 38:0.35 39:0.25 42:0.16666667 43:0.083333333 44:0.5 45:0.11111111 47:0.14285714 48:0.25 49:0.125 51:0.16666667 52:0.14285714 53:0.16666667 55:0.125 56:0.16666667 57:0.57142857 58:0.33333333 
4 0:0.33280463 1:0.3752364 2:0.34381522 3:0.15144045 5:0.3088492 6:0.48452385 7:0.44583292 8:0.47715096 9:0.48813418 10:0.55123183 11:0.42015373 12:0.11525627 13:0.11917765 14:0.050715959 15:0.10302601 16:0.12446908 17:0.52278482 18:0.40988061 19:0.45555555 20:0.066666656 22:0.49014085 23:0.53526971 24:0.25101216 25:0.96551722 26:0.22222222 27:0.36063442 28:0.55347172 29:0.3722633 30:0.3836704 31:0.044378697 32:0.1597633 33:0.50453724 34:0.21052632 35:0.17752084 36:0.33333333 37:0.2 38:0.1 39:0.083333333 42:0.5 43:0.083333333 45:0.22222222 47:0.28571429 48:0.25 51:0.16666667 52:0.14285714 55:0.125 57:0.28571429 
4 0:0.53465908 1:0.56893713 2:0.34381522 3:0.15144045 4:0.16375152 5:0.34572059 6:0.50683934 7:0.63517682 8:0.64311287 9:0.41212302 10:0.34726219 11:0.67381145 12:0.62540481 13:0.70823169 14:0.058280056 15:0.17679619 16:0.52086942 17:0.70253165 18:0.67319884 19:0.45555555 20:0.066666656 21:0.33333333 22:0.38309859 23:0.49377593 24:0.72469637 25:0.88505744 26:0.53333333 27:0.51163121 28:0.86509878 29:0.51819704 30:0.81228706 31:0.071005914 32:0.14201181 33:0.571367 34:0.26315789 35:0.2909386 36:0.2 38:0.25 39:0.16666667 42:0.33333333 43:0.083333333 44:0.25 45:0.22222222 46:0.16666667 48:0.25 49:0.375 56:0.33333333 57:0.42857143 
4 0:0.53606461 1:0.57048202 2:0.34381522 3:0.23010938 4:0.048042203 5:0.23407262 6:0.73015723 7:0.33041001 8:0.8340381 9:0.44989828 10:0.5354857 11:0.62788879 12:0.26154947 13:0.50228034 14:0.012666802 15:0.32723117 16:0.35690762 17:0.56708862 18:0.48818444 19:0.45555555 22:0.25633803 23:0.72199171 24:0.23481782 25:0.96551722 26:0.11111111 27:0.24776178 28:0.80640478 29:0.6608629 30:0.76128342 31:0.0059171541 32:0.44378698 33:0.44339267 34:0.26315789 35:0.2793764 36:0.4 37:0.3 38:0.25 39:0.25 40:0.0625 42:0.33333333 43:0.16666667 44:0.25 45:0.11111111 46:0.16666667 47:0.28571429 49:0.25 51:0.16666667 53:0.16666667 54:0.33333333 57:0.14285714 
0.5630767011620716 0:0.32771633 1:0.42856005 2:0.34381522 3:0.23010938 4:0.47254439 5:0.084968175 6:0.46669076 7:0.48204016 8:0.36443489 9:0.58067092 10:0.43659583 11:0.50452015 12:0.53145697 13:0.40245115 14:0.51516788 15:0.49225565 16:0.27308713 17:0.53417723 18:0.39371234 19:0.45555555 21:0.44444446 22:0.11830986 23:0.43983403 24:0.41295547 25:0.77011492 26:0.17777777 27:0.27344675 28:0.74009879 29:0.89226239 30:0.75377258 31:0.36982249 32:0.36982248 33:0.54108434 34:0.13157895 35:0.131252 36:0.26666667 37:0.2 38:0.15 39:0.16666667 42:0.16666667 43:0.083333333 44:0.5 45:0.11111111 47:0.14285714 48:0.25 53:0.16666667 54:0.33333333 57:0.14285714 59:0.2 
1.172871168205764 0:0.21120663 1:0.25152775 2:0.34381522 3:0.15144045 4:0.16375152 6:0.33662434 7:0.39658547 8:0.37769231 9:0.32222894 10:0.27496155 11:0.070659153 12:0.43200803 13:0.32018569 14:0.58228854 15:0.5564265 16:0.41328368 17:0.59240507 18:0.50512968 19:0.45555555 20:0.066666656 21:0.33333333 23:0.29460582 24:0.60323888 25:0.37931034 26:0.53333333 27:0.38886428 28:0.3371771 29:0.29797789 30:0.23968936 31:0.56508876 32:0.56508875 33:0.48887511 34:0.10526316 35:0.076607086 36:0.066666667 38:0.1 39:0.083333333 40:0.125 45:0.11111111 46:0.16666667 48:0.25 49:0.125 52:0.14285714 53:0.16666667 56:0.16666667 57:0.14285714 
4 0:0.84811103 1:0.47139588 2:0.34381522 3:0.15144045 4:0.16375152 5:0.22921608 6:0.5231823 7:0.4041317 8:0.8340381 9:0.34723442 10:0.26948656 11:0.5011124 12:0.061378727 13:0.39998491 14:0.00050256768 15:0.79546646 16:0.22597691 17:0.68987342 18:0.59584408 19:0.45555555 20:0.066666656 21:0.33333333 22:0.20845071 23:0.51452283 24:0.25101216 25:0.93103444 26:0.22222222 27:0.39665923 28:0.63647721 29:0.020839395 30:0.49365879 31:0.014792904 32:0.66568047 33:0.28714504 34:0.84210526 35:0.91207118 36:0.53333333 37:0.2 38:0.7 39:0.58333333 40:0.1875 42:0.66666667 43:0.083333333 44:0.75 45:0.22222222 46:0.16666667 47:0.42857143 48:0.25 49:0.25 51:0.33333333 52:0.14285714 53:0.16666667 55:0.75 56:0.5 57:0.57142857 59:0.2 
4 0:0.58544472 1:0.65641644 2:0.34381522 3:0.23010938 5:0.29116757 6:0.58818344 7:0.7274358 8:0.54023477 9:0.57963232 10:0.41010544 11:0.64955553 12:0.57819329 13:0.61979072 14:0.0092990597 15:0.23227577 16:0.28667124 17:0.73164558 18:0.72368877 19:0.45555555 22:0.35211268 23:0.62655603 24:0.51821863 25:0.96551722 26:0.11111111 27:0.11341863 28:0.88072959 29:0.71494241 30:0.77407016 31:0.014792906 32:0.13017751 33:0.38419661 34:0.23684211 35:0.23643395 36:0.2 37:0.1 38:0.3 39:0.33333333 40:0.1875 43:0.16666667 45:0.11111111 47:0.28571429 49:0.25 53:0.16666667 54:0.33333333 55:0.125 56:0.16666667 57:0.14285714 
4 0:0.49795626 1:0.58269607 2:0.34381522 3:0.15144045 4:0.61996977 5:0.34489187 6:0.61998194 7:0.53824552 8:0.67540697 9:0.48916675 10:0.39220816 11:0.72400055 12:0.79593921 13:0.71128053 14:0.18070888 15:0.2585602 16:0.53467792 17:0.47215191 18:0.33083574 19:0.45555555 20:0.066666656 21:0.52380954 22:0.1859155 23:0.26556018 24:0.2874494 25:0.35632184 26:0.22222222 27:0.097160379 28:0.58053851 29:0.77009015 30:0.69644825 31:0.085798821 32:0.34911242 33:0.4614998 34:0.21052632 35:0.23623357 36:0.33333333 37:0.2 38:0.15 39:0.083333333 42:0.16666667 43:0.25 44:0.25 45:0.11111111 48:0.5 49:0.375 52:0.14285714 56:0.16666667 58:0.33333333 
-4 0:0.39441818 1:0.47592207 2:0.34381522 3:0.15144045 4:0.11500063 5:0.28580486 6:0.49472998 7:0.5704362 8:0.47097468 9:0.68358976 10:0.57274381 11:0.41169468 12:0.32729736 13:0.29562408 14:0.07994479 15:0.1975088 16:0.19787988 17:0.54050634 18:0.42872977 19:0.45555555 20:0.066666656 21:0.15079366 22:0.32676056 23:0.44813278 24:0.35222673 25:0.77011492 26:0.22222222 27:0.34109687 28:0.52305993 29:0.5588798 30:0.53730905 31:0.13017751 32:0.17751478 33:0.40388462 34:0.18421053 35:0.17030699 36:0.26666667 37:0.1 38:0.2 39:0.16666667 40:0.0625 42:0.33333333 43:0.083333333 44:0.25 45:0.11111111 48:0.25 49:0.125 50:0.33333333 51:0.16666667 56:0.16666667 57:0.14285714 59:0.2 
4 0:0.40577622 1:0.51973724 2:0.34381522 3:0.15144045 4:0.40364695 5:0.11956761 6:0.46933055 7:0.51637346 8:0.8340381 9:0.44989828 10:0.58425997 11:0.45588852 12:0.082410907 13:0.094345467 14:0.40143755 15:0.50211726 16:0.62673689 17:0.66202533 18:0.63976945 19:0.45555555 20:0.066666656 21:0.30158731 22:0.21971831 23:0.49792532 24:0.55465588 25:0.91954022 26:0.25555555 27:0.57165902 28:0.70559775 29:0.37324282 30:0.36185481 31:0.38757396 32:0.51479289 33:0.53980733 34:0.15789474 35:0.1561999 36:0.13333333 38:0.2 39:0.16666667 40:0.125 43:0.16666667 45:0.11111111 46:0.16666667 47:0.14285714 48:0.25 49:0.25 52:0.14285714 57:0.14285714 
4 0:0.76248973 1:0.68546421 2:0.34381522 3:0.15144045 4:0.40364695 5:0.20483834 6:0.52544626 7:0.65833107 8:0.66807619 9:0.69446885 10:0.54770121 11:0.68566638 13:0.60317404 14:0.16953349 15:0.48208044 16:0.40614662 17:0.78860761 18:0.74305476 19:0.45555555 20:0.066666656 21:0.30158731 22:0.25352113 23:0.58921163 24:0.65587045 25:1 26:0.22222222 27:0.22321279 28:0.82776515 29:0.043088607 30:0.82831641 31:0.30473372 32:0.44082839 33:0.46298364 34:0.36842105 35:0.43988458 36:0.2 37:0.1 38:0.45 39:0.5 40:0.1875 42:0.16666667 43:0.083333333 45:0.11111111 47:0.42857143 48:0.25 49:0.375 52:0.28571429 53:0.16666667 56:0.33333333 57:0.14285714 59:0.2 
-0.6959958677729098 0:0.66057215 1:0.83597675 2:0.34381522 3:0.15144045 4:0.048042203 5:0.13674297 6:0.96090508 7:0.86236069 8:1 9:0.59183061 10:0.33030549 11:0.82078865 12:0.55489167 13:0.7446007 14:0.089560587 15:0.20670201 16:0.45091883 17:0.73924052 18:0.76284638 19:0.45555555 20:0.066666656 22:0.10704226 23:0.64730292 24:0.62348179 25:0.88505744 26:0.17777777 27:0.11026174 28:0.90951908 29:0.66799429 30:0.83243469 31:0.13609468 32:0.25147928 33:0.36644968 34:0.18421053 35:0.20361093 36:0.2 37:0.1 38:0.25 39:0.33333333 43:0.083333333 45:0.22222222 48:0.25 49:0.625 50:0.33333333 53:0.33333333 57:0.14285714 
4 0:0.59896427 1:0.52301597 2:0.34381522 3:0.15144045 4:0.09459804 5:0.3852591 6:0.78087242 7:0.54678092 8:1 9:0.65563026 10:0.43676158 11:0.68399834 12:0.091636101 13:0.43519424 14:0.059122219 15:0.17781381 16:0.086204197 17:0.43417722 18:0.36508852 19:0.45555555 20:0.066666656 21:0.14285715 22:0.4028169 23:0.69294607 24:0.27530366 25:0.88505744 26:0.22222222 27:0.23969385 28:0.63528491 29:0.11301186 30:0.4955302 31:0.091715977 32:0.47337277 33:0.24684461 34:0.39473684 35:0.41724111 36:0.53333333 37:0.4 38:0.35 39:0.41666667 40:0.1875 42:0.33333333 43:0.25 45:0.11111111 47:0.14285714 48:0.25 49:0.25 51:0.16666667 53:0.33333333 56:0.33333333 57:0.14285714 58:0.33333333 59:0.2 
4 0:0.26543 1:0.23553992 2:0.34381522 3:0.15144045 4:0.087063176 5:0.032046858 6:0.25442313 7:0.31814443 8:0.37427287 9:0.51369793 10:0.26754753 11:0.35554579 12:0.071741062 13:0.38802255 14:0.16540906 15:0.4974988 16:0.15941838 17:0.38481013 18:0.33444431 19:0.45555555 20:0.066666656 22:0.050704225 23:0.46887967 24:0.28744941 25:0.68965517 26:0.22222222 27:0.15874154 28:0.50997851 29:0.082412741 30:0.4292956 31:0.0088757409 32:0.6005917 33:0.25996695 34:0.44736842 35:0.37556108 36:0.46666667 37:0.2 38:0.3 39:0.33333333 40:0.25 42:0.16666667 43:0.083333333 44:0.25 45:0.44444444 46:0.16666667 47:0.14285714 48:0.25 51:0.5 52:0.14285714 53:0.33333333 56:0.16666667 57:0.14285714 59:0.2 
4 0:0.38571432 1:0.39020402 2:0.34381522 3:0.23010938 5:0.0069369225 6:0.50422695 7:0.44002583 8:0.55536012 9:0.56186392 10:0.47618952 11:0.4886428 12:0.26192156 13:0.34301422 14:0.03752508 15:0.098989472 16:0.094434178 17:0.53417723 18:0.44963554 19:0.45555555 23:0.69294608 24:0.3846154 25:0.8045977 26:0.22222222 27:0.37245543 28:0.69561926 29:0.272215 30:0.50042985 31:0.0059171603 32:0.23964495 33:0.074207954 34:0.28947368 35:0.27047932 36:0.2 37:0.1 38:0.2 39:0.33333333 40:0.125 43:0.083333333 44:0.25 45:0.11111111 47:0.28571429 51:0.16666667 52:0.14285714 53:0.16666667 54:0.33333333 55:0.375 56:0.33333333 58:0.33333333 
-4 0:0.24476712 1:0.22291559 2:0.34381522 3:0.15144045 4:0.09459804 5:0.064093716 6:0.22133348 7:0.38490221 8:0.18334764 9:0.36397025 10:0.34687133 11:0.42119282 12:0.081736083 13:0.35712735 14:0.0072509714 15:0.22383845 16:0.10446552 17:0.45569621 18:0.39496987 19:0.45555555 20:0.066666656 21:0.14285715 22:0.10140845 23:0.34854772 24:0.29959515 25:0.65517239 26:0.22222222 27:0.13481073 28:0.72323452 29:0.17664728 30:0.45797068 31:0.047337272 32:0.41715975 33:0.23642383 34:0.42105263 35:0.34153575 36:0.4 37:0.1 38:0.35 39:0.33333333 40:0.4375 43:0.083333333 44:0.25 45:0.22222222 46:0.16666667 48:0.25 51:0.16666667 52:0.14285714 53:0.66666667 55:0.25 57:0.14285714 
4 0:0.52308971 1:0.45947471 2:0.34381522 3:0.23010938 4:0.35246489 5:0.098950709 6:0.46062672 7:0.57240096 8:0.52902532 9:0.58067092 10:0.46680411 11:0.5408388 12:0.055119245 13:0.40452131 14:0.085566808 15:0.58381778 16:0.25433926 17:0.57468355 18:0.51132153 19:0.45555555 21:0.35714287 22:0.12676057 23:0.6846473 24:0.35627531 25:0.93103444 26:0.17777777 27:0.21378609 28:0.71985342 29:0.41668496 30:0.74265517 31:0.071005918 32:0.52366863 33:0.41891558 34:0.39473684 35:0.42245111 36:0.4 37:0.2 38:0.4 39:0.33333333 40:0.125 42:0.16666667 43:0.083333333 44:0.25 45:0.22222222 47:0.14285714 48:0.25 49:0.125 51:0.16666667 53:0.33333333 54:0.33333333 55:0.125 56:0.16666667 57:0.42857143 58:0.33333333 59:0.2 
4 0:0.63704136 1:0.53649387 2:0.34381522 3:0.23010938 4:0.09459804 5:0.28384701 6:0.66176017 7:0.50871766 8:1 9:0.66738523 10:0.49814584 11:0.67889681 12:0.10181911 13:0.45021734 14:0.02245655 15:0.31058445 16:0.14803888 17:0.76835444 18:0.7055803 19:0.45555555 21:0.14285715 22:0.27605634 23:0.68049793 24:0.63967612 25:0.93103444 26:0.22222222 27:0.043374164 28:0.93980729 29:0.24605763 30:0.88430092 31:0.020710052 32:0.3934911 33:0.36894707 34:0.42105263 35:0.42325265 36:0.33333333 37:0.2 38:0.45 39:0.41666667 40:0.1875 41:0.25 42:0.33333333 43:0.16666667 45:0.33333333 47:0.14285714 49:0.25 53:0.16666667 54:0.33333333 56:0.33333333 57:0.57142857 
-2.162957302437819 0:0.31536875 1:0.36898353 2:0.34381522 3:0.15144045 4:0.10027439 5:0.19109934 6:0.3873198 7:0.46907105 8:0.47715096 9:0.55405535 10:0.49697222 11:0.40733664 12:0.20545716 13:0.30585928 14:0.185791 15:0.19053046 16:0.14196386 17:0.51392406 18:0.38403901 19:0.45555555 20:0.066666656 22:0.1971831 23:0.65145229 24:0.032388672 25:0.96551722 26:0.17777777 27:0.41945407 28:0.47400192 29:0.3949863 30:0.51396238 31:0.0088757356 32:0.050295828 33:0.27001861 34:0.18421053 35:0.18637785 36:0.33333333 37:0.4 38:0.1 39:0.083333333 42:0.33333333 43:0.16666667 44:0.25 45:0.11111111 47:0.14285714 48:0.5 56:0.33333333 57:0.28571429 
-4 0:0.52399143 1:0.43324361 2:0.34381522 3:0.23010938 4:0.09459804 5:0.30051883 6:0.49569794 7:0.42923627 8:0.45885986 9:0.68619919 10:0.41729319 11:0.49717525 12:0.22253086 13:0.36486241 14:0.029238427 15:0.4619212 16:0.25225853 17:0.59240507 18:0.53171282 19:0.45555555 21:0.14285715 22:0.21408451 23:0.59751037 24:0.40080973 25:0.93103444 26:0.22222222 27:0.1267428 28:0.74544466 29:0.45320821 30:0.58127283 31:0.038461538 32:0.38165679 33:0.34402673 34:0.44736842 35:0.39800417 36:0.33333333 37:0.1 38:0.3 39:0.16666667 40:0.125 42:0.33333333 43:0.083333333 45:0.55555556 47:0.14285714 49:0.25 50:0.33333333 51:0.16666667 52:0.14285714 53:0.16666667 54:0.33333333 56:0.5 57:0.28571429 
-4 0:0.46700049 1:0.49456986 2:0.34381522 3:0.15144045 6:0.52169896 7:0.52903835 8:1 9:0.46416128 10:0.32751231 11:0.60521758 12:0.44614197 13:0.6273113 14:0.026897965 15:0.19534452 16:0.31927576 17:0.62278482 18:0.56426514 19:0.45555555 20:0.066666656 23:0.45643155 24:0.57894738 25:0.83908045 26:0.52222221 27:0.29715473 28:0.64220677 29:0.36239711 30:0.57935438 31:0.002958578 32:0.26035502 33:0.11823228 34:0.26315789 35:0.21068452 36:0.066666667 38:0.25 39:0.16666667 40:0.125 45:0.44444444 48:0.25 49:0.375 52:0.14285714 53:0.16666667 55:0.125 56:0.16666667 58:0.33333333 59:0.2 
4 0:0.68060994 1:0.61346536 3:0.15144045 4:0.29208927 5:0.20083668 6:0.79012431 7:0.41987377 8:1 9:0.51369793 10:0.4634864 11:0.8156459 12:0.46475912 13:0.63502923 14:0.029201562 15:0.34376246 16:0.315929 17:0.77594938 18:0.72922191 19:0.14444444 20:0.066666656 21:0.35714287 22:0.20845071 23:0.83402491 24:0.49797572 25:0.88505744 26:0.53333333 27:0.53146996 28:0.83359516 29:0.20267009 30:0.50235294 31:0.088757397 32:0.51183431 33:0.30799365 34:0.36842105 35:0.38976836 36:0.2 38:0.45 39:0.5 40:0.25 42:0.16666667 43:0.083333333 45:0.11111111 46:0.16666667 47:0.14285714 48:0.25 49:0.5 50:0.33333333 51:0.16666667 55:0.125 56:0.33333333 57:0.14285714 
2.111813034597676 3:0.23010938 4:0.18422839 6:0.095579486 8:0.17213819 9:0.34620185 10:0.11933722 11:0.13092256 12:0.18460664 13:0.2129805 14:0.10290653 15:0.38046192 16:0.26732559 17:0.42405064 18:0.32161383 19:0.14444444 21:0.33333333 23:0.26141079 24:0.27935223 25:0.40229883 26:0.38888888 27:0.27270615 28:0.4171542 29:0.060226187 30:0.30813969 31:0.035502967 32:0.3372781 33:0.27030982 34:0.31578947 35:0.31480443 36:0.066666667 38:0.15 39:0.083333333 40:0.0625 44:0.25 45:0.22222222 46:0.5 48:0.25 52:0.57142857 54:0.33333333 55:0.125 56:0.16666667 57:0.28571429 59:0.2 
-4 0:0.66964214 1:0.4741259 3:0.23010938 4:0.49824499 5:0.25462767 6:0.84535019 7:0.2813937 8:1 9:0.32222894 10:0.45387938 11:0.77375991 12:0.091930435 13:0.64902127 14:0.007140908 15:0.37681547 16:0.33455598 17:0.63417722 18:0.56797036 19:0.14444444 21:0.44444446 22:0.34366197 23:0.67634855 24:0.29959515 25:0.88505744 26:0.22222222 27:0.50245552 28:0.81136696 29:0.054289012 30:0.41340027 31:0.020710056 32:0.28698223 33:0.3266038 34:0.57894737 35:0.57618628 36:0.33333333 37:0.1 38:0.5 39:0.5 40:0.1875 42:0.33333333 43:0.083333333 45:0.55555556 46:0.33333333 47:0.14285714 49:0.625 51:0.16666667 52:0.14285714 54:0.66666667 56:0.33333333 57:0.28571429 59:0.2 
-4 0:0.59670856 1:0.52112692 3:0.15144045 4:0.18545924 5:0.17788498 6:0.63980108 7:0.45306863 8:1 9:0.3575944 10:0.35876923 11:0.81713552 12:0.26965367 13:0.58419758 14:0.085730038 15:0.46508092 16:0.31895778 17:0.57341773 18:0.51000412 19:0.14444444 20:0.066666656 22:0.11830986 23:0.65145229 24:0.097166001 25:0.83908045 26:0.066666656 27:0.07209361 28:0.895387 29:0.33418447 30:0.595598 31:0.03254438 32:0.28106507 33:0.22800586 34:0.39473684 35:0.41537752 36:0.4 37:0.4 38:0.4 39:0.41666667 40:0.1875 42:0.16666667 43:0.16666667 44:0.25 45:0.22222222 46:0.16666667 47:0.14285714 48:0.25 49:0.375 51:0.16666667 53:0.16666667 54:0.33333333 56:0.16666667 57:0.14285714 58:0.33333333 
-1.700307276667189 0:0.47505357 1:0.52699035 3:0.15144045 4:0.49973136 5:0.19609835 6:0.55597204 7:0.46915898 8:0.8340381 9:0.59183061 10:0.53080358 11:0.49178585 12:0.14580427 13:0.42641261 14:0.040726918 15:0.41065513 16:0.5697643 17:0.45569621 18:0.32161383 19:0.14444444 20:0.066666656 21:0.30158731 22:0.17746479 23:0.27385893 24:0.032388672 25:0.91954022 26:0.17777777 27:0.34682069 28:0.32256089 29:0.1432527 30:0.26200652 31:0.076923076 32:0.52071005 33:0.45739706 34:0.23684211 35:0.26829512 36:0.4 37:0.4 38:0.2 39:0.16666667 40:0.0625 43:0.33333333 46:0.16666667 47:0.14285714 48:0.5 49:0.375 53:0.16666667 55:0.125 58:0.33333333 
-2.926825900925334 0:0.40521334 1:0.59271721 3:0.23010938 4:0.40364695 5:0.4102289 6:0.73110486 7:0.66664476 8:0.47097468 9:0.60846516 10:0.64713866 11:0.4710777 12:0.36612869 13:0.26568944 14:0.45567934 15:0.43538151 16:0.76023756 17:0.57088609 18:0.45809798 19:0.14444444 21:0.30158731 22:0.32112677 23:0.45643155 24:0.63967612 25:0.31034482 26:0.22222222 27:0.51575147 28:0.60856062 29:0.45294039 30:0.373739 31:0.37869823 32:0.37869821 33:0.92062901 34:0.10526316 35:0.10965053 36:0.2 37:0.1 38:0.1 42:0.16666667 43:0.083333333 46:0.16666667 49:0.375 53:0.16666667 54:0.33333333 55:0.125 57:0.14285714 
4 0:0.4192453 1:0.40961377 3:0.15144045 5:0.1287573 6:0.45966028 7:0.47637078 8:0.72132203 9:0.34620185 10:0.32938694 11:0.61344399 12:0.55394077 13:0.61798325 14:0.011134258 15:0.32925701 16:0.3686035 17:0.65443039 18:0.60134486 19:0.14444444 20:0.066666656 22:0.1971831 23:0.4439834 24:0.68421054 25:0.72413792 26:0.52222221 27:0.43445397 28:0.76105231 29:0.30695148 30:0.59320267 31:0.059171601 32:0.55029584 33:0.46474469 34:0.31578947 35:0.35333841 36:0.13333333 38:0.3 39:0.25 42:0.16666667 44:0.25 45:0.11111111 46:0.33333333 47:0.14285714 48:0.25 49:0.25 50:0.33333333 53:0.16666667 55:0.25 56:0.33333333 57:0.28571429 59:0.2 
4 0:0.30651448 1:0.34221132 2:0.83688112 3:0.15144045 4:0.16375152 5:0.42791053 6:0.43122017 7:0.27907307 8:0.47097468 9:0.32222894 10:0.26359795 11:0.34513727 12:0.22582793 13:0.209152 14:0.35242759 15:0.53098905 16:0.27004648 17:0.4772152 18:0.33874022 19:1 20:0.066666656 21:0.33333333 22:0.45915493 23:0.082987557 24:0.34412957 25:0.20689655 26:0.22222222 27:0.2773442 28:0.43620218 29:0.14099848 30:0.40904275 31:0.59763314 32:0.62721893 33:0.59276011 34:0.21052632 35:0.18517553 36:0.33333333 37:0.2 38:0.1 42:0.16666667 43:0.16666667 44:0.25 45:0.22222222 46:0.16666667 47:0.14285714 48:0.25 49:0.125 51:0.33333333 56:0.16666667 57:0.14285714 
-4 0:0.58502679 1:0.39474526 2:0.83688112 3:0.15144045 4:0.16375152 5:0.2774824 6:0.32618941 7:0.4073057 8:0.55536012 9:0.34620185 10:0.35487443 11:0.55196441 12:0.092104642 13:0.47875615 14:0.017241876 15:0.46660141 16:0.21479813 17:0.52531646 18:0.48969043 19:1 20:0.066666656 21:0.33333333 22:0.34366197 23:0.60580914 24:0.34412957 25:0.8045977 26:0.22222222 27:0.26389765 28:0.7962615 29:0.1069792 30:0.65489395 31:0.026627225 32:0.46153844 33:0.41587073 34:0.65789474 35:0.69234931 36:0.6 37:0.3 38:0.5 39:0.25 40:0.125 42:0.16666667 43:0.25 44:0.5 45:0.33333333 46:0.16666667 47:0.28571429 48:0.25 49:0.125 51:0.33333333 52:0.14285714 53:0.5 55:0.375 56:0.16666667 57:0.57142857 59:0.2 
4 0:0.5332671 1:0.56740713 2:0.83688112 3:0.15144045 5:0.18421625 6:0.59220504 7:0.46160809 8:0.64311287 9:0.46416128 10:0.46296582 11:0.5708374 12:0.26395381 13:0.46092938 14:0.090239678 15:0.22740232 16:0.20171298 17:0.71518988 18:0.69048991 19:1 20:0.066666656 22:0.24507042 23:0.70954357 24:0.63562754 25:0.96551722 26:0.22222222 27:0.25851903 28:0.90891135 29:0.51435215 30:0.72754471 31:0.097633142 32:0.2928994 33:0.40054486 34:0.26315789 35:0.27983729 36:0.26666667 37:0.1 38:0.25 39:0.25 42:0.33333333 43:0.083333333 44:0.25 45:0.22222222 47:0.28571429 48:0.25 49:0.125 53:0.16666667 55:0.125 56:0.16666667 57:0.42857143 
2.186646878953653 0:0.15151817 1:0.14803727 2:0.83688112 3:0.15144045 4:0.087063176 6:0.29311677 7:0.084215725 8:0.37769231 9:0.32222894 11:0.44961063 12:0.33260364 13:0.77275095 14:0.037064502 15:0.50639924 16:0.58286142 17:0.4050633 18:0.29855908 19:1 20:0.066666656 23:0.19917012 24:0.32388665 25:0.43678161 26:0.25555555 27:0.079938761 28:0.5358581 29:0.27056957 30:0.55171783 31:0.0029585744 32:0.42899407 33:0.52919359 34:0.31578947 35:0.31514507 36:0.33333333 38:0.2 42:0.16666667 44:0.25 45:0.22222222 46:0.66666667 47:0.28571429 48:0.25 49:0.125 51:0.5 53:0.16666667 57:0.14285714 59:0.2 
4 0:0.44148587 1:0.57207117 2:0.83688112 3:0.15144045 6:0.54199266 7:0.49104571 8:0.8340381 9:0.48916675 10:0.67459119 11:0.36600535 12:0.33218023 13:0.29561214 14:0.065185411 15:0.12375144 16:0.35506496 17:0.67468356 18:0.66282421 19:1 20:0.066666656 23:0.53112035 24:0.61943321 25:0.91954022 26:0.38888888 27:0.68868013 28:0.46768777 29:0.23704687 30:0.22377252 31:0.32248521 32:0.34023667 33:0.50998921 34:0.15789474 35:0.17944453 36:0.13333333 38:0.15 39:0.083333333 44:0.25 45:0.11111111 47:0.42857143 48:0.25 49:0.125 52:0.28571429 53:0.33333333 55:0.125 
-4 0:0.38387746 1:0.40320478 2:0.83688112 3:0.23010938 4:0.039898759 5:0.096140573 6:0.4755118 7:0.42898995 8:0.66807619 9:0.65440066 10:0.3381388 11:0.37566468 12:0.14303843 13:0.19800756 14:0.017599138 15:0.12466827 16:0.0060805662 17:0.58860761 18:0.51757926 19:1 22:0.15211268 23:0.5394191 24:0.47773281 25:1 26:0.11111111 27:0.2831904 28:0.61349966 29:0.34212551 30:0.39990289 31:0.01183432 32:0.19526626 33:0.10793849 34:0.26315789 35:0.22895961 36:0.2 37:0.1 38:0.25 39:0.33333333 40:0.3125 42:0.16666667 43:0.083333333 45:0.11111111 47:0.28571429 51:0.16666667 52:0.28571429 54:0.33333333 56:0.33333333 
-0.4266142462900496 0:0.56340474 1:0.63057607 2:0.83688112 3:0.15144045 4:0.020476868 5:0.25492436 6:0.59864565 7:0.48769082 8:0.66807619 9:0.55405535 10:0.40490582 11:0.77536361 12:0.55005752 13:0.58176198 14:0.096883827 15:0.336079 16:0.17815006 17:0.70000001 18:0.67757926 19:1 20:0.066666656 22:0.34929578 23:0.6514523 24:0.53441296 25:1 26:0.43333333 27:0.34756127 28:0.96600626 29:0.5023572 30:0.7610988 31:0.068047339 32:0.28402365 33:0.38572315 34:0.23684211 35:0.27609009 36:0.2 38:0.3 39:0.33333333 40:0.0625 43:0.25 45:0.11111111 47:0.42857143 48:0.25 49:0.125 50:0.33333333 52:0.14285714 56:0.16666667 57:0.14285714 59:0.2 
-4 0:0.43757157 1:0.5663346 2:0.83688112 3:0.23010938 5:0.43703389 6:0.38782861 7:0.621085 8:0.66807619 9:0.53789102 10:0.40729598 11:0.53141186 12:0.47269199 13:0.35805859 14:0.031443791 15:0.12025906 16:0.15308059 17:0.5772152 18:0.4853026 19:1 22:0.3915493 23:0.30705395 24:0.42914981 25:1 26:0.22222222 27:0.1689088 28:0.63056481 29:0.53680739 30:0.47748672 31:0.29585799 32:0.29585797 33:0.40883281 34:0.15789474 35:0.10516191 36:0.26666667 37:0.1 38:0.15 39:0.16666667 40:0.125 42:0.16666667 43:0.25 45:0.22222222 47:0.28571429 49:0.125 54:0.33333333 
4 0:0.71431859 1:0.61961959 2:0.83688112 3:0.23010938 4:0.16375152 5:0.42573455 6:0.50308876 7:0.53417918 8:0.66807619 9:0.66946337 10:0.4515383 11:0.60513717 12:0.3252343 13:0.49861986 14:0.0042904372 15:0.3395575 16:0.12095739 17:0.7886076 18:0.7339646 19:1 21:0.33333333 22:0.55774648 23:0.59751037 24:0.46558706 25:1 26:0.43333333 27:0.30556786 28:0.82786558 29:0.45644164 30:0.67377202 31:0.068047339 32:0.56804733 33:0.4141468 34:0.39473684 35:0.41481645 36:0.33333333 38:0.5 39:0.5 40:0.25 42:0.5 43:0.16666667 44:0.5 45:0.22222222 47:0.28571429 49:0.125 52:0.14285714 54:0.33333333 57:0.42857143 
-4 0:0.59047165 1:0.53420461 2:0.83688112 3:0.15144045 4:0.29208927 5:0.23569367 6:0.67584423 7:0.37027857 8:0.8340381 9:0.34723442 10:0.47905231 11:0.54791398 12:0.11942482 13:0.43958808 14:0.014436787 15:0.44312965 16:0.29571562 17:0.59873419 18:0.53556197 19:1 20:0.066666656 21:0.35714287 22:0.23380282 23:0.62655603 24:0.39271256 25:1 26:0.22222222 27:0.21280074 28:0.56282446 29:0.17874441 30:0.47419434 31:0.01183432 32:0.38757395 33:0.36141802 34:0.36842105 35:0.42615822 36:0.4 37:0.2 38:0.3 39:0.33333333 42:0.33333333 44:0.25 45:0.11111111 46:0.16666667 47:0.57142857 48:0.25 49:0.25 50:0.33333333 51:0.66666667 52:0.14285714 56:0.33333333 
4 0:0.49861214 1:0.65579199 2:0.83688112 3:0.23010938 4:0.16375152 5:0.22171114 6:0.53116853 7:0.66805834 8:0.64311287 9:0.79610013 10:0.50379682 11:0.52963803 12:0.3371181 13:0.4821492 14:0.090083931 15:0.17632209 16:0.22240968 17:0.69746836 18:0.70432277 19:1 21:0.33333333 22:0.22535211 23:0.44813278 24:0.70445345 25:0.88505744 26:0.46666667 27:0.43216005 28:0.81932142 29:0.72959799 30:0.8829326 31:0.18639053 32:0.18639051 33:0.70328987 34:0.15789474 35:0.19832077 36:0.2 38:0.25 39:0.25 42:0.16666667 43:0.083333333 44:0.25 47:0.14285714 49:0.125 51:0.16666667 54:0.33333333 55:0.125 57:0.42857143 59:0.2 
1.839340375665641 0:0.646455 1:0.56278714 2:0.83688112 3:0.23010938 4:0.40364695 5:0.13790933 6:0.51869282 7:0.39062112 8:0.8340381 9:0.34620185 10:0.34498887 11:0.58130851 12:0.024866583 13:0.55477978 14:0.073511802 15:0.27003069 16:0.287587 17:0.78354432 18:0.72869494 19:1 21:0.30158731 22:0.18028169 23:0.51452283 24:0.57085021 25:0.91954022 26:0.46666666 27:0.28346341 28:0.73066367 29:0.08788982 30:0.57240063 31:0.005917163 32:0.36390532 33:0.42762556 34:0.39473684 35:0.4564564 36:0.2 38:0.5 39:0.41666667 40:0.25 43:0.083333333 46:0.16666667 47:0.42857143 49:0.25 50:0.66666667 51:0.16666667 52:0.28571429 53:0.16666667 54:0.33333333 55:0.125 56:0.16666667 57:0.14285714 
-3.064215357382698 0:0.51489265 1:0.52383883 2:0.83688112 3:0.15144045 4:0.048042203 5:0.094091531 6:0.40654656 7:0.53808582 8:0.52902532 9:0.59183061 10:0.47014723 11:0.55723881 12:0.25145245 13:0.6270827 14:0.0047563941 15:0.24640463 16:0.29622602 17:0.58987343 18:0.52124089 19:1 20:0.066666656 22:0.050704225 23:0.46887967 24:0.46153847 25:0.65517239 26:0.17777777 27:0.42584627 28:0.6875 29:0.1815901 30:0.66105395 31:0.0029585727 32:0.11242602 33:0.26234263 34:0.28947368 35:0.29799215 36:0.26666667 37:0.3 38:0.3 39:0.25 40:0.1875 43:0.25 45:0.11111111 47:0.14285714 48:0.25 49:0.25 52:0.28571429 53:0.16666667 55:0.125 57:0.14285714 59:0.2 
4 0:0.56223648 1:0.52829722 2:0.83688112 3:0.23010938 4:0.40364695 5:0.21400012 6:0.4487433 7:0.55181029 8:0.57058725 9:0.7101721 10:0.45879437 11:0.42263213 12:0.26412911 13:0.44451722 14:0.022241799 15:0.2011399 16:0.18932292 17:0.55822786 18:0.48809344 19:1 21:0.30158731 22:0.39154929 23:0.4273859 24:0.37246965 25:0.68965517 26:0.51111111 27:0.25851902 28:0.64990114 29:0.35755146 30:0.61821323 31:0.21597633 32:0.6449704 33:0.45603509 34:0.34210526 35:0.35975072 36:0.4 38:0.35 39:0.25 40:0.1875 42:0.16666667 43:0.16666667 47:0.28571429 49:0.125 50:0.33333333 51:0.16666667 53:0.33333333 54:0.33333333 55:0.25 56:0.16666667 57:0.14285714 58:0.33333333 
-0.2890478381006485 0:0.62165619 1:0.60737458 2:0.83688112 3:0.15144045 5:0.37937356 6:0.92536752 7:0.45336235 8:1 9:0.50590258 10:0.43679511 11:0.81407513 12:0.56699831 13:0.68151417 14:0.0022557647 15:0.33724297 16:0.20912386 17:0.60000001 18:0.53525457 19:1 20:0.066666656 22:0.34084508 23:0.67634856 24:0.27125507 25:0.91954022 26:0.17777777 27:0.2437137 28:0.90731223 29:0.62919008 30:0.76081876 31:0.02662721 32:0.44970413 33:0.36351166 34:0.31578947 35:0.33869029 36:0.4 37:0.2 38:0.25 39:0.25 40:0.0625 42:0.33333333 43:0.083333333 45:0.11111111 47:0.28571429 48:0.25 49:0.375 51:0.33333333 53:0.16666667 55:0.125 56:0.33333333 57:0.14285714 
4 0:0.15070771 1:0.1459242 2:0.83688112 3:0.23010938 4:0.18422839 6:0.13453225 7:0.14882955 8:0.26400444 9:0.32222894 10:0.38978535 11:0.1194125 12:0.31151085 13:0.221589 14:0.091361016 15:0.17754305 16:0.15494168 17:0.53164558 18:0.40230548 19:1 21:0.33333333 23:0.32365145 24:0.22267207 25:0.65517239 26:0.32222222 27:0.51306216 28:0.36718205 29:0.15620858 30:0.28721116 31:0.11242604 32:0.11242602 33:0.29291674 34:0.15789474 35:0.10590333 36:0.13333333 38:0.1 39:0.083333333 40:0.125 45:0.22222222 46:0.16666667 47:0.14285714 51:0.16666667 52:0.14285714 54:0.66666667 56:0.16666667 57:0.14285714 
4 0:0.44680971 1:0.54679765 2:0.83688112 3:0.15144045 4:0.048042203 5:0.11830169 6:0.45357864 7:0.52647934 8:0.64311287 9:0.59183061 10:0.41975319 11:0.52529298 12:0.44479421 13:0.44521185 14:0.14724697 15:0.40588312 16:0.16355205 17:0.51898735 18:0.39255155 19:1 20:0.066666656 22:0.11830986 23:0.38174275 24:0.13765183 25:0.88505744 26:0.17777777 27:0.21756119 28:0.4256752 29:0.36481168 30:0.42658512 31:0.050295856 32:0.1153846 33:0.11520687 34:0.18421053 35:0.237496 36:0.2 37:0.2 38:0.2 39:0.16666667 43:0.16666667 47:0.14285714 48:0.25 49:0.125 53:0.16666667 56:0.5 57:0.14285714 58:0.33333333 59:0.4 
-4 0:0.56167389 1:0.59863059 2:0.83688112 3:0.23010938 4:0.020476868 5:0.13674297 6:0.4959929 7:0.59416884 8:0.54023477 9:0.62778509 10:0.47727879 11:0.69437346 12:0.03682864 13:0.48145362 14:0.032400827 15:0.3468604 16:0.26357947 17:0.66329115 18:0.61959654 19:1 22:0.10704226 23:0.51867221 24:0.41700406 25:0.96551722 26:0.22222222 27:0.37817924 28:0.88411068 29:0.24685917 30:0.65438184 31:0.19822484 32:0.43195265 33:0.3914408 34:0.26315789 35:0.29330314 36:0.33333333 37:0.2 38:0.3 39:0.33333333 40:0.0625 42:0.16666667 44:0.25 45:0.11111111 47:0.14285714 49:0.25 50:0.33333333 51:0.33333333 53:0.33333333 54:0.33333333 56:0.16666667 57:0.28571429 
3.532684388624851 0:0.58712244 1:0.65838346 2:0.83688112 3:0.15144045 6:0.53081722 7:0.54585811 8:0.64311287 9:0.46416128 10:0.46437438 11:0.59546419 12:0.15533686 13:0.48011881 14:0.076430124 15:0.41053947 16:0.29252933 17:0.81265824 18:0.84172911 19:1 20:0.066666656 23:0.68464731 24:0.56275304 25:0.96551722 26:0.52222221 27:0.57422594 28:0.76959646 29:0.21148085 30:0.47840884 31:0.062130185 32:0.33136094 33:0.27511322 34:0.23684211 35:0.28630971 36:0.066666667 38:0.35 39:0.41666667 40:0.0625 44:0.5 45:0.11111111 47:0.14285714 48:0.25 49:0.25 51:0.16666667 52:0.14285714 55:0.125 56:0.16666667 57:0.28571429 59:0.2 
-4 0:0.42996703 1:0.55518985 2:0.15144045 3:0.15144045 4:0.61996977 5:0.21002637 6:0.50683934 7:0.63389301 8:0.64311287 9:0.75935744 10:0.58478099 11:0.58272874 12:0.33987391 13:0.27282629 14:0.17720815 15:0.35808671 16:0.44730605 17:0.57341773 18:0.47838616 19:0.066666656 20:0.066666656 21:0.52380954 22:0.1859155 23:0.39834025 24:0.51821863 25:0.88505744 26:0.22222222 27:0.39263937 28:0.48934944 29:0.34310781 30:0.30544708 31:0.062130177 32:0.2928994 33:0.46423892 34:0.15789474 35:0.20058512 36:0.26666667 37:0.1 38:0.15 39:0.16666667 42:0.16666667 43:0.083333333 44:0.5 48:0.5 49:0.25 52:0.14285714 53:0.16666667 56:0.16666667 57:0.14285714 
-3.359565998902012 0:0.80610564 1:0.46011969 2:0.15144045 3:0.23010938 5:0.37154947 6:0.40164905 7:0.50940583 8:0.64311287 9:0.46416128 10:0.30724106 11:0.47973932 12:0.067779329 13:0.38177423 14:0.0011996171 15:0.52253177 16:0.27390167 17:0.66962026 18:0.58506114 19:0.066666656 22:0.31549296 23:0.51037345 24:0.45748989 25:0.88505744 26:0.22222222 27:0.31284502 28:0.65850962 29:0.10075587 30:0.50114714 31:0.0029585806 32:0.48816567 33:0.3682994 34:0.81578947 35:0.90958642 36:0.4 37:0.1 38:0.7 39:0.41666667 40:0.375 42:0.66666667 44:0.25 45:0.11111111 46:0.16666667 47:0.28571429 48:0.25 49:0.375 52:0.42857143 53:0.16666667 54:0.33333333 55:0.375 56:1 57:0.42857143 59:0.2 
-4 0:0.53106754 1:0.54057173 2:0.15144045 3:0.15144045 4:0.29208927 5:0.37243664 6:0.61462205 7:0.56212581 8:0.54023477 9:0.48036202 10:0.45293211 11:0.57955667 12:0.32231769 13:0.55779678 14:0.087852579 15:0.41408417 16:0.33373591 17:0.62531646 18:0.56680793 19:0.066666656 20:0.066666656 21:0.35714287 22:0.34084508 23:0.68879669 24:0.46963563 25:0.96551722 26:0.17777777 27:0.39525027 28:0.73965584 29:0.62110361 30:0.74006403 31:0.0088757488 32:0.29881656 33:0.63163382 34:0.28947368 35:0.33832959 36:0.4 37:0.2 38:0.3 39:0.25 40:0.125 42:0.16666667 43:0.083333333 47:0.28571429 48:0.5 49:0.25 51:0.16666667 52:0.14285714 53:0.33333333 55:0.125 57:0.28571429 
-1.981225082931989 0:0.34109975 1:0.42495131 2:0.15144045 3:0.15144045 4:0.40364695 5:0.13099757 6:0.46886076 7:0.53497524 8:0.54023477 9:0.46416128 10:0.50190282 11:0.53370194 12:0.37056567 13:0.30556329 14:0.42173802 15:0.59187001 16:0.36795313 17:0.54303799 18:0.42305476 19:0.066666656 20:0.066666656 21:0.30158731 22:0.17746479 23:0.40248964 24:0.48178139 25:0.60919539 26:0.22222222 27:0.54007767 28:0.51676384 29:0.22703002 30:0.21586407 31:0.16272189 32:0.39349112 33:0.47127387 34:0.15789474 35:0.13858609 36:0.26666667 37:0.1 38:0.1 39:0.083333333 40:0.0625 43:0.16666667 45:0.11111111 47:0.28571429 48:0.5 49:0.125 53:0.16666667 55:0.125 56:0.16666667 
0.9623293818600854 0:0.52380791 1:0.374507 2:0.15144045 3:0.15144045 4:0.73563498 5:0.2140079 6:0.32847299 7:0.37027857 8:0.47715096 9:0.48916675 10:0.19729664 11:0.47992058 12:0.060104632 13:0.57748918 14:0.0043992796 15:0.3832764 16:0.40677 17:0.48734177 18:0.4567624 19:0.066666656 20:0.066666656 21:0.65873018 22:0.24507042 23:0.47717843 24:0.27125507 25:0.96551722 26:0.17777777 27:0.33381973 28:0.59942681 29:0.16103132 30:0.57189512 31:0.0059171568 32:0.40236685 33:0.55340556 34:0.60526316 35:0.69100673 36:0.66666667 37:0.4 38:0.4 39:0.16666667 42:0.33333333 43:0.16666667 44:0.25 45:0.22222222 46:0.16666667 47:0.57142857 48:0.75 49:0.125 50:0.33333333 51:0.66666667 52:0.28571429 55:0.125 56:0.33333333 57:0.42857143 
4 0:0.17224856 1:0.16131077 2:0.15144045 3:0.23010938 5:0.0069369225 6:0.22493604 7:0.10318492 8:0.37427287 9:0.34723442 10:0.10214345 11:0.38801552 12:0.16610523 13:0.40611933 14:0.13127054 15:0.60770566 16:0.26605674 17:0.35189873 18:0.35468548 19:0.066666656 23:0.54356847 24:0.14979758 25:0.68965517 26:0.22222222 27:0.15462126 28:0.67047096 29:0.047685809 30:0.52958803 31:0.0029585788 32:0.62130176 33:0.29112826 34:0.60526316 35:0.63359651 36:0.46666667 37:0.2 38:0.35 39:0.25 40:0.125 42:0.33333333 44:0.25 45:0.11111111 46:0.5 47:0.14285714 48:0.25 50:0.66666667 51:0.5 52:0.42857143 53:0.16666667 54:0.33333333 55:0.375 56:0.33333333 57:0.42857143 
-4 0:0.47689209 1:0.50544226 2:0.15144045 3:0.15144045 5:0.32141136 6:0.53487976 7:0.51278489 8:0.54023477 9:0.50590258 10:0.60642322 11:0.53546164 12:0.12580479 13:0.29814705 14:0.024633236 15:0.35229296 16:0.39124462 17:0.40379747 18:0.26512968 19:0.066666656 20:0.066666656 22:0.32676056 23:0.2614108 24:0.26315791 25:0.60919539 26:0.17777777 27:0.23969385 28:0.5440366 29:0.41623934 30:0.64394142 31:0.014792892 32:0.63313609 33:0.6747707 34:0.26315789 35:0.28218179 36:0.6 37:0.4 38:0.2 39:0.083333333 40:0.125 43:0.33333333 48:0.5 49:0.375 51:0.33333333 53:0.33333333 57:0.14285714 
2.705810830446934 0:0.32087177 1:0.34622269 2:0.15144045 3:0.23010938 4:0.10754004 5:0.19340838 6:0.26766271 7:0.54988398 8:0.29289796 9:0.55405535 10:0.41606319 11:0.35553019 12:0.14251246 13:0.21194631 14:0.16643809 15:0.24932064 16:0.088922354 17:0.45822786 18:0.3253026 19:0.066666656 22:0.29577465 23:0.31120332 24:0.42510123 25:0.65517239 26:0.22222222 27:0.33887515 28:0.39287882 29:0.13386128 30:0.26153667 31:0.25147929 32:0.41420118 33:0.41610686 34:0.23684211 35:0.23597307 36:0.33333333 37:0.1 38:0.25 39:0.25 40:0.1875 42:0.16666667 43:0.083333333 47:0.14285714 48:0.25 51:0.33333333 54:0.33333333 56:0.33333333 57:0.14285714 59:0.4 
-1.541750983754506 0:0.49124325 1:0.57426335 2:0.15144045 3:0.23010938 4:0.16375152 5:0.62947866 6:0.80261311 7:0.43919066 8:0.52902532 9:0.57963232 10:0.59826429 11:0.61995836 12:0.31018142 13:0.3144853 14:0.36370343 15:0.51542231 16:0.36764919 17:0.48481013 18:0.35059695 19:0.066666656 21:0.33333333 22:0.54647888 23:0.43568466 24:0.34817815 25:0.25287357 26:0.11111111 27:0.289137 28:0.53441865 29:0.39530299 30:0.47463543 31:0.33136094 32:0.65088757 33:0.71261075 34:0.21052632 35:0.20751844 36:0.4 37:0.2 38:0.2 39:0.16666667 40:0.0625 42:0.5 43:0.083333333 45:0.11111111 48:0.25 49:0.375 53:0.16666667 54:0.33333333 57:0.14285714 59:0.2 
-3.201621865294595 0:0.36943567 1:0.42125146 2:0.15144045 3:0.23010938 4:0.21179372 5:0.3450201 6:0.52750887 7:0.41423629 8:0.47097468 9:0.66556035 10:0.38494094 11:0.59275483 12:0.54545674 13:0.51454258 14:0.29375114 15:0.51734628 16:0.33861677 17:0.43417722 18:0.27155208 19:0.066666656 21:0.33333333 22:0.26478874 23:0.3900415 24:0.11740892 25:0.36781607 26:0.11111111 27:0.23969385 28:0.52530797 29:0.35363003 30:0.60884805 31:0.15680473 32:0.55029585 33:0.4178909 34:0.21052632 35:0.18717938 36:0.4 37:0.3 38:0.1 40:0.0625 43:0.33333333 45:0.11111111 48:0.25 49:0.25 51:0.16666667 54:0.33333333 55:0.125 56:0.16666667 57:0.14285714 
0.04235619185549355 0:0.66807853 1:0.44186099 2:0.15144045 3:0.15144045 4:0.27875214 5:0.17048488 6:0.4637834 7:0.47030105 8:0.8340381 9:0.66065863 10:0.33256397 11:0.56133538 12:0.050910866 13:0.56099316 14:0.0048289028 15:0.27106254 16:0.16115239 17:0.66582279 18:0.58875151 19:0.066666656 20:0.066666656 21:0.48412699 22:0.17746479 23:0.53526972 24:0.35222673 25:0.93103444 26:0.22222222 27:0.43842986 28:0.78127962 29:0.21394825 30:0.71805571 31:0.026627213 32:0.45857987 33:0.38091393 34:0.65789474 35:0.70976275 36:0.53333333 37:0.1 38:0.55 39:0.41666667 40:0.25 42:0.33333333 43:0.16666667 45:0.22222222 47:0.42857143 48:0.5 49:0.125 50:0.33333333 51:0.33333333 52:0.14285714 53:0.16666667 55:0.25 56:0.66666667 57:0.57142857 
-4 0:0.97892925 1:0.56468604 2:1 3:0.23010938 4:0.29208927 5:0.64435016 6:0.53333853 7:0.25570304 8:0.54023477 9:0.32222894 10:0.31661386 11:0.58051432 12:0.1432715 13:0.55310772 14:0.011303327 15:0.47141737 16:0.31745087 17:0.69493671 18:0.60275011 19:0.92222222 21:0.35714287 22:0.78028169 23:0.62240665 24:0.42914981 25:0.77011492 26:0.22222222 27:0.17917025 28:0.85153322 29:0.052465999 30:0.75384755 31:0.020710063 32:0.52958579 33:0.51607304 34:0.76315789 35:0.79709041 36:0.73333333 37:0.4 38:0.8 39:0.58333333 40:0.375 41:0.5 42:0.66666667 43:0.25 44:0.25 45:0.22222222 46:0.16666667 47:0.28571429 49:0.625 51:0.16666667 53:0.5 54:0.33333333 55:0.25 57:0.28571429 
4 0:0.61961049 1:0.63216929 2:1 3:0.23010938 4:0.29208927 5:0.12650453 6:0.61721055 7:0.50235856 8:0.64311287 9:0.43873859 10:0.44367705 11:0.59849611 12:0.16077448 13:0.41041168 14:0.082776047 15:0.54354901 16:0.34575544 17:0.84430381 18:0.84834718 19:0.92222222 21:0.35714287 22:0.29014084 23:0.82987553 24:0.49797572 25:0.93103444 26:0.25555555 27:0.25851902 28:0.90951909 29:0.54125681 30:0.74092189 31:0.065088761 32:0.53550296 33:0.42746558 34:0.28947368 35:0.34215694 36:0.2 38:0.45 39:0.58333333 40:0.1875 41:0.25 42:0.33333333 43:0.083333333 46:0.16666667 47:0.28571429 49:0.25 54:0.33333333 56:0.16666667 57:0.42857143 
3.952843793979156 0:0.60072657 1:0.58692579 2:1 3:0.15144045 4:0.17439556 5:0.16878982 6:0.54522476 7:0.43966877 8:0.55536012 9:0.58067092 10:0.54898939 11:0.59275256 12:0.1204237 13:0.32225594 14:0.041557068 15:0.20872747 16:0.25448686 17:0.62405064 18:0.56445726 19:0.92222222 20:0.066666656 21:0.14285715 22:0.15774648 23:0.5394191 24:0.37246964 25:0.8045977 26:0.17777777 27:0.45718283 28:0.71797103 29:0.076174003 30:0.45442503 31:0.03254438 32:0.34319525 33:0.26767364 34:0.31578947 35:0.3438001 36:0.33333333 37:0.3 38:0.4 39:0.5 40:0.1875 42:0.33333333 43:0.083333333 44:0.75 45:0.11111111 47:0.14285714 48:0.5 49:0.25 52:0.14285714 53:0.16666667 59:0.2 
4 0:0.68666414 1:0.64346797 2:1 3:0.23010938 4:0.21632282 5:0.26436002 6:0.50547074 7:0.63228058 8:0.72132203 9:0.69446885 10:0.52482045 11:0.4602047 12:0.08975245 13:0.42662934 14:0.0073473584 15:0.18745534 16:0.15181026 17:0.73037976 18:0.68612165 19:0.92222222 21:0.22222223 22:0.35211268 23:0.53526971 24:0.45748989 25:0.72413792 26:0.22222222 27:0.39113001 28:0.71610669 29:0.1302659 30:0.63143115 31:0.10946746 32:0.35798815 33:0.33692706 34:0.34210526 35:0.39477797 36:0.26666667 37:0.1 38:0.45 39:0.5 40:0.1875 42:0.33333333 43:0.16666667 44:0.75 49:0.25 50:0.33333333 52:0.28571429 54:0.33333333 55:0.125 57:0.28571429 
4 0:0.46865506 1:0.57635017 2:1 3:0.15144045 4:0.048042203 5:0.33464438 6:0.44078089 7:0.50405643 8:1 9:0.44989828 10:0.4059549 11:0.55564873 12:0.3080748 13:0.44312933 14:0.011462864 15:0.25219236 16:0.33373485 17:0.58860761 18:0.50959876 19:0.92222222 20:0.066666656 22:0.36056339 23:0.24481329 24:0.47368422 25:0.83908045 26:0.17777777 27:0.36036765 28:0.69596176 29:0.30590277 30:0.49262815 31:0.22485207 32:0.29585798 33:0.34539783 34:0.18421053 35:0.16423533 36:0.2 37:0.1 38:0.2 39:0.25 40:0.0625 42:0.16666667 43:0.16666667 45:0.22222222 46:0.16666667 47:0.14285714 48:0.25 49:0.375 59:0.2 
4 0:0.51366305 1:0.54585924 2:1 3:0.15144045 4:0.09459804 6:0.5145697 7:0.38603379 8:0.64311287 9:0.65563026 10:0.38355579 11:0.54382117 12:0.12084512 13:0.36219861 14:0.0098478167 15:0.19591088 16:0.21261279 17:0.70759495 18:0.68011528 19:0.92222222 20:0.066666656 21:0.14285715 23:0.57261412 24:0.49797572 25:0.88505744 26:0.43333333 27:0.46453218 28:0.70187416 29:0.40411732 30:0.48114066 31:0.062130175 32:0.31065087 33:0.272036 34:0.26315789 35:0.2415638 36:0.2 38:0.3 39:0.33333333 40:0.125 42:0.16666667 44:0.25 45:0.33333333 47:0.14285714 48:0.25 49:0.25 50:0.33333333 52:0.14285714 53:0.33333333 57:0.14285714 
-0.796139068872765 0:0.66951327 1:0.79820203 2:1 3:0.23010938 4:0.020476868 6:0.68439559 7:0.77583897 8:0.54023477 9:0.62778509 10:0.63070391 11:0.73924188 12:0.21427515 13:0.34702598 14:0.29765096 15:0.67625776 16:0.64388697 17:0.80506331 18:0.85055579 19:0.92222222 23:0.5560166 24:0.84210527 25:0.60919539 26:0.42222222 27:0.77557906 28:0.75113304 29:0.14457272 30:0.19867564 31:0.25739645 32:0.49408282 33:0.31859338 34:0.21052632 35:0.24755531 38:0.25 39:0.16666667 40:0.0625 49:0.625 52:0.14285714 54:0.33333333 55:0.375 56:0.33333333 57:0.14285714 
-0.7348988060373988 0:0.48900389 1:0.518755 2:1 3:0.23010938 4:0.16375152 6:0.43023563 7:0.50961964 8:0.54023477 9:0.82412724 10:0.46849146 11:0.4368453 12:0.24877976 13:0.47616996 14:0.020335451 15:0.23571657 16:0.2458989 17:0.7379747 18:0.72161384 19:0.92222222 21:0.33333333 23:0.45643155 24:0.72064778 25:0.60919539 26:0.81111111 27:0.61537837 28:0.65055004 29:0.25815071 30:0.47685876 31:0.023668638 32:0.46153845 33:0.48115388 34:0.26315789 35:0.25046088 36:0.13333333 38:0.35 39:0.16666667 40:0.25 44:0.5 45:0.22222222 47:0.14285714 49:0.125 51:0.16666667 52:0.28571429 53:0.16666667 54:0.33333333 57:0.14285714 
-4 0:0.52927895 1:0.65836253 2:1 3:0.23010938 4:0.29208927 6:0.72056918 7:0.54039566 8:0.8340381 9:0.7101721 10:0.5016238 11:0.66330399 12:0.72082381 13:0.63281896 14:0.088044189 15:0.30262977 16:0.31503867 17:0.70379748 18:0.70325871 19:0.92222222 21:0.35714287 23:0.70954358 24:0.44129556 25:0.91954022 26:0.52222222 27:0.5933963 28:0.78002299 29:0.50998957 30:0.55521283 31:0.23964497 32:0.56508875 33:0.42608244 34:0.18421053 35:0.1929705 36:0.13333333 38:0.2 39:0.16666667 40:0.0625 44:0.25 45:0.11111111 47:0.28571429 49:0.25 53:0.33333333 54:0.33333333 55:0.125 56:0.33333333 
