svm_type epsilon_svr
kernel_type rbf
gamma 0.0625
nr_class 2
total_sv 560
rho -0.144934
SV
4 0:0.29821331 1:0.51581112 2:0.43917828 3:0.034897907 4:0.0452535 5:0.39145338 6:0.4040304 7:0.60120921 8:0.46564605 9:0.40314848 10:0.31236491 11:0.045645791 12:0.48744084 13:0.47539876 14:0.28886573 15:0.20770289 16:0.32613668 17:0.44710861 18:0.3093516 19:0.69999999 20:0.068965508 22:0.49491526 23:0.35000001 24:0.48251748 25:0.38679245 26:0.092592592 27:0.34832174 28:0.18787737 29:0.55532516 30:0.46550065 31:0.53416149 32:0.49002849 33:0.67798076 34:0.09375 35:0.10608544 36:0.26666667 37:0.14285714 38:0.11111111 39:0.076923077 40:0.1 42:0.16666667 43:0.25 47:0.16666667 48:0.25 49:0.125 55:0.125 59:0.25 
-4 0:0.58010907 1:0.59389233 2:0.43917828 3:0.034897907 4:0.20306626 5:0.542325 6:0.8200064 7:0.27782632 8:1 9:0.22496027 10:0.29550693 11:0.5600249 12:0.062515316 13:0.47087126 14:0.039503752 15:0.34401386 16:0.39787828 17:0.5190409 18:0.45752029 19:0.69999999 20:0.068965508 21:0.32558139 22:0.61355932 23:0.69642858 24:0.23426574 25:0.93396226 26:0.12962964 27:0.32340627 28:0.58458577 29:0.052320926 30:0.4586824 31:0.015527954 32:0.29344729 33:0.62627142 34:0.40625 35:0.46218644 36:0.46666667 37:0.14285714 38:0.33333333 39:0.23076923 40:0.1 42:0.5 43:0.125 46:0.25 47:0.16666667 48:0.25 49:0.5 51:0.33333333 52:0.16666667 55:0.125 56:0.14285714 57:0.25 
2.466538472549664 0:0.36001039 1:0.49772802 2:0.43917828 3:0.18408493 5:0.3373833 6:0.6733727 7:0.22408615 8:1 9:0.22496027 10:0.31224052 11:0.53021991 12:0.51996827 13:0.57221561 14:0.018798199 15:0.073336602 16:0.25099132 17:0.4315938 18:0.34028792 19:0.69999999 22:0.40677966 23:0.62857144 24:0.23426573 25:0.86792452 26:0.15740741 27:0.25119748 28:0.60718145 29:0.62558101 30:0.61140282 31:0.031055901 32:0.1994302 33:0.5059115 34:0.21875 35:0.21455692 36:0.33333333 38:0.16666667 39:0.15384615 40:0.1 42:0.33333333 43:0.125 46:0.25 47:0.16666667 49:0.25 50:0.33333333 51:0.16666667 54:0.5 55:0.25 
-4 0:0.38216248 1:0.66745513 2:0.43917828 3:0.034897907 5:0.18697508 6:0.65353169 7:0.69233529 8:0.53764083 9:0.30523843 10:0.61136476 11:0.30922981 12:0.17892234 13:0.16117296 14:0.5254993 15:0.38048458 16:0.4140187 17:0.62200283 18:0.62699075 19:0.69999999 20:0.068965508 22:0.18983051 23:0.69642858 24:0.75174825 25:0.68867924 26:0.34259259 27:0.6153971 28:0.41417383 29:0.51461934 30:0.43044804 31:0.41614906 32:0.38176637 33:0.48612925 34:0.09375 35:0.1282445 36:0.13333333 38:0.22222222 39:0.30769231 40:0.1 42:0.16666667 48:0.25 49:0.25 50:0.33333333 55:0.125 57:0.125 59:0.25 
-4 0:0.64283101 1:0.55554292 2:0.43917828 3:0.18408493 4:0.42764417 5:0.46633471 6:0.54632583 7:0.48391749 8:0.80471837 9:0.30297454 10:0.33983261 11:0.65147435 12:0.17788246 13:0.61584694 14:0.10007923 15:0.58046979 16:0.3328513 17:0.651622 18:0.55110317 19:0.69999999 21:0.29457365 22:0.73559321 23:0.70000001 24:0.47202797 25:1 26:0.26851852 27:0.21681233 28:0.77232556 29:0.057175668 30:0.63198664 31:0.099378887 32:0.41595442 33:0.5552502 34:0.5625 35:0.55127912 36:0.46666667 38:0.5 39:0.30769231 40:0.2 42:0.5 43:0.125 44:0.4 45:0.42857143 47:0.33333333 48:0.25 49:0.25 51:0.16666667 52:0.16666667 54:0.5 55:0.25 57:0.375 
-0.5767563775919112 0:0.34040345 1:0.5920225 2:0.43917828 3:0.034897907 4:0.73028524 5:0.18697508 6:0.3974811 7:0.65203876 8:0.40262382 9:0.4490396 10:0.41509089 11:0.13620412 12:0.27505752 13:0.25908655 14:0.2805331 15:0.20161869 16:0.93459474 17:0.46967561 18:0.3503373 19:0.69999999 20:0.068965508 21:0.51162791 22:0.18983051 23:0.18214286 24:0.54195804 25:0.35849056 26:0.21296297 27:0.45380529 28:0.27725496 29:0.17183199 30:0.13526683 31:0.062111805 32:0.056980061 33:0.92712841 34:0.09375 35:0.13349378 36:0.26666667 38:0.11111111 40:0.1 43:0.125 44:0.2 48:0.25 49:0.25 52:0.16666667 53:0.2 54:0.5 
4 0:0.76588474 1:0.63889854 2:0.43917828 3:0.18408493 4:0.42764417 5:0.29179877 6:0.57303628 7:0.41618578 8:0.76855456 9:0.49047352 10:0.29919169 11:0.63419324 12:0.091349607 13:0.55006683 14:0.037915664 15:0.1693811 16:0.47308519 17:0.68406206 18:0.57319702 19:0.69999999 21:0.29457365 22:0.39322033 23:0.725 24:0.44055944 25:0.94339619 26:0.12962964 27:0.058640677 28:0.88338907 29:0.054223392 30:0.90657915 31:0.0031055927 32:0.25356125 33:0.57424841 34:0.5625 35:0.61248625 36:0.53333333 37:0.28571429 38:0.66666667 39:0.53846154 40:0.6 42:0.33333333 44:0.2 47:0.16666667 49:0.5 51:0.16666667 52:0.16666667 53:0.8 54:0.5 56:0.14285714 57:0.25 
-0.9474771411116636 0:0.70304447 1:0.7915586 2:0.43917828 3:0.18408493 4:0.42764417 5:0.43525624 6:0.61313255 7:0.60180017 8:1 9:0.59332604 10:0.52169317 11:0.6741602 12:0.21380111 13:0.33846211 14:0.58997926 15:0.92037382 16:0.70149005 17:0.70662906 18:0.6462028 19:0.69999999 21:0.29457365 22:0.35254237 23:0.72142858 24:0.41958042 25:0.86792452 26:0.12962964 27:0.41159512 28:0.77612886 29:0.35112563 30:0.43329086 31:0.2826087 32:0.65811966 33:0.49317254 34:0.3125 35:0.33686744 36:0.26666667 37:0.14285714 38:0.38888889 39:0.30769231 40:0.2 42:0.5 44:0.4 45:0.14285714 47:0.16666667 49:0.5 54:0.5 55:0.125 56:0.14285714 
-0.2717931981946263 0:0.26602044 1:0.36773622 2:0.43917828 3:0.63403443 6:0.28387157 7:0.22485872 8:0.36481574 9:0.22036512 10:0.33276273 11:0.25800488 12:0.059639623 13:0.084004889 14:0.21364531 15:0.34499842 16:0.28052887 17:0.56276446 18:0.50293583 19:0.69999999 20:1 23:0.375 24:0.38111888 25:0.48113206 26:0.37962964 27:0.47908743 28:0.43313491 29:0.07116183 30:0.1392332 31:0.08074534 32:0.3048433 33:0.38129889 34:0.25 35:0.20868519 36:0.13333333 38:0.16666667 40:0.2 45:0.28571429 46:0.25 49:0.125 51:0.16666667 53:0.2 55:0.25 56:0.28571429 57:0.25 
4 0:0.64872621 1:0.63026835 2:0.43917828 3:0.034897907 4:0.13168019 5:0.41769116 6:0.71223453 7:0.50178286 8:1 9:0.42998781 10:0.44017235 11:1 12:0.3716558 13:0.85142674 14:0.053186457 15:0.41510236 16:0.42934074 17:0.7348378 18:0.63467557 19:0.69999999 20:0.068965508 21:0.14728682 22:0.54576271 23:0.8 24:0.5 25:0.90566035 26:0.12962964 27:0.478781 28:0.90406315 29:0.27418194 30:0.55159172 31:0.046583861 32:0.43019943 33:0.53412378 34:0.4375 35:0.46863912 36:0.33333333 37:0.14285714 38:0.55555556 39:0.38461538 40:0.3 41:0.33333333 42:0.33333333 43:0.125 44:0.2 45:0.14285714 46:0.25 48:0.25 49:0.5 50:0.33333333 51:0.16666667 56:0.14285714 57:0.25 
-4 0:0.58965883 1:0.54803801 2:0.43917828 3:0.034897907 4:0.279492 5:0.1985773 6:0.39848521 7:0.39024953 8:0.57327293 9:0.24523676 10:0.30229295 11:0.57825206 12:0.078248302 13:0.53491332 14:0.37598885 15:0.63792965 16:0.52671429 17:0.6854725 18:0.58332702 19:0.69999999 20:0.068965508 21:0.34883722 22:0.28135594 23:0.64642859 24:0.46503497 25:0.83962264 26:0.15740741 27:0.25165313 28:0.76281731 29:0.18455072 30:0.6375873 31:0.071428571 32:0.55555557 33:0.51658253 34:0.5 35:0.49818453 36:0.26666667 38:0.5 39:0.15384615 40:0.2 43:0.25 44:0.4 45:0.57142857 46:0.25 47:0.66666667 48:0.25 49:0.125 50:0.33333333 52:0.16666667 53:0.2 56:0.14285714 58:0.33333333 
2.297509063353764 0:0.3933499 1:0.51559673 2:0.43917828 3:0.18408493 4:0.42764417 5:0.022394691 6:0.27798474 7:0.39050365 8:0.30675455 9:0.54214163 10:0.4668366 11:0.30621514 12:0.088948907 13:0.15202743 14:0.18201182 15:0.22082909 16:0.4090175 17:0.55994359 18:0.49964234 19:0.69999999 21:0.29457365 23:0.54285715 24:0.35314685 25:0.74528301 26:0.12962964 27:0.54314642 28:0.46528988 29:0.012015394 30:0.13506437 31:0.080745349 32:0.31054132 33:0.56420489 34:0.25 35:0.25601178 36:0.26666667 37:0.14285714 38:0.22222222 39:0.15384615 40:0.2 42:0.16666667 43:0.125 47:0.33333333 49:0.125 52:0.16666667 53:0.2 54:0.5 55:0.375 57:0.125 
-3.934247591631595 0:0.64588534 1:0.67485722 2:0.43917828 3:0.034897907 4:0.42764417 6:0.66299013 7:0.42640232 8:1 9:0.49143594 10:0.48410755 11:0.6838475 12:0.37699346 13:0.49414041 14:0.17326249 15:0.5550482 16:0.41914429 17:0.83497885 18:0.74354383 19:0.69999999 20:0.068965508 21:0.29457365 23:0.71071429 24:0.66083917 25:0.93396226 26:0.50925927 27:0.46531502 28:0.88148743 29:0.23936505 30:0.52447648 31:0.40993788 32:0.61823362 33:0.47103623 34:0.375 35:0.42658257 36:0.13333333 38:0.5 39:0.46153846 40:0.1 45:0.28571429 47:0.5 48:0.25 49:0.375 51:0.16666667 52:0.16666667 55:0.25 57:0.25 59:0.5 
3.457687049498645 0:0.3262022 1:0.56636966 2:0.43917828 3:0.18408493 4:0.40209924 5:0.39177474 6:0.54101391 7:0.71478513 8:0.76855456 9:0.35642284 10:0.712142 11:0.39807022 12:0.55828741 13:0.54755592 14:0.045480261 15:0.029991196 16:0.42560141 17:0.45275036 18:0.31959803 19:0.69999999 21:0.35658915 22:0.37627119 23:0.40000001 24:0.51048951 25:0.93396226 26:0.092592592 27:0.66658461 28:0.45754568 29:0.82870228 30:0.70091129 31:0.18012422 32:0.16524217 33:0.67894575 34:0.09375 35:0.11581633 36:0.33333333 37:0.28571429 38:0.11111111 39:0.076923077 40:0.1 42:0.33333333 43:0.125 44:0.2 47:0.16666667 48:0.25 49:0.125 54:0.5 
-4 0:0.4216111 1:0.5055975 2:0.43917828 3:0.18408493 4:0.20306626 5:0.32052522 6:0.5230006 7:0.37984523 8:0.46235917 9:0.40519295 10:0.40332197 11:0.58245409 12:0.12018979 13:0.44772794 14:0.018542426 15:0.18932389 16:0.36183658 17:0.39774331 18:0.33064495 19:0.69999999 21:0.32558139 22:0.34237288 23:0.52857144 24:0.33566433 25:0.67924527 26:0.037037046 27:0.24644428 28:0.57740075 29:0.066607648 30:0.36710521 31:0.0031055881 32:0.18803419 33:0.59477888 34:0.3125 35:0.32199099 36:0.46666667 37:0.28571429 38:0.27777778 39:0.23076923 40:0.2 42:0.33333333 43:0.125 45:0.14285714 47:0.16666667 49:0.25 51:0.16666667 52:0.16666667 53:0.2 54:1 57:0.125 59:0.25 
-0.3524931732501297 0:0.68491367 1:0.65968408 2:0.43917828 3:0.18408493 4:0.42713924 5:0.64805504 6:0.54931041 7:0.43366736 8:0.76855456 9:0.5024879 10:0.49055638 11:0.653322 12:0.25821203 13:0.48953574 14:0.08017033 15:0.43247848 16:0.29399554 17:0.5373766 18:0.47329439 19:0.69999999 21:0.49612404 22:0.71525424 23:0.65000001 24:0.22027972 25:1 26:0.037037046 27:0.17759021 28:0.89403123 29:0.34605062 30:0.82757153 31:0.0062111817 32:0.58119659 33:0.58069649 34:0.4375 35:0.46378405 36:0.6 37:0.57142857 38:0.44444444 39:0.30769231 40:0.2 42:0.5 43:0.5 44:0.2 45:0.14285714 47:0.66666667 49:0.25 50:0.33333333 54:1 
4 0:0.38230367 1:0.42463951 2:0.43917828 3:0.18408493 4:0.24831976 5:0.27152472 6:0.38698223 7:0.28016086 8:0.46235917 9:0.36898087 10:0.30474445 11:0.44610397 12:0.081422889 13:0.47867874 14:0.012418163 15:0.19843506 16:0.38952337 17:0.28349789 18:0.25488377 19:0.69999999 21:0.32558139 22:0.27118644 23:0.36428572 24:0.32517482 25:0.74528301 26:0.092592592 27:0.12821493 28:0.58279061 29:0.34533125 30:0.721738 31:0.05900621 32:0.27920228 33:0.46105863 34:0.40625 35:0.40546092 36:0.6 37:0.57142857 38:0.22222222 39:0.15384615 40:0.2 42:0.16666667 43:0.5 45:0.14285714 46:0.25 47:0.16666667 48:0.25 49:0.25 51:0.16666667 53:0.2 54:0.5 56:0.28571429 57:0.125 
-4 0:0.44053177 1:0.63113813 2:0.43917828 3:0.034897907 5:0.21828607 6:0.72949469 7:0.37500867 8:1 9:0.27940437 10:0.38688709 11:0.6197146 12:0.62164352 13:0.63468007 14:0.19846769 15:0.18264111 16:0.33550867 17:0.54160791 18:0.479058 19:0.69999999 20:0.068965508 22:0.18983051 23:0.62500001 24:0.42657342 25:0.86792452 26:0.092592592 27:0.25548185 28:0.7685067 29:0.69035964 30:0.66718735 31:0.018633539 32:0.042735048 33:0.27130652 34:0.1875 35:0.2000332 36:0.26666667 37:0.28571429 38:0.27777778 39:0.30769231 40:0.3 42:0.16666667 43:0.125 48:0.25 49:0.375 53:0.2 55:0.125 59:0.25 
-0.3865286674888757 0:0.36583814 1:0.55940515 2:0.43917828 3:0.18408493 4:0.021051909 6:0.58662593 7:0.63806399 8:0.53764083 9:0.51060064 10:0.42607459 11:0.40220884 12:0.13954231 13:0.12106444 14:0.35514263 15:0.25609601 16:0.25857442 17:0.57968971 18:0.53617017 19:0.69999999 23:0.72142858 24:0.63986014 25:0.68867924 26:0.29629631 27:0.50528087 28:0.5667586 29:0.30775889 30:0.25231627 31:0.10559006 32:0.096866099 33:0.15535797 34:0.15625 35:0.18198228 36:0.13333333 38:0.22222222 39:0.30769231 40:0.3 49:0.25 50:0.33333333 52:0.33333333 53:0.2 54:0.5 56:0.14285714 
-3.092370617159975 0:0.39765235 1:0.52059292 2:0.43917828 3:0.034897907 4:0.279492 5:0.31286747 6:0.57600417 7:0.47664969 8:0.76855456 9:0.42546943 10:0.42895319 11:0.48215708 12:0.11481728 13:0.45454826 14:0.16622636 15:0.37618007 16:0.47308656 17:0.55571228 18:0.4947021 19:0.69999999 20:0.068965508 21:0.34883722 22:0.25762712 23:0.53214287 24:0.47902098 25:0.93396226 26:0.037037046 27:0.36988248 28:0.70334245 29:0.3583472 30:0.53231272 31:0.034161498 32:0.23646724 33:0.55020826 34:0.25 35:0.26057638 36:0.26666667 37:0.14285714 38:0.22222222 39:0.076923077 40:0.2 42:0.16666667 45:0.14285714 47:0.33333333 48:0.25 49:0.25 52:0.16666667 53:0.2 54:0.5 55:0.125 56:0.14285714 
-0.9027868771441525 0:0.63649434 1:0.55125051 2:0.43917828 3:0.18408493 5:0.19051003 6:0.74936291 7:0.35546396 8:1 9:0.32225523 10:0.25139748 11:0.82296667 12:0.46394789 13:0.83115227 14:0.088257662 15:0.4072899 16:0.54066982 17:0.42736249 18:0.39836741 19:0.69999999 22:0.12881356 23:0.78928572 24:0.27272727 25:0.86792452 26:0.037037046 27:0.16340405 28:0.78905873 29:0.3028936 30:0.65578342 31:0.015527952 32:0.32478633 33:0.33073239 34:0.5625 35:0.5173766 36:0.6 37:0.71428571 38:0.44444444 39:0.38461538 40:0.4 42:0.66666667 43:0.125 45:0.14285714 46:0.25 47:0.16666667 49:0.625 51:0.33333333 53:0.2 54:0.5 55:0.375 
1.761497411387348 0:0.40132139 1:0.4685634 2:0.43917828 3:0.034897907 4:0.20306626 5:0.21784028 6:0.413464 7:0.23783239 8:1 10:0.24239467 11:0.54734945 12:0.1270969 13:0.44726409 14:0.028335053 15:0.28097833 16:0.39011037 17:0.41466855 18:0.35530983 19:0.69999999 20:0.068965508 21:0.32558139 22:0.12881356 23:0.34285715 24:0.37412587 25:0.90566035 26:0.12962964 27:0.27829702 28:0.62071714 29:0.25705545 30:0.49293934 31:0.021739128 32:0.16524217 33:0.32678575 34:0.34375 35:0.34859016 36:0.33333333 37:0.14285714 38:0.27777778 39:0.23076923 40:0.2 42:0.5 43:0.125 46:0.5 48:0.25 49:0.375 55:0.25 56:0.14285714 57:0.125 59:0.25 
-0.2340996579901033 0:0.40586102 1:0.50850857 2:0.43917828 3:0.18408493 4:0.021051909 5:0.15643373 6:0.42581917 7:0.35638872 8:0.64916118 9:0.46560188 10:0.34259835 11:0.49253871 12:0.25976103 13:0.43484949 14:0.025890597 15:0.090992981 16:0.17103788 17:0.58815233 18:0.52862508 19:0.69999999 22:0.12881356 23:0.60714286 24:0.27622378 25:0.9716981 26:0.12962964 27:0.21277933 28:0.68509369 29:0.31396552 30:0.5620196 31:0.024844718 32:0.1965812 33:0.35432403 34:0.28125 35:0.32927361 36:0.26666667 37:0.28571429 38:0.22222222 39:0.15384615 40:0.1 43:0.125 45:0.14285714 47:0.16666667 49:0.125 52:0.16666667 53:0.4 54:0.5 56:0.42857143 57:0.375 
-4 0:0.65153865 1:0.57690078 2:0.43917828 3:0.034897907 4:0.42764417 5:0.55917934 6:0.58440376 7:0.2921539 8:1 9:0.47019703 10:0.31139803 11:0.68604862 12:0.30712396 13:0.68810554 14:0.013066285 15:0.25725611 16:0.41107871 17:0.45557123 18:0.41515707 19:0.69999999 20:0.068965508 21:0.29457365 22:0.47118644 23:0.50000001 24:0.36713287 25:0.93396226 26:0.12962964 27:0.17983454 28:0.66665631 29:0.2997529 30:0.67203578 31:0.01552795 32:0.2022792 33:0.50945152 34:0.53125 35:0.53459759 36:0.53333333 37:0.14285714 38:0.38888889 39:0.23076923 40:0.1 42:0.5 43:0.125 44:0.4 45:0.14285714 47:0.33333333 48:0.25 49:0.375 51:0.16666667 53:0.4 55:0.5 56:0.14285714 58:0.33333333 
1.341239900125387 0:0.30884369 1:0.38012528 2:0.27723937 3:0.18408493 4:0.42764417 6:0.34275207 7:0.31849811 8:0.46235917 9:0.4490396 10:0.27615325 11:0.53237236 12:0.4249725 13:0.51314405 14:0.0081679864 15:0.28356035 16:0.38016628 17:0.50634698 18:0.44345922 19:0.77777778 21:0.29457365 22:0.084745764 23:0.50000001 24:0.41958042 25:0.67924527 26:0.21296297 27:0.2621546 28:0.68462547 29:0.53061232 30:0.61844342 31:0.10248447 32:0.33333333 33:0.41480003 34:0.34375 35:0.27895927 36:0.26666667 38:0.22222222 39:0.076923077 40:0.1 41:0.66666667 42:0.16666667 45:0.42857143 47:0.16666667 49:0.25 52:0.16666667 53:0.2 54:1 55:0.25 56:0.14285714 
4 0:0.52273095 1:0.49858011 2:0.27723937 3:0.18408493 5:0.32822358 6:0.46023069 7:0.25547812 8:0.53710912 9:0.18023267 10:0.23418596 11:0.61698094 12:0.051087498 13:0.51753639 14:0.2156784 15:0.85025468 16:0.5198591 17:0.55430184 18:0.48586955 19:0.77777778 22:0.34576271 23:0.67500002 24:0.42307692 25:1 26:0.064814819 27:0.20829066 28:0.74015503 29:0.29893282 30:0.51086446 31:0.25776397 32:0.93162394 33:0.7353454 34:0.5 35:0.56648754 36:0.4 38:0.44444444 39:0.15384615 40:0.2 41:0.33333333 42:0.16666667 43:0.125 44:0.2 46:0.5 47:0.5 49:0.25 51:0.33333333 52:0.33333333 53:0.2 54:0.5 56:0.28571429 57:0.125 
4 0:0.58289963 1:0.70038786 2:0.32914304 3:0.034897907 4:0.083491115 5:0.11070716 6:0.59270229 7:0.54787043 8:0.80471837 9:0.46415543 10:0.52058209 11:0.61020002 12:0.31105979 13:0.50949662 14:0.14304607 15:0.26104055 16:0.57365421 17:0.66572638 18:0.61315808 19:0.11111111 20:0.068965508 21:0.13953488 22:0.094915254 23:0.60357144 24:0.59090909 25:0.90566035 26:0.37962964 27:0.57866549 28:0.74130887 29:0.31787775 30:0.39262474 31:0.040372667 32:0.27350428 33:0.40905691 34:0.28125 35:0.31043426 36:0.2 38:0.33333333 39:0.38461538 40:0.1 42:0.16666667 44:0.2 45:0.14285714 48:0.25 49:0.5 51:0.16666667 55:0.25 56:0.14285714 57:0.125 59:0.25 
4 0:0.31583094 1:0.46219542 2:0.32914304 3:0.18408493 4:0.015967049 5:0.20661706 6:0.42597588 7:0.52017471 8:0.64916118 9:0.5024879 10:0.37674433 11:0.4435212 12:0.39685574 13:0.38360751 14:0.033927981 15:0.050371492 16:0.22534873 17:0.37658675 18:0.25427707 19:0.11111111 22:0.29491525 23:0.54642858 24:0.40909091 25:0.90566035 26:0.037037046 27:0.15491909 28:0.57865668 29:0.75895043 30:0.69803475 31:0.059006208 32:0.28205128 33:0.46660333 34:0.1875 35:0.18059215 36:0.4 37:0.28571429 38:0.055555556 39:0.076923077 42:0.33333333 43:0.25 45:0.14285714 47:0.16666667 49:0.125 53:0.2 54:0.5 55:0.125 56:0.14285714 57:0.125 
1.616905291505183 0:0.27709812 1:0.34976642 2:0.32914304 3:0.18408493 5:0.15643373 6:0.3359422 7:0.21881903 8:0.53710912 9:0.21440029 10:0.23863558 11:0.40260374 12:0.067164602 13:0.32046154 14:0.16882994 15:0.35075531 16:0.19066411 17:0.40761637 18:0.34852911 19:0.11111111 22:0.12881356 23:0.69642858 24:0.27622377 25:1 27:0.5570864 28:0.69802356 29:0.070906801 30:0.31797424 31:0.16149068 32:0.36467236 33:0.16386433 34:0.34375 35:0.27068074 36:0.4 37:0.42857143 38:0.16666667 39:0.23076923 40:0.1 42:0.16666667 43:0.25 45:0.57142857 46:0.25 47:0.33333333 48:0.25 49:0.125 51:0.16666667 54:0.5 55:0.125 57:0.125 
1.251671152766002 0:0.3736069 1:0.57088695 2:0.32914304 3:0.18408493 4:0.20306626 5:0.10223915 6:0.50649051 7:0.48612713 8:0.57327293 9:0.47019703 10:0.50871763 11:0.44414642 12:0.17712075 13:0.15933804 14:0.18667755 15:0.13308859 16:0.74495762 17:0.53737659 18:0.47329439 19:0.11111111 21:0.32558139 22:0.15254238 23:0.46785715 24:0.59440559 25:0.83962264 26:0.12962964 27:0.45633769 28:0.53307251 29:0.34291571 30:0.28259053 31:0.50310559 32:0.46153847 33:0.98720703 34:0.15625 35:0.21727493 36:0.26666667 37:0.14285714 38:0.16666667 39:0.076923077 42:0.16666667 44:0.2 46:0.25 47:0.33333333 49:0.125 51:0.16666667 52:0.16666667 53:0.2 54:0.5 57:0.125 
1.863424306983246 0:0.51203346 1:0.53564322 2:0.32914304 3:0.37686738 4:0.279492 5:0.20706284 6:0.37825701 7:0.45557989 8:0.53710912 9:0.4490396 10:0.33143522 11:0.65969346 12:0.44349202 13:0.6271586 14:0.053508181 15:0.45999707 16:0.31209759 17:0.5035261 18:0.44417298 19:0.11111111 20:0.11494253 21:0.34883722 22:0.3559322 23:0.51785716 24:0.34965035 25:1 26:0.12962964 27:0.17983454 28:0.89022793 29:0.78580859 30:0.9602471 31:0.055900628 32:0.41025642 33:0.59863119 34:0.40625 35:0.43996514 36:0.46666667 37:0.28571429 38:0.27777778 39:0.15384615 40:0.1 42:0.16666667 43:0.375 47:0.66666667 49:0.125 52:0.16666667 53:0.4 54:0.5 55:0.375 56:0.14285714 57:0.125 
2.037574324823284 0:0.61567287 1:0.64756964 2:0.32914304 3:0.18408493 5:0.51734577 6:0.69652134 7:0.45259077 8:1 9:0.40519295 10:0.46903412 11:0.64920068 12:0.14184977 13:0.4875442 14:0.044957073 15:0.36709797 16:0.34180745 17:0.62905501 18:0.55654658 19:0.11111111 22:0.56271187 23:0.71071429 24:0.50699301 25:0.9716981 26:0.037037046 27:0.22247683 28:0.75268328 29:0.24090844 30:0.72941444 31:0.14906833 32:0.41310542 33:0.56028248 34:0.375 35:0.44303587 36:0.4 37:0.28571429 38:0.38888889 39:0.30769231 40:0.2 42:0.5 47:0.33333333 49:0.375 51:0.33333333 52:0.33333333 54:0.5 56:0.14285714 57:0.25 
0.1783447890429194 0:0.60125914 1:0.5145222 2:0.32914304 3:0.034897907 4:0.34071255 5:0.10994001 6:0.59741936 7:0.44758153 8:0.76855456 9:0.35642284 10:0.2795516 11:0.5730282 12:0.19823471 13:0.60047474 14:0.0064802569 15:0.21596718 16:0.28687245 17:0.68547249 18:0.57012309 19:0.11111111 20:0.068965508 21:0.34883722 22:0.15254238 23:0.83214287 24:0.33566434 25:0.9716981 26:0.092592592 27:0.22667741 28:0.91563059 29:0.31053051 30:0.6945533 31:0.040372673 32:0.27635328 33:0.52958863 34:0.59375 35:0.65257173 36:0.53333333 37:0.28571429 38:0.55555556 39:0.46153846 40:0.3 42:0.16666667 43:0.25 47:0.66666667 48:0.5 49:0.125 51:0.33333333 52:0.16666667 53:0.2 55:0.375 56:0.14285714 57:0.5 
4 0:0.26118229 1:0.32739749 2:0.32914304 3:0.18408493 4:0.21112993 5:0.17178985 6:0.25999675 7:0.29267268 8:0.41771573 9:0.22036512 10:0.07609165 11:0.34946578 12:0.2026812 13:0.54398416 14:0.17709932 15:0.30538452 16:0.41859439 17:0.31593794 18:0.27220831 19:0.11111111 22:0.21694915 23:0.58214286 24:0.33916084 25:0.9716981 26:0.092592592 27:0.19216658 28:0.6207016 29:0.37190948 30:0.54072161 31:0.22360249 32:0.52706554 33:0.46758339 34:0.375 35:0.39102019 36:0.33333333 37:0.14285714 38:0.27777778 39:0.15384615 40:0.1 42:0.33333333 43:0.125 44:0.2 45:0.14285714 46:0.75 47:0.33333333 48:0.25 52:0.16666667 54:0.5 55:0.125 57:0.125 58:0.33333333 59:0.25 
4 0:0.50464278 1:0.7179947 2:0.32914304 3:0.18408493 4:0.42764417 5:0.23071608 6:0.47244769 7:0.65213497 8:0.80471837 9:0.49603109 10:0.46864284 11:0.72222863 12:0.51294429 13:0.55716793 14:0.32985934 15:0.26645038 16:0.57799861 17:0.55007053 18:0.49058523 19:0.11111111 21:0.29457365 22:0.27118644 23:0.45 24:0.51048951 25:0.90566035 26:0.12962964 27:0.22247683 28:0.77353044 29:0.89198743 30:0.7982562 31:0.037267077 32:0.1937322 33:0.60908973 34:0.1875 35:0.22437081 36:0.33333333 37:0.14285714 38:0.22222222 39:0.23076923 40:0.1 42:0.16666667 43:0.125 44:0.2 49:0.375 51:0.16666667 53:0.2 54:0.5 55:0.125 57:0.125 
4 0:0.39799745 1:0.41595442 2:0.32914304 3:0.18408493 4:0.12874461 5:0.20936977 6:0.33920191 7:0.28641236 8:0.80471837 9:0.25453274 10:0.29088168 11:0.49181147 12:0.096791615 13:0.43606083 14:0.0016101517 15:0.26290164 16:0.27134824 17:0.25669958 18:0.25482599 19:0.11111111 21:0.13953488 22:0.18983051 23:0.38214287 24:0.25874126 25:0.93396226 26:0.092592592 27:0.14320507 28:0.54723397 29:0.095750391 30:0.49244238 31:0.037267087 32:0.21367522 33:0.33421702 34:0.46875 35:0.44795319 36:0.6 37:0.57142857 38:0.33333333 39:0.30769231 40:0.3 42:0.33333333 43:0.25 44:0.2 45:0.14285714 46:0.25 47:0.16666667 48:0.25 49:0.25 51:0.33333333 52:0.16666667 53:0.2 54:0.5 55:0.125 59:0.25 
-4 0:0.45247564 1:0.55903078 2:0.32914304 3:0.034897907 4:0.085595103 5:0.23071608 6:0.54555598 7:0.45477222 8:0.76855456 9:0.46751228 10:0.26680677 11:0.6563245 12:0.5322901 13:0.67781915 14:0.069752432 15:0.39224873 16:0.43676634 17:0.43441467 18:0.36109605 19:0.11111111 20:0.068965508 22:0.27118644 23:0.57500001 24:0.38811189 25:0.93396226 26:0.12962964 27:0.13690418 28:0.77119167 29:0.66901338 30:0.69581167 31:0.11180124 32:0.51851852 33:0.58213944 34:0.28125 35:0.33713717 36:0.4 37:0.14285714 38:0.27777778 39:0.23076923 42:0.33333333 44:0.2 47:0.16666667 48:0.25 49:0.25 51:0.33333333 52:0.16666667 53:0.2 55:0.125 57:0.125 59:0.5 
-0.562010576028531 0:0.50232245 1:0.42400816 2:0.32914304 3:0.034897907 4:0.3247455 5:0.47131515 6:0.43390217 7:0.24604401 8:1 9:0.034167616 10:0.19173982 11:0.54964101 12:0.084099564 13:0.68905253 14:0.045483644 15:0.49466201 16:0.36062544 17:0.25528914 18:0.30861972 19:0.11111111 20:0.068965508 21:0.34883722 22:0.43389831 23:0.7357143 24:0.20979021 25:0.9716981 26:0.092592592 27:0.24263391 28:0.78923183 29:0.1141023 30:0.64198894 31:0.0062111863 32:0.24216525 33:0.43234197 34:0.6875 35:0.78023528 36:0.6 37:0.14285714 38:0.5 39:0.38461538 42:0.33333333 43:0.5 45:0.14285714 46:0.75 47:0.66666667 48:0.75 49:0.25 50:0.33333333 52:0.5 56:0.14285714 57:0.125 58:0.33333333 59:0.5 
2.974754276476135 0:0.55473496 1:0.61527559 2:0.32914304 3:0.034897907 4:0.30264107 5:0.15643373 6:0.51808989 7:0.47482233 8:1 9:0.47019703 10:0.41389611 11:0.47051384 12:0.023997083 13:0.44363415 14:0.073864943 15:0.33306709 16:0.46281486 17:0.52186178 18:0.4583768 19:0.11111111 20:0.068965508 21:0.21705427 22:0.12881356 23:0.52142858 24:0.51048951 25:0.86792452 26:0.12962964 27:0.3963588 28:0.54886044 29:0.10524658 30:0.3936907 31:0.062111798 32:0.34188034 33:0.55382203 34:0.34375 35:0.41075171 36:0.33333333 37:0.14285714 38:0.38888889 39:0.23076923 40:0.1 42:0.16666667 44:0.2 48:0.25 49:0.375 50:0.33333333 51:0.33333333 52:0.16666667 53:0.2 55:0.125 56:0.14285714 57:0.125 58:0.33333333 59:0.25 
4 0:0.4799933 1:0.54379879 2:0.32914304 3:0.18408493 5:0.34142325 6:0.48862188 7:0.13690579 8:1 9:0.21440029 10:0.2305019 11:0.62092013 12:0.21309244 13:0.40835257 14:0.097211487 15:0.37414466 16:0.39352265 17:0.47390691 18:0.41226789 19:0.11111111 22:0.36610169 23:0.48928572 24:0.13986014 25:0.86792452 27:0.29350979 28:0.64573814 29:0.034438695 30:0.46686075 31:0.23913043 32:0.35042735 33:0.51719863 34:0.34375 35:0.39023175 36:0.4 37:0.14285714 38:0.27777778 39:0.23076923 42:0.33333333 43:0.125 44:0.4 45:0.14285714 46:0.25 47:0.16666667 48:0.25 49:0.25 50:0.33333333 52:0.16666667 53:0.2 54:0.5 56:0.14285714 57:0.125 
4 0:0.45131311 1:0.49912165 2:0.32914304 3:0.18408493 4:0.30264107 5:0.2671409 6:0.47197288 7:0.35872448 8:1 9:0.25453274 10:0.33737705 11:0.58608505 12:0.2601997 13:0.37272089 14:0.043415048 15:0.40156741 16:0.50829568 17:0.4203103 18:0.36698774 19:0.11111111 21:0.21705427 22:0.22372881 23:0.47142858 24:0.41958042 25:0.86792452 26:0.12962964 27:0.41544738 28:0.67520376 29:0.21762126 30:0.33592338 31:0.15217391 32:0.50997152 33:0.45021363 34:0.375 35:0.37583252 36:0.4 37:0.28571429 38:0.22222222 39:0.076923077 40:0.1 42:0.16666667 43:0.125 44:0.2 45:0.28571429 47:0.16666667 48:0.25 49:0.375 51:0.33333333 52:0.5 54:0.5 55:0.125 
3.457949328525158 0:0.62038809 1:0.65182838 2:0.32914304 3:0.034897907 4:0.083491115 5:0.48853164 6:0.76737622 7:0.50036531 8:0.80471837 9:0.46415543 10:0.37145977 11:0.69107933 12:0.4045711 13:0.52356063 14:0.01608155 15:0.24018722 16:0.20562035 17:0.51763047 18:0.45536315 19:0.11111111 20:0.068965508 21:0.13953488 22:0.43728814 23:0.6607143 24:0.25524476 25:0.93396226 26:0.12962964 27:0.38227478 28:0.62101668 29:0.38229613 30:0.38351805 31:0.012422358 32:0.35327636 33:0.33233442 34:0.375 35:0.40075108 36:0.46666667 37:0.42857143 38:0.38888889 39:0.38461538 40:0.3 42:0.33333333 43:0.5 44:0.6 47:0.16666667 48:0.25 49:0.25 52:0.16666667 55:0.125 
4 0:0.54209154 1:0.56136251 2:0.32914304 3:0.034897907 4:0.52710233 5:0.61891428 6:0.71262461 7:0.36983999 8:0.76855456 9:0.35642284 10:0.12517535 11:0.84546111 12:0.3767632 13:0.82862852 14:0.49549339 15:0.86054874 16:0.70560597 17:0.33850494 18:0.30220607 19:0.11111111 20:0.068965508 21:0.43410853 22:0.58983051 23:0.71071429 24:0.24125874 25:0.93396226 26:0.092592592 27:0.0583526 28:0.80465363 29:0.27409186 30:0.73593626 31:0.055900629 32:0.52706553 33:0.62088621 34:0.40625 35:0.44239268 36:0.66666667 37:0.71428571 38:0.27777778 39:0.15384615 40:0.1 42:0.5 43:0.5 46:0.25 47:0.16666667 48:0.5 49:0.5 53:0.2 55:0.125 57:0.125 
2.009772152606053 0:0.88361301 1:0.74094112 2:0.32914304 3:0.18408493 4:0.85528834 5:0.32355004 6:0.88304832 7:0.42988493 8:1 9:0.25453274 10:0.46668691 11:0.63927771 12:0.048288963 13:0.4415984 14:0.15600327 15:0.51539283 16:0.55076613 17:0.74047955 18:0.61763532 19:0.11111111 21:0.5891473 22:0.44745763 23:0.80357143 24:0.41958042 25:0.9716981 26:0.12962964 27:0.38631298 28:0.7626797 29:0.21727751 30:0.53738618 31:0.037267077 32:0.34757835 33:0.51297974 34:0.53125 35:0.60248563 36:0.46666667 37:0.28571429 38:0.55555556 39:0.53846154 40:0.2 42:0.5 43:0.25 45:0.14285714 47:0.33333333 48:0.25 49:0.75 52:0.16666667 54:0.5 55:0.125 56:0.14285714 57:0.25 
4 0:0.43944608 1:0.40147191 2:0.32914304 3:0.034897907 4:0.0452535 5:0.26556099 6:0.2969821 7:0.34559061 8:0.30675455 9:0.40314848 10:0.25277169 11:0.40543635 12:0.087055315 13:0.49677718 14:0.079689864 15:0.43445266 16:0.21264128 17:0.3370945 18:0.3473816 19:0.11111111 20:0.068965508 22:0.42711865 23:0.58928572 24:0.24125874 25:0.72641507 26:0.092592592 27:0.044886617 28:0.65238394 29:0.13773306 30:0.82419925 31:0.046583848 32:0.37037037 33:0.38492853 34:0.625 35:0.54930805 36:0.66666667 37:0.71428571 38:0.33333333 39:0.15384615 40:0.2 42:0.33333333 43:0.5 45:0.28571429 47:0.33333333 48:0.25 49:0.125 50:0.33333333 51:0.33333333 53:0.2 55:0.625 56:0.14285714 57:0.25 
4 0:0.47100829 1:0.7657375 2:0.32914304 3:0.18408493 4:0.42764417 6:0.63072619 7:0.80346119 8:1 9:0.59332604 10:0.55511288 11:0.60253035 12:0.58290053 13:0.57262436 14:0.12854755 15:0.090644075 16:0.48484387 17:0.60507758 18:0.58395577 19:0.11111111 21:0.29457365 23:0.62857144 24:0.73426574 25:0.93396226 26:0.37962964 27:0.58616056 28:0.64954144 29:0.5584312 30:0.46817534 31:0.11180124 32:0.1025641 33:0.45011111 34:0.125 35:0.17075751 36:0.2 38:0.16666667 39:0.23076923 42:0.16666667 47:0.16666667 49:0.375 50:0.33333333 53:0.2 54:0.5 55:0.125 56:0.14285714 
1.288434503672786 0:0.2713606 1:0.37393744 2:0.32914304 3:0.18408493 5:0.29280559 6:0.41261754 7:0.16970248 8:0.45387955 9:0.22036512 10:0.42481885 11:0.33193823 12:0.041410937 13:0.13534087 14:0.45575553 15:0.42605185 16:0.1834301 17:0.31170663 18:0.20981491 19:0.11111111 22:0.18983051 23:0.46428572 24:0.22027972 25:0.81132073 26:0.037037046 27:0.17759021 28:0.46248287 29:0.12892485 30:0.42804146 31:0.25776398 32:0.35897437 33:0.24637302 34:0.25 35:0.23020105 36:0.33333333 37:0.14285714 38:0.11111111 39:0.076923077 42:0.16666667 43:0.25 44:0.4 45:0.28571429 46:0.25 51:0.16666667 52:0.16666667 54:0.5 55:0.125 57:0.125 58:0.33333333 
-4 0:0.53867582 1:0.62454558 2:0.32914304 3:0.18408493 5:0.38554893 6:0.63192935 7:0.54168683 8:0.76855456 9:0.45130349 10:0.34849816 11:0.78435768 12:0.30346144 13:0.73680436 14:0.023589277 15:0.24974692 16:0.35648543 17:0.45557124 18:0.389722 19:0.11111111 22:0.31864407 23:0.6107143 24:0.34965035 25:0.93396226 26:0.28703704 27:0.33551569 28:0.77551865 29:0.39016259 30:0.62229397 31:0.052795035 32:0.32763533 33:0.37468832 34:0.3125 35:0.33763512 36:0.33333333 38:0.22222222 39:0.23076923 42:0.5 43:0.125 44:0.2 47:0.16666667 49:0.375 52:0.16666667 54:0.5 55:0.375 56:0.14285714 59:0.25 
2.33661104175334 0:0.30732983 1:0.472933 2:0.32914304 3:0.034897907 4:0.20306626 5:0.29569668 6:0.27579902 7:0.54430552 8:0.20734219 9:0.58934599 10:0.29045888 11:0.44838094 12:0.42575745 13:0.41257428 14:0.34306693 15:0.24727875 16:0.26664019 17:0.50493653 18:0.42508961 19:0.11111111 20:0.068965508 21:0.32558139 22:0.33220339 23:0.36785714 24:0.46503497 25:0.50943394 26:0.30555556 27:0.42218037 28:0.53898603 29:0.37534627 30:0.31051715 31:0.41925465 32:0.38461538 33:0.76603858 34:0.15625 35:0.18841422 36:0.26666667 38:0.16666667 39:0.15384615 42:0.33333333 43:0.125 44:0.2 45:0.14285714 48:0.25 52:0.16666667 57:0.375 59:0.25 
-2.114724032876467 0:0.39366842 1:0.51596661 2:0.37686738 3:0.18408493 4:0.061220549 5:0.2338856 6:0.6733727 7:0.39771448 8:1 9:0.35642284 10:0.52207045 11:0.48046914 12:0.079243592 13:0.1429603 14:0.23169739 15:0.21400428 16:0.079583162 17:0.33427363 18:0.23616286 19:0.11111111 22:0.33898305 23:0.62857144 24:0.24125874 25:0.93396226 26:0.092592592 27:0.37255892 28:0.3947202 29:0.088094018 30:0.1665594 31:0.037267086 32:0.2905983 33:0.2836715 34:0.25 35:0.25933149 36:0.53333333 37:0.57142857 38:0.16666667 39:0.23076923 40:0.1 42:0.16666667 43:0.5 47:0.16666667 48:0.25 49:0.25 50:0.33333333 51:0.16666667 54:0.5 55:0.125 
1.733976251077206 0:0.69934661 1:0.48802153 2:0.37686738 3:0.034897907 4:0.20306626 5:0.14124851 6:0.54343804 7:0.30461317 8:0.64916118 9:0.27107081 10:0.32199958 11:0.58081136 12:0.019766541 13:0.48651829 14:0.058256094 15:0.51417845 16:0.30140966 17:0.85049364 18:0.62838799 19:0.11111111 20:0.068965508 21:0.32558139 22:0.1559322 23:0.81785714 24:0.47552448 25:0.94339619 26:0.12962964 27:0.31607878 28:0.82175292 29:0.087760387 30:0.72330723 31:4.6276897e-09 32:0.32193733 33:0.32365228 34:0.84375 35:0.82799759 36:0.33333333 37:0.14285714 38:0.88888889 39:0.84615385 40:0.7 43:0.25 44:0.2 45:0.42857143 46:0.5 47:0.16666667 48:0.25 49:0.25 51:0.33333333 55:0.25 56:0.42857143 57:0.75 59:0.25 
-4 0:0.66919556 1:0.57340206 2:0.37686738 3:0.18408493 5:0.26556099 6:0.44372311 7:0.46098219 8:1 9:0.26880692 10:0.26106379 11:0.72995928 12:0.16024742 13:0.58666241 14:0.010592501 15:0.4491022 16:0.43849819 17:0.57263752 18:0.49730945 19:0.11111111 22:0.42711865 23:0.55357144 24:0.43356644 25:0.86792452 26:0.12962964 27:0.31694301 28:0.84198988 29:0.059257438 30:0.54744765 31:0.0031055908 32:0.42165242 33:0.51871265 34:0.5625 35:0.56876984 36:0.46666667 37:0.14285714 38:0.55555556 39:0.53846154 40:0.3 42:0.16666667 43:0.25 45:0.28571429 46:0.25 47:0.33333333 49:0.5 50:0.33333333 51:0.33333333 52:0.16666667 53:0.2 54:0.5 55:0.125 57:0.125 59:0.25 
1.425245225217579 0:0.33237051 1:0.34523943 2:0.37686738 3:0.034897907 5:0.45244196 6:0.26840788 7:0.20340808 8:0.23091372 9:0.25453274 10:0.34751117 11:0.36774287 12:0.022933136 13:0.17953565 14:0.0088879669 15:0.23040316 16:0.0035169291 17:0.27221439 18:0.29270116 19:0.11111111 20:0.068965508 22:0.76271186 23:0.48214287 24:0.34965035 25:0.74528301 26:0.12962964 27:0.17759021 28:0.65630929 29:0.27715272 30:0.67763124 31:0.024844719 32:0.62962964 33:0.43801561 34:0.5625 35:0.45809905 36:0.73333333 37:0.28571429 38:0.5 39:0.30769231 40:1 42:0.5 43:0.625 45:0.14285714 47:0.16666667 48:0.5 52:0.16666667 53:0.2 
-4 0:0.37402834 1:0.54104033 2:0.37686738 3:0.034897907 4:0.083491115 5:0.13534693 6:0.34789059 7:0.5829028 8:0.57327293 9:0.46415543 10:0.43881521 11:0.54439799 12:0.44154097 13:0.51369293 14:0.022584758 15:0.073520029 16:0.17411104 17:0.65162201 18:0.62891195 19:0.11111111 20:0.068965508 21:0.13953488 22:0.15254238 23:0.74285714 24:0.67832168 25:0.94339619 26:0.12962964 27:0.46688107 28:0.88900748 29:0.75885829 30:0.68876459 31:0.0062111733 32:0.20512822 33:0.39382216 34:0.1875 35:0.23167417 36:0.2 37:0.14285714 38:0.22222222 39:0.23076923 40:0.1 43:0.25 44:0.2 45:0.14285714 47:0.16666667 48:0.25 52:0.16666667 56:0.14285714 57:0.375 
-4 0:0.43592344 1:0.50165397 2:0.37686738 3:0.034897907 4:0.021051909 5:0.36266284 6:0.53639315 7:0.35284915 8:0.53710912 9:0.27107081 10:0.42900408 11:0.46745624 12:0.055114773 13:0.35518903 14:0.0098148031 15:0.18451664 16:0.1814695 17:0.60084627 18:0.53432089 19:0.11111111 20:0.068965508 22:0.34576271 23:0.87142858 24:0.45804196 25:1 26:0.35185185 27:0.56046468 28:0.68919653 29:0.27742303 30:0.34151887 31:0.09627329 32:0.34188034 33:0.33816869 34:0.34375 35:0.35186837 36:0.26666667 38:0.27777778 39:0.23076923 40:0.1 43:0.375 44:0.4 45:0.28571429 46:0.25 47:0.5 48:0.25 55:0.125 56:0.28571429 57:0.125 
-1.363936546867126 0:0.47640819 1:0.41648347 2:0.37686738 3:0.18408493 4:0.0452535 5:0.3994756 6:0.38360756 7:0.34004874 8:0.40262382 9:0.22496027 10:0.12189979 11:0.57488068 12:0.075429144 13:0.82931853 14:0.38708462 15:0.68564954 16:0.63486562 17:0.18617772 18:0.26068109 19:0.11111111 22:0.37627119 23:0.34642858 24:0.33566434 25:0.58490565 26:0.037037046 27:0.13743844 28:0.68354262 29:0.27859275 30:0.70207825 31:0.20186336 32:0.48148149 33:0.48881312 34:0.65625 35:0.63155382 36:0.66666667 37:0.42857143 38:0.38888889 39:0.23076923 40:0.2 42:0.33333333 43:0.5 44:0.4 45:0.28571429 46:1 47:0.16666667 49:0.375 50:0.33333333 51:0.5 52:0.16666667 54:0.5 56:0.14285714 
-4 0:0.30353447 1:0.44553634 2:0.37686738 3:0.18408493 5:0.10223915 6:0.37209124 7:0.38781818 8:0.76855456 9:0.45167039 10:0.26998931 11:0.44375558 12:0.40126487 13:0.42738017 14:0.27497055 15:0.2115885 16:0.22071932 17:0.57968971 18:0.53093053 19:0.11111111 21:0.19379846 22:0.15254238 23:0.57500001 24:0.55594406 25:0.93396226 26:0.37962964 27:0.44954445 28:0.75264778 29:0.47840411 30:0.42273581 31:0.059006217 32:0.17378917 33:0.45927546 34:0.1875 35:0.16281096 36:0.2 38:0.16666667 39:0.076923077 40:0.1 41:0.33333333 43:0.125 45:0.28571429 47:0.16666667 49:0.125 53:0.2 54:0.5 55:0.125 56:0.14285714 57:0.125 
-4 0:0.54172276 1:0.56104696 2:0.37686738 3:0.18408493 4:0.12874461 5:0.26697273 6:0.71204588 7:0.34231612 8:0.80471837 9:0.30297454 10:0.48366591 11:0.65707766 12:0.066176618 13:0.59789192 14:0.0038815804 15:0.31850794 16:0.29669144 17:0.48519041 18:0.42839887 19:0.11111111 21:0.13953488 22:0.37966101 23:0.75000001 24:0.22027972 25:0.90566035 26:0.092592592 27:0.54258863 28:0.86437256 29:0.10015001 30:0.48383741 31:0.27018633 32:0.50142449 33:0.37202427 34:0.40625 35:0.45542254 36:0.4 37:0.14285714 38:0.27777778 39:0.23076923 40:0.1 42:0.33333333 43:0.25 44:0.2 45:0.14285714 48:0.25 49:0.375 52:0.33333333 54:0.5 56:0.42857143 57:0.25 
-2.630433985413712 0:0.44965228 1:0.60983147 2:0.37686738 3:0.18408493 5:0.23071608 6:0.42273063 7:0.55735275 8:0.46235917 9:0.42546943 10:0.31290809 11:0.46412587 12:0.030595911 13:0.32346633 14:0.50670047 15:0.54576009 16:0.41084815 17:0.55148097 18:0.49102858 19:0.11111111 22:0.27118644 23:0.50357144 24:0.53846154 25:0.71698111 26:0.037037046 27:0.21053499 28:0.62398123 29:0.33645823 30:0.55424712 31:0.36024844 32:0.52991453 33:0.3885194 34:0.21875 35:0.2426707 36:0.26666667 37:0.14285714 38:0.22222222 39:0.23076923 40:0.2 42:0.16666667 43:0.125 44:0.2 49:0.25 53:0.2 54:0.5 55:0.125 56:0.28571429 57:0.125 
-4 0:0.44682667 1:0.63966635 2:0.37686738 3:0.18408493 4:0.42764417 5:0.36091204 6:0.40325019 7:0.42053989 8:0.76855456 9:0.51630757 10:0.46182294 11:0.57993043 12:0.36457941 13:0.42657066 14:0.091375307 15:0.077533572 16:0.31387953 17:0.45839211 18:0.36570694 19:0.11111111 21:0.29457365 22:0.43389831 23:0.32142858 24:0.30769231 25:0.93396226 26:0.12962964 27:0.26511911 28:0.64301329 29:0.76351854 30:0.68308784 31:0.065217394 32:0.16809117 33:0.53838934 34:0.1875 35:0.23812685 36:0.33333333 37:0.14285714 38:0.16666667 39:0.15384615 43:0.375 47:0.33333333 49:0.25 52:0.16666667 53:0.2 54:0.5 55:0.125 59:0.25 
-4 0:0.5191969 1:0.6968019 2:0.37686738 3:0.18408493 4:0.0452535 5:0.66008885 6:0.58382764 7:0.61736616 8:1 9:0.54921354 10:0.43518295 11:0.61504057 12:0.46121133 13:0.459476 14:0.0025974072 15:0.17768138 16:0.39691694 17:0.48236954 18:0.40413102 19:0.11111111 22:0.73220338 23:0.43928571 24:0.47552448 25:0.86792452 26:0.037037046 27:0.28902113 28:0.74120237 29:0.56588174 30:0.52405291 31:0.30745341 32:0.48148148 33:0.84288916 34:0.21875 35:0.26233998 36:0.46666667 37:0.28571429 38:0.22222222 39:0.15384615 40:0.1 42:0.33333333 43:0.375 49:0.375 53:0.2 54:0.5 57:0.25 
-4 0:0.64623642 1:0.73383662 2:0.37686738 3:0.034897907 4:0.083491115 5:0.44534142 6:0.61305289 7:0.60900733 8:0.80471837 9:0.46415543 10:0.62597203 11:0.61759222 12:0.16857614 13:0.43887245 14:0.13171799 15:0.35098325 16:0.4457368 17:0.63328633 18:0.57127582 19:0.11111111 20:0.068965508 21:0.13953488 22:0.37966102 23:0.60714287 24:0.51048951 25:0.7735849 26:0.37037038 27:0.41404373 28:0.75071063 29:0.41940628 30:0.60564232 31:0.037267081 32:0.21367521 33:0.39748613 34:0.3125 35:0.34919186 36:0.26666667 38:0.5 39:0.53846154 40:0.4 42:0.16666667 43:0.25 44:0.4 48:0.25 49:0.375 55:0.125 58:0.33333333 59:0.25 
-4 0:0.3513074 1:0.46677515 2:0.37686738 3:0.034897907 4:0.0452535 5:0.31862153 6:0.28726616 7:0.48345438 8:0.40262382 9:0.40314848 10:0.28552259 11:0.36738766 12:0.16383529 13:0.23588815 14:0.022443899 15:0.29155851 16:0.24154206 17:0.37376587 18:0.28227177 19:0.11111111 20:0.068965508 22:0.37627119 23:0.32857144 24:0.34965035 25:0.58490565 26:0.092592592 27:0.16608048 28:0.59957484 29:0.1859276 30:0.53624532 31:0.012422356 32:0.1994302 33:0.36303739 34:0.25 35:0.23161192 36:0.4 37:0.28571429 38:0.16666667 39:0.076923077 40:0.2 42:0.16666667 43:0.5 44:0.2 48:0.25 49:0.125 50:0.33333333 55:0.25 56:0.14285714 
-0.4916049235478332 0:0.40238345 1:0.70398187 2:0.37686738 3:0.034897907 4:0.42764417 5:0.41059177 6:0.44423931 7:0.70235701 8:0.64916118 9:0.80232553 10:0.73720295 11:0.42016276 12:0.20807062 13:0.19086046 14:0.37617163 15:0.27145066 16:0.5995502 17:0.5416079 18:0.4809792 19:0.11111111 20:0.068965508 21:0.29457365 22:0.55593219 23:0.43928571 24:0.67132867 25:0.90566035 26:0.33333335 27:0.71818586 28:0.5012681 29:0.096965401 30:0.070797679 31:0.027950321 32:0.025641035 33:0.9143121 34:0.09375 35:0.15208415 36:0.26666667 38:0.16666667 39:0.15384615 42:0.16666667 43:0.25 48:0.25 49:0.25 57:0.25 59:0.25 
-0.532064496394527 0:0.53140109 1:0.64457233 2:0.37686738 3:0.18408493 4:0.42764417 5:1 6:0.6063727 7:0.659904 8:0.3568721 9:0.5472155 10:0.58845021 11:0.6743497 12:0.12291811 13:0.32133982 14:0.047279761 15:0.30025291 16:0.60423412 17:0.393512 18:0.3165241 19:0.11111111 21:0.29457365 22:0.95254238 23:0.37500001 24:0.51048951 25:0.33962263 26:0.12962964 27:0.41665992 28:0.58488531 29:0.069743653 30:0.32194456 31:0.12111801 32:0.31623932 33:0.94802641 34:0.28125 35:0.30142955 36:0.53333333 37:0.14285714 38:0.22222222 42:0.66666667 43:0.25 44:0.4 47:0.16666667 49:0.25 50:0.33333333 51:0.16666667 54:0.5 55:0.125 
4 0:0.48376525 1:0.5929433 2:0.37686738 3:0.034897907 4:0.30264107 5:0.17882843 6:0.55328624 7:0.57445647 8:0.80471837 9:0.49047352 10:0.3725956 11:0.75155288 12:0.44352582 13:0.69092496 14:0.38607542 15:0.52842079 16:0.54896081 17:0.36953456 18:0.29039572 19:0.11111111 20:0.068965508 21:0.21705427 22:0.12881356 23:0.37500001 24:0.41958042 25:0.7735849 26:0.12962964 27:0.18627946 28:0.69678318 29:0.63176629 30:0.72750982 31:0.065217391 32:0.32193732 33:0.45537632 34:0.28125 35:0.33026951 36:0.46666667 37:0.28571429 38:0.16666667 39:0.15384615 42:0.16666667 43:0.25 44:0.4 48:0.25 49:0.375 51:0.16666667 52:0.33333333 53:0.4 55:0.125 
4 0:0.43851495 1:0.42632627 2:0.37686738 3:0.18408493 4:0.36176446 5:0.42357463 6:0.44777279 7:0.18738339 8:0.64916118 9:0.18023267 10:0.32857304 11:0.60253035 12:0.13068671 13:0.6669767 14:0.057496904 15:0.76079828 16:0.48128978 17:0.29478138 18:0.30088716 19:0.11111111 21:0.34883722 22:0.35254237 23:0.5 24:0.15384615 25:0.90566035 26:0.037037046 27:0.33013927 28:0.68233775 29:0.17312294 30:0.58831754 31:0.04037267 32:0.58119658 33:0.46740769 34:0.53125 35:0.52764695 36:0.6 37:0.42857143 38:0.27777778 39:0.15384615 42:0.66666667 43:0.125 44:0.4 45:0.28571429 46:0.5 47:0.16666667 48:0.25 49:0.25 51:0.16666667 54:1 55:0.125 56:0.28571429 57:0.25 
-4 0:0.47069384 1:0.63614542 2:0.37686738 3:0.034897907 4:0.0452535 5:0.039011851 6:0.61811473 7:0.6214551 8:1 9:0.40314848 10:0.50475309 11:0.72299868 12:0.470539 13:0.60555783 14:0.039666497 15:0.11131633 16:0.49956326 17:0.47108604 18:0.38994367 19:0.11111111 20:0.068965508 23:0.45357144 24:0.59440559 25:0.86792452 26:0.092592592 27:0.40651195 28:0.71744171 29:0.50016809 30:0.55592753 31:0.015527947 32:0.16239316 33:0.39215203 34:0.21875 35:0.25663423 36:0.33333333 37:0.14285714 38:0.22222222 39:0.23076923 40:0.1 43:0.25 44:0.2 48:0.25 49:0.375 51:0.16666667 53:0.2 55:0.125 56:0.14285714 59:0.25 
4 0:0.60699284 1:0.63972993 2:0.37686738 3:0.034897907 4:0.42764417 5:0.61825307 6:0.48374632 7:0.6169169 8:0.76855456 9:0.49603109 10:0.43591227 11:0.56892456 12:0.14536632 13:0.37041189 14:0.22612216 15:0.56144013 16:0.5249233 17:0.45133992 18:0.39516541 19:0.11111111 20:0.068965508 21:0.29457365 22:0.53898305 23:0.35000001 24:0.46853147 25:0.93396226 26:0.12962964 27:0.31875524 28:0.57562114 29:0.10804828 30:0.38798604 31:0.1583851 32:0.51566952 33:0.51911975 34:0.375 35:0.44077432 36:0.46666667 37:0.14285714 38:0.27777778 39:0.15384615 42:0.33333333 43:0.375 47:0.16666667 48:0.25 49:0.5 51:0.16666667 52:0.16666667 55:0.125 56:0.28571429 57:0.125 59:0.25 
-4 0:0.52790886 1:0.47769557 2:0.79629862 3:0.034897907 4:0.51323927 5:0.53704051 6:0.35613907 7:0.43988388 8:0.3568721 9:0.27940437 10:0.28067377 11:0.5135082 12:0.087070074 13:0.39706355 14:0.040981036 15:0.43198713 16:0.25608586 17:0.38504936 18:0.36954934 19:0.81111111 20:0.068965508 21:0.29457365 22:0.82033897 23:0.46428571 24:0.24125874 25:0.71698111 26:0.092592592 27:0.044886617 28:0.68255071 29:0.14606191 30:0.74099586 31:0.012422354 32:0.47863248 33:0.52184507 34:0.5625 35:0.57200656 36:0.66666667 37:0.42857143 38:0.55555556 39:0.38461538 40:0.4 42:0.66666667 43:0.25 44:0.4 48:0.5 49:0.125 53:0.4 55:0.25 57:0.375 59:0.5 
0.5543796486628855 0:0.69783192 1:0.6096229 2:0.79629862 3:0.034897907 4:0.083491115 5:0.14048136 6:0.45531504 7:0.52993095 8:0.64916118 9:0.46415543 10:0.44742756 11:0.5552585 12:0.15439418 13:0.28648902 14:0.058190038 15:0.32998578 16:0.23984675 17:0.86318759 18:0.7048413 19:0.81111111 20:0.068965508 21:0.13953488 22:0.21355932 23:0.64642858 24:0.62237762 25:1 26:0.12962964 27:0.39057382 28:0.85990799 29:0.32474799 30:0.62840986 31:0.012422365 32:0.49572649 33:0.44813811 34:0.53125 35:0.58821088 36:0.33333333 37:0.14285714 38:0.66666667 39:0.61538462 40:0.5 42:0.16666667 43:0.125 44:0.2 47:0.66666667 48:0.25 49:0.125 50:0.33333333 51:0.16666667 53:0.2 55:0.125 56:0.42857143 57:0.25 
-4 0:0.30526547 1:0.44788148 2:0.79629862 3:0.034897907 4:0.0452535 5:0.34523582 6:0.25652534 7:0.3767191 8:0.64916118 9:0.25453274 10:0.37764148 11:0.442706 12:0.18521893 13:0.31005058 14:0.10241687 15:0.14124884 16:0.26592057 17:0.41325811 18:0.30422838 19:0.81111111 20:0.068965508 22:0.52203389 23:0.32857143 24:0.43356643 25:0.90566035 26:0.092592592 27:0.38631297 28:0.42348905 29:0.16397564 30:0.13389972 31:0.29813664 32:0.3048433 33:0.56505462 34:0.1875 35:0.20748179 36:0.4 37:0.28571429 38:0.11111111 39:0.076923077 42:0.5 43:0.125 44:0.2 45:0.14285714 48:0.5 49:0.125 52:0.16666667 57:0.25 
0.9003982214427331 0:0.26308765 1:0.40754543 2:0.79629862 3:0.034897907 4:0.0452535 5:0.26408164 6:0.35505688 7:0.31605304 8:0.28597557 9:0.40314848 10:0.45783189 11:0.22482698 12:0.079701896 13:0.060117033 14:0.12354464 15:0.086991119 16:0.088942675 17:0.38081806 18:0.24065398 19:0.81111111 20:0.068965508 22:0.23728813 23:0.28571429 24:0.34965035 25:0.46226413 26:0.092592592 27:0.34484133 28:0.4061301 29:0.3485403 30:0.28743398 31:0.2142857 32:0.19658119 33:0.34079998 34:0.15625 35:0.15685624 36:0.33333333 37:0.28571429 38:0.11111111 39:0.076923077 40:0.1 42:0.33333333 43:0.125 44:0.2 45:0.14285714 48:0.25 53:0.2 56:0.14285714 57:0.125 58:0.33333333 
1.530000375190081 0:0.53025079 1:0.45825074 2:0.79629862 3:0.18408493 4:0.0452535 5:0.57575414 6:0.39512709 7:0.48036252 8:0.45387955 9:0.21440029 10:0.2974167 11:0.46783822 12:0.10731804 13:0.51037556 14:0.016763467 15:0.22232431 16:0.20201594 17:0.26939351 18:0.30481953 19:0.81111111 22:0.49491525 23:0.46785715 24:0.27622377 25:0.81132073 27:0.12821493 28:0.56885328 29:0.2200586 30:0.46035915 31:0.0093167586 32:0.2991453 33:0.41379116 34:0.625 35:0.60497541 36:0.73333333 37:0.85714286 38:0.38888889 39:0.23076923 42:0.33333333 43:0.625 44:0.4 45:0.57142857 47:0.16666667 48:0.25 49:0.125 51:0.16666667 53:0.2 54:0.5 56:0.28571429 57:0.375 59:0.5 
3.347172291371667 0:0.39774781 1:0.52070377 2:0.79629862 3:0.034897907 5:0.031310989 6:0.42208762 7:0.28725609 8:0.41771573 9:0.30297454 10:0.44688142 11:0.39298549 12:0.09962132 13:0.15905723 14:0.032765666 15:0.22935526 16:0.17260126 17:0.5641749 18:0.50458257 19:0.81111111 20:0.068965508 23:0.75357143 24:0.12237762 25:0.9716981 26:0.12962964 27:0.52510797 28:0.60273243 29:0.12090777 30:0.11281868 31:0.043478259 32:0.096866097 33:0.12367964 34:0.25 35:0.28808847 36:0.26666667 37:0.28571429 38:0.27777778 39:0.30769231 40:0.1 42:0.16666667 43:0.125 44:0.4 45:0.14285714 47:0.16666667 48:0.25 51:0.16666667 52:0.16666667 56:0.14285714 57:0.25 59:0.25 
1.675105973654198 0:0.59370634 1:0.65254464 2:0.79629862 3:0.034897907 4:0.083491115 5:0.37113622 6:0.7201242 7:0.49753563 8:0.76855456 9:0.36898087 10:0.485633 11:0.65846013 12:0.20431535 13:0.51023503 14:0.19536547 15:0.487659 16:0.44706878 17:0.61354021 18:0.54652619 19:0.81111111 20:0.068965508 21:0.13953488 22:0.45762713 23:0.78928573 24:0.37762238 25:1 26:0.12962964 27:0.32347171 28:0.83482041 29:0.45896866 30:0.73894438 31:0.2173913 32:0.43589744 33:0.52650615 34:0.34375 35:0.41357346 36:0.33333333 37:0.14285714 38:0.38888889 39:0.30769231 40:0.1 42:0.33333333 43:0.25 44:0.2 46:0.25 47:0.66666667 48:0.25 49:0.25 52:0.16666667 55:0.125 59:0.25 
4 0:0.63488535 1:0.72230294 2:0.79629862 3:0.18408493 5:0.23071608 6:0.7779834 7:0.58054882 8:1 9:0.26880692 10:0.45195759 11:0.89830072 12:0.39190039 13:0.84893824 14:0.17885974 15:0.34780808 16:0.54991244 17:0.65867419 18:0.59721208 19:0.81111111 22:0.27118644 23:0.68571429 24:0.54895105 25:0.90566035 26:0.21296297 27:0.35192783 28:0.83560371 29:0.27811564 30:0.64866037 31:0.31677019 32:0.37321937 33:0.35879428 34:0.3125 35:0.39039774 36:0.13333333 38:0.27777778 39:0.23076923 42:0.16666667 44:0.2 46:0.25 49:0.625 52:0.33333333 54:0.5 55:0.25 56:0.28571429 57:0.125 
-0.4719225188165715 0:0.53738403 1:0.59868259 2:0.79629862 3:0.18408493 4:0.68562452 5:0.022394691 6:0.78840132 7:0.39089952 8:0.76855456 9:0.5472155 10:0.25051151 11:0.57705771 12:0.17396566 13:0.35299379 14:0.081468609 15:0.55622639 16:0.45571012 17:0.56135402 18:0.49634884 19:0.81111111 21:1 23:0.85000001 24:0.17832168 25:0.93396226 26:0.12962964 27:0.28570829 28:0.64606877 29:0.34517662 30:0.42405351 31:0.055900619 32:0.66381767 33:0.67156286 34:0.34375 35:0.39446438 36:0.46666667 37:0.28571429 38:0.33333333 39:0.30769231 40:0.1 42:0.16666667 43:0.25 44:0.2 45:0.14285714 47:0.33333333 48:0.25 49:0.25 51:0.33333333 52:0.16666667 54:0.5 57:0.25 
-4 0:0.37088619 1:0.47060189 2:0.79629862 3:0.034897907 4:0.279492 5:0.10223915 6:0.33920191 7:0.39479567 8:0.57327293 9:0.32225523 10:0.34324984 11:0.45184914 12:0.1297928 13:0.51163295 14:0.021609172 15:0.17418405 16:0.55128018 17:0.45980255 18:0.38876139 19:0.81111111 20:0.068965508 21:0.34883722 22:0.15254238 23:0.27142858 24:0.41958042 25:0.83962264 26:0.12962964 27:0.21034907 28:0.64615532 29:0.39397284 30:0.59920111 31:0.0062111807 32:0.31054132 33:0.50283558 34:0.28125 35:0.27794261 36:0.33333333 37:0.14285714 38:0.16666667 39:0.076923077 42:0.16666667 43:0.125 44:0.4 45:0.14285714 46:0.25 47:0.33333333 48:0.25 49:0.125 53:0.4 55:0.375 
-2.147890935496607 0:0.33836492 1:0.38704318 2:0.79629862 3:0.034897907 4:0.34789457 5:0.14381494 6:0.29722367 7:0.33949878 8:0.57327293 9:0.034167616 10:0.22919178 11:0.35128894 12:0.07509115 13:0.40803831 14:0.052713139 15:0.33247793 16:0.33935528 17:0.32863188 18:0.29371232 19:0.81111111 20:0.068965508 21:0.21705427 22:0.094915254 23:0.3607143 24:0.14335664 25:0.83962264 26:0.037037046 27:0.15148056 28:0.56025039 29:0.013813686 30:0.43177946 31:0.018633543 32:0.15384616 33:0.37286705 34:0.40625 35:0.37987841 36:0.53333333 37:0.57142857 38:0.22222222 39:0.15384615 43:0.25 44:0.8 45:0.42857143 46:0.25 47:0.33333333 48:0.5 51:0.33333333 53:0.2 54:0.5 55:0.125 
4 0:0.42171016 1:0.47238457 2:0.79629862 3:0.034897907 5:0.32232201 6:0.32884484 7:0.41819717 8:0.53710912 9:0.25453274 10:0.32494053 11:0.53236292 12:0.35887778 13:0.54951826 14:0.071371167 15:0.23213195 16:0.19950473 17:0.47954867 18:0.42078147 19:0.81111111 20:0.068965508 22:0.34237288 23:0.4857143 24:0.34965035 25:1 26:0.12962964 27:0.11923761 28:0.82244971 29:0.59651016 30:0.77916644 31:0.046583849 32:0.27065527 33:0.46455275 34:0.375 35:0.336162 36:0.46666667 37:0.14285714 38:0.33333333 39:0.23076923 40:0.4 43:0.375 44:0.2 45:0.14285714 47:0.33333333 48:0.25 49:0.125 51:0.5 55:0.25 
4 0:0.42699945 1:0.55467206 2:0.79629862 3:0.034897907 5:0.10223915 6:0.48964749 7:0.45693138 8:0.46235917 9:0.30523843 10:0.44353149 11:0.56581672 12:0.27158672 13:0.41627045 14:0.11908924 15:0.22837855 16:0.27853257 17:0.66572638 18:0.62314834 19:0.81111111 20:0.068965508 22:0.15254238 23:0.73571429 24:0.52447552 25:0.9716981 26:0.34259259 27:0.53744003 28:0.70587426 29:0.27828293 30:0.41023371 31:0.10559007 32:0.1965812 33:0.41559255 34:0.25 35:0.27273482 36:0.2 38:0.27777778 39:0.23076923 40:0.2 43:0.125 44:0.2 47:0.16666667 48:0.25 49:0.125 53:0.2 55:0.375 56:0.14285714 57:0.25 
-1.084026326200981 0:0.46630178 1:0.60031163 2:0.79629862 3:0.034897907 4:0.42764417 6:0.65864442 7:0.49199861 8:0.6368144 9:0.44992054 10:0.54197611 11:0.52831301 12:0.032412743 13:0.2395488 14:0.084478285 15:0.39078517 16:0.66428916 17:0.45275036 18:0.37448959 19:0.81111111 20:0.068965508 21:0.29457365 23:0.52857144 24:0.38811189 25:0.49056604 26:0.12962964 27:0.42170638 28:0.48599946 29:0.096599551 30:0.22167739 31:0.11180124 32:0.42165243 33:0.7131274 34:0.25 35:0.31458389 36:0.4 37:0.14285714 38:0.22222222 39:0.15384615 44:0.4 47:0.16666667 48:0.25 49:0.25 51:0.83333333 56:0.28571429 58:0.33333333 
2.550062260712282 0:0.55776566 1:0.67314697 2:0.79629862 3:0.034897907 4:0.51113528 5:0.061082684 6:0.59923595 7:0.4418737 8:1 9:0.27940437 10:0.32366947 11:0.72796244 12:0.66752757 13:0.88925442 14:0.082728744 15:0.26995601 16:0.44807206 17:0.7080395 18:0.65926699 19:0.81111111 20:0.068965508 21:0.43410853 22:0.1220339 23:0.6357143 24:0.61188811 25:0.90566035 26:0.092592592 27:0.29429541 28:0.86955384 29:0.68803548 30:0.82182007 31:3.4469363e-16 32:0.19943021 33:0.41193379 34:0.28125 35:0.34309189 36:0.26666667 37:0.14285714 38:0.38888889 39:0.38461538 40:0.3 42:0.16666667 44:0.2 47:0.16666667 48:0.5 49:0.375 53:0.2 56:0.28571429 57:0.125 
-4 0:0.43825672 1:0.52251092 2:0.79629862 3:0.034897907 4:0.083491115 5:0.061082684 6:0.48996301 7:0.38458114 8:1 9:0.46415543 10:0.25846671 11:0.58809727 12:0.3613837 13:0.54582523 14:5.5217763e-05 15:0.12950767 16:0.2355539 17:0.56276446 18:0.49923065 19:0.81111111 20:0.068965508 21:0.13953488 22:0.1220339 23:0.53571429 24:0.42657342 25:0.86792452 26:0.12962964 27:0.28278568 28:0.70446078 29:0.38797022 30:0.54180344 31:0.062111797 32:0.35612536 33:0.47878818 34:0.3125 35:0.29813058 36:0.4 37:0.14285714 38:0.38888889 39:0.30769231 40:0.5 43:0.125 44:0.2 45:0.14285714 48:0.25 49:0.25 51:0.33333333 53:0.4 57:0.125 
0.9415283918192117 0:0.53372242 1:0.57355286 2:0.79629862 3:0.034897907 4:0.083491115 5:0.10223915 6:0.48979578 7:0.42724605 8:0.76855456 9:0.44532539 10:0.31921358 11:0.65682284 12:0.3247347 13:0.62146034 14:0.15203472 15:0.298361 16:0.24189663 17:0.71932299 18:0.63851798 19:0.81111111 20:0.068965508 21:0.13953488 22:0.15254238 23:0.56785714 24:0.50699301 25:0.94339619 26:0.41666667 27:0.3907781 28:0.68795615 29:0.24112392 30:0.45801604 31:0.027950313 32:0.15099715 33:0.2916994 34:0.375 35:0.3703135 36:0.2 38:0.44444444 39:0.46153846 40:0.2 42:0.16666667 44:0.6 45:0.42857143 47:0.16666667 48:0.25 49:0.125 51:0.16666667 52:0.16666667 55:0.125 57:0.25 59:0.25 
-4 0:0.20440151 1:0.29016125 2:0.22507516 3:0.18408493 6:0.31000906 7:0.22430877 8:0.46564605 9:0.26880692 10:0.32406488 11:0.2496204 12:0.06822048 13:0.089860332 14:0.14735954 15:0.23254154 16:0.1980702 17:0.33850494 18:0.25658252 19:0.45555555 23:0.46428572 24:0.13986014 25:0.47169811 26:0.037037046 27:0.32653836 28:0.5176108 29:0.17710857 30:0.33846626 31:0.12422359 32:0.34188034 33:0.22111963 34:0.28125 35:0.20729506 36:0.26666667 37:0.28571429 38:0.11111111 39:0.15384615 40:0.1 42:0.16666667 43:0.125 45:0.42857143 46:0.25 49:0.125 51:0.16666667 52:0.16666667 54:0.5 55:0.25 57:0.125 59:0.25 
1.036277699485348 0:0.56706543 1:0.58273149 2:0.22507516 3:0.034897907 4:0.30264107 5:0.21516742 6:0.5482244 7:0.44595955 8:0.80471837 9:0.49047352 10:0.36181376 11:0.6606009 12:0.30219097 13:0.67183001 14:0.021513702 15:0.2647639 16:0.31205989 17:0.40056418 18:0.35559534 19:0.45555555 20:0.068965508 21:0.21705427 22:0.15254238 23:0.5607143 24:0.16783217 25:0.81132075 26:0.12962964 27:0.17534588 28:0.66229383 29:0.3904201 30:0.57054775 31:0.021739128 32:0.16524217 33:0.31484402 34:0.40625 35:0.44585762 36:0.53333333 37:0.57142857 38:0.38888889 39:0.53846154 40:0.1 41:0.33333333 43:0.625 44:0.4 45:0.14285714 47:0.16666667 48:0.25 49:0.25 53:0.4 56:0.14285714 58:0.33333333 59:0.25 
4 0:0.23055515 1:0.33583518 2:0.22507516 3:0.18408493 5:0.07428235 6:0.21306578 7:0.29069562 8:0.10925622 9:0.18023267 10:0.24305821 11:0.30139528 12:0.17124893 13:0.36490582 14:0.035580809 15:0.20475968 16:0.54481344 17:0.38645981 18:0.28353849 19:0.45555555 22:0.14237288 23:0.31785715 24:0.34265734 25:0.37735848 26:0.064814819 27:0.31953566 28:0.61198105 29:0.41785285 30:0.48113938 31:0.0062111844 32:0.10826212 33:0.64403453 34:0.21875 35:0.23779488 36:0.26666667 37:0.14285714 38:0.11111111 42:0.16666667 44:0.4 45:0.14285714 46:0.5 47:0.16666667 51:0.33333333 52:0.33333333 54:0.5 57:0.125 
-1.077320138899892 0:0.40474804 1:0.48846314 2:0.22507516 3:0.18408493 4:0.30264107 6:0.42013383 7:0.51997417 8:0.57327293 9:0.54262035 10:0.41304932 11:0.46062033 12:0.067397891 13:0.35011165 14:0.036817825 15:0.15662099 16:0.22776733 17:0.81100142 18:0.75282965 19:0.45555555 21:0.21705427 22:0.084745764 23:0.71071429 24:0.6993007 25:0.83962264 26:0.41666667 27:0.62204632 28:0.81812272 29:0.17218382 30:0.61968304 31:0.13664597 32:0.31339032 33:0.37192339 34:0.3125 35:0.29383571 36:0.13333333 38:0.44444444 39:0.46153846 40:0.3 41:0.66666667 42:0.16666667 44:0.2 45:0.28571429 47:0.33333333 52:0.16666667 54:0.5 55:0.125 57:0.25 
4 0:0.372661 1:0.47252548 2:0.22507516 3:0.18408493 4:0.20306626 6:0.28604441 7:0.4527887 8:0.18680201 9:0.54214163 10:0.36204458 11:0.35095194 12:0.15130181 13:0.37760676 14:0.18251077 15:0.3564956 16:0.22822955 17:0.67277857 18:0.6208429 19:0.45555555 21:0.32558139 23:0.54642857 24:0.61538462 25:0.72641507 26:0.58333334 27:0.46951561 28:0.6809087 29:0.25133771 30:0.53031922 31:0.18012422 32:0.29059829 33:0.43104054 34:0.28125 35:0.26885491 36:0.066666667 38:0.33333333 39:0.23076923 40:0.1 45:0.14285714 47:0.33333333 50:0.33333333 54:0.5 55:0.625 57:0.25 59:0.5 
-4 0:0.18499328 1:0.28493862 2:0.22507516 3:0.034897907 4:0.279492 6:0.1003335 7:0.31090116 8:0.075309107 9:0.46560188 10:0.31556441 11:0.19712898 12:0.087189975 13:0.08633054 14:0.12890149 15:0.19817083 16:0.27554507 17:0.40338506 18:0.29077996 19:0.45555555 20:0.068965508 21:0.34883722 23:0.20000001 24:0.17832168 25:0.53773585 26:0.12962964 27:0.22443308 28:0.52420557 29:0.34240783 30:0.32886349 31:0.05590062 32:0.17378918 33:0.424649 34:0.1875 35:0.13322406 36:0.33333333 37:0.28571429 38:0.055555556 40:0.1 43:0.125 45:0.28571429 47:0.33333333 48:0.25 51:0.33333333 53:0.2 55:0.25 
-2.611813635300556 0:0.38308011 1:0.483818 2:0.22507516 3:0.18408493 4:0.31860812 5:0.23022718 6:0.48173384 7:0.43626852 8:0.53710912 9:0.25453274 10:0.38692533 11:0.41865215 12:0.059330168 13:0.25104156 14:0.012850247 15:0.16700122 16:0.13800854 17:0.45839211 18:0.38722443 19:0.45555555 21:0.21705427 22:0.29491525 23:0.50357144 24:0.44755244 25:1 26:0.092592592 27:0.3830971 28:0.6473247 29:0.27746195 30:0.45584959 31:0.0093167716 32:0.25356126 33:0.47641906 34:0.28125 35:0.29462415 36:0.4 37:0.28571429 38:0.27777778 39:0.38461538 42:0.5 43:0.125 44:0.2 45:0.28571429 47:0.33333333 48:0.25 54:0.5 57:0.25 59:0.5 
0.5114079643369247 0:0.56238993 1:0.62259618 2:0.22507516 3:0.034897907 4:0.085595103 5:0.51995155 6:0.56290881 7:0.44308861 8:0.76855456 9:0.46751228 10:0.29349417 11:0.71458448 12:0.2462423 13:0.66704366 14:0.017221498 15:0.2081243 16:0.40669586 17:0.52186179 18:0.4583768 19:0.45555555 20:0.068965508 22:0.47118644 23:0.5607143 24:0.40209791 25:0.93396226 26:0.12962964 27:0.1905403 28:0.84008823 29:0.41118773 30:0.79571538 31:0.003105589 32:0.13390314 33:0.47417334 34:0.34375 35:0.3675955 36:0.4 37:0.14285714 38:0.38888889 39:0.30769231 40:0.2 42:0.5 43:0.125 45:0.14285714 47:0.33333333 48:0.25 49:0.375 51:0.16666667 56:0.14285714 59:0.5 
1.576352777714847 0:0.54289423 1:0.56204933 2:0.22507516 3:0.18408493 5:0.10223915 6:0.64326766 7:0.41534435 8:0.76855456 9:0.42546943 10:0.34478799 11:0.59787434 12:0.26312249 13:0.46184831 14:0.041644801 15:0.40145445 16:0.24491109 17:0.55289141 18:0.48664171 19:0.45555555 22:0.15254238 23:0.7107143 24:0.35314685 25:1 26:0.037037046 27:0.30327274 28:0.73269042 29:0.44700929 30:0.66390461 31:0.034161488 32:0.41025641 33:0.44971686 34:0.40625 35:0.44069132 36:0.46666667 37:0.28571429 38:0.38888889 39:0.30769231 40:0.2 42:0.16666667 44:0.4 45:0.14285714 47:0.5 49:0.125 50:0.33333333 53:1 54:0.5 56:0.28571429 
4 0:0.45860198 1:0.5431835 2:0.22507516 3:0.18408493 4:0.29357326 5:0.15040823 6:0.76014667 7:0.44649382 8:0.76855456 9:0.48917205 10:0.48209456 11:0.46288014 12:0.081589059 13:0.25097148 14:0.31379706 15:0.36261466 16:0.15790099 17:0.44005642 18:0.37387205 19:0.45555555 21:0.32558139 22:0.21694916 23:0.90357144 24:0.3041958 25:0.93396226 26:0.037037046 27:0.4971075 28:0.51370542 29:0.075843035 30:0.22961293 31:0.040372673 32:0.36182336 33:0.32646344 34:0.3125 35:0.33707492 36:0.46666667 37:0.57142857 38:0.22222222 39:0.30769231 42:0.16666667 43:0.375 45:0.14285714 47:0.16666667 49:0.25 50:0.33333333 51:0.16666667 52:0.16666667 54:1 55:0.125 57:0.25 
0.679359010232538 0:0.4493155 1:0.49731743 2:0.22507516 3:0.18408493 4:0.20306626 5:0.071391265 6:0.71503046 7:0.34392054 8:1 9:0.22036512 10:0.21794363 11:0.57804326 12:0.078724714 13:0.67792465 14:0.044490591 15:0.15001796 16:0.3548824 17:0.52609309 18:0.46304796 19:0.45555555 21:0.32558139 23:0.70000001 24:0.27972028 25:0.86792452 26:0.12962964 27:0.39887286 28:0.53940322 29:0.21465286 30:0.39201747 31:0.018633535 32:0.21367522 33:0.40240151 34:0.375 35:0.37799033 36:0.33333333 37:0.14285714 38:0.33333333 39:0.30769231 40:0.1 41:0.33333333 42:0.16666667 45:0.28571429 46:0.25 49:0.375 51:0.16666667 53:0.4 54:0.5 55:0.125 56:0.14285714 57:0.25 58:0.33333333 
0.206901732154873 0:0.29833637 1:0.45964115 2:0.22507516 3:0.034897907 4:0.48255826 6:0.43113109 7:0.43850059 8:0.41771573 9:0.4005978 10:0.46501033 11:0.44751869 12:0.37331538 13:0.35916209 14:0.16222937 15:0.11523738 16:0.30405789 17:0.62341326 18:0.60114181 19:0.45555555 20:0.068965508 21:0.67441861 23:0.80714286 24:0.48951049 25:0.9716981 26:0.30555556 27:0.59068593 28:0.7347496 29:0.45928572 30:0.38279913 31:0.2142857 32:0.19658119 33:0.76157275 34:0.15625 35:0.21449468 36:0.2 38:0.16666667 39:0.15384615 45:0.14285714 47:0.33333333 48:0.25 51:0.16666667 52:0.33333333 54:0.5 57:0.375 
4 0:0.53058293 1:0.59217856 2:0.22507516 3:0.18408493 5:0.48649789 6:0.58440376 7:0.43376896 8:0.80471837 9:0.27107081 10:0.4718517 11:0.72161787 12:0.12484173 13:0.66114747 14:0.013943511 15:0.17027429 16:0.49650089 17:0.54301834 18:0.47871897 19:0.45555555 22:0.41016949 23:0.43571429 24:0.60489511 25:0.7735849 26:0.28703704 27:0.46982204 28:0.67905811 29:0.23924944 30:0.59656362 31:0.040372669 32:0.26210826 33:0.48170876 34:0.34375 35:0.33761437 36:0.26666667 38:0.33333333 39:0.30769231 40:0.2 42:0.16666667 43:0.125 44:0.2 45:0.14285714 46:0.25 47:0.16666667 49:0.375 51:0.16666667 54:0.5 55:0.375 58:0.33333333 
4 0:0.4368673 1:0.52109914 2:0.22507516 3:0.034897907 5:0.1430659 6:0.41561881 7:0.50933364 8:0.46235917 9:0.30297454 10:0.38425838 11:0.65705221 12:0.3071417 13:0.5056416 14:0.19510152 15:0.47428646 16:0.33664298 17:0.65726375 18:0.59577117 19:0.45555555 20:0.068965508 22:0.26440677 23:0.64285715 24:0.58391608 25:0.71698111 26:0.26851852 27:0.42267273 28:0.81468554 29:0.3442577 30:0.56183512 31:0.080745336 32:0.18518519 33:0.33694637 34:0.3125 35:0.30159553 36:0.2 38:0.33333333 39:0.30769231 40:0.4 43:0.25 45:0.28571429 48:0.25 49:0.25 52:0.16666667 56:0.28571429 57:0.25 
-0.3334769021169609 0:0.22366445 1:0.36362046 2:0.22507516 3:0.034897907 5:0.031310989 6:0.45581412 7:0.16978189 8:0.57327293 9:0.22036512 10:0.36185929 11:0.19761358 12:0.11168586 13:0.092692667 14:0.036513211 15:0.023443765 16:0.075206257 17:0.50916785 18:0.42718548 19:0.45555555 20:0.068965508 23:0.60357144 24:0.26923077 25:0.9716981 26:0.33333335 27:0.55012559 28:0.36619543 29:0.077849992 30:0.054337009 31:0.1614907 32:0.14814816 33:0.15914033 34:0.125 35:0.11378301 36:0.13333333 38:0.11111111 39:0.23076923 43:0.125 44:0.2 45:0.28571429 46:0.25 47:0.16666667 48:0.25 55:0.125 57:0.125 59:0.25 
2.076364991636887 0:0.52131487 1:0.49753366 2:0.22507516 3:0.034897907 4:0.31651096 5:0.226873 6:0.35263692 7:0.48818578 8:0.53710912 9:0.35642284 10:0.29797498 11:0.47953381 12:0.13161186 13:0.49737029 14:0.016600197 15:0.47168419 16:0.24225359 17:0.70521862 18:0.59799803 19:0.45555555 20:0.068965508 21:0.34883722 22:0.30508475 23:0.65357144 24:0.43356643 25:1 26:0.092592592 27:0.049663352 28:0.79158615 29:0.31386358 30:0.88609247 31:0.19875776 32:0.5954416 33:0.51137652 34:0.5 35:0.54374754 36:0.4 37:0.28571429 38:0.44444444 39:0.38461538 40:0.1 42:0.33333333 43:0.125 45:0.14285714 47:0.83333333 48:0.5 50:0.33333333 52:0.16666667 53:0.2 55:0.375 56:0.14285714 57:0.375 
4 0:0.3885269 1:0.56068274 2:0.22507516 3:0.034897907 4:0.42764417 5:0.15643373 6:0.34942558 7:0.5613676 8:1 9:0.24523676 10:0.43933161 11:0.4597873 12:0.25580994 13:0.27500409 14:0.2076787 15:0.25569124 16:0.5757411 17:0.54866009 18:0.48866402 19:0.45555555 20:0.068965508 21:0.29457365 22:0.12881356 23:0.45 24:0.52097902 25:0.86792452 26:0.15740741 27:0.3860249 28:0.67420747 29:0.4894989 30:0.43932845 31:0.046583843 32:0.079772091 33:0.46020275 34:0.1875 35:0.20436957 36:0.2 38:0.22222222 39:0.23076923 40:0.1 42:0.16666667 45:0.14285714 46:0.25 48:0.25 49:0.375 53:0.2 55:0.125 57:0.125 59:0.25 
0.4623188266599572 0:0.30389502 1:0.39799503 2:0.22507516 3:0.18408493 4:0.0452535 5:0.17363042 6:0.30721341 7:0.42896178 8:0.12542666 9:0.44073024 10:0.41193484 11:0.34024851 12:0.11297494 13:0.22183683 14:0.022274117 15:0.13574403 16:0.22040378 17:0.55712271 18:0.49481188 19:0.45555555 22:0.15254238 23:0.60000001 24:0.52097902 25:0.71698111 26:0.037037046 27:0.61798977 28:0.58910578 29:0.1633346 30:0.19008555 31:0.068322984 32:0.099715103 33:0.29979022 34:0.28125 35:0.19660975 36:0.2 37:0.14285714 38:0.22222222 39:0.076923077 40:0.1 42:0.16666667 43:0.125 45:0.71428571 47:0.16666667 50:0.33333333 54:0.5 55:0.125 57:0.25 58:0.33333333 
-0.5162135094490866 0:0.43374403 1:0.49956976 2:0.22507516 3:0.18408493 4:0.41117219 5:0.17615711 6:0.39768785 7:0.42628031 8:0.57327293 9:0.4490396 10:0.41550107 11:0.47090121 12:0.09238661 13:0.33621195 14:0.079393444 15:0.28821901 16:0.13966388 17:0.42595205 18:0.36615898 19:0.45555555 21:0.49612404 22:0.20677966 23:0.48214286 24:0.22377622 25:0.83962264 26:0.12962964 27:0.28556428 28:0.73675335 29:0.23101131 30:0.66718005 31:0.24844721 32:0.52421652 33:0.49898271 34:0.34375 35:0.38624811 36:0.4 37:0.28571429 38:0.33333333 39:0.30769231 42:0.33333333 43:0.125 44:0.4 45:0.14285714 47:0.16666667 50:0.33333333 51:0.16666667 52:0.16666667 54:1 56:0.14285714 57:0.25 59:0.5 
-4 0:0.37740536 1:0.57650087 3:0.034897907 5:0.19942633 6:0.54557267 7:0.54409285 8:0.76855456 9:0.30523843 10:0.59958201 11:0.4364769 12:0.34328605 13:0.32857725 14:0.19030011 15:0.13573366 16:0.38061241 17:0.5641749 18:0.51311572 19:0.14444444 20:0.068965508 22:0.12881356 23:0.71785715 24:0.4055944 25:0.9716981 26:0.12962964 27:0.53604156 28:0.55749443 29:0.44368474 30:0.3693648 31:0.015527937 32:0.014245003 33:0.31188327 34:0.15625 35:0.19156794 36:0.2 37:0.14285714 38:0.22222222 39:0.30769231 40:0.1 42:0.33333333 46:0.25 47:0.16666667 48:0.25 49:0.25 55:0.125 57:0.125 59:0.25 
-4 0:0.35272627 1:0.51218062 3:0.034897907 4:0.085595103 5:0.4482144 6:0.51923565 7:0.50208063 8:0.46564605 9:0.36898087 10:0.34059351 11:0.65868291 12:0.67292224 13:0.66716431 14:0.1725055 15:0.29973245 16:0.51371194 17:0.44428774 18:0.34649489 19:0.14444444 20:0.068965508 22:0.41016949 23:0.55714287 24:0.38811189 25:0.5 26:0.12962964 27:0.30605131 28:0.70740979 29:0.73047764 30:0.65554787 31:0.21428572 32:0.39886041 33:0.54700637 34:0.1875 35:0.20246073 36:0.26666667 37:0.14285714 38:0.16666667 39:0.076923077 40:0.1 43:0.375 46:0.25 47:0.16666667 48:0.25 49:0.25 55:0.25 59:0.25 
4 0:0.50144944 1:0.56431768 3:0.034897907 4:0.42764417 5:0.29178066 6:0.51064538 7:0.47068389 8:0.76855456 9:0.068335232 10:0.2140914 11:0.66656725 12:0.082535003 13:0.78527273 14:0.066584171 15:0.27018486 16:0.59331603 17:0.5528914 18:0.48821198 19:0.14444444 20:0.068965508 21:0.29457365 22:0.28135594 23:0.63928573 24:0.37412587 25:0.93396226 26:0.055555547 27:0.035909291 28:0.73410389 29:0.13991351 30:0.87770199 31:0.034161487 32:0.13105414 33:0.57459232 34:0.34375 35:0.3936552 36:0.33333333 37:0.28571429 38:0.33333333 39:0.23076923 40:0.1 43:0.25 45:0.14285714 46:0.25 47:0.5 48:0.5 49:0.375 52:0.16666667 53:0.2 55:0.125 59:0.25 
1.363731720754553 0:0.25448868 1:0.39483661 3:0.034897907 5:0.071391265 6:0.43228212 7:0.47816259 8:0.41771573 9:0.22036512 10:0.28486157 11:0.35829819 12:0.46484563 13:0.45238556 14:0.035646543 15:0.022810954 16:0.36057583 17:0.44146686 18:0.33077594 19:0.14444444 20:0.068965508 23:0.39285715 24:0.44405594 25:0.9716981 26:0.092592592 27:0.41793788 28:0.44772234 29:0.29454042 30:0.24093357 31:0.043478261 32:0.03988604 33:0.30443203 34:0.15625 35:0.15766541 36:0.26666667 37:0.28571429 38:0.11111111 39:0.15384615 42:0.16666667 45:0.28571429 46:0.25 47:0.16666667 48:0.25 49:0.125 51:0.16666667 53:0.2 57:0.125 58:0.33333333 
-4 0:0.53255394 1:0.49279716 3:0.034897907 5:0.18167248 6:0.69421065 7:0.37112987 8:0.76855456 9:0.30523843 10:0.17891123 11:0.60093795 12:0.27698347 13:0.52451946 14:0.031788356 15:0.33450379 16:0.21358782 17:0.63187588 18:0.54045302 19:0.14444444 20:0.068965508 22:0.28474575 23:0.9357143 24:0.35314685 25:1 26:0.12962964 27:0.21207749 28:0.84026132 29:0.36733721 30:0.66455463 31:0.040372675 32:0.47863248 33:0.40244806 34:0.53125 35:0.54704649 36:0.46666667 37:0.42857143 38:0.5 39:0.46153846 40:0.4 42:0.16666667 43:0.25 45:0.14285714 46:0.25 47:0.66666667 48:0.25 49:0.125 51:0.33333333 53:0.2 55:0.125 56:0.28571429 57:0.25 
-2.349149546789723 0:0.30124959 1:0.44244083 3:0.034897907 4:0.083491115 5:0.31975557 6:0.33063028 7:0.54284454 8:0.40262382 9:0.46415543 10:0.42082422 11:0.43095149 12:0.33271027 13:0.36023037 14:0.08422594 15:0.23527375 16:0.52761158 17:0.5035261 18:0.42718548 19:0.14444444 20:0.068965508 21:0.13953488 22:0.40338983 23:0.38214287 24:0.55244756 25:0.74528301 26:0.37962964 27:0.49000266 28:0.49503949 29:0.16283628 30:0.17982601 31:0.28571428 32:0.46438747 33:0.69410661 34:0.1875 35:0.16847521 36:0.26666667 38:0.16666667 39:0.076923077 40:0.2 42:0.33333333 43:0.125 45:0.14285714 46:0.25 47:0.33333333 48:0.25 49:0.125 55:0.125 
-4 0:0.5029632 1:0.64288447 3:0.18408493 4:0.279492 5:0.32686707 6:0.59210744 7:0.53853064 8:1 9:0.4937672 10:0.39992519 11:0.67173296 12:0.27597271 13:0.62454973 14:0.073915195 15:0.22975518 16:0.52889856 17:0.51057829 18:0.4420062 19:0.14444444 21:0.34883722 22:0.4 23:0.53214287 24:0.35664336 25:0.93396226 26:0.12962964 27:0.27543466 28:0.66665631 29:0.39910039 30:0.63030164 31:0.003105589 32:0.45014246 33:0.6836996 34:0.25 35:0.30006016 36:0.33333333 37:0.14285714 38:0.22222222 39:0.15384615 42:0.33333333 43:0.125 44:0.4 46:0.25 47:0.33333333 49:0.25 51:0.16666667 52:0.16666667 54:0.5 55:0.125 
3.141720215362578 0:0.63215622 1:0.53461446 3:0.034897907 4:0.083491115 5:0.32977297 6:0.54080966 7:0.25225465 8:0.57327293 9:0.22496027 10:0.43490558 11:0.52569898 12:0.060803913 13:0.30609828 14:0.060214499 15:0.57164381 16:0.47698555 17:0.50211566 18:0.45023994 19:0.14444444 20:0.068965508 21:0.13953488 22:0.33220339 23:0.58214287 24:0.32867133 25:0.83962264 26:0.12962964 27:0.30551707 28:0.74123787 29:0.037489589 30:0.47499631 31:0.021739135 32:0.62393163 33:0.49763912 34:0.59375 35:0.62815113 36:0.4 37:0.28571429 38:0.61111111 39:0.46153846 40:0.2 42:0.5 43:0.125 44:0.6 45:0.14285714 46:0.5 47:0.33333333 48:0.25 49:0.25 51:0.16666667 52:0.16666667 55:0.25 57:0.125 59:0.75 
2.666423586719759 0:0.39267833 1:0.42213459 3:0.034897907 4:0.021051909 5:0.14567361 6:0.57226644 7:0.24239076 8:0.64916118 9:0.22496027 10:0.25763639 11:0.65721939 12:0.34991748 13:0.55133555 14:0.0095693453 15:0.2053012 16:0.24635945 17:0.37376587 18:0.33957855 19:0.14444444 20:0.068965508 22:0.14237288 23:0.60000001 24:0.32867133 25:0.90566035 26:0.15740741 27:0.35176026 28:0.72965487 29:0.19552157 30:0.41941061 31:0.012422363 32:0.35612535 33:0.27235593 34:0.4375 35:0.46762247 36:0.33333333 38:0.27777778 39:0.23076923 40:0.1 42:0.16666667 43:0.125 46:0.25 48:0.25 49:0.25 51:0.33333333 52:0.16666667 55:0.375 56:0.42857143 57:0.25 58:0.33333333 59:0.25 
-1.493677276709219 0:0.44533179 1:0.42175851 3:0.18408493 4:0.085595103 5:0.26780614 6:0.37860019 7:0.27000284 8:0.53764083 10:0.22196666 11:0.50961519 12:0.070684668 13:0.53775382 14:0.029188114 15:0.61747576 16:0.47939834 17:0.32016926 18:0.32536164 19:0.14444444 22:0.2779661 23:0.5357143 24:0.36013986 25:0.68867924 26:0.12962964 27:0.19778919 28:0.68425933 29:0.34113109 30:0.6029899 31:0.006211177 32:0.34472934 33:0.3449584 34:0.5625 35:0.56109301 36:0.4 37:0.28571429 38:0.33333333 39:0.23076923 41:0.33333333 42:0.16666667 43:0.5 44:0.2 45:0.28571429 46:0.75 49:0.375 50:0.33333333 52:0.16666667 54:0.5 55:0.125 56:0.42857143 57:0.125 59:0.25 
4 0:0.65281328 1:0.51138642 3:0.18408493 5:0.37119744 6:0.58152807 7:0.28926911 8:0.64916118 9:0.33036797 10:0.30648205 11:0.54784913 12:0.14314152 13:0.4606169 14:0.014806301 15:0.47242469 16:0.27956418 17:0.56699577 18:0.49058523 19:0.14444444 22:0.48474576 23:0.73928571 24:0.23426574 25:1 26:0.12962964 27:0.18584735 28:0.77663698 29:0.17219548 30:0.72338165 31:0.018633536 32:0.4957265 33:0.53306143 34:0.6875 35:0.7732639 36:0.6 37:0.28571429 38:0.5 39:0.38461538 40:0.1 42:0.5 45:0.14285714 46:0.25 47:0.66666667 49:0.25 51:0.5 52:0.33333333 53:0.4 54:0.5 56:0.57142857 57:0.5 
-4 0:0.37038639 1:0.48893051 3:0.034897907 4:0.015967049 5:0.35793447 6:0.56772437 7:0.43671669 8:1 9:0.35642284 10:0.43776835 11:0.48902355 12:0.34369367 13:0.44799326 14:0.12021657 15:0.27016076 16:0.276514 17:0.50211566 18:0.43212572 19:0.14444444 20:0.068965508 22:0.55932203 23:0.55357144 24:0.5104895 25:0.86792452 26:0.092592592 27:0.41548928 28:0.7129217 29:0.56281143 30:0.75156021 31:0.068322991 32:0.16809116 33:0.68691763 34:0.25 35:0.26956034 36:0.4 37:0.28571429 38:0.27777778 39:0.23076923 40:0.2 41:0.33333333 42:0.33333333 43:0.25 46:0.25 48:0.25 49:0.25 51:0.16666667 57:0.25 
4 0:0.54105579 1:0.65503636 2:0.75857557 3:0.034897907 4:0.083491115 5:0.10482369 6:0.58643878 7:0.51092017 8:0.76855456 9:0.46415543 10:0.53586648 11:0.66872221 12:0.29863608 13:0.44070358 14:0.0047360287 15:0.24833316 16:0.17358992 17:0.90409027 18:0.87290493 19:1 20:0.068965508 21:0.13953488 22:0.20338983 23:0.83928573 24:0.69580419 25:0.93396226 26:0.58333333 27:0.7226091 28:0.94561988 29:0.30066392 30:0.47491211 31:0.2795031 32:0.43874644 33:0.28214905 34:0.28125 35:0.29893977 36:0.13333333 38:0.55555556 39:0.69230769 40:0.6 42:0.16666667 47:0.5 48:0.25 49:0.125 50:0.33333333 55:0.125 57:0.125 
3.109412786355657 0:0.67472979 1:0.63019019 2:0.75857557 3:0.18408493 4:0.52710233 5:0.10482369 6:0.58643878 7:0.37500867 8:0.76855456 9:0.35642284 10:0.32896728 11:0.66872221 12:0.12841936 13:0.44070358 14:0.0047360287 15:0.35249515 16:0.28264651 17:0.88011284 18:0.74006736 19:1 21:0.43410853 22:0.20338983 23:0.83928573 24:0.42657342 25:0.93396226 26:0.092592592 27:0.26145277 28:0.94561988 29:0.24586169 30:0.60566959 31:0.0093167669 32:0.43874644 33:0.36427807 34:0.46875 35:0.49579849 36:0.33333333 37:0.28571429 38:0.72222222 39:0.84615385 40:0.7 42:0.33333333 47:0.5 48:0.25 49:0.25 50:0.33333333 53:0.2 54:0.5 55:0.125 57:0.25 
-4 0:0.48563527 1:0.62276253 2:0.75857557 3:0.034897907 4:0.42764417 6:0.4231184 7:0.470987 8:0.64916118 9:0.44532539 10:0.50279722 11:0.59497342 12:0.27579398 13:0.42693078 14:0.029673871 15:0.3684155 16:0.32834363 17:0.78420311 18:0.76147506 19:1 20:0.068965508 21:0.29457365 23:0.62142858 24:0.64335664 25:0.94339619 26:0.3888889 27:0.66201215 28:0.72433161 29:0.22808239 30:0.26600219 31:9.2553786e-10 32:0.24786324 33:0.25428244 34:0.25 35:0.30626387 36:0.13333333 38:0.33333333 39:0.38461538 40:0.2 45:0.14285714 47:0.16666667 48:0.25 49:0.25 51:0.16666667 52:0.16666667 56:0.28571429 57:0.375 
3.905867074573699 0:0.50310829 1:0.61390783 2:0.75857557 3:0.18408493 4:0.0452535 5:0.29691509 6:0.54380984 7:0.54380365 8:0.76855456 9:0.54921354 10:0.46102275 11:0.48440488 12:0.16065456 13:0.35435437 14:0.022512189 15:0.30708506 16:0.31184036 17:0.5754584 18:0.51479241 19:1 22:0.34237288 23:0.50714287 24:0.41958042 25:0.93396226 26:0.037037046 27:0.28352422 28:0.67403437 29:0.40008862 30:0.56970971 31:0.034161491 32:0.29059829 33:0.39418407 34:0.28125 35:0.31250907 36:0.26666667 37:0.14285714 38:0.27777778 39:0.15384615 40:0.2 43:0.375 44:0.4 45:0.14285714 47:0.33333333 49:0.125 52:0.33333333 54:0.5 56:0.14285714 
-0.1954509454759685 0:0.57829675 1:0.81777993 2:0.75857557 3:0.034897907 4:0.279492 5:0.25867289 6:0.78077933 7:0.66847933 8:1 9:0.33036797 10:0.57075172 11:0.60619756 12:0.084361693 13:0.33419309 14:0.61263341 15:0.5021056 16:0.89026695 17:0.77291961 18:0.79413554 19:1 20:0.068965508 21:0.34883722 22:0.28135594 23:0.78571429 24:0.7972028 25:0.90566035 26:0.41666667 27:0.62526218 28:0.69245622 29:0.14823166 30:0.24484171 31:0.59006212 32:0.55840456 33:0.63546099 34:0.1875 35:0.25939373 36:0.13333333 38:0.27777778 39:0.23076923 42:0.16666667 45:0.14285714 46:0.25 47:0.33333333 48:0.25 49:0.5 56:0.14285714 57:0.125 
-4 0:0.79210288 1:0.60657155 2:0.75857557 3:0.034897907 4:0.0452535 5:0.14124851 6:0.56012898 7:0.37955367 8:1 9:0.40314848 10:0.35310052 11:0.6089041 12:0.18705619 13:0.43259316 14:0.007652223 15:0.45037902 16:0.44633326 17:0.66008463 18:0.54758096 19:1 20:0.068965508 22:0.1559322 23:0.71785715 24:0.41608392 25:0.9716981 26:0.092592592 27:0.30965222 28:0.8916059 29:0.24882368 30:0.67129192 31:0.0093167706 32:0.37037037 33:0.48798886 34:0.65625 35:0.71411083 36:0.53333333 37:0.42857143 38:0.66666667 39:0.46153846 40:0.4 43:0.375 44:0.6 45:0.14285714 46:0.25 47:0.5 48:0.25 49:0.375 51:0.16666667 52:0.33333333 53:0.6 55:0.125 57:0.125 
3.503577130960887 0:0.41738628 1:0.46847929 2:0.75857557 3:0.18408493 4:0.20306626 5:0.07428235 6:0.32825384 7:0.41205086 8:0.41771573 9:0.48917205 10:0.30840217 11:0.37224166 12:0.12443887 13:0.25070649 14:0.38111604 15:0.5678083 16:0.22690985 17:0.67559944 18:0.59881308 19:1 21:0.32558139 22:0.14237288 23:0.64285714 24:0.52097902 25:0.9716981 26:0.30555556 27:0.44015338 28:0.67178213 29:0.051293221 30:0.29737591 31:0.28881988 32:0.57264957 33:0.49966919 34:0.375 35:0.37340498 36:0.26666667 38:0.27777778 39:0.15384615 42:0.33333333 45:0.57142857 47:0.5 51:0.16666667 52:0.33333333 54:0.5 56:0.14285714 57:0.5 
0.8153044383412993 0:0.47816432 1:0.36462464 2:0.75857557 3:0.034897907 4:0.015967049 5:0.28921423 6:0.43777006 7:0.15580713 8:0.6368144 9:0.27107081 10:0.27181652 11:0.36267182 12:0.012074962 13:0.3298298 14:0.066286926 15:0.48644412 16:0.16957366 17:0.31875881 18:0.37403215 19:1 20:0.068965508 22:0.34237288 23:0.50714286 24:0.12237762 25:0.71698111 26:0.092592592 27:0.10128297 28:0.63950951 29:0.047855622 30:0.43405408 31:0.006211177 32:0.5925926 33:0.33640546 34:0.9375 35:0.87617487 36:0.6 37:0.42857143 38:0.66666667 39:0.53846154 40:0.5 42:0.33333333 43:0.25 44:0.2 45:0.28571429 46:0.5 47:0.33333333 48:0.5 49:0.125 50:0.33333333 52:0.33333333 53:0.6 55:0.75 56:0.14285714 57:0.25 58:0.33333333 59:0.25 
4 0:0.58259867 1:0.54282075 2:0.75857557 3:0.034897907 4:0.279492 5:0.48465732 6:0.59132723 7:0.45900138 8:1 9:0.25912789 10:0.32666818 11:0.76224036 12:0.27469603 13:0.6983069 14:0.022103325 15:0.37497221 16:0.29248579 17:0.46826517 18:0.42194583 19:1 20:0.068965508 21:0.34883722 22:0.47457627 23:0.56785715 24:0.38111888 25:0.86792452 26:0.037037046 27:0.036197369 28:0.92332375 29:0.41190263 30:0.96731334 31:0.02795031 32:0.33048434 33:0.53305176 34:0.5 35:0.52656804 36:0.66666667 37:0.71428571 38:0.44444444 39:0.30769231 40:0.3 42:0.16666667 43:0.375 44:0.2 45:0.14285714 47:0.5 48:0.25 49:0.25 51:0.5 52:0.16666667 53:0.2 54:0.5 57:0.125 
2.936775814223576 0:0.93221635 1:0.75157026 2:0.75857557 3:0.034897907 4:0.279492 5:0.15643373 6:0.88382854 7:0.50227573 8:1 9:0.46560188 10:0.41849724 11:0.70216147 12:0.027842457 13:0.44649876 14:0.046699692 15:0.5264901 16:0.42046024 17:0.82369535 18:0.66829665 19:1 20:0.068965508 21:0.34883722 22:0.12881356 23:0.78214287 24:0.35664336 25:1 26:0.12962964 27:0.39493679 28:0.73696195 29:0.036730908 30:0.29502402 31:0.034161485 32:0.52421653 33:0.36681762 34:0.5625 35:0.64715646 36:0.4 37:0.28571429 38:0.61111111 39:0.61538462 40:0.2 43:0.25 44:0.2 45:0.14285714 47:0.5 48:0.25 49:0.75 51:0.33333333 52:0.33333333 53:0.2 55:0.25 57:0.125 
3.45305516335388 0:0.52072196 1:0.56181098 2:0.75857557 3:0.18408493 4:0.4103406 5:0.030541342 6:0.48490116 7:0.43426155 8:0.80471837 9:0.40314848 10:0.35779756 11:0.52841681 12:0.19576144 13:0.41681844 14:0.020778732 15:0.26578008 16:0.2950617 17:0.63751763 18:0.5642314 19:1 21:0.34883722 22:0.061016949 23:0.68928572 24:0.51748251 25:0.90566035 26:0.092592592 27:0.49745583 28:0.60306305 29:0.10780437 30:0.28467492 31:0.065217394 32:0.22507122 33:0.27811418 34:0.375 35:0.37680768 36:0.26666667 37:0.14285714 38:0.38888889 39:0.38461538 40:0.2 43:0.25 44:0.2 45:0.28571429 47:0.16666667 48:0.25 49:0.25 54:0.5 55:0.25 56:0.14285714 57:0.25 59:0.25 
-4 0:0.36225539 1:0.50053555 2:0.75857557 3:0.034897907 5:0.10994001 6:0.59565761 7:0.42923015 8:0.76855456 9:0.25453274 10:0.3846616 11:0.61290881 12:0.10244809 13:0.35665487 14:0.064741896 15:0.1768422 16:0.52599849 17:0.52750353 18:0.46088045 19:1 20:0.068965508 22:0.15254238 23:0.7357143 24:0.43356643 25:0.93396226 26:0.15740741 27:0.37220541 28:0.64521447 29:0.017300244 30:0.26836082 31:0.13664596 32:0.24501425 33:0.44931358 34:0.21875 35:0.21488889 36:0.26666667 38:0.16666667 39:0.15384615 40:0.1 42:0.16666667 43:0.125 45:0.28571429 46:0.25 47:0.33333333 48:0.25 49:0.25 53:0.2 56:0.14285714 
-4 0:0.80348577 1:0.64602945 2:0.75857557 3:0.034897907 4:0.083491115 5:0.15643373 6:0.81431487 7:0.47018464 8:1 9:0.46415543 10:0.26551366 11:0.89830072 12:0.10916849 13:0.83892326 14:0.0030605738 15:0.57897056 16:0.39488508 17:0.63751763 18:0.53876904 19:1 20:0.068965508 21:0.13953488 22:0.12881356 23:0.72857144 24:0.45804196 25:0.93396226 26:0.12962964 27:0.11923761 28:0.83560371 29:0.30116825 30:0.71070279 31:0.0093167688 32:0.32193733 33:0.37410751 34:0.59375 35:0.64288233 36:0.53333333 37:0.42857143 38:0.61111111 39:0.53846154 40:0.3 42:0.16666667 43:0.125 44:0.2 45:0.14285714 47:0.33333333 48:0.25 49:0.625 51:0.16666667 52:0.16666667 53:0.8 55:0.25 57:0.125 59:0.25 
0.1980144150826796 0:0.6067566 1:0.7262447 2:0.75857557 3:0.18408493 5:0.1641346 6:0.80158626 7:0.44258831 8:1 9:0.45130349 10:0.32016777 11:0.85833215 12:0.45824408 13:0.67387208 14:0.37604206 15:0.53044239 16:0.38004679 17:0.57968972 18:0.5194033 19:1 22:0.12881356 23:0.76428573 24:0.38111889 25:0.93396226 26:0.28703704 27:0.34607742 28:0.84648995 29:0.24378302 30:0.44667273 31:0.27639751 32:0.53276354 33:0.28486308 34:0.28125 35:0.34823745 36:0.13333333 38:0.38888889 39:0.38461538 43:0.125 45:0.14285714 47:0.16666667 49:0.5 52:0.16666667 54:0.5 55:0.125 56:0.14285714 59:1 
4 0:0.51697751 1:0.5080643 2:0.75857557 3:0.18408493 4:0.058070867 5:0.38409602 6:0.48529565 7:0.27937368 8:0.76855456 9:0.22496027 10:0.34262909 11:0.47459475 12:0.25271827 13:0.49602189 14:0.026594123 15:0.3307504 16:0.27802098 17:0.44992949 18:0.40522886 19:1 22:0.40677966 23:0.46785715 24:0.21678322 25:0.93396226 26:0.092592592 27:0.094261891 28:0.68654267 29:0.65614386 30:0.72712997 31:0.1242236 32:0.46723647 33:0.42584771 34:0.46875 35:0.50507293 36:0.46666667 37:0.14285714 38:0.38888889 39:0.30769231 40:0.1 42:0.16666667 43:0.375 45:0.14285714 46:0.25 47:0.5 48:0.25 49:0.25 50:0.66666667 51:0.16666667 54:0.5 56:0.42857143 59:0.25 
4 0:0.65069592 1:0.81443815 2:0.75857557 3:0.034897907 5:0.4482144 6:0.63857924 7:0.67282938 8:0.80471837 9:0.30523843 10:0.5226013 11:0.71459508 12:0.20232965 13:0.47289935 14:0.064173424 15:0.40060699 16:0.57044333 17:0.64315939 18:0.5968004 19:1 20:0.068965508 22:0.41016949 23:0.55714287 24:0.32517483 25:0.93396226 26:0.12962964 27:0.31531671 28:0.77323531 29:0.50727374 30:0.5775568 31:0.055900622 32:0.28774929 33:0.53886753 34:0.25 35:0.31313152 36:0.33333333 37:0.28571429 38:0.27777778 39:0.23076923 42:0.16666667 43:0.25 44:0.2 47:0.33333333 48:0.25 49:0.5 53:0.2 55:0.25 
-4 0:0.49975213 1:0.61027033 2:0.75857557 3:0.034897907 4:0.083491115 5:0.4693012 6:0.54118114 7:0.38388942 8:0.76855456 9:0.46415543 10:0.48383718 11:0.62585603 12:0.11279487 13:0.40901005 14:0.32530065 15:0.55269292 16:0.47269384 17:0.57404796 18:0.51325544 19:1 20:0.068965508 21:0.13953488 22:0.38644068 23:0.4607143 24:0.41608392 25:0.93396226 26:0.37962964 27:0.34142636 28:0.72858759 29:0.32044373 30:0.41922402 31:0.59627329 32:0.78632479 33:0.6455391 34:0.28125 35:0.31763387 36:0.33333333 38:0.27777778 39:0.15384615 40:0.2 43:0.25 47:0.16666667 48:0.25 49:0.375 52:0.16666667 53:0.4 55:0.25 57:0.125 
-4 0:0.62593929 1:0.65684217 2:0.75857557 3:0.18408493 4:0.13168019 5:0.27069386 6:0.66997811 7:0.55111383 8:0.76855456 9:0.44992054 10:0.48735475 11:0.61542677 12:0.062372064 13:0.35211775 14:0.032884586 15:0.32729703 16:0.26271578 17:0.54583922 18:0.48097921 19:1 21:0.14728682 22:0.30508475 23:0.71071429 24:0.40209791 25:1 26:0.12962964 27:0.41773361 28:0.61829183 29:0.001486213 30:0.34019791 31:0.024844721 32:0.28490028 33:0.48045994 34:0.375 35:0.4466668 36:0.53333333 37:0.57142857 38:0.38888889 39:0.38461538 42:0.16666667 43:0.375 47:0.66666667 49:0.25 50:0.33333333 51:0.33333333 53:0.2 54:0.5 55:0.125 57:0.125 59:0.25 
-4 0:0.54790295 1:0.5483121 2:0.75857557 3:0.034897907 5:0.43381692 6:0.54026076 7:0.39425113 8:0.76855456 9:0.30297454 10:0.39345316 11:0.56303282 12:0.14406563 13:0.42434639 14:0.096251473 15:0.55940616 16:0.25301268 17:0.47249648 18:0.42026914 19:1 20:0.068965508 22:0.48813559 23:0.44285715 24:0.34965035 25:0.93396226 26:0.26851852 27:0.19488491 28:0.6166897 29:0.17816696 30:0.52317337 31:0.065217398 32:0.50997151 33:0.54686613 34:0.4375 35:0.48818391 36:0.46666667 38:0.44444444 39:0.30769231 40:0.2 42:0.5 43:0.125 44:0.2 47:0.16666667 48:0.25 49:0.25 51:0.33333333 52:0.33333333 55:0.125 57:0.25 59:0.5 
-0.1642244570547502 0:0.37801381 1:0.54643978 2:0.75857557 3:0.034897907 4:0.0452535 5:0.33295524 6:0.50728741 7:0.47839218 8:0.46235917 9:0.40314848 10:0.48393487 11:0.42404378 12:0.30981366 13:0.46976054 14:0.24788148 15:0.2357763 16:0.33440045 17:0.52891397 18:0.46176716 19:1 20:0.068965508 22:0.42372881 23:0.63928572 24:0.52797203 25:0.71698111 26:0.092592592 27:0.28307376 28:0.61079171 29:0.27653646 30:0.53211636 31:0.4068323 32:0.39031339 33:0.58914161 34:0.1875 35:0.21715044 36:0.33333333 37:0.28571429 38:0.16666667 39:0.15384615 40:0.1 42:0.16666667 43:0.25 47:0.33333333 48:0.25 49:0.125 51:0.16666667 55:0.125 56:0.14285714 57:0.125 
4 0:0.73125992 1:0.58393873 2:0.75857557 3:0.034897907 4:0.20306626 5:0.39222303 6:0.7779834 7:0.34953602 8:1 9:0.30297454 10:0.34624674 11:0.64422706 12:0.078225154 13:0.56393828 14:0.024397993 15:0.26304293 16:0.28918994 17:0.64880113 18:0.54334446 19:1 20:0.068965508 21:0.32558139 22:0.43389831 23:0.78214286 24:0.45454545 25:0.90566035 26:0.12962964 27:0.34344287 28:0.71077595 29:0.12614798 30:0.48614012 31:9.2553786e-10 32:0.22792022 33:0.38818538 34:0.625 35:0.7157292 36:0.4 37:0.14285714 38:0.61111111 39:0.46153846 40:0.2 42:0.16666667 43:0.25 44:0.2 45:0.14285714 47:0.5 48:0.5 49:0.375 51:0.16666667 52:0.5 55:0.125 56:0.28571429 57:0.25 59:0.5 
-1.572337139562494 0:0.6413056 1:0.55450962 2:0.75857557 3:0.034897907 4:0.42764417 5:0.27665915 6:0.38128637 7:0.45218158 8:0.46235917 9:0.44073024 10:0.38272187 11:0.47029518 12:0.072978753 13:0.428245 14:0.018756767 15:0.46437467 16:0.44208655 17:0.7954866 18:0.6490846 19:1 20:0.068965508 21:0.29457365 22:0.33220339 23:0.58571429 24:0.59440559 25:0.94339619 26:0.37962964 27:0.44105949 28:0.8136382 29:0.13524377 30:0.52294934 31:0.01242237 32:0.41595442 33:0.55191421 34:0.5625 35:0.56710999 36:0.33333333 38:0.5 39:0.30769231 40:0.1 42:0.33333333 43:0.125 45:0.57142857 47:0.5 48:0.25 49:0.25 50:0.33333333 51:0.16666667 52:0.16666667 55:0.125 56:0.28571429 57:0.5 
-4 0:0.5525407 1:0.52060871 2:0.75857557 3:0.18408493 4:0.083491115 5:0.14201815 6:0.38956617 7:0.50265836 8:0.41771573 9:0.47019703 10:0.36226409 11:0.63808122 12:0.027658876 13:0.6101766 14:0.051918147 15:0.44428233 16:0.25896931 17:0.6473907 18:0.55503291 19:1 21:0.13953488 22:0.094915254 23:0.58928572 24:0.38811189 25:0.9716981 26:0.12962964 27:0.5070512 28:0.8790621 29:0.12404603 30:0.57160619 31:0.0031055936 32:0.25071225 33:0.27674896 34:0.5 35:0.50689877 36:0.26666667 37:0.14285714 38:0.44444444 39:0.30769231 40:0.3 43:0.125 44:0.2 45:0.14285714 47:0.5 49:0.125 51:0.16666667 53:0.2 54:0.5 55:0.375 56:0.57142857 57:0.125 59:0.25 
-0.7425055763303642 0:0.38685223 1:0.62892154 2:0.75857557 3:0.18408493 5:0.1485647 6:0.44955122 7:0.56301679 8:0.41771573 9:0.45130349 10:0.38421786 11:0.5355919 12:0.63359459 13:0.62425622 14:0.14473425 15:0.10246304 16:0.33310615 17:0.69252469 18:0.72689338 19:1 22:0.28474575 23:0.73928571 24:0.59090909 25:0.9716981 26:0.28703704 27:0.48876657 28:0.83227303 29:0.90827334 30:0.76943156 31:0.11180124 32:0.1025641 33:0.47421163 34:0.125 35:0.15957425 36:0.13333333 38:0.16666667 39:0.15384615 42:0.16666667 45:0.14285714 47:0.16666667 49:0.125 54:0.5 55:0.125 56:0.14285714 57:0.375 
-2.2730853371146 0:0.30415609 1:0.49447903 2:0.75857557 3:0.034897907 4:0.279492 5:0.07428235 6:0.31155912 7:0.35582266 8:0.53710912 9:0.24523676 10:0.42861067 11:0.63282046 12:0.79318899 13:0.78680296 14:0.15659196 15:0.11112113 16:0.40579106 17:0.64174895 18:0.64389735 19:1 20:0.068965508 21:0.34883722 22:0.14237288 23:0.575 24:0.45804195 25:1 26:0.15740741 27:0.55877293 28:1 29:0.99302365 30:0.8424118 31:0.36645963 32:0.33618234 33:0.70316687 34:0.125 35:0.16820549 36:0.2 38:0.16666667 39:0.15384615 42:0.16666667 45:0.14285714 46:0.25 47:0.5 48:0.25 53:0.2 57:0.25 
-2.072571807305884 0:0.58980641 1:0.70787362 2:0.75857557 3:0.18408493 4:0.0452535 5:0.031310989 6:0.65218766 7:0.50126128 8:0.76855456 9:0.36898087 10:0.3287748 11:0.534172 12:0.087931359 13:0.33417968 14:0.054519557 15:0.34382084 16:0.31024355 17:0.68829338 18:0.6377495 19:1 23:0.92500001 24:0.3986014 25:0.9716981 26:0.037037046 27:0.15218239 28:0.77232556 29:0.13856657 30:0.47545145 31:0.012422363 32:0.1965812 33:0.20836372 34:0.28125 35:0.37900699 36:0.2 37:0.14285714 38:0.38888889 39:0.46153846 40:0.1 43:0.25 44:0.2 46:0.25 47:0.5 49:0.25 52:0.33333333 54:0.5 57:0.125 59:0.25 
-3.977357201354841 0:0.65377067 1:0.65692111 2:0.75857557 3:0.034897907 4:0.42764417 5:0.07428235 6:0.62508094 7:0.38592367 8:0.80471837 9:0.51630757 10:0.33504955 11:0.63766656 12:0.13853008 13:0.67201748 14:0.13977212 15:0.35808063 16:0.40530879 17:0.78984485 18:0.69049161 19:1 20:0.068965508 21:0.29457365 22:0.14237288 23:0.63214287 24:0.43006993 25:0.9716981 26:0.33333335 27:0.43789069 28:0.78494034 29:0.27432465 30:0.51805308 31:0.021739123 32:0.38176638 33:0.31194429 34:0.40625 35:0.46287113 36:0.2 38:0.5 39:0.46153846 40:0.2 42:0.16666667 44:0.2 47:0.16666667 48:0.25 49:0.375 52:0.16666667 53:0.2 55:0.5 57:0.375 59:0.25 
1.267997725688901 0:0.61641541 1:0.67426174 2:0.75857557 3:0.18408493 4:0.0452535 5:0.41720226 6:0.40441016 7:0.62243932 8:0.76855456 9:0.54921354 10:0.50242209 11:0.59953295 12:0.21173641 13:0.43472353 14:0.10767153 15:0.39378762 16:0.18687893 17:0.75458393 18:0.68214062 19:1 22:0.48474576 23:0.68928573 24:0.56993007 25:0.9716981 26:0.037037046 27:0.4204284 28:0.85990799 29:0.30245109 30:0.52181225 31:0.0062111789 32:0.45299145 33:0.40496567 34:0.34375 35:0.38518995 36:0.33333333 37:0.28571429 38:0.5 39:0.53846154 40:0.3 42:0.33333333 43:0.25 45:0.14285714 47:0.66666667 49:0.125 54:0.5 57:0.25 59:0.25 
-2.184053940186734 0:0.46145204 1:0.45329664 2:0.75857557 3:0.034897907 4:0.082272458 5:0.25021969 6:0.54672956 7:0.33989728 8:0.46564605 9:0.36453558 10:0.22286633 11:0.55254302 12:0.11189463 13:0.49500411 14:0.19208965 15:0.36354486 16:0.17504097 17:0.3822285 18:0.35802212 19:1 20:0.068965508 22:0.12881356 23:0.60714287 24:0.1013986 25:0.9716981 26:0.037037046 27:0.228982 28:0.63570621 29:0.1418414 30:0.50727253 31:0.065217395 32:0.29059829 33:0.24608046 34:0.5 35:0.50862088 36:0.4 37:0.42857143 38:0.38888889 39:0.38461538 42:0.5 43:0.125 45:0.42857143 47:0.33333333 48:0.25 49:0.125 52:0.16666667 54:0.5 55:0.125 56:0.28571429 57:0.25 58:0.33333333 59:0.75 
1.198543032459557 0:0.39069908 1:0.47418816 2:0.034897907 3:0.034897907 4:0.16698223 6:0.6856913 7:0.27979813 8:1 9:0.46415543 10:0.30073533 11:0.60125479 12:0.286908 13:0.71139277 14:0.22919576 15:0.37116057 16:0.38542358 17:0.56981665 18:0.50643516 19:0.066666656 20:0.068965508 21:0.27906977 23:0.72500001 24:0.41608391 25:0.86792452 26:0.37962964 27:0.37733565 28:0.74130887 29:0.20340479 30:0.54075337 31:0.24534161 32:0.47578347 33:0.36403574 34:0.3125 35:0.30055813 36:0.26666667 38:0.27777778 39:0.23076923 40:0.3 45:0.28571429 48:0.5 49:0.375 52:0.16666667 53:0.4 55:0.125 56:0.14285714 57:0.125 
-0.7136544884294594 0:0.34173052 1:0.38072062 2:0.034897907 3:0.034897907 4:0.64247512 5:0.10223915 6:0.39447693 7:0.32257064 8:0.53710912 9:0.26880692 10:0.11719117 11:0.70574177 12:0.064688299 13:0.90945194 14:0.068115775 15:0.37100726 16:0.52282584 17:0.38363893 18:0.34764761 19:0.066666656 20:0.068965508 21:0.83720932 22:0.15254238 23:0.51428572 24:0.24475525 25:1 26:0.12962964 27:0.1115985 28:0.87449104 29:0.26020973 30:0.93201378 31:0.0093167679 32:0.35897436 33:0.5204315 34:0.4375 35:0.47258128 36:0.4 37:0.14285714 38:0.22222222 39:0.076923077 40:0.1 43:0.25 45:0.14285714 46:0.25 47:0.5 48:0.75 49:0.25 52:0.66666667 53:0.2 55:0.25 
4 0:0.41211277 1:0.49594636 2:0.034897907 3:0.034897907 4:0.099458164 5:0.35509042 6:0.51008334 7:0.48312149 8:0.41771573 9:0.33036797 10:0.20366696 11:0.5045173 12:0.30242475 13:0.5498582 14:0.0078403031 15:0.32152414 16:0.54061202 17:0.52891397 18:0.46464897 19:0.066666656 20:0.068965508 21:0.13953488 22:0.31864407 23:0.73928572 24:0.40909091 25:0.9716981 26:0.092592592 27:0.29983421 28:0.66157712 29:0.17038714 30:0.48637916 31:0.043478254 32:0.33048433 33:0.43996064 34:0.3125 35:0.32877565 36:0.33333333 37:0.28571429 38:0.27777778 39:0.15384615 40:0.2 42:0.5 44:0.2 45:0.14285714 46:0.25 47:0.16666667 48:0.5 49:0.25 56:0.28571429 57:0.125 
-3.803418567496835 0:0.69032818 1:0.53316838 2:0.034897907 3:0.18408493 4:0.30264107 5:0.18282679 6:0.5871997 7:0.3924431 8:1 9:0.4490396 10:0.44263073 11:0.48168178 12:0.1152696 13:0.39465888 14:0.012808475 15:0.34896472 16:0.23490412 17:0.39915374 18:0.3926038 19:0.066666656 21:0.21705427 22:0.094915254 23:0.675 24:0.27622377 25:0.90566035 26:0.12962964 27:0.38227478 28:0.60299206 29:0.095413777 30:0.47508476 31:6.4787657e-09 32:0.41595442 33:0.30627545 34:0.6875 35:0.70678673 36:0.6 37:0.28571429 38:0.55555556 39:0.46153846 40:0.3 42:0.16666667 43:0.375 44:0.4 45:0.14285714 47:0.16666667 48:0.25 49:0.375 51:0.16666667 52:0.16666667 53:0.4 54:0.5 55:0.375 56:0.28571429 57:0.125 58:0.33333333 59:0.25 
-0.8460635349998088 0:0.21864545 1:0.33053005 2:0.034897907 3:0.22976852 4:0.279492 5:0.1765215 6:0.22462016 7:0.36262916 8:0.17117837 9:0.44532539 10:0.35250943 11:0.30707556 12:0.12600422 13:0.18542709 14:0.50400018 15:0.47060108 16:0.21953428 17:0.35543019 18:0.225459 19:0.066666656 20:0.11494253 21:0.34883722 22:0.29491525 23:0.38214286 24:0.34965035 25:0.47169809 26:0.12962964 27:0.39640069 28:0.40529135 29:0.15466884 30:0.16380867 31:0.2795031 32:0.46723647 33:0.49519105 34:0.1875 35:0.16882793 36:0.33333333 37:0.14285714 38:0.055555556 43:0.25 45:0.14285714 47:0.16666667 48:0.25 51:0.16666667 53:0.2 55:0.375 57:0.125 58:0.33333333 
-4 0:0.4318451 1:0.53667083 2:0.034897907 3:0.18408493 4:0.279492 5:0.32739313 6:0.41049612 7:0.57482796 8:0.64916118 9:0.44532539 10:0.34663736 11:0.5258732 12:0.076168512 13:0.51557943 14:0.034069297 15:0.1448493 16:0.49294102 17:0.54724965 18:0.48405313 19:0.066666656 21:0.34883722 22:0.41355931 23:0.55 24:0.43356644 25:0.9716981 26:0.12962964 27:0.30965222 28:0.72312671 29:0.59909599 30:0.84808426 31:0.024844721 32:0.20512821 33:0.65541812 34:0.28125 35:0.28989356 36:0.4 37:0.14285714 38:0.22222222 39:0.15384615 42:0.33333333 43:0.125 45:0.28571429 47:0.16666667 48:0.25 49:0.25 51:0.16666667 54:0.5 55:0.125 57:0.375 
3.563284304017603 0:0.4040573 1:0.45644069 2:0.034897907 3:0.18408493 4:0.042103819 5:0.62595143 6:0.64350108 7:0.40362897 8:0.80471837 9:0.068335232 10:0.37842486 11:0.63358756 12:0.14714768 13:0.49075933 14:0.21750535 15:0.39431965 16:0.25958523 17:0.25669958 18:0.21841459 19:0.066666656 22:0.54237288 23:0.56428572 24:0.30769231 25:0.7735849 26:0.055555547 27:0.22848964 28:0.60390182 29:0.021912443 30:0.348704 31:0.3757764 32:0.55555556 33:0.40208491 34:0.375 35:0.40236944 36:0.53333333 37:0.14285714 38:0.22222222 39:0.23076923 40:0.1 42:0.5 43:0.125 44:0.4 48:0.5 49:0.25 52:0.16666667 53:0.2 54:0.5 55:0.125 56:0.28571429 59:0.25 
-4 0:0.39825201 1:0.43828576 2:0.034897907 3:0.034897907 4:0.53411822 5:0.49169589 6:0.46799888 7:0.3763748 8:0.76855456 9:0.22496027 10:0.14568808 11:0.64435232 12:0.4741169 13:0.64721659 14:0.011744969 15:0.59693201 16:0.61248257 17:0.15091679 18:0.14082489 19:0.066666656 20:0.068965508 21:0.29457365 22:0.38644068 23:0.55714287 24:0.034965035 25:0.93396226 26:0.037037046 27:0.051619614 28:0.66354977 29:0.48506959 30:0.6701975 31:0.077639754 32:0.33618234 33:0.56526296 34:0.40625 35:0.42452849 36:0.8 37:1 38:0.16666667 39:0.076923077 42:0.66666667 43:0.25 46:0.25 47:0.33333333 48:0.5 49:0.375 51:0.33333333 53:0.2 54:0.5 55:0.125 
-3.68874548947672 0:0.43546339 1:0.47012579 2:0.034897907 3:0.18408493 4:0.44869608 5:0.061852331 6:0.47152731 7:0.34658894 8:0.80471837 9:0.51060064 10:0.37279285 11:0.57905235 12:0.088048864 13:0.55659522 14:0.37338565 15:0.5247006 16:0.34074559 17:0.46544429 18:0.41141138 19:0.066666656 21:0.29457365 22:0.061016949 23:0.56071429 24:0.30769231 25:0.7735849 26:0.29629631 27:0.30156265 28:0.61260681 29:0.24971258 30:0.48558523 31:0.21428572 32:0.46438746 33:0.25354988 34:0.40625 35:0.39875926 36:0.26666667 38:0.27777778 39:0.15384615 40:0.1 42:0.16666667 43:0.125 44:0.6 45:0.14285714 48:0.25 49:0.125 52:0.16666667 54:0.5 55:0.5 56:0.28571429 57:0.125 59:0.25 
-4 0:0.37711711 1:0.57607486 2:0.034897907 3:0.034897907 4:0.85528834 6:0.54946094 7:0.52686567 8:0.76855456 9:0.51630757 10:0.40401328 11:0.86289041 12:1 13:0.99743978 14:0.8955669 15:0.65069521 16:0.9255459 17:0.53596616 18:0.47119853 19:0.066666656 20:0.068965508 21:0.5891473 23:0.53214287 24:0.54195804 25:0.93396226 26:0.37962964 27:0.46883732 28:0.85081692 29:0.98488344 30:0.83540209 31:0.39440994 32:0.36182337 33:0.59071245 34:0.15625 35:0.22069838 36:0.2 38:0.11111111 39:0.076923077 47:0.16666667 48:0.5 49:0.375 52:0.33333333 53:0.2 55:0.125 56:0.14285714 
-4 0:0.59633479 1:0.6301037 2:0.034897907 3:0.034897907 4:0.73028524 5:0.38115962 6:0.68648411 7:0.54096955 8:1 9:0.54262035 10:0.43379494 11:0.86568984 12:0.36259912 13:0.87830261 14:0.00061496122 15:0.3018623 16:0.47191819 17:0.48801129 18:0.42846628 19:0.066666656 20:0.068965508 21:0.51162791 22:0.40677966 23:0.5357143 24:0.44055944 25:0.86792452 26:0.12962964 27:0.31045619 28:0.84891526 29:0.30651916 30:0.72048457 31:0.093167704 32:0.41310542 33:0.50235309 34:0.375 35:0.41558603 36:0.4 37:0.14285714 38:0.44444444 39:0.38461538 40:0.2 42:0.33333333 43:0.25 44:0.4 45:0.14285714 48:0.5 49:0.375 50:0.33333333 52:0.16666667 58:0.33333333 59:0.25 
