svm_type epsilon_svr
kernel_type rbf
gamma 0.0625
nr_class 2
total_sv 1530
rho 0.106521
SV
4 0:0.57595628 1:0.44166977 2:0.11111111 4:0.2962963 5:0.33442623 6:0.97169811 7:0.36144578 8:0.22222222 9:0.48375762 10:0.53278911 11:0.42017172 12:0.04375 13:0.040558064 14:0.040372671 15:0.24807721 16:0.26666667 17:0.11111111 18:0.21428571 19:0.16666667 20:0.24726631 21:0.40107132 22:0.46241907 23:0.20812623 24:0.1144132 25:0.29002112 26:0.52323968 27:0.54046653 28:0.71685724 29:0.39549931 30:0.59821849 31:0.20901009 32:0.21261816 33:0.081510861 34:0.027877995 35:0.12700766 38:0.23076923 39:0.16666667 40:0.15628596 41:0.12195122 44:0.28571429 45:0.125 49:0.2 51:0.125 52:0.33333333 55:0.16666667 56:0.33333333 57:0.25 59:0.11111111 61:0.5 
-4 0:0.61748634 1:0.5297574 2:0.11111111 3:0.068965517 4:0.15226337 5:0.81967213 6:0.93396226 7:0.45783133 8:0.43333333 9:0.55102377 10:0.39024035 11:0.19029357 12:0.31875 13:0.093473015 14:0.052795031 15:0.14672134 16:0.26666667 18:0.28571429 19:0.33333333 20:0.35994514 21:0.39081343 22:0.46241907 23:0.14447719 24:0.0050441668 25:0.58987235 26:0.70812289 27:0.48599571 28:0.50280206 29:0.43446397 30:0.45215441 31:0.2691165 32:0.37510509 33:0.03246973 34:0.14252543 35:0.18291154 36:0.076923077 38:0.30769231 39:0.33333333 40:0.31192463 41:0.26829268 42:0.21428571 44:0.14285714 45:0.125 46:0.16666667 49:0.2 50:0.25 51:0.25 53:0.16666667 54:0.28571429 55:0.16666667 57:0.25 58:0.5 
-4 0:0.58688525 1:0.48752089 2:0.81111111 3:0.068965517 4:0.33744856 5:0.62622951 6:0.81132075 7:0.27710843 8:0.17777778 9:0.67385832 10:0.28823575 11:0.58140537 12:0.46875 13:0.42563415 14:0.055900621 15:0.29849461 16:0.4 17:0.22222222 18:0.35714286 19:0.16666667 20:0.3312586 21:0.40408734 22:0.90444266 23:0.14447719 24:0.14078139 25:0.39304938 26:0.60501669 27:0.49935464 28:0.50456518 29:0.62385443 30:0.26110557 31:0.70662602 32:0.30730369 33:0.66858556 34:0.014434194 35:0.26042949 36:0.23076923 38:0.38461538 39:0.16666667 40:0.26808832 41:0.2195122 42:0.14285714 44:0.28571429 45:0.25 46:0.33333333 47:0.125 49:0.2 50:0.75 51:0.125 54:0.14285714 59:0.11111111 61:0.25 
4 0:0.70928962 1:0.64280362 2:1 3:0.068965517 5:0.66229508 6:0.97169811 7:0.20481928 8:0.22222222 9:0.58184525 10:0.42031233 11:0.4019589 12:0.278125 13:0.27359265 14:0.068322981 15:0.11996647 16:0.13333333 17:0.11111111 18:0.35714286 19:0.33333333 20:0.27763405 21:0.41565455 22:0.70012295 23:0.14447719 25:0.33805435 26:0.70812289 27:0.45527606 28:0.50456518 29:0.40086908 30:0.47536217 31:0.24996474 32:0.40743211 33:0.091651725 34:0.12675909 35:0.11801871 38:0.38461538 39:0.33333333 40:0.23453682 41:0.14634146 45:0.125 49:0.6 50:0.25 51:0.125 54:0.28571429 55:0.16666667 57:0.125 58:0.33333333 59:0.11111111 61:0.25 
-0.4402204045524933 0:0.52568306 1:0.45309646 2:0.35555556 3:0.068965517 4:0.30041152 5:0.52459016 6:0.71698113 7:0.36144578 8:0.17777778 9:0.47483783 10:0.35274081 11:0.40819868 12:0.44375 13:0.10105584 14:0.01242236 15:0.29676155 16:0.46666667 17:0.44444444 18:0.28571429 20:0.30494663 21:0.28443085 22:0.51017236 23:0.14447719 24:0.38465586 25:0.23468857 26:0.47039571 27:0.48213698 28:0.48449359 29:0.45719345 30:0.39843196 31:0.42022716 32:0.37353869 33:0.25794526 34:0.17087822 35:0.24033853 36:0.46153846 37:0.4 38:0.30769231 40:0.31205049 41:0.34146341 42:0.21428571 44:0.42857143 45:0.125 46:0.16666667 47:0.5 49:0.2 50:0.25 51:0.125 53:0.33333333 54:0.14285714 55:0.16666667 58:0.16666667 59:0.11111111 61:0.25 
4 0:0.70491803 1:0.62686065 2:0.35555556 4:0.037037037 5:0.58688525 6:0.67924528 7:0.68273092 8:0.45555556 9:0.6956977 10:0.59400623 11:0.45035089 12:0.3375 13:0.30912891 14:0.15217391 15:0.18604941 16:0.066666667 18:0.28571429 20:0.36755994 21:0.44769589 22:0.51017236 23:0.20812623 24:0.13066205 25:0.44636399 26:0.52714421 27:0.52518936 28:0.52977037 29:0.64212492 30:0.47706244 31:0.45911981 32:0.63132407 33:0.26531545 34:0.49046352 35:0.31339927 36:0.23076923 37:0.2 38:0.30769231 40:0.23753956 41:0.2195122 42:0.14285714 47:0.25 49:0.2 51:0.375 53:0.16666667 54:0.14285714 56:0.33333333 57:0.25 58:0.33333333 61:0.5 
-4 0:0.69398907 1:0.64262955 2:0.71111111 3:0.068965517 4:0.35802469 5:0.61967213 6:0.94339623 7:0.58634538 8:0.22222222 9:0.58000491 10:1 12:0.0090625 13:0.0039747416 14:0.015217391 15:0.23276282 16:0.2 17:0.11111111 18:0.28571429 19:0.16666667 20:0.27780594 21:0.65525975 22:0.55517185 23:0.14447719 24:0.1144132 25:0.36376183 26:0.47676032 27:0.85566869 28:0.8965777 29:0.49759232 30:0.898126 32:0.024907621 33:0.0060990626 34:0.032695988 35:0.21997289 38:0.30769231 39:0.16666667 40:0.074870541 41:0.024390244 44:0.14285714 45:0.125 46:0.16666667 50:0.25 51:0.125 52:0.33333333 55:0.16666667 59:0.22222222 
4 0:0.62185792 1:0.52175374 2:0.92222222 4:0.26337449 5:0.46557377 6:0.47169811 7:0.3373494 8:0.11111111 9:0.59764996 10:0.1269731 11:0.74901199 12:0.365625 13:0.4302241 14:0.19875776 15:0.28956877 16:0.26666667 17:0.22222222 18:0.35714286 20:0.39609521 21:0.54822948 22:1 23:0.20812623 24:0.28683734 25:0.33041427 26:0.47676032 27:0.54391765 28:0.54663709 29:0.59671852 30:0.36867979 31:0.57670598 32:0.42871844 33:0.2935727 34:0.032261841 35:0.37937855 36:0.15384615 37:0.2 38:0.38461538 40:0.2038622 41:0.17073171 44:0.14285714 45:0.125 46:0.16666667 47:0.125 49:0.2 51:0.375 53:0.16666667 54:0.14285714 55:0.16666667 56:0.33333333 57:0.25 58:0.16666667 
-4 0:0.69071038 1:0.62995709 2:0.92222222 3:0.068965517 4:0.28806584 5:0.70163934 6:0.86792453 7:0.36144578 8:0.22222222 9:0.7522611 10:0.60730153 12:0.0090625 13:0.0039747416 14:0.015217391 15:0.18721611 16:0.2 17:0.11111111 18:0.28571429 19:0.33333333 20:0.31937323 21:0.67312914 22:1 23:0.14447719 25:0.72965882 26:1 27:0.45358022 28:0.50280206 29:0.59443498 30:0.72040079 32:0.024907621 33:0.0060990626 34:0.032695988 35:0.078836602 38:0.30769231 39:0.33333333 40:0.087510788 41:0.048780488 42:0.071428571 44:0.14285714 50:0.25 51:0.375 55:0.33333333 57:0.125 59:0.11111111 
-4 0:0.68415301 1:0.60869884 2:0.42222222 3:0.068965517 4:0.29423868 5:0.5442623 6:0.81132075 7:0.59036145 8:0.51111111 9:0.72626234 10:0.55049542 11:0.66513197 12:0.325 13:0.52061926 14:0.26397516 15:0.2628932 16:0.13333333 18:0.35714286 19:0.16666667 20:0.26676267 21:0.43169857 22:0.41851162 23:0.14447719 24:0.19792484 25:0.32551468 26:0.60501669 27:0.58094737 28:0.73325123 29:0.4935729 30:0.59937291 31:0.3922624 32:0.32425713 33:0.11367195 34:0.1605795 35:0.22018448 36:0.076923077 38:0.38461538 39:0.16666667 40:0.17539917 41:0.12195122 43:0.25 44:0.14285714 46:0.33333333 47:0.125 49:0.2 50:0.25 54:0.14285714 55:0.16666667 58:0.33333333 59:0.11111111 60:0.33333333 
4 0:0.72677596 1:0.682231 2:0.45555556 3:0.068965517 5:0.78032787 6:0.93396226 7:0.47791165 8:0.52222222 9:0.53483002 10:0.69285075 11:0.14841462 12:0.071875 13:0.13960582 14:0.055900621 18:0.28571429 19:0.5 20:0.24546119 21:0.43266632 22:0.33447888 23:0.14447719 24:0.1645396 25:0.68044087 26:1 27:0.35789268 28:0.46762688 29:0.41448565 30:0.68726163 31:0.10011926 32:0.12657449 33:0.049056754 34:0.026056371 35:0.06523694 36:0.30769231 37:0.2 38:0.30769231 39:0.5 40:0.089147008 41:0.097560976 46:0.16666667 47:0.5 49:0.2 50:0.25 51:0.25 54:0.28571429 58:0.16666667 
4 0:0.48415301 1:0.41521199 2:0.42222222 4:0.43415638 5:0.44918033 6:0.77358491 7:0.34939759 8:0.22222222 9:0.65472208 10:0.057342689 11:0.74890616 12:0.440625 13:0.54985592 14:0.0093167702 15:0.44942968 16:0.53333333 17:0.44444444 18:0.35714286 19:0.16666667 20:0.31060692 21:0.28968514 22:0.41851162 23:0.20812623 24:0.16352933 25:0.1858127 26:0.90699188 27:0.36552022 28:0.36174233 29:0.45112159 30:0.22973676 31:0.49802913 32:0.46851167 33:0.1954032 34:0.018922945 35:0.25974399 36:0.23076923 37:0.2 38:0.38461538 39:0.16666667 40:0.41347814 41:0.34146341 42:0.071428571 45:0.5 46:0.16666667 48:0.16666667 49:0.4 51:0.125 52:0.33333333 53:0.33333333 54:0.14285714 55:0.33333333 56:0.33333333 57:0.125 58:0.5 59:0.11111111 
-4 0:0.47322404 1:0.44305565 2:0.96666667 4:0.15226337 5:0.72786885 6:0.94339623 7:0.14457831 8:0.17777778 9:0.4611128 10:0.19528082 11:0.39162051 12:0.290625 13:0.032788479 14:0.0062111801 15:0.23130161 16:0.6 17:0.44444444 18:0.5 19:0.66666667 20:0.34704753 21:0.25098807 22:0.6897481 23:0.20812623 24:0.078832963 25:0.33528564 26:0.69802481 27:0.37280571 28:0.34343386 29:0.51199285 30:0.24384647 31:0.56824641 32:0.55772511 33:0.045243793 34:0.034213688 35:0.3654751 36:0.38461538 37:0.2 38:0.46153846 39:0.5 40:0.5624101 41:0.48780488 42:0.21428571 43:0.25 44:0.42857143 45:0.25 46:0.16666667 48:0.33333333 50:0.25 51:0.25 53:0.33333333 54:0.14285714 55:0.16666667 56:0.33333333 57:0.125 58:0.5 59:0.33333333 61:0.25 
4 0:0.70273224 1:0.62995709 2:1 3:0.068965517 4:0.18518519 5:0.6852459 6:0.74528302 7:0.3935743 8:0.56666667 9:0.56461165 10:0.58927393 11:0.32123392 12:0.403125 13:0.3006893 14:0.29503106 15:0.17707826 16:0.2 18:0.14285714 20:0.18568957 21:0.26176953 22:0.70012295 23:0.14447719 24:0.048413725 25:0.20629518 26:0.2352671 27:0.53262547 28:0.64308118 29:0.30956558 30:0.48038819 31:0.20828108 32:0.073591707 33:0.18826967 34:0.011463124 35:0.02860448 36:0.076923077 38:0.15384615 40:0.15815593 41:0.17073171 42:0.42857143 44:0.14285714 45:0.125 47:0.125 49:0.2 50:0.25 55:0.16666667 58:0.33333333 59:0.11111111 
-0.7638624370216935 0:0.57814208 1:0.46326545 2:1 4:0.47325103 5:0.34754098 6:0.53773585 7:0.45381526 8:0.22222222 9:0.56369148 10:0.18431579 11:0.82669496 12:0.165625 13:0.31771893 14:0.01552795 15:0.41780411 16:0.4 17:0.22222222 18:0.35714286 20:0.29245105 21:0.40712156 22:0.70012295 23:0.20812623 24:0.39305623 25:0.30397266 26:0.47039571 27:0.58930544 28:0.52977037 29:0.47833108 30:0.43057851 31:0.55214724 32:0.225051 33:0.08982848 34:0.0034638697 35:0.24024783 36:0.38461538 37:0.4 38:0.38461538 40:0.19195915 41:0.17073171 44:0.28571429 46:0.16666667 47:0.25 49:0.2 51:0.125 53:0.5 55:0.16666667 56:0.33333333 59:0.22222222 61:0.25 
-4 0:0.70491803 1:0.64567582 2:0.42222222 5:0.58688525 6:0.86792453 7:0.64658635 8:0.45555556 9:0.62799767 10:0.65245631 11:0.43838465 12:0.225 13:0.37526304 14:0.068322981 15:0.077489437 18:0.21428571 19:0.16666667 20:0.23380404 21:0.41282781 22:0.41851162 23:0.20812623 24:0.022284145 25:0.44636399 26:1 27:0.62232942 28:0.52977037 29:0.44435343 30:0.58946119 31:0.29494716 32:0.1589606 33:0.28375046 34:0.12503654 35:0.083886519 36:0.15384615 37:0.4 38:0.23076923 39:0.16666667 40:0.1058868 41:0.097560976 42:0.071428571 47:0.25 49:0.2 51:0.25 54:0.14285714 56:0.33333333 57:0.125 58:0.33333333 61:0.25 
-0.8593315909596704 0:0.63606557 1:0.55099789 2:0.11111111 3:0.068965517 4:0.16666667 5:0.60655738 6:0.97169811 7:0.46987952 8:0.43333333 9:0.56396578 10:0.40142687 11:0.41296656 12:0.403125 13:0.10436481 14:0.0031055901 15:0.2344619 16:0.2 18:0.35714286 19:0.16666667 20:0.29816565 21:0.30744316 22:0.35175423 23:0.14447719 24:0.096440334 25:0.18469716 26:0.4061477 27:0.56246572 28:0.69007259 29:0.47891935 30:0.50070548 31:0.38678066 32:0.4623783 33:0.1741515 34:0.033523209 35:0.25638669 36:0.15384615 38:0.30769231 39:0.16666667 40:0.34299482 41:0.29268293 42:0.14285714 43:0.25 46:0.16666667 47:0.125 49:0.2 50:0.25 51:0.125 53:0.16666667 54:0.28571429 55:0.33333333 57:0.25 58:0.16666667 59:0.11111111 61:0.75 
-1.915105680830752 0:0.51147541 1:0.35923983 2:0.92222222 4:0.35802469 5:0.33442623 6:0.71698113 7:0.27309237 8:0.11111111 9:0.67032733 10:0.016383625 11:0.74621109 12:0.25 13:0.83530056 14:0.0062111801 15:0.26741275 16:0.46666667 17:0.44444444 18:0.21428571 20:0.32759242 21:0.48852946 22:1 23:0.20812623 24:0.013302484 25:0.38175046 26:0.47676032 27:0.64460964 28:0.65468427 29:0.65506291 30:0.47713424 31:0.47330803 32:0.36954374 33:0.39007944 34:0.062092725 35:0.13932465 38:0.23076923 40:0.18302287 41:0.14634146 42:0.071428571 44:0.14285714 45:0.625 51:0.25 52:0.33333333 55:0.16666667 56:0.33333333 58:0.16666667 59:0.11111111 
4 0:0.74754098 1:0.68314488 2:0.92222222 3:0.068965517 4:0.24074074 5:0.6295082 6:0.90566038 7:0.50200803 8:0.43333333 9:0.69993192 10:0.47601105 11:0.48863021 12:0.321875 13:0.40520943 14:0.065217391 15:0.21408425 16:0.2 18:0.35714286 19:0.33333333 20:0.37520824 21:0.48637227 22:1 23:0.14447719 24:0.15127207 25:0.49721498 26:0.69802481 27:0.42803814 28:0.64308118 29:0.61039648 30:0.39062141 31:0.46799542 32:0.15714205 33:0.21196882 34:0.020649021 35:0.18548342 36:0.23076923 38:0.38461538 39:0.33333333 40:0.20566024 41:0.19512195 42:0.14285714 44:0.14285714 46:0.16666667 47:0.375 49:0.2 50:0.25 51:0.25 52:0.33333333 54:0.14285714 55:0.33333333 59:0.11111111 
4 0:0.69508197 1:0.61972164 2:0.7 3:0.068965517 4:0.28600823 5:0.66229508 6:0.71698113 7:0.46184739 8:0.22222222 9:0.63319195 10:0.43119942 11:0.672859 12:0.14375 13:0.46820917 14:0.0062111801 15:0.27488871 16:0.26666667 17:0.11111111 18:0.28571429 20:0.39717657 21:0.54970172 22:0.51418391 23:0.14447719 24:0.023038655 25:0.33528564 26:0.52714421 27:0.73746078 28:0.64308118 29:0.49179313 30:0.6534645 31:0.30855428 32:0.20698037 33:0.11890917 34:0.0088934884 35:0.24590499 38:0.30769231 40:0.21928941 41:0.17073171 42:0.21428571 44:0.14285714 45:0.125 46:0.16666667 50:0.25 51:0.25 52:0.33333333 55:0.33333333 58:0.33333333 59:0.11111111 
-4 0:0.66885246 1:0.58389755 2:0.81111111 4:0.27366255 5:0.5147541 6:0.86792453 7:0.39759036 8:0.11111111 9:0.69269784 10:0.41464422 11:0.44517449 12:0.415625 13:0.21074715 14:0.02484472 15:0.2943262 16:0.33333333 17:0.22222222 18:0.5 19:0.5 20:0.54778144 21:0.56232556 22:0.90444266 23:0.20812623 24:0.22782561 25:0.63557106 26:1 27:0.51289458 28:0.65468427 29:0.69099583 30:0.51268114 31:0.42030666 32:0.434243 33:0.13317155 34:0.009721286 35:0.38745939 36:0.23076923 38:0.46153846 39:0.16666667 40:0.30750144 41:0.29268293 43:0.25 45:0.625 46:0.16666667 47:0.375 51:0.5 52:0.33333333 54:0.14285714 56:0.33333333 57:0.25 59:0.11111111 
-2.332111404032187 0:0.72349727 1:0.69575642 2:0.92222222 3:0.068965517 4:0.32510288 5:0.60327869 6:0.90566038 7:0.60240964 8:0.17777778 9:0.6638588 10:0.35634385 12:0.0090625 13:0.0039747416 14:0.015217391 15:0.20194148 16:0.2 17:0.11111111 18:0.35714286 19:0.33333333 20:0.34222721 21:0.71980148 22:1 23:0.14447719 24:0.013302484 25:0.47958424 26:0.69802481 27:0.73380154 28:0.59254078 29:0.69417712 30:0.46840789 32:0.024907621 33:0.0060990626 34:0.032695988 35:0.14806644 38:0.38461538 39:0.33333333 40:0.10691168 41:0.048780488 42:0.071428571 45:0.125 46:0.33333333 50:0.25 51:0.125 55:0.33333333 59:0.22222222 
-2.858467153942126 0:0.55737705 1:0.41298801 2:0.41111111 3:0.068965517 4:0.086419753 5:0.40655738 6:0.71698113 7:0.16064257 8:0.22222222 9:0.47973539 10:0.33236108 11:0.37336334 12:0.40625 13:0.14285587 14:0.30124224 15:0.15466171 16:0.26666667 17:0.22222222 18:0.21428571 20:0.22094232 21:0.35971841 22:0.37050625 23:0.14447719 24:0.19461796 25:0.21633717 26:0.52714421 27:0.53473387 28:0.44509666 29:0.54981708 30:0.33491723 31:0.38892692 32:0.69672975 33:0.25881417 34:0.67086687 35:0.37588973 36:0.15384615 38:0.30769231 40:0.14612701 41:0.12195122 42:0.071428571 44:0.28571429 45:0.125 48:0.16666667 50:0.25 51:0.25 53:0.16666667 57:0.25 59:0.11111111 60:0.33333333 
-4 0:0.73770492 1:0.66556614 3:0.068965517 4:0.20164609 5:0.65901639 6:0.97169811 7:0.64257028 8:0.17777778 9:0.64481981 10:0.41319986 11:0.40841895 12:0.21875 13:0.22068943 14:0.034161491 15:0.20759376 16:0.26666667 17:0.11111111 18:0.5 19:0.66666667 20:0.60412832 21:0.73188378 22:0.20812623 23:0.14447719 24:0.067896421 25:0.72922673 26:1 27:0.69477369 28:0.59254078 29:0.60129529 30:0.57200608 31:0.31757439 32:0.22478219 33:0.13107574 34:0.017908711 35:0.25884271 36:0.15384615 38:0.61538462 39:0.83333333 40:0.31143915 41:0.2195122 42:0.071428571 44:0.14285714 45:0.125 49:0.2 50:0.25 51:0.625 53:0.16666667 54:0.14285714 56:0.33333333 57:0.25 59:0.11111111 60:0.33333333 
4 0:0.68087432 1:0.5995249 2:0.92222222 3:0.068965517 4:0.32098765 5:0.58032787 6:0.94339623 7:0.48192771 8:0.22222222 9:0.80747046 10:0.19903358 11:0.81484766 12:0.290625 13:0.61705696 14:0.046583851 15:0.28139053 16:0.33333333 17:0.11111111 18:0.28571429 19:0.16666667 20:0.3070192 21:0.39933758 22:1 23:0.14447719 24:0.012072587 25:0.35582213 26:0.52714421 27:0.59826453 28:0.46762688 29:0.53833932 30:0.50125584 31:0.38529119 32:0.25638639 33:0.070693321 34:0.050200348 35:0.059018654 36:0.076923077 37:0.2 38:0.30769231 39:0.16666667 40:0.19638234 41:0.19512195 42:0.28571429 44:0.42857143 45:0.125 47:0.125 49:0.2 50:0.25 51:0.125 55:0.16666667 57:0.125 59:0.22222222 
4 0:0.89508197 1:0.81090525 2:0.92222222 3:0.068965517 4:0.34567901 5:0.61967213 6:0.93396226 7:0.85943775 8:0.17777778 9:0.81756724 10:0.68909799 11:0.40948984 12:0.415625 13:0.128904 14:0.027950311 15:0.28170769 16:0.26666667 17:0.11111111 18:0.5 19:0.5 20:0.71811669 21:0.7362547 22:1 23:0.14447719 24:0.16819972 25:0.4576542 26:1 27:0.72656265 28:0.48449359 29:0.61405947 30:0.64451093 31:0.21559595 32:0.32587824 33:0.065987326 34:0.0037874248 35:0.20414582 36:0.15384615 37:0.2 38:0.53846154 39:0.5 40:0.36840118 41:0.29268293 42:0.42857143 44:0.14285714 45:0.125 49:0.2 50:0.25 51:0.625 52:0.33333333 53:0.33333333 54:0.14285714 59:0.11111111 
4 0:0.70928962 1:0.63202138 2:0.11111111 3:0.068965517 4:0.27777778 5:0.83606557 6:0.97169811 7:0.28915663 8:0.48888889 9:0.85111427 10:0.51140181 11:0.69759274 12:0.46875 13:0.1549982 14:0.071428571 15:0.34537793 16:0.26666667 18:0.42857143 19:0.33333333 20:0.27089062 21:0.33156773 22:0.35175423 23:0.14447719 24:0.063055102 25:0.47459771 26:0.70812289 27:0.4283031 28:0.54967191 29:0.5560551 30:0.44478326 31:0.56572781 32:0.12494084 33:0.12432178 34:0.004331325 35:0.15517697 36:0.23076923 38:0.46153846 39:0.33333333 40:0.24178294 41:0.2195122 44:0.14285714 47:0.25 49:0.6 50:0.25 51:0.125 53:0.16666667 55:0.33333333 57:0.375 58:0.16666667 59:0.22222222 
-4 0:0.65245902 1:0.56669738 2:0.35555556 3:0.068965517 4:0.037037037 5:0.53114754 6:0.90566038 7:0.45381526 8:0.46666667 9:0.61576384 10:0.50142249 11:0.25067082 12:0.53125 13:0.16371445 14:0.22360248 15:0.18444095 16:0.13333333 18:0.28571429 19:0.16666667 20:0.27943921 21:0.30428237 22:0.51017236 23:0.14447719 24:0.18449672 25:0.27406032 26:0.69802481 27:0.53228948 28:0.46762688 29:0.36400415 30:0.49008124 31:0.1849382 32:0.29580824 33:0.11260659 34:0.016292057 35:0.14119364 36:0.23076923 37:0.2 38:0.30769231 39:0.16666667 40:0.29054589 41:0.26829268 42:0.14285714 44:0.14285714 45:0.125 47:0.375 49:0.2 50:0.25 51:0.125 54:0.42857143 57:0.125 59:0.22222222 61:0.75 
4 0:0.72021858 1:0.6643752 2:0.35555556 3:0.068965517 5:0.63606557 6:0.90566038 7:0.73092369 8:0.17777778 9:0.5865707 10:0.72260144 11:0.18311562 12:0.278125 13:0.1139686 14:0.13354037 15:0.074974797 16:0.066666667 17:0.11111111 18:0.35714286 19:0.5 20:0.4074012 21:0.65263064 22:0.51017236 23:0.14447719 24:0.14999983 25:0.52265873 26:1 27:0.76099537 28:0.59254078 29:0.6724491 30:0.63167119 31:0.31968458 32:0.15185865 33:0.3240783 34:0.022480168 35:0.16131224 36:0.076923077 38:0.38461538 39:0.5 40:0.20607379 41:0.12195122 45:0.125 47:0.125 50:0.25 51:0.375 54:0.28571429 59:0.22222222 61:0.75 
4 0:0.60327869 1:0.50687363 2:0.11111111 3:0.068965517 4:0.32921811 5:0.51147541 6:0.86792453 7:0.53413655 8:0.17777778 9:0.84944604 10:0.25313823 11:0.70414051 12:0.553125 13:0.18996642 14:0.15217391 15:0.32231573 16:0.26666667 17:0.11111111 18:0.35714286 19:0.16666667 20:0.3791756 21:0.46164969 22:0.35175423 23:0.14447719 24:0.18377527 25:0.36535697 26:1 27:0.5282093 28:0.50456518 29:0.79339894 30:0.37212439 31:0.73478044 32:0.3543883 33:0.25134281 34:0.056843069 35:0.36982954 36:0.15384615 38:0.38461538 39:0.16666667 40:0.29721663 41:0.2195122 45:0.25 50:0.5 51:0.5 53:0.16666667 54:0.28571429 57:0.25 58:0.5 59:0.11111111 
3.68226529832823 0:0.62295082 1:0.52321595 2:0.42222222 4:0.44855967 5:0.62622951 6:0.86792453 7:0.47389558 8:0.22222222 9:0.66813291 10:0.25431738 11:0.62827771 12:0.35625 13:0.54222713 14:0.096273292 15:0.34694109 16:0.33333333 17:0.11111111 18:0.35714286 19:0.16666667 20:0.49250831 21:0.67949256 22:0.41851162 23:0.20812623 24:0.22292612 25:0.71422719 26:1 27:0.61977372 28:0.56494555 29:0.85587397 30:0.32737121 31:0.75860352 32:0.3058055 33:0.63791357 34:0.0095640494 35:0.34808447 36:0.15384615 38:0.38461538 39:0.16666667 40:0.20571418 41:0.17073171 44:0.28571429 45:0.125 46:0.16666667 47:0.125 51:0.5 52:0.33333333 53:0.16666667 55:0.16666667 56:0.33333333 57:0.125 58:0.16666667 
4 0:0.58142077 1:0.42617855 2:1 4:0.30658436 5:0.47213115 6:0.86792453 7:0.30923695 8:0.22222222 9:0.29467434 10:0.53561224 11:0.086923789 12:0.2125 13:0.1062066 14:0.2173913 15:0.21058414 16:0.33333333 17:0.33333333 18:0.28571429 19:0.16666667 20:0.30516273 21:0.58419565 22:0.70012295 23:0.20812623 24:0.18954089 25:0.49492501 26:1 27:0.60925386 28:0.61181541 29:0.38652103 30:0.75044939 31:0.025911279 32:0.22221406 33:0.034224198 34:0.26393965 35:0.18723603 36:0.15384615 38:0.30769231 39:0.16666667 40:0.11352848 41:0.073170732 44:0.28571429 46:0.16666667 49:0.2 51:0.25 53:0.33333333 55:0.16666667 56:0.33333333 58:0.16666667 
4 0:0.59781421 1:0.50042272 2:0.45555556 5:0.72459016 6:0.83962264 7:0.38955823 8:0.22222222 9:0.69387484 10:0.38447862 11:0.50764095 12:0.246875 13:0.27295064 14:0.0062111801 15:0.092996387 16:0.2 17:0.11111111 18:0.21428571 19:0.16666667 20:0.21963218 21:0.26999134 22:0.33447888 23:0.20812623 24:0.0050441668 25:0.35797627 26:0.61511477 27:0.48599571 28:0.56494555 29:0.47507009 30:0.48833557 31:0.35206673 32:0.17704493 33:0.1591228 34:0.045801305 35:0.069480932 36:0.15384615 38:0.30769231 39:0.16666667 40:0.23160601 41:0.2195122 42:0.14285714 45:0.125 46:0.16666667 47:0.125 49:0.4 53:0.16666667 54:0.14285714 55:0.16666667 56:0.33333333 57:0.375 58:0.33333333 60:0.33333333 
-4 0:0.63606557 1:0.53052698 2:0.11111111 4:0.24485597 5:0.63606557 6:0.81132075 7:0.52208835 8:0.11111111 9:0.82884102 10:0.33978865 11:0.62165822 12:0.615625 13:0.73147075 14:0.36956522 15:0.27687097 16:0.26666667 17:0.22222222 18:0.28571429 19:0.16666667 20:0.23094862 21:0.40796837 22:0.45588001 23:0.20812623 24:0.22848372 25:0.29391291 26:0.60501669 27:0.52859341 28:0.54663709 29:0.62771579 30:0.37725521 31:0.64519471 32:0.40886991 33:0.59849193 34:0.43337189 35:0.269817 36:0.15384615 37:0.2 38:0.30769231 39:0.16666667 40:0.13179661 41:0.097560976 42:0.14285714 44:0.14285714 45:0.125 46:0.16666667 48:0.16666667 49:0.2 51:0.125 53:0.16666667 55:0.16666667 56:0.33333333 59:0.11111111 
-4 0:0.70054645 1:0.64969689 2:0.92222222 3:0.068965517 4:0.27983539 5:0.50163934 6:0.90566038 7:0.69076305 8:0.22222222 9:0.74831866 10:0.93647448 12:0.0090625 13:0.0039747416 14:0.015217391 15:0.2056115 16:0.2 17:0.11111111 18:0.35714286 19:0.33333333 20:0.38904452 21:0.81541169 22:1 23:0.14447719 24:0.096440334 25:0.53525146 26:0.69802481 27:0.79111618 28:0.89019332 29:0.84097914 30:0.76155745 32:0.024907621 33:0.0060990626 34:0.032695988 35:0.17660048 38:0.38461538 39:0.33333333 40:0.11156861 41:0.048780488 44:0.28571429 45:0.125 46:0.16666667 50:0.25 51:0.25 59:0.22222222 61:0.25 
-4 0:0.67540984 1:0.5934019 2:0.7 3:0.068965517 4:0.32510288 5:0.56721311 6:0.71698113 7:0.36144578 8:0.17777778 9:0.47759834 10:0.44819757 11:0.45761529 12:0.496875 13:0.12880326 14:0.26086957 15:0.32214583 16:0.26666667 17:0.11111111 18:0.28571429 20:0.30079822 21:0.41848595 22:0.51418391 23:0.14447719 24:0.091170826 25:0.38853725 26:0.52714421 27:0.49220666 28:0.5861564 29:0.57501783 30:0.57119535 31:0.29863771 32:0.70073086 33:0.10065621 34:0.47125218 35:0.27212375 36:0.076923077 38:0.30769231 40:0.1996368 41:0.17073171 42:0.21428571 44:0.14285714 45:0.25 50:0.5 51:0.25 57:0.25 58:0.16666667 59:0.22222222 
-4 0:0.58579235 1:0.53098392 2:0.7 3:0.068965517 4:0.70781893 5:0.69508197 6:0.97169811 7:0.22891566 8:0.17777778 9:0.73559358 10:0.22282291 11:0.63870147 12:0.534375 13:0.10474367 14:0.0093167702 15:0.68957783 16:0.73333333 17:0.33333333 18:0.64285714 19:0.33333333 20:0.70984835 21:0.44928267 22:0.51418391 23:0.14447719 24:0.23006269 25:0.49030686 26:0.70812289 27:0.41940474 28:0.54967191 29:0.61558755 30:0.43717364 31:0.53354641 32:0.37133089 33:0.15467365 34:0.030685104 35:0.45044986 36:0.30769231 38:0.69230769 39:0.33333333 40:0.67032868 41:0.58536585 42:0.21428571 44:0.28571429 45:0.75 47:0.375 49:0.6 50:0.5 51:0.5 54:0.28571429 55:0.33333333 58:0.33333333 59:0.22222222 61:0.25 
4 0:0.60546448 1:0.4939718 2:0.11111111 3:0.068965517 4:0.24485597 5:0.66885246 6:1 7:0.14457831 8:0.22222222 9:0.57651381 10:0.28914352 11:0.50351066 12:0.434375 13:0.421826 14:0.19254658 15:0.16957965 16:0.4 17:0.33333333 18:0.28571429 19:0.33333333 20:0.29383872 21:0.43929252 22:0.36371828 23:0.14447719 24:0.048413725 25:0.43580279 26:0.69802481 27:0.56909792 28:0.64308118 29:0.47189213 30:0.52133845 31:0.27583115 32:0.27367882 33:0.28131032 34:0.14905591 35:0.079425473 36:0.076923077 38:0.30769231 39:0.33333333 40:0.18705049 41:0.14634146 42:0.14285714 44:0.42857143 45:0.125 49:0.4 50:0.25 51:0.125 53:0.16666667 55:0.16666667 59:0.11111111 61:0.25 
-4 0:0.78579235 1:0.69037284 2:0.7 3:0.068965517 4:0.3436214 5:0.76065574 6:0.93396226 7:0.3815261 8:0.22222222 9:0.82338991 10:0.63241973 11:0.32591693 12:0.55625 13:0.078065822 14:0.068322981 15:0.38179491 16:0.26666667 17:0.11111111 18:0.5 19:0.33333333 20:0.61393946 21:0.57126016 22:0.51418391 23:0.14447719 24:0.20064592 25:0.56326147 26:0.70812289 27:0.5420419 28:0.68830947 29:0.77125871 30:0.58258497 31:0.53377267 32:0.49839837 33:0.11151094 34:0.028751166 35:0.34468941 36:0.23076923 38:0.61538462 39:0.5 40:0.38659738 41:0.34146341 42:0.28571429 44:0.28571429 45:0.125 46:0.33333333 47:0.25 49:0.4 50:0.25 51:0.25 53:0.16666667 54:0.14285714 57:0.125 58:0.16666667 59:0.11111111 60:0.33333333 
-4 0:0.6852459 1:0.60034739 2:0.11111111 3:0.068965517 4:0.51440329 5:0.80983607 6:0.97169811 7:0.48995984 8:0.17777778 9:0.70046305 10:0.11581463 11:0.70821561 12:0.55 13:0.24527927 14:0.12732919 15:0.51234099 16:0.46666667 17:0.22222222 18:0.5 19:0.5 20:0.49127408 21:0.50462597 22:0.46241907 23:0.14447719 24:0.081434654 25:0.47537447 26:0.69802481 27:0.64509894 28:0.59254078 29:0.4848854 30:0.38996504 31:0.36737861 32:0.37962981 33:0.11024752 34:0.06983566 35:0.14671808 36:0.076923077 38:0.53846154 39:0.5 40:0.40268987 41:0.29268293 44:0.42857143 45:0.375 49:0.6 50:0.25 51:0.125 52:0.66666667 53:0.16666667 54:0.14285714 58:0.16666667 59:0.33333333 61:0.25 
-4 0:0.68743169 1:0.62337715 2:0.71111111 3:0.068965517 4:0.23868313 5:0.5147541 6:0.72641509 7:0.74698795 8:0.25555556 9:0.64336852 10:0.84557844 12:0.0090625 13:0.0039747416 14:0.015217391 15:0.18448625 16:0.13333333 18:0.28571429 19:0.16666667 20:0.15019291 21:0.32762946 22:0.55517185 23:0.14447719 24:0.24894025 25:0.3471423 26:0.3837522 27:0.57110964 28:0.34343386 29:0.64113052 30:0.58209238 32:0.024907621 33:0.0060990626 34:0.032695988 35:0.29604466 36:0.15384615 37:0.2 38:0.23076923 40:0.078772296 41:0.048780488 42:0.071428571 43:0.25 45:0.125 46:0.33333333 48:0.16666667 50:0.25 52:0.33333333 53:0.16666667 59:0.11111111 
4 0:0.54754098 1:0.46786095 2:0.11111111 3:0.068965517 4:0.36419753 5:0.53114754 6:1 7:0.0562249 8:0.22222222 9:0.64191722 10:0.069630408 11:0.52437737 12:0.165625 13:0.28504509 14:0.02173913 15:0.35924244 16:0.53333333 17:0.55555556 18:0.5 19:0.5 20:0.41668447 21:0.40734854 22:0.45588001 23:0.14447719 24:0.23783727 25:0.39917641 26:0.90699188 27:0.40895046 28:0.32656715 29:0.67744506 30:0.19690992 31:0.55990259 32:0.25311137 33:0.34803574 34:0.022540309 35:0.36972925 36:0.30769231 37:0.2 38:0.53846154 39:0.5 40:0.37304013 41:0.31707317 44:0.42857143 45:0.375 46:0.33333333 47:0.125 48:0.33333333 49:0.6 50:0.25 51:0.25 52:0.33333333 53:0.16666667 55:0.16666667 57:0.125 
4 0:0.67103825 1:0.58718752 2:0.45555556 4:0.6090535 5:0.51803279 6:0.97169811 7:0.64658635 8:0.11111111 9:0.67603033 10:0.58017435 11:0.62581074 12:0.378125 13:0.27342303 14:0.11180124 15:0.560425 16:0.33333333 17:0.11111111 18:0.5 19:0.33333333 20:0.29380782 21:0.38247492 22:0.33447888 23:0.20812623 24:0.42628293 25:0.24898122 26:0.69802481 27:0.5539917 28:0.44509666 29:0.40966116 30:0.59238172 31:0.29153812 32:0.18684919 33:0.10308151 34:0.012351493 35:0.46680028 36:0.30769231 38:0.53846154 39:0.33333333 40:0.26109393 41:0.19512195 44:0.28571429 45:0.125 47:0.125 48:0.33333333 49:0.4 51:0.25 53:0.16666667 55:0.16666667 56:0.33333333 59:0.33333333 
0.4195631272074532 0:0.49726776 1:0.4400529 2:0.35555556 3:0.068965517 4:0.54115226 5:0.61967213 6:0.94339623 7:0.34939759 8:0.17777778 9:0.5734167 10:0.265819 11:0.52974844 12:0.26875 13:0.06353786 14:0.0031055901 15:0.42906335 16:0.6 17:0.33333333 18:0.42857143 19:0.33333333 20:0.40339903 21:0.34325858 22:0.51017236 23:0.14447719 24:0.23751309 25:0.40340469 26:0.61511477 27:0.48964761 28:0.50280206 29:0.45735573 30:0.37187211 31:0.36045158 32:0.18726796 33:0.073343193 34:0.0067181095 35:0.26973348 36:0.23076923 38:0.53846154 39:0.33333333 40:0.46804876 41:0.3902439 42:0.071428571 44:0.57142857 45:0.25 46:0.33333333 47:0.125 49:0.2 50:0.75 52:0.33333333 54:0.14285714 55:0.16666667 57:0.125 58:0.16666667 59:0.33333333 60:0.33333333 61:0.25 
-4 0:0.71693989 1:0.64105266 2:0.96666667 4:0.12962963 5:0.9442623 6:1 7:0.33333333 8:0.41111111 9:0.64276254 10:0.13936062 11:0.46033067 12:0.2625 13:0.27163093 14:0.01863354 15:0.1297192 16:0.2 18:0.42857143 19:0.66666667 20:0.28827437 21:0.3524507 22:0.6897481 23:0.20812623 24:0.063055102 25:0.47812376 26:0.69802481 27:0.42769087 28:0.56494555 29:0.44259146 30:0.34394645 31:0.31078732 32:0.31696625 33:0.15697179 34:0.0038033373 35:0.18414211 36:0.30769231 37:0.2 38:0.38461538 39:0.33333333 40:0.25 41:0.2195122 42:0.071428571 43:0.25 47:0.25 49:0.4 51:0.25 53:0.33333333 54:0.28571429 55:0.16666667 56:0.33333333 57:0.125 58:0.16666667 59:0.11111111 
4 0:0.44480874 1:0.35908317 2:0.11111111 3:0.068965517 4:0.1563786 5:0.45245902 6:0.44339623 7:0.35742972 8:0.17777778 9:0.61092364 10:0.20643929 11:0.54450372 12:0.240625 13:0.047228572 14:0.0093167702 15:0.21973653 16:0.4 17:0.33333333 18:0.21428571 20:0.32366581 21:0.33348135 22:0.35175423 23:0.14447719 24:0.071173256 25:0.42117782 26:0.52323968 27:0.5174835 28:0.59254078 29:0.6759336 30:0.36783718 31:0.57524505 32:0.3130459 33:0.33496388 34:0.029295422 35:0.31937072 36:0.30769231 37:0.4 38:0.23076923 40:0.30724971 41:0.29268293 42:0.071428571 45:0.375 47:0.25 50:0.25 51:0.375 53:0.33333333 54:0.14285714 55:0.16666667 57:0.25 58:0.16666667 61:0.75 
3.241958953449431 0:0.5715847 1:0.39088618 2:0.066666667 5:0.47868852 6:0.47169811 7:0.34538153 8:0.17777778 9:0.22755028 10:0.48930635 12:0.0090625 13:0.0039747416 14:0.015217391 15:0.10157108 16:0.13333333 17:0.11111111 18:0.14285714 20:0.077401585 21:0.17897518 22:0.14447719 23:0.20812623 24:0.035586628 25:0.18219484 26:0.23136257 27:0.45722582 28:0.59254078 29:0.20375056 30:0.48690626 32:0.024907621 33:0.0060990626 34:0.032695988 35:0.040468359 36:0.076923077 38:0.15384615 40:0.081271577 41:0.048780488 45:0.125 49:0.2 50:0.25 56:0.33333333 57:0.25 59:0.11111111 61:0.75 
4 0:0.72349727 1:0.62732511 2:0.7 3:0.068965517 4:0.40123457 5:0.6852459 6:0.90566038 7:0.48995984 8:0.52222222 9:0.8024707 10:0.36309131 11:0.72694965 12:0.19375 13:0.25232941 14:0.0093167702 15:0.38782098 16:0.4 18:0.42857143 19:0.33333333 20:0.44632903 21:0.36399955 22:0.51418391 23:0.14447719 24:0.13083217 25:0.31071408 26:0.69802481 27:0.46348331 28:0.64308118 29:0.59296288 30:0.51023833 31:0.3840841 32:0.40190996 33:0.13575903 34:0.053877348 35:0.20205384 36:0.30769231 38:0.38461538 39:0.16666667 40:0.38834148 41:0.41463415 42:0.35714286 43:0.25 44:0.42857143 45:0.25 47:0.375 50:0.25 51:0.25 52:0.33333333 53:0.16666667 57:0.25 58:0.16666667 59:0.33333333 
-4 0:0.56721311 1:0.41537815 2:0.11111111 4:0.11522634 5:0.40327869 6:0.58490566 7:0.4497992 8:0.32222222 9:0.39812076 10:0.50784867 11:0.16051995 12:0.275 13:0.14051602 14:0.031055901 15:0.075359922 16:0.13333333 18:0.14285714 20:0.22448303 21:0.39696502 22:0.36371828 23:0.20812623 24:0.054593937 25:0.47477174 26:0.59743209 27:0.36401482 28:0.56670867 29:0.39383526 30:0.58646291 31:0.12335574 32:0.082917388 33:0.1145478 34:0.013272547 35:0.11233114 36:0.15384615 37:0.2 38:0.30769231 39:0.16666667 40:0.09743599 41:0.097560976 42:0.071428571 44:0.14285714 46:0.33333333 47:0.25 54:0.14285714 55:0.16666667 56:0.33333333 57:0.125 60:0.66666667 
-4 0:0.74644809 1:0.68844538 2:1 4:0.092592593 5:0.66229508 6:0.97169811 7:0.51807229 8:0.22222222 9:0.83466369 10:0.40853933 11:0.5504834 12:0.328125 13:0.49423656 14:0.062111801 15:0.17295516 16:0.13333333 17:0.11111111 18:0.35714286 19:0.33333333 20:0.21654286 21:0.3037752 22:0.70012295 23:0.20812623 24:0.1867528 25:0.22525045 26:0.4061477 27:0.51171483 28:0.56494555 29:0.43217112 30:0.42510547 31:0.26210289 32:0.32074795 33:0.21909082 34:0.12881607 35:0.06743938 36:0.23076923 38:0.38461538 39:0.33333333 40:0.19879171 41:0.17073171 42:0.071428571 45:0.125 47:0.25 49:0.4 53:0.16666667 54:0.14285714 56:0.33333333 57:0.125 58:0.33333333 59:0.33333333 
-4 0:0.69836066 1:0.62713712 2:1 4:0.20781893 5:0.52459016 6:1 7:0.5060241 8:0.42222222 9:0.63013473 10:0.48380981 11:0.45151363 12:0.303125 13:0.32009717 14:3.8323277e-16 15:0.2113997 16:0.2 18:0.35714286 19:0.16666667 20:0.31009816 21:0.46301037 22:0.70012295 23:0.20812623 24:0.017116754 25:0.33648668 26:0.47403059 27:0.58660494 28:0.61181541 29:0.4717752 30:0.49938528 31:0.33933372 32:0.22961323 33:0.24077377 34:0.066696076 35:0.13350067 36:0.15384615 37:0.2 38:0.38461538 39:0.16666667 40:0.17921102 41:0.14634146 44:0.14285714 45:0.125 46:0.33333333 47:0.25 49:0.6 52:0.33333333 54:0.14285714 55:0.16666667 56:0.33333333 58:0.16666667 
-0.1329580318872071 0:0.65136612 1:0.56251277 2:0.42222222 3:0.068965517 4:0.11522634 5:0.65901639 6:0.67924528 7:0.40160643 8:0.52222222 9:0.72551922 10:0.53080199 11:0.49497654 12:0.234375 13:0.32448828 14:0.02484472 15:0.14422935 16:0.2 18:0.21428571 20:0.29442353 21:0.38326079 22:0.41851162 23:0.14447719 24:0.26393765 25:0.44002346 26:0.52714421 27:0.45760981 28:0.64308118 29:0.66469999 30:0.50291081 31:0.52797585 32:0.23496282 33:0.3216657 34:0.039082249 35:0.29411928 36:0.23076923 38:0.23076923 40:0.17311565 41:0.19512195 42:0.21428571 44:0.14285714 47:0.25 50:0.25 51:0.375 53:0.16666667 55:0.16666667 57:0.25 58:0.33333333 
4 0:0.60874317 1:0.54647834 2:0.96666667 3:0.068965517 4:0.87037037 5:0.55409836 6:0.97169811 7:0.4497992 8:0.17777778 9:0.79415689 10:0.17497286 11:0.80067198 12:0.55 13:0.20305411 14:0.01863354 15:0.88075847 16:0.73333333 17:0.55555556 18:0.78571429 19:0.33333333 20:0.61058753 21:0.37378819 22:0.6897481 23:0.14447719 24:0.59430797 25:0.40461105 26:0.47676032 27:0.49992172 28:0.36174233 29:0.76564782 30:0.38639797 31:0.60837819 32:0.42440741 33:0.051781934 34:0.031680702 35:0.56698879 36:0.53846154 37:0.2 38:0.84615385 39:0.33333333 40:0.74600834 41:0.6097561 44:0.28571429 45:0.375 46:0.16666667 47:0.125 48:0.16666667 49:0.6 50:0.5 51:0.25 52:0.33333333 53:0.66666667 55:0.16666667 57:0.25 58:0.66666667 59:0.55555556 61:0.25 
-4 0:0.63934426 1:0.56508825 2:0.11111111 3:0.068965517 4:0.12345679 5:0.50819672 6:0.90566038 7:0.51405622 8:0.38888889 9:0.64746558 10:0.34607129 11:0.50685527 12:0.334375 13:0.1070074 14:0.0031055901 15:0.31361644 16:0.2 18:0.21428571 19:0.16666667 20:0.29018709 21:0.17550908 22:0.36371828 23:0.14447719 24:0.25819371 25:0.33015259 26:0.69802481 27:0.42423918 28:0.40861218 29:0.38641434 30:0.36670139 31:0.29161372 32:0.25830409 33:0.056327241 34:0.0023889956 35:0.23729253 36:0.30769231 38:0.30769231 39:0.33333333 40:0.58983026 41:0.6097561 42:0.71428571 44:0.14285714 47:0.25 48:0.16666667 50:0.25 51:0.125 53:0.16666667 54:0.71428571 55:0.16666667 57:0.625 58:0.33333333 59:0.22222222 60:0.33333333 
4 0:0.70819672 1:0.61147061 2:0.45555556 3:0.068965517 4:0.4691358 5:0.58032787 6:0.74528302 7:0.562249 8:0.38888889 9:0.731302 10:0.2658689 11:0.65240628 12:0.45625 13:0.14696762 14:0.02484472 15:0.54311702 16:0.33333333 18:0.5 20:0.48105071 21:0.34872414 22:0.33447888 23:0.14447719 24:0.21594699 25:0.35118651 26:0.56703871 27:0.42251286 28:0.36174233 29:0.56093161 30:0.29596494 31:0.45972369 32:0.51456122 33:0.11008319 34:0.022839418 35:0.36762718 36:0.30769231 38:0.53846154 40:0.52022799 41:0.48780488 42:0.21428571 44:0.14285714 45:0.375 46:0.33333333 47:0.25 48:0.16666667 49:0.6 50:0.25 51:0.125 52:0.66666667 53:0.16666667 54:0.28571429 57:0.5 58:0.16666667 59:0.11111111 
-4 0:0.73989071 1:0.69474412 2:0.92222222 4:0.45884774 5:0.64590164 6:0.97169811 7:0.71084337 8:0.22222222 9:0.79570545 10:0.53617686 11:0.58652322 12:0.3 13:0.61960941 14:0.055900621 15:0.3712153 16:0.26666667 17:0.11111111 18:0.42857143 19:0.33333333 20:0.37684718 21:0.60463268 22:1 23:0.20812623 24:0.079098239 25:0.56760599 26:0.70812289 27:0.63942677 28:0.69854877 29:0.54550211 30:0.64039644 31:0.27115313 32:0.33298201 33:0.15098372 34:0.019242279 35:0.16616432 36:0.076923077 38:0.46153846 39:0.33333333 40:0.20296318 41:0.12195122 42:0.071428571 45:0.125 49:0.4 51:0.25 53:0.16666667 54:0.14285714 55:0.33333333 56:0.33333333 59:0.22222222 
-3.837100223411287 0:0.68415301 1:0.61094839 2:0.45555556 4:0.24897119 5:0.80327869 6:1 7:0.24096386 8:0.22222222 9:0.52392781 10:0.52476887 11:0.35913066 12:0.30625 13:0.3648888 14:0.15838509 15:0.19052366 16:0.2 17:0.11111111 18:0.35714286 19:0.5 20:0.33224501 21:0.58035775 22:0.33447888 23:0.20812623 24:0.34323961 25:0.60367044 26:0.90699188 27:0.47917647 28:0.69854877 29:0.53050659 30:0.71577224 31:0.15359285 32:0.224728 33:0.11741693 34:0.16739296 35:0.21530196 36:0.15384615 38:0.38461538 39:0.5 40:0.13408012 41:0.097560976 44:0.14285714 46:0.16666667 47:0.125 49:0.4 51:0.25 53:0.16666667 54:0.14285714 55:0.16666667 56:0.33333333 57:0.125 
-0.3631587786939725 0:0.63387978 1:0.53470472 2:0.96666667 3:0.068965517 4:0.1563786 5:0.50819672 6:0.68867925 7:0.33333333 8:0.17777778 9:0.40284622 10:0.48432453 11:0.2234653 12:0.225 13:0.035858811 14:0.080745342 15:0.18422573 16:0.2 17:0.22222222 18:0.28571429 20:0.37064328 21:0.5513283 22:0.6897481 23:0.14447719 24:0.013302484 25:0.38424068 26:0.56703871 27:0.61804937 28:0.59254078 29:0.54213355 30:0.58357528 31:0.31598221 32:0.28942369 33:0.24614021 34:0.063335952 35:0.23312119 38:0.30769231 40:0.2138773 41:0.14634146 45:0.375 46:0.16666667 50:0.25 51:0.25 52:0.33333333 54:0.14285714 57:0.125 58:0.33333333 59:0.11111111 61:0.25 
-4 0:0.48306011 1:0.27464069 2:0.11111111 4:0.42798354 5:0.36065574 6:0.29245283 7:0.3373494 8:0.11111111 9:0.29506832 10:0.047606713 11:0.32393874 12:0.378125 13:0.37401552 14:0.13354037 15:0.31420545 16:0.4 17:0.33333333 18:0.21428571 20:0.18615538 21:0.33173783 22:0.45588001 23:0.20812623 24:0.026604967 25:0.29072676 26:0.43023156 27:0.62585266 28:0.56494555 29:0.40620419 30:0.36061687 31:0.34271141 32:0.26028683 33:0.35430133 34:0.25923214 35:0.08746309 36:0.076923077 38:0.23076923 40:0.12293225 41:0.097560976 44:0.28571429 45:0.375 46:0.16666667 49:0.4 56:0.66666667 57:0.125 61:0.25 
-4 0:0.61967213 1:0.5031106 2:0.42222222 3:0.068965517 4:0.24279835 5:0.63606557 6:0.90566038 7:0.24096386 8:0.43333333 9:0.56951415 10:0.3604179 11:0.31084486 12:0.59375 13:0.34569355 14:0.45341615 15:0.17537918 16:0.2 18:0.21428571 19:0.16666667 20:0.24008195 21:0.42351175 22:0.41851162 23:0.14447719 24:0.013302484 25:0.56033056 26:0.69802481 27:0.42258601 28:0.46762688 29:0.54158401 30:0.52838251 31:0.3889502 32:0.14270468 33:0.38395134 34:0.079684145 35:0.13429751 36:0.076923077 37:0.2 38:0.23076923 39:0.16666667 40:0.10827819 41:0.097560976 42:0.071428571 44:0.28571429 45:0.125 47:0.125 50:0.25 51:0.25 54:0.14285714 57:0.125 58:0.16666667 59:0.11111111 
-0.09815311459988911 0:0.82295082 1:0.73852599 2:0.7 3:0.068965517 4:0.037037037 5:0.78360656 6:1 7:0.54216867 8:0.53333333 9:0.72765628 10:0.67588063 11:0.33221765 12:0.1625 13:0.083778628 14:0.0031055901 15:0.14181666 16:0.066666667 18:0.21428571 19:0.16666667 20:0.23329941 21:0.24120831 22:0.51418391 23:0.14447719 24:0.13919949 25:0.29073852 26:0.41624578 27:0.46495385 28:0.64308118 29:0.35696679 30:0.41383122 31:0.25542124 32:0.11672429 33:0.12685706 34:0.0030203164 35:0.062129763 36:0.30769231 37:0.4 38:0.23076923 39:0.16666667 40:0.24167506 41:0.29268293 42:0.5 44:0.14285714 47:0.5 49:0.6 50:0.25 58:0.66666667 
-4 0:0.63387978 1:0.52188667 2:0.92222222 4:0.1563786 5:0.40327869 6:0.47169811 7:0.57429719 8:0.42222222 9:0.74900442 10:0.3556357 11:0.52630601 12:0.43125 13:0.62296804 14:0.43478261 15:0.16012143 16:0.13333333 18:0.21428571 20:0.26046189 21:0.50120659 22:1 23:0.20812623 24:0.36341628 25:0.3691733 26:0.47676032 27:0.66133275 28:0.61181541 29:0.7638441 30:0.40308629 31:0.61509538 32:0.61463729 33:0.67374811 34:0.72386071 35:0.27399636 36:0.23076923 38:0.23076923 40:0.080228711 41:0.073170732 45:0.125 47:0.25 51:0.375 53:0.16666667 56:0.33333333 58:0.5 
-4 0:0.8568306 1:0.7407193 2:0.7 4:0.47119342 5:0.72459016 6:0.97169811 7:0.70281124 8:0.22222222 9:0.75190701 10:0.44766099 11:0.54271725 12:0.39375 13:0.20273988 14:0.02484472 15:0.4886558 16:0.33333333 17:0.11111111 18:0.71428571 19:0.66666667 20:0.63286527 21:0.53851502 22:0.51418391 23:0.20812623 24:0.35585672 25:0.52360751 26:0.69802481 27:0.58054585 28:0.67000101 29:0.5778411 30:0.63109501 31:0.26000671 32:0.28171462 33:0.14638205 34:0.051532133 35:0.38474958 36:0.38461538 37:0.2 38:0.69230769 39:0.66666667 40:0.431063 41:0.3902439 42:0.14285714 43:0.25 44:0.14285714 45:0.125 47:0.375 49:0.4 51:0.5 53:0.33333333 55:0.16666667 56:0.33333333 57:0.25 58:0.16666667 59:0.33333333 
4 0:0.73661202 1:0.64550966 2:0.71111111 3:0.068965517 4:0.30246914 5:0.69508197 6:0.71698113 7:0.44176707 8:0.22222222 9:0.89914693 10:0.42146344 11:0.63358261 12:0.65625 13:0.26858948 14:0.031055901 15:0.4128881 16:0.26666667 17:0.11111111 18:0.35714286 20:0.3423033 21:0.31910799 22:0.55517185 23:0.14447719 24:0.24035259 25:0.27621952 26:0.3985631 27:0.47573024 28:0.64308118 29:0.49108054 30:0.44306459 31:0.34942714 32:0.3320064 33:0.20895355 34:0.053108062 35:0.12058014 36:0.23076923 38:0.46153846 39:0.33333333 40:0.37814658 41:0.34146341 42:0.28571429 44:0.28571429 47:0.25 49:0.4 50:0.25 52:0.33333333 53:0.16666667 54:0.28571429 55:0.16666667 57:0.125 58:0.16666667 59:0.33333333 60:0.33333333 
-4 0:0.74535519 1:0.68698318 2:0.066666667 3:0.068965517 4:0.16460905 5:0.70491803 6:0.94339623 7:0.65863454 8:0.38888889 9:0.73089054 10:0.6358512 11:0.3868675 12:0.1375 13:0.21470302 14:0.0062111801 15:0.1708936 16:0.13333333 18:0.35714286 19:0.16666667 20:0.32501955 21:0.45146244 22:0.14447719 23:0.14447719 24:0.22882641 25:0.48250405 26:0.52714421 27:0.58545751 28:0.50456518 29:0.57255058 30:0.60697743 31:0.23115951 32:0.41520303 33:0.086543062 34:0.1366128 35:0.33320867 36:0.23076923 37:0.2 38:0.38461538 39:0.16666667 40:0.19569908 41:0.17073171 42:0.14285714 45:0.125 46:0.16666667 47:0.25 50:0.5 51:0.25 54:0.14285714 57:0.125 58:0.16666667 59:0.22222222 
-4 0:0.81748634 1:0.66818337 2:0.11111111 3:0.068965517 4:0.11522634 5:0.66557377 6:0.93396226 7:0.57831325 8:0.48888889 9:0.80533341 10:0.48346666 11:0.56421344 12:0.296875 13:0.065973938 14:0.01242236 15:0.25843028 16:0.13333333 18:0.21428571 19:0.16666667 20:0.37592508 21:0.21465353 22:0.35175423 23:0.14447719 24:0.21161199 25:0.35346414 26:0.70812289 27:0.46898417 28:0.54967191 29:0.53501496 30:0.42470697 31:0.42518745 32:0.32235253 33:0.030454001 34:0.0044555337 35:0.14649644 36:0.46153846 37:0.2 38:0.23076923 39:0.16666667 40:0.55604502 41:0.65853659 42:1 45:0.125 47:0.625 49:0.2 50:0.25 51:0.125 53:0.16666667 54:0.57142857 57:0.5 58:0.33333333 59:0.11111111 
-4 0:0.62076503 1:0.51084342 2:0.066666667 3:0.068965517 4:0.25308642 5:0.49836066 6:0.93396226 7:0.562249 8:0.46666667 9:0.66605322 10:0.43642457 11:0.42483451 12:0.54375 13:0.16698594 14:0.38819876 15:0.22186604 16:0.2 18:0.21428571 19:0.16666667 20:0.14339152 21:0.23789219 22:0.14447719 23:0.14447719 24:0.19837445 25:0.31748196 26:0.70812289 27:0.55920896 28:0.40861218 29:0.42200389 30:0.39870796 31:0.49320161 32:0.24485405 33:0.35996475 34:0.26946651 35:0.24187129 36:0.23076923 38:0.30769231 39:0.16666667 40:0.17570483 41:0.12195122 42:0.14285714 45:0.125 48:0.16666667 49:0.2 50:0.5 51:0.125 53:0.16666667 58:0.33333333 59:0.11111111 60:0.33333333 
-4 0:0.63934426 1:0.55885725 2:1 4:0.32304527 5:0.8 6:0.97169811 7:0.25301205 8:0.17777778 9:0.71269688 10:0.34734408 11:0.53363504 12:0.29375 13:0.034334172 14:0.049689441 15:0.40715653 16:0.46666667 17:0.22222222 18:0.5 19:0.33333333 20:0.57330597 21:0.48783507 22:0.70012295 23:0.20812623 24:0.31853158 25:0.41531574 26:0.60501669 27:0.51455537 28:0.5861564 29:0.59615475 30:0.4608226 31:0.48272625 32:0.4183833 33:0.05299013 34:0.022312368 35:0.37484062 36:0.23076923 38:0.61538462 39:0.33333333 40:0.47256185 41:0.3902439 42:0.21428571 44:0.28571429 45:0.375 46:0.16666667 47:0.125 49:0.6 50:0.25 51:0.25 53:0.16666667 54:0.28571429 56:0.33333333 57:0.125 59:0.11111111 60:0.33333333 61:0.25 
4 0:0.59016393 1:0.52687147 2:0.45555556 3:0.068965517 4:0.17283951 5:0.60655738 6:0.71698113 7:0.17670683 8:0.22222222 9:0.51345946 10:0.31354738 11:0.36643601 12:0.328125 13:0.042951215 14:0.0031055901 15:0.30649162 16:0.26666667 17:0.11111111 18:0.28571429 20:0.2030727 21:0.14597912 22:0.33447888 23:0.14447719 24:0.35400195 25:0.26845549 26:0.37738759 27:0.33815467 28:0.35511491 29:0.30409422 30:0.40020149 31:0.39536191 32:0.21897777 33:0.016928347 34:0.017722517 35:0.37561798 36:0.53846154 37:0.2 38:0.30769231 40:0.44224684 41:0.48780488 42:0.5 43:0.25 44:0.14285714 46:0.16666667 47:0.5 48:0.33333333 50:0.25 51:0.125 53:0.16666667 54:0.28571429 55:0.33333333 57:0.25 59:0.11111111 60:0.33333333 61:0.25 
4 0:0.74098361 1:0.65627682 2:0.42222222 4:0.3909465 5:0.6 6:0.93396226 7:0.68674699 8:0.25555556 9:0.89508975 10:0.38187697 11:0.69072211 12:0.3875 13:0.49212985 14:0.11801242 15:0.40230849 16:0.26666667 18:0.5 19:0.33333333 20:0.49547155 21:0.50891199 22:0.41851162 23:0.20812623 24:0.35657319 25:0.35685371 26:0.90699188 27:0.573661 28:0.40861218 29:0.70352965 30:0.2575187 31:0.7684941 32:0.21825959 33:0.49511661 34:0.019907807 35:0.3909281 36:0.30769231 37:0.2 38:0.53846154 39:0.33333333 40:0.3321706 41:0.29268293 42:0.071428571 44:0.14285714 45:0.25 46:0.16666667 47:0.375 48:0.16666667 49:0.4 51:0.375 52:0.33333333 55:0.16666667 56:0.33333333 58:0.33333333 59:0.11111111 
4 0:0.63169399 1:0.50371985 2:0.96666667 4:0.39300412 5:0.43934426 6:0.83962264 7:0.34939759 8:0.22222222 9:0.18047274 10:0.50019344 12:0.0090625 13:0.0039747416 14:0.015217391 15:0.26618941 16:0.26666667 17:0.22222222 18:0.28571429 19:0.16666667 20:0.25898687 21:0.61255725 22:0.6897481 23:0.20812623 24:0.096440334 25:0.46178056 26:0.61511477 27:0.76277071 28:0.80659596 29:0.24552622 30:0.62613238 32:0.024907621 33:0.0060990626 34:0.032695988 35:0.19364186 38:0.30769231 39:0.16666667 40:0.072155495 41:0.024390244 45:0.25 46:0.16666667 49:0.2 51:0.125 55:0.33333333 56:0.33333333 59:0.11111111 
-4 0:0.61202186 1:0.52948255 2:0.45555556 4:0.086419753 5:0.67540984 6:0.93396226 7:0.24899598 8:0.11111111 9:0.66428773 10:0.46355176 11:0.39006189 12:0.271875 13:0.10870111 14:0.0093167702 15:0.21986113 16:0.26666667 17:0.22222222 18:0.42857143 19:0.33333333 20:0.2656237 21:0.26044569 22:0.33447888 23:0.20812623 24:0.28531436 25:0.33763293 26:0.70812289 27:0.17721445 29:0.54131086 30:0.26337891 31:0.62247975 32:0.22233622 33:0.098309995 34:0.0052339341 35:0.27393552 36:0.46153846 37:0.2 38:0.53846154 39:0.5 40:0.35191312 41:0.31707317 42:0.071428571 44:0.28571429 46:0.16666667 47:0.25 48:0.33333333 49:0.2 51:0.125 53:0.33333333 54:0.14285714 56:0.33333333 57:0.25 58:0.16666667 59:0.33333333 60:0.33333333 
4 0:0.58907104 1:0.44013598 2:0.42222222 3:0.068965517 4:0.0781893 5:0.36393443 6:0.44339623 7:0.51405622 8:0.43333333 9:0.51618502 10:0.38146206 11:0.43484845 12:0.253125 13:0.51540397 14:0.25776398 15:0.096134024 16:0.066666667 18:0.14285714 20:0.24955082 21:0.48094973 22:0.41851162 23:0.14447719 24:0.054593937 25:0.3826343 26:0.69044021 27:0.76895234 28:0.77211762 29:0.62785353 30:0.44223038 31:0.53158005 32:0.11596904 33:0.58309724 34:0.13942021 35:0.17208011 38:0.23076923 39:0.16666667 40:0.12945915 41:0.073170732 44:0.14285714 50:0.25 51:0.25 54:0.14285714 57:0.125 58:0.33333333 60:0.33333333 61:0.5 
4 0:0.87759563 1:0.7062069 3:0.068965517 4:0.29012346 5:0.74754098 6:0.97169811 7:0.51004016 8:0.43333333 9:0.77696318 10:0.35479969 11:0.69007022 12:0.34375 13:0.2532634 14:0.0093167702 15:0.61983621 16:0.4 18:0.85714286 19:0.5 20:0.57257486 21:0.33952305 22:0.20812623 23:0.14447719 24:0.22391662 25:0.4313401 26:0.70812289 27:0.55055922 28:0.64308118 29:0.51388518 30:0.42857778 31:0.3525305 32:0.42490697 33:0.05430368 34:0.0012135901 35:0.29489513 36:0.23076923 38:0.76923077 39:0.33333333 40:0.72137514 41:0.63414634 42:0.21428571 43:0.5 44:0.42857143 47:0.25 49:0.8 50:0.25 51:0.125 52:0.33333333 54:0.28571429 55:0.33333333 56:0.33333333 57:0.5 58:0.33333333 59:0.55555556 61:0.25 
-3.905394499886625 0:0.54098361 1:0.47203869 2:0.35555556 3:0.068965517 4:0.55144033 5:0.75737705 6:0.86792453 7:0.17670683 8:0.22222222 9:0.71849714 10:0.057342689 11:0.81674636 12:0.40625 13:0.42653081 14:0.0093167702 15:0.43737752 16:0.6 17:0.44444444 18:0.57142857 19:0.5 20:0.57032914 21:0.50705138 22:0.51017236 23:0.14447719 24:0.51037781 25:0.80943133 26:1 27:0.41284851 28:0.36174233 29:0.59261202 30:0.48210197 31:0.53795801 32:0.44193724 33:0.049199466 34:0.024241623 35:0.47979587 36:0.38461538 38:0.53846154 39:0.5 40:0.41820699 41:0.36585366 42:0.071428571 43:0.25 44:0.42857143 45:0.25 46:0.33333333 47:0.125 48:0.16666667 49:0.2 50:0.25 51:0.5 53:0.5 55:0.16666667 57:0.125 61:0.25 
1.844326669962915 0:0.73551913 1:0.6445127 2:0.92222222 4:0.69135802 5:0.64590164 6:0.97169811 7:0.45381526 8:0.22222222 9:0.81066484 10:0.32225392 11:0.74436798 12:0.528125 13:0.44422386 14:0.043478261 15:0.65215274 16:0.4 17:0.11111111 18:0.64285714 19:0.33333333 20:0.44413068 21:0.41363147 22:1 23:0.20812623 24:0.19077079 25:0.26462536 26:0.56703871 27:0.46901184 28:0.36350544 29:0.52250342 30:0.31925177 31:0.47326288 32:0.40776547 33:0.085162929 34:0.011080908 35:0.35280512 36:0.15384615 38:0.61538462 39:0.16666667 40:0.44843211 41:0.34146341 43:0.25 44:0.14285714 45:0.25 47:0.125 48:0.16666667 49:0.8 51:0.25 52:0.33333333 54:0.14285714 55:0.5 56:0.33333333 58:0.33333333 59:0.22222222 
4 0:0.44480874 1:0.28487614 2:0.41111111 4:0.17283951 5:0.41639344 6:0.3490566 7:0.13253012 8:0.11111111 9:0.38233846 10:0.44694665 11:0.30130045 12:0.2125 13:0.1225763 14:0.062111801 15:0.15688185 16:0.4 17:0.44444444 18:0.21428571 20:0.19113402 21:0.26918196 22:0.37050625 23:0.20812623 24:0.086478821 25:0.2835768 26:0.34101609 27:0.50052237 28:0.65468427 29:0.41181788 30:0.55051943 31:0.14389729 32:0.34967093 33:0.048215832 34:0.23837978 35:0.17133502 36:0.15384615 38:0.23076923 40:0.1940269 41:0.17073171 44:0.14285714 45:0.25 46:0.33333333 53:0.33333333 54:0.14285714 55:0.16666667 56:0.33333333 57:0.25 58:0.33333333 59:0.11111111 
-4 0:0.73224044 1:0.61727145 2:0.7 3:0.068965517 4:0.36213992 5:0.84262295 6:0.93396226 7:0.016064257 8:0.11111111 9:0.81525315 10:0.25080796 11:0.60739501 12:0.234375 13:0.19261803 14:0.0031055901 15:0.41194794 16:0.66666667 17:0.77777778 18:0.71428571 19:0.5 20:0.81028473 21:0.44198625 22:0.51418391 23:0.14447719 24:0.50016625 25:0.46088189 26:0.70812289 27:0.35628972 28:0.36174233 29:0.71227035 30:0.36845938 31:0.63688308 32:0.35393226 33:0.16570712 34:0.019401724 35:0.57477311 36:0.61538462 37:0.4 38:0.76923077 39:0.5 40:0.72662543 41:0.70731707 42:0.57142857 44:0.28571429 45:0.25 46:0.16666667 47:0.5 48:0.16666667 49:0.4 50:0.25 51:0.625 53:0.33333333 55:0.5 56:0.33333333 57:0.25 59:0.22222222 61:0.25 
-4 0:0.63169399 1:0.53491361 2:0.45555556 3:0.068965517 4:0.24279835 5:0.5442623 6:0.90566038 7:0.42570281 8:0.22222222 9:0.82621273 10:0.20626772 11:0.84664054 12:0.465625 13:0.67812807 14:0.11180124 15:0.28675963 16:0.2 17:0.11111111 18:0.28571429 19:0.16666667 20:0.32155865 21:0.44675055 22:0.33447888 23:0.14447719 24:0.22350479 25:0.40152084 26:0.69802481 27:0.60612807 28:0.49810478 29:0.81606508 30:0.37849519 31:0.86301661 32:0.396164 33:0.54452102 34:0.036580999 35:0.41871374 36:0.15384615 38:0.30769231 39:0.16666667 40:0.22236407 41:0.17073171 42:0.071428571 44:0.14285714 45:0.25 47:0.125 48:0.16666667 50:0.25 51:0.375 52:0.33333333 54:0.28571429 59:0.11111111 61:0.25 
-4 0:0.75846995 1:0.64994059 2:0.96666667 3:0.068965517 4:0.33744856 5:0.87540984 6:0.97169811 7:0.48995984 8:0.25555556 9:0.68328682 10:0.50620469 11:0.35739014 12:0.328125 13:0.044725221 14:0.01242236 15:0.37726403 16:0.33333333 18:0.57142857 19:0.5 20:0.5209873 21:0.39239973 22:0.6897481 23:0.14447719 24:0.18954089 25:0.62874954 26:0.70812289 27:0.3996957 28:0.36174233 29:0.58752684 30:0.34755615 31:0.43409366 32:0.40634123 33:0.089194449 34:0.053304035 35:0.31770688 36:0.23076923 37:0.2 38:0.61538462 39:0.5 40:0.5245433 41:0.46341463 42:0.28571429 44:0.28571429 45:0.125 46:0.16666667 47:0.125 48:0.16666667 49:0.6 50:0.25 51:0.25 53:0.16666667 54:0.14285714 55:0.16666667 57:0.375 58:0.5 59:0.22222222 
4 0:0.55081967 1:0.43639738 2:0.11111111 3:0.068965517 4:0.20164609 5:0.31147541 6:0.81132075 7:0.55421687 8:0.43333333 9:0.33598658 10:0.43395078 11:0.22022733 12:0.190625 13:0.034397439 14:0.02173913 15:0.22274957 16:0.26666667 18:0.28571429 19:0.16666667 20:0.25432624 21:0.33208167 22:0.46241907 23:0.14447719 24:0.10974282 25:0.17406021 26:0.60501669 27:0.59416945 28:0.68168206 29:0.35644424 30:0.49482468 31:0.21044731 32:0.26476518 33:0.12635994 34:0.095411524 35:0.18549566 36:0.076923077 38:0.30769231 39:0.16666667 40:0.26109393 41:0.19512195 45:0.125 46:0.33333333 47:0.125 50:0.25 54:0.14285714 55:0.5 58:0.5 59:0.22222222 61:0.5 
-4 0:0.57704918 1:0.45323888 2:0.11111111 3:0.068965517 4:0.55761317 5:0.43934426 6:0.83962264 7:0.33333333 8:0.17777778 9:0.60402124 10:0.12383487 11:0.73701593 12:0.18125 13:0.60906976 14:0.031055901 15:0.4313741 16:0.4 17:0.22222222 18:0.35714286 19:0.16666667 20:0.3218904 21:0.48021186 22:0.45588001 23:0.14447719 24:0.093507241 25:0.45896782 26:0.61511477 27:0.47245729 28:0.5861564 29:0.59665144 30:0.4181867 31:0.62475962 32:0.32974836 33:0.49820477 34:0.0043125403 35:0.32667183 36:0.15384615 38:0.38461538 39:0.16666667 40:0.19152762 41:0.14634146 44:0.42857143 45:0.125 46:0.16666667 47:0.125 49:0.2 50:0.5 51:0.25 54:0.14285714 55:0.16666667 59:0.11111111 
-4 0:0.78688525 1:0.80103535 2:0.71111111 3:0.068965517 4:0.092592593 5:0.60327869 6:0.74528302 7:0.78714859 8:0.82222222 9:0.61619277 10:0.77001471 11:0.19081688 12:0.36875 13:0.22839622 14:0.37267081 15:0.096813656 18:0.14285714 20:0.16723235 21:0.32812191 22:0.55517185 23:0.14447719 24:0.058010935 25:0.12157047 26:0.26506351 27:0.62216825 28:0.72348466 29:0.34282547 30:0.57071097 31:0.15528191 32:0.19858279 33:0.17464824 34:0.23624374 35:0.038793624 38:0.15384615 40:0.078286824 41:0.073170732 42:0.28571429 49:0.2 50:0.25 52:0.33333333 57:0.25 59:0.11111111 61:0.25 
4 0:0.7726776 1:0.66353162 2:0.92222222 4:0.23045267 5:0.81311475 6:0.97169811 7:0.33333333 8:0.17777778 9:0.64168281 10:0.36718722 11:0.36346981 12:0.434375 13:0.0082959726 14:0.01863354 15:0.37438691 16:0.4 17:0.11111111 18:0.78571429 19:1 20:0.61955543 21:0.48548776 22:1 23:0.20812623 24:0.098551408 25:0.57867126 26:0.69802481 27:0.47568155 28:0.5861564 29:0.43819937 30:0.53439689 31:0.31504911 32:0.28509842 33:0.0030246952 34:0.0091100966 35:0.23679001 36:0.23076923 38:0.84615385 39:1 40:0.57943757 41:0.43902439 44:0.14285714 45:0.375 46:0.33333333 47:0.25 49:0.2 50:0.25 51:0.125 54:0.42857143 55:0.16666667 56:0.33333333 58:0.5 59:0.77777778 
-4 0:0.6568306 1:0.5700926 2:0.14444444 3:0.068965517 4:0.36213992 5:0.43278689 6:0.71698113 7:0.59839357 8:0.56666667 9:0.64319147 10:0.32434084 11:0.56234344 12:0.6125 13:0.3378511 14:0.30745342 15:0.417385 16:0.26666667 18:0.28571429 20:0.17954017 21:0.22182909 23:0.14447719 24:0.43191268 25:0.20700483 26:0.47039571 27:0.56707235 28:0.64308118 29:0.41277332 30:0.43548948 31:0.4430188 32:0.20593674 33:0.28337888 34:0.016044467 35:0.25941218 36:0.46153846 37:0.2 38:0.30769231 40:0.17800633 41:0.2195122 42:0.21428571 44:0.28571429 45:0.125 47:0.5 48:0.16666667 50:0.25 51:0.125 53:0.16666667 59:0.33333333 
4 0:0.71256831 1:0.65256506 2:0.96666667 4:0.13168724 5:0.64918033 6:0.67924528 7:0.3373494 8:0.52222222 9:0.5722397 10:0.59876657 11:0.14764401 12:0.278125 13:0.087618342 14:0.083850932 15:0.21451469 16:0.13333333 18:0.28571429 20:0.28752856 21:0.46432016 22:0.6897481 23:0.20812623 24:0.31299043 25:0.37293184 26:0.52714421 27:0.4784892 28:0.70522467 29:0.60249681 30:0.54191882 31:0.37394676 32:0.17614316 33:0.3450212 34:0.009275934 35:0.21766067 36:0.15384615 38:0.30769231 40:0.12170958 41:0.12195122 42:0.14285714 44:0.14285714 46:0.16666667 47:0.25 51:0.125 55:0.16666667 56:0.33333333 57:0.125 59:0.22222222 61:0.25 
-4 0:0.68087432 1:0.60363735 2:0.92222222 4:0.23045267 5:0.5442623 6:0.97169811 7:0.36546185 8:0.46666667 9:0.46507272 10:0.26689835 11:0.44014173 12:0.34375 13:0.15584878 14:0.15217391 15:0.17661384 16:0.2 18:0.35714286 19:0.5 20:0.22034816 21:0.35878503 22:1 23:0.20812623 24:0.012072587 25:0.27330082 26:0.70812289 27:0.51174318 28:0.57294902 29:0.43230514 30:0.44937885 31:0.17796326 32:0.17403858 33:0.10313568 34:0.013081472 35:0.039434987 36:0.076923077 38:0.30769231 39:0.33333333 40:0.15535098 41:0.12195122 43:0.25 44:0.14285714 47:0.125 49:0.4 51:0.125 55:0.33333333 56:0.33333333 57:0.125 58:0.16666667 59:0.11111111 61:0.25 
4 0:0.55956284 1:0.50209517 2:0.92222222 3:0.068965517 4:0.36213992 5:0.63278689 6:0.86792453 7:0.34538153 8:0.17777778 9:0.710303 10:0.34472057 11:0.5699069 12:0.55625 13:0.13297637 14:0.0031055901 15:0.45544442 16:0.46666667 17:0.11111111 18:0.5 19:0.16666667 20:0.4657763 21:0.35063981 22:1 23:0.14447719 24:0.39288323 25:0.49768943 26:1 27:0.38929926 28:0.34343386 29:0.78948158 30:0.25956157 31:0.84577873 32:0.41786661 33:0.22293014 34:0.00081675828 35:0.63584129 36:0.53846154 37:0.6 38:0.46153846 39:0.16666667 40:0.50377589 41:0.46341463 42:0.14285714 43:0.25 45:0.5 47:0.25 48:0.33333333 50:0.5 51:0.75 52:0.33333333 53:0.33333333 54:0.14285714 57:0.25 58:0.33333333 
4 0:0.69726776 1:0.60840542 2:0.11111111 4:0.34979424 5:0.81639344 6:1 7:0.20481928 8:0.11111111 9:0.55961189 10:0.24985029 11:0.44833147 12:0.403125 13:0.072367988 14:0.02173913 15:0.35532322 16:0.4 17:0.11111111 18:0.57142857 19:0.83333333 20:0.41485283 21:0.36900209 22:0.35175423 23:0.20812623 24:0.25656654 25:0.42542816 26:0.69802481 27:0.43707255 28:0.52977037 29:0.40354227 30:0.49295354 31:0.20721947 32:0.36160406 33:0.052622576 34:0.024272115 35:0.18118006 36:0.46153846 37:0.4 38:0.61538462 39:0.83333333 40:0.44102417 41:0.36585366 42:0.14285714 44:0.28571429 46:0.16666667 47:0.25 49:0.8 51:0.125 53:0.33333333 54:0.42857143 56:1 58:0.16666667 59:0.22222222 
-4 0:0.72568306 1:0.62254521 2:0.45555556 3:0.068965517 4:0.64403292 5:0.7442623 6:0.90566038 7:0.34939759 8:0.22222222 9:0.7981567 10:0.30358993 11:0.72460325 12:0.334375 13:0.15179754 14:0.0062111801 15:0.69331581 16:0.6 17:0.33333333 18:0.78571429 19:0.5 20:0.8202211 21:0.57503012 22:0.33447888 23:0.14447719 24:0.25690923 25:0.55879878 26:0.69802481 27:0.68141547 28:0.68168206 29:0.70979683 30:0.47085516 31:0.56024792 32:0.30458404 33:0.053707599 34:0.018510253 35:0.62686723 36:0.30769231 38:0.84615385 39:0.5 40:0.63028625 41:0.51219512 42:0.14285714 44:0.28571429 45:0.125 46:0.16666667 47:0.125 49:0.2 50:0.25 51:0.625 53:0.5 54:0.28571429 55:0.5 57:0.25 58:0.16666667 59:0.44444444 
-3.042593765158374 0:0.6010929 1:0.4804745 2:0.45555556 4:0.218107 5:0.41311475 6:0.58490566 7:0.48192771 8:0.22222222 9:0.47863818 10:0.49492456 11:0.46369708 12:0.3375 13:0.31252658 14:0.27639752 15:0.22042749 16:0.26666667 17:0.22222222 18:0.21428571 20:0.25307546 21:0.41019704 22:0.33447888 23:0.20812623 24:0.15456861 25:0.21968906 26:0.43413609 27:0.62484802 28:0.70522467 29:0.44114473 30:0.57556698 31:0.34707267 32:0.1834555 33:0.2586316 34:0.043007707 35:0.19368741 36:0.15384615 38:0.23076923 40:0.11861694 41:0.12195122 42:0.14285714 44:0.14285714 45:0.25 46:0.16666667 47:0.125 51:0.125 53:0.16666667 56:0.33333333 57:0.125 58:0.16666667 59:0.11111111 
4 0:0.53442623 1:0.34044002 2:0.35555556 4:0.17283951 5:0.4852459 6:0.81132075 7:0.26907631 8:0.11111111 9:0.31595258 10:0.21963478 11:0.23327737 12:0.090625 13:0.27833439 14:0.096273292 15:0.10900173 16:0.26666667 17:0.33333333 18:0.21428571 19:0.16666667 20:0.22279529 21:0.43127692 22:0.51017236 23:0.20812623 25:0.45304453 26:0.60501669 27:0.62387794 28:0.54663709 29:0.39298992 30:0.50173292 31:0.16587961 32:0.14024631 33:0.18615141 34:0.16787324 35:0.09378511 36:0.076923077 37:0.2 38:0.23076923 39:0.16666667 40:0.102938 41:0.073170732 44:0.28571429 46:0.33333333 53:0.16666667 55:0.16666667 56:0.33333333 57:0.125 59:0.11111111 61:0.5 
1.620220132558446 0:0.64262295 1:0.54953568 2:0.11111111 3:0.068965517 4:0.24897119 5:0.49836066 6:0.50943396 7:0.56626506 8:0.48888889 9:0.63582025 10:0.42430843 11:0.39936738 12:0.5125 13:0.39272971 14:0.16459627 15:0.28480002 16:0.2 18:0.28571429 20:0.32499015 21:0.45142241 22:0.45588001 23:0.14447719 24:0.1774683 25:0.34075407 26:0.47039571 27:0.58939458 28:0.54967191 29:0.68982385 30:0.48094614 31:0.51099537 32:0.56945192 33:0.3606239 34:0.36893048 35:0.32561677 36:0.076923077 38:0.30769231 40:0.19553726 41:0.17073171 42:0.071428571 44:0.28571429 46:0.16666667 49:0.2 50:0.25 51:0.25 53:0.16666667 57:0.375 58:0.5 
4 0:0.76502732 1:0.70507799 2:0.41111111 3:0.068965517 4:0.14403292 5:0.57377049 6:0.93396226 7:0.6184739 8:0.46666667 9:0.73202765 10:0.37469274 11:0.59920653 12:0.46875 13:0.38475676 14:0.037267081 15:0.25835098 16:0.13333333 18:0.5 19:0.33333333 20:0.43176049 21:0.55855407 22:0.37050625 23:0.14447719 24:0.15445127 25:0.53370082 26:0.90699188 27:0.69090497 28:0.51080553 29:0.73031608 30:0.47340927 31:0.56307665 32:0.40174077 33:0.40993898 34:0.023517332 35:0.28383322 36:0.15384615 37:0.2 38:0.46153846 39:0.33333333 40:0.23396145 41:0.19512195 43:0.25 44:0.14285714 46:0.33333333 47:0.125 49:0.4 50:0.25 51:0.25 53:0.16666667 57:0.375 58:0.16666667 61:0.25 
-4 0:0.72131148 1:0.62232112 2:0.81111111 4:0.52880658 5:0.73114754 6:0.97169811 7:0.47791165 8:0.22222222 9:0.76880894 10:0.18480865 11:0.68947903 12:0.325 13:0.34852177 14:0.0031055901 15:0.60303796 16:0.4 17:0.22222222 18:0.64285714 19:0.33333333 20:0.6131882 21:0.46213769 22:0.90444266 23:0.20812623 24:0.27994592 25:0.63665588 26:0.90699188 27:0.502577 28:0.49810478 29:0.61814372 30:0.43870506 31:0.630725 32:0.28526535 33:0.21299175 34:0.00048061064 35:0.38039226 36:0.38461538 38:0.69230769 39:0.33333333 40:0.53747123 41:0.46341463 42:0.21428571 44:0.28571429 45:0.25 46:0.33333333 47:0.25 48:0.16666667 49:0.6 51:0.25 53:0.33333333 54:0.28571429 56:0.33333333 57:0.125 58:0.16666667 59:0.22222222 61:0.25 
0.1385208304310147 0:0.53114754 1:0.43060948 3:0.95402299 4:0.57201646 5:0.49508197 6:0.5 7:0.22088353 8:0.11111111 9:0.46234717 10:0.33032406 11:0.43273053 12:0.68125 13:0.12771859 14:0.093167702 15:0.53645662 16:0.46666667 17:0.22222222 18:0.35714286 20:0.48871291 21:0.55944893 22:0.20812623 23:1 24:0.18449672 25:0.40853459 26:0.47676032 27:0.61832871 28:0.64829989 29:0.47099361 30:0.59547873 31:0.34239088 32:0.58407533 33:0.12640669 34:0.063218754 35:0.34191169 36:0.076923077 38:0.46153846 39:0.16666667 40:0.32154416 41:0.24390244 42:0.071428571 44:0.14285714 45:0.625 49:0.4 51:0.375 54:0.14285714 56:0.66666667 57:0.125 60:0.33333333 61:0.25 
4 0:0.79672131 1:0.73523602 2:0.92222222 3:0.068965517 4:0.12345679 5:0.5442623 6:0.94339623 7:0.56626506 8:0.43333333 9:0.56347454 10:0.57429094 11:0.23729436 12:0.33125 13:0.10417766 14:0.027950311 15:0.15289467 16:0.13333333 18:0.42857143 19:0.33333333 20:0.43461493 21:0.52824857 22:1 23:0.14447719 24:0.079098239 25:0.36583317 26:0.60501669 27:0.56418646 28:0.70517619 29:0.57007832 30:0.47979343 31:0.40428327 32:0.47103006 33:0.23107393 34:0.0057397022 35:0.19629713 36:0.076923077 38:0.46153846 39:0.33333333 40:0.27684479 41:0.2195122 42:0.21428571 44:0.14285714 46:0.33333333 50:0.25 51:0.125 53:0.16666667 54:0.14285714 57:0.25 58:0.33333333 59:0.33333333 
4 0:0.58360656 1:0.46263878 2:1 3:0.068965517 4:0.3127572 5:0.40983607 6:0.53773585 7:0.33333333 8:0.17777778 9:0.55057737 10:0.27923597 11:0.50772875 12:0.26875 13:0.51626429 14:0.043478261 15:0.30269701 16:0.33333333 17:0.22222222 18:0.28571429 20:0.31553138 21:0.47093587 22:0.70012295 23:0.14447719 24:0.19077079 25:0.39782427 26:0.47676032 27:0.67967378 28:0.49617465 29:0.66514921 30:0.50703613 31:0.59366708 32:0.3922305 33:0.38495196 34:0.049193787 35:0.2438845 36:0.15384615 38:0.38461538 39:0.16666667 40:0.18582782 41:0.14634146 44:0.14285714 45:0.25 47:0.125 49:0.4 50:0.25 51:0.25 53:0.16666667 55:0.16666667 57:0.125 58:0.16666667 60:0.33333333 
-1.366611479351177 0:0.75628415 1:0.69411144 2:0.35555556 3:0.068965517 5:0.77377049 6:0.94339623 7:0.58232932 8:0.52222222 9:0.70710863 10:0.63077576 11:0.28445373 12:0.178125 13:0.099386559 14:7.7478082e-17 15:0.13768223 16:0.066666667 18:0.35714286 19:0.33333333 20:0.27411434 21:0.35733868 22:0.51017236 23:0.14447719 24:0.22206776 25:0.31677782 26:0.39604962 27:0.60823015 28:0.46762688 29:0.43846102 30:0.53287323 31:0.30690207 32:0.22214264 33:0.13713473 34:0.089313549 35:0.15700487 36:0.23076923 37:0.2 38:0.38461538 39:0.33333333 40:0.2311565 41:0.19512195 42:0.071428571 45:0.125 47:0.375 49:0.2 50:0.25 51:0.125 54:0.28571429 58:0.33333333 59:0.33333333 61:0.25 
-4 0:0.61202186 1:0.52687147 2:0.96666667 4:0.1563786 5:0.68852459 6:0.97169811 7:0.20481928 8:0.11111111 9:0.51959633 10:0.24985029 11:0.46326813 12:0.190625 13:0.19171216 14:5.6071021e-16 15:0.2027797 16:0.33333333 17:0.11111111 18:0.35714286 19:0.33333333 20:0.37547538 21:0.38638404 22:0.6897481 23:0.20812623 24:0.11945737 25:0.42378721 26:1 27:0.43707255 28:0.52977037 29:0.56679585 30:0.44677825 31:0.49761653 32:0.33211851 33:0.10920196 34:0.037953126 35:0.22330801 36:0.30769231 37:0.4 38:0.38461538 39:0.33333333 40:0.35657005 41:0.29268293 42:0.14285714 44:0.28571429 47:0.125 49:0.2 51:0.375 52:0.33333333 53:0.16666667 54:0.42857143 56:1 58:0.33333333 59:0.11111111 
4 0:0.68196721 1:0.60089572 2:0.11111111 3:0.068965517 4:0.25514403 5:0.61639344 6:0.90566038 7:0.54216867 8:0.52222222 9:0.74004474 10:0.47537466 11:0.53928554 12:0.41875 13:0.36119129 14:0.093167702 15:0.24950443 16:0.26666667 18:0.42857143 19:0.33333333 20:0.36858036 21:0.47791261 22:0.35175423 23:0.14447719 24:0.34895911 25:0.54660404 26:0.69802481 27:0.58437965 28:0.51080553 29:0.49859329 30:0.67157745 31:0.21600431 32:0.20641998 33:0.032136687 34:0.012042536 35:0.19511994 36:0.30769231 38:0.46153846 39:0.5 40:0.23536392 41:0.19512195 42:0.071428571 43:0.25 44:0.14285714 46:0.33333333 47:0.125 50:0.25 51:0.125 53:0.5 57:0.125 58:0.16666667 59:0.22222222 60:0.33333333 
4 0:0.58142077 1:0.45010558 2:0.92222222 3:0.068965517 4:0.21399177 5:0.56721311 6:0.86792453 7:0.25301205 8:0.17777778 9:0.54632073 10:0.26383188 11:0.44963694 12:0.240625 13:0.47236003 14:0.090062112 15:0.19727467 16:0.26666667 17:0.11111111 18:0.28571429 19:0.16666667 20:0.34496815 21:0.55455323 22:1 23:0.14447719 24:0.078739112 25:0.59233869 26:1 27:0.41933846 28:0.46762688 29:0.76115152 30:0.20968505 31:0.77086495 32:0.21198191 33:0.69383311 34:0.024230576 35:0.30111344 36:0.15384615 37:0.2 38:0.38461538 39:0.16666667 40:0.16333429 41:0.12195122 44:0.28571429 46:0.16666667 47:0.125 50:0.5 51:0.375 54:0.14285714 55:0.16666667 57:0.125 60:0.33333333 
4 0:0.67103825 1:0.58521354 2:0.45555556 3:0.068965517 4:0.1872428 5:0.55081967 6:1 7:0.30522088 8:0.17777778 9:0.79774524 10:0.36105429 11:0.61194154 12:0.221875 13:0.33021182 14:0.0031055901 15:0.31960853 16:0.33333333 17:0.22222222 18:0.5 19:0.5 20:0.3251517 21:0.26501232 22:0.33447888 23:0.14447719 24:0.25665151 25:0.51013177 26:0.90699188 27:0.41035491 28:0.32656715 29:0.61586068 30:0.25595213 31:0.54620778 32:0.37416201 33:0.10403196 34:0.082943122 35:0.32086701 36:0.46153846 37:0.4 38:0.53846154 39:0.5 40:0.47027834 41:0.41463415 42:0.21428571 44:0.14285714 45:0.125 46:0.33333333 47:0.25 48:0.33333333 49:0.4 50:0.5 51:0.125 52:0.33333333 53:0.16666667 54:0.28571429 55:0.16666667 57:0.125 58:0.16666667 59:0.22222222 
4 0:0.78251366 1:0.64813024 2:0.45555556 3:0.068965517 4:0.2654321 5:0.76393443 6:0.97169811 7:0.24497992 8:0.22222222 9:0.82184136 10:0.22606095 11:0.62586924 12:0.753125 13:0.024213008 14:3.0777407e-17 15:0.53949231 16:0.4 17:0.11111111 18:0.64285714 19:0.33333333 20:0.47998826 21:0.27537284 22:0.33447888 23:0.14447719 24:0.38291385 25:0.39675081 26:0.56703871 27:0.47171454 28:0.50280206 29:0.5596379 30:0.33395883 31:0.53389371 32:0.31236788 33:0.064903169 34:0.008427121 35:0.29623297 36:0.69230769 37:0.4 38:0.69230769 39:0.33333333 40:0.67859968 41:0.65853659 42:0.28571429 44:0.28571429 47:0.75 49:0.6 50:0.5 51:0.125 52:0.33333333 53:0.33333333 54:0.42857143 55:0.16666667 57:0.25 58:0.33333333 59:0.55555556 61:0.25 
-4 0:0.77814208 1:0.72152783 2:0.92222222 4:0.24279835 5:0.71147541 6:0.93396226 7:0.58232932 8:0.22222222 9:0.76396381 10:0.52798505 11:0.41181272 12:0.4625 13:0.26705141 14:0.031055901 15:0.24104301 16:0.26666667 17:0.11111111 18:0.57142857 19:0.83333333 20:0.68404888 21:0.88056831 22:1 23:0.20812623 24:0.068132171 25:0.77376436 26:1 27:0.71337864 28:0.67000101 29:0.6951667 30:0.63383797 31:0.31428415 32:0.39889116 33:0.16693652 34:0.047159064 35:0.26136406 36:0.15384615 37:0.2 38:0.61538462 39:0.83333333 40:0.27211594 41:0.19512195 44:0.28571429 45:0.125 47:0.125 49:0.2 51:0.75 53:0.16666667 54:0.14285714 56:0.33333333 57:0.125 59:0.11111111 
4 0:0.40327869 1:0.32999569 2:0.96666667 4:0.29835391 5:0.36065574 6:0.47169811 7:0.14859438 8:0.17777778 9:0.34014595 10:0.16133442 11:0.4434843 12:0.471875 13:0.072489916 14:0.0031055901 15:0.36550638 16:0.53333333 17:0.44444444 18:0.28571429 20:0.22672127 21:0.22261405 22:0.6897481 23:0.20812623 24:0.34222134 25:0.18408716 26:0.43023156 27:0.42608093 28:0.48449359 29:0.34274945 30:0.39789094 31:0.33590216 32:0.31897692 33:0.19115061 34:0.002828279 35:0.37248937 36:0.38461538 37:0.2 38:0.30769231 40:0.33026467 41:0.31707317 44:0.71428571 46:0.16666667 47:0.25 48:0.16666667 50:0.25 51:0.125 52:0.33333333 53:0.16666667 55:0.16666667 56:0.33333333 57:0.125 58:0.16666667 59:0.22222222 61:0.5 
4 0:0.75081967 1:0.69429421 2:0.42222222 3:0.068965517 4:0.37037037 5:0.60327869 6:0.93396226 7:0.67068273 8:0.22222222 9:0.77755168 10:0.43162051 11:0.61857811 12:0.3625 13:0.58316053 14:0.02484472 15:0.2939524 16:0.26666667 17:0.11111111 18:0.35714286 19:0.33333333 20:0.36527072 21:0.50626301 22:0.41851162 23:0.14447719 24:0.10408824 25:0.46254623 26:0.70812289 27:0.60071039 28:0.64308118 29:0.72908067 30:0.56881219 31:0.56985024 32:0.35732528 33:0.50628219 34:0.23880825 35:0.18587751 36:0.076923077 38:0.30769231 39:0.16666667 40:0.20465334 41:0.17073171 42:0.28571429 43:0.25 44:0.14285714 45:0.25 49:0.4 50:0.25 51:0.25 53:0.16666667 58:0.16666667 
-2.063730069311722 0:0.6273224 1:0.52906478 2:0.11111111 4:0.33950617 5:0.64590164 6:0.59433962 7:0.47389558 8:0.32222222 9:0.70828562 10:0.45678244 11:0.52678265 12:0.55625 13:0.28012178 14:0.36956522 15:0.38513644 16:0.26666667 18:0.35714286 20:0.40023503 21:0.5538657 22:0.36371828 23:0.20812623 24:0.11947899 25:0.46427078 26:0.52323968 27:0.72630237 28:0.56670867 29:0.57567883 30:0.59451177 31:0.45357829 32:0.45983853 33:0.22632897 34:0.31688524 35:0.35617095 36:0.076923077 38:0.38461538 40:0.24744678 41:0.17073171 42:0.071428571 44:0.14285714 46:0.5 49:0.2 51:0.125 52:0.33333333 54:0.28571429 55:0.33333333 56:0.66666667 61:0.25 
4 0:0.67213115 1:0.58718752 2:0.066666667 3:0.068965517 4:0.40740741 5:0.63278689 6:0.90566038 7:0.437751 8:0.38888889 9:0.64019162 10:0.60229785 11:0.34861377 12:0.45 13:0.05637387 14:0.15838509 15:0.38085475 16:0.33333333 18:0.5 19:0.5 20:0.40476449 21:0.41629112 22:0.14447719 23:0.14447719 24:0.35808395 25:0.44639066 26:0.90699188 27:0.56312136 28:0.50456518 29:0.5246025 30:0.46403989 31:0.39502939 32:0.60999056 33:0.20281548 34:0.0096854904 35:0.35466864 36:0.38461538 37:0.2 38:0.53846154 39:0.5 40:0.32505035 41:0.29268293 42:0.071428571 44:0.42857143 46:0.33333333 47:0.375 49:0.2 50:0.75 51:0.25 54:0.28571429 57:0.125 59:0.22222222 
4 0:0.53770492 1:0.36602865 2:0.11111111 3:0.068965517 4:0.14403292 5:0.74754098 6:0.83962264 7:0.29317269 8:0.17777778 9:0.47393514 10:0.20170699 11:0.45907714 12:0.203125 13:0.48897782 14:0.02173913 15:0.10682691 16:0.4 17:0.55555556 18:0.28571429 19:0.33333333 20:0.20981162 21:0.37199675 22:0.45588001 23:0.14447719 24:0.036217761 25:0.52138124 26:0.61511477 27:0.63503635 28:0.48449359 29:0.50731446 30:0.48447041 31:0.35038487 32:0.12118106 33:0.25073789 34:0.06989939 35:0.12115028 36:0.15384615 37:0.2 38:0.30769231 39:0.33333333 40:0.12681602 41:0.097560976 44:0.42857143 45:0.125 46:0.33333333 49:0.2 50:0.5 53:0.16666667 57:0.125 59:0.11111111 
4 0:0.80983607 1:0.67149292 2:0.81111111 3:0.068965517 4:0.38271605 5:0.7704918 6:0.90566038 7:0.37751004 8:0.22222222 9:0.68464086 10:0.47537466 11:0.53935515 12:0.353125 13:0.1272766 14:0.01863354 15:0.54012664 16:0.46666667 17:0.22222222 18:0.71428571 19:0.5 20:0.78825211 21:0.49931891 22:0.90444266 23:0.14447719 24:0.47506799 25:0.67597819 26:0.90699188 27:0.46305177 28:0.50202144 29:0.69115788 30:0.42651094 31:0.46144198 32:0.44402874 33:0.038751836 34:0.0018407386 35:0.58503163 36:0.30769231 38:0.69230769 39:0.33333333 40:0.63330696 41:0.58536585 42:0.5 43:0.25 44:0.14285714 45:0.375 46:0.33333333 47:0.25 48:0.16666667 49:0.4 50:0.25 51:0.5 53:0.16666667 55:0.33333333 57:0.25 58:0.16666667 59:0.11111111 61:0.25 
4 0:0.88306011 1:0.69027314 2:1 3:0.068965517 4:0.53909465 5:0.84918033 6:1 7:0.45783133 8:0.17777778 9:0.86303391 10:0.15723851 11:0.78614881 12:0.509375 13:0.074397267 14:0.01863354 15:0.61254149 16:0.53333333 17:0.22222222 18:0.85714286 19:0.83333333 20:0.9390584 21:0.47346265 22:0.70012295 23:0.14447719 24:0.72261663 25:0.48253637 26:1 27:0.4305972 28:0.46762688 29:0.89821584 30:0.27810163 31:0.85384737 32:0.47830488 33:0.16479236 34:0.00021628657 35:0.89131886 36:0.69230769 37:0.6 38:0.92307692 39:0.83333333 40:0.81330912 41:0.7804878 42:0.5 44:0.14285714 45:0.125 47:0.75 49:0.6 50:1 51:1 54:0.14285714 55:0.5 57:0.375 58:0.33333333 59:0.11111111 
-4 0:0.67431694 1:0.59129998 2:0.11111111 4:0.19753086 5:0.84590164 6:0.97169811 7:0.3373494 8:0.11111111 9:0.70089198 10:0.58660052 11:0.45973076 12:0.25 13:0.30332197 14:0.037267081 15:0.17166385 16:0.33333333 17:0.22222222 18:0.28571429 19:0.33333333 20:0.26925239 21:0.35113301 22:0.45588001 23:0.20812623 24:0.036341138 25:0.32296605 26:0.4061477 27:0.51711564 28:0.65468427 29:0.40664564 30:0.58035923 31:0.14426496 32:0.15237048 33:0.014380767 34:0.0058865383 35:0.025200004 36:0.076923077 38:0.30769231 39:0.33333333 40:0.20210012 41:0.19512195 42:0.28571429 44:0.42857143 45:0.125 49:0.2 53:0.16666667 56:0.33333333 57:0.25 59:0.33333333 
4 0:0.78032787 1:0.68088005 2:0.96666667 3:0.068965517 4:0.41358025 5:0.82622951 6:0.93396226 7:0.34939759 8:0.17777778 9:0.74447842 10:0.45719735 11:0.33764254 12:0.4375 13:0.022605372 14:0.02484472 15:0.44792316 16:0.46666667 17:0.44444444 18:0.71428571 19:0.66666667 20:0.74432993 21:0.66154878 22:0.6897481 23:0.14447719 24:0.1144132 25:0.6347943 26:1 27:0.64811699 28:0.48449359 29:0.599189 30:0.56999996 31:0.47804997 32:0.36808449 33:0.081662274 34:0.043619499 35:0.37838385 36:0.15384615 37:0.4 38:0.76923077 39:0.66666667 40:0.46972094 41:0.36585366 42:0.071428571 44:0.14285714 45:0.375 47:0.125 49:0.4 50:0.25 51:0.625 53:0.16666667 54:0.14285714 55:0.33333333 57:0.25 59:0.33333333 
4 0:0.71147541 1:0.64165475 2:0.066666667 4:0.19341564 5:0.76065574 6:0.94339623 7:0.45381526 8:0.45555556 9:0.82407567 10:0.48315156 11:0.42431165 12:0.796875 13:0.23254885 14:0.46583851 15:0.30904025 16:0.13333333 18:0.35714286 19:0.33333333 20:0.1551188 21:0.22014848 22:0.14447719 23:0.20812623 24:0.37063706 25:0.28133574 26:0.47676032 27:0.38280166 28:0.52977037 29:0.62829304 30:0.26585803 31:0.51793571 32:0.70915361 33:0.26898153 34:0.50021375 35:0.32070119 36:0.38461538 37:0.2 38:0.38461538 39:0.33333333 40:0.189334 41:0.17073171 42:0.071428571 45:0.125 47:0.375 48:0.16666667 49:0.2 50:0.25 51:0.125 54:0.14285714 56:0.33333333 58:0.16666667 59:0.33333333 
-4 0:0.53770492 1:0.38261908 2:0.11111111 3:0.068965517 4:0.19341564 5:0.47213115 6:0.68867925 7:0.45381526 8:0.22222222 9:0.52444146 10:0.33805106 11:0.4340688 12:0.128125 13:0.42775775 14:2.4690081e-16 15:0.17802975 16:0.33333333 17:0.11111111 18:0.14285714 20:0.24760135 21:0.40159764 22:0.45588001 23:0.14447719 24:0.15309076 25:0.57460941 26:0.69044021 27:0.60020585 28:0.46762688 29:0.46198692 30:0.56673767 31:0.24627542 32:0.16311879 33:0.19133414 34:0.066005134 35:0.14956139 36:0.23076923 37:0.2 38:0.23076923 39:0.16666667 40:0.11609968 41:0.12195122 42:0.071428571 44:0.28571429 45:0.125 47:0.25 50:0.25 51:0.25 52:0.33333333 53:0.16666667 55:0.16666667 60:0.33333333 
-4 0:0.5989071 1:0.4845719 2:0.96666667 3:0.068965517 4:0.11522634 5:0.40327869 6:0.90566038 7:0.34939759 8:0.22222222 9:0.4418793 10:0.38192687 11:0.32334737 12:0.159375 13:0.19346007 14:0.034161491 15:0.09557899 16:0.2 17:0.11111111 18:0.21428571 19:0.16666667 20:0.26863569 21:0.40252854 22:0.6897481 23:0.14447719 24:0.13669735 25:0.24304262 26:0.69802481 27:0.47345362 28:0.63916452 29:0.46050602 30:0.53913742 31:0.29700683 32:0.23137215 33:0.13167557 34:0.025630396 35:0.086377271 36:0.076923077 38:0.30769231 39:0.33333333 40:0.19400892 41:0.14634146 42:0.071428571 44:0.14285714 45:0.125 50:0.25 51:0.125 53:0.16666667 57:0.25 58:0.16666667 59:0.22222222 60:0.33333333 61:0.5 
4 0:0.70054645 1:0.61570057 2:0.41111111 3:0.068965517 4:0.25308642 5:0.56393443 6:0.97169811 7:0.4939759 8:0.25555556 9:0.84972034 10:0.3850152 11:0.61469304 12:0.471875 13:0.32499634 14:0.01242236 15:0.3151003 16:0.2 18:0.42857143 19:0.33333333 20:0.23182815 21:0.23970601 22:0.37050625 23:0.14447719 24:0.19683165 25:0.39891999 26:0.90699188 27:0.34160716 28:0.45148104 29:0.64673369 30:0.40349076 31:0.4910355 32:0.34231011 33:0.17382955 34:0.065373074 35:0.20048636 36:0.38461538 37:0.4 38:0.38461538 39:0.33333333 40:0.27182825 41:0.29268293 42:0.14285714 43:0.25 44:0.14285714 45:0.125 46:0.16666667 47:0.375 48:0.16666667 49:0.4 50:0.25 51:0.125 53:0.16666667 54:0.14285714 57:0.375 59:0.11111111 
4 0:0.64371585 1:0.54880458 2:0.45555556 4:0.16872428 5:0.4295082 6:0.55660377 7:0.50200803 8:0.51111111 9:0.61525512 10:0.45577486 11:0.50391439 12:0.2 13:0.28419975 14:0.02484472 15:0.20733324 16:0.13333333 18:0.21428571 20:0.20184546 21:0.30510078 22:0.33447888 23:0.20812623 24:0.18377527 25:0.15769876 26:0.3872995 27:0.57128385 28:0.69007259 29:0.32958892 30:0.49372434 31:0.25089664 32:0.15916792 33:0.030134458 34:0.11805862 35:0.17856498 36:0.15384615 38:0.23076923 40:0.14472454 41:0.14634146 42:0.071428571 43:0.25 44:0.14285714 45:0.125 47:0.25 51:0.125 52:0.33333333 54:0.14285714 56:0.33333333 57:0.125 58:0.16666667 59:0.11111111 60:0.33333333 
-4 0:0.56284153 1:0.4514764 2:0.42222222 4:0.11522634 5:0.44590164 6:0.86792453 7:0.3815261 8:0.11111111 9:0.49716845 10:0.32622815 11:0.4239172 12:0.215625 13:0.24093638 14:0.046583851 15:0.13872433 16:0.2 17:0.11111111 18:0.21428571 19:0.16666667 20:0.30391075 21:0.39537004 22:0.41851162 23:0.20812623 24:0.023390817 25:0.42659995 26:1 27:0.39494997 28:0.34343386 29:0.50094368 30:0.47747284 31:0.38775247 32:0.36584565 33:0.37809449 34:0.1303034 35:0.22205219 36:0.15384615 37:0.2 38:0.23076923 39:0.16666667 40:0.25454905 41:0.19512195 42:0.14285714 45:0.25 48:0.16666667 51:0.375 53:0.16666667 54:0.14285714 56:0.33333333 58:0.5 61:0.5 
-4 0:0.50928962 1:0.45536953 2:0.7 3:0.068965517 4:0.38271605 5:0.56393443 6:0.71698113 7:0.37751004 8:0.17777778 9:0.54681197 10:0.27656256 11:0.55882349 12:0.421875 13:0.064283918 14:0.0031055901 15:0.4481497 16:0.53333333 17:0.33333333 18:0.35714286 20:0.33053204 21:0.26940741 22:0.51418391 23:0.14447719 24:0.31999723 25:0.16671388 26:0.35223324 27:0.44284412 28:0.46762688 29:0.49317972 30:0.41082375 31:0.36861052 32:0.2530502 33:0.034032682 34:0.02015537 35:0.31571447 36:0.30769231 37:0.2 38:0.46153846 40:0.45923835 41:0.41463415 42:0.21428571 43:0.25 44:0.57142857 45:0.25 47:0.25 49:0.2 50:0.75 51:0.125 54:0.14285714 58:0.5 59:0.22222222 60:0.66666667 
4 0:0.72349727 1:0.69575642 2:0.41111111 3:0.068965517 4:0.2345679 5:0.67868852 6:0.93396226 7:0.65461847 8:0.066666667 9:0.52110993 10:0.87390663 12:0.0090625 13:0.0039747416 14:0.015217391 15:0.21349524 16:0.13333333 17:0.11111111 18:0.35714286 19:0.33333333 20:0.34443979 21:0.72432 22:0.37050625 23:0.14447719 24:0.34323961 25:0.68787177 26:0.90699188 27:0.75835752 28:0.34426296 29:0.50127526 30:0.83398649 32:0.024907621 33:0.0060990626 34:0.032695988 35:0.32857163 36:0.15384615 37:0.2 38:0.38461538 39:0.33333333 40:0.094918728 41:0.048780488 46:0.16666667 49:0.2 50:0.25 51:0.375 53:0.16666667 56:0.33333333 57:0.25 
4 0:0.76830601 1:0.70919045 2:0.7 4:0.25102881 5:0.69836066 6:0.83962264 7:0.57831325 8:0.53333333 9:0.78774572 10:0.53028727 11:0.63308714 12:0.55625 13:0.45508628 14:0.16149068 15:0.30787354 16:0.13333333 18:0.42857143 19:0.33333333 20:0.41081803 21:0.53182367 22:0.51418391 23:0.20812623 24:0.28622179 25:0.4294674 26:0.61511477 27:0.65149826 28:0.73325123 29:0.58407247 30:0.53652335 31:0.4760953 32:0.33953315 33:0.44298244 34:0.13895031 35:0.32604676 36:0.15384615 38:0.38461538 39:0.16666667 40:0.22177071 41:0.19512195 42:0.14285714 43:0.25 44:0.28571429 46:0.16666667 47:0.25 49:0.2 51:0.25 54:0.14285714 56:0.33333333 58:0.16666667 59:0.11111111 61:0.25 
4 0:0.60437158 1:0.52487755 2:0.45555556 3:0.068965517 4:0.44650206 5:0.60327869 6:0.97169811 7:0.46184739 8:0.22222222 9:0.60402124 10:0.19101334 11:0.64469601 12:0.39375 13:0.22576827 14:0.01552795 15:0.40988639 16:0.46666667 17:0.22222222 18:0.42857143 19:0.33333333 20:0.41870907 21:0.39003331 22:0.33447888 23:0.14447719 24:0.15260598 25:0.52203984 26:0.69802481 27:0.58948734 28:0.64308118 29:0.50460454 30:0.43820573 31:0.45327398 32:0.3035131 33:0.26886508 34:0.00076225368 35:0.27439477 36:0.38461538 37:0.4 38:0.46153846 39:0.33333333 40:0.37023518 41:0.34146341 42:0.14285714 45:0.375 46:0.16666667 47:0.375 49:0.2 50:0.25 51:0.25 53:0.33333333 54:0.14285714 55:0.33333333 58:0.33333333 59:0.22222222 
4 0:0.65355191 1:0.56917104 2:0.11111111 3:0.068965517 4:0.41152263 5:0.64918033 6:0.90566038 7:0.38955823 8:0.17777778 9:0.66277906 10:0.26052208 11:0.61897066 12:0.51875 13:0.44880796 14:0.13354037 15:0.37811357 16:0.4 17:0.11111111 18:0.35714286 19:0.16666667 20:0.35216408 21:0.34460405 22:0.35175423 23:0.14447719 24:0.041385305 25:0.38723455 26:0.69802481 27:0.39703923 28:0.35511491 29:0.49264512 30:0.39267014 31:0.49540806 32:0.3403166 33:0.2401197 34:0.0042493754 35:0.26185009 36:0.15384615 38:0.38461538 39:0.16666667 40:0.35115794 41:0.31707317 42:0.35714286 44:0.14285714 45:0.25 48:0.16666667 50:0.25 51:0.25 53:0.16666667 55:0.33333333 57:0.25 58:0.16666667 59:0.33333333 
4 0:0.71584699 1:0.65762655 2:0.7 3:0.068965517 4:0.25308642 5:0.60327869 6:0.81132075 7:0.6746988 8:0.52222222 9:0.59617625 10:0.64612994 11:0.26487579 12:0.25 13:0.15400851 14:0.14906832 15:0.21116183 16:0.2 18:0.28571429 19:0.16666667 20:0.35669803 21:0.57297995 22:0.51418391 23:0.14447719 24:0.096440334 25:0.5192271 26:0.60501669 27:0.67905017 28:0.46762688 29:0.63071403 30:0.4998357 31:0.43172688 32:0.20211939 33:0.31455907 34:0.1788147 35:0.22219081 36:0.15384615 37:0.4 38:0.30769231 39:0.16666667 40:0.13612989 41:0.12195122 42:0.14285714 44:0.14285714 45:0.125 46:0.16666667 47:0.125 50:0.25 51:0.25 52:0.33333333 53:0.16666667 57:0.125 59:0.11111111 
-4 0:0.59672131 1:0.53642298 2:0.14444444 3:0.068965517 4:0.281893 5:0.52786885 6:0.90566038 7:0.36546185 8:0.38888889 9:0.65423084 10:0.3707684 11:0.62653716 12:0.475 13:0.032967477 14:0.049689441 15:0.4461108 16:0.33333333 18:0.57142857 19:0.16666667 20:0.23711054 21:0.15283023 23:0.14447719 24:0.39737894 25:0.18068738 26:0.69802481 27:0.41107131 28:0.32656715 29:0.36564397 30:0.34285818 31:0.3482423 32:0.34024817 33:0.11523668 34:0.0040199027 35:0.32237872 36:0.69230769 37:0.6 38:0.46153846 39:0.16666667 40:0.55462457 41:0.56097561 42:0.071428571 43:0.5 45:0.25 46:0.16666667 47:0.75 48:0.16666667 49:0.2 50:0.5 51:0.125 53:0.16666667 54:0.28571429 55:0.16666667 57:0.25 58:0.5 59:0.33333333 61:0.5 
4 0:0.75519126 1:0.75936244 2:0.41111111 3:0.068965517 4:0.32921811 5:0.68852459 6:0.86792453 7:0.89558233 8:0.81111111 9:0.73516465 10:0.84351955 12:0.0090625 13:0.0039747416 14:0.015217391 15:0.21562475 16:0.13333333 18:0.35714286 19:0.5 20:0.47943161 21:1 22:0.37050625 23:0.14447719 24:0.1144132 25:0.90275482 26:1 27:1 28:0.86376377 29:0.73654183 30:0.87204192 32:0.024907621 33:0.0060990626 34:0.032695988 35:0.2078562 38:0.38461538 39:0.5 40:0.091844074 41:0.048780488 42:0.071428571 44:0.28571429 46:0.16666667 50:0.25 51:0.5 57:0.125 
-3.106341053694425 0:0.50054645 1:0.34357333 2:0.92222222 4:0.31069959 5:0.20655738 6:0.20754717 7:0.34538153 8:0.22222222 9:0.36308254 10:0.26854232 11:0.37239237 12:0.571875 13:0.064651259 14:0.48136646 15:0.26016334 16:0.33333333 17:0.11111111 18:0.14285714 20:0.28466083 21:0.42590461 22:1 23:0.20812623 24:0.17405131 25:0.23979915 26:0.47676032 27:0.54264573 28:0.71022983 29:0.4309086 30:0.53013346 31:0.28946237 32:0.39983015 33:0.052463926 34:0.16628589 35:0.18575058 36:0.076923077 38:0.23076923 40:0.20179445 41:0.14634146 42:0.071428571 45:0.25 51:0.25 52:0.33333333 53:0.16666667 54:0.14285714 55:0.33333333 56:0.33333333 58:0.16666667 60:0.33333333 61:0.25 
4 0:0.58469945 1:0.48494052 2:0.77777778 3:0.068965517 4:0.36419753 5:0.53442623 6:0.83962264 7:0.34538153 8:0.32222222 9:0.77123778 10:0.32201058 11:0.67940314 12:0.896875 13:0.56107639 14:0.36645963 15:0.4231732 16:0.26666667 18:0.42857143 19:0.16666667 20:0.29420682 21:0.35957731 22:0.37870362 23:0.14447719 24:0.29114862 25:0.35333092 26:0.61511477 27:0.58607879 28:0.49810478 29:0.68439316 30:0.38558015 31:0.71649741 32:0.55909739 33:0.53096725 34:0.14234101 35:0.4104138 36:0.15384615 38:0.38461538 39:0.16666667 40:0.30075877 41:0.2195122 43:0.25 44:0.14285714 45:0.125 46:0.33333333 48:0.16666667 49:0.4 50:0.25 51:0.125 54:0.14285714 55:0.16666667 56:0.33333333 57:0.125 61:0.75 
4 0:0.73989071 1:0.67354915 2:0.92222222 4:0.16460905 5:0.55081967 6:0.6509434 7:0.6626506 8:0.53333333 9:0.68748115 10:0.54066582 11:0.39513661 12:0.521875 13:0.33887326 14:0.065217391 15:0.24668396 16:0.066666667 18:0.42857143 19:0.16666667 20:0.4262303 21:0.55149547 22:1 23:0.20812623 24:0.4589373 25:0.46360573 26:0.69044021 27:0.52112917 28:0.68830947 29:0.52404602 30:0.42758779 31:0.39364974 32:0.22953617 33:0.20184037 34:0.0033374365 35:0.37879696 36:0.23076923 38:0.46153846 39:0.16666667 40:0.24174698 41:0.19512195 43:0.25 46:0.16666667 47:0.25 51:0.375 53:0.16666667 54:0.14285714 56:0.33333333 57:0.125 58:0.5 59:0.11111111 60:0.33333333 
0.7049046939986067 0:0.67868852 1:0.59319302 2:1 4:0.19341564 5:0.51147541 6:0.75471698 7:0.3935743 8:0.43333333 9:0.60872428 10:0.28619872 11:0.53249009 12:0.571875 13:0.1548816 14:0.02173913 15:0.33226102 16:0.13333333 18:0.42857143 19:0.16666667 20:0.38843739 21:0.37987895 22:0.70012295 23:0.20812623 24:0.39617001 25:0.4251442 26:0.81398376 27:0.31597578 28:0.32656715 29:0.5775233 30:0.14889276 31:0.72815807 32:0.86315286 33:0.21576407 34:0.28300231 35:0.56540648 36:0.46153846 37:0.6 38:0.46153846 39:0.16666667 40:0.33013881 41:0.31707317 42:0.071428571 44:0.28571429 46:0.33333333 47:0.5 48:0.33333333 49:0.2 51:0.375 52:0.33333333 54:0.28571429 56:0.33333333 58:0.33333333 
4 0:0.78032787 1:0.78907184 2:0.92222222 3:0.068965517 4:0.41975309 5:0.60655738 6:0.93396226 7:0.65461847 8:0.67777778 9:0.81835026 10:0.60462812 11:0.35236652 12:0.60625 13:0.41839621 14:0.60869565 15:0.33938584 16:0.13333333 18:0.42857143 19:0.33333333 20:0.49672565 21:0.93984053 22:1 23:0.14447719 24:0.058010935 25:0.53971415 26:0.70812289 27:0.80876632 28:0.82462204 29:0.73362411 30:0.69229099 31:0.25983759 32:0.20778437 33:0.28813714 34:0.24702801 35:0.28775466 38:0.46153846 39:0.33333333 40:0.15925273 41:0.073170732 44:0.28571429 49:0.4 50:0.25 51:0.5 54:0.14285714 61:0.25 
3.145447179785042 0:0.28087432 1:0.22977751 2:0.45555556 3:0.068965517 4:0.34567901 5:0.16393443 6:0.44339623 7:0.14056225 8:0.11111111 9:0.38655026 10:0.10649357 11:0.51145812 12:0.4125 13:0.19734839 14:0.027950311 15:0.34446043 16:0.66666667 17:0.55555556 18:0.21428571 20:0.18375781 21:0.1719347 22:0.33447888 23:0.14447719 24:0.26691951 25:0.13793582 26:0.47676032 27:0.4677531 28:0.32656715 29:0.42660066 30:0.39557317 31:0.36223882 32:0.3423363 33:0.08177854 34:0.0039047061 35:0.31000905 36:0.46153846 37:0.2 38:0.23076923 40:0.32835875 41:0.34146341 42:0.071428571 44:0.28571429 45:0.75 46:0.16666667 47:0.375 48:0.16666667 50:0.25 51:0.125 53:0.16666667 54:0.14285714 56:0.33333333 58:0.16666667 59:0.11111111 61:0.25 
4 0:0.6557377 1:0.56342665 2:0.45555556 3:0.068965517 4:0.21399177 5:0.51803279 6:0.77358491 7:0.5060241 8:0.52222222 9:0.64927097 10:0.50571184 11:0.33236656 12:0.55 13:0.28372765 14:0.41925466 15:0.18855272 16:0.13333333 18:0.28571429 19:0.16666667 20:0.31249902 21:0.5467534 22:0.33447888 23:0.14447719 24:0.35962347 25:0.57538112 26:0.90699188 27:0.60877341 28:0.46762688 29:0.6894531 30:0.54111813 31:0.46587526 32:0.36252779 33:0.42910218 34:0.30259426 35:0.27390527 36:0.30769231 37:0.2 38:0.30769231 39:0.16666667 40:0.082620109 41:0.097560976 44:0.14285714 46:0.33333333 47:0.375 50:0.25 51:0.25 53:0.16666667 57:0.125 61:0.25 
0.5504189473744168 0:0.60983607 1:0.51461473 2:0.41111111 4:0.25720165 5:0.57704918 6:0.48113208 7:0.14056225 8:0.11111111 9:0.64719128 10:0.22223643 11:0.43141257 12:0.98125 13:0.051268174 14:0.55900621 15:0.42187058 16:0.26666667 17:0.22222222 18:0.35714286 20:0.25002646 21:0.30650376 22:0.37050625 23:0.20812623 24:0.24562209 25:0.34539806 26:0.43402421 27:0.40082325 28:0.50202144 29:0.5465484 30:0.38556134 31:0.32713585 32:0.86213554 33:0.044227102 34:0.6364599 35:0.38017268 36:0.30769231 37:0.4 38:0.38461538 40:0.26380898 41:0.2195122 42:0.071428571 44:0.14285714 46:0.16666667 47:0.125 48:0.16666667 49:0.2 51:0.125 53:0.33333333 54:0.14285714 55:0.16666667 56:0.33333333 57:0.125 58:0.16666667 59:0.22222222 61:0.25 
4 0:0.82513661 1:0.89973435 2:0.45555556 4:0.057613169 5:0.84262295 6:1 7:0.97590361 8:0.81111111 9:0.58729635 10:0.88043261 12:0.0090625 13:0.0039747416 14:0.015217391 15:0.076322735 18:0.28571429 19:0.16666667 20:0.29560142 21:0.62458239 22:0.33447888 23:0.20812623 24:0.11947899 25:0.46088189 26:0.52714421 27:0.80046918 28:0.82858859 29:0.3565892 30:0.70366071 32:0.024907621 33:0.0060990626 34:0.032695988 35:0.18231925 36:0.076923077 38:0.30769231 39:0.16666667 40:0.070573216 41:0.048780488 42:0.21428571 46:0.16666667 47:0.125 49:0.4 51:0.125 54:0.14285714 56:0.33333333 
4 0:0.53333333 1:0.35871762 2:1 4:0.28806584 5:0.38688525 6:0.68867925 7:0.34939759 8:0.11111111 9:0.34475173 10:0.13219825 11:0.66063569 12:0.053125 13:0.56990784 14:0.059006211 15:0.20546425 16:0.4 17:0.44444444 18:0.21428571 20:0.29342246 21:0.51428832 22:0.70012295 23:0.20812623 24:0.013302484 25:0.48017697 26:0.56703871 27:0.68527657 28:0.54663709 29:0.51925108 30:0.55933105 31:0.47281683 32:0.32853691 33:0.39070231 34:0.33695564 35:0.15668488 36:0.076923077 37:0.2 38:0.23076923 40:0.13131113 41:0.097560976 44:0.28571429 45:0.375 49:0.2 51:0.25 52:0.33333333 53:0.16666667 56:0.33333333 58:0.16666667 
4 0:0.79562842 1:0.79737983 2:0.96666667 3:0.068965517 4:0.18518519 5:0.68196721 6:0.83962264 7:0.83534137 8:0.47777778 9:0.6887554 10:0.66981947 11:0.35668469 12:0.09375 13:0.090564413 14:0.090062112 15:0.22747301 16:0.066666667 18:0.35714286 19:0.16666667 20:0.2272721 21:0.40171156 22:0.6897481 23:0.14447719 24:0.086807442 25:0.39469932 26:0.61511477 27:0.68842333 28:0.50280206 29:0.40607075 30:0.61830332 31:0.21237965 32:0.20492599 33:0.061343429 34:0.22267072 35:0.17168266 36:0.076923077 38:0.38461538 39:0.16666667 40:0.15364284 41:0.097560976 42:0.071428571 44:0.14285714 46:0.16666667 48:0.16666667 49:0.4 50:0.25 52:0.33333333 57:0.125 58:0.16666667 59:0.22222222 
-4 0:0.7715847 1:0.73210272 2:0.92222222 4:0.17901235 5:0.51147541 6:0.93396226 7:0.58634538 8:0.53333333 9:0.58265068 10:0.65549473 11:0.27203511 12:0.1875 13:0.21892189 14:0.043478261 15:0.18456554 16:0.13333333 18:0.42857143 19:0.5 20:0.40735731 21:0.60488352 22:1 23:0.20812623 24:0.18449672 25:0.38538358 26:1 27:0.56612778 28:0.77166381 29:0.47166743 30:0.52912949 31:0.39232901 32:0.49130891 33:0.28336573 34:0.076602681 35:0.1672214 36:0.076923077 38:0.38461538 39:0.33333333 40:0.20233386 41:0.14634146 43:0.25 44:0.28571429 47:0.125 49:0.2 51:0.375 52:0.33333333 54:0.14285714 56:0.33333333 58:0.33333333 59:0.11111111 
4 0:0.76502732 1:0.76115697 2:0.96666667 4:0.31069959 5:0.70491803 6:0.93396226 7:0.81124498 8:0.56666667 9:0.57386804 10:0.65174197 11:0.31860125 12:0.04375 13:0.37868458 14:0.049689441 15:0.26342557 16:0.13333333 18:0.35714286 19:0.33333333 20:0.33304406 21:0.63595855 22:0.6897481 23:0.20812623 24:0.10083138 25:0.50459747 26:0.90699188 27:0.76170654 28:0.74524309 29:0.43131695 30:0.73154682 31:0.14799738 32:0.026125014 33:0.16674132 34:0.034122776 35:0.10292219 36:0.076923077 38:0.38461538 39:0.33333333 40:0.10423259 41:0.073170732 44:0.28571429 46:0.16666667 47:0.125 49:0.4 51:0.125 52:0.33333333 56:0.33333333 57:0.125 59:0.11111111 
4 0:0.56721311 1:0.52122203 2:0.42222222 3:0.068965517 4:0.60493827 5:0.51803279 6:0.58490566 7:0.30923695 8:0.22222222 9:0.68418951 10:0.32497723 11:0.41878137 12:0.490625 13:0.10060329 14:0.0031055901 15:0.70263811 16:0.46666667 17:0.11111111 18:0.64285714 20:0.45532634 21:0.27770514 22:0.41851162 23:0.14447719 24:0.48754521 25:0.30918329 26:0.43413609 27:0.33199847 28:0.34343386 29:0.58197438 30:0.33973308 31:0.35337315 32:0.46568948 33:0.021349899 34:0.071862718 35:0.41551769 36:0.46153846 37:0.2 38:0.61538462 39:0.33333333 40:0.69273231 41:0.6097561 42:0.14285714 43:0.5 44:0.42857143 46:0.33333333 47:0.125 48:0.16666667 49:0.2 50:0.25 51:0.125 53:0.66666667 54:0.42857143 57:0.375 58:0.66666667 59:0.33333333 60:0.33333333 61:0.25 
1.642763289564408 0:0.42622951 1:0.38065073 2:1 4:0.5617284 5:0.54098361 6:0.90566038 7:0.052208835 8:0.11111111 9:0.47814694 10:0.040959064 11:0.75915696 12:0.378125 13:0.064943581 14:0.01863354 15:0.4190501 16:0.8 17:0.77777778 18:0.42857143 19:0.33333333 20:0.316796 21:0.26956671 22:0.70012295 23:0.20812623 24:0.19312882 25:0.32251259 26:0.69802481 27:0.28620183 28:0.14105973 29:0.56940289 30:0.27624373 31:0.55061247 32:0.37481774 33:0.2055593 34:0.031084609 35:0.25611623 36:0.30769231 37:0.4 38:0.46153846 39:0.33333333 40:0.46619678 41:0.3902439 42:0.14285714 44:0.42857143 45:0.375 46:0.16666667 48:0.16666667 49:0.2 50:0.5 51:0.125 52:0.33333333 53:0.16666667 55:0.5 56:0.33333333 58:0.16666667 59:0.33333333 
0.4151999757339231 0:0.68087432 1:0.5995249 2:0.92222222 3:0.47126437 4:0.094650206 5:0.55737705 6:0.77358491 7:0.40562249 8:0.25555556 9:0.67993288 10:0.58265433 11:0.27040714 12:0.365625 13:0.18739792 14:0.0031055901 15:0.13743303 16:0.2 18:0.35714286 19:0.33333333 20:0.3693534 21:0.4788993 22:1 23:0.33447888 24:0.27256975 25:0.57193392 26:0.90699188 27:0.38549901 28:0.35511491 29:0.59691684 30:0.58286996 31:0.23008163 32:0.5350438 33:0.097730053 34:0.29340319 35:0.21035048 36:0.30769231 37:0.2 38:0.38461538 39:0.33333333 40:0.19109609 41:0.19512195 42:0.14285714 44:0.14285714 45:0.125 46:0.33333333 47:0.375 48:0.16666667 49:0.2 51:0.25 53:0.16666667 54:0.14285714 55:0.16666667 
-3.226287356168042 0:0.7715847 1:0.67741236 2:0.14444444 3:0.068965517 4:0.24897119 5:0.73442623 6:0.86792453 7:0.65461847 8:0.25555556 9:0.79329409 10:0.13271297 11:0.7188946 12:0.721875 13:0.27203649 14:0.2515528 15:0.48084003 16:0.13333333 18:0.57142857 19:0.16666667 20:0.53426811 21:0.49730349 23:0.14447719 24:0.25111055 25:0.56760599 26:1 27:0.53195659 28:0.34343386 29:0.8226378 30:0.17611541 31:0.75925107 32:0.85011493 33:0.38687666 34:0.43629952 35:0.61509491 36:0.23076923 37:0.2 38:0.61538462 39:0.16666667 40:0.46885788 41:0.34146341 42:0.071428571 45:0.125 48:0.33333333 49:0.6 50:0.25 51:0.625 52:0.33333333 53:0.16666667 54:0.57142857 57:0.25 61:0.25 
-1.801054896765661 0:0.68852459 1:0.62158263 2:0.92222222 3:0.068965517 4:0.30041152 5:0.66885246 6:0.86792453 7:0.60240964 8:0.17777778 9:0.81456739 10:0.11878128 11:0.72672097 12:0.01875 13:0.85867791 14:0.02484472 15:0.20311951 16:0.2 17:0.11111111 18:0.35714286 19:0.33333333 20:0.40970083 21:0.77827517 22:1 23:0.14447719 24:0.12648579 25:0.73101095 26:1 27:0.76986893 28:0.5861564 29:0.81167847 30:0.4197796 31:0.62286371 32:0.19071675 33:0.68218016 34:0.22702472 35:0.18798827 36:0.076923077 38:0.38461538 39:0.33333333 40:0.11969577 41:0.073170732 44:0.14285714 45:0.25 46:0.16666667 47:0.125 50:0.25 51:0.375 54:0.14285714 59:0.11111111 
-4 0:0.5715847 1:0.44540563 2:0.41111111 3:0.068965517 4:0.44444444 5:0.64918033 6:0.90566038 7:0.45783133 8:0.17777778 9:0.80270511 10:0.16793216 11:0.71205383 12:0.503125 13:0.56240083 14:0.28881988 15:0.32105841 16:0.4 17:0.22222222 18:0.28571429 19:0.16666667 20:0.29913373 21:0.44701641 22:0.37050625 23:0.14447719 24:0.013302484 25:0.42687741 26:0.69802481 27:0.66697138 28:0.59254078 29:0.6945944 30:0.48158718 31:0.57071395 32:0.16646867 33:0.21728932 34:0.046594639 35:0.18220755 38:0.30769231 39:0.16666667 40:0.17804229 41:0.14634146 42:0.071428571 44:0.14285714 45:0.375 50:0.25 51:0.25 55:0.33333333 57:0.25 59:0.22222222 
4 0:0.76393443 1:0.69015129 2:1 3:0.068965517 5:0.63278689 6:0.74528302 7:0.63453815 8:0.17777778 9:0.77647195 10:0.58993837 11:0.48794095 12:0.19375 13:0.10859675 14:0.0031055901 15:0.11253582 16:0.066666667 17:0.11111111 18:0.42857143 19:0.16666667 20:0.38680572 21:0.44382968 22:0.70012295 23:0.14447719 24:0.069362067 25:0.30838328 26:0.52714421 27:0.5696302 28:0.59254078 29:0.59104768 30:0.40146761 31:0.49205159 32:0.31384881 33:0.103034 34:0.020077527 35:0.24536439 36:0.076923077 38:0.38461538 40:0.31543081 41:0.24390244 42:0.21428571 43:0.25 45:0.125 46:0.33333333 47:0.125 49:0.2 50:0.25 51:0.125 54:0.71428571 59:0.11111111 61:0.25 
-4 0:0.46338798 1:0.40433213 2:0.11111111 3:0.068965517 4:0.44650206 5:0.49180328 6:0.90566038 7:0.29317269 8:0.066666667 9:0.59327365 10:0.15858924 11:0.64550241 12:0.471875 13:0.18683823 14:0.0031055901 15:0.43395671 16:0.53333333 17:0.33333333 18:0.35714286 19:0.16666667 20:0.45731689 21:0.40670644 22:0.36371828 23:0.14447719 24:0.13152996 25:0.34672382 26:0.69802481 27:0.58122149 28:0.34426296 29:0.57035806 30:0.41311529 31:0.53198367 32:0.35531811 33:0.061030031 34:0.043871185 35:0.29756628 36:0.15384615 37:0.2 38:0.38461538 39:0.16666667 40:0.44841413 41:0.36585366 44:0.42857143 45:0.375 47:0.125 50:0.25 51:0.375 52:0.33333333 54:0.14285714 55:0.16666667 56:0.33333333 58:0.66666667 59:0.22222222 61:0.5 
4 0:0.66229508 1:0.57622097 2:0.41111111 4:0.19958848 5:0.57377049 6:0.90566038 7:0.44176707 8:0.43333333 9:0.64617385 10:0.45666077 11:0.28645262 12:0.39375 13:0.29368239 14:0.096273292 15:0.2089417 16:0.13333333 18:0.21428571 19:0.16666667 20:0.23548193 21:0.30802929 22:0.37050625 23:0.20812623 24:0.10333373 25:0.36899018 26:0.69802481 27:0.47577896 28:0.68830947 29:0.45863752 30:0.51362262 31:0.28957575 32:0.31425814 33:0.21206838 34:0.12691677 35:0.093647027 36:0.15384615 38:0.23076923 39:0.16666667 40:0.18974755 41:0.19512195 42:0.14285714 44:0.28571429 47:0.25 49:0.2 51:0.125 52:0.33333333 54:0.28571429 56:0.33333333 57:0.25 59:0.11111111 61:0.25 
