svm_type epsilon_svr
kernel_type rbf
gamma 0.0625
nr_class 2
total_sv 607
rho 0.167369
SV
-8 0:0.57133347 1:0.67688237 2:0.57077476 3:0.13683988 4:0.05141 5:0.50803802 6:0.46595188 7:0.75731859 8:0.6847842 9:0.59974295 10:0.61803355 11:0.714812 12:0.3672028 13:0.4774434 14:0.011162053 15:0.27892401 16:0.31884521 17:0.6646267 18:0.62556213 19:0.69999999 20:0.068965508 22:0.72647059 23:0.39607844 24:0.56666667 25:0.91566265 26:0.21505376 27:0.3156319 28:0.76324395 29:0.36306026 30:0.74188912 31:0.099378884 32:0.44314869 33:0.72788338 34:0.2 35:0.27 36:0.33333333 37:0.1 38:0.35 39:0.33333333 40:0.1875 42:0.42857143 43:0.083333333 47:0.4 48:0.25 49:0.375 51:0.16666667 59:0.25 
-8 0:0.42236367 1:0.43062191 2:0.57077476 3:0.13683988 4:0.069705841 5:0.18096855 6:0.36380391 7:0.50397945 8:0.52250387 9:0.63744312 10:0.38939792 11:0.46334151 12:0.14413354 13:0.28938531 14:0.0059549284 15:0.27695405 16:0.10301008 17:0.48470013 18:0.38382643 19:0.69999999 20:0.068965508 21:0.10344828 22:0.10588235 23:0.39215686 24:0.041666667 25:0.6385542 26:0.21505376 27:0.16673199 28:0.5428036 29:0.34403785 30:0.51231945 31:0.037267092 32:0.38483965 33:0.22476215 34:0.28571429 35:0.30565122 36:0.46666667 37:0.4 38:0.35 39:0.41666667 40:0.375 42:0.28571429 43:0.25 48:0.25 49:0.125 51:0.16666667 53:0.16666667 56:0.11111111 57:0.11111111 59:0.25 
8 0:0.51563684 1:0.48420839 2:0.57077476 3:0.13683988 4:0.41726218 5:0.1933066 6:0.67007393 7:0.22065199 8:1 9:0.24653995 10:0.28825866 11:0.68904296 12:0.52367113 13:0.72107557 14:0.015602203 15:0.34598816 16:0.28997778 17:0.68421053 18:0.63360946 19:0.69999999 20:0.068965508 21:0.52298851 22:0.35294117 23:0.76470588 24:0.32499999 25:0.9277108 26:0.12903224 27:0.28026679 28:0.8199567 29:0.31532457 30:0.5714765 31:0.0031055797 32:0.41690963 33:0.54992707 34:0.34285714 35:0.45041943 36:0.4 37:0.2 38:0.45 39:0.41666667 40:0.1875 42:0.28571429 44:0.16666667 45:0.14285714 47:0.2 48:1 49:0.25 53:0.16666667 55:0.14285714 57:0.33333333 58:0.33333333 
0.3301654689037454 0:0.38891658 1:0.50648473 2:0.57077476 3:0.13683988 5:0.038411885 6:0.64483866 7:0.55020112 8:0.88988221 9:0.43025782 10:0.44667322 11:0.6672032 12:0.46863424 13:0.46611134 14:0.12908338 15:0.21120978 16:0.17824226 17:0.52264383 18:0.38115612 19:0.69999999 20:0.068965508 22:0.052941176 23:0.47058824 24:0.45833333 25:0.71084337 26:0.172043 27:0.17451702 28:0.50684811 29:0.37319082 30:0.48229828 31:0.031055899 32:0.24198251 33:0.20379436 34:0.14285714 35:0.20086093 36:0.26666667 37:0.1 38:0.2 39:0.25 40:0.125 43:0.16666667 44:0.33333333 48:0.25 49:0.125 51:0.16666667 52:0.11111111 53:0.16666667 56:0.11111111 59:0.25 
-3.904151126872412 0:0.48214329 1:0.63809176 2:0.57077476 3:0.13683988 4:0.13092053 5:0.19114383 6:0.60205246 7:0.72765103 8:0.6782748 9:0.65330597 10:0.5107217 11:0.873513 12:0.83606663 13:0.80411436 14:0.19807616 15:0.40564974 16:0.36214699 17:0.67197063 18:0.6477014 19:0.69999999 20:0.068965508 21:0.2413793 22:0.21764706 23:0.52549019 24:0.67916667 25:0.87951805 26:0.21505376 27:0.38654216 28:0.94028321 29:0.64830931 30:0.67899312 31:0.21118013 32:0.58600584 33:0.57078961 34:0.14285714 35:0.20743929 36:0.26666667 37:0.1 38:0.25 39:0.25 40:0.125 43:0.16666667 44:0.16666667 48:0.25 49:0.25 51:0.16666667 53:0.16666667 55:0.14285714 57:0.22222222 
-1.765680247695787 0:0.54414432 1:0.44374143 2:0.57077476 3:0.13683988 4:0.28989764 5:0.50131528 6:0.37320322 7:0.56221671 8:0.47594706 9:0.44741632 10:0.41815933 11:0.63268988 12:0.19027513 13:0.54403855 14:0.099526466 15:0.59658514 16:0.22782919 17:0.23500613 18:0.18816568 19:0.69999999 20:0.068965508 21:0.21839081 22:0.53529412 23:0.2 24:0.15 25:0.21686749 26:0.172043 27:0.2419805 28:0.53781236 29:0.13913454 30:0.61560661 31:0.034161492 32:0.4606414 33:0.36403065 34:0.45714286 35:0.59185431 36:0.66666667 37:0.4 38:0.4 39:0.25 40:0.125 42:0.28571429 43:0.41666667 47:0.2 48:0.5 49:0.25 52:0.11111111 53:0.33333333 55:0.14285714 56:0.11111111 58:1 59:0.5 
-8 0:0.73172929 1:0.56811832 2:0.57077476 3:0.20906861 4:0.069705841 5:0.25188195 6:0.66080469 7:0.33824118 8:1 9:0.34426167 10:0.25162634 11:0.59757217 12:0.079718753 13:0.51631367 14:0.018640253 15:0.23700527 16:0.33907237 17:0.77233783 18:0.70205917 19:0.69999999 21:0.10344828 22:0.19411765 23:0.74509804 24:0.57083333 25:0.9638554 26:0.21505376 27:0.33156783 28:0.81581712 29:0.1299963 30:0.6211211 31:3.9985155e-16 32:0.45189505 33:0.45081626 34:0.48571429 35:0.62697572 36:0.33333333 37:0.1 38:0.55 39:0.58333333 40:0.125 42:0.14285714 43:0.083333333 44:0.16666667 45:0.28571429 46:0.16666667 47:0.4 49:0.5 51:0.33333333 52:0.22222222 53:0.16666667 54:0.33333333 55:0.14285714 57:0.33333333 59:0.25 
1.507598316247862 0:0.6042423 1:0.56551251 2:0.57077476 3:0.13683988 4:0.25735172 5:0.16303695 6:0.44641012 7:0.60090153 8:0.6847842 9:0.63089744 10:0.47999487 11:0.66987515 12:0.040901189 13:0.60142052 14:0.011388817 15:0.34147323 16:0.30072873 17:0.76988986 18:0.73301776 19:0.69999999 20:0.068965508 21:0.21839081 22:0.26470589 23:0.57254903 24:0.60833334 25:0.91566265 26:0.45161291 27:0.36339324 28:0.96593107 29:0.080588673 30:0.72665556 31:0.0093167688 32:0.48688048 33:0.37988384 34:0.34285714 35:0.42549669 36:0.2 38:0.4 39:0.33333333 40:0.125 42:0.28571429 43:0.083333333 44:0.16666667 45:0.28571429 47:0.8 48:0.25 49:0.25 52:0.11111111 55:0.14285714 56:0.22222222 59:0.25 
-1.252098326784567 0:0.56609279 1:0.75660227 2:0.57077476 3:0.20906861 5:0.24796236 6:0.80368914 7:0.66949657 8:1 9:0.53259771 10:0.4745858 11:0.76179269 12:0.72395808 13:0.60972318 14:0.093876135 15:0.21957294 16:0.34583354 17:0.76866587 18:0.82030041 19:0.69999999 22:0.22352941 23:0.72941177 24:0.525 25:0.91566265 26:0.10752688 27:0.36425859 28:0.80445648 29:0.50063786 30:0.59366957 31:0.02484472 32:0.069970849 33:0.34983511 34:0.14285714 35:0.19509934 36:0.13333333 37:0.1 38:0.3 39:0.33333333 40:0.1875 42:0.14285714 45:0.14285714 47:0.2 49:0.5 52:0.11111111 53:0.16666667 54:0.33333333 
0.1696841373141563 0:0.5713645 1:0.35331714 2:0.57077476 3:0.20906861 5:0.50750315 6:0.3650632 7:0.353352 8:0.42794425 9:0.32414635 10:0.31017311 11:0.56231981 12:0.038156158 13:0.54412844 14:0.00042781595 15:0.39026497 16:0.13100786 17:0.50795594 18:0.48814878 19:0.69999999 22:0.74117647 23:0.61960784 24:0.22916667 25:1 26:0.10752688 27:0.21851214 28:0.85209779 29:0.12762475 30:0.7201946 31:0.018633534 32:0.59766764 33:0.34078339 34:0.77142857 35:0.84408389 36:0.66666667 37:0.2 38:0.55 39:0.5 40:0.125 42:0.71428571 43:0.25 45:0.57142857 46:0.16666667 47:1 49:0.125 50:0.66666667 51:0.33333333 52:0.22222222 54:0.33333333 55:0.28571429 56:0.22222222 57:0.22222222 59:0.25 
6.465834107906361 0:0.22293876 1:0.26063576 2:0.57077476 3:0.20906861 4:0.032545914 6:0.39217267 7:0.26224413 8:0.56815701 9:0.31544872 10:0.25881268 11:0.38453644 12:0.35300736 13:0.49950363 14:0.26207291 15:0.37821427 16:0.19965932 17:0.62545901 18:0.56483516 19:0.69999999 23:0.66274509 24:0.51666667 25:0.75903612 26:0.10752688 27:0.46081205 28:0.64314194 29:0.39620528 30:0.40351815 31:0.13043477 32:0.35568513 33:0.10090201 34:0.17142857 35:0.11969095 36:0.066666667 37:0.1 38:0.2 39:0.16666667 40:0.125 43:0.083333333 44:0.16666667 45:0.57142857 46:0.16666667 54:0.33333333 55:0.14285714 57:0.22222222 59:0.25 
0.9407313970337314 0:0.2309487 1:0.31491404 2:0.57077476 3:0.13683988 4:0.25735172 5:0.31103433 6:0.15689247 7:0.45428833 8:0.42794425 9:0.47647298 10:0.44962056 11:0.42392298 12:0.37989727 13:0.26730267 14:0.4906719 15:0.41368213 16:0.90583462 17:0.52264383 18:0.34739106 19:0.69999999 20:0.068965508 21:0.21839081 22:0.34705882 23:0.29019607 24:0.42083333 25:0.036144572 26:0.21505376 27:0.53644678 28:0.32627833 29:0.20330605 30:0.17513951 31:0.33229813 32:0.3090379 33:0.82442289 34:0.085714286 35:0.13759382 36:0.2 37:0.1 38:0.15 40:0.0625 42:0.14285714 43:0.083333333 46:0.33333333 48:0.25 49:0.25 53:0.16666667 57:0.11111111 59:0.25 
-5.603840034981013 0:0.43711794 1:0.44566466 2:0.57077476 3:0.13683988 4:0.12365274 5:0.22986693 6:0.4313019 7:0.58419957 8:0.54966293 9:0.32414635 10:0.41663392 11:0.61529932 12:0.30230806 13:0.64288703 14:0.11444006 15:0.42224946 16:0.34835378 17:0.48592412 18:0.38540434 19:0.69999999 20:0.068965508 22:0.18823529 23:0.3372549 24:0.37083333 25:0.6746988 26:0.21505376 27:0.2483485 28:0.64813319 29:0.19960137 30:0.543394 31:0.086956519 32:0.4606414 33:0.36167059 34:0.28571429 35:0.38613687 36:0.33333333 37:0.2 38:0.35 39:0.25 40:0.125 42:0.28571429 43:0.083333333 44:0.33333333 46:0.16666667 47:0.4 48:0.25 51:0.33333333 52:0.11111111 55:0.14285714 58:1 
-8 0:0.7795387 1:0.49545802 2:0.57077476 3:0.13683988 4:0.09398286 5:0.6008037 6:0.56110022 7:0.33601692 8:0.6847842 9:0.5144696 10:0.38341844 11:0.62520693 12:0.19825398 13:0.57061161 14:0.023309188 15:0.41649696 16:0.23917108 17:0.53610772 18:0.50118343 19:0.69999999 20:0.068965508 22:0.76764705 23:0.63529412 24:0.22083333 25:0.9638554 26:0.172043 27:0.20412686 28:0.74033434 29:0.091643696 30:0.63340989 31:0.009316779 32:0.50145773 33:0.45897998 34:0.68571429 35:0.82298014 36:0.73333333 37:0.3 38:0.55 39:0.5 40:0.1875 42:0.28571429 43:0.5 45:0.42857143 47:0.6 48:0.5 49:0.5 52:0.22222222 53:0.33333333 56:0.22222222 57:0.22222222 59:0.25 
-8 0:0.44095147 1:0.46951187 2:0.57077476 3:0.20906861 4:0.24139622 5:0.31586489 6:0.51433174 7:0.45448413 8:0.52250387 9:0.49532389 10:0.31198348 11:0.63047879 12:0.23258491 13:0.68148919 14:0.23528553 15:0.57936692 16:0.39229131 17:0.51774787 18:0.41816916 19:0.69999999 21:0.16091954 22:0.34705882 23:0.37254902 24:0.39999999 25:0.59036144 26:0.10752688 27:0.20946979 28:0.73183578 29:0.2665101 30:0.69842968 31:0.12422361 32:0.56851312 33:0.48904573 34:0.25714286 35:0.32706402 36:0.4 37:0.3 38:0.2 39:0.083333333 40:0.0625 42:0.28571429 43:0.16666667 44:0.16666667 47:0.2 48:0.25 49:0.25 51:0.16666667 52:0.11111111 54:0.33333333 55:0.28571429 56:0.11111111 57:0.11111111 
-4.383737265100476 0:0.45414137 1:0.59856179 2:0.57077476 3:0.13683988 4:0.069705841 6:0.6763322 7:0.54101534 8:1 9:0.31544872 10:0.45528809 11:0.83456166 12:0.53169788 13:0.79139101 14:0.46538777 15:0.50898702 16:0.57184202 17:0.7148103 18:0.72416932 19:0.69999999 20:0.068965508 21:0.10344828 23:0.55686275 24:0.69583334 25:0.83132529 26:0.58064516 27:0.54357263 28:0.78517804 29:0.23952717 30:0.48003355 31:0.3447205 32:0.42857143 33:0.29732246 34:0.14285714 35:0.19501104 38:0.3 39:0.41666667 40:0.125 45:0.14285714 46:0.16666667 48:0.25 49:0.5 55:0.14285714 56:0.11111111 59:0.5 
-8 0:0.64083225 1:0.55468074 2:0.57077476 3:0.13683988 4:0.25735172 5:0.063071973 6:0.62792302 7:0.47059851 8:0.6847842 9:0.63113419 10:0.38818465 11:0.61910895 12:0.32834101 13:0.46622636 14:0.054552915 15:0.4495716 16:0.21550611 17:0.90820074 18:0.86379774 19:0.69999999 20:0.068965508 21:0.21839081 22:0.12352941 23:0.91764707 24:0.55416666 25:1 26:0.41935484 27:0.27903559 28:0.88056644 29:0.44559344 30:0.584485 31:0.11490683 32:0.66763848 33:0.37688459 34:0.4 35:0.55962473 36:0.2 38:0.5 39:0.58333333 40:0.1875 43:0.083333333 47:0.8 48:0.25 49:0.25 51:0.33333333 52:0.22222222 55:0.28571429 56:0.22222222 57:0.33333333 
-0.59099145126547 0:0.4765505 1:0.56091892 2:0.57077476 3:0.13683988 5:0.28370645 6:0.7230298 7:0.52135375 8:1 9:0.32414635 10:0.28930375 11:0.70817182 12:0.54075758 13:0.62111042 14:0.182628 15:0.42515045 16:0.40084304 17:0.73684211 18:0.7372781 19:0.69999999 20:0.068965508 22:0.4117647 23:0.67058824 24:0.64583332 25:0.9638554 26:0.37634408 27:0.52407663 28:0.78798075 29:0.48248591 30:0.49664135 31:0.33229812 32:0.58892127 33:0.58830593 34:0.2 35:0.32275938 36:0.13333333 38:0.3 39:0.25 40:0.125 43:0.16666667 46:0.16666667 47:0.2 48:0.25 49:0.375 52:0.33333333 57:0.22222222 
0.8465344590590184 0:0.87111068 1:0.69376095 2:0.57077476 3:0.13683988 4:0.027318459 5:0.51666984 6:0.65095793 7:0.62284603 8:0.6782748 9:0.55010025 10:0.5514312 11:0.86660052 12:0.30675225 13:0.65273707 14:0.14828443 15:0.61160674 16:0.37152978 17:0.75642596 18:0.69230769 19:0.69999999 20:0.068965508 22:0.56470588 23:0.56470588 24:0.44583333 25:0.87951805 26:0.172043 27:0.35891564 28:0.85374175 29:0.31400131 30:0.7730271 31:0.015527949 32:0.37317784 33:0.45356483 34:0.45714286 35:0.57289183 36:0.46666667 37:0.1 38:0.6 39:0.66666667 40:0.3125 41:0.25 42:0.42857143 43:0.16666667 48:0.25 49:0.75 50:0.33333333 51:0.16666667 53:0.16666667 56:0.22222222 57:0.11111111 
8 0:0.38026217 1:0.49426741 2:0.57077476 3:0.20906861 4:0.13347858 5:0.19108376 6:0.39689679 7:0.64803125 8:0.6782748 9:0.69263626 10:0.54160381 11:0.49648675 12:0.41404729 13:0.39241331 14:0.0098926994 15:0.15706211 16:0.1905168 17:0.62913098 18:0.5712335 19:0.69999999 21:0.2586207 22:0.29999999 23:0.59607843 24:0.58333333 25:0.87951805 26:0.21505376 27:0.3346952 28:0.8489931 29:0.73148937 30:0.80756315 31:0.031055893 32:0.44314869 33:0.55678316 34:0.14285714 35:0.17536424 36:0.26666667 37:0.2 38:0.2 39:0.16666667 40:0.125 42:0.14285714 43:0.16666667 47:0.2 49:0.125 51:0.16666667 54:0.33333333 55:0.28571429 57:0.22222222 
0.4067762885393036 0:0.059994728 1:0.047040068 2:0.57077476 3:0.13683988 6:0.021975495 7:0.25588742 8:0.048915801 9:0.32414635 10:0.1147132 11:0.29849363 12:0.43158499 13:0.40221959 14:0.62092763 15:0.64776976 16:0.4089161 17:0.58384334 18:0.49585799 19:0.69999999 20:0.068965508 23:0.54509804 24:0.5625 25:0.40963857 26:0.4516129 27:0.46092531 28:0.54826196 29:0.13689082 30:0.28190644 31:0.46583851 32:0.56559767 33:0.4746006 34:0.17142857 35:0.16856512 36:0.066666667 38:0.1 40:0.0625 45:0.28571429 46:0.33333333 47:0.4 48:0.25 51:0.16666667 52:0.11111111 55:0.28571429 56:0.11111111 57:0.11111111 
8 0:0.44704057 1:0.35913467 2:0.57077476 3:0.13683988 4:0.38827225 5:0.1587348 6:0.59976937 7:0.39107158 8:0.77976441 9:0.24653995 10:0.22063376 11:0.61559666 12:0.40552688 13:0.76002966 14:0.00071715346 15:0.48011686 16:0.32766693 17:0.62423501 18:0.56459171 19:0.69999999 20:0.068965508 21:0.45977011 22:0.25588235 23:0.70196079 24:0.34583332 25:0.75903612 26:0.12903224 27:0.2413881 28:0.89363551 29:0.22151157 30:0.69399408 31:0.0062111807 32:0.3760933 33:0.47819399 34:0.48571429 35:0.60485651 36:0.4 37:0.3 38:0.4 39:0.25 40:0.125 43:0.25 44:0.33333333 45:0.28571429 46:0.16666667 47:0.6 48:0.75 49:0.125 51:0.16666667 52:0.22222222 55:0.14285714 56:0.22222222 57:0.22222222 
8 0:0.81149509 1:0.54066297 2:0.57077476 3:0.13683988 5:0.3197525 6:0.57586927 7:0.43316851 8:1 9:0.4695881 10:0.34350666 11:0.86723831 12:0.040112344 13:0.79115737 14:0.0028572649 15:0.3424807 16:0.13393209 17:0.77968177 18:0.6852071 19:0.69999999 20:0.068965508 22:0.48235294 23:0.80784313 24:0.48333333 25:0.9277108 26:0.21505376 27:0.23392249 28:0.87393124 29:0.050325417 30:0.73713784 31:0.071428567 32:0.33527696 33:0.28723589 34:0.62857143 35:0.6967329 36:0.46666667 37:0.2 38:0.65 39:0.66666667 40:0.375 42:0.42857143 43:0.083333333 45:0.42857143 47:0.2 48:0.25 49:0.5 50:0.33333333 51:0.16666667 53:0.33333333 55:0.14285714 56:0.33333333 57:0.33333333 
-2.987672763320708 0:0.80436936 1:0.55098287 2:0.57077476 3:0.13683988 4:0.069705841 5:0.34584802 6:0.50794765 7:0.34092817 8:0.88988221 9:0.34426167 10:0.2801631 11:0.56160107 12:0.0688445 13:0.40924527 14:0.0093005156 15:0.4473871 16:0.24786809 17:0.84210527 18:0.73923689 19:0.69999999 20:0.068965508 21:0.10344828 22:0.40882353 23:0.60392158 24:0.3875 25:0.91566265 26:0.24731182 27:0.1741976 28:0.79457467 29:0.088846655 30:0.63041004 31:0.012422354 32:0.3819242 33:0.28264273 34:0.6 35:0.65942605 36:0.26666667 38:0.65 39:0.66666667 40:0.3125 42:0.42857143 44:0.16666667 45:0.42857143 46:0.16666667 47:0.6 48:0.25 49:0.5 53:0.16666667 55:0.57142857 56:0.11111111 57:0.11111111 58:0.33333333 
-1.957458281822201 0:0.70120708 1:0.56384173 2:0.57077476 3:0.20906861 4:0.13347858 5:0.18828551 6:0.60089302 7:0.5017675 8:0.6782748 9:0.62243656 10:0.58786482 11:0.58111389 12:0.1718646 13:0.2628277 14:0.037610064 15:0.27375686 16:0.28374451 17:0.83965729 18:0.77278106 19:0.69999999 21:0.2586207 22:0.24411765 23:0.67058823 24:0.7125 25:0.9638554 26:0.21505376 27:0.4134166 28:0.75721781 29:0.18342949 30:0.53601987 31:0.024844732 32:0.3702624 33:0.4436303 34:0.45714286 35:0.52922737 36:0.33333333 37:0.1 38:0.5 39:0.41666667 40:0.125 41:0.25 42:0.14285714 43:0.083333333 45:0.42857143 47:0.4 49:0.5 51:0.33333333 53:0.16666667 54:0.33333333 55:0.28571429 56:0.11111111 57:0.33333333 
-1.564954866098768 0:0.50260767 1:0.43937667 2:0.57077476 3:0.13683988 4:0.069705841 5:0.063071973 6:0.64268323 7:0.37862145 8:0.88988221 9:0.51248239 10:0.39173256 11:0.56547418 12:0.16565755 13:0.43675399 14:0.018069298 15:0.38612187 16:0.18574036 17:0.69400246 18:0.63786982 19:0.69999999 20:0.068965508 21:0.10344828 22:0.12352941 23:0.7372549 24:0.375 25:0.71084337 26:0.21505376 27:0.44594764 28:0.72718778 29:0.16481929 30:0.4257059 31:0.043478257 32:0.30029154 33:0.16805768 34:0.4 35:0.40737307 36:0.26666667 37:0.2 38:0.45 39:0.41666667 40:0.25 42:0.14285714 43:0.083333333 44:0.33333333 45:0.42857143 48:0.25 49:0.125 50:0.66666667 52:0.11111111 53:0.16666667 54:0.33333333 55:0.28571429 57:0.22222222 
8 0:0.57133365 1:0.55766831 2:0.57077476 3:0.13683988 4:0.069705841 5:0.028840123 6:0.6929537 7:0.44284302 8:1 9:0.63744312 10:0.47215512 11:0.69144881 12:0.18156698 13:0.4048717 14:0.024448379 15:0.32140816 16:0.15909779 17:0.73317014 18:0.69691685 19:0.69999999 20:0.068965508 21:0.10344828 23:0.77254902 24:0.15416667 25:0.87951805 26:0.21505376 27:0.48699545 28:0.82959593 29:0.051271969 30:0.27297323 31:0.0093167651 32:0.41399416 33:0.16051687 34:0.31428571 35:0.39547462 36:0.26666667 37:0.3 38:0.4 39:0.5 40:0.25 42:0.14285714 43:0.083333333 44:0.16666667 47:0.2 48:0.25 49:0.25 51:0.16666667 52:0.11111111 53:0.16666667 55:0.28571429 56:0.11111111 57:0.22222222 
-8 0:0.44506125 1:0.32360349 2:0.57077476 3:0.13683988 4:0.069705841 6:0.26682094 7:0.30818523 8:0.41238607 9:0.31544872 10:0.11270404 11:0.67401804 12:0.21050199 13:0.82164231 14:0.024720188 15:0.75445676 16:0.47492187 17:0.74785803 18:0.66382371 19:0.69999999 20:0.068965508 21:0.10344828 23:0.49411765 24:0.47083333 25:0.6746988 26:0.50537635 27:0.32257193 28:0.81553324 29:0.056317867 30:0.6532253 31:0.031055901 32:0.55102042 33:0.3340997 34:0.6 35:0.57845475 36:0.13333333 38:0.55 39:0.16666667 40:0.25 41:0.25 44:0.33333333 45:0.71428571 46:0.33333333 47:0.4 48:0.25 49:0.25 51:0.16666667 52:0.11111111 53:0.16666667 55:0.71428571 57:0.11111111 59:0.25 
-3.456116192109103 0:0.51814766 1:0.48651232 2:0.57077476 3:0.13683988 4:0.032545914 5:0.15030293 6:0.6531435 7:0.43557205 8:0.6847842 9:0.34631813 10:0.40243129 11:0.58801429 12:0.10174123 13:0.25384472 14:0.24889245 15:0.74657787 16:0.32575716 17:0.73072216 18:0.68757396 19:0.69999999 20:0.068965508 22:0.11176471 23:0.78039215 24:0.47083333 25:0.9277108 26:0.172043 27:0.37079204 28:0.65496971 29:0.063335684 30:0.3381393 31:0.024844717 32:0.38192421 33:0.15070802 34:0.34285714 35:0.42373069 36:0.2 37:0.2 38:0.35 39:0.41666667 40:0.125 42:0.28571429 43:0.083333333 45:0.14285714 46:0.16666667 47:0.2 48:0.25 49:0.375 52:0.22222222 55:0.42857143 57:0.33333333 
-8 0:0.69541337 1:0.60021119 2:0.57077476 3:0.13683988 4:0.25735172 5:0.32983101 6:0.61189923 7:0.48381824 8:0.6847842 9:0.66176685 10:0.54740394 11:0.78332823 12:0.15879825 13:0.54041906 14:0.0070337246 15:0.49636297 16:0.28255982 17:0.76009793 18:0.70758472 19:0.69999999 20:0.068965508 21:0.21839081 22:0.37941177 23:0.71372549 24:0.37916667 25:0.91566265 26:0.21505376 27:0.58539864 28:0.83119859 29:0.066656541 30:0.31604428 31:0.06832298 32:0.52186589 33:0.37065702 34:0.4 35:0.47463576 36:0.26666667 37:0.1 38:0.5 39:0.5 40:0.25 42:0.28571429 43:0.083333333 44:0.33333333 45:0.28571429 47:0.4 48:0.25 49:0.25 51:0.16666667 52:0.11111111 55:0.14285714 56:0.11111111 57:0.11111111 58:0.33333333 
-8 0:0.42066068 1:0.3493179 2:0.57077476 3:0.13683988 4:0.13092053 5:0.20101927 6:0.34683188 7:0.47137857 8:0.52250387 9:0.4376019 10:0.40029587 11:0.42268517 12:0.030064317 13:0.40300452 14:0.0042602958 15:0.4671722 16:0.25254618 17:0.56793146 18:0.51005917 19:0.69999999 20:0.068965508 21:0.2413793 22:0.26764706 23:0.49019608 24:0.34166667 25:0.65060239 26:0.21505376 27:0.11728066 28:0.75689263 29:0.27518776 30:0.71744676 31:0.021739136 32:0.26239068 33:0.37141976 34:0.45714286 35:0.5376159 36:0.4 37:0.1 38:0.45 39:0.33333333 40:0.1875 41:0.25 42:0.14285714 43:0.16666667 44:0.16666667 46:0.16666667 47:0.2 48:0.25 49:0.125 50:0.33333333 51:0.33333333 52:0.11111111 53:0.16666667 55:0.42857143 56:0.11111111 57:0.22222222 59:0.25 
-1.351574717044581 0:0.53140478 1:0.59569258 2:0.57077476 3:0.20906861 4:0.25735172 5:0.1575625 6:0.45951854 7:0.52837001 8:0.47594706 9:0.74458974 10:0.44938303 11:0.57426667 12:0.025948872 13:0.33337598 14:0.70360616 15:0.83390862 16:0.50676281 17:0.64137088 18:0.58816568 19:0.69999999 21:0.21839081 22:0.16470588 23:0.43921568 24:0.54583333 25:0.22891565 26:0.21505376 27:0.33627194 28:0.64149799 29:0.1559905 30:0.45794681 31:0.57142857 32:0.6122449 33:0.52810454 34:0.22857143 35:0.28490066 36:0.2 37:0.1 38:0.3 39:0.16666667 40:0.125 42:0.14285714 43:0.083333333 44:0.33333333 45:0.14285714 49:0.25 51:0.16666667 52:0.11111111 54:0.33333333 55:0.14285714 56:0.11111111 57:0.11111111 59:0.25 
8 0:0.41236771 1:0.48239365 2:0.57077476 3:0.20906861 4:0.12365274 5:0.067162653 6:0.29299134 7:0.51913792 8:0.20728807 9:0.81367144 10:0.46362638 11:0.49984387 12:0.32270324 13:0.30235819 14:0.025852999 15:0.31466652 16:0.102479 17:0.74663404 18:0.75242604 19:0.69999999 22:0.10588235 23:0.61960784 24:0.575 25:0.6746988 26:0.38709678 27:0.43302583 28:0.77631302 29:0.4085612 30:0.49890721 31:0.031055898 32:0.22740524 33:0.22983319 34:0.2 35:0.22512142 36:0.066666667 38:0.4 39:0.41666667 40:0.3125 42:0.14285714 45:0.14285714 47:0.2 54:0.33333333 55:0.14285714 56:0.11111111 57:0.22222222 58:0.33333333 59:0.25 
4.378112894235231 0:0.62199761 1:0.43557336 2:0.37884145 3:0.13683988 4:0.50323727 5:0.24593094 6:0.3057202 7:0.45849344 8:0.47594706 9:0.51248239 10:0.23410677 11:0.70959014 12:0.16388569 13:0.62047941 14:0.0055140029 15:0.60883866 16:0.27610425 17:0.45899633 18:0.4326872 19:0.77777778 20:0.068965508 21:0.64367815 22:0.22941176 23:0.40392157 24:0.2875 25:0.65060239 26:0.172043 27:0.050090157 28:0.75228594 29:0.12275236 30:0.79412246 31:1.8510759e-09 32:0.43440233 33:0.51864744 34:0.6 35:0.76395144 36:0.73333333 37:0.4 38:0.65 39:0.58333333 40:0.1875 41:0.25 42:0.28571429 43:0.25 44:0.33333333 48:0.5 49:0.125 50:0.33333333 51:0.33333333 52:0.11111111 53:0.33333333 54:0.33333333 55:0.14285714 57:0.44444444 58:0.33333333 59:0.5 
8 0:0.53817664 1:0.50489085 2:0.37884145 3:0.13683988 4:0.032545914 5:0.34414695 6:0.52895257 7:0.54098997 8:0.6847842 9:0.43871869 10:0.30105456 11:0.64620185 12:0.4197384 13:0.63455062 14:0.30471157 15:0.47673764 16:0.27864402 17:0.55691555 18:0.48591716 19:0.77777778 20:0.068965508 21:0.14367816 22:0.37647059 23:0.68627451 24:0.041666667 25:0.9638554 26:0.172043 27:0.034839512 28:0.73715218 29:0.53332916 30:0.78657588 31:0.012422358 32:0.31486881 33:0.51604597 34:0.34285714 35:0.44582781 36:0.6 37:0.5 38:0.3 39:0.25 41:0.25 42:0.14285714 43:0.41666667 45:0.14285714 47:0.4 48:0.5 49:0.375 53:0.33333333 55:0.14285714 57:0.22222222 
4.162618095714709 0:0.2605594 1:0.23746502 2:0.37884145 3:0.13683988 5:0.44057608 6:0.22452569 7:0.28542662 8:0.41464213 9:0.24653995 10:0.3705477 11:0.39702277 12:0.084235075 13:0.3468665 14:0.053218093 15:0.31556507 16:0.1406025 17:0.43329254 18:0.36288327 19:0.77777778 20:0.068965508 21:0.14367816 22:0.64411764 23:0.30588235 24:0.3125 25:0.6385542 26:0.12903224 27:0.18198263 28:0.44792362 29:0.22632345 30:0.51332489 31:0.024844712 32:0.55976676 33:0.54442335 34:0.4 35:0.39642385 36:0.53333333 37:0.2 38:0.35 39:0.083333333 40:0.1875 41:0.5 42:0.42857143 43:0.25 45:0.28571429 46:0.16666667 48:0.5 49:0.125 51:0.16666667 55:0.14285714 57:0.22222222 59:0.25 
8 0:0.22678861 1:0.27761063 2:0.37884145 3:0.20906861 5:0.0890715 6:0.38758666 7:0.32733645 8:0.51943036 10:0.21366168 11:0.58559672 12:0.78951241 13:0.75655504 14:0.025444764 15:0.17958383 16:0.37268253 17:0.65728276 18:0.62148385 19:0.77777778 22:0.13235294 23:0.73725491 24:0.55416666 25:0.6746988 26:0.13978494 27:0.45149676 28:0.7238405 29:0.36001897 30:0.51187609 31:0.15217392 32:0.31778426 33:0.26782689 34:0.14285714 35:0.20245033 36:0.066666667 38:0.3 39:0.41666667 40:0.0625 41:0.5 42:0.14285714 44:0.16666667 46:0.33333333 47:0.2 49:0.125 50:0.33333333 52:0.11111111 54:0.33333333 59:0.25 
-8 0:0.57738557 1:0.82770494 2:0.37884145 3:0.20906861 4:0.25735172 5:0.19597439 6:0.59614473 7:0.7957452 8:0.88988221 9:0.8180299 10:0.74059946 11:0.72070142 12:0.29389866 13:0.27571154 14:0.16735421 15:0.22398548 16:0.34451777 17:0.80660956 18:0.9147929 19:0.77777778 21:0.21839081 22:0.21764706 23:0.55294118 24:0.68333333 25:0.87951805 26:0.51612904 27:0.61130906 28:0.85652125 29:0.19749505 30:0.39719394 31:0.16770185 32:0.21282798 33:0.3729396 34:0.11428571 35:0.20121413 36:0.13333333 38:0.3 39:0.41666667 40:0.0625 41:0.25 42:0.28571429 44:0.16666667 49:0.375 54:0.33333333 56:0.11111111 57:0.22222222 
-3.696844752478119 0:0.46553513 1:0.38363179 2:0.37884145 3:0.13683988 5:0.033581327 6:0.33054364 7:0.50506907 8:0.47594706 9:0.43871869 10:0.39663336 11:0.53035957 12:0.14381896 13:0.60696803 14:0.00553162 15:0.36885721 16:0.29761976 17:0.62056305 18:0.56094675 19:0.77777778 20:0.068965508 22:0.12647059 23:0.51372549 24:0.50833333 25:0.6746988 26:0.21505376 27:0.26908144 28:0.64602213 29:0.093505398 30:0.64200165 31:4.6276898e-09 32:0.34110788 33:0.33829235 34:0.45714286 35:0.496468 36:0.26666667 37:0.1 38:0.4 39:0.33333333 40:0.0625 41:0.5 42:0.14285714 43:0.083333333 45:0.42857143 48:0.25 49:0.375 52:0.11111111 53:0.33333333 55:0.42857143 56:0.22222222 57:0.22222222 59:0.5 
8 0:0.76458398 1:0.51196597 2:0.47381695 3:0.13683988 4:0.069705841 5:0.56425966 6:0.58177701 7:0.28832182 8:0.88988221 9:0.30698784 10:0.3690906 11:0.61166891 12:0.15364535 13:0.67295149 14:0.0094487253 15:0.44240587 16:0.32778351 17:0.68665851 18:0.61325443 19:0.11111111 20:0.068965508 21:0.10344828 22:0.64411764 23:0.68627451 24:0.25833333 25:0.9277108 26:0.21505376 27:0.15684465 28:0.7641369 29:0.042218312 30:0.77981538 31:0.024844715 32:0.606414 33:0.55608056 34:0.62857143 35:0.7610596 36:0.6 37:0.1 38:0.65 39:0.58333333 40:0.3125 42:0.28571429 43:0.25 44:0.16666667 45:0.14285714 46:0.33333333 47:0.4 48:0.25 49:0.5 51:0.5 53:0.16666667 55:0.14285714 56:0.11111111 57:0.33333333 
8 0:0.49723682 1:0.58622786 2:0.47381695 3:0.20906861 4:0.032545914 5:0.033581327 6:0.52370215 7:0.69182 8:0.6847842 9:0.62593794 10:0.61624851 11:0.5425447 12:0.2341635 13:0.24453827 14:0.02624184 15:0.15240976 16:0.28542634 17:0.79436966 18:0.8262722 19:0.11111111 22:0.052941176 23:0.83137256 24:0.76666667 25:1 26:0.10752688 27:0.60713053 28:0.86784573 29:0.32462687 30:0.60769046 31:0.012422361 32:0.099125367 33:0.28339058 34:0.2 35:0.26099338 36:0.13333333 37:0.1 38:0.3 39:0.33333333 40:0.125 42:0.14285714 43:0.083333333 45:0.28571429 47:0.8 49:0.25 52:0.22222222 54:0.33333333 
-8 0:0.384539 1:0.37724489 2:0.47381695 3:0.13683988 4:0.069705841 5:0.1295841 6:0.45615123 7:0.27540756 8:0.57466641 9:0.42683028 10:0.32391545 11:0.59751467 12:0.31695512 13:0.50404475 14:0.3611729 15:0.50560489 16:0.28531811 17:0.62178704 18:0.56088446 19:0.11111111 20:0.068965508 21:0.10344828 22:0.15882353 23:0.6745098 24:0.46666666 25:0.79518072 26:0.21505376 27:0.38848478 28:0.75811077 29:0.12587134 30:0.47417583 31:0.11180125 32:0.32653062 33:0.26576184 34:0.31428571 35:0.35609272 36:0.26666667 37:0.1 38:0.35 39:0.33333333 40:0.25 41:0.25 42:0.42857143 43:0.083333333 44:0.16666667 45:0.14285714 46:0.16666667 47:0.2 48:0.25 49:0.125 52:0.22222222 56:0.11111111 57:0.11111111 
-1.083387119461638 0:0.3098144 1:0.2953463 2:0.47381695 3:0.20906861 4:0.010026946 5:0.06242145 6:0.44260408 7:0.2197171 8:0.6847842 9:0.4376019 10:0.27905706 11:0.54259579 12:0.31669932 13:0.53125482 14:0.00012868737 15:0.17805609 16:0.15486163 17:0.57037945 18:0.50153846 19:0.11111111 22:0.052941176 23:0.71764706 24:0.41666667 25:0.91566265 26:0.21505376 27:0.32236578 28:0.80969033 29:0.093776575 30:0.65019292 31:0.018633543 32:0.13702623 33:0.14123315 34:0.34285714 35:0.37496689 36:0.26666667 37:0.1 38:0.35 39:0.41666667 40:0.0625 41:0.25 42:0.14285714 43:0.16666667 45:0.42857143 46:0.16666667 47:0.2 49:0.125 50:1 52:0.11111111 54:0.66666667 56:0.11111111 57:0.11111111 58:0.33333333 
8 0:0.51217729 1:0.639785 2:0.47381695 3:0.13683988 4:0.069705841 5:0.12398118 6:0.60284289 7:0.69838733 8:0.77976441 9:0.63744312 10:0.58483739 11:0.75486833 12:0.50005779 13:0.54161474 14:0.029657239 15:0.12936835 16:0.32458388 17:0.65850675 18:0.61961116 19:0.11111111 20:0.068965508 21:0.10344828 22:0.11176471 23:0.5254902 24:0.6875 25:0.79518072 26:0.21505376 27:0.46199682 28:0.71955898 29:0.29857048 30:0.39797483 31:0.034161492 32:0.24198251 33:0.34485887 34:0.17142857 35:0.2320309 36:0.2 37:0.1 38:0.3 39:0.41666667 40:0.125 42:0.14285714 43:0.083333333 44:0.5 45:0.14285714 47:0.2 48:0.25 49:0.125 52:0.11111111 53:0.16666667 59:0.25 
-8 0:0.34543903 1:0.445108 2:0.47381695 3:0.13683988 5:0.18355184 6:0.6354716 7:0.54109811 8:0.65978072 9:0.43871869 10:0.54911256 11:0.4597975 12:0.18626417 13:0.20196584 14:0.051565758 15:0.16270623 16:0.22358873 17:0.48225215 18:0.30905781 19:0.11111111 20:0.068965508 22:0.11176471 23:0.36862745 24:0.45416667 25:0.60240964 26:0.21505376 27:0.31138657 28:0.52180375 29:0.39418707 30:0.42578015 31:1.8510759e-09 32:0.12244898 33:0.32248382 34:0.14285714 35:0.14253863 36:0.33333333 37:0.1 38:0.15 39:0.25 40:0.0625 42:0.28571429 43:0.083333333 45:0.28571429 48:0.25 49:0.25 50:0.33333333 51:0.16666667 53:0.16666667 58:0.33333333 
-1.065501125523718 0:0.76447444 1:0.43598032 2:0.47381695 3:0.20906861 4:0.32705757 5:0.033581327 6:0.41007576 7:0.52105615 8:0.52250387 9:0.44741632 10:0.27468384 11:0.57718127 12:0.044604022 13:0.60271236 14:0.0041299547 15:0.32442411 16:0.22094226 17:0.68910649 18:0.60601311 19:0.11111111 21:0.32183908 22:0.052941176 23:0.81568627 24:0.44166666 25:0.9638554 26:0.21505376 27:0.12394773 28:0.73487596 29:0.049057995 30:0.61107823 31:0.0031055862 32:0.2244898 33:0.23120481 34:0.82857143 35:0.89470199 36:0.6 37:0.3 38:0.75 39:0.75 40:0.5625 42:0.28571429 43:0.16666667 45:0.28571429 47:0.4 48:0.25 49:0.375 51:0.33333333 52:0.11111111 53:0.33333333 54:0.33333333 55:0.57142857 56:0.33333333 57:0.33333333 
4.457650850826271 0:0.48664768 1:0.64445055 2:0.47381695 3:0.13683988 4:0.13347858 5:0.064304336 6:0.85900455 7:0.49278134 8:1 9:0.63113419 10:0.69202075 11:0.68092211 12:0.065759264 13:0.27165331 14:0.10588196 15:0.22032698 16:0.18350505 17:0.73684212 18:0.76349568 19:0.11111111 20:0.068965508 21:0.2586207 22:0.13235294 23:0.82352942 24:0.57083334 25:0.91566265 26:0.41935484 27:0.61683207 28:0.87303829 29:0.18356557 30:0.49896467 31:0.42857143 32:0.42857143 33:0.5428908 34:0.14285714 35:0.24320088 36:0.2 38:0.25 39:0.33333333 40:0.0625 42:0.14285714 44:0.16666667 47:0.6 48:0.25 49:0.25 51:0.33333333 52:0.11111111 56:0.11111111 
7.36754990298033 0:0.44523537 1:0.55203397 2:0.47381695 3:0.20906861 4:0.032545914 5:0.30753302 6:0.57193177 7:0.18882837 8:0.6847842 9:0.31544872 10:0.51689582 11:0.57648089 12:0.30835432 13:0.42639618 14:0.11205076 15:0.43034644 16:0.44431218 17:0.61933906 18:0.55469146 19:0.11111111 22:0.22352941 23:0.60784314 24:0.25416667 25:0.9638554 26:0.10752688 27:0.4569994 28:0.49881157 29:0.045628263 30:0.28821098 31:0.12111802 32:0.38775511 33:0.30236712 34:0.17142857 35:0.21532009 36:0.2 37:0.1 38:0.2 39:0.25 42:0.14285714 43:0.16666667 45:0.28571429 46:0.16666667 47:0.2 49:0.375 54:0.33333333 55:0.14285714 57:0.11111111 58:0.33333333 
8 0:0.4443144 1:0.58468917 2:0.47381695 3:0.13683988 4:0.069705841 5:0.12398118 6:0.49015245 7:0.48273668 8:1 9:0.63744312 10:0.39630268 11:0.690202 12:0.59919034 13:0.48876929 14:0.0083340869 15:0.069398464 16:0.29310643 17:0.6891065 18:0.67828857 19:0.11111111 20:0.068965508 21:0.10344828 22:0.11176471 23:0.47450981 24:0.6 25:0.87951805 26:0.50537635 27:0.3346952 28:0.88277817 29:0.54362005 30:0.73237097 31:0.23291925 32:0.26530612 33:0.41792813 34:0.14285714 35:0.1892936 36:0.2 38:0.2 39:0.25 40:0.0625 42:0.14285714 47:0.2 48:0.25 49:0.375 51:0.33333333 55:0.42857143 57:0.11111111 
2.007622746461817 0:0.62930442 1:0.61366179 2:0.47381695 3:0.13683988 4:0.25735172 5:0.21713317 6:0.58588088 7:0.55813927 8:1 9:0.65330597 10:0.43096484 11:0.73875071 12:0.16122951 13:0.46557476 14:0.063875039 15:0.5493768 16:0.38088808 17:0.68421054 18:0.63712239 19:0.11111111 20:0.068965508 21:0.21839081 22:0.16470588 23:0.55294118 24:0.45833333 25:0.83132529 26:0.21505376 27:0.31759486 28:0.67680315 29:0.11110167 30:0.56048619 31:0.021739128 32:0.20116619 33:0.22558676 34:0.31428571 35:0.33525386 36:0.26666667 37:0.1 38:0.4 39:0.5 40:0.1875 41:0.25 42:0.28571429 43:0.083333333 44:0.16666667 45:0.28571429 48:0.25 49:0.5 51:0.16666667 55:0.28571429 58:0.33333333 
8 0:0.59866685 1:0.48543287 2:0.47381695 3:0.13683988 5:0.45453953 6:0.32949765 7:0.47887438 8:0.56815701 9:0.43871869 10:0.49496193 11:0.55860809 12:0.10273671 13:0.37577183 14:0.016398059 15:0.28211057 16:0.14107922 17:0.55446757 18:0.49704141 19:0.11111111 20:0.068965508 22:0.77058823 23:0.51764705 24:0.38333333 25:0.75903612 26:0.21505376 27:0.29645534 28:0.6906413 29:0.25371575 30:0.47343184 31:0.12111801 32:0.65306123 33:0.61351784 34:0.45714286 35:0.60247241 36:0.53333333 37:0.2 38:0.45 39:0.41666667 40:0.0625 42:0.57142857 43:0.16666667 44:0.33333333 45:0.14285714 47:0.2 48:0.25 51:0.16666667 52:0.22222222 53:0.16666667 56:0.11111111 57:0.55555556 59:0.5 
8 0:0.48618669 1:0.3994233 2:0.47381695 3:0.20906861 5:0.18640263 6:0.65287623 7:0.17215134 8:1 9:0.32414635 10:0.27380609 11:0.66586645 12:0.24234866 13:0.51923599 14:0.18451797 15:0.61141557 16:0.44161824 17:0.53121175 18:0.47455621 19:0.11111111 22:0.16470588 23:0.59215685 24:0.32083333 25:0.83132529 26:0.21505376 27:0.25166167 28:0.82084965 29:0.18602835 30:0.50401725 31:0.024844719 32:0.54810495 33:0.46563696 34:0.45714286 35:0.56666667 36:0.4 37:0.2 38:0.35 39:0.25 40:0.125 42:0.28571429 43:0.083333333 44:0.16666667 46:0.33333333 49:0.375 51:0.16666667 52:0.22222222 53:0.33333333 54:0.33333333 55:0.42857143 56:0.11111111 57:0.33333333 
2.465288291729523 0:0.57715344 1:0.44141559 2:0.47381695 3:0.20906861 4:0.55429675 5:0.47603511 6:0.37208949 7:0.45445586 8:0.6847842 9:0.51248239 10:0.4130138 11:0.46761913 12:0.021177476 13:0.24354291 14:0.014854027 15:0.32310231 16:0.25654918 17:0.34516524 18:0.3156122 19:0.11111111 21:0.71839081 22:0.45882353 23:0.36862745 24:0.32916666 25:0.91566265 26:0.172043 27:0.20358092 28:0.45776415 29:0.018569819 30:0.37191888 31:0.0062111669 32:0.29737608 33:0.49911509 34:0.51428571 35:0.68622517 36:0.73333333 37:0.4 38:0.35 39:0.33333333 42:0.14285714 43:0.5 47:0.2 48:0.25 49:0.375 51:0.16666667 52:0.11111111 53:0.16666667 54:0.66666667 55:0.14285714 56:0.33333333 57:0.33333333 59:0.5 
8 0:0.60629365 1:0.61814817 2:0.47381695 3:0.13683988 5:0.063071973 6:0.60265609 7:0.41668763 8:1 9:0.46753164 10:0.34428109 11:0.62156218 12:0.19855387 13:0.54539262 14:0.030766799 15:0.26011011 16:0.13278993 17:0.82864138 18:0.82721893 19:0.11111111 20:0.068965508 22:0.12352941 23:0.60784313 24:0.46666666 25:0.9277108 26:0.172043 27:0.23392249 28:0.82527311 29:0.33296404 30:0.7012767 31:0.065217396 32:0.33236152 33:0.46024136 34:0.28571429 35:0.39112583 36:0.33333333 37:0.1 38:0.5 39:0.66666667 40:0.3125 42:0.14285714 47:0.2 48:0.25 49:0.25 51:0.16666667 53:0.5 57:0.44444444 
-4.588045982974797 0:0.39303998 1:0.32819733 2:0.47381695 3:0.13683988 4:0.45069468 5:0.44135831 6:0.31948127 7:0.36158334 8:0.42794425 9:0.46753164 10:0.3749049 11:0.55129873 12:0.13302951 13:0.50999308 14:0.02018794 15:0.35986978 16:0.30919031 17:0.24602203 18:0.19881656 19:0.11111111 20:0.068965508 21:0.4770115 22:0.5235294 23:0.21176471 24:0.024999996 25:0.6746988 26:0.172043 27:0.050090157 28:0.5700954 29:0.39019241 30:0.69269992 31:0.031055893 32:0.56268221 33:0.5982701 34:0.45714286 35:0.53673289 36:0.93333333 37:0.7 38:0.25 39:0.083333333 40:0.125 42:0.57142857 43:0.25 47:0.2 48:0.75 49:0.25 51:0.5 53:0.33333333 55:0.14285714 56:0.11111111 57:0.22222222 
6.835547022686558 0:0.45980535 1:0.69672899 2:0.47381695 3:0.9010142 5:0.2693392 6:0.48570173 7:0.64736088 8:0.57466641 9:0.75097662 10:0.55424967 11:0.53882527 12:0.20327975 13:0.12147774 14:0.47270933 15:0.39836362 16:0.27296885 17:0.65973074 18:0.63657881 19:0.11111111 20:0.83908047 22:0.28823529 23:0.38823529 24:0.4625 25:0.79518072 26:0.41935484 27:0.31414807 28:0.71407742 29:0.53160606 30:0.47753246 31:0.58695652 32:0.54810496 33:0.49886208 34:0.085714286 35:0.16682119 36:0.13333333 38:0.15 39:0.083333333 42:0.28571429 43:0.083333333 44:0.5 47:0.2 52:0.22222222 56:0.11111111 57:0.11111111 
-8 0:0.37525351 1:0.39858921 2:0.48577435 3:0.13683988 4:0.064663864 5:0.13671494 6:0.64596653 7:0.33042106 8:0.88988221 9:0.5144696 10:0.32173542 11:0.49374857 12:0.18440785 13:0.41904723 14:0.011731661 15:0.44331676 16:0.21349083 17:0.50673196 18:0.40313261 19:0.11111111 20:0.068965508 22:0.13529412 23:0.57647059 24:0.15416666 25:0.71084337 26:0.172043 27:0.3210213 28:0.50209947 29:0.13006175 30:0.46428849 31:0.059006209 32:0.43148689 33:0.19195237 34:0.25714286 35:0.27185431 36:0.33333333 37:0.2 38:0.15 39:0.16666667 40:0.0625 42:0.42857143 43:0.083333333 44:0.33333333 45:0.28571429 47:0.2 48:0.5 49:0.125 55:0.14285714 56:0.33333333 
6.607008791845956 0:0.3729456 1:0.39609776 2:0.48577435 3:0.13683988 5:0.091912096 6:0.50493642 7:0.33669656 8:0.6782748 9:0.12326997 10:0.18912953 11:0.58945915 12:0.47938105 13:0.62982314 14:0.068579546 15:0.27020508 16:0.22673073 17:0.59363526 18:0.52175426 19:0.11111111 20:0.068965508 22:0.12352941 23:0.60784314 24:0.45416667 25:0.87951805 26:0.20430106 27:0.042305129 28:0.91976855 29:0.8295747 30:0.8818582 31:0.0062111844 32:0.3819242 33:0.43327638 34:0.25714286 35:0.34543046 36:0.33333333 37:0.2 38:0.3 39:0.33333333 40:0.125 42:0.14285714 43:0.083333333 45:0.14285714 46:0.16666667 47:0.4 48:0.25 49:0.125 52:0.11111111 53:0.5 57:0.22222222 58:0.33333333 
-2.850126297177507 0:0.61258201 1:0.48065495 2:0.48577435 3:0.13683988 5:0.19714668 6:0.55277798 7:0.43455341 8:0.88988221 9:0.43871869 10:0.43782352 11:0.74030019 12:0.033865758 13:0.71611695 14:0.019106008 15:0.28624285 16:0.15193312 17:0.64259487 18:0.58163314 19:0.11111111 20:0.068965508 22:0.30882353 23:0.56078431 24:0.50833333 25:0.9638554 26:0.21505376 27:0.32930581 28:0.8622635 29:0.085650937 30:0.67172417 31:0.068322978 32:0.42274052 33:0.30810329 34:0.48571429 35:0.49790287 36:0.46666667 37:0.1 38:0.4 39:0.41666667 40:0.125 42:0.28571429 43:0.16666667 44:0.5 45:0.71428571 47:0.4 48:0.25 49:0.125 51:0.16666667 53:0.33333333 55:0.14285714 56:0.11111111 57:0.22222222 
2.745806188650051 0:0.39638541 1:0.42140165 2:0.48577435 3:0.47381695 4:0.032545914 5:0.25149355 6:0.58113259 7:0.35745056 8:0.88988221 9:0.44741632 10:0.38639037 11:0.50318656 12:0.13964192 13:0.30980051 14:0.11900066 15:0.4598881 16:0.21367214 17:0.33537333 18:0.16923077 19:0.11111111 20:0.11494253 22:0.13823529 23:0.50588236 24:0.10416666 25:0.71084337 26:0.172043 27:0.050090157 28:0.44572998 29:0.092652578 30:0.27059427 31:0.17701863 32:0.36734694 33:0.086309887 34:0.25714286 35:0.25011038 36:0.53333333 37:0.5 38:0.1 39:0.083333333 42:0.57142857 43:0.33333333 44:0.33333333 45:0.28571429 48:0.25 49:0.125 50:0.33333333 52:0.11111111 55:0.14285714 
-8 0:0.65919989 1:0.59187827 2:0.48577435 3:0.13683988 4:0.1907849 5:0.38684006 6:0.76581599 7:0.45937239 8:0.88988221 9:0.55010025 10:0.30526416 11:0.82156626 12:0.13987761 13:0.77926859 14:0.0032743405 15:0.37908416 16:0.31861295 17:0.63647492 18:0.57768385 19:0.11111111 20:0.068965508 21:0.2413793 22:0.49411764 23:0.61568628 24:0.46249999 25:0.91566265 26:0.172043 27:0.10451856 28:0.7699798 29:0.1450127 30:0.74351929 31:0.012422356 32:0.26239067 33:0.50347215 34:0.37142857 35:0.48757174 36:0.53333333 37:0.3 38:0.4 39:0.41666667 40:0.0625 41:0.25 42:0.28571429 43:0.25 44:0.33333333 45:0.14285714 47:0.2 48:0.5 49:0.375 51:0.16666667 53:0.16666667 56:0.11111111 57:0.22222222 
8 0:0.52096217 1:0.55588552 2:0.48577435 3:0.13683988 4:0.25735172 6:0.60168344 7:0.55615954 8:0.88988221 9:0.65672186 10:0.42517775 11:0.61193644 12:0.011828468 13:0.47525187 14:0.043809114 15:0.3620951 16:0.4343453 17:0.74418606 18:0.72725374 19:0.11111111 20:0.068965508 21:0.21839081 23:0.52941177 24:0.72083333 25:0.71084337 26:0.50537635 27:0.50441522 28:0.65708079 29:0.078211994 30:0.37030469 31:0.018633538 32:0.37026239 33:0.39877163 34:0.25714286 35:0.28203091 36:0.2 38:0.35 39:0.33333333 40:0.1875 41:0.25 43:0.083333333 44:0.16666667 45:0.28571429 48:0.25 49:0.375 51:0.16666667 53:0.16666667 55:0.14285714 56:0.11111111 57:0.11111111 
-8 0:0.49530152 1:0.55428227 2:0.48577435 3:0.20906861 4:0.068498017 5:0.13088511 6:0.51385538 7:0.45782365 8:0.6847842 9:0.63959507 10:0.48470543 11:0.57889518 12:0.15568326 13:0.36941573 14:0.13098826 15:0.39578945 16:0.16811512 17:0.69277847 18:0.6627219 19:0.11111111 21:0.1091954 22:0.24117647 23:0.60392158 24:0.34583333 25:1 26:0.21505376 27:0.48110658 28:0.56234274 29:0.13243141 30:0.31471847 31:0.024844722 32:0.26822158 33:0.22126529 34:0.22857143 35:0.29057395 36:0.26666667 37:0.2 38:0.35 39:0.5 40:0.125 43:0.25 45:0.14285714 47:0.4 49:0.25 50:1 51:0.16666667 52:0.11111111 54:0.33333333 
-6.810289828320941 0:0.61022506 1:0.47892477 2:0.48577435 3:0.13683988 4:0.32244355 5:0.48722903 6:0.59614473 7:0.45940558 8:0.52250387 9:0.56087187 10:0.42603937 11:0.54684252 12:0.14595349 13:0.35662915 14:0.0026446236 15:0.36095009 16:0.31380062 17:0.57772339 18:0.52142012 19:0.11111111 20:0.068965508 21:0.21839081 22:0.44411765 23:0.6 24:0.30416667 25:0.6746988 26:0.172043 27:0.32558604 28:0.63924497 29:0.17771837 30:0.49086558 31:0.018633539 32:0.62973761 33:0.28793773 34:0.48571429 35:0.55282561 36:0.46666667 37:0.4 38:0.5 39:0.58333333 40:0.25 41:0.25 42:0.14285714 43:0.33333333 44:0.16666667 48:0.5 49:0.375 50:0.33333333 53:0.16666667 55:0.57142857 56:0.11111111 57:0.11111111 59:0.25 
-0.2276255053008411 0:0.31814413 1:0.38543602 2:0.48577435 3:0.13683988 4:0.010026946 5:0.40649098 6:0.3459765 7:0.38143474 8:0.42794425 9:0.5144696 10:0.37093695 11:0.5078026 12:0.20739834 13:0.36389507 14:0.046879455 15:0.33704876 16:0.18836955 17:0.40269279 18:0.19560439 19:0.11111111 20:0.068965508 22:0.47941176 23:0.30588235 24:0.14166666 25:0.0361446 26:0.21505376 27:0.23641103 28:0.5756957 29:0.42676516 30:0.56123441 31:0.31677018 32:0.80466473 33:0.75287286 34:0.17142857 35:0.21388521 36:0.53333333 37:0.3 38:0.1 40:0.0625 42:0.42857143 43:0.16666667 47:0.2 48:0.25 49:0.125 51:0.16666667 53:0.33333333 56:0.11111111 57:0.11111111 
-1.987969615925132 0:0.45301739 1:0.90095029 2:0.48577435 3:0.20906861 4:0.21407776 5:0.37194353 6:0.7518466 7:0.79694603 8:1 9:1 10:0.54610514 11:0.21956235 12:0.3226084 13:0.2200019 14:0.57241718 15:0.48339463 16:0.69625609 17:0.64014689 18:0.60591716 19:0.11111111 21:0.16091954 22:0.33529412 23:0.41568628 24:0.64583333 25:0.83132529 26:0.78494624 27:0.57923219 28:0.26972663 29:0.48182517 30:0.43167992 31:0.39440994 32:0.36734694 33:0.81752136 35:0.06289183 36:0.13333333 38:0.1 39:0.083333333 43:0.16666667 44:0.16666667 49:0.375 52:0.11111111 54:0.33333333 
-8 0:0.34401813 1:0.47080943 2:0.48577435 3:0.13683988 5:0.21665087 6:0.41299602 7:0.49606733 8:0.6782748 9:0.43871869 10:0.35463572 11:0.65679373 12:0.60290177 13:0.55030615 14:0.29733383 15:0.32211402 16:0.15533482 17:0.61566709 18:0.54556213 19:0.11111111 20:0.068965508 22:0.23529411 23:0.49019608 24:0.56666666 25:0.87951805 26:0.45161291 27:0.17917467 28:0.88056643 29:0.88104744 30:0.8105623 31:0.018633535 32:0.2303207 33:0.46902261 34:0.11428571 35:0.15649007 36:0.2 38:0.15 39:0.16666667 42:0.28571429 43:0.083333333 45:0.14285714 47:0.2 48:0.25 49:0.125 55:0.14285714 56:0.11111111 57:0.22222222 59:0.25 
8 0:0.52024831 1:0.61438157 2:0.48577435 3:0.20906861 4:0.010026946 5:0.16095764 6:0.60494341 7:0.65597229 8:0.77976441 9:0.57953567 10:0.55080634 11:0.70756075 12:0.41069419 13:0.43164429 14:0.023844306 15:0.16917616 16:0.16663997 17:0.66217872 18:0.62177515 19:0.11111111 22:0.30882353 23:0.53725491 24:0.69583333 25:0.9638554 26:0.21505376 27:0.45574208 28:0.71397677 29:0.26267109 30:0.41842627 31:0.0031055834 32:0.12536444 33:0.37797108 34:0.2 35:0.30331126 36:0.26666667 37:0.1 38:0.25 39:0.33333333 40:0.0625 42:0.14285714 43:0.16666667 44:0.33333333 47:0.4 49:0.125 51:0.16666667 52:0.11111111 54:0.33333333 56:0.22222222 57:0.11111111 
5.200902257654281 0:0.66428955 1:0.41970381 2:0.48577435 3:0.13683988 4:0.069705841 5:0.50176245 6:0.38962405 7:0.46298357 8:0.41464213 9:0.4376019 10:0.38577381 11:0.59857911 12:0.25416205 13:0.54334746 14:3.4802595e-05 15:0.6743181 16:0.33426816 17:0.49816401 18:0.47649273 19:0.11111111 20:0.068965508 21:0.10344828 22:0.79705881 23:0.50588234 24:0.15416667 25:0.6746988 26:0.21505376 27:0.12723481 28:0.77440326 29:0.38471662 30:0.79675627 31:0.018633545 32:0.59475218 33:0.53830358 34:0.71428571 35:0.79174393 36:0.8 37:0.4 38:0.55 39:0.25 40:0.1875 41:0.25 42:0.42857143 43:0.5 45:0.28571429 46:0.16666667 47:0.2 48:0.25 49:0.375 50:0.33333333 51:0.33333333 53:0.16666667 55:0.42857143 56:0.11111111 57:0.44444444 
2.224444765368683 0:0.44381882 1:0.45249656 2:0.48577435 3:0.13683988 4:0.12365274 5:0.18817934 6:0.32688466 7:0.41822124 8:0.52250387 9:0.63089744 10:0.46334373 11:0.54394877 12:0.11877319 13:0.34658287 14:0.00024276048 15:0.13798537 16:0.36505929 17:0.60342719 18:0.53688363 19:0.11111111 20:0.068965508 22:0.26470589 23:0.48627451 24:0.39166667 25:0.59036144 26:0.41935484 27:0.45284122 28:0.64208897 29:0.16896443 30:0.35436652 31:0.006211178 32:0.303207 33:0.51500473 34:0.28571429 35:0.34302429 36:0.26666667 38:0.25 39:0.083333333 40:0.0625 42:0.28571429 43:0.083333333 45:0.42857143 47:0.6 48:0.25 49:0.25 52:0.33333333 53:0.16666667 58:0.33333333 
-8 0:0.61810092 1:0.55596179 2:0.48577435 3:0.13683988 4:0.05141 5:0.47465975 6:0.56110022 7:0.56227495 8:0.6847842 9:0.59974295 10:0.42135924 11:0.62520693 12:0.49521302 13:0.57061161 14:0.023309188 15:0.31103607 16:0.32725295 17:0.50061201 18:0.42755706 19:0.11111111 20:0.068965508 22:0.52058824 23:0.49019608 24:0.475 25:0.91566265 26:0.21505376 27:0.32231933 28:0.74033434 29:0.091643696 30:0.63340989 31:0.046583851 32:0.50145773 33:0.55193731 34:0.37142857 35:0.45434879 36:0.53333333 37:0.2 38:0.3 39:0.25 40:0.0625 42:0.28571429 43:0.33333333 45:0.28571429 47:0.4 48:0.25 49:0.5 52:0.11111111 53:0.33333333 56:0.11111111 59:0.25 
-8 0:0.33481117 1:0.45672895 2:0.48577435 3:0.13683988 4:0.13347858 5:0.16095764 6:0.36795416 7:0.59412906 8:0.36956841 9:0.76885236 10:0.44825903 11:0.48061703 12:0.3337477 13:0.38897645 14:0.23300797 15:0.26725682 16:0.10611561 17:0.62545901 18:0.56449704 19:0.11111111 20:0.068965508 21:0.2586207 22:0.30882353 23:0.63137256 24:0.36249999 25:1 26:0.21505376 27:0.23392249 28:0.74282994 29:0.77667403 30:0.71849633 31:0.37888198 32:0.56851312 33:0.61191151 34:0.11428571 35:0.17183223 36:0.33333333 37:0.2 38:0.2 39:0.25 40:0.125 42:0.14285714 43:0.16666667 47:0.6 48:0.25 53:0.33333333 57:0.11111111 
-8 0:0.49470748 1:0.58313331 2:0.48577435 3:0.13683988 4:0.13347858 5:0.28493881 6:0.71712206 7:0.44044579 8:1 9:0.44741632 10:0.45213639 11:0.7668921 12:0.2337541 13:0.42167175 14:0.019497195 15:0.27489656 16:0.16531616 17:0.74663404 18:0.75242603 19:0.11111111 20:0.068965508 21:0.2586207 22:0.42058823 23:0.67058824 24:0.675 25:0.9638554 26:0.37634408 27:0.537797 28:1 29:0.31875367 30:0.73303487 31:0.0031055797 32:0.20991255 33:0.50833559 34:0.2 35:0.33637969 36:0.26666667 38:0.3 39:0.41666667 40:0.0625 42:0.14285714 43:0.16666667 47:0.6 48:0.5 49:0.25 52:0.22222222 57:0.22222222 
-8 0:0.53443697 1:0.54488651 2:0.48577435 3:0.13683988 4:0.05141 5:0.40842061 6:0.43706453 7:0.62799705 8:0.47594706 9:0.59974295 10:0.36431267 11:0.68248148 12:0.50671508 13:0.76984573 14:0.0015652969 15:0.18884231 16:0.29835553 17:0.48592412 18:0.38540434 19:0.11111111 20:0.068965508 22:0.44117646 23:0.38431372 24:0.30416667 25:0.65060239 26:0.21505376 27:0.19252915 28:0.77335027 29:0.41704658 30:0.76962917 31:0.018633536 32:0.22740525 33:0.56261791 34:0.28571429 35:0.37474614 36:0.53333333 37:0.3 38:0.3 39:0.25 40:0.0625 42:0.28571429 43:0.25 44:0.16666667 48:0.25 49:0.25 50:0.33333333 53:0.5 55:0.14285714 57:0.22222222 59:0.25 
-6.411916096079351 0:0.50132253 1:0.47107362 2:0.9010142 3:0.13683988 4:0.069705841 6:0.36280195 7:0.49942997 8:0.41238607 9:0.63744312 10:0.45895432 11:0.48224657 12:0.066674462 13:0.20837295 14:0.068481533 15:0.25196963 16:0.035147958 17:0.88494493 18:0.86650887 19:0.81111111 20:0.068965508 21:0.10344828 23:0.56078431 24:0.76666666 25:0.46987952 26:0.74193547 27:0.63484996 28:0.66140359 29:0.074501381 30:0.25884125 31:0.05590062 32:0.24781341 34:0.34285714 35:0.32216336 38:0.7 39:1 40:0.9375 44:0.16666667 48:0.25 52:0.33333333 
-4.651928314195007 0:0.65574918 1:0.43458915 2:0.9010142 3:0.13683988 4:0.04257286 5:0.067902532 6:0.48252931 7:0.41006912 8:0.52250387 9:0.44741632 10:0.29526239 11:0.5841639 12:0.31907018 13:0.62363136 14:0.0085065896 15:0.43862495 16:0.26547618 17:0.64871482 18:0.5833556 19:0.81111111 20:0.068965508 22:0.12352941 23:0.61176471 24:0.44583333 25:0.68674699 26:0.172043 27:0.19650152 28:0.8199567 29:0.28695311 30:0.71467768 31:0.012422362 32:0.40816326 33:0.20918675 34:0.65714286 35:0.80993378 36:0.33333333 37:0.2 38:0.6 39:0.5 40:0.125 41:0.25 43:0.25 44:0.33333333 45:0.14285714 47:0.4 48:0.5 49:0.25 50:0.66666667 51:0.16666667 52:0.33333333 55:0.57142857 56:0.33333333 57:0.11111111 58:0.33333333 59:0.25 
-0.4704934491083108 0:0.61294954 1:0.57350225 2:0.9010142 3:0.20906861 4:0.032545914 5:0.43630147 6:0.6896215 7:0.45225928 8:1 9:0.62593794 10:0.47771502 11:0.69347814 12:0.15654825 13:0.42123357 14:0.015769871 15:0.44751011 16:0.35775643 17:0.62913098 18:0.56970414 19:0.81111111 22:0.39117647 23:0.41960784 24:0.39583333 25:0.83132529 26:0.10752688 27:0.38268304 28:0.69593964 29:0.19092931 30:0.4370485 31:0.024844716 32:0.39067055 33:0.308474 34:0.34285714 35:0.37752759 36:0.33333333 37:0.2 38:0.3 39:0.25 41:0.25 43:0.41666667 44:0.16666667 45:0.42857143 49:0.5 50:0.33333333 52:0.11111111 54:0.33333333 55:0.28571429 57:0.11111111 
-8 0:0.35709036 1:0.56683845 2:0.9010142 3:0.13683988 5:0.26409125 6:0.38407937 7:0.59070556 8:0.36956841 9:0.46753164 10:0.41392424 11:0.49147795 12:0.57837363 13:0.43117543 14:0.38566533 15:0.32413235 16:0.097239431 17:0.69033049 18:0.71455621 19:0.81111111 20:0.068965508 22:0.39117647 23:0.61960784 24:0.69166667 25:1 26:0.172043 27:0.16673199 28:0.53046744 29:0.76249228 30:0.69019881 31:0.44720497 32:0.41690962 33:0.62147041 34:0.057142857 35:0.10644592 36:0.2 37:0.1 38:0.2 39:0.25 40:0.125 42:0.14285714 43:0.083333333 44:0.16666667 47:0.4 48:0.25 53:0.16666667 57:0.11111111 
6.805889533184072 0:0.67990617 1:0.56655102 2:0.9010142 3:0.20906861 4:0.010026946 5:0.22711479 6:0.46036487 7:0.52133516 8:0.57466641 9:0.57953567 10:0.47004222 11:0.67667117 12:0.025979907 13:0.59823756 14:0.015229915 15:0.32639355 16:0.26786689 17:0.81762547 18:0.75950604 19:0.81111111 22:0.34117647 23:0.7882353 24:0.62916667 25:0.9638554 26:0.40860215 27:0.33603968 28:0.91834911 29:0.22480817 30:0.72570962 31:0.0093167577 32:0.40524781 33:0.49750239 34:0.42857143 35:0.59099338 36:0.4 38:0.6 39:0.66666667 40:0.0625 41:0.75 42:0.28571429 44:0.33333333 47:0.2 49:0.25 51:0.5 53:0.16666667 54:0.33333333 56:0.22222222 57:0.44444444 59:0.25 
2.706246557241247 0:0.39858828 1:0.52013817 2:0.9010142 3:0.20906861 4:0.13092053 5:0.35898235 6:0.34962451 7:0.48787036 8:0.36305901 9:0.66176685 10:0.55629252 11:0.47681117 12:0.17555861 13:0.18470072 14:0.22295456 15:0.52580334 16:0.21454266 17:0.52998777 18:0.39426491 19:0.81111111 21:0.2413793 22:0.29705882 23:0.2745098 24:0.28333333 25:0.9638554 26:0.21505376 27:0.11479212 28:0.48140158 29:0.57057151 30:0.56900488 31:0.099378889 32:0.5276968 33:0.44705871 34:0.14285714 35:0.19172185 36:0.26666667 37:0.1 38:0.15 39:0.083333333 42:0.14285714 43:0.25 44:0.33333333 45:0.14285714 47:0.2 52:0.11111111 54:0.33333333 55:0.14285714 57:0.11111111 58:0.33333333 
-8 0:0.89046509 1:0.62313974 2:0.9010142 3:0.13683988 5:0.27057156 6:0.55695043 7:0.56665609 8:0.88988221 9:0.46753164 10:0.4130931 11:0.73978635 12:0.045874959 13:0.66658119 14:0.060097599 15:0.4026091 16:0.25459995 17:0.81762547 18:0.72510566 19:0.81111111 20:0.068965508 22:0.29705882 23:0.71372549 24:0.59166666 25:0.91566265 26:0.172043 27:0.25415021 28:0.8737299 29:0.036571093 30:0.76239342 31:9.2553792e-10 32:0.3090379 33:0.30629644 34:0.57142857 35:0.73092715 36:0.4 37:0.2 38:0.65 39:0.66666667 40:0.125 42:0.14285714 43:0.16666667 44:0.5 45:0.42857143 47:0.4 48:0.25 49:0.375 50:0.33333333 51:0.16666667 52:0.22222222 53:0.33333333 56:0.11111111 57:0.33333333 59:0.25 
-8 0:0.69410974 1:0.55841464 2:0.9010142 3:0.20906861 5:0.13671494 6:0.67894352 7:0.46945024 8:1 9:0.52960919 10:0.38071497 11:0.75892058 12:0.27287136 13:0.61075229 14:0.0217685 15:0.26838467 16:0.26298549 17:0.74418606 18:0.68047338 19:0.81111111 21:0.14367816 22:0.13529412 23:0.56862745 24:0.4875 25:0.91566265 26:0.50537635 27:0.39378127 28:0.73989041 29:0.30247612 30:0.45008153 31:0.012422358 32:0.2303207 33:0.23656246 34:0.45714286 35:0.49781458 36:0.2 38:0.4 39:0.25 40:0.125 41:0.25 42:0.28571429 44:0.16666667 45:0.28571429 47:0.2 49:0.625 52:0.11111111 53:0.16666667 54:0.33333333 55:0.71428571 56:0.22222222 
8 0:0.43627525 1:0.61190088 2:0.9010142 3:0.13683988 4:0.010026946 5:0.23926667 6:0.60357841 7:0.68492556 8:0.57466641 9:0.5144696 10:0.42962361 11:0.60845989 12:0.35634883 13:0.40184382 14:0.025722965 15:0.096038096 16:0.23877277 17:0.67197064 18:0.65443787 19:0.81111111 20:0.068965508 22:0.22058823 23:0.54117648 24:0.72083333 25:0.79518072 26:0.41935484 27:0.3762686 28:0.57480276 29:0.22878246 30:0.43145436 31:0.043478261 32:0.069970851 33:0.3268998 34:0.11428571 35:0.18922737 36:0.13333333 38:0.2 39:0.16666667 40:0.0625 42:0.14285714 43:0.083333333 44:0.33333333 47:0.2 48:0.25 49:0.125 50:0.33333333 52:0.11111111 56:0.22222222 
8 0:0.83185592 1:0.58472573 2:0.9010142 3:0.13683988 5:0.3461279 6:0.55085968 7:0.47572774 8:0.88988221 9:0.4376019 10:0.22015595 11:0.70766449 12:0.2273298 13:0.72069874 14:0.12100899 15:0.65490697 16:0.40773493 17:0.83598532 18:0.74032121 19:0.81111111 20:0.068965508 22:0.46470587 23:0.52549019 24:0.59583333 25:0.71084337 26:0.21505376 27:0.11944978 28:0.90489548 29:0.077537944 30:0.81571435 31:0.021739129 32:0.59766763 33:0.44258353 34:0.57142857 35:0.6493819 36:0.33333333 37:0.1 38:0.65 39:0.41666667 40:0.3125 42:0.28571429 43:0.16666667 44:0.5 45:0.57142857 46:0.16666667 48:0.25 49:0.375 52:0.11111111 53:0.16666667 56:0.11111111 57:0.44444444 
-4.414423106580073 0:0.39705621 1:0.30675133 2:0.9010142 3:0.13683988 4:0.027318459 5:0.286108 6:0.41181141 7:0.33052578 8:0.42794425 9:0.43871869 10:0.2872139 11:0.53471676 12:0.10739616 13:0.55773941 14:0.040615116 15:0.35535721 16:0.16120226 17:0.32068543 18:0.30387902 19:0.81111111 20:0.068965508 22:0.35882352 23:0.8117647 24:0.024999996 25:0.9638554 26:0.172043 27:0.10203001 28:0.68295312 29:0.087491326 30:0.62111787 31:0.0062111881 32:0.27696794 33:0.27496188 34:0.54285714 35:0.636468 36:0.8 37:0.7 38:0.25 39:0.16666667 42:0.71428571 43:0.16666667 44:0.16666667 45:0.28571429 47:0.2 48:0.75 49:0.125 51:0.5 52:0.22222222 55:0.14285714 56:0.22222222 57:0.44444444 
-8 0:0.5880732 1:0.73927338 2:0.9010142 3:0.13683988 4:0.19334296 5:0.2814375 6:0.85480971 7:0.45658775 8:1 9:0.55010025 10:0.56456935 11:0.72757292 12:0.55407257 13:0.52460285 14:0.0020409511 15:0.29845706 16:0.234656 17:0.6891065 18:0.67032967 19:0.81111111 20:0.068965508 21:0.2586207 22:0.29705882 23:0.65882353 24:0.3625 25:0.83132529 26:0.172043 27:0.36115731 28:0.71379354 29:0.55656187 30:0.55819069 31:0.0031055816 32:0.47813411 33:0.44392861 34:0.17142857 35:0.29055188 36:0.26666667 37:0.2 38:0.3 39:0.33333333 40:0.0625 42:0.14285714 43:0.16666667 44:0.16666667 47:0.4 48:0.5 49:0.375 56:0.11111111 58:0.33333333 
-8 0:0.69787793 1:0.47115978 2:0.9010142 3:0.13683988 5:0.19050188 6:0.63014595 7:0.35307875 8:1 9:0.43871869 10:0.30726173 11:0.69347814 12:0.15388422 13:0.65512768 14:0.0027596679 15:0.61147071 16:0.24529526 17:0.58261934 18:0.53278106 19:0.81111111 20:0.068965508 22:0.30294117 23:0.4627451 24:0.2125 25:0.87951805 26:0.21505376 27:0.23298459 28:0.69593964 29:0.094266369 30:0.65512775 31:0.021739122 32:0.42565598 33:0.22909181 34:0.62857143 35:0.75799117 36:0.4 37:0.1 38:0.55 39:0.5 40:0.125 42:0.28571429 43:0.16666667 44:0.33333333 45:0.28571429 46:0.16666667 47:0.2 48:0.25 49:0.375 50:0.33333333 51:0.16666667 52:0.33333333 53:0.16666667 55:0.42857143 56:0.11111111 57:0.22222222 58:0.33333333 59:0.25 
-8 0:0.47457646 1:0.53051069 2:0.9010142 3:0.13683988 4:0.068498017 5:0.37912735 6:0.53749815 7:0.51464333 8:0.57466641 9:0.63495429 10:0.43860879 11:0.43188079 12:0.14562837 13:0.2251494 14:0.10077501 15:0.31702534 16:0.19726166 17:0.57772339 18:0.49585798 19:0.81111111 20:0.068965508 21:0.1091954 22:0.52058823 23:0.43921569 24:0.36249999 25:0.79518072 26:0.21505376 27:0.16922052 28:0.56668875 29:0.33784514 30:0.56600517 31:0.01242236 32:0.36734695 33:0.65851352 34:0.22857143 35:0.32410596 36:0.4 37:0.2 38:0.25 39:0.083333333 40:0.0625 42:0.14285714 43:0.33333333 44:0.16666667 47:0.2 48:0.25 49:0.125 50:0.33333333 51:0.16666667 52:0.11111111 56:0.11111111 57:0.22222222 
-8 0:0.57142994 1:0.6103668 2:0.9010142 3:0.13683988 5:0.033581327 6:0.51478166 7:0.43726004 8:0.88988221 9:0.46753164 10:0.39924068 11:0.61170199 12:0.066953723 13:0.42278205 14:0.048587143 15:0.37863252 16:0.27474067 17:0.69155448 18:0.65541246 19:0.81111111 20:0.068965508 22:0.052941176 23:0.59215687 24:0.45416667 25:0.87951805 26:0.172043 27:0.29862446 28:0.70442012 29:0.18982174 30:0.43069737 31:0.14906832 32:0.39650145 33:0.20993743 34:0.25714286 35:0.31322296 36:0.26666667 37:0.2 38:0.4 39:0.41666667 40:0.25 42:0.14285714 44:0.16666667 45:0.14285714 48:0.25 49:0.375 51:0.33333333 53:0.16666667 56:0.11111111 57:0.11111111 59:0.25 
-8 0:0.45268233 1:0.5053982 2:0.9010142 3:0.20906861 4:0.13347858 5:0.13703743 6:0.29981155 7:0.54345704 8:0.88988221 9:0.34426167 10:0.43372638 11:0.5607823 12:0.14515058 13:0.4235077 14:0.060219312 15:0.40831017 16:0.37278938 17:0.63157896 18:0.57396449 19:0.81111111 21:0.2586207 22:0.25588235 23:0.38823529 24:0.45 25:0.87951805 26:0.24731182 27:0.28072558 28:0.65850022 29:0.18881443 30:0.40621366 31:0.28881987 32:0.68221575 33:0.58823056 34:0.22857143 35:0.3393819 36:0.26666667 38:0.25 39:0.25 40:0.0625 42:0.14285714 43:0.083333333 44:0.16666667 46:0.16666667 47:0.2 49:0.25 51:0.16666667 52:0.11111111 53:0.16666667 54:0.33333333 56:0.22222222 57:0.22222222 
-0.8511587242776268 0:0.63788587 1:0.99383114 2:0.9010142 3:0.20906861 4:0.13347858 6:0.89477717 7:0.88893724 8:1 9:0.66840801 10:0.64014443 11:0.8826186 12:1 13:0.77929285 14:0.23443296 15:0.19516113 16:0.45900671 17:0.79926562 18:0.93093061 19:0.81111111 21:0.2586207 23:0.69019608 24:0.97916667 25:0.91566265 26:0.41935484 27:0.57188444 28:0.80226285 29:0.68655885 30:0.62025749 31:0.11490683 32:0.10495627 33:0.43539985 34:0.085714286 35:0.21154525 36:0.066666667 38:0.25 39:0.33333333 44:0.33333333 47:0.2 49:0.5 52:0.22222222 53:0.16666667 54:0.33333333 
8 0:0.52697255 1:0.47632451 2:0.9010142 3:0.13683988 4:0.21407776 5:0.34110681 6:0.5338735 7:0.3156927 8:0.52250387 9:0.32414635 10:0.1334475 11:0.62679395 12:0.47619472 13:0.79844543 14:0.013314525 15:0.6554467 16:0.53553632 17:0.74908202 18:0.70211327 19:0.81111111 20:0.068965508 21:0.16091954 22:0.35588236 23:0.63137256 24:0.50833333 25:1 26:0.21505376 27:0.25960641 28:0.79325588 29:0.26202498 30:0.78702041 31:0.0093167642 32:0.30612245 33:0.48670985 34:0.37142857 35:0.48918322 36:0.26666667 37:0.1 38:0.45 39:0.41666667 40:0.125 41:0.25 42:0.14285714 43:0.16666667 44:0.33333333 45:0.14285714 46:0.33333333 47:0.6 48:0.25 49:0.25 51:0.16666667 52:0.11111111 56:0.11111111 57:0.11111111 
1.510752718413093 0:0.6053601 1:0.81203545 2:0.9010142 3:0.13683988 4:0.25735172 5:0.37677409 6:0.86000651 7:0.66147838 8:0.6847842 9:0.66840801 10:0.61787341 11:0.87853086 12:0.64804162 13:0.57734906 14:0.29527047 15:0.76170445 16:0.55826535 17:0.71970626 18:0.73290851 19:0.81111111 20:0.068965508 21:0.21839081 22:0.33529412 23:0.65490197 24:0.66666666 25:0.91566265 26:0.41935484 27:0.30143242 28:0.79402497 29:0.65322303 30:0.65868744 31:0.32608696 32:0.65597668 33:0.56490416 34:0.14285714 35:0.24428256 36:0.2 38:0.25 39:0.25 40:0.0625 42:0.28571429 44:0.16666667 47:0.2 48:0.25 49:0.5 52:0.11111111 53:0.16666667 56:0.11111111 
0.1662315646825922 0:0.7004146 1:0.48519764 2:0.9010142 3:0.20906861 5:0.18921592 6:0.37722076 7:0.52730889 8:0.40931256 9:0.53465417 10:0.50566778 11:0.57684949 12:0.043921073 13:0.23400212 14:0.043604777 15:0.87100273 16:0.32404573 17:0.77111384 18:0.68243216 19:0.81111111 22:0.37058822 23:0.5490196 24:0.47916666 25:0.48192771 26:0.21505376 27:0.46185747 28:0.78264112 29:0.075987009 30:0.31510438 31:0.0031055779 32:1 33:0.62760493 34:0.6 35:0.75759382 36:0.33333333 37:0.1 38:0.5 39:0.083333333 42:0.14285714 43:0.083333333 44:0.5 45:0.42857143 47:0.6 49:0.125 50:0.33333333 51:0.33333333 52:0.44444444 53:0.16666667 54:0.33333333 55:0.28571429 56:0.22222222 57:0.44444444 
-2.610675322350795 0:0.43539736 1:0.53913779 2:0.9010142 3:0.13683988 4:0.010026946 5:0.2970907 6:0.54587426 7:0.4645288 8:0.56815701 9:0.5144696 10:0.54417896 11:0.66771016 12:0.19185679 13:0.29628397 14:0.15301702 15:0.3215772 16:0.10980414 17:0.69277847 18:0.67641589 19:0.81111111 20:0.068965508 22:0.44705882 23:0.49019608 24:0.55416667 25:1 26:0.41935484 27:0.63457699 28:0.80155312 29:0.18732856 30:0.38326648 31:0.01552795 32:0.22740525 33:0.41202804 34:0.17142857 35:0.23532009 36:0.2 38:0.25 39:0.25 40:0.0625 42:0.28571429 43:0.083333333 44:0.33333333 45:0.14285714 47:0.4 48:0.25 50:0.33333333 52:0.11111111 56:0.11111111 57:0.11111111 
8 0:0.75793412 1:0.60721886 2:0.9010142 3:0.13683988 4:0.21407776 5:0.34636979 6:0.56095412 7:0.44307996 8:0.88988221 9:0.69818746 10:0.44654297 11:0.71312631 12:0.25498901 13:0.53727019 14:0.051378445 15:0.73937181 16:0.31482377 17:0.66217871 18:0.60118343 19:0.81111111 20:0.068965508 21:0.16091954 22:0.42941177 23:0.5882353 24:0.3875 25:0.75903612 26:0.21505376 27:0.19161736 28:0.70273489 29:0.17695799 30:0.70801712 31:0.034161494 32:0.79300292 33:0.47934016 34:0.45714286 35:0.6185872 36:0.46666667 37:0.4 38:0.4 39:0.25 40:0.0625 42:0.42857143 43:0.16666667 44:0.33333333 47:0.6 48:0.25 49:0.375 51:0.33333333 52:0.11111111 55:0.14285714 56:0.44444444 57:0.11111111 
-1.303575800793426 0:0.36892162 1:0.64165515 2:0.9010142 3:0.20906861 4:0.13347858 5:0.16017023 6:0.50999178 7:0.54825451 8:0.56815701 9:0.82880152 10:0.71734671 11:0.3810726 12:0.61331802 13:0.4600274 14:0.39101443 15:0.32869407 16:0.32816471 17:0.65483478 18:0.63944773 19:0.81111111 21:0.2586207 22:0.11176471 23:0.42352941 24:0.45 25:0.75903612 26:0.21505376 27:0.6428615 28:0.32627833 29:0.47018006 30:0.42095376 31:0.48757764 32:0.4548105 33:0.5634746 34:0.028571429 35:0.080507725 36:0.13333333 37:0.1 38:0.1 39:0.083333333 43:0.16666667 44:0.16666667 47:0.2 49:0.125 54:0.33333333 55:0.14285714 56:0.11111111 57:0.11111111 
-7.474336484281726 0:0.53658437 1:0.40158884 2:0.9010142 3:0.20906861 4:0.24662367 5:0.40910623 6:0.5230263 7:0.29431601 8:0.54966293 9:0.31544872 10:0.3052023 11:0.42731335 12:0.1513226 13:0.44463771 14:0.012013573 15:0.62240986 16:0.30230198 17:0.35006121 18:0.32912558 19:0.81111111 21:0.16091954 22:0.34705882 23:0.44705882 24:0.27083333 25:0.9638554 26:0.10752688 27:0.17700555 28:0.43446999 29:0.039490812 30:0.42319405 31:0.037267085 32:0.81049563 33:0.43720911 34:0.54285714 35:0.62830022 36:0.66666667 37:0.2 38:0.3 39:0.16666667 42:0.42857143 43:0.33333333 44:0.33333333 45:0.42857143 46:0.16666667 47:0.4 48:0.25 49:0.25 52:0.11111111 53:0.33333333 54:0.33333333 55:0.14285714 56:0.22222222 57:0.11111111 58:0.33333333 
0.5987054084405216 0:0.32927773 1:0.40003053 2:0.3501742 3:0.20906861 4:0.032545914 5:0.0890715 6:0.3192454 7:0.47214249 8:0.56815701 9:0.62593794 10:0.39692518 11:0.36084556 12:0.070748496 13:0.23730945 14:0.046081894 15:0.12401709 16:0.14737593 17:0.67931458 18:0.65409975 19:0.45555555 22:0.13235294 23:0.54117648 24:0.5875 25:0.75903615 26:0.10752688 27:0.25013138 28:0.56047428 29:0.084412492 30:0.46565902 31:0.0093167697 32:0.14868805 33:0.21363435 34:0.17142857 35:0.1899117 36:0.13333333 37:0.1 38:0.25 39:0.25 40:0.0625 41:0.25 42:0.14285714 43:0.083333333 44:0.16666667 45:0.28571429 47:0.4 52:0.11111111 54:0.33333333 55:0.14285714 57:0.11111111 59:0.25 
8 0:0.25678454 1:0.30500261 2:0.3501742 3:0.13683988 5:0.25475262 6:0.32306743 7:0.41552776 8:0.36305901 9:0.4695881 10:0.48181217 11:0.34902332 12:0.020753747 13:0.05543766 14:0.069674906 15:0.1125258 16:0.079985385 17:0.5385557 18:0.42079459 19:0.45555555 20:0.068965508 22:0.5117647 23:0.52156862 24:0.25 25:0.9638554 26:0.21505376 27:0.34366499 28:0.55469585 29:0.34315178 30:0.3836704 31:0.04658385 32:0.15451896 33:0.54234169 34:0.17142857 35:0.18194261 36:0.33333333 37:0.2 38:0.1 39:0.083333333 42:0.42857143 43:0.083333333 45:0.28571429 47:0.4 48:0.25 51:0.16666667 52:0.11111111 55:0.14285714 57:0.22222222 
8 0:0.52356907 1:0.58670505 2:0.3501742 3:0.13683988 4:0.13092053 5:0.39815093 6:0.55414896 7:0.61348216 8:0.6782748 9:0.39119962 10:0.35011844 11:0.73452521 12:0.75915867 13:0.82315544 14:0.017993553 15:0.2228444 16:0.58144293 17:0.71236231 18:0.69112425 19:0.45555555 20:0.068965508 21:0.2413793 22:0.4 23:0.48235293 24:0.7375 25:0.87951805 26:0.51612904 27:0.48338895 28:0.86701214 29:0.4802065 30:0.81228706 31:0.074534159 32:0.13702624 33:0.61417892 34:0.22857143 35:0.30688742 36:0.2 38:0.25 39:0.16666667 42:0.28571429 43:0.083333333 44:0.16666667 45:0.28571429 46:0.16666667 48:0.25 49:0.375 56:0.22222222 57:0.33333333 
-8 0:0.35431593 1:0.43285193 2:0.3501742 3:0.20906861 4:0.010026946 5:0.18998007 6:0.39843093 7:0.49829705 8:0.52250387 9:0.31544872 10:0.32736317 11:0.63380255 12:0.48527596 13:0.658144 14:0.33085833 15:0.43444028 16:0.37001636 17:0.58139536 18:0.49180051 19:0.45555555 22:0.22352941 23:0.45490196 24:0.4875 25:0.59036144 26:0.24731182 27:0.29394071 28:0.55771796 29:0.18133486 30:0.39913639 31:0.21428571 32:0.39067055 33:0.33844064 34:0.17142857 35:0.18207506 36:0.2 38:0.2 39:0.25 40:0.0625 42:0.14285714 43:0.083333333 44:0.16666667 45:0.28571429 46:0.16666667 49:0.25 50:0.66666667 53:0.16666667 54:0.33333333 56:0.11111111 
8 0:0.66841855 1:0.50583453 2:0.3501742 3:0.20906861 4:0.25735172 5:0.12451048 6:0.50770446 7:0.28053476 8:1 9:0.31544872 10:0.35861805 11:0.61028177 12:0.1934965 13:0.49824663 14:0.012194154 15:0.36466025 16:0.39202449 17:0.70379438 18:0.63568503 19:0.45555555 21:0.21839081 22:0.052941176 23:0.60000001 24:0.47083333 25:0.91566265 26:0.21505376 27:0.38213712 28:0.64602213 29:0.046886407 30:0.4761103 31:0.006211177 32:0.25364431 33:0.2874792 34:0.51428571 35:0.60653422 36:0.26666667 37:0.2 38:0.6 39:0.66666667 40:0.25 41:0.25 43:0.25 45:0.28571429 46:0.33333333 47:0.2 49:0.625 52:0.11111111 53:0.16666667 54:0.33333333 55:0.28571429 57:0.11111111 58:0.33333333 59:0.25 
-5.178416048701153 0:0.51860057 1:0.58100619 2:0.3501742 3:0.20906861 4:0.05141 5:0.16219 6:0.76581599 7:0.53992211 8:1 9:0.66480903 10:0.48252619 11:0.69780873 12:0.39314538 13:0.50762071 14:0.33063504 15:0.50483061 16:0.25296892 17:0.65483478 18:0.60769231 19:0.45555555 22:0.31764706 23:0.6509804 24:0.38333333 25:0.91566265 26:0.21505376 27:0.32161369 28:0.78174819 29:0.13825004 30:0.68011597 31:0.42546584 32:0.70262391 33:0.56884346 34:0.22857143 35:0.32399559 36:0.26666667 37:0.1 38:0.3 39:0.25 40:0.0625 42:0.28571429 44:0.16666667 45:0.14285714 47:0.6 49:0.25 52:0.22222222 53:0.33333333 54:0.33333333 59:0.25 
-8 0:0.30330274 1:0.36598114 2:0.3501742 3:0.13683988 5:0.06242145 6:0.43587578 7:0.41141694 8:0.6847842 9:0.43871869 10:0.31891245 11:0.37880447 12:0.11771906 13:0.28348695 14:0.023116797 15:0.13009163 16:0.099897477 17:0.6523868 18:0.60946746 19:0.45555555 20:0.068965508 22:0.052941176 23:0.61960785 24:0.4 25:0.91566265 26:0.21505376 27:0.26627348 28:0.54870589 29:0.15018032 30:0.49315105 31:0.037267077 32:0.15451895 33:0.11729714 34:0.17142857 35:0.14350994 36:0.13333333 37:0.1 38:0.15 39:0.25 40:0.125 42:0.14285714 43:0.083333333 45:0.42857143 47:0.4 48:0.25 49:0.125 55:0.14285714 56:0.22222222 
8 0:0.83863114 1:0.46323175 2:0.3501742 3:0.13683988 4:0.13092053 5:0.28318035 6:0.39565723 7:0.42322856 8:0.6847842 9:0.32414635 10:0.26117585 11:0.56865829 12:0.13016727 13:0.50827641 14:0.0014591994 15:0.8189997 16:0.25176946 17:0.7001224 18:0.61170975 19:0.45555555 20:0.068965508 21:0.2413793 22:0.21764706 23:0.50196079 24:0.25 25:0.9277108 26:0.21505376 27:0.37700033 28:0.63788492 29:0.013109525 30:0.49365879 31:0.015527955 32:0.65306123 33:0.30866052 34:0.85714286 35:0.99114791 36:0.53333333 37:0.2 38:0.7 39:0.58333333 40:0.1875 42:0.57142857 43:0.083333333 44:0.5 45:0.28571429 46:0.16666667 47:0.6 48:0.25 49:0.25 51:0.33333333 52:0.11111111 53:0.16666667 55:0.85714286 56:0.33333333 57:0.44444444 59:0.25 
8 0:0.49583729 1:0.58451559 2:0.3501742 3:0.20906861 5:0.25135749 6:0.51096443 7:0.65199906 8:0.52250387 9:0.53259771 10:0.38668986 11:0.6004552 12:0.47443641 13:0.54110486 14:0.072103168 15:0.33089469 16:0.22989891 17:0.74051409 18:0.74295858 19:0.45555555 22:0.36764706 23:0.60784314 24:0.525 25:0.9638554 26:0.10752688 27:0.11490538 28:0.88267751 29:0.66498131 30:0.77407016 31:0.015527957 32:0.12536444 33:0.41298405 34:0.2 35:0.24684327 36:0.2 37:0.1 38:0.3 39:0.33333333 40:0.1875 43:0.16666667 45:0.14285714 47:0.4 49:0.25 53:0.16666667 54:0.33333333 55:0.14285714 56:0.11111111 57:0.11111111 
8 0:0.51958343 1:0.48782977 2:0.3501742 3:0.13683988 4:0.027318459 5:0.25012512 6:0.46135359 7:0.49689335 8:0.56815701 9:0.55010025 10:0.50270781 11:0.5099762 12:0.14806498 13:0.19515673 14:0.002243056 15:0.24395755 16:0.22325905 17:0.71358629 18:0.6676923 19:0.45555555 20:0.068965508 22:0.35882352 23:0.81176469 24:0.41666666 25:0.9277108 26:0.172043 27:0.494281 28:0.74157563 29:0.13939827 30:0.35140487 31:0.065217396 32:0.3819242 33:0.41570739 34:0.34285714 35:0.39315673 36:0.4 37:0.3 38:0.4 39:0.41666667 40:0.0625 42:0.42857143 44:0.16666667 45:0.42857143 48:0.25 49:0.125 50:0.66666667 51:0.5 57:0.55555556 
8 0:0.52345617 1:0.47325154 2:0.3501742 3:0.13683988 4:0.069705841 5:0.34106447 6:0.7230298 7:0.50470623 8:1 9:0.62243656 10:0.41184534 11:0.64650861 12:0.10625367 13:0.39497705 14:0.0013100673 15:0.18511679 16:0.066380594 17:0.45287639 18:0.37480981 19:0.45555555 20:0.068965508 21:0.10344828 22:0.42058823 23:0.67058824 24:0.275 25:0.87951805 26:0.21505376 27:0.23175338 28:0.63668999 29:0.099673952 30:0.4955302 31:0.096273294 32:0.46355685 33:0.26534041 34:0.37142857 35:0.44602649 36:0.53333333 37:0.4 38:0.35 39:0.41666667 40:0.1875 42:0.28571429 43:0.25 45:0.14285714 47:0.2 48:0.25 49:0.25 51:0.16666667 53:0.33333333 56:0.22222222 57:0.11111111 58:0.33333333 59:0.25 
0.7404855195838927 0:0.50752936 1:0.44348224 2:0.3501742 3:0.20906861 5:0.35384058 6:0.55113217 7:0.41149406 8:0.88988221 9:0.53465417 10:0.27806143 11:0.62205822 12:0.25564021 13:0.39064741 14:0.001900988 15:0.27997316 16:0.166575 17:0.51652388 18:0.45067241 19:0.45555555 22:0.37941177 23:0.42745098 24:0.3 25:0.87951805 26:0.21505376 27:0.12723481 28:0.61964648 29:0.29564389 30:0.52326026 31:0.04658385 32:0.47230321 33:0.42867349 34:0.4 35:0.49242826 36:0.4 37:0.1 38:0.3 39:0.25 40:0.0625 42:0.28571429 43:0.083333333 44:0.16666667 45:0.28571429 47:0.4 49:0.25 51:0.33333333 52:0.44444444 53:0.16666667 54:0.33333333 55:0.14285714 57:0.11111111 58:0.33333333 
8 0:0.33339312 1:0.33991177 2:0.3501742 3:0.13683988 5:0.064304336 6:0.54271831 7:0.38119886 8:0.88988221 9:0.42683028 10:0.30878224 11:0.46540559 12:0.26182003 13:0.45393895 14:0.040991263 15:0.29185151 16:0.2640851 17:0.58629132 18:0.5147929 19:0.45555555 20:0.068965508 22:0.13235294 23:0.61176471 24:0.35416667 25:0.9638554 26:0.172043 27:0.26908143 28:0.59716269 29:0.1941698 30:0.51136552 31:0.062111793 32:0.39067055 33:0.22789242 34:0.28571429 35:0.35604857 36:0.2 37:0.1 38:0.25 39:0.25 40:0.0625 42:0.14285714 44:0.16666667 45:0.28571429 46:0.16666667 47:0.4 48:0.25 49:0.125 51:0.16666667 52:0.33333333 53:0.16666667 55:0.14285714 57:0.11111111 58:0.33333333 
8 0:0.22988281 1:0.20747261 2:0.3501742 3:0.13683988 4:0.05141 5:0.033581327 6:0.24917044 7:0.31731489 8:0.41238607 9:0.51417314 10:0.27571921 11:0.45950944 12:0.059306575 13:0.4537766 14:0.13901561 15:0.56819615 16:0.190229 17:0.40514077 18:0.34334963 19:0.45555555 20:0.068965508 22:0.052941176 23:0.45882352 24:0.2875 25:0.6746988 26:0.21505376 27:0.15684465 28:0.51110644 29:0.070936571 30:0.4292956 31:0.0093167716 32:0.58892128 33:0.279446 34:0.42857143 35:0.40011038 36:0.46666667 37:0.2 38:0.3 39:0.33333333 40:0.25 42:0.14285714 43:0.083333333 44:0.16666667 45:0.57142857 46:0.16666667 47:0.2 48:0.25 51:0.5 52:0.11111111 53:0.33333333 56:0.11111111 57:0.11111111 59:0.25 
-7.961903135270743 0:0.40152244 1:0.44671799 2:0.3501742 3:0.13683988 4:0.069705841 5:0.12398118 6:0.28533971 7:0.59236215 8:0.52250387 9:0.63744312 10:0.39080152 11:0.52561229 12:0.41888294 13:0.54540371 14:0.087204785 15:0.22720284 16:0.33151025 17:0.57405142 18:0.49053254 19:0.45555555 20:0.068965508 21:0.10344828 22:0.11176471 23:0.50588235 24:0.34583333 25:0.6385542 26:0.21505376 27:0.2674118 28:0.74201957 29:0.57181031 30:0.70359344 31:0.062111795 32:0.43440233 33:0.46631038 34:0.22857143 35:0.25682119 36:0.33333333 37:0.2 38:0.25 39:0.25 40:0.125 43:0.083333333 45:0.28571429 48:0.25 49:0.25 51:0.33333333 53:0.33333333 55:0.14285714 57:0.22222222 58:0.33333333 
8 0:0.60019883 1:0.4448277 2:0.3501742 3:0.20906861 4:0.010026946 5:0.32760817 6:0.43968299 7:0.40351038 8:0.88988221 9:0.47647298 10:0.3875072 11:0.50808111 12:0.0707251 13:0.46070675 14:0.039843304 15:0.46213245 16:0.39114763 17:0.48102816 18:0.44168311 19:0.45555555 22:0.32647059 23:0.40784314 24:0.425 25:0.71084337 26:0.21505376 27:0.2466846 28:0.63549506 29:0.1654329 30:0.54868374 31:0.006211177 32:0.53061225 33:0.39378063 34:0.54285714 35:0.64794702 36:0.53333333 37:0.4 38:0.4 39:0.33333333 40:0.0625 41:0.25 42:0.14285714 43:0.33333333 44:0.16666667 45:0.28571429 46:0.16666667 47:0.4 49:0.5 51:0.33333333 52:0.22222222 53:0.16666667 54:0.33333333 55:0.14285714 56:0.22222222 59:0.25 
-8 0:0.35910063 1:0.43912398 2:0.3501742 3:0.13683988 4:0.069705841 5:0.024767164 6:0.67227691 7:0.3518844 8:1 9:0.4376019 10:0.26581466 11:0.56401534 12:0.25186694 13:0.57599447 14:0.18727715 15:0.24228425 16:0.21226841 17:0.65973073 18:0.62163989 19:0.45555555 20:0.068965508 21:0.10344828 23:0.65098039 24:0.275 25:0.87951805 26:0.24731182 27:0.33677143 28:0.72353342 29:0.14565735 30:0.51876811 31:0.031055902 32:0.13702624 33:0.15131593 34:0.17142857 35:0.19830022 36:0.13333333 38:0.25 39:0.41666667 40:0.125 42:0.14285714 43:0.083333333 45:0.28571429 46:0.16666667 48:0.25 49:0.25 56:0.11111111 57:0.22222222 59:0.25 
-0.2535803718366564 0:0.25325719 1:0.24344956 2:0.3501742 3:0.13683988 4:0.027318459 5:0.13580506 6:0.35843266 7:0.29364336 8:0.35654961 9:0.31544872 10:0.25607216 11:0.45545006 12:0.3197088 13:0.55177188 14:0.0023526117 15:0.20849346 16:0.16389903 17:0.51529989 18:0.43763313 19:0.45555555 20:0.068965508 22:0.24705882 23:0.69019607 24:0.37916667 25:0.9277108 26:0.172043 27:0.15577313 28:0.64535367 29:0.10892886 30:0.41104709 31:9.2553792e-10 32:0.31486881 33:0.15103421 34:0.34285714 35:0.38392937 36:0.33333333 37:0.3 38:0.25 39:0.33333333 41:0.5 42:0.57142857 44:0.16666667 45:0.28571429 46:0.16666667 48:0.25 51:0.16666667 56:0.44444444 57:0.33333333 59:0.25 
6.421975632896996 0:0.14497911 1:0.15525362 2:0.3501742 3:0.20906861 5:0.033581327 6:0.014051332 7:0.20248212 8:0.20077867 9:0.32414635 10:0.23854084 11:0.27083639 12:0.24907968 13:0.28079792 14:0.022240443 15:0.18349986 16:0.15919217 17:0.52998777 18:0.4172781 19:0.45555555 22:0.052941176 23:0.34117647 24:0.2375 25:0.6385542 26:0.39784946 27:0.23764224 28:0.54939752 29:0.22036064 30:0.46793919 31:0.13043478 32:0.3819242 33:0.40531322 34:0.2 35:0.16399559 36:0.2 38:0.1 39:0.083333333 40:0.0625 42:0.14285714 43:0.083333333 45:0.42857143 46:0.16666667 47:0.2 51:0.16666667 52:0.11111111 54:0.33333333 55:0.28571429 57:0.22222222 
-4.209424215835069 0:0.28526327 1:0.3601586 2:0.3501742 3:0.13683988 4:0.064663864 5:0.2264042 6:0.29472699 7:0.43847945 8:0.36305901 9:0.5144696 10:0.49181237 11:0.43255353 12:0.23656605 13:0.33986744 14:0.081662656 15:0.08803985 16:0.19369778 17:0.52998777 18:0.3942649 19:0.45555555 20:0.068965508 22:0.20588235 23:0.63137255 24:0.024999996 25:0.9638554 26:0.172043 27:0.3980934 28:0.47505028 29:0.36449226 30:0.51396238 31:0.009316766 32:0.04664722 33:0.29025082 34:0.14285714 35:0.19169978 36:0.33333333 37:0.4 38:0.1 39:0.083333333 42:0.28571429 43:0.16666667 44:0.16666667 45:0.14285714 47:0.2 48:0.5 56:0.22222222 57:0.22222222 
-8 0:0.4554739 1:0.38747414 2:0.3501742 3:0.20906861 4:0.069705841 5:0.27428411 6:0.41897465 7:0.39664784 8:0.41464213 9:0.65971038 10:0.39295651 11:0.50156697 12:0.18641142 13:0.37615688 14:0.041662743 15:0.40666016 16:0.24014749 17:0.60587516 18:0.54587085 19:0.45555555 21:0.10344828 22:0.22352941 23:0.58039215 24:0.40416667 25:0.9277108 26:0.21505376 27:0.12723481 28:0.74709337 29:0.41917178 30:0.58127283 31:0.040372671 32:0.37317785 33:0.36980429 34:0.42857143 35:0.42483444 36:0.33333333 37:0.1 38:0.3 39:0.16666667 40:0.125 42:0.28571429 43:0.083333333 45:0.71428571 47:0.2 49:0.25 50:0.33333333 51:0.16666667 52:0.11111111 53:0.16666667 54:0.33333333 56:0.33333333 57:0.22222222 
6.151946461162444 0:0.40114477 1:0.4462848 2:0.3501742 3:0.20906861 5:0.10313361 6:0.37819341 7:0.55076321 8:0.30452433 9:0.53465417 10:0.47567104 11:0.56361118 12:0.20384456 13:0.34584911 14:0.53443857 15:0.64389913 16:0.31947403 17:0.63402694 18:0.57751479 19:0.45555555 22:0.082352941 23:0.57647059 24:0.4875 25:0.68674699 26:0.39784946 27:0.57110624 28:0.56920245 29:0.077966143 30:0.12775983 31:0.4689441 32:0.71428571 33:0.34831954 34:0.22857143 35:0.27523179 36:0.13333333 38:0.25 39:0.16666667 40:0.0625 42:0.14285714 44:0.16666667 45:0.14285714 47:0.2 49:0.125 50:0.33333333 51:0.16666667 52:0.22222222 54:0.33333333 55:0.42857143 57:0.11111111 58:0.33333333 
8 0:0.60383114 1:0.56513523 3:0.13683988 4:0.13347858 5:0.19114383 6:0.76839288 7:0.41608119 8:1 9:0.51417314 10:0.44939624 11:0.83508706 12:0.49821596 13:0.66771588 14:0.012712659 15:0.33532751 16:0.28456084 17:0.78335374 18:0.74863905 19:0.14444444 20:0.068965508 21:0.2586207 22:0.21764706 23:0.80392157 24:0.50416667 25:0.87951805 26:0.51612904 27:0.50174662 28:0.83543884 29:0.18387712 30:0.50235294 31:0.093167703 32:0.50145773 33:0.33107129 34:0.34285714 35:0.41576159 36:0.2 38:0.45 39:0.5 40:0.25 42:0.14285714 43:0.083333333 45:0.14285714 46:0.16666667 47:0.2 48:0.25 49:0.5 50:0.33333333 51:0.16666667 55:0.14285714 56:0.22222222 57:0.11111111 
2.747419308788205 0:0.25930836 1:0.23095157 3:0.20906861 4:0.054636918 5:0.29368897 6:0.13757012 7:0.3210255 8:0.30452433 9:0.50378476 10:0.064771304 11:0.41369689 12:0.094446939 13:0.54767059 14:0.073160541 15:0.44004296 16:0.2758703 17:0.39045288 18:0.328531 19:0.14444444 22:0.39117647 23:0.45490197 24:0.1375 25:0.6746988 26:0.172043 27:0.19839769 28:0.58784863 29:0.06977217 30:0.46953828 31:0.46583851 32:0.72011662 33:0.4534579 34:0.42857143 35:0.4478808 36:0.46666667 37:0.2 38:0.35 39:0.33333333 40:0.1875 42:0.57142857 43:0.083333333 44:0.16666667 45:0.28571429 46:0.33333333 47:0.4 48:0.25 51:0.16666667 54:0.33333333 55:0.14285714 56:0.11111111 57:0.11111111 59:0.5 
-2.346025360685677 0:0.5131 1:0.52313236 3:0.13683988 6:0.458799 7:0.55328078 8:0.88988221 9:0.31544872 10:0.3737237 11:0.76698817 12:0.60248893 13:0.85671101 14:0.011045613 15:0.34210673 16:0.51074389 17:0.75397798 18:0.73096647 19:0.14444444 20:0.068965508 23:0.44705883 24:0.75 25:0.87951805 26:0.46236558 27:0.38781983 28:0.7060047 29:0.33852471 30:0.5245572 31:0.086956518 32:0.43440233 33:0.39231434 34:0.28571429 35:0.36803532 36:0.066666667 38:0.4 39:0.41666667 40:0.125 44:0.5 45:0.28571429 46:0.33333333 47:0.2 48:0.25 49:0.25 52:0.11111111 53:0.16666667 55:0.14285714 57:0.11111111 58:0.33333333 
2.383684463800421 0:0.20337929 1:0.28474874 3:0.13683988 4:0.069705841 5:0.12737631 6:0.20093065 7:0.5092367 8:0.20728807 9:0.51417314 10:0.4825482 11:0.22822284 12:0.084679717 13:0.023555173 14:0.18575722 15:0.15365039 16:0.1892287 17:0.68176256 18:0.69467455 19:0.14444444 20:0.068965508 21:0.10344828 22:0.25588235 23:0.51372549 24:0.79999999 25:0.6746988 26:0.74193547 27:0.70226698 28:0.56425249 29:0.19192475 30:0.16465634 31:0.42546584 32:0.39650146 33:0.49940935 34:0.057142857 35:0.055540841 36:0.066666667 38:0.2 39:0.25 40:0.25 42:0.14285714 46:0.16666667 47:0.2 48:0.25 55:0.14285714 57:0.11111111 
7.604350960306636 0:0.54214625 1:0.50853335 3:0.13683988 4:0.25735172 6:0.654285 7:0.56470311 8:1 9:0.34127314 10:0.53969276 11:0.65217952 12:0.15184383 13:0.57167418 14:0.0022510328 15:0.44801069 16:0.33691718 17:0.84332927 18:0.81822485 19:0.14444444 20:0.068965508 21:0.21839081 23:0.68235295 24:0.84999999 25:1 26:0.79569893 27:0.71005201 28:0.80366419 29:0.10715712 30:0.52636719 31:0.024844718 32:0.27696793 33:0.3833535 34:0.34285714 35:0.41108168 36:0.13333333 38:0.45 39:0.5 40:0.1875 41:0.25 44:0.16666667 45:0.14285714 46:0.16666667 47:0.4 48:0.25 49:0.375 51:0.16666667 53:0.16666667 55:0.42857143 56:0.11111111 57:0.11111111 
6.779389209845996 3:0.20906861 4:0.14094747 6:0.045369089 8:0.16697665 9:0.32414635 10:0.09214394 11:0.1975264 12:0.18915133 13:0.26846159 14:0.040894521 15:0.38911579 16:0.37365341 17:0.44308446 18:0.33017751 19:0.14444444 21:0.2413793 23:0.26274509 24:0.27916666 25:0.37349397 26:0.37634408 27:0.26230111 28:0.41807683 29:0.050099911 30:0.30813969 31:0.03726709 32:0.32944607 33:0.29056385 34:0.28571429 35:0.33317881 36:0.066666667 38:0.15 39:0.083333333 40:0.0625 44:0.16666667 45:0.28571429 46:0.5 48:0.25 52:0.44444444 54:0.33333333 55:0.14285714 56:0.11111111 57:0.22222222 59:0.25 
-4.28960185458337 0:0.33903818 1:0.33329602 3:0.13683988 4:0.18233053 5:0.27951978 6:0.34716012 7:0.37338674 8:0.57466641 9:0.50378476 10:0.31330273 11:0.49798854 12:0.15861486 13:0.43811613 14:0.0086936358 15:0.35071296 16:0.2549251 17:0.59363526 18:0.52650264 19:0.14444444 20:0.068965508 21:0.2413793 22:0.5117647 23:0.54901961 24:0.20416667 25:0.9638554 26:0.34408603 27:0.24387664 28:0.76837714 29:0.17152179 30:0.60948194 31:0.090062127 32:0.606414 33:0.56429663 34:0.31428571 35:0.34092715 36:0.33333333 38:0.3 39:0.16666667 40:0.0625 42:0.42857143 43:0.083333333 44:0.16666667 45:0.42857143 46:0.16666667 47:0.4 48:0.25 54:0.33333333 55:0.14285714 57:0.33333333 59:0.25 
-8 0:0.37865693 1:0.35851601 3:0.13683988 5:0.1575625 6:0.57586927 7:0.34147739 8:0.88988221 10:0.2611728 11:0.80131376 12:0.2702424 13:0.79478138 14:0.0069030471 15:0.67989252 16:0.5596943 17:0.53365974 18:0.45893491 19:0.14444444 20:0.068965508 22:0.16470588 23:0.47058824 24:0.55 25:0.71084337 26:0.21505376 27:0.40992336 28:0.61708636 29:0.22016725 30:0.42348004 31:0.0062111817 32:0.4548105 33:0.40289634 34:0.34285714 35:0.35644591 36:0.26666667 37:0.1 38:0.35 39:0.33333333 40:0.1875 42:0.14285714 43:0.083333333 44:0.33333333 45:0.42857143 46:0.5 48:0.25 49:0.375 51:0.16666667 53:0.16666667 59:0.25 
-8 0:0.28459181 1:0.40440998 3:0.13683988 4:0.010026946 6:0.55198755 7:0.43884834 8:0.56815701 9:0.5144696 10:0.49032841 11:0.43441271 12:0.68610341 13:0.52012293 14:0.021407297 15:0.013492502 16:0.42919694 17:0.67564261 18:0.67014523 19:0.14444444 20:0.068965508 23:0.63137255 24:0.57916666 25:0.75903612 26:0.47311827 27:0.66934395 28:0.56784238 29:0.48845302 30:0.43778474 31:0.14906831 32:0.13702623 33:0.30653424 34:0.085714286 35:0.14284768 36:0.066666667 38:0.15 39:0.25 40:0.0625 44:0.16666667 46:0.16666667 48:0.25 49:0.125 51:0.16666667 55:0.14285714 56:0.22222222 57:0.22222222 
1.459943968095032 0:0.42013158 1:0.41162347 3:0.20906861 4:0.13347858 6:0.4568807 7:0.40905909 8:0.6847842 9:0.32414635 10:0.37838841 11:0.47735602 12:0.12576768 13:0.40156558 14:0.01372812 15:0.2415519 16:0.23074768 17:0.72093024 18:0.68196823 19:0.14444444 21:0.2586207 23:0.58039215 24:0.62083333 25:0.9277108 26:0.41935484 27:0.56448562 28:0.71217279 29:0.092248837 30:0.36884264 31:0.0093167706 32:0.41982507 33:0.33498344 34:0.31428571 35:0.47112583 36:0.13333333 38:0.3 39:0.33333333 40:0.0625 46:0.16666667 47:0.4 49:0.25 51:0.16666667 52:0.44444444 53:0.16666667 54:0.33333333 55:0.14285714 56:0.22222222 57:0.33333333 
3.147560367810037 0:0.26405193 1:0.2785442 3:0.13683988 5:0.21305268 6:0.25540641 7:0.26445331 8:0.41464213 9:0.34426167 10:0.26565057 11:0.40683008 12:0.14594919 13:0.444051 14:0.014696763 15:0.39461937 16:0.28175735 17:0.30722155 18:0.13080404 19:0.14444444 20:0.068965508 22:0.24411765 23:0.19607844 24:0.13333334 25:0.6746988 26:0.172043 27:0.034839512 28:0.39203934 29:0.24042482 30:0.57546862 31:0.20807454 32:0.51311954 33:0.40164995 34:0.25714286 35:0.31139073 36:0.6 37:0.5 38:0.15 39:0.083333333 41:0.25 42:0.42857143 43:0.083333333 46:0.16666667 47:0.2 48:0.25 49:0.25 53:0.83333333 55:0.14285714 59:0.25 
-2.546109544894593 0:0.4206197 1:0.63135327 3:0.20906861 4:0.010026946 6:0.63478634 7:0.81201535 8:1 9:0.57953567 10:0.53909185 11:0.64496711 12:0.62636071 13:0.47079615 14:0.10050611 15:0.080948099 16:0.64251729 17:0.73684212 18:0.79924691 19:0.14444444 23:0.56862745 24:0.85416667 25:0.87951805 26:0.40860215 27:0.58144662 28:0.71164629 29:0.48852572 30:0.43785171 31:0.07453416 32:0.067055394 33:0.30820571 34:0.085714286 35:0.13 38:0.15 39:0.16666667 45:0.14285714 46:0.16666667 49:0.5 54:0.33333333 55:0.28571429 56:0.11111111 57:0.11111111 
-2.939826500419227 0:0.354016 1:0.56119639 3:0.20906861 4:0.25735172 5:0.37194353 6:0.70178169 7:0.64198601 8:0.42794425 9:0.64031129 10:0.63493233 11:0.50286575 12:0.42546132 13:0.3049228 14:0.48051536 15:0.40502062 16:0.79976193 17:0.58506733 18:0.47029585 19:0.14444444 21:0.21839081 22:0.33529412 23:0.44705883 24:0.65 25:0.27710844 26:0.21505376 27:0.48720161 28:0.60990659 29:0.41892025 30:0.373739 31:0.39751553 32:0.3702624 33:0.98961078 34:0.057142857 35:0.10717439 36:0.2 37:0.1 38:0.1 42:0.14285714 43:0.083333333 46:0.16666667 49:0.375 53:0.16666667 54:0.33333333 55:0.14285714 57:0.11111111 
-8 0:0.43984063 1:0.4683127 2:0.71664991 3:0.20906861 4:0.11127437 5:0.1575625 6:0.48715361 7:0.34883918 8:0.6782748 9:0.55010025 10:0.30434358 11:0.63430574 12:0.50700659 13:0.57337924 14:0.0099472544 15:0.32807991 16:0.35370849 17:0.59608324 18:0.52509572 19:1 22:0.16470588 23:0.54509804 24:0.26666666 25:0.87951805 26:0.172043 27:0.21104654 28:0.62788434 29:0.24246925 30:0.47411903 31:0.01552795 32:0.2915452 33:0.19209193 34:0.25714286 35:0.27123621 36:0.26666667 37:0.2 38:0.25 39:0.16666667 40:0.0625 42:0.28571429 43:0.083333333 44:0.16666667 45:0.28571429 47:0.2 48:0.25 49:0.25 54:0.33333333 55:0.42857143 57:0.11111111 59:0.25 
-8 0:0.5379139 1:0.45325388 2:0.71664991 3:0.13683988 4:0.05141 5:0.34403378 6:0.41488493 7:0.38023347 8:0.42794425 9:0.42683028 10:0.34940645 11:0.56680782 12:0.11345818 13:0.49788862 14:0.018677325 15:0.51329059 16:0.32817732 17:0.750306 18:0.69158734 19:1 20:0.068965508 22:0.40294117 23:0.52156861 24:0.48749999 25:0.9277108 26:0.21505376 27:0.4979543 28:0.77805763 29:0.27172165 30:0.50123779 31:0.071428565 32:0.43731778 33:0.52580383 34:0.42857143 35:0.51041943 36:0.33333333 37:0.1 38:0.5 39:0.33333333 40:0.0625 42:0.28571429 43:0.083333333 44:0.16666667 45:0.42857143 46:0.16666667 47:0.4 48:0.25 49:0.125 50:0.66666667 51:0.16666667 53:0.16666667 55:0.14285714 57:0.44444444 59:0.25 
-8 0:0.48274919 1:0.4721053 2:0.71664991 3:0.13683988 4:0.010026946 5:0.49948602 6:0.28199794 7:0.58861105 8:0.41464213 9:0.5144696 10:0.48089304 11:0.51337051 12:0.29477018 13:0.33734579 14:0.010743247 15:0.3284331 16:0.18551087 17:0.58506733 18:0.51603862 19:1 20:0.068965508 22:0.74705882 23:0.31764706 24:0.475 25:0.37349399 26:0.21505376 27:0.32631779 28:0.56668875 29:0.29421576 30:0.45842541 31:0.012422361 32:0.50728863 33:0.68427553 34:0.31428571 35:0.39927153 36:0.46666667 37:0.3 38:0.25 40:0.0625 42:0.42857143 43:0.25 45:0.14285714 47:0.6 48:0.25 49:0.125 51:0.16666667 56:0.33333333 57:0.22222222 
-8 0:0.75692689 1:0.5683076 2:0.71664991 3:0.20906861 4:0.29469713 5:0.53063833 6:0.72048937 7:0.39743135 8:1 9:0.5144696 10:0.4459748 11:0.59165716 12:0.035029757 13:0.50360035 14:0.010743247 15:0.3284331 16:0.24542439 17:0.57527541 18:0.52098316 19:1 21:0.21839081 22:0.74705882 23:0.4509804 24:0.25833333 25:0.83132529 26:0.172043 27:0.32631779 28:0.56668875 29:0.13609336 30:0.45842541 31:0.012422361 32:0.50728863 33:0.56978584 34:0.51428571 35:0.65889625 36:0.66666667 37:0.5 38:0.4 39:0.16666667 40:0.0625 42:0.71428571 43:0.25 45:0.14285714 47:0.6 48:0.25 49:0.5 51:0.16666667 54:0.33333333 56:0.44444444 57:0.22222222 
-8 0:0.46093923 1:0.51486884 2:0.71664991 3:0.20906861 4:0.068498017 5:0.15513349 6:0.426066 7:0.42732027 8:0.57466641 9:0.63089744 10:0.3908375 11:0.61136877 12:0.49838694 13:0.48338828 14:0.13314735 15:0.43426885 16:0.24267872 17:0.65483478 18:0.60769231 19:1 21:0.1091954 22:0.11176471 23:0.58823529 24:0.275 25:0.79518072 26:0.21505376 27:0.24928639 28:0.60101837 29:0.15968782 30:0.49018664 31:0.040372673 32:0.31778426 33:0.18990486 34:0.22857143 35:0.26821192 36:0.2 37:0.1 38:0.2 39:0.25 42:0.28571429 44:0.16666667 45:0.28571429 47:0.2 49:0.25 50:0.33333333 51:0.16666667 54:0.33333333 55:0.14285714 56:0.33333333 57:0.11111111 
-8 0:0.67726728 1:0.5850741 2:0.71664991 3:0.20906861 5:0.39269992 6:0.41704641 7:0.65279561 8:0.57466641 9:0.53259771 10:0.58081676 11:0.54627842 12:0.13354524 13:0.2543003 14:0.038317611 15:0.42310767 16:0.16608928 17:0.71848226 18:0.66369016 19:1 22:0.65588235 23:0.48627451 24:0.58333333 25:0.79518072 26:0.10752688 27:0.49462077 28:0.64768927 29:0.16685074 30:0.47586392 31:0.0031055834 32:0.3877551 33:0.56755445 34:0.4 35:0.50178808 36:0.46666667 37:0.2 38:0.5 39:0.5 40:0.25 42:0.28571429 43:0.16666667 44:0.33333333 45:0.14285714 47:0.6 49:0.125 51:0.16666667 52:0.11111111 53:0.33333333 54:0.33333333 57:0.22222222 
8 0:0.48194956 1:0.51377038 2:0.71664991 3:0.13683988 6:0.46281782 7:0.5364706 8:0.88988221 9:0.4695881 10:0.29709568 11:0.68854625 12:0.27582422 13:0.64316924 14:0.017676279 15:0.35049763 16:0.25280017 17:0.73684212 18:0.71722938 19:1 20:0.068965508 23:0.54117648 24:0.69583334 25:0.87951805 26:0.45161291 27:0.30609008 28:0.8378338 29:0.49199796 30:0.66550066 31:0.034161497 32:0.16618077 33:0.29557134 34:0.25714286 35:0.32432671 36:0.13333333 38:0.3 39:0.25 44:0.16666667 45:0.14285714 47:0.4 48:0.25 49:0.25 50:0.33333333 51:0.16666667 53:0.16666667 55:0.57142857 56:0.11111111 57:0.11111111 59:0.25 
3.053829942195796 0:0.40405841 1:0.38182434 2:0.71664991 3:0.13683988 5:0.19527884 6:0.44351917 7:0.32592099 8:0.6782748 9:0.12326997 10:0.24085267 11:0.49266502 12:0.25604104 13:0.59621315 14:0.051584785 15:0.37252906 16:0.2189416 17:0.62301102 18:0.56260355 19:1 20:0.068965508 22:0.37941176 23:0.57254902 24:0.28333333 25:0.87951805 26:0.20430106 27:0.11976921 28:0.66276364 29:0.39725705 30:0.81353749 31:0.0062111752 32:0.31195336 33:0.40614356 34:0.34285714 35:0.40333333 36:0.33333333 37:0.2 38:0.25 39:0.16666667 43:0.25 44:0.16666667 45:0.28571429 46:0.16666667 47:0.4 48:0.25 49:0.125 51:0.16666667 53:0.16666667 55:0.42857143 56:0.11111111 57:0.33333333 
-8 0:0.44025146 1:0.4687562 2:0.71664991 3:0.13683988 4:0.069705841 5:0.28370645 6:0.44015186 7:0.47806828 8:0.41464213 9:0.42683028 10:0.31054012 11:0.6244362 12:0.68140181 13:0.67131373 14:0.00016097917 15:0.15440102 16:0.29401171 17:0.69645044 18:0.66209537 19:1 20:0.068965508 21:0.10344828 22:0.4117647 23:0.71372549 24:0.34583333 25:1 26:0.21505376 27:0.24170752 28:0.75616483 29:0.44680606 30:0.85473447 31:0.068322998 32:0.48688046 33:0.6232096 34:0.25714286 35:0.36467991 36:0.4 37:0.2 38:0.35 39:0.33333333 40:0.125 42:0.28571429 43:0.083333333 46:0.16666667 47:0.8 48:0.25 49:0.125 51:0.33333333 53:0.16666667 57:0.22222222 
-8 0:0.74761091 1:0.47714749 2:0.71664991 3:0.13683988 5:0.13023463 6:0.5317121 7:0.36119752 8:0.6782748 9:0.12326997 10:0.43045057 11:0.5180833 12:0.1642757 13:0.38720055 14:0.002765767 15:0.54678954 16:0.25910729 17:0.78702571 18:0.68313609 19:1 20:0.068965508 22:0.22941176 23:0.57647059 24:0.45416666 25:1 26:0.20430106 27:0.28873713 28:0.71884926 29:0.031346853 30:0.59322516 31:0.018633533 32:0.61516035 33:0.27909304 34:0.68571429 35:0.76249448 36:0.46666667 37:0.2 38:0.7 39:0.58333333 40:0.375 42:0.28571429 43:0.083333333 45:0.42857143 46:0.16666667 47:0.6 48:0.25 49:0.5 50:0.33333333 51:0.5 52:0.11111111 53:0.16666667 55:0.28571429 56:0.11111111 57:0.22222222 
-8 0:0.38130489 1:0.31087956 2:0.71664991 3:0.13683988 4:0.068498017 5:0.16239306 6:0.25653428 7:0.3484506 8:0.41464213 9:0.62243656 10:0.35319103 11:0.49706364 12:0.17474959 13:0.42190672 14:0.035978167 15:0.3269494 16:0.12979838 17:0.56670748 18:0.51119527 19:1 20:0.068965508 21:0.1091954 22:0.16470588 23:0.49803922 24:0.45833333 25:1 26:0.21505376 27:0.25912729 28:0.68266925 29:0.023811914 30:0.60772635 31:0.027950314 32:0.43440234 33:0.27842432 34:0.48571429 35:0.47816778 36:0.33333333 37:0.1 38:0.3 39:0.083333333 40:0.1875 42:0.14285714 43:0.16666667 45:0.42857143 47:0.6 48:0.25 49:0.125 50:0.33333333 51:0.16666667 52:0.11111111 53:0.16666667 55:0.57142857 56:0.33333333 
-4.340815536136478 0:0.45051223 1:0.42445023 2:0.71664991 3:0.13683988 4:0.13347858 5:0.18828551 6:0.50658264 7:0.3569985 8:0.6847842 9:0.32414635 10:0.45007096 11:0.5221664 12:0.038936072 13:0.41838493 14:0.015158705 15:0.37849241 16:0.30531951 17:0.61199512 18:0.54982249 19:1 20:0.068965508 21:0.2586207 22:0.24411765 23:0.60784315 24:0.39583333 25:1 26:0.21505376 27:0.206868 28:0.56406927 29:0.16140714 30:0.47419434 31:0.012422361 32:0.37900875 33:0.3884987 34:0.34285714 35:0.45584989 36:0.4 37:0.2 38:0.3 39:0.33333333 42:0.28571429 44:0.16666667 45:0.14285714 46:0.16666667 47:0.8 48:0.25 49:0.25 50:0.33333333 51:0.66666667 52:0.11111111 56:0.22222222 
-3.071703316286176 0:0.27889126 1:0.26697131 2:0.71664991 3:0.13683988 5:0.067902532 6:0.29761794 7:0.26526542 8:0.41238607 9:0.31544872 10:0.21603332 11:0.38050661 12:0.13888666 13:0.2989507 14:0.24773681 15:0.46132685 16:0.14692913 17:0.65728275 18:0.60236687 19:1 20:0.068965508 22:0.12352941 23:0.52156863 24:0.50833334 25:1 26:0.50537634 27:0.41738897 28:0.52798991 29:0.088209167 30:0.29710085 31:0.11180124 32:0.35860058 33:0.051792899 34:0.34285714 35:0.27070641 36:0.066666667 38:0.3 39:0.25 40:0.125 42:0.14285714 44:0.16666667 45:1 46:0.16666667 47:0.4 48:0.25 55:0.14285714 56:0.11111111 57:0.11111111 58:0.33333333 59:0.25 
-8 0:0.33352415 1:0.36872419 2:0.71664991 3:0.20906861 4:0.069705841 6:0.58685353 7:0.28990106 8:0.6847842 9:0.39119962 10:0.3716994 11:0.60144183 12:0.1812665 13:0.49563705 14:0.011305725 15:0.46229053 16:0.38989031 17:0.64871483 18:0.59881657 19:1 21:0.10344828 23:0.69803922 24:0.2875 25:0.91566265 26:0.21505376 27:0.38996861 28:0.61682568 29:0.20604888 30:0.44953604 31:0.040372673 32:0.43731779 33:0.22067218 34:0.22857143 35:0.24346579 36:0.13333333 37:0.1 38:0.2 39:0.16666667 40:0.125 42:0.14285714 45:0.28571429 46:0.16666667 47:0.4 49:0.25 51:0.16666667 54:0.33333333 55:0.14285714 56:0.33333333 
-2.089574401184068 0:0.8256654 1:0.63707473 2:0.71664991 3:0.13683988 4:0.027318459 5:0.50152764 6:0.86000651 7:0.52650271 8:1 9:0.55010025 10:0.37497594 11:0.76815184 12:0.2543973 13:0.55140326 14:0.016836713 15:0.22383095 16:0.1662823 17:0.68543453 18:0.62139645 19:1 20:0.068965508 22:0.49411765 23:0.65490197 24:0.375 25:0.9638554 26:0.172043 27:0.29122567 28:0.80729536 29:0.33100455 30:0.59255003 31:0.10559006 32:0.54227406 33:0.32373757 34:0.48571429 35:0.57721854 36:0.53333333 37:0.3 38:0.5 39:0.5 40:0.25 42:0.42857143 43:0.25 45:0.14285714 47:0.4 48:0.25 49:0.625 53:0.33333333 55:0.28571429 56:0.11111111 57:0.11111111 
-0.2505508249155499 0:0.35108803 1:0.51534952 2:0.71664991 3:0.20906861 5:0.15765186 6:0.43852354 7:0.41021391 8:0.6847842 9:0.53259771 10:0.40663841 11:0.57366364 12:0.54041002 13:0.39983063 14:0.52669562 15:0.44440321 16:0.28245802 17:0.5520196 18:0.40935987 19:1 22:0.11176471 23:0.39607843 24:0.11666667 25:0.91566265 26:0.10752688 27:0.14385603 28:0.44629775 29:0.55573125 30:0.49975387 31:0.33850932 32:0.31486881 33:0.33211868 34:0.085714286 35:0.12143488 36:0.26666667 37:0.2 38:0.1 39:0.083333333 40:0.0625 42:0.14285714 43:0.083333333 47:0.2 49:0.25 53:0.33333333 54:0.33333333 55:0.14285714 56:0.11111111 
-1.586930565219985 0:0.5254008 1:0.80616571 2:0.71664991 3:0.20906861 4:0.25735172 5:0.097303784 6:0.50369169 7:0.80167198 8:0.6847842 9:0.65971038 10:0.54412325 11:0.74351039 12:0.88439206 13:0.68384072 14:0.15190652 15:0.12478246 16:0.43447768 17:0.80538557 18:0.94384078 19:1 21:0.21839081 22:0.1882353 23:0.59607843 24:0.8625 25:0.91566265 26:0.5483871 27:0.53953345 28:0.82598284 29:0.73158133 30:0.66172713 31:0.037267074 32:0.032069967 33:0.51883896 34:0.085714286 35:0.16395143 36:0.13333333 38:0.25 39:0.33333333 42:0.14285714 45:0.14285714 47:0.4 49:0.375 50:0.33333333 53:0.16666667 54:0.33333333 57:0.11111111 
8 0:0.3809221 1:0.46772872 2:0.71664991 3:0.13683988 5:0.31512501 6:0.48858845 7:0.41759721 8:0.52250387 9:0.4695881 10:0.43561665 11:0.59054278 12:0.60309578 13:0.55868325 14:0.2615449 15:0.34002907 16:0.25502441 17:0.5263158 18:0.40050718 19:1 20:0.068965508 22:0.32941176 23:0.39215686 24:0.34583333 25:0.59036144 26:0.21505376 27:0.15303198 28:0.49215827 29:0.59754184 30:0.74215993 31:0.083850928 32:0.29154519 33:0.54448115 34:0.17142857 35:0.19520971 36:0.4 37:0.2 38:0.2 39:0.16666667 40:0.1875 42:0.14285714 43:0.16666667 47:0.2 48:0.25 49:0.25 51:0.33333333 53:0.16666667 55:0.14285714 
2.903961329222871 0:0.52466543 1:0.47430832 2:0.71664991 3:0.20906861 4:0.25735172 5:0.097303784 6:0.38922573 7:0.36956255 8:0.6847842 9:0.32414635 10:0.31741878 11:0.56651649 12:0.095094242 13:0.55789443 14:0.0052090708 15:0.21787472 16:0.26633005 17:0.79069769 18:0.74809806 19:1 21:0.21839081 22:0.1882353 23:0.50196079 24:0.57916666 25:0.91566265 26:0.4516129 27:0.27225527 28:0.7322797 29:0.076080409 30:0.57240063 31:0.0062111835 32:0.35568514 33:0.45966709 34:0.37142857 35:0.48922737 36:0.2 38:0.5 39:0.41666667 40:0.25 43:0.083333333 46:0.16666667 47:0.6 49:0.25 50:0.66666667 51:0.16666667 52:0.22222222 53:0.16666667 54:0.33333333 55:0.14285714 56:0.11111111 57:0.11111111 
8 0:0.691159 1:0.93315674 2:0.71664991 3:0.13683988 4:0.25735172 5:0.21712564 6:0.85711555 7:0.74012564 8:1 9:0.86443218 10:0.75321577 11:0.70682104 12:0.20121057 13:0.23744641 14:0.035435638 15:0.35308453 16:0.47587408 17:0.85801715 18:0.97979062 19:1 20:0.068965508 21:0.21839081 22:0.24411765 23:0.71764706 24:0.6625 25:0.91566265 26:0.21505376 27:0.69174079 28:0.78134554 29:0.32038858 30:0.39673388 31:0.080745336 32:0.45189504 33:0.50739575 34:0.14285714 35:0.27565121 36:0.13333333 37:0.1 38:0.3 39:0.33333333 42:0.14285714 43:0.083333333 47:0.4 48:0.25 49:0.625 52:0.11111111 55:0.14285714 57:0.11111111 
-1.723173570642125 0:1 1:0.60639893 2:0.71664991 3:0.13683988 4:0.7080464 5:0.68001332 6:0.50794765 7:0.51214499 8:0.6782748 9:0.55010025 10:0.43063996 11:0.74760391 12:0.24452495 13:0.66208881 14:0.0065438767 15:0.62500797 16:0.4992796 17:0.71848226 18:0.63141474 19:1 20:0.068965508 21:0.69540231 22:0.85 23:0.60392158 24:0.32916666 25:1 26:0.172043 27:0.30640949 28:0.81774498 29:0.15622996 30:0.71998131 31:0.034161486 32:0.3760933 33:0.68672365 34:0.71428571 35:0.96532009 36:0.73333333 37:0.4 38:0.7 39:0.5 40:0.0625 41:0.25 42:0.28571429 43:0.41666667 44:0.16666667 47:1 48:0.75 49:0.75 51:0.33333333 52:0.11111111 55:0.28571429 56:0.22222222 57:0.11111111 59:0.25 
