svm_type epsilon_svr
kernel_type rbf
gamma 0.0625
nr_class 2
total_sv 613
rho -0.0436545
SV
-0.3928928243959218 0:0.51484542 1:0.3611348 2:0.38456041 3:0.10382095 4:0.53196168 5:0.82981745 6:0.39398399 7:0.34240843 8:0.48300363 9:0.33076893 10:0.28356018 11:0.57465324 12:0.041937366 13:0.34381793 14:0.00044425611 15:0.30952473 16:0.27339608 17:0.39154161 18:0.38370828 19:0.69999999 21:0.696 22:0.84406779 23:0.45220588 24:0.12903226 25:0.68965517 26:0.11494253 27:0.12554978 28:0.6811741 29:0.16075144 30:0.62920898 31:0.015527945 32:0.43428571 33:0.5310637 34:0.61290323 35:0.61291267 36:0.55555556 37:0.45454545 38:0.61111111 39:0.45454545 40:0.625 42:0.57142857 43:0.5 47:0.33333333 48:0.33333333 49:0.14285714 50:0.5 54:0.5 55:0.28571429 56:0.16666667 57:0.28571429 58:0.5 
-0.4906282611762543 0:0.48546236 1:0.40191813 2:0.38456041 3:1 5:0.73456957 6:0.29241169 7:0.43927177 8:0.48300363 9:0.43818681 10:0.34297021 11:0.60510788 12:0.27361675 13:0.40793658 14:0.00022820247 15:0.41734131 16:0.21772142 17:0.30968623 18:0.30124357 19:0.69999999 20:0.92222222 22:0.80677965 23:0.25 24:0.24014337 25:0.68965517 26:0.16091955 27:0.19057857 28:0.5519727 29:0.10498316 30:0.39710719 31:0.043478257 32:0.60857143 33:0.46220741 34:0.48387097 35:0.43766334 36:0.55555556 37:0.45454545 38:0.5 39:0.27272727 40:0.875 42:0.71428571 43:0.6 46:0.5 47:0.16666667 49:0.28571429 
4 0:0.55211409 1:0.35975336 2:0.38456041 3:0.10382095 4:0.30411045 5:0.049358477 6:0.40917533 7:0.28196388 8:0.88214745 9:0.35895092 10:0.28368714 11:0.60926908 12:0.14566595 13:0.43301045 14:0.0028952348 15:0.37756421 16:0.26984179 17:0.55934516 18:0.49444071 19:0.69999999 21:0.36000001 22:0.1220339 23:0.63235294 24:0.3405018 25:0.96551722 26:0.16091955 27:0.43257259 28:0.71489422 29:0.027551023 30:0.50271538 31:0.0062111798 32:0.41428571 33:0.27688556 34:0.67741935 35:0.65617094 36:0.27777778 37:0.090909091 38:0.72222222 39:0.63636364 40:0.75 42:0.28571429 43:0.1 44:0.2 45:0.33333333 46:0.5 47:0.16666667 49:0.28571429 51:0.16666667 52:0.16666667 53:0.16666667 54:0.5 55:0.28571429 56:0.33333333 57:0.28571429 58:0.5 59:0.2 
-4 0:0.62596929 1:0.47501253 2:0.38456041 3:0.10382095 4:0.41545125 5:0.50291591 6:0.57830217 7:0.39867859 8:0.88214745 9:0.25153304 10:0.30488675 11:0.74949317 12:0.26548064 13:0.62771265 14:0.013842839 15:0.5852389 16:0.39947208 17:0.6521146 18:0.56308963 19:0.69999999 21:0.304 22:0.7355932 23:0.69485294 24:0.46236559 25:1 26:0.33333334 27:0.23266927 28:0.77586938 29:0.052298703 30:0.59344658 31:0.099378887 32:0.41428572 33:0.54400913 34:0.5483871 35:0.54782663 36:0.33333333 38:0.55555556 39:0.36363636 40:0.25 42:0.42857143 43:0.1 44:0.4 45:0.5 47:0.33333333 48:0.33333333 49:0.28571429 51:0.16666667 52:0.16666667 54:0.5 55:0.28571429 57:0.42857143 
4 0:0.32119112 1:0.58181216 2:0.38456041 5:0.096265478 6:0.61685174 7:0.67913433 8:0.88214745 9:0.185571 10:0.28826297 11:0.29657075 12:0.7109588 13:0.57734118 14:0.1448865 15:0.1087215 16:0.45483778 17:0.63165076 18:0.63915095 19:0.69999999 20:0.066666656 22:0.20338982 23:0.67279411 24:0.71326165 25:0.88505744 26:0.11494253 27:0.48892016 28:0.33548836 29:0.60615462 30:0.51147296 31:0.080745341 32:0.071428571 33:0.38988195 34:0.096774194 35:0.15528236 36:0.11111111 37:0.090909091 38:0.27777778 39:0.27272727 40:0.25 42:0.14285714 44:0.2 48:0.33333333 49:0.28571429 51:0.16666667 56:0.16666667 57:0.14285714 
4 0:0.50336928 1:0.65283935 2:0.38456041 3:0.10382095 4:0.0019054289 5:0.14335783 6:0.63871815 7:0.4978573 8:0.84084263 9:0.36482395 10:0.3115002 11:0.82072925 12:0.47810952 13:0.69351326 14:0.022002744 15:0.28435497 16:0.49594375 17:0.72714871 18:0.71260109 19:0.69999999 22:0.21355932 23:0.73161765 24:0.63082438 25:0.96551722 26:0.35632186 27:0.41861073 28:0.8753169 29:0.60905157 30:0.62372861 31:0.20496895 32:0.44000001 33:0.44415106 34:0.22580645 35:0.30843212 36:0.11111111 38:0.38888889 39:0.36363636 40:0.125 43:0.1 44:0.2 47:0.33333333 49:0.28571429 50:0.5 51:0.16666667 54:0.5 55:0.14285714 56:0.33333333 57:0.14285714 
-4 0:0.32688487 1:0.49403339 2:0.38456041 4:0.052210291 5:0.18738675 6:0.48802822 7:0.39112562 8:0.84084263 9:0.34839021 10:0.28609511 11:0.8312629 12:0.82461288 13:0.80252517 14:0.21630025 15:0.22537943 16:0.62413507 17:0.60572989 18:0.57586479 19:0.69999999 20:0.066666656 21:0.144 22:0.18983051 23:0.56617647 24:0.5232975 25:0.91954022 26:0.16091955 27:0.43648181 28:0.89780379 29:0.78281357 30:0.79032341 31:0.16770186 32:0.21142857 33:0.57613685 34:0.16129032 35:0.19613623 36:0.16666667 37:0.090909091 38:0.27777778 39:0.18181818 40:0.25 43:0.1 45:0.16666667 47:0.33333333 48:0.33333333 49:0.28571429 51:0.33333333 56:0.16666667 
-0.05233756218625861 0:0.53762371 1:0.44496819 2:0.38456041 4:0.18706081 5:0.41108542 6:0.33898012 7:0.41227206 8:0.58793409 9:0.43818681 10:0.25288679 11:0.74967646 12:0.063542398 13:0.68699474 14:0.11241338 15:0.57663876 16:0.57120394 17:0.66575717 18:0.58104632 19:0.69999999 20:0.066666656 21:0.33599999 22:0.43389831 23:0.58455882 24:0.51612904 25:0.66666664 26:0.16091955 27:0.35724666 28:0.68312088 29:0.10473909 30:0.56978245 31:0.13664597 32:0.57142857 33:0.57903963 34:0.48387097 35:0.50406657 36:0.22222222 37:0.090909091 38:0.55555556 39:0.36363636 40:0.25 42:0.28571429 43:0.1 45:0.5 46:0.5 47:0.5 48:0.33333333 49:0.28571429 50:0.5 51:0.16666667 52:0.16666667 56:0.16666667 57:0.28571429 59:0.2 
4 0:0.36287453 1:0.59803835 2:0.38456041 4:0.41354582 5:0.12235217 6:0.50704684 7:0.58642945 8:0.88214745 9:0.54299237 10:0.63919799 11:0.76474035 12:0.86296257 13:0.70730106 14:0.199231 15:0.14955726 16:0.84074267 17:0.62482947 18:0.6142796 19:0.69999999 20:0.066666656 21:0.304 22:0.15254237 23:0.55147059 24:0.52329749 25:0.96551722 26:0.16091955 27:0.49335775 28:0.81271751 29:0.80108686 30:0.68631568 31:0.13354036 32:0.11999999 33:0.6749516 34:0.12903226 35:0.18087352 36:0.16666667 37:0.090909091 38:0.27777778 39:0.18181818 40:0.125 43:0.1 44:0.2 45:0.16666667 47:0.16666667 48:0.33333333 49:0.28571429 51:0.33333333 57:0.14285714 
4 0:0.46694943 1:0.49934208 2:0.38456041 3:0.10382095 4:0.052210291 5:0.16638109 6:0.49928467 7:0.49989178 8:0.67061144 9:0.43710404 10:0.22929152 11:0.7979109 12:0.61559432 13:0.81495234 14:0.01881139 15:0.26230392 16:0.53838814 17:0.69986358 18:0.64442288 19:0.69999999 21:0.144 22:0.12881356 23:0.54044117 24:0.48028675 25:0.88505744 26:0.37931036 27:0.20770207 28:0.92407523 29:0.46274775 30:0.77406809 31:0.018633529 32:0.15142858 33:0.43302408 34:0.32258065 35:0.35434569 36:0.16666667 38:0.44444444 39:0.36363636 40:0.375 43:0.1 45:0.33333333 47:0.16666667 49:0.42857143 51:0.16666667 52:0.16666667 53:0.16666667 54:0.5 56:0.16666667 57:0.28571429 
-0.7377562496827564 0:0.68982705 1:0.44905603 2:0.38456041 4:0.0019054289 5:0.84087968 6:0.61317051 7:0.26574472 8:1 9:0.27076798 10:0.30436123 11:0.77773541 12:0.075150073 13:0.74969987 14:0.019395913 15:0.6476522 16:0.43597686 17:0.5457026 18:0.48601753 19:0.69999999 20:0.066666656 22:0.89491525 23:0.61764706 24:0.34408603 25:0.83908045 26:0.16091955 27:0.10869047 28:0.83388232 29:0.31493458 30:0.95113682 31:0.018633536 32:0.71142857 33:0.58641268 34:0.67741935 35:0.69518493 36:0.38888889 37:0.090909091 38:0.61111111 39:0.27272727 40:0.375 42:0.71428571 45:0.16666667 46:0.5 47:0.66666667 48:0.33333333 49:0.42857143 52:0.16666667 53:0.33333333 55:0.42857143 56:0.33333333 57:0.14285714 59:0.2 
-3.129832982770968 0:0.57322834 1:0.47435358 2:0.38456041 4:0.30411045 5:0.18634409 6:0.4102361 7:0.2754419 8:0.72299008 9:0.3050001 10:0.29970675 11:0.63984069 12:0.065469778 13:0.52246405 14:0.24098322 15:0.63011343 16:0.62651748 17:0.68485676 18:0.5960549 19:0.69999999 20:0.066666656 21:0.36000001 22:0.28135593 23:0.63970589 24:0.45519714 25:0.8045977 26:0.19540231 27:0.2700582 28:0.76613544 29:0.17115656 30:0.59889014 31:0.071428571 32:0.55428573 33:0.50436413 34:0.48387097 35:0.49432352 36:0.16666667 38:0.55555556 39:0.18181818 40:0.25 43:0.2 44:0.4 45:0.66666667 46:0.5 47:0.66666667 48:0.33333333 49:0.14285714 50:0.5 52:0.16666667 53:0.16666667 56:0.16666667 58:0.5 
-4 0:0.86046765 1:0.680638 2:0.38456041 3:0.10382095 5:0.21876924 6:0.59213782 7:0.36431628 8:0.84084263 9:0.29163819 10:0.35670743 11:0.78767453 12:0.23639918 13:0.58662858 14:0.094627138 15:0.46108213 16:0.55097727 17:0.75852661 18:0.64653406 19:0.69999999 22:0.12881356 23:0.76470587 24:0.19713262 25:1 26:0.045977023 27:0.29337009 28:0.82750585 29:0.25341749 30:0.52915893 31:0.071428572 32:0.45428572 33:0.31695664 34:0.51612903 35:0.66614397 36:0.22222222 37:0.090909091 38:0.61111111 39:0.54545455 40:0.125 43:0.2 47:0.5 49:0.71428571 52:0.5 53:0.33333333 54:0.5 55:0.14285714 56:0.33333333 57:0.28571429 59:0.2 
-4 0:0.29227959 1:0.40796275 2:0.38456041 3:0.10382095 6:0.63626276 7:0.18402781 8:0.68168526 9:0.34558901 10:0.44363708 11:0.51514168 12:0.16243324 13:0.13372974 14:0.15320101 15:0.21436897 16:0.173408 17:0.65893589 18:0.6395138 19:0.69999999 23:0.92647059 24:0.39426524 25:1 26:0.26436783 27:0.55551436 28:0.6693525 29:0.076680737 30:0.21390081 31:0.052795038 32:0.051428575 34:0.19354839 35:0.2294633 38:0.22222222 39:0.36363636 40:0.125 45:0.16666667 47:0.33333333 49:0.14285714 52:0.16666667 54:0.5 55:0.28571429 56:0.5 57:0.14285714 
-4 0:0.3989789 1:0.45320099 2:0.38456041 5:0.36475813 6:0.49913833 7:0.40734488 8:0.51145407 9:0.25153304 10:0.12085668 11:0.58376824 12:0.31126986 13:0.45879727 14:0.007818164 15:0.15312773 16:0.36947996 17:0.58663029 18:0.53213445 19:0.69999999 20:0.066666656 22:0.3220339 23:0.63602941 24:0.42293907 25:0.96551722 26:0.16091955 27:0.30346769 28:0.65936866 29:0.19778563 30:0.26902545 31:0.0031055955 32:0.18857143 33:0.50116254 34:0.29032258 35:0.35708461 36:0.22222222 37:0.090909091 38:0.38888889 39:0.36363636 40:0.125 43:0.2 45:0.16666667 47:0.5 48:0.33333333 49:0.14285714 50:0.5 51:0.16666667 52:0.16666667 53:0.16666667 56:0.16666667 57:0.14285714 59:0.2 
2.525191273405512 0:0.18272933 1:0.36673357 2:0.38456041 4:0.137594 6:0.32373536 7:0.47283739 8:0.43951199 9:0.48014037 10:0.54634105 11:0.34190246 12:0.27955499 13:0.2085004 14:0.29388111 15:0.22067961 16:0.3361345 17:0.56889496 18:0.53590147 19:0.69999999 20:0.066666656 23:0.54779411 24:0.68100358 25:0.93103444 26:0.41379312 27:0.86994242 28:0.57858712 29:0.50656251 30:0.42214471 31:0.20496895 32:0.18571429 33:0.46720485 34:0.064516129 35:0.15022267 36:0.11111111 38:0.27777778 39:0.27272727 40:0.125 47:0.16666667 48:0.33333333 51:0.33333333 57:0.28571429 58:1 
4 0:0.43051969 1:0.60104322 2:0.38456041 3:0.10382095 4:0.040790418 5:0.26439638 6:0.61589707 7:0.54128908 8:0.88214745 9:0.371142 10:0.35825816 11:0.79191258 12:0.62234001 13:0.57084842 14:0.085955553 15:0.16383912 16:0.32835349 17:0.55388814 18:0.49981859 19:0.69999999 22:0.23728813 23:0.49632353 24:0.53763442 25:0.96551722 26:0.045977023 27:0.24838194 28:0.78117365 29:0.55354243 30:0.6436098 31:0.031055905 32:0.074285719 33:0.42351531 34:0.19354839 35:0.27424784 36:0.22222222 37:0.18181818 38:0.38888889 39:0.45454545 40:0.125 42:0.28571429 44:0.2 47:0.33333333 49:0.14285714 51:0.33333333 54:0.5 57:0.14285714 58:0.5 59:0.2 
2.662206960849755 0:0.23166025 1:0.30044926 2:0.38456041 3:0.10382095 4:0.48653326 5:0.22611638 6:0.34465459 7:0.2928807 8:0.84084263 9:0.34839021 10:0.17211237 11:0.42594173 12:0.14929625 13:0.42569 14:0.23915039 15:0.24731304 16:0.4133513 17:0.43246931 18:0.34871969 19:0.69999999 21:0.50400001 22:0.12881356 23:0.35661765 24:0.31182796 25:0.91954022 26:0.19540231 27:0.24228345 28:0.41003879 29:0.066912436 30:0.35691736 31:0.19254659 32:0.35714286 33:0.40487632 34:0.22580645 35:0.23788915 36:0.16666667 38:0.22222222 39:0.090909091 40:0.125 43:0.2 45:0.16666667 46:0.5 47:0.33333333 48:0.33333333 49:0.14285714 54:0.5 55:0.28571429 56:0.16666667 59:0.2 
-4 0:0.55320901 1:0.37368617 2:0.38456041 4:0.020167011 5:0.66586124 6:0.91913004 7:0.2126821 8:1 9:0.27076798 10:0.19382635 11:0.73817841 12:0.061934678 13:0.38090667 14:0.0037001458 15:0.27295846 16:0.19600918 17:0.3260573 18:0.3454752 19:0.69999999 20:0.066666656 22:0.44745762 23:0.66544118 24:0.29390682 25:0.83908045 26:0.16091955 27:0.21251902 28:0.6795862 29:0.11871483 30:0.39667862 31:0.018633533 32:0.32285714 33:0.28693209 34:0.64516129 35:0.63593218 36:0.38888889 37:0.090909091 38:0.5 39:0.36363636 40:0.375 42:0.42857143 43:0.3 45:0.33333333 48:0.33333333 49:0.57142857 52:0.5 54:0.5 55:0.28571429 56:0.33333333 57:0.14285714 59:0.4 
-4 0:0.38395485 1:0.46499824 2:0.38456041 5:0.08260696 6:0.55168133 7:0.29405738 8:1 9:0.185571 10:0.28601483 11:0.9096985 12:0.49985255 13:0.74788829 14:0.087332114 15:0.34804295 16:0.48708535 17:0.58390178 18:0.53223271 19:0.69999999 20:0.066666656 22:0.14237288 23:0.47794117 24:0.41218638 25:0.96551722 26:0.11494253 27:0.32571728 28:0.91214462 29:0.51665275 30:0.69444494 31:0.0093167799 32:0.15428571 33:0.33269903 34:0.25806452 35:0.33216249 36:0.16666667 37:0.090909091 38:0.33333333 39:0.36363636 40:0.25 43:0.1 46:0.5 47:0.16666667 48:0.33333333 49:0.42857143 51:0.33333333 52:0.16666667 56:0.33333333 57:0.14285714 
-4 0:0.56927567 1:0.47109135 2:0.38456041 3:0.10382095 5:0.35175025 6:0.47118474 7:0.34986788 8:0.51145407 9:0.27962697 10:0.24842788 11:0.61810133 12:0.27303114 13:0.48590364 14:0.078692497 15:0.28250799 16:0.3856844 17:0.67394271 18:0.58747857 19:0.69999999 22:0.46440678 23:0.73897059 24:0.4982079 25:0.96551722 26:0.045977023 27:0.42420052 28:0.79098027 29:0.23010084 30:0.49726797 31:0.10559006 32:0.61428571 33:0.49576332 34:0.48387097 35:0.51088252 36:0.27777778 37:0.18181818 38:0.66666667 39:0.63636364 40:0.75 42:0.42857143 47:0.5 49:0.28571429 51:0.33333333 52:0.16666667 54:0.5 55:0.14285714 56:0.16666667 57:0.14285714 59:0.2 
4 0:0.31789216 1:0.3850309 2:0.38456041 4:0.052210291 6:0.62766509 7:0.22055441 8:1 9:0.34839021 10:0.21043904 11:0.63370703 12:0.36651468 13:0.68700373 14:0.22414698 15:0.37745989 16:0.4485594 17:0.62619373 18:0.58097485 19:0.69999999 20:0.066666656 21:0.144 23:0.72058823 24:0.42652331 25:0.83908045 26:0.47126439 27:0.40493273 28:0.74411647 29:0.18874992 30:0.50477249 31:0.24534161 32:0.47428571 33:0.3163372 34:0.25806452 35:0.26233039 36:0.11111111 38:0.33333333 39:0.27272727 40:0.375 45:0.33333333 48:0.33333333 49:0.42857143 52:0.16666667 53:0.33333333 55:0.14285714 56:0.16666667 57:0.14285714 
-4 0:0.43134606 1:0.39263522 2:0.38456041 3:0.10382095 4:0.058063143 5:0.13377863 6:0.47834397 7:0.45483465 8:0.47449153 9:0.45147734 10:0.40702083 11:0.61056795 12:0.10013534 13:0.34137745 14:0.21570307 15:0.48511969 16:0.30272142 17:0.62482947 18:0.55542454 19:0.69999999 22:0.094915253 23:0.82720588 24:0.44086022 25:0.68965517 26:0.045977023 27:0.3820396 28:0.68464059 29:0.036079904 30:0.2702692 31:0.01863353 32:0.11142858 33:0.24416987 34:0.41935484 35:0.42543227 36:0.16666667 37:0.090909091 38:0.55555556 39:0.63636364 40:0.5 43:0.1 44:0.2 45:0.33333333 47:0.16666667 49:0.14285714 53:0.33333333 54:0.5 55:0.14285714 56:0.33333333 57:0.28571429 59:0.4 
2.159304609723576 0:0.55570934 1:0.50553935 2:0.38456041 4:0.052210291 5:0.34442946 6:0.62987866 7:0.29738122 8:1 9:0.34839021 10:0.43033112 11:0.79644793 12:0.14513938 13:0.52692363 14:0.12865797 15:0.33828983 16:0.22793571 17:0.5675307 18:0.50589624 19:0.69999999 20:0.066666656 21:0.144 22:0.45423728 23:0.57352942 24:0.39426523 25:0.91954022 26:0.16091955 27:0.29584321 28:0.85063335 29:0.26009872 30:0.74789267 31:0.11801242 32:0.40000001 33:0.44771878 34:0.41935484 35:0.47933262 36:0.27777778 37:0.18181818 38:0.61111111 39:0.54545455 40:0.625 42:0.14285714 43:0.3 47:0.16666667 48:0.33333333 49:0.42857143 52:0.33333333 53:0.16666667 57:0.14285714 59:0.4 
4 0:0.24703032 1:0.34476293 2:0.38456041 3:0.10382095 4:0.058063143 5:0.29570891 6:0.41527071 7:0.31993549 8:0.84084263 9:0.44911526 10:0.37591532 11:0.53572113 12:0.33700142 13:0.3047325 14:0.076962725 15:0.19700951 16:0.18041797 17:0.43110506 18:0.33653847 19:0.69999999 22:0.27118643 23:0.63602941 24:0.40860216 25:0.91954022 26:0.045977023 27:0.29630693 28:0.6365433 29:0.37623177 30:0.42660379 31:0.13664596 32:0.35142857 33:0.36242602 34:0.19354839 35:0.22699617 36:0.22222222 37:0.18181818 38:0.16666667 39:0.090909091 40:0.125 43:0.3 47:0.16666667 49:0.14285714 52:0.16666667 53:0.16666667 54:0.5 55:0.28571429 56:0.16666667 57:0.14285714 
-4 0:0.30765964 1:0.39901585 2:0.38456041 4:0.30411045 5:0.33276218 6:0.58163387 7:0.37840825 8:0.84084263 9:0.29163819 10:0.3744921 11:0.57951967 12:0.13678393 13:0.45512342 14:0.063652837 15:0.33046021 16:0.54476162 17:0.55934517 18:0.50539085 19:0.69999999 20:0.066666656 21:0.36000001 22:0.25762712 23:0.52205883 24:0.46953406 25:0.91954022 26:0.045977023 27:0.39693445 28:0.70524886 29:0.33333179 30:0.49656861 31:0.034161498 32:0.23428571 33:0.53883975 34:0.22580645 35:0.2548872 36:0.16666667 37:0.090909091 38:0.27777778 39:0.090909091 40:0.25 42:0.14285714 45:0.16666667 47:0.33333333 48:0.33333333 49:0.28571429 52:0.16666667 53:0.16666667 54:0.5 55:0.14285714 56:0.16666667 
-3.401352295793963 0:0.35013732 1:0.48877286 2:0.38456041 3:0.10382095 4:0.41354582 5:0.12235217 6:0.58464748 7:0.22659022 8:1 9:0.43710404 10:0.2759076 11:0.65646028 12:0.52737399 13:0.4664399 14:0.1574785 15:0.44203353 16:0.48142904 17:0.48840383 18:0.41273586 19:0.69999999 21:0.304 22:0.15254237 23:0.49264706 24:0.21505377 25:0.91954022 26:0.37931036 27:0.26687688 28:0.57783298 29:0.46277142 30:0.43173991 31:0.24844721 32:0.61428572 33:0.48473303 34:0.19354839 35:0.24844759 36:0.22222222 38:0.22222222 39:0.18181818 40:0.125 43:0.1 47:0.16666667 49:0.42857143 51:0.33333333 52:0.16666667 53:0.16666667 54:0.5 55:0.14285714 56:0.16666667 
4 0:0.45040727 1:0.51156303 2:0.38456041 4:0.058063143 5:0.34010932 6:0.71209777 7:0.29886518 8:0.84084263 9:0.35742137 10:0.27892304 11:0.86940732 12:0.62801488 13:0.91954651 14:0.084486055 15:0.16968902 16:0.50737267 17:0.51705322 18:0.45695756 19:0.69999999 20:0.066666656 22:0.25762712 23:0.71691177 24:0.34767026 25:0.91954022 26:0.11494253 27:0.2447566 28:0.74147229 29:0.5078366 30:0.7369773 31:0.018633543 32:0.33714286 33:0.44985792 34:0.29032258 35:0.32635012 36:0.27777778 37:0.18181818 38:0.27777778 39:0.18181818 40:0.125 43:0.3 45:0.16666667 47:0.33333333 48:0.33333333 49:0.42857143 51:0.33333333 55:0.14285714 56:0.33333333 
-0.9973428532630955 0:0.27478339 1:0.62107414 2:0.38456041 3:0.10382095 4:0.18706081 6:0.55940515 7:0.70571306 8:0.67061144 9:0.64439632 10:0.46115539 11:0.27861589 12:0.5198121 13:0.41391495 14:0.057852376 15:0.043321979 16:0.46479083 17:0.69031379 18:0.80483492 19:0.69999999 21:0.33599999 23:0.7610294 24:0.92831541 25:0.88505744 26:0.93103449 27:0.57504745 28:0.34022108 29:0.39790127 30:0.32468199 31:0.16459627 32:0.14857143 33:0.40719679 34:0.032258065 35:0.11035146 38:0.22222222 39:0.18181818 40:0.125 44:0.2 49:0.14285714 54:0.5 56:0.33333333 57:0.28571429 
1.212190652659178 0:0.31457717 1:0.40798746 2:0.38456041 3:0.10382095 4:0.41354582 6:0.57907731 7:0.28567717 8:0.88214745 9:0.43710404 10:0.28024371 11:0.48771929 12:0.12062243 13:0.34466215 14:0.21737099 15:0.4363065 16:0.33539328 17:0.48976809 18:0.4194744 19:0.69999999 21:0.304 23:0.53676471 24:0.39426523 25:0.72413792 26:0.16091955 27:0.39604643 28:0.63970315 29:0.46599868 30:0.53386969 31:0.2484472 32:0.46285714 33:0.49547057 34:0.22580645 35:0.29860545 36:0.16666667 37:0.090909091 38:0.27777778 39:0.27272727 40:0.125 42:0.14285714 44:0.2 47:0.16666667 49:0.14285714 51:0.33333333 52:0.33333333 54:0.5 56:0.33333333 57:0.14285714 59:0.2 
4 0:0.7969598 1:0.50076698 2:0.38456041 3:0.10382095 4:0.052210291 5:0.79073121 6:0.42443084 7:0.52434904 8:0.67061144 9:0.44244617 10:0.26288002 11:0.63254356 12:0.14167533 13:0.67414463 14:0.019490675 15:0.71969005 16:0.58933159 17:0.59208731 18:0.51358166 19:0.69999999 21:0.144 22:0.7457627 23:0.66544117 24:0.31182796 25:0.88505744 26:0.16091955 27:0.12795825 28:0.77267318 29:0.40228022 30:0.74539664 31:0.003105589 32:0.53714286 33:0.55157061 34:0.70967742 35:0.74948253 36:0.44444444 37:0.27272727 38:0.72222222 39:0.45454545 40:0.5 41:0.5 42:0.14285714 43:0.5 44:0.2 46:0.5 49:0.71428571 51:0.16666667 52:0.16666667 53:0.16666667 54:0.5 55:0.42857143 56:0.16666667 57:0.42857143 
-4 0:0.49379065 1:0.42809374 2:0.38456041 4:0.040790418 5:0.075259813 6:0.45257627 7:0.27914109 8:0.72299008 9:0.33076893 10:0.14652137 11:0.62014187 12:0.070326526 13:0.5215364 14:0.22566227 15:0.50281994 16:0.26191261 17:0.82673943 18:0.71821655 19:0.69999999 20:0.066666656 22:0.14237288 23:0.6617647 24:0.61290323 25:0.96551722 26:0.11494253 27:0.34288573 28:0.87929908 29:0.18053578 30:0.6245965 31:0.059006216 32:0.46 33:0.26654679 34:0.4516129 35:0.44891175 36:0.11111111 37:0.090909091 38:0.61111111 39:0.54545455 40:0.625 42:0.14285714 44:0.4 45:0.33333333 47:0.5 48:0.33333333 51:0.16666667 52:0.16666667 55:0.28571429 56:0.16666667 57:0.28571429 
4 0:0.36020869 1:0.46716877 2:0.38456041 4:0.33251132 5:0.60558423 6:0.41894802 7:0.50339168 8:0.48300363 9:0.60153691 10:0.38709126 11:0.72491412 12:0.52427573 13:0.5876344 14:0.12746885 15:0.42832684 16:0.39604616 17:0.55252388 18:0.49696766 19:0.69999999 20:0.066666656 21:0.224 22:0.67796609 23:0.54779411 24:0.45161291 25:0.65517239 26:0.47126439 27:0.360872 28:0.75179459 29:0.39835318 30:0.43086819 31:0.61490683 32:0.87142857 33:0.67264421 34:0.22580645 35:0.26617742 36:0.22222222 38:0.38888889 39:0.27272727 40:0.375 42:0.28571429 43:0.2 44:0.2 48:0.33333333 49:0.14285714 55:0.14285714 57:0.28571429 58:0.5 
-4 0:0.45458431 1:0.34535159 2:0.38456041 3:0.10382095 4:0.137594 5:0.16638109 6:0.38485118 7:0.24767305 8:0.59866936 9:0.35895092 10:0.19292343 11:0.53551587 12:0.075314608 13:0.48727809 14:0.049581252 15:0.43789374 16:0.38003594 17:0.44065485 18:0.41077045 19:0.69999999 22:0.12881356 23:0.59558823 24:0.3046595 25:0.65517239 26:0.16091955 27:0.26806848 28:0.60128756 29:0.10127859 30:0.53757034 31:0.018633538 32:0.21714285 33:0.23177559 34:0.5483871 35:0.55269816 36:0.16666667 37:0.090909091 38:0.5 39:0.36363636 40:0.25 43:0.1 44:0.4 45:0.16666667 46:0.5 47:0.16666667 49:0.14285714 51:0.16666667 52:0.16666667 53:0.16666667 54:0.5 55:0.71428571 56:0.33333333 57:0.14285714 58:0.5 59:0.4 
-3.935125020503583 0:0.36647028 1:0.303711 2:0.38456041 4:0.0019054289 5:0.18352451 6:0.43067852 7:0.17125669 8:0.84084263 9:0.22203839 10:0.013638169 11:0.64930344 12:0.01906992 13:0.75564204 14:0.035649547 15:0.30900742 16:0.27576291 17:0.42564802 18:0.39236707 19:0.69999999 20:0.066666656 22:0.20338982 23:0.63235294 24:0.21505377 25:0.96551722 26:0.16091955 27:0.20832033 28:0.68981992 29:0.24084283 30:0.54081801 31:0.027950316 32:0.40571429 33:0.32888177 34:0.48387097 35:0.4712413 36:0.38888889 37:0.18181818 38:0.38888889 39:0.27272727 40:0.375 42:0.14285714 43:0.4 45:0.33333333 47:0.16666667 48:0.66666667 49:0.28571429 52:0.33333333 53:0.16666667 55:0.28571429 57:0.28571429 
-4 0:0.54118588 1:0.39457296 2:0.38456041 4:0.040790418 5:0.59507562 6:0.53833049 7:0.22798061 8:0.88214745 9:0.33076893 10:0.28543962 11:0.64979441 12:0.071788857 13:0.503286 14:0.0021197716 15:0.48846102 16:0.28275946 17:0.45839017 18:0.4259434 19:0.69999999 20:0.066666656 22:0.7355932 23:0.55882352 24:0.33691757 25:0.96551722 26:0.11494253 27:0.27416695 28:0.83832791 29:0.028603112 30:0.68273225 31:0.034161482 32:0.68857143 33:0.54422293 34:0.58064516 35:0.62376382 36:0.44444444 37:0.27272727 38:0.55555556 39:0.36363636 40:0.25 42:0.42857143 43:0.2 44:0.4 46:0.5 47:0.16666667 48:0.33333333 49:0.14285714 51:0.33333333 52:0.16666667 53:0.16666667 55:0.42857143 57:0.57142857 59:0.2 
4 0:0.41591571 1:0.36076103 2:0.38456041 4:0.36316245 5:0.12311878 6:0.354163 7:0.25983519 8:0.58793409 9:0.29600612 10:0.2394085 11:0.62536172 12:0.20948453 13:0.51552452 14:0.04072512 15:0.53561596 16:0.46185676 17:0.57162346 18:0.50819857 19:0.69999999 20:0.066666656 21:0.36000001 22:0.15254237 23:0.77941175 24:0.33333334 25:0.93103444 26:0.11494253 27:0.21554576 28:0.74798962 29:0.45233923 30:0.72174436 31:0.0062111817 32:0.44000001 33:0.4336897 34:0.4516129 35:0.51983106 36:0.27777778 37:0.090909091 38:0.61111111 39:0.63636364 40:0.5 42:0.14285714 43:0.1 44:0.2 46:0.5 47:0.16666667 48:0.66666667 49:0.14285714 53:0.33333333 55:0.14285714 56:0.16666667 57:0.42857143 58:0.5 59:0.2 
-4 0:0.24578418 1:0.31876714 2:0.38456041 3:0.10382095 4:0.052210291 5:0.30832894 6:0.23511117 7:0.43012587 8:0.34122287 9:0.44244617 10:0.41414414 11:0.52313103 12:0.19247235 13:0.2563199 14:0.16030368 15:0.24450623 16:0.078118687 17:0.57571624 18:0.52560647 19:0.69999999 21:0.144 22:0.54915252 23:0.54044116 24:0.48028674 25:0.93103444 26:0.16091955 27:0.38325646 28:0.8353089 29:0.51225972 30:0.62303849 31:0.15838508 32:0.37142857 33:0.5896425 34:0.22580645 35:0.23299672 36:0.22222222 37:0.090909091 38:0.33333333 39:0.18181818 40:0.375 42:0.14285714 43:0.3 45:0.16666667 54:0.5 55:0.14285714 57:0.57142857 
-1.307869249528457 0:0.19440027 1:0.25212534 2:0.38456041 3:1 4:0.45433624 6:0.095135189 7:0.0011353732 8:0.25854553 9:0.21483576 10:0.090874881 11:0.38000388 12:0.19785783 13:0.36101844 14:0.38686755 15:0.61407646 16:0.47312247 17:0.42564803 18:0.3402965 19:0.69999999 20:0.92222222 21:0.304 23:0.45955882 24:0.16845878 25:0.65517239 26:0.11494253 27:0.17701018 28:0.48655193 29:0.30108331 30:0.4504613 31:0.2204969 32:0.27142857 33:0.34093559 34:0.22580645 35:0.21509962 36:0.16666667 37:0.18181818 38:0.27777778 39:0.27272727 40:0.25 42:0.14285714 43:0.1 44:0.2 45:0.33333333 46:1 48:0.33333333 49:0.14285714 51:0.16666667 57:0.14285714 59:0.2 
4 0:0.13015392 1:0.19636062 2:0.29662483 4:0.2457057 5:0.075259813 6:0.18287079 7:0.29834362 8:0.26596084 9:0.2687255 10:0.31949939 11:0.29850414 12:0.15826898 13:0.16595004 14:0.10738776 15:0.17033912 16:0.45649399 17:0.6207367 18:0.59748428 19:0.77777778 20:0.066666656 21:0.53599999 22:0.14237288 23:0.58088235 24:0.63799283 25:0.65517239 26:0.11494253 27:0.63004772 28:0.56061851 29:0.29123902 30:0.4007444 31:0.090062113 32:0.12 33:0.75248559 34:0.16129032 35:0.2091618 36:0.11111111 37:0.090909091 38:0.27777778 39:0.090909091 40:0.125 41:0.5 43:0.1 45:0.16666667 46:0.5 47:0.16666667 48:0.66666667 56:0.16666667 57:0.42857143 
0.253978423120106 0:0.31453987 1:0.47535422 2:0.36510967 3:0.10382095 4:0.41354582 5:0.021005665 6:0.4294647 7:0.49472128 8:0.67061144 9:0.5180445 10:0.4414587 11:0.59006088 12:0.39634571 13:0.37345374 14:0.003888753 15:0.040055795 16:0.68704412 17:0.63574353 18:0.61910379 19:0.11111111 21:0.304 22:0.061016948 23:0.56617647 24:0.73835127 25:0.88505744 26:0.77011496 27:0.75175295 28:0.58072704 29:0.10276524 30:0.11700482 31:0.074534154 32:0.29428571 33:0.5477309 34:0.16129032 35:0.16985511 36:0.11111111 38:0.27777778 39:0.18181818 40:0.25 42:0.14285714 45:0.33333333 47:0.16666667 49:0.28571429 51:0.16666667 54:0.5 56:0.16666667 57:0.14285714 
4 0:0.27135813 1:0.44697683 2:0.36510967 3:0.10382095 4:0.18706081 5:0.14865363 6:0.44670551 7:0.51701064 8:0.67061144 9:0.61915818 10:0.44862441 11:0.36172256 12:0.27737336 13:0.20663516 14:0.46890514 15:0.35219685 16:0.33107025 17:0.55661665 18:0.50707548 19:0.11111111 21:0.33599999 22:0.20338982 23:0.50735293 24:0.64516129 25:0.88505744 26:0.41379313 27:0.59290329 28:0.47916001 29:0.14794841 30:0.10048901 31:0.61801242 32:0.56571428 33:0.79053164 34:0.12903226 35:0.18465784 36:0.16666667 38:0.27777778 39:0.18181818 40:0.125 42:0.28571429 49:0.14285714 53:0.16666667 54:0.5 55:0.14285714 57:0.42857143 59:0.2 
4 0:0.40152295 1:0.48626402 2:0.36510967 4:0.052210291 5:0.3865901 6:0.45706118 7:0.46168981 8:0.51145407 9:0.34839021 10:0.14439406 11:0.5828681 12:0.3668301 13:0.46167736 14:0.033250513 15:0.34721628 16:0.60326288 17:0.58663029 18:0.53537737 19:0.11111111 20:0.066666656 21:0.144 22:0.31864407 23:0.73529412 24:0.59856631 25:0.96551722 26:0.16091955 27:0.52793915 28:0.66249218 29:0.15794006 30:0.45192352 31:0.043478254 32:0.32857143 33:0.4593455 34:0.25806452 35:0.29076502 36:0.16666667 37:0.090909091 38:0.33333333 39:0.18181818 40:0.25 42:0.42857143 44:0.2 45:0.16666667 46:0.5 47:0.16666667 48:0.33333333 49:0.28571429 56:0.33333333 57:0.14285714 
4 0:0.53943526 1:0.65320364 2:0.36510967 4:0.052210291 5:0.13377863 6:0.57456772 7:0.44112159 8:0.88214745 9:0.34839021 10:0.43789574 11:0.69415692 12:0.32826465 13:0.45312528 14:0.14656702 15:0.27693056 16:0.61071649 17:0.66575717 18:0.62657234 19:0.11111111 20:0.066666656 21:0.144 22:0.094915253 23:0.59558823 24:0.58422939 25:0.88505744 26:0.47126439 27:0.62098716 28:0.74411647 29:0.29556841 30:0.360799 31:0.040372667 32:0.27142858 33:0.3941208 34:0.25806452 35:0.30512869 36:0.11111111 38:0.38888889 39:0.45454545 40:0.125 42:0.14285714 44:0.2 45:0.16666667 48:0.33333333 49:0.57142857 51:0.16666667 55:0.28571429 56:0.16666667 57:0.14285714 59:0.2 
-0.948580822031396 0:0.30878539 1:0.26813336 2:0.36510967 4:0.30411045 5:0.34281708 6:0.2624646 7:0.27191595 8:0.47008154 9:0.40760939 10:0.31271042 11:0.53775274 12:0.042804315 13:0.36096257 14:0.18423585 15:0.39994879 16:0.30490884 17:0.46384721 18:0.4194744 19:0.11111111 20:0.066666656 21:0.36000001 22:0.33220338 23:0.49632352 24:0.49820789 25:0.49425287 26:0.44827588 27:0.39459063 28:0.62536232 29:0.24325757 30:0.49789722 31:0.20496894 32:0.40285714 33:0.46068115 34:0.4516129 35:0.46344268 36:0.22222222 38:0.44444444 39:0.27272727 40:0.5 42:0.28571429 44:0.4 45:0.16666667 46:0.5 47:0.16666667 48:0.33333333 51:0.16666667 52:0.16666667 53:0.16666667 56:0.66666667 57:0.14285714 59:0.2 
4 0:0.24061298 1:0.31206041 2:0.36510967 6:0.58198341 7:0.23696032 8:0.76429489 9:0.22203839 10:0.45463477 11:0.43914106 12:0.04417921 13:0.051270719 14:0.16547598 15:0.30438702 16:0.21739911 17:0.45293316 18:0.37398922 19:0.11111111 20:0.066666656 23:0.73529412 24:0.29390681 25:0.77011492 26:0.33333334 27:0.49861873 28:0.63849008 29:0.32379592 30:0.28795369 31:0.11490682 32:0.50285714 33:0.23909157 34:0.22580645 35:0.25911058 36:0.16666667 38:0.22222222 39:0.27272727 42:0.28571429 44:0.4 45:0.33333333 47:0.16666667 48:0.66666667 52:0.33333333 56:0.16666667 57:0.14285714 59:0.2 
4 0:0.20473177 1:0.30920405 2:0.36510967 5:0.21876924 6:0.23712096 7:0.3963623 8:0.48300363 9:0.25153304 10:0.21438708 11:0.54760741 12:0.62080447 13:0.6392279 14:0.055131022 15:0.11020081 16:0.42698598 17:0.38744885 18:0.26139938 19:0.11111111 20:0.066666656 22:0.12881356 23:0.28308823 24:0.39784946 25:0.35632184 26:0.33333334 27:0.16859316 28:0.59210562 29:0.67668113 30:0.57997726 31:0.05590062 32:0.15714286 33:0.28245413 34:0.16129032 35:0.15921303 36:0.16666667 38:0.16666667 39:0.090909091 40:0.125 42:0.28571429 43:0.1 44:0.2 45:0.33333333 48:0.33333333 49:0.14285714 52:0.33333333 59:0.2 
4 0:0.71970763 1:0.48565432 2:0.36510967 3:0.10382095 5:0.36399307 6:0.40496436 7:0.3632253 8:0.68168526 9:0.34558901 10:0.16096802 11:0.66663455 12:0.13545181 13:0.5767506 14:0.10428956 15:0.47466669 16:0.33568615 17:0.78171897 18:0.63722923 19:0.11111111 22:0.42372881 23:0.81617646 24:0.35483871 25:1 26:0.19540231 27:0.40946023 28:0.88630026 29:0.11078229 30:0.57091829 31:0.0031055908 32:0.49142858 33:0.36131058 34:0.64516129 35:0.69033432 36:0.22222222 38:0.72222222 39:0.81818182 40:0.375 41:0.5 42:0.28571429 43:0.1 45:0.16666667 46:0.5 47:0.83333333 49:0.28571429 52:0.16666667 53:0.16666667 54:0.5 55:0.42857143 56:0.33333333 57:0.28571429 59:0.2 
1.085137241840195 0:0.47278892 1:0.45272318 2:0.36510967 3:0.39452919 4:0.30411045 5:0.21938425 6:0.35213623 7:0.35756417 8:0.68168526 9:0.34558901 10:0.25334145 11:0.750017 12:0.5070228 13:0.63176377 14:0.069268528 15:0.53116341 16:0.43245048 17:0.50886768 18:0.45369912 19:0.11111111 20:0.11111111 21:0.36000001 22:0.3559322 23:0.50735295 24:0.33691757 25:1 26:0.16091955 27:0.19298704 28:0.89657031 29:0.73221012 30:0.91249903 31:0.055900628 32:0.40857144 33:0.58848657 34:0.38709677 35:0.43565619 36:0.33333333 37:0.18181818 38:0.33333333 39:0.18181818 40:0.125 42:0.14285714 43:0.3 47:0.66666667 49:0.14285714 52:0.16666667 53:0.33333333 54:0.5 55:0.42857143 56:0.16666667 57:0.14285714 
0.4683008491512531 0:0.3024094 1:0.34361182 2:0.36510967 3:0.10382095 4:0.41354582 5:0.28873326 6:0.41586242 7:0.25843562 8:0.51145407 9:0.45633898 10:0.27932592 11:0.45662864 12:0.26195554 13:0.48056606 14:0.040297482 15:0.20916059 16:0.42776656 17:0.40381993 18:0.33461086 19:0.11111111 21:0.304 22:0.28135593 23:0.47058823 24:0.32616488 25:0.96551722 26:0.16091955 27:0.29630693 28:0.54327462 29:0.14036588 30:0.4844735 31:0.0093167651 32:0.30285715 33:0.54838019 34:0.29032258 35:0.3195969 36:0.27777778 37:0.090909091 38:0.22222222 39:0.090909091 42:0.14285714 43:0.1 47:0.33333333 49:0.14285714 51:0.5 54:0.5 55:0.42857143 56:0.33333333 57:0.14285714 59:0.2 
4 0:0.55021436 1:0.40113022 2:0.36510967 4:0.40296401 5:0.13046592 6:0.60472613 7:0.3556753 8:0.84084263 9:0.33076893 10:0.20945562 11:0.62211725 12:0.16769961 13:0.5635049 14:0.012292794 15:0.2264021 16:0.39437463 17:0.68485675 18:0.58254718 19:0.11111111 20:0.066666656 21:0.36000001 22:0.15254237 23:0.83088235 24:0.32258065 25:0.96551722 26:0.11494253 27:0.24325584 28:0.92257594 29:0.28871246 30:0.65425819 31:0.040372673 32:0.27428572 33:0.51769896 34:0.58064516 35:0.6498986 36:0.38888889 37:0.18181818 38:0.61111111 39:0.54545455 40:0.375 42:0.14285714 43:0.2 47:0.66666667 48:0.66666667 49:0.14285714 51:0.33333333 52:0.16666667 53:0.16666667 55:0.42857143 56:0.16666667 57:0.57142857 
4 0:0.19070233 1:0.24732933 2:0.36510967 3:0.10382095 4:0.052210291 5:0.2416409 6:0.19719015 7:0.20634709 8:0.47449153 9:0.40760939 10:0.26039219 11:0.46060254 12:0.20246276 13:0.3950515 14:0.072898805 15:0.19328687 16:0.20215601 17:0.42837654 18:0.34366578 19:0.11111111 21:0.144 22:0.27118643 23:0.45220588 24:0.31541219 25:0.60919539 26:0.41379313 27:0.2569985 28:0.59674885 29:0.36532871 30:0.46233351 31:0.090062104 32:0.51714285 33:0.44751008 34:0.22580645 35:0.20997721 36:0.22222222 38:0.27777778 39:0.18181818 40:0.375 42:0.14285714 43:0.1 45:0.16666667 49:0.14285714 51:0.33333333 54:0.5 55:0.14285714 56:0.16666667 57:0.14285714 59:0.2 
4 0:0.34213881 1:0.2969716 2:0.36510967 3:0.10382095 4:0.11027343 5:0.22715831 6:0.30466658 7:0.19399228 8:0.88214745 9:0.22203839 10:0.23105032 11:0.58653938 12:0.066768256 13:0.38810625 14:0.0083336051 15:0.30794418 16:0.31418122 17:0.27012279 18:0.25999551 19:0.11111111 21:0.144 22:0.18983051 23:0.36764706 24:0.2437276 25:0.91954022 26:0.11494253 27:0.15367861 28:0.54543495 29:0.088294049 30:0.45781666 31:0.037267087 32:0.21142858 33:0.31738932 34:0.4516129 35:0.4437057 36:0.44444444 37:0.36363636 38:0.38888889 39:0.36363636 40:0.375 42:0.28571429 43:0.2 44:0.2 45:0.16666667 46:0.5 47:0.16666667 48:0.33333333 49:0.28571429 51:0.33333333 52:0.16666667 53:0.16666667 54:0.5 55:0.14285714 59:0.2 
0.1322152874013738 0:0.67422697 1:0.55771027 2:0.36510967 3:0.10382095 4:0.040790418 5:0.69249789 6:0.54695012 7:0.3632253 8:1 9:0.4248249 10:0.26960638 11:0.62074184 12:0.051457673 13:0.37302455 14:0.0996244 15:0.60339505 16:0.34543373 17:0.6207367 18:0.54566896 19:0.11111111 22:0.70508474 23:0.82720588 24:0.28673836 25:0.88505744 26:0.045977023 27:0.096139428 28:0.67685343 29:0.07644324 30:0.60163205 31:0.018633543 32:0.29142858 33:0.35216728 34:0.48387097 35:0.54437684 36:0.27777778 37:0.18181818 38:0.66666667 39:0.72727273 40:0.5 42:0.42857143 43:0.2 46:0.5 47:0.33333333 49:0.42857143 52:0.16666667 54:0.5 55:0.14285714 57:0.28571429 59:0.4 
4 0:0.57855473 1:0.52627971 2:0.36510967 3:0.10382095 5:0.67605564 6:0.42371509 7:0.3982951 8:0.67061144 9:0.27962697 10:0.3519462 11:0.57552476 12:0.071900328 13:0.31228295 14:0.11714438 15:0.41444797 16:0.51153012 17:0.38608459 18:0.34905661 19:0.11111111 22:0.50847457 23:0.42279412 24:0.24014337 25:0.88505744 26:0.045977023 27:0.13200235 28:0.55229526 29:0.24031675 30:0.48723518 31:0.0031055816 32:0.41428571 33:0.43646308 34:0.41935484 35:0.45645947 36:0.38888889 37:0.27272727 38:0.44444444 39:0.27272727 40:0.25 42:0.57142857 43:0.2 49:0.57142857 51:0.16666667 52:0.16666667 54:0.5 55:0.28571429 57:0.14285714 58:0.5 59:0.2 
0.2449548070333963 0:0.33131033 1:0.60018577 2:0.36510967 3:0.10382095 4:0.058063143 5:0.30015972 6:0.48886638 7:0.68590671 8:0.76429489 9:0.45147734 10:0.47339463 11:0.64236177 12:0.43745318 13:0.34349989 14:0.14333616 15:0.10755654 16:0.70470444 17:0.48703957 18:0.38915095 19:0.11111111 22:0.22372881 23:0.40073529 24:0.57706094 25:0.60919539 26:0.045977023 27:0.50975336 28:0.43633065 29:0.11751594 30:0.073192885 31:0.012422361 32:0.0085714282 33:0.42636216 34:0.096774194 35:0.12287524 36:0.16666667 37:0.090909091 38:0.16666667 39:0.090909091 42:0.14285714 43:0.1 44:0.6 45:0.16666667 49:0.14285714 53:0.16666667 54:0.5 55:0.14285714 
4 0:0.302313 1:0.30571863 2:0.36510967 5:0.12841457 6:0.4092676 7:0.21861979 8:0.72299008 9:0.22203839 10:0.20699792 11:0.58556918 12:0.32421802 13:0.44727052 14:0.062933818 15:0.19270302 16:0.14359724 17:0.366985 18:0.31577569 19:0.11111111 20:0.066666656 22:0.14237288 23:0.37867648 24:0.22580646 25:0.8045977 26:0.16091955 27:0.29020845 28:0.68724841 29:0.36164042 30:0.51439206 31:0.062111806 32:0.34857144 33:0.33926601 34:0.35483871 35:0.34088106 36:0.27777778 37:0.090909091 38:0.33333333 39:0.27272727 42:0.28571429 43:0.1 44:0.2 45:0.33333333 47:0.16666667 48:0.33333333 51:0.33333333 55:0.42857143 57:0.28571429 59:0.6 
4 0:0.24916177 1:0.3764309 2:0.36510967 4:0.0019054289 5:0.2561308 6:0.5115678 7:0.19629508 8:0.72299008 9:0.27076798 10:0.31933462 11:0.48678313 12:0.31039865 13:0.34214008 14:0.2299555 15:0.2415681 16:0.25172149 17:0.52660301 18:0.46187108 19:0.11111111 20:0.066666656 22:0.24745763 23:0.54411765 24:0.51971327 25:0.8045977 26:0.37931036 27:0.43593375 28:0.56347623 29:0.42016218 30:0.35407527 31:0.16770187 32:0.36285715 33:0.28913243 34:0.16129032 35:0.18049719 36:0.11111111 38:0.22222222 39:0.18181818 40:0.25 42:0.28571429 44:0.4 47:0.16666667 48:0.33333333 52:0.16666667 55:0.28571429 56:0.16666667 
4 0:0.51984715 1:0.59036492 2:0.36510967 3:0.10382095 4:0.18706081 5:0.21876924 6:0.54695012 7:0.38670668 8:0.67061144 9:0.43710404 10:0.46878182 11:0.72920111 12:0.053495306 13:0.38338661 14:0.0015064872 15:0.21231761 16:0.53268816 17:0.64665758 18:0.59699294 19:0.11111111 21:0.33599999 22:0.12881356 23:0.80147058 24:0.19713262 25:0.88505744 26:0.37931036 27:0.4713274 28:0.86645753 29:0.051590221 30:0.26263534 31:0.10559006 32:0.45142857 33:0.3906402 34:0.29032258 35:0.38443204 36:0.16666667 38:0.44444444 39:0.45454545 40:0.25 42:0.14285714 43:0.1 47:0.16666667 49:0.42857143 51:0.16666667 52:0.33333333 54:0.5 56:0.16666667 57:0.28571429 59:0.2 
1.225046973951149 0:0.33984092 1:0.44075302 2:0.36510967 3:0.10382095 4:0.0019054289 5:0.40802199 6:0.42371509 7:0.47560496 8:0.47449153 9:0.36482395 10:0.30691201 11:0.53739841 12:0.050924532 13:0.3881932 14:0.12054436 15:0.35804028 16:0.43055841 17:0.47066849 18:0.39588949 19:0.11111111 22:0.39999999 23:0.43749999 24:0.47311828 25:0.60919539 26:0.16091955 27:0.41505003 28:0.58371418 29:0.1708952 30:0.30850771 31:0.090062112 32:0.24571429 33:0.53206208 34:0.22580645 35:0.26891635 36:0.22222222 37:0.090909091 38:0.27777778 39:0.18181818 40:0.125 42:0.28571429 43:0.1 49:0.28571429 52:0.16666667 53:0.16666667 54:0.5 55:0.28571429 57:0.28571429 59:0.2 
-3.751279661706687 0:0.36685993 1:0.35149326 2:0.36510967 3:0.10382095 5:0.33943959 6:0.40863357 7:0.28518835 8:0.59866936 9:0.29163819 10:0.2549597 11:0.58779631 12:0.23303008 13:0.4877049 14:0.23753145 15:0.43435645 16:0.35845032 17:0.32060028 18:0.28239821 19:0.11111111 22:0.47457626 23:0.62132352 24:0.25089606 25:0.93103444 26:0.045977023 27:0.3254531 28:0.67347553 29:0.14467376 30:0.49153292 31:0.18944099 32:0.66857143 33:0.48500226 34:0.38709677 35:0.42702126 36:0.44444444 37:0.27272727 38:0.33333333 39:0.27272727 40:0.125 42:0.42857143 43:0.2 46:0.5 49:0.28571429 53:0.5 54:0.5 55:0.28571429 57:0.42857143 58:0.5 
4 0:0.2378019 1:0.24064432 2:0.36510967 3:0.10382095 5:0.075259813 6:0.332534 7:0.17769279 8:0.35540177 9:0.27962697 10:0.25545021 11:0.55020561 12:0.086747155 13:0.39543275 14:0.36814399 15:0.50738099 16:0.30035392 17:0.43110506 18:0.3773585 19:0.11111111 22:0.14237288 23:0.54411765 24:0.41577062 25:0.68965517 26:0.045977023 27:0.35523724 28:0.64475754 29:0.087669661 30:0.46679914 31:0.1273292 32:0.32 33:0.32154998 34:0.35483871 35:0.29860545 36:0.27777778 37:0.18181818 38:0.33333333 39:0.27272727 40:0.375 42:0.28571429 45:0.5 47:0.16666667 49:0.14285714 51:0.16666667 53:0.33333333 54:0.5 55:0.14285714 56:0.16666667 57:0.14285714 59:0.2 
4 0:0.32942003 1:0.33306232 2:0.36510967 4:0.058063143 5:0.075259813 6:0.35492516 7:0.34941797 8:0.51145407 9:0.35742137 10:0.32785825 11:0.53475798 12:0.01137951 13:0.2831841 14:0.36743921 15:0.47664829 16:0.39167798 17:0.51705321 18:0.45990567 19:0.11111111 20:0.066666656 22:0.14237288 23:0.61764706 24:0.39426523 25:0.96551722 26:0.11494253 27:0.39529884 28:0.74347135 29:0.24105056 30:0.48131689 31:0.04658385 32:0.48571428 33:0.47116236 34:0.35483871 35:0.38190219 36:0.33333333 37:0.27272727 38:0.33333333 39:0.18181818 40:0.125 42:0.28571429 43:0.1 44:0.2 45:0.33333333 47:0.33333333 48:0.33333333 51:0.33333333 52:0.16666667 53:0.16666667 56:0.16666667 57:0.42857143 
3.4604157201 0:0.56115545 1:0.67949542 2:0.36510967 4:0.018261582 5:0.64846897 6:0.79972254 7:0.44606928 8:1 9:0.29600612 10:0.56238842 11:0.72940359 12:0.17564646 13:0.29240165 14:0.06850431 15:0.31738006 16:0.52600969 17:0.61255117 18:0.56525158 19:0.11111111 20:0.066666656 22:0.72881356 23:0.65441177 24:0.42293907 25:0.83908045 26:0.16091955 27:0.56254025 28:0.63275875 29:0.14930162 30:0.24640924 31:0.027950312 32:0.42 33:0.83577881 34:0.25806452 35:0.34238642 36:0.27777778 37:0.090909091 38:0.33333333 39:0.18181818 42:0.28571429 43:0.2 44:0.2 47:0.5 48:0.33333333 49:0.28571429 51:0.16666667 55:0.14285714 56:0.16666667 57:0.14285714 
-3.111942109163512 0:0.23382545 1:0.52811421 2:0.36510967 3:0.10382095 4:0.41354582 5:0.15051963 6:0.3572989 7:0.63953176 8:0.35540177 9:0.57945975 10:0.46115539 11:0.27861589 12:0.35684859 13:0.27458473 14:0.32300356 15:0.24256292 16:0.54742416 17:0.60300137 18:0.61615566 19:0.11111111 21:0.304 22:0.28474575 23:0.55514704 24:0.66308244 25:0.93103444 26:0.5172414 27:0.57504745 28:0.34022108 29:0.61926347 30:0.52323083 31:0.077639748 32:0.068571425 33:0.66511122 34:0.032258065 35:0.083965793 36:0.11111111 38:0.16666667 39:0.18181818 42:0.14285714 43:0.1 45:0.16666667 49:0.14285714 54:0.5 57:0.42857143 
2.073041326030996 0:0.13121392 1:0.1979645 2:0.36510967 4:0.0019054289 5:0.12841457 6:0.18812366 7:0.28228211 8:0.47449153 9:0.27076798 10:0.19226269 11:0.54267026 12:0.49824322 13:0.47904614 14:0.19380326 15:0.21440244 16:0.32249937 17:0.34924967 18:0.20636793 19:0.11111111 20:0.066666656 22:0.14237288 23:0.33823529 24:0.40860215 25:0.60919539 26:0.16091955 27:0.24106661 28:0.48299683 29:0.49119026 30:0.4563079 31:0.13043477 32:0.32857143 33:0.38786917 34:0.16129032 35:0.18639319 36:0.22222222 37:0.090909091 38:0.16666667 39:0.090909091 40:0.125 42:0.14285714 43:0.1 46:0.5 48:0.33333333 49:0.14285714 51:0.33333333 55:0.14285714 56:0.16666667 57:0.14285714 59:0.2 
-0.7746611621737739 0:0.78521836 1:0.39814415 2:0.39452919 4:0.13379113 5:0.64844013 6:0.51154848 7:0.21777307 8:0.84084263 9:0.33076893 10:0.20220981 11:0.66316211 12:0.0011816082 13:0.41494772 14:0.0084152277 15:0.45668647 16:0.32135534 17:0.32196453 18:0.37801363 19:0.11111111 20:0.066666656 21:0.144 22:0.72881355 23:0.83455882 24:0.31182796 25:0.96551722 26:0.11494253 27:0.17822706 28:0.85009724 29:0.12373434 30:0.59756124 31:0.02795031 32:0.57714285 33:0.41020746 34:0.93548387 35:0.90831922 36:0.77777778 37:0.63636364 38:0.72222222 39:0.36363636 40:0.5 42:1 43:0.4 44:0.2 45:0.33333333 47:0.33333333 48:0.66666667 49:0.42857143 51:0.16666667 53:0.16666667 55:0.28571429 56:0.5 57:0.42857143 59:0.2 
-4 0:0.63215769 1:0.47969435 2:0.39452919 3:0.10382095 4:0.0019054289 5:0.28671567 6:0.38664557 7:0.40335102 8:1 9:0.35895092 10:0.27302684 11:0.75891135 12:0.19268002 13:0.58134758 14:0.0063359557 15:0.38387781 16:0.49134668 17:0.57571624 18:0.50805819 19:0.11111111 22:0.42711864 23:0.54411765 24:0.42293907 25:0.83908045 26:0.16091955 27:0.34012317 28:0.84718727 29:0.054241271 30:0.51127898 31:0.0031055908 32:0.42 33:0.50654808 34:0.5483871 35:0.56545192 36:0.33333333 37:0.090909091 38:0.61111111 39:0.63636364 40:0.375 42:0.14285714 43:0.2 45:0.33333333 46:0.5 47:0.33333333 49:0.57142857 50:0.5 51:0.33333333 52:0.16666667 53:0.16666667 54:0.5 55:0.14285714 57:0.14285714 59:0.2 
-0.04706654905526504 0:0.56282377 1:0.42723992 2:0.39452919 4:0.71765627 5:0.26537469 6:0.70311234 7:0.25219092 8:1 9:0.25153304 10:0.21154266 11:0.59099244 12:0.048430441 13:0.36480907 14:0.0039232042 15:0.35455421 16:0.31680284 17:0.48021828 18:0.43926888 19:0.11111111 20:0.066666656 21:0.66400001 22:0.1559322 23:0.5625 24:0.3405018 25:0.96551722 26:0.16091955 27:0.34980203 28:0.5471682 29:0.031876227 30:0.30406345 31:0.021739133 32:0.28857144 33:0.24801915 34:0.5483871 35:0.58226181 36:0.33333333 37:0.090909091 38:0.5 39:0.45454545 40:0.375 42:0.28571429 43:0.3 44:0.2 45:0.16666667 47:0.16666667 48:0.66666667 49:0.42857143 52:0.33333333 55:0.28571429 56:0.33333333 57:0.14285714 58:0.5 
-3.923640536903033 0:0.29322626 1:0.44310469 2:0.39452919 4:0.052210291 5:0.16907303 6:0.33685648 7:0.46289251 8:0.72299008 9:0.34839021 10:0.40446461 11:0.60276088 12:0.49306128 13:0.48540309 14:0.033538673 15:0.085009941 16:0.2262624 17:0.6521146 18:0.64268869 19:0.11111111 20:0.066666656 21:0.144 22:0.15254237 23:0.73897057 24:0.67383514 25:0.93103444 26:0.16091955 27:0.5010272 28:0.8953209 29:0.7070619 30:0.64863186 31:0.0062111733 32:0.20285715 33:0.37850098 34:0.16129032 35:0.22576261 36:0.11111111 37:0.090909091 38:0.27777778 39:0.27272727 40:0.125 43:0.2 44:0.2 45:0.16666667 47:0.16666667 48:0.33333333 52:0.16666667 56:0.16666667 57:0.42857143 
-2.956255291360612 0:0.31573972 1:0.47716971 2:0.39452919 4:0.41354582 5:0.075259813 6:0.50569769 7:0.45093925 8:0.88214745 9:0.46483925 10:0.25246901 11:0.76158201 12:0.87237653 13:0.78128476 14:0.30068879 15:0.28575292 16:0.69368414 17:0.45020465 18:0.35180818 19:0.11111111 20:0.066666656 21:0.304 22:0.14237288 23:0.52573529 24:0.39426524 25:0.72413792 26:0.16091955 27:0.16167689 28:0.82639729 29:0.82883265 30:0.75763994 31:0.22360248 32:0.41428571 33:0.48317402 34:0.16129032 35:0.23251584 36:0.16666667 37:0.090909091 38:0.22222222 39:0.18181818 43:0.2 44:0.2 46:0.5 48:0.33333333 49:0.28571429 52:0.16666667 53:0.16666667 55:0.14285714 57:0.14285714 59:0.2 
-2.474137650105969 0:0.40489623 1:0.36862255 2:0.39452919 3:0.10382095 4:0.0019054289 5:0.58015846 6:0.42104221 7:0.24927228 8:0.51421965 9:0.36482395 10:0.28267113 11:0.60080104 12:0.14570427 13:0.40666171 14:0.22772613 15:0.50445769 16:0.39229466 17:0.43792634 18:0.39386793 19:0.11111111 22:0.58644068 23:0.54044118 24:0.34767026 25:0.96551722 26:0.16091955 27:0.42923669 28:0.63477371 29:0.07283366 30:0.35743761 31:0.043478265 32:0.45428572 33:0.46428929 34:0.41935484 35:0.42831754 36:0.27777778 37:0.090909091 38:0.33333333 39:0.18181818 41:0.5 42:0.14285714 43:0.4 45:0.16666667 46:1 47:0.33333333 49:0.28571429 50:0.5 52:0.16666667 54:0.5 55:0.42857143 57:0.14285714 
-4 0:0.28255705 1:0.36645931 2:0.39452919 4:0.058063143 5:0.60340923 6:0.40096034 7:0.20118823 8:0.45788303 9:0.35742137 10:0.25516229 11:0.61401946 12:0.41211139 13:0.42025935 14:0.010810521 15:0.19596924 16:0.42829621 17:0.27967259 18:0.16004044 19:0.11111111 20:0.066666656 22:0.47118644 23:0.23161765 24:0.13620072 25:0.43678161 26:0.11494253 27:0.18304401 28:0.54995773 29:0.308486 30:0.41110352 31:0.046583852 32:0.26857143 33:0.43395474 34:0.22580645 35:0.22691254 36:0.38888889 37:0.36363636 38:0.11111111 42:0.28571429 43:0.4 44:0.2 45:0.16666667 47:0.16666667 48:0.33333333 49:0.14285714 51:0.16666667 55:0.14285714 56:0.16666667 
-4 0:0.20576602 1:0.31076896 2:0.39452919 3:0.10382095 4:0.0005817511 5:0.12235217 6:0.32485656 7:0.26574472 8:0.84084263 9:0.36278146 10:0.18848803 11:0.50156369 12:0.43002853 13:0.3937761 14:0.23007999 15:0.20105544 16:0.24238404 17:0.58253753 18:0.54245284 19:0.11111111 21:0.2 22:0.15254237 23:0.56617647 24:0.54838711 25:0.91954022 26:0.47126439 27:0.48242264 28:0.75572452 29:0.44536085 30:0.39006543 31:0.059006217 32:0.17142857 33:0.44560862 34:0.16129032 35:0.15636957 36:0.11111111 38:0.22222222 39:0.090909091 40:0.125 41:0.5 43:0.1 45:0.33333333 47:0.16666667 49:0.14285714 53:0.16666667 54:0.5 55:0.14285714 56:0.16666667 57:0.14285714 
-1.933880456169309 0:0.25149447 1:0.35099802 2:0.39452919 5:0.12235217 6:0.31905169 7:0.30898841 8:0.32384626 9:0.22203839 10:0.25882531 11:0.63233694 12:0.23991688 13:0.31060625 14:0.79530318 15:0.66521954 16:0.45742852 17:0.56207368 18:0.51070393 19:0.11111111 20:0.066666656 22:0.15254237 23:0.64705882 24:0.53046596 25:0.43678161 26:0.47126438 27:0.55754904 28:0.80453511 29:0.18412055 30:0.43625137 31:0.69875777 32:0.76857144 33:0.60868819 34:0.19354839 35:0.2128834 36:0.11111111 38:0.22222222 43:0.1 45:0.33333333 47:0.5 48:0.33333333 52:0.16666667 53:0.16666667 55:0.28571429 57:0.14285714 59:0.2 
-4 0:0.1998044 1:0.32886666 2:0.39452919 4:0.052210291 5:0.21861765 6:0.27387666 7:0.31849804 8:0.51145407 9:0.34839021 10:0.41287304 11:0.4201003 12:0.29960248 13:0.22564057 14:0.18475283 15:0.13867801 16:0.18893705 17:0.50750341 18:0.42988851 19:0.11111111 20:0.066666656 21:0.144 22:0.3559322 23:0.45220587 24:0.32616488 25:0.96551722 26:0.16091955 27:0.25560736 28:0.69689375 29:0.65131089 30:0.55197547 31:0.29503107 32:0.26857144 33:0.68357771 34:0.12903226 35:0.18587049 36:0.27777778 37:0.18181818 38:0.22222222 39:0.18181818 40:0.125 42:0.14285714 43:0.2 47:0.16666667 48:0.33333333 51:0.33333333 57:0.42857143 
-2.529594532649065 0:0.38229901 1:0.46299389 2:0.39452919 4:0.058063143 5:0.21310195 6:0.55690555 7:0.50277924 8:0.72299008 9:0.35742137 10:0.22325423 11:0.6280481 12:0.377064 13:0.54809237 14:0.041221514 15:0.17717343 16:0.48572522 17:0.43792634 18:0.36399372 19:0.11111111 20:0.066666656 22:0.12881356 23:0.48161765 24:0.40860215 25:0.8045977 26:0.11494253 27:0.20262094 28:0.65056156 29:0.4125052 30:0.57941813 31:0.062111805 32:0.22285715 33:0.31661546 34:0.25806452 35:0.2808338 36:0.27777778 37:0.18181818 38:0.27777778 39:0.27272727 40:0.125 43:0.3 44:0.2 45:0.16666667 47:0.16666667 48:0.33333333 49:0.28571429 51:0.16666667 53:0.16666667 55:0.28571429 58:0.5 
-4 0:0.17381425 1:0.22542651 2:0.39452919 5:0.34319911 6:0.28114334 7:0.13802307 8:0.48300363 9:0.22203839 10:0.22154298 11:0.54958343 12:0.25130151 13:0.47548361 14:0.14017309 15:0.4222061 16:0.31162555 17:0.22100956 18:0.087601082 19:0.11111111 20:0.066666656 22:0.28135593 23:0.22426471 24:0.15053764 25:0.40229886 26:0.16091955 27:0.13303939 28:0.53900622 29:0.42982369 30:0.4796386 31:0.090062109 32:0.58857143 33:0.41558941 34:0.22580645 35:0.23356123 36:0.38888889 37:0.18181818 38:0.055555556 42:0.28571429 43:0.3 45:0.16666667 47:0.16666667 48:0.33333333 49:0.14285714 51:0.33333333 52:0.16666667 56:0.33333333 
-4 0:0.49916587 1:0.53375141 2:0.39452919 3:0.10382095 4:0.018261582 5:0.49914326 6:0.43067852 7:0.3549552 8:0.84084263 9:0.39006209 10:0.24485863 11:0.65962967 12:0.15995852 13:0.49803775 14:0.023046813 15:0.28685183 16:0.41518344 17:0.63165076 18:0.57505551 19:0.11111111 22:0.38644068 23:0.55147059 24:0.50179212 25:0.91954022 26:0.36781611 27:0.2752939 28:0.78779999 29:0.14334638 30:0.54126285 31:0.17391304 32:0.37142857 33:0.47062222 34:0.32258065 35:0.36797759 36:0.16666667 38:0.33333333 39:0.18181818 40:0.125 42:0.14285714 43:0.2 45:0.33333333 47:0.16666667 49:0.42857143 52:0.16666667 54:0.5 56:0.5 57:0.28571429 
4 0:0.45387536 1:0.5154987 2:0.39452919 3:0.10382095 4:0.30411045 5:0.21938271 6:0.55061934 7:0.470207 8:0.67061144 9:0.38315322 10:0.36094715 11:0.68982719 12:0.31335586 13:0.54329068 14:0.017972438 15:0.17733039 16:0.45118715 17:0.54433834 18:0.48643869 19:0.11111111 21:0.36000001 22:0.25423729 23:0.63235294 24:0.34408603 25:0.96551722 26:0.16091955 27:0.29895988 28:0.8177878 29:0.51619215 30:0.71435927 31:0.077639741 32:0.23714286 33:0.4037881 34:0.29032258 35:0.37506533 36:0.27777778 37:0.18181818 38:0.38888889 39:0.45454545 40:0.125 43:0.3 44:0.2 46:0.5 47:0.16666667 49:0.28571429 50:0.5 51:0.16666667 52:0.16666667 53:0.16666667 54:0.5 57:0.28571429 
-4 0:0.42419395 1:0.48181558 2:0.39452919 4:0.0019054289 5:0.4232785 6:0.73111639 7:0.56301435 8:0.84084263 9:0.27076798 10:0.29967762 11:0.7689665 12:0.28619181 13:0.582719 14:0.012551477 15:0.20456042 16:0.30813655 17:0.54297409 18:0.48496463 19:0.11111111 20:0.066666656 22:0.37627119 23:0.68014706 24:0.67383514 25:0.96551722 26:0.42528736 27:0.27694922 28:0.90966173 29:0.34213423 30:0.68032803 31:0.012422351 32:0.28285715 33:0.53231054 34:0.29032258 35:0.31376361 36:0.27777778 38:0.27777778 39:0.27272727 42:0.14285714 43:0.2 44:0.2 45:0.16666667 47:0.5 48:0.33333333 49:0.14285714 51:0.33333333 55:0.42857143 57:0.14285714 
4 0:0.41159506 1:0.37470413 2:0.39452919 3:1 5:0.16598053 6:0.44904704 7:0.22672565 8:0.67061144 9:0.43710404 10:0.23051748 11:0.5931611 12:0.033399747 13:0.70369122 14:0.022365542 15:0.21992372 16:0.26749396 17:0.57571623 18:0.5129717 19:0.11111111 20:0.92222222 22:0.28474575 23:0.61764705 24:0.32974911 25:0.88505744 26:0.37931036 27:0.39377282 28:0.827131 29:0.11537666 30:0.59682913 31:0.093167696 32:0.50571428 33:0.41315857 34:0.41935484 35:0.44654917 36:0.16666667 38:0.33333333 39:0.18181818 40:0.125 42:0.14285714 43:0.2 45:0.16666667 46:0.5 49:0.28571429 51:0.16666667 52:0.16666667 55:0.42857143 56:0.5 57:0.57142857 
-4 0:0.40464439 1:0.56490309 2:0.39452919 4:0.058063143 5:0.059735295 6:0.62576413 7:0.53307647 8:1 9:0.35742137 10:0.47042864 11:0.79776065 12:0.53297262 13:0.59993169 14:0.063799345 15:0.13057589 16:0.63341484 17:0.47748978 18:0.39822207 19:0.11111111 20:0.066666656 23:0.44117647 24:0.58781362 25:0.83908045 26:0.11494253 27:0.43624289 28:0.71968279 29:0.46566955 30:0.51952099 31:0.015527947 32:0.16 33:0.37678864 34:0.19354839 35:0.25091472 36:0.22222222 37:0.090909091 38:0.27777778 39:0.27272727 40:0.125 43:0.2 44:0.2 48:0.33333333 49:0.42857143 51:0.16666667 53:0.16666667 55:0.14285714 56:0.16666667 59:0.2 
3.844156207666271 0:0.51556302 1:0.55126468 2:0.86197914 4:0.30411045 5:0.18738675 6:0.47118474 7:0.49250814 8:0.67061144 9:0.52230102 10:0.2731511 11:0.76839004 12:0.63103871 13:0.68547711 14:0.089823222 15:0.4605338 16:0.42284128 17:0.86493861 18:0.81229191 19:0.81111111 20:0.066666656 21:0.36000001 22:0.18983051 23:0.70955881 24:0.76702509 25:0.96551722 26:0.68965519 27:0.39363795 28:0.97858532 29:0.58712744 30:0.78331016 31:0.027950319 32:0.47142857 33:0.53244555 34:0.32258065 35:0.40243367 36:0.11111111 38:0.55555556 39:0.54545455 40:0.375 42:0.14285714 44:0.2 47:0.33333333 48:0.33333333 49:0.14285714 51:0.16666667 52:0.16666667 55:0.28571429 57:0.57142857 
-3.648780178365614 0:0.4876655 1:0.37037909 2:0.86197914 4:0.54375833 5:0.55073644 6:0.31896479 7:0.31166693 8:0.47008154 9:0.19758222 10:0.22579631 11:0.58012382 12:0.054477839 13:0.41295253 14:0.13242671 15:0.43688324 16:0.33267591 17:0.39427012 18:0.37735849 19:0.81111111 20:0.066666656 21:0.304 22:0.82033896 23:0.45220587 24:0.22580646 25:0.65517239 26:0.11494253 27:0.048169475 28:0.68396361 29:0.13524139 30:0.69939799 31:0.012422354 32:0.47714286 33:0.50975968 34:0.5483871 35:0.56871354 36:0.5 37:0.27272727 38:0.61111111 39:0.45454545 40:0.5 42:0.57142857 43:0.2 44:0.4 48:0.66666667 49:0.14285714 53:0.33333333 55:0.28571429 57:0.42857143 59:0.4 
2.223672846835298 0:0.61401423 1:0.55847188 2:0.86197914 4:0.058063143 5:0.2204491 6:0.6038963 7:0.30558105 8:0.84084263 9:0.35742137 10:0.33115846 11:0.75614922 12:0.30118563 13:0.57881955 14:0.59422888 15:0.67451336 16:0.54501898 17:0.75579809 18:0.66863209 19:0.81111111 20:0.066666656 22:0.12881356 23:0.95220588 24:0.39784947 25:0.96551722 26:0.11494253 27:0.47680758 28:0.8954095 29:0.30917955 30:0.57692933 31:0.121118 32:0.32571428 33:0.23376285 34:0.41935484 35:0.43124464 36:0.22222222 37:0.18181818 38:0.5 39:0.54545455 40:0.125 41:0.5 43:0.3 44:0.2 45:0.66666667 47:0.33333333 48:0.33333333 49:0.42857143 53:0.16666667 56:0.16666667 57:0.28571429 
-1.634030044675497 0:0.27013222 1:0.48910376 2:0.86197914 4:0.41354582 5:0.16252158 6:0.35820354 7:0.51241984 8:0.42511821 9:0.62677505 10:0.42943873 11:0.7092284 12:0.6553909 13:0.52983184 14:0.942748 15:0.7082537 16:0.71789836 17:0.5457026 18:0.49056605 19:0.81111111 20:0.066666656 21:0.304 22:0.15254237 23:0.53308824 24:0.39784947 25:0.57471264 26:0.16091955 27:0.49837423 28:0.81471656 29:0.74805658 30:0.63875065 31:0.38198758 32:0.34857143 33:0.44898486 34:0.096774194 35:0.1326601 36:0.11111111 37:0.090909091 38:0.22222222 39:0.18181818 41:0.5 42:0.28571429 44:0.2 45:0.16666667 47:0.16666667 48:0.33333333 49:0.14285714 56:0.16666667 59:0.2 
1.834320222008604 0:0.31758239 1:0.47995784 2:0.86197914 3:0.10382095 4:0.058063143 5:0.41310873 6:0.33235419 7:0.48676154 8:0.42877672 9:0.45147734 10:0.34777333 11:0.65912835 12:0.35147914 13:0.36765118 14:0.44958412 15:0.45182053 16:0.28595499 17:0.33969988 18:0.19261007 19:0.81111111 22:0.31186441 23:0.19852941 24:0.41577062 25:0.50574712 26:0.045977023 27:0.19298704 28:0.61357257 29:0.47120719 30:0.48779956 31:0.29503105 32:0.31714286 33:0.41177657 34:0.16129032 35:0.20399757 36:0.33333333 37:0.36363636 38:0.22222222 39:0.18181818 42:0.28571429 43:0.3 44:0.4 47:0.16666667 50:0.5 51:0.16666667 54:0.5 59:0.2 
2.053348852446199 0:0.15618678 1:0.25686924 2:0.86197914 4:0.058063143 5:0.27174352 6:0.30883328 7:0.16806776 8:0.34003048 9:0.35742137 10:0.41228455 11:0.31049094 12:0.062183489 13:0.022652548 14:0.11632755 15:0.087261621 16:0.11215302 17:0.39017736 18:0.24549743 19:0.81111111 20:0.066666656 22:0.23728813 23:0.26838235 24:0.33691757 25:0.34482757 26:0.11494253 27:0.37006188 28:0.4009818 29:0.32418065 30:0.25855894 31:0.2142857 32:0.1942857 33:0.32413866 34:0.12903226 35:0.15036902 36:0.22222222 37:0.18181818 38:0.16666667 39:0.090909091 40:0.125 42:0.28571429 43:0.1 44:0.2 45:0.16666667 48:0.33333333 53:0.16666667 56:0.16666667 57:0.14285714 58:0.5 
-0.2605693867775577 0:0.26236976 1:0.43214017 2:0.86197914 3:0.10382095 4:0.052210291 6:0.34545884 7:0.51118366 8:0.47449153 9:0.4196206 10:0.28873072 11:0.4861749 12:0.70086923 13:0.56871482 14:0.41121063 15:0.30884381 16:0.56914713 17:0.60572989 18:0.58426245 19:0.81111111 21:0.144 23:0.48161765 24:0.65591399 25:0.60919539 26:0.5172414 27:0.30541246 28:0.68108549 29:0.54685765 30:0.45828707 31:0.46273292 32:0.42285715 33:0.38778488 34:0.12903226 35:0.1318656 36:0.11111111 38:0.33333333 39:0.36363636 40:0.5 44:0.4 45:0.16666667 49:0.14285714 51:0.16666667 53:0.16666667 54:0.5 
4 0:0.3446956 1:0.34847125 2:0.86197914 5:0.35645978 6:0.24599657 7:0.26756689 8:0.68168526 9:0.22203839 10:0.25612905 11:0.57968885 12:0.34214529 13:0.50610832 14:0.091090235 15:0.26181187 16:0.27259569 17:0.48567531 18:0.4297694 19:0.81111111 20:0.066666656 22:0.34237288 23:0.47426471 24:0.33691757 25:1 26:0.16091955 27:0.12795825 28:0.82718329 29:0.5555695 30:0.73649785 31:0.046583849 32:0.26857143 33:0.4510193 34:0.35483871 35:0.33105438 36:0.33333333 37:0.090909091 38:0.38888889 39:0.27272727 40:0.5 43:0.3 44:0.2 45:0.16666667 47:0.33333333 48:0.33333333 49:0.14285714 51:0.5 55:0.28571429 
-4 0:0.62107415 1:0.4916509 2:0.86197914 5:0.43332581 6:0.62987866 7:0.3331318 8:0.68168526 9:0.25153304 10:0.48371104 11:0.71537525 12:0.19467277 13:0.42238066 14:0.0019930819 15:0.58340843 16:0.44991139 17:0.47748978 18:0.43529534 19:0.81111111 20:0.066666656 22:0.66440678 23:0.59926471 24:0.34767026 25:1 26:0.19540231 27:0.37603104 28:0.76040409 29:0.21640093 30:0.57014423 31:0.27018634 32:0.81428572 33:0.56872358 34:0.51612903 35:0.59434653 36:0.33333333 38:0.5 39:0.27272727 40:0.125 41:0.5 42:0.42857143 43:0.2 44:0.4 46:0.5 47:0.5 48:0.33333333 49:0.28571429 52:0.5 53:0.16666667 55:0.14285714 56:0.16666667 59:0.2 
-4 0:0.36929611 1:0.33630271 2:0.86197914 3:0.10382095 4:0.0019054289 5:0.14942023 6:0.24175641 7:0.18623717 8:0.55275888 9:0.25153304 10:0.39042654 11:0.4743482 12:0.064736442 13:0.38441597 14:0.0011413548 15:0.30863244 16:0.31148243 17:0.526603 18:0.47051888 19:0.81111111 22:0.20338982 23:0.52205882 24:0.36200718 25:0.77011492 26:0.33333334 27:0.32812576 28:0.59992912 29:0.30066907 30:0.41109853 31:0.037267084 32:0.30285714 33:0.2574708 34:0.41935484 35:0.46768697 36:0.16666667 38:0.44444444 39:0.36363636 40:0.125 41:0.5 43:0.2 44:0.4 45:0.16666667 48:0.33333333 49:0.14285714 50:0.5 52:0.66666667 54:0.5 55:0.28571429 57:0.28571429 59:0.2 
2.342171545580821 0:0.50907516 1:0.51428593 2:0.86197914 4:0.052210291 5:0.12235217 6:0.51103449 7:0.33647383 8:0.84084263 9:0.34839021 10:0.26866857 11:0.76606139 12:0.4301402 13:0.63812502 14:0.15365431 15:0.34057944 16:0.34053622 17:0.71759891 18:0.65251573 19:0.81111111 20:0.066666656 21:0.144 22:0.15254237 23:0.55882352 24:0.49820789 25:0.93103444 26:0.5172414 27:0.41935831 28:0.68949735 29:0.22394688 30:0.42435602 31:0.027950313 32:0.14857143 33:0.27379707 34:0.35483871 35:0.36546865 36:0.11111111 38:0.5 39:0.54545455 40:0.25 42:0.14285714 44:0.6 45:0.5 47:0.16666667 48:0.33333333 49:0.14285714 51:0.16666667 52:0.16666667 55:0.14285714 57:0.28571429 59:0.2 
1.555737651779775 0:0.5248584 1:0.63555869 2:0.86197914 5:0.33352878 6:0.61026712 7:0.46367576 8:0.88214745 9:0.25153304 10:0.29212894 11:0.85460648 12:0.85569221 13:0.76937185 14:0.12960651 15:0.26855734 16:0.47956656 17:0.60163712 18:0.55267297 19:0.81111111 20:0.066666656 22:0.25762712 23:0.59558824 24:0.46236559 25:1 26:0.33333334 27:0.29319026 28:0.83621985 29:0.70058043 30:0.70188203 31:0.062111803 32:0.18 33:0.3655711 34:0.25806452 35:0.34311819 36:0.11111111 38:0.33333333 39:0.27272727 42:0.14285714 43:0.1 44:0.4 45:0.16666667 47:0.33333333 48:0.33333333 49:0.28571429 52:0.5 55:0.14285714 58:0.5 
-3.67942926952515 0:0.46746396 1:0.65264342 2:0.86197914 4:0.30411045 5:0.27115738 6:0.67987569 7:0.470207 8:1 9:0.44911526 10:0.49515901 11:0.75844764 12:0.60277052 13:0.51692162 14:0.079290078 15:0.27067879 16:0.59011189 17:0.48158255 18:0.40366474 19:0.81111111 20:0.066666656 21:0.36000001 22:0.12881356 23:0.44117647 24:0.34408603 25:0.83908045 26:0.16091955 27:0.28450904 28:0.62914688 29:0.5940883 30:0.58670943 31:0.086956517 32:0.27428572 33:0.56684181 34:0.19354839 35:0.28568442 36:0.22222222 37:0.090909091 38:0.33333333 39:0.27272727 42:0.14285714 43:0.1 44:0.4 47:0.16666667 48:0.33333333 49:0.28571429 51:0.16666667 52:0.16666667 53:0.16666667 59:0.4 
-1.769916543925624 0:0.31910417 1:0.41385871 2:0.24509062 3:0.10382095 4:0.41354582 6:0.46855578 7:0.41878849 8:0.72299008 9:0.37818586 10:0.28721647 11:0.60262479 12:0.3024325 13:0.4034067 14:0.034639161 15:0.22146266 16:0.51327591 17:0.70941338 18:0.69070083 19:0.45555555 21:0.304 23:0.82720589 24:0.54121865 25:0.8045977 26:0.50574714 27:0.68095453 28:0.70191181 29:0.077133298 30:0.24883332 31:0.037267086 32:0.22285715 33:0.26836875 34:0.22580645 35:0.24487236 38:0.38888889 39:0.54545455 40:0.375 41:0.5 44:0.2 45:0.16666667 46:0.5 47:0.33333333 49:0.14285714 52:0.16666667 54:0.5 55:0.14285714 56:0.16666667 
4 0:0.11516345 1:0.18915409 2:0.24509062 3:0.10382095 4:0.018261582 6:0.26013215 7:0.1395241 8:0.72299008 9:0.37818586 10:0.20324725 11:0.34495343 12:0.35847737 13:0.2759773 14:0.24889265 15:0.1868742 16:0.16008506 17:0.50886768 18:0.4320326 19:0.45555555 23:0.5257353 24:0.32258065 25:0.8045977 26:0.36781611 27:0.40775996 28:0.49491153 29:0.3777438 30:0.30660193 31:0.2173913 32:0.19714286 33:0.11943877 34:0.12903226 35:0.10259466 38:0.11111111 39:0.090909091 40:0.125 44:0.2 45:0.33333333 46:0.5 47:0.16666667 54:0.5 55:0.28571429 56:0.33333333 
-0.6362757947800953 0:0.23803499 1:0.25484598 2:0.24509062 3:0.10382095 5:0.24547094 6:0.46879897 7:0.11320023 8:0.68168526 9:0.27962697 10:0.13151423 11:0.4985604 12:0.01274406 13:0.36801518 14:0.023237508 15:0.31149924 16:0.21280374 17:0.36016372 18:0.29897337 19:0.45555555 22:0.30508475 23:0.5882353 24:0.17921147 25:1 26:0.045977023 27:0.18258029 28:0.63507586 29:0.25873373 30:0.47022049 31:0.01242236 32:0.24285715 33:0.31834724 34:0.32258065 35:0.27251249 36:0.27777778 37:0.090909091 38:0.16666667 39:0.18181818 42:0.42857143 44:0.2 45:0.5 46:0.5 47:0.5 51:0.33333333 52:0.16666667 54:0.5 55:0.28571429 
4 0:0.36329992 1:0.47117791 2:0.24509062 3:0.10382095 4:0.30411045 5:0.30750687 6:0.40114015 7:0.49553597 8:0.47449153 9:0.49358834 10:0.24121119 11:0.80363002 12:0.81044145 13:0.6994228 14:0.1202391 15:0.46386371 16:0.64616568 17:0.51705322 18:0.45316713 19:0.45555555 21:0.36000001 22:0.22372881 23:0.51838235 24:0.48745521 25:0.60919539 26:0.16091955 27:0.23368662 28:0.71932389 29:0.70865388 30:0.71922643 31:0.01552795 32:0.24 33:0.53713044 34:0.22580645 35:0.2500575 36:0.22222222 37:0.090909091 38:0.27777778 39:0.18181818 40:0.25 42:0.28571429 44:0.2 45:0.16666667 47:0.16666667 49:0.28571429 53:0.33333333 54:0.5 56:0.33333333 
4 0:0.42453833 1:0.42901105 2:0.24509062 3:0.10382095 4:0.137594 5:0.055357928 6:0.46407883 7:0.39800566 8:0.67061144 9:0.43710404 10:0.22989561 11:0.60517397 12:0.36974842 13:0.4662658 14:0.095953559 15:0.30022052 16:0.62635041 17:0.58799455 18:0.52803984 19:0.45555555 23:0.625 24:0.36917563 25:0.88505744 26:0.16091955 27:0.42026603 28:0.73552291 29:0.33290617 30:0.48135576 31:0.031055907 32:0.35142857 33:0.34716558 34:0.35483871 35:0.33688766 36:0.16666667 37:0.090909091 38:0.38888889 39:0.18181818 40:0.25 42:0.14285714 45:0.5 47:0.16666667 49:0.42857143 51:0.33333333 52:0.16666667 54:0.5 55:0.28571429 57:0.14285714 58:0.5 
0.7886460212401086 0:0.27725 1:0.28043682 2:0.24509062 5:0.16577459 6:0.33311767 7:0.36638193 8:0.35506228 9:0.22203839 10:0.20716242 11:0.54323786 12:0.23913933 13:0.57818108 14:0.065789161 15:0.22354022 16:0.28647794 17:0.55388814 18:0.49528303 19:0.45555555 20:0.066666656 22:0.15932203 23:0.51838236 24:0.54121864 25:0.70114942 26:0.47126438 27:0.42176679 28:0.68099689 29:0.16381894 30:0.53533438 31:0.0062111844 32:0.17142858 33:0.38417447 34:0.35483871 35:0.35821364 36:0.11111111 38:0.33333333 39:0.27272727 42:0.14285714 44:0.2 45:0.66666667 47:0.33333333 48:0.33333333 50:1 51:0.16666667 52:0.5 56:0.16666667 57:0.14285714 58:0.5 
1.088557469508558 0:0.20839836 1:0.37701267 2:0.24509062 3:0.10382095 4:0.30411045 6:0.26456439 7:0.45695718 8:0.31533416 9:0.43710404 10:0.58615839 11:0.54423042 12:0.61402956 13:0.49446881 14:0.063702452 15:0.047717866 16:0.50896364 17:0.62892225 18:0.63443398 19:0.45555555 21:0.36000001 23:0.54779412 24:0.69534051 25:0.68965517 26:0.37931036 27:0.82415616 28:0.70546691 29:0.52254894 30:0.43648359 31:0.18012422 32:0.16285714 33:0.53541315 34:0.096774194 35:0.12967028 36:0.055555556 38:0.22222222 39:0.18181818 40:0.25 45:0.16666667 47:0.5 51:0.16666667 52:0.16666667 54:0.5 56:0.16666667 
0.9677644130952059 0:0.31011767 1:0.46866301 2:0.24509062 4:0.052210291 5:0.36399307 6:0.48898953 7:0.54436778 8:0.55275888 9:0.34839021 10:0.24336929 11:0.55505535 12:0.40947313 13:0.40154274 14:0.05157271 15:0.14410386 16:0.47064204 17:0.61391542 18:0.58765724 19:0.45555555 20:0.066666656 21:0.144 22:0.42372881 23:0.56985293 24:0.6702509 25:0.77011492 26:0.37931036 27:0.37598609 28:0.61439489 29:0.34906649 30:0.30932122 31:0.19875776 32:0.30285714 33:0.5683455 34:0.16129032 35:0.19320914 36:0.11111111 38:0.27777778 39:0.18181818 40:0.125 42:0.28571429 44:0.2 45:0.16666667 47:0.16666667 48:0.33333333 49:0.14285714 50:0.5 52:0.16666667 55:0.14285714 57:0.14285714 
4 0:0.31088601 1:0.37655013 2:0.24509062 3:0.10382095 4:0.18706081 6:0.23058876 7:0.40322304 8:0.25854553 9:0.54153596 10:0.36427859 11:0.41154301 12:0.094459722 13:0.26443113 14:0.24520046 15:0.42527282 16:0.3021781 17:0.67257845 18:0.63443398 19:0.45555555 21:0.33599999 23:0.5367647 24:0.60931901 25:0.66666664 26:0.72413796 27:0.50385443 28:0.68228263 29:0.23347771 30:0.49463102 31:0.18012422 32:0.28857143 33:0.41666006 34:0.25806452 35:0.26322943 38:0.38888889 39:0.27272727 40:0.125 45:0.16666667 47:0.33333333 50:0.5 54:0.5 55:0.71428571 57:0.28571429 59:0.4 
-0.2214841865030407 0:0.63587877 1:0.46334707 2:0.24509062 4:0.18706081 6:0.58097827 7:0.26365384 8:1 9:0.22203839 10:0.33430077 11:0.53400235 12:0.016331353 13:0.28434747 14:0.076092284 15:0.38524698 16:0.61243929 17:0.7680764 18:0.64009435 19:0.45555555 20:0.066666656 21:0.33599999 23:0.73161765 24:0.54480287 25:0.83908045 26:0.33333334 27:0.51450565 28:0.68492681 29:0.066728999 30:0.2958666 31:0.037267074 32:0.44285715 33:0.40197522 34:0.58064516 35:0.6012252 36:0.11111111 38:0.61111111 39:0.45454545 40:0.375 45:0.5 47:0.5 48:0.66666667 49:0.57142857 52:0.5 53:0.16666667 55:0.42857143 56:0.16666667 57:0.14285714 59:0.2 
4 0:0.43074571 1:0.46067406 2:0.24509062 4:0.0019054289 5:0.32149582 6:0.48665709 7:0.3025562 8:0.72299008 9:0.27076798 10:0.18680571 11:0.63781071 12:0.15600392 13:0.52734442 14:0.099984069 15:0.3250394 16:0.49449983 17:0.59481583 18:0.53759713 19:0.45555555 20:0.066666656 22:0.34576271 23:0.59926471 24:0.40501793 25:0.8045977 26:0.37931036 27:0.34288572 28:0.59114245 29:0.10478163 30:0.34576491 31:0.018633546 32:0.34857143 33:0.38634147 34:0.32258065 35:0.31901148 36:0.16666667 38:0.33333333 39:0.27272727 40:0.125 43:0.2 44:0.2 45:0.33333333 47:0.33333333 48:0.33333333 49:0.28571429 50:0.5 51:0.16666667 52:0.16666667 55:0.42857143 
4 0:0.38795596 1:0.3921093 2:0.24509062 4:0.13021251 5:0.08260696 6:0.36446935 7:0.41374428 8:0.76429489 9:0.40760939 10:0.34307146 11:0.53592641 12:0.10604649 13:0.40400425 14:0.012293418 15:0.20935767 16:0.31485742 17:0.53751706 18:0.47955976 19:0.45555555 20:0.066666656 22:0.14237288 23:0.5992647 24:0.49103943 25:0.93103444 26:0.36781611 27:0.42420052 28:0.72316521 29:0.04366914 30:0.44406284 31:0.06832298 32:0.16 33:0.27014874 34:0.35483871 35:0.37759518 36:0.16666667 38:0.33333333 39:0.27272727 42:0.14285714 44:0.6 45:0.16666667 47:0.16666667 48:0.33333333 51:0.33333333 52:0.16666667 55:0.57142857 56:0.16666667 57:0.28571429 59:0.2 
4 0:0.37076175 1:0.42117955 2:0.24509062 3:0.10382095 4:0.30318709 5:0.15588134 6:0.72199406 7:0.31719109 8:0.84084263 9:0.45147734 10:0.44414698 11:0.55281051 12:0.089870084 13:0.23437185 14:0.36109777 15:0.3988126 16:0.24547254 17:0.44747613 18:0.38178067 19:0.45555555 21:0.33599999 22:0.21694915 23:0.90441176 24:0.29032258 25:0.91954022 26:0.045977023 27:0.53346429 28:0.51111055 29:0.069717839 30:0.20235982 31:0.040372673 32:0.36 33:0.30943977 34:0.29032258 35:0.33197432 36:0.33333333 37:0.36363636 38:0.27777778 39:0.36363636 42:0.14285714 43:0.3 45:0.16666667 47:0.16666667 49:0.28571429 50:0.5 51:0.16666667 52:0.16666667 54:1 55:0.14285714 57:0.28571429 
-4 0:0.31872071 1:0.48168023 2:0.24509062 3:0.10382095 4:0.040790418 5:0.16638109 6:0.54456436 7:0.46161536 8:0.68168526 9:0.4196206 10:0.37456637 11:0.64087456 12:0.57731631 13:0.51168088 14:0.13397168 15:0.17438008 16:0.37296294 17:0.67667122 18:0.67806605 19:0.45555555 22:0.12881356 23:0.74264706 24:0.75268818 25:1 26:0.045977023 27:0.71489238 28:0.7594409 29:0.40379397 30:0.44220872 31:0.062111802 32:0.080000001 33:0.34466895 34:0.16129032 35:0.18114533 36:0.11111111 37:0.090909091 38:0.27777778 39:0.36363636 40:0.125 42:0.14285714 45:0.33333333 47:0.33333333 49:0.14285714 53:0.16666667 54:0.5 55:0.14285714 57:0.28571429 
1.351391971360284 0:0.028110461 1:0.05479603 2:0.24509062 3:0.10382095 5:0.16212373 6:0.080918548 7:0.11328273 8:0.29872566 9:0.3050001 10:0.22526785 11:0.10336911 12:0.18258655 13:0.12559452 14:0.089297497 15:0.066950595 16:0.15158188 17:0.31650752 18:0.051100632 19:0.45555555 22:0.15254237 23:0.099264706 24:0.093189966 25:0.3908046 26:0.16091955 27:0.25120916 28:0.078459926 29:0.33842101 30:0.2713317 31:0.071428571 32:0.062857143 33:0.23766935 34:0.064516129 35:0.063747935 36:0.16666667 37:0.18181818 42:0.14285714 43:0.1 45:0.16666667 46:0.5 47:0.16666667 52:0.16666667 53:0.16666667 54:0.5 55:0.14285714 
-3.766592530525867 0:0.3859781 1:0.39011417 2:0.24509062 3:0.10382095 5:0.28873326 6:0.46073039 7:0.38005169 8:0.67061144 9:0.34558901 10:0.44532773 11:0.58397326 12:0.29451932 13:0.37766757 14:0.056286705 15:0.30078726 16:0.3393326 17:0.51705321 18:0.45990567 19:0.45555555 22:0.28135593 23:0.63970588 24:0.32616488 25:0.88505744 26:0.16091955 27:0.4255664 28:0.83413219 29:0.19433869 30:0.68344916 31:0.012422349 32:0.27428571 33:0.59961136 34:0.35483871 35:0.41499927 36:0.27777778 37:0.18181818 38:0.33333333 39:0.18181818 42:0.14285714 43:0.1 45:0.16666667 47:0.33333333 49:0.14285714 51:0.16666667 52:0.16666667 53:0.33333333 54:0.5 55:0.28571429 56:0.16666667 57:0.42857143 58:0.5 
4 0:0.2007533 1:0.28012763 2:0.24509062 5:0.35645978 6:0.55906202 7:0.0055205827 8:0.68168526 10:0.2471759 11:0.52571401 12:0.50697041 13:0.49748482 14:0.25692167 15:0.29840798 16:0.26663078 17:0.42155526 18:0.3238389 19:0.45555555 20:0.066666656 22:0.34237288 23:0.48897059 24:0.13261649 25:1 26:0.068965508 27:0.23121348 28:0.55286771 29:0.53608998 30:0.5743107 31:0.0031055936 32:0.12857143 33:0.33215964 34:0.19354839 35:0.1874804 36:0.27777778 37:0.27272727 38:0.16666667 39:0.18181818 40:0.125 43:0.3 45:0.33333333 47:0.33333333 48:0.66666667 49:0.14285714 53:0.16666667 55:0.14285714 
4 0:0.33011865 1:0.37505688 2:0.24509062 5:0.12461829 6:0.3240944 7:0.42472101 8:0.47449153 9:0.25153304 10:0.28494438 11:0.69044049 12:0.3401049 13:0.46828996 14:0.26061469 15:0.51336731 16:0.39342071 17:0.65757163 18:0.60878539 19:0.45555555 20:0.066666656 22:0.26440677 23:0.63602941 24:0.57706094 25:0.65517239 26:0.33333334 27:0.45358561 28:0.81923483 29:0.32018441 30:0.52526287 31:0.080745336 32:0.18285714 33:0.32018766 34:0.29032258 35:0.29622196 36:0.11111111 38:0.38888889 39:0.36363636 40:0.5 43:0.2 45:0.33333333 48:0.33333333 49:0.28571429 52:0.16666667 56:0.33333333 57:0.28571429 
0.4825904060461076 0:0.64241607 1:0.50849909 2:0.24509062 4:0.018261582 5:0.44358073 6:0.57830217 7:0.18453946 8:0.72299008 9:0.29600612 10:0.31444993 11:0.69372797 12:0.035136403 13:0.38761011 14:0.2651734 15:0.60806438 16:0.25769106 17:0.7803547 18:0.66294094 19:0.45555555 20:0.066666656 22:0.76610167 23:0.77941175 24:0.32616488 25:1 26:0.43678162 27:0.46291036 28:1 29:0.15396811 30:0.38955215 31:0.14285714 32:0.67142857 33:0.51241779 34:0.51612903 35:0.56536829 36:0.27777778 38:0.66666667 39:0.54545455 40:0.5 42:0.42857143 43:0.1 44:0.4 45:0.16666667 47:0.33333333 48:0.33333333 49:0.14285714 51:0.16666667 52:0.16666667 55:0.14285714 56:0.16666667 57:0.57142857 
4 0:0.11782455 1:0.19354663 2:0.24509062 3:0.10382095 6:0.27252751 7:0.13300767 8:0.34122287 9:0.31609435 10:0.25079802 11:0.34692551 12:0.37508697 13:0.29017814 14:0.19162273 15:0.14384022 16:0.10714384 17:0.50068213 18:0.4191681 19:0.45555555 23:0.59191175 24:0.23655914 25:0.93103444 26:0.19540231 27:0.35866307 28:0.58519305 29:0.57745314 30:0.48572942 31:0.310559 32:0.28285714 33:0.27723879 34:0.12903226 35:0.15369337 36:0.055555556 38:0.16666667 39:0.18181818 42:0.14285714 45:0.33333333 46:0.5 52:0.16666667 54:0.5 56:0.16666667 57:0.42857143 59:0.2 
4 0:0.6272202 1:0.57046102 2:0.24509062 5:0.46187586 6:0.84685468 7:0.43526391 8:1 9:0.22203839 10:0.39769971 11:0.77442971 12:0.15676894 13:0.45049986 14:0.083622176 15:0.36606694 16:0.32589192 17:0.49522511 18:0.44339624 19:0.45555555 20:0.066666656 22:0.34237288 23:0.88602941 24:0.050179216 25:0.91954022 26:0.16091955 27:0.42587553 28:0.78294323 29:0.097399968 30:0.35153198 31:0.19875776 32:0.50857143 33:0.35589221 34:0.41935484 35:0.43308453 36:0.38888889 37:0.36363636 38:0.44444444 39:0.45454545 40:0.25 42:0.57142857 43:0.2 45:0.33333333 47:0.33333333 48:0.33333333 49:0.57142857 53:0.16666667 56:0.16666667 59:0.2 
4 0:0.44717806 1:0.81056853 2:0.24509062 3:0.10382095 4:0.41354582 5:0.22173902 6:0.73530458 7:0.76630391 8:1 9:0.69078885 10:0.69115842 11:0.68057277 12:0.59204327 13:0.47567101 14:0.62603183 15:0.4702656 16:0.86940433 17:0.59890861 18:0.58254719 19:0.45555555 21:0.304 22:0.12881356 23:0.60661765 24:0.59498209 25:0.83908045 26:0.45977014 27:0.69957877 28:0.53052617 29:0.27287924 30:0.21254459 31:0.49689441 32:0.45428572 33:0.51131563 34:0.096774194 35:0.14464028 36:0.055555556 38:0.27777778 39:0.27272727 42:0.14285714 45:0.33333333 49:0.57142857 54:0.5 58:0.5 59:0.2 
-3.125249576735121 0:0.30402406 1:0.45944279 2:0.11857011 4:0.13021251 5:0.50183521 6:0.51864977 7:0.49263309 8:0.58793409 9:0.46483925 10:0.28861025 11:0.75364579 12:0.77137482 13:0.68183788 14:0.22150691 15:0.31035472 16:0.5469564 17:0.4515689 18:0.35377359 19:0.14444444 20:0.066666656 22:0.41016949 23:0.54779412 24:0.37634409 25:0.3908046 26:0.16091955 27:0.32843489 28:0.70941275 29:0.68057898 30:0.61634689 31:0.21428572 32:0.39714287 33:0.53555693 34:0.16129032 35:0.1963244 36:0.16666667 37:0.090909091 38:0.22222222 39:0.090909091 40:0.125 43:0.3 46:0.5 47:0.16666667 48:0.33333333 49:0.28571429 55:0.28571429 59:0.2 
1.309283346641152 0:0.037935429 1:0.094951577 2:0.11857011 4:0.052210291 5:0.14335783 6:0.10878597 7:0.22599457 8:0.29872566 9:0.34839021 10:0.46115539 11:0.27861589 12:0.32717834 13:0.24921732 14:0.46621433 15:0.35017491 16:0.34606345 17:0.50204639 18:0.38578168 19:0.14444444 20:0.066666656 21:0.144 22:0.21355932 23:0.38970588 24:0.52688172 25:0.12643678 26:0.72413794 27:0.57504745 28:0.34022108 29:0.33330857 30:0.26674614 31:0.59316771 32:0.54285715 33:0.68765048 36:0.055555556 38:0.11111111 40:0.25 42:0.14285714 45:0.16666667 46:0.5 47:0.16666667 48:0.33333333 
-3.157706750230249 0:0.83639502 1:0.50805739 2:0.11857011 3:0.10382095 4:0.0005817511 5:0.4772118 6:0.59162383 7:0.30995831 8:1 9:0.36278146 10:0.29124777 11:0.67075984 12:0.27487424 13:0.50353161 14:0.008341175 15:0.37560727 16:0.51563142 17:0.4829468 18:0.44968555 19:0.14444444 21:0.2 22:0.46101695 23:0.55147058 24:0.35125449 25:0.88505744 26:0.16091955 27:0.16624935 28:0.69006979 29:0.40095496 30:0.50525754 31:0.024844719 32:0.38857143 33:0.51224318 34:0.74193548 35:0.77312927 36:0.5 37:0.27272727 38:0.61111111 39:0.36363636 40:0.125 41:0.5 42:0.71428571 43:0.1 44:0.6 45:0.33333333 46:0.5 47:0.33333333 49:0.57142857 51:0.16666667 52:0.33333333 53:0.33333333 54:0.5 55:0.14285714 56:0.33333333 57:0.14285714 
-4 0:0.48953172 1:0.63489288 2:0.11857011 3:0.10382095 4:0.30411045 5:0.41207184 6:0.59246232 7:0.50435302 8:1 9:0.43710404 10:0.3938216 11:0.78256395 12:0.32380436 13:0.58679058 14:0.087026997 15:0.22144951 16:0.63972093 17:0.51568896 18:0.45148249 19:0.14444444 21:0.36000001 22:0.4 23:0.52205883 24:0.34408603 25:0.91954022 26:0.16091955 27:0.29557904 28:0.66769193 29:0.37135994 30:0.59180884 31:0.003105589 32:0.44857143 33:0.67570509 34:0.22580645 35:0.29467477 36:0.22222222 37:0.090909091 38:0.27777778 39:0.18181818 42:0.28571429 43:0.1 44:0.4 46:0.5 47:0.33333333 49:0.28571429 51:0.16666667 52:0.16666667 54:0.5 55:0.14285714 
1.463045102692941 0:0.59739577 1:0.63866758 2:0.11857011 3:0.10382095 4:0.41354582 5:0.57320915 6:0.70248314 7:0.28057348 8:1 9:0.40760939 10:0.34312478 11:0.92033923 12:0.13347281 13:0.8074099 14:0.072488395 15:0.28026009 16:0.65463215 17:0.52523875 18:0.46684241 19:0.14444444 21:0.304 22:0.58644068 23:0.74264706 24:0.25806452 25:1 26:0.16091955 27:0.062929462 28:0.99196299 29:0.31405824 30:1 31:0.0093167716 32:0.14571429 33:0.65137818 34:0.32258065 35:0.36799849 36:0.33333333 37:0.27272727 38:0.33333333 39:0.27272727 42:0.42857143 43:0.1 45:0.16666667 46:0.5 47:0.5 49:0.57142857 51:0.33333333 54:0.5 55:0.14285714 
2.3838659849616 0:0.46490967 1:0.31430601 2:0.11857011 4:0.040790418 5:0.20272164 6:0.53799175 7:0.14807583 8:0.88214745 9:0.29298888 10:0.28041853 11:0.5112883 12:0.23655561 13:0.38362529 14:0.01450245 15:0.25836101 16:0.28815977 17:0.33697136 18:0.35246332 19:0.14444444 20:0.066666656 22:0.20338982 23:0.68014706 24:0.218638 25:0.77011492 26:0.11494253 27:0.2618604 28:0.69435411 29:0.30312971 30:0.56722386 31:0.0062111817 32:0.34857143 33:0.33753461 34:0.64516129 35:0.67701604 36:0.38888889 37:0.18181818 38:0.5 39:0.27272727 40:0.375 42:0.28571429 43:0.2 44:0.4 46:1 47:0.33333333 48:0.33333333 49:0.14285714 51:0.33333333 52:0.33333333 53:0.16666667 55:0.28571429 56:0.5 57:0.14285714 59:0.2 
4 0:0.62844156 1:0.4092494 2:0.11857011 3:0.10382095 5:0.39234588 6:0.570112 7:0.13250249 8:0.68168526 9:0.34558901 10:0.19730739 11:0.61940376 12:0.18456737 13:0.43732919 14:0.002260282 15:0.50620992 16:0.36120653 17:0.57025921 18:0.50117925 19:0.14444444 22:0.48474576 23:0.7352941 24:0.218638 25:1 26:0.16091955 27:0.19943961 28:0.78028314 29:0.15962748 30:0.68227787 31:0.018633536 32:0.49428571 33:0.52125953 34:0.67741935 35:0.77151937 36:0.44444444 37:0.18181818 38:0.55555556 39:0.45454545 40:0.125 42:0.42857143 45:0.16666667 46:0.5 47:0.66666667 49:0.28571429 51:0.5 52:0.33333333 53:0.33333333 54:0.5 56:0.66666667 57:0.57142857 
-0.2277020863084569 0:0.28006624 1:0.50714112 2:0.11857011 3:0.10382095 4:0.41354582 6:0.61685174 7:0.30545046 8:0.88214745 9:0.40760939 10:0.61319505 11:0.55823046 12:0.55566108 13:0.44456504 14:0.11355253 15:0.085176408 16:0.70318859 17:0.59754435 18:0.58018869 19:0.14444444 21:0.304 23:0.65808824 24:0.63799283 25:0.72413792 26:0.5172414 27:0.83761492 28:0.56372611 29:0.43375573 30:0.35684133 31:0.021739129 32:0.017142856 33:0.57186551 34:0.096774194 35:0.13955968 36:0.055555556 38:0.22222222 39:0.18181818 40:0.125 44:0.2 45:0.16666667 46:0.5 49:0.28571429 51:0.16666667 54:0.5 56:0.16666667 57:0.14285714 
-1.853594600153466 0:0.19454982 1:0.29379778 2:0.11857011 4:0.41354582 5:0.0007666075 6:0.2505343 7:0.27465478 8:0.55275888 9:0.51633993 10:0.34985306 11:0.38721249 12:0.28719903 13:0.22976479 14:0.25114555 15:0.3326259 16:0.58406328 17:0.44747613 18:0.34787736 19:0.14444444 20:0.066666656 21:0.304 23:0.42279411 24:0.34408603 25:0.77011492 26:0.16091955 27:0.36840656 28:0.51389557 29:0.42633521 30:0.38530601 31:0.012422361 32:0.21142858 33:0.29110345 34:0.16129032 35:0.18308976 36:0.11111111 37:0.090909091 38:0.16666667 39:0.090909091 42:0.14285714 44:0.2 45:0.16666667 46:0.5 48:0.33333333 49:0.14285714 51:0.16666667 55:0.28571429 56:0.16666667 57:0.14285714 58:0.5 
-2.477790419505784 0:0.28470748 1:0.28795941 2:0.11857011 3:0.10382095 4:0.052210291 5:0.1047763 6:0.52008513 7:0.18369276 8:0.67061144 9:0.44244617 10:0.23878532 11:0.39292733 12:0.048340596 13:0.33184508 14:0.0081717306 15:0.24522234 16:0.17012273 17:0.58117327 18:0.52148848 19:0.14444444 21:0.144 23:0.66544117 24:0.48028675 25:0.96551722 26:0.41379313 27:0.62858639 28:0.72239513 29:0.1056153 30:0.33182296 31:0.012422361 32:0.12 33:0.14088042 34:0.35483871 35:0.27537687 36:0.055555556 38:0.38888889 39:0.36363636 40:0.25 42:0.14285714 45:0.83333333 46:0.5 47:0.16666667 49:0.14285714 54:0.5 55:0.28571429 57:0.28571429 59:0.4 
-0.3388729678960487 0:0.18970986 1:0.42798754 2:0.81360577 3:0.21809539 6:0.3938048 7:0.51617526 8:0.47449153 9:0.39516444 10:0.46115539 11:0.27861589 12:0.42515179 13:0.33298247 14:0.019000658 15:0.01412787 16:0.33260142 17:0.62755799 18:0.66922171 19:1 20:0.11111111 23:0.73897059 24:0.61290323 25:0.68965517 26:0.16091955 27:0.57504745 28:0.34022108 29:0.21597979 30:0.16150915 31:0.090062113 32:0.080000001 33:0.021699112 34:0.032258065 35:0.043320996 36:0.055555556 37:0.090909091 38:0.22222222 39:0.36363636 40:0.375 45:0.16666667 47:0.16666667 49:0.14285714 53:0.33333333 
4 0:0.57613018 1:0.49928665 2:0.81360577 3:0.10382095 4:0.50654653 5:0.096265478 6:0.55172359 7:0.21458414 8:0.84084263 9:0.33076893 10:0.28431391 11:0.73620008 12:0.14769052 13:0.47709668 14:0.0052281521 15:0.40191881 16:0.40871701 17:0.87312415 18:0.75640163 19:1 21:0.448 22:0.20338982 23:0.8382353 24:0.41577061 25:0.91954022 26:0.11494253 27:0.28057455 28:0.95327707 29:0.22836785 30:0.56786775 31:0.0093167669 32:0.43714286 33:0.34821017 34:0.4516129 35:0.49191913 36:0.22222222 37:0.18181818 38:0.77777778 39:1 40:0.875 42:0.28571429 47:0.5 48:0.33333333 49:0.28571429 50:0.5 53:0.16666667 54:0.5 55:0.14285714 57:0.28571429 
-0.2748275199136828 0:0.39142721 1:0.50765729 2:0.81360577 4:0.41354582 6:0.35445333 7:0.36899874 8:0.67061144 9:0.40760939 10:0.43685687 11:0.63338978 12:0.30933168 13:0.4186728 14:0.060669458 15:0.38278023 16:0.42031752 17:0.78035471 18:0.7783019 19:1 20:0.066666656 21:0.304 23:0.61397059 24:0.63799284 25:0.93103444 26:0.48275864 27:0.71042952 28:0.72673623 29:0.2117774 30:0.23772833 31:9.2553791e-10 32:0.24571428 33:0.23543439 34:0.22580645 35:0.30092622 36:0.055555556 38:0.38888889 39:0.45454545 40:0.25 45:0.16666667 47:0.16666667 48:0.33333333 49:0.28571429 51:0.16666667 52:0.16666667 56:0.33333333 57:0.42857143 
-4 0:0.62291349 1:0.80788093 2:0.81360577 3:0.10382095 4:0.13021251 5:0.79133507 6:0.7415055 7:0.81654753 8:1 9:0.56280643 10:0.53242047 11:0.71846318 12:0.31050843 13:0.29859814 14:0.08109482 15:0.20701807 16:0.65982042 17:0.57980902 18:0.53066039 19:1 22:0.69152542 23:0.47794118 24:0.57347671 25:0.83908045 26:0.16091955 27:0.37421559 28:0.65451191 29:0.24732526 30:0.35687313 31:0.02795031 32:0.26 33:0.7169078 34:0.22580645 35:0.29931631 36:0.22222222 37:0.090909091 38:0.33333333 39:0.18181818 42:0.14285714 43:0.3 47:0.33333333 49:0.57142857 54:0.5 55:0.28571429 59:0.2 
-4 0:0.45646885 1:0.48814811 2:0.81360577 3:0.10382095 4:0.0019054289 5:0.43821827 6:0.39910059 7:0.36663298 8:0.51145407 9:0.36482395 10:0.29198347 11:0.62093247 12:0.34155898 13:0.38546491 14:0.089548449 15:0.3494881 16:0.39025345 17:0.59890861 18:0.54175917 19:1 22:0.4 23:0.57720588 24:0.46594983 25:0.96551722 26:0.35632186 27:0.50513595 28:0.77797745 29:0.20885862 30:0.39064709 31:0.083850932 32:0.38 33:0.45808405 34:0.32258065 35:0.37907964 36:0.22222222 38:0.38888889 39:0.27272727 41:0.5 42:0.28571429 43:0.1 44:0.2 45:0.16666667 47:0.66666667 52:0.16666667 53:0.16666667 54:0.5 55:0.14285714 56:0.16666667 57:0.14285714 59:0.2 
-0.9140676309939748 0:0.31145558 1:0.37723957 2:0.81360577 4:0.41354582 5:0.41825453 6:0.56603836 7:0.18428702 8:0.84084263 9:0.371142 10:0.2332433 11:0.70092576 12:0.18019728 13:0.65749607 14:0.081312334 15:0.23942232 16:0.4596187 17:0.37107777 18:0.28694969 19:1 20:0.066666656 21:0.304 22:0.4 23:0.38602941 24:0.16129033 25:0.91954022 26:0.16091955 27:0.062929462 28:0.78740924 29:0.26298455 30:0.80581478 31:0.055900617 32:0.13714286 33:0.58092759 34:0.25806452 35:0.29684919 36:0.44444444 37:0.45454545 38:0.22222222 39:0.090909091 42:0.14285714 43:0.2 44:0.2 45:0.16666667 47:0.33333333 48:0.33333333 49:0.14285714 51:0.5 53:0.33333333 57:0.14285714 
4 0:0.52361027 1:0.43340255 2:0.81360577 4:0.30411045 5:0.50855214 6:0.58464748 7:0.34303246 8:1 9:0.185571 10:0.23423726 11:0.8550909 12:0.38446135 13:0.71743989 14:0.014394317 15:0.45282385 16:0.41324684 17:0.47476126 18:0.43096056 19:1 20:0.066666656 21:0.36000001 22:0.47457627 23:0.55882352 24:0.36917563 25:0.83908045 26:0.045977023 27:0.038844724 28:0.93045171 29:0.38330613 30:0.91936705 31:0.02795031 32:0.32857143 33:0.52124962 34:0.48387097 35:0.52292542 36:0.5 37:0.45454545 38:0.5 39:0.36363636 40:0.375 42:0.14285714 43:0.3 44:0.2 45:0.16666667 47:0.5 48:0.33333333 49:0.28571429 51:0.5 52:0.16666667 53:0.16666667 54:0.5 57:0.14285714 
-3.38634270891175 0:0.34883672 1:0.70184874 2:0.81360577 3:0.10382095 4:0.41354582 5:0.33993128 6:0.4693856 7:0.6172878 8:0.68168526 9:0.61915818 10:1 11:0.67893709 12:0.60997619 13:0.49100326 14:0.087059746 15:0.065269095 16:0.62889842 17:0.61118691 18:0.61713838 19:1 21:0.304 22:0.22372881 23:0.70588236 24:0.50179212 25:1 26:0.16091955 27:0.99319335 28:0.67821186 29:0.44242003 30:0.36461269 31:0.090062114 32:0.080000001 33:0.50223503 34:0.064516129 35:0.11628928 36:0.11111111 37:0.090909091 38:0.22222222 39:0.18181818 40:0.125 42:0.14285714 43:0.1 44:0.2 47:0.33333333 49:0.14285714 54:0.5 55:0.14285714 
-4 0:0.44498235 1:0.47587974 2:0.81360577 3:0.10382095 4:0.13021251 5:0.25205148 6:0.71331159 7:0.29280037 8:0.84084263 9:0.4196206 10:0.25294447 11:0.76042227 12:0.39628002 13:0.65258687 14:0.030788356 15:0.34100822 16:0.41335294 17:0.50068214 18:0.44187016 19:1 22:0.30508475 23:0.74264706 24:0.34767026 25:1 26:0.16091955 27:0.20502941 28:0.74697419 29:0.5610948 30:0.73902045 31:0.046583852 32:0.26285715 33:0.4517986 34:0.32258065 35:0.36289699 36:0.27777778 37:0.090909091 38:0.33333333 39:0.27272727 40:0.125 43:0.2 45:0.16666667 47:0.5 49:0.28571429 51:0.33333333 53:0.16666667 54:0.5 55:0.14285714 56:0.33333333 59:0.2 
-1.87041159331983 0:0.51181052 1:0.58124478 2:0.81360577 4:0.30411045 5:0.24351129 6:0.62399895 7:0.50398572 8:0.84084263 9:0.45633898 10:0.28840179 11:0.84044912 12:0.49900149 13:0.67234876 14:0.1039726 15:0.49479594 16:0.5304678 17:0.63165076 18:0.58077832 19:1 20:0.066666656 21:0.36000001 22:0.18983051 23:0.61764706 24:0.40860216 25:1 26:0.45977014 27:0.4181667 28:0.82259232 29:0.034781634 30:0.47105097 31:0.068322975 32:0.53142857 33:0.53147574 34:0.29032258 35:0.3452926 36:0.22222222 38:0.38888889 39:0.36363636 40:0.125 43:0.2 45:0.16666667 47:0.66666667 48:0.33333333 49:0.28571429 51:0.16666667 53:0.16666667 55:0.28571429 58:0.5 
-4 0:0.27331936 1:0.33107657 2:0.81360577 3:0.10382095 4:0.0019054289 5:0.075259813 6:0.29356019 7:0.21868557 8:0.68168526 9:0.36482395 10:0.29440706 11:0.5042876 12:0.08413463 13:0.27285496 14:0.094020196 15:0.2554569 16:0.10168802 17:0.49658937 18:0.43160379 19:1 22:0.14237288 23:0.44485294 24:0.34767026 25:1 26:0.16091955 27:0.19703114 28:0.6624195 29:0.30947868 30:0.53404148 31:0.13354038 32:0.30000001 33:0.34648229 34:0.25806452 35:0.29546928 36:0.22222222 37:0.090909091 38:0.27777778 39:0.36363636 40:0.125 42:0.14285714 47:0.5 51:0.5 54:0.5 55:0.28571429 56:0.33333333 57:0.14285714 59:0.2 
4 0:0.57784254 1:0.61778341 2:0.81360577 4:0.0019054289 6:0.71655349 7:0.25362782 8:1 9:0.27076798 10:0.45299942 11:0.8125038 12:0.088471509 13:0.46845581 14:0.36725783 15:0.58888291 16:0.45196099 17:0.74761256 18:0.69298004 19:1 20:0.066666656 23:0.72058824 24:0.50896057 25:1 26:0.41379313 27:0.54437973 28:0.90505486 29:0.24573353 30:0.49437587 31:0.031055908 32:0.39428572 33:0.32163727 34:0.32258065 35:0.42760668 36:0.11111111 38:0.44444444 39:0.45454545 40:0.125 47:0.5 48:0.33333333 49:0.42857143 51:0.33333333 55:0.14285714 56:0.66666667 57:0.14285714 59:0.2 
-1.191531804481978 0:0.29319802 1:0.53098468 2:0.81360577 4:0.058063143 5:0.34831696 6:0.30758507 7:0.53678417 8:0.68168526 9:0.35742137 10:0.55525388 11:0.5473221 12:0.51279396 13:0.40791459 14:0.13057297 15:0.097965971 16:0.22119867 17:0.60163712 18:0.58726416 19:1 20:0.066666656 22:0.50847457 23:0.47794118 24:0.59856631 25:1 26:0.11494253 27:0.78171136 28:0.68273014 29:0.55616946 30:0.46663922 31:0.22360248 32:0.20285714 33:0.63110757 34:0.096774194 35:0.16847519 36:0.16666667 37:0.090909091 38:0.22222222 39:0.18181818 40:0.125 43:0.3 47:0.5 48:0.33333333 56:0.16666667 57:0.14285714 
-4 0:0.46577759 1:0.44602287 2:0.81360577 4:0.90471708 5:0.41825453 6:0.56603836 7:0.18428702 8:0.84084263 9:0.371142 10:0.2332433 11:0.70092576 12:0.076805234 13:0.65749607 14:0.081312334 15:0.39957151 16:0.53234202 17:0.49795362 18:0.44376863 19:1 20:0.066666656 21:1 22:0.4 23:0.74264706 24:0.16129033 25:1 26:0.16091955 27:0.062929462 28:0.78740924 29:0.18585212 30:0.80581478 31:0.055900617 32:0.48857143 33:0.64097563 34:0.38709677 35:0.46427899 36:0.5 37:0.45454545 38:0.38888889 39:0.27272727 42:0.14285714 43:0.2 44:0.2 45:0.16666667 47:0.66666667 48:0.66666667 49:0.14285714 51:0.5 53:0.33333333 57:0.28571429 
4 0:0.59859607 1:0.57294945 2:0.81360577 3:0.10382095 5:0.10774608 6:0.56899508 7:0.14966385 8:0.84084263 9:0.31609435 10:0.26769881 11:0.58283561 12:0.19399365 13:0.43887802 14:0.074160559 15:0.41844216 16:0.34213338 17:0.68622102 18:0.61506953 19:1 23:0.73161765 24:0.36917563 25:1 26:0.40229887 27:0.23030575 28:0.70383818 29:0.18717133 30:0.50276121 31:0.021739127 32:0.20571429 33:0.23963345 34:0.38709677 35:0.38719187 36:0.16666667 38:0.5 39:0.63636364 40:0.125 42:0.14285714 44:0.2 45:0.66666667 47:0.66666667 49:0.28571429 51:0.33333333 54:0.5 55:0.14285714 58:0.5 59:0.2 
-4 0:0.46472896 1:0.84243597 2:0.81360577 4:0.0019054289 6:0.6376935 7:0.75459383 8:0.84084263 9:0.27076798 10:0.56902577 11:0.82293011 12:0.67243392 13:0.54440325 14:0.20046746 15:0.15048636 16:0.53685616 17:0.75170533 18:0.84669813 19:1 20:0.066666656 23:0.71691177 24:0.75985664 25:0.91954022 26:0.42528736 27:0.61618992 28:0.81387832 29:0.42938836 30:0.35292405 31:0.37888199 32:0.34571429 33:0.26140822 34:0.096774194 35:0.17207134 38:0.33333333 39:0.45454545 40:0.125 47:0.33333333 48:0.33333333 49:0.42857143 55:0.28571429 59:0.2 
-4 0:0.60135634 1:0.54698033 2:0.81360577 4:0.040790418 5:0.59540874 6:0.52933654 7:0.21258131 8:0.84084263 9:0.29298888 10:0.26435664 11:0.66700141 12:0.15004779 13:0.47819858 14:0.037388387 15:0.36925255 16:0.4732051 17:0.58390178 18:0.52004718 19:1 20:0.066666656 22:0.5898305 23:0.74632353 24:0.32974911 25:0.91954022 26:0.11494253 27:0.44556764 28:0.70605526 29:0.073061782 30:0.45148399 31:0.015527954 32:0.30285714 33:0.47494675 34:0.41935484 35:0.48424596 36:0.27777778 37:0.18181818 38:0.5 39:0.45454545 40:0.25 42:0.28571429 43:0.2 45:0.16666667 46:0.5 47:0.16666667 48:0.33333333 49:0.57142857 51:0.16666667 52:0.16666667 56:0.16666667 57:0.28571429 59:0.2 
-4 0:0.51409105 1:0.58383277 2:0.81360577 4:0.058063143 5:0.323819 6:0.49322969 7:0.48788616 8:0.84084263 9:0.35742137 10:0.24696355 11:0.75495918 12:0.45063774 13:0.58589679 14:0.028517909 15:0.28326721 16:0.35651031 17:0.65620737 18:0.60731133 19:1 20:0.066666656 22:0.36949153 23:0.60661764 24:0.44802868 25:0.91954022 26:0.11494253 27:0.26974906 28:0.94602602 29:0.6569784 30:0.73652278 31:0.012422366 32:0.22571429 33:0.39091847 34:0.29032258 35:0.35595559 36:0.22222222 37:0.18181818 38:0.38888889 39:0.36363636 40:0.125 42:0.28571429 43:0.2 45:0.16666667 47:0.5 48:0.33333333 49:0.28571429 50:0.5 52:0.16666667 56:0.16666667 57:0.14285714 
0.1068925215998539 0:0.60352516 1:0.477797 2:0.81360577 3:0.10382095 5:0.099109011 6:0.71209777 7:0.24184814 8:0.88214745 9:0.20147385 10:0.21489811 11:0.6244954 12:0.20123029 13:0.49131308 14:0.0081952475 15:0.33533947 16:0.21221666 17:0.3983629 18:0.37582035 19:1 23:0.71691177 24:0.050179216 25:0.91954022 26:0.080459777 27:0.2796921 28:0.66849383 29:0.15580434 30:0.41508185 31:0.0031055908 32:0.23999999 33:0.12779873 34:0.51612903 35:0.58907775 36:0.44444444 37:0.36363636 38:0.5 39:0.54545455 43:0.3 44:0.2 45:0.16666667 46:0.5 47:0.33333333 49:0.42857143 50:0.5 51:0.33333333 53:0.5 54:0.5 55:0.14285714 56:0.16666667 57:0.14285714 58:0.5 59:0.2 
-4 0:0.78103752 1:0.56877384 2:0.81360577 4:0.052210291 5:0.16638109 6:0.825308 7:0.40117364 8:1 9:0.34839021 10:0.12668547 11:0.94750704 12:0.07108737 13:0.80214527 14:0.031024508 15:0.56783611 16:0.47825196 17:0.63847204 18:0.55047171 19:1 20:0.066666656 21:0.144 22:0.12881356 23:0.72426471 24:0.44802868 25:0.91954022 26:0.16091955 27:0.12795825 28:0.84064952 29:0.27997623 30:0.66995467 31:0.0093167688 32:0.32 33:0.35828804 34:0.58064516 35:0.64013464 36:0.38888889 37:0.27272727 38:0.66666667 39:0.63636364 40:0.375 42:0.14285714 43:0.1 44:0.2 45:0.16666667 47:0.33333333 48:0.33333333 49:0.71428571 51:0.16666667 52:0.16666667 53:0.66666667 55:0.28571429 57:0.14285714 59:0.2 
-3.224357841735257 0:0.64666477 1:0.73428032 2:0.81360577 3:0.10382095 4:0.41354582 5:0.13454524 6:0.84495372 7:0.26995835 8:0.88214745 9:0.49280637 10:0.50569119 11:0.68458171 12:0.39194353 13:0.50711749 14:0.052002612 15:0.41144449 16:0.46682029 17:0.63710779 18:0.58667454 19:1 21:0.304 22:0.094915253 23:0.73529412 24:0.25806452 25:0.91954022 26:0.16091955 27:0.41111555 28:0.61419727 29:0.48019318 30:0.48266903 31:0.0062111807 32:0.18 33:0.33822255 34:0.29032258 35:0.35486838 36:0.16666667 37:0.090909091 38:0.38888889 39:0.45454545 43:0.2 44:0.4 45:0.16666667 47:0.33333333 49:0.42857143 53:0.16666667 54:0.5 55:0.28571429 56:0.16666667 59:0.2 
-2.000863010038116 0:0.75598519 1:0.57337578 2:0.81360577 3:0.10382095 4:0.137594 5:0.28429826 6:0.48898953 7:0.45296238 8:0.88214745 9:0.44911526 10:0.26850144 11:0.72457144 12:0.071343649 13:0.49100228 14:0.0019869237 15:0.33553216 16:0.29558479 17:0.84447477 18:0.70165096 19:1 22:0.37966101 23:0.70220588 24:0.53763441 25:1 26:0.34482761 27:0.38970904 28:0.81939612 29:0.018281636 30:0.42071788 31:0.0031055927 32:0.47714286 33:0.36449514 34:0.5483871 35:0.60808296 36:0.22222222 38:0.77777778 39:0.90909091 40:0.625 42:0.28571429 44:0.4 45:0.16666667 47:0.83333333 49:0.14285714 51:0.16666667 52:0.16666667 53:0.16666667 54:0.5 55:0.14285714 56:0.16666667 57:0.14285714 58:0.5 
4 0:0.39258996 1:0.59345147 2:0.81360577 3:0.10382095 5:0.16638109 6:0.40702294 7:0.64079985 8:0.68168526 9:0.31609435 10:0.56200353 11:0.53649754 12:0.16462994 13:0.14295382 14:0.14449661 15:0.20782827 16:0.37211159 17:0.69986358 18:0.71147801 19:1 22:0.12881356 23:0.77205882 24:0.73476703 25:1 26:0.37931036 27:0.67834652 28:0.67710331 29:0.18773486 30:0.14636352 31:0.28881987 32:0.26285714 33:0.43879119 34:0.16129032 35:0.2088691 36:0.055555556 38:0.33333333 39:0.36363636 40:0.125 43:0.1 45:0.33333333 47:0.5 49:0.14285714 52:0.16666667 54:0.5 57:0.14285714 59:0.2 
3.958644048200397 0:0.3908423 1:0.64420336 2:0.81360577 4:0.30411045 5:0.0007666075 6:0.52264235 7:0.6224718 8:0.84084263 9:0.45633898 10:0.28292466 11:0.75686279 12:0.81143349 13:0.66324483 14:0.24928453 15:0.18716868 16:0.64329242 17:0.63710779 18:0.63357635 19:1 20:0.066666656 21:0.36000001 23:0.54779412 24:0.68100359 25:0.91954022 26:0.37931036 27:0.30587617 28:0.75640149 29:0.67748551 30:0.57545256 31:0.14285715 32:0.12857143 33:0.50832303 34:0.12903226 35:0.20194861 36:0.11111111 38:0.22222222 39:0.18181818 43:0.1 47:0.5 48:0.33333333 49:0.28571429 51:0.16666667 52:0.16666667 55:0.28571429 
1.017016673728761 0:0.63854924 1:0.43107636 2:0.81360577 5:0.19761198 6:0.65773677 7:0.23684533 8:0.88214745 10:0.10383567 11:0.68533455 12:0.14696115 13:0.69201575 14:0.022047143 15:0.32872629 16:0.3002659 17:0.63165075 18:0.54114257 19:1 20:0.066666656 22:0.29491525 23:0.72794117 24:0.33333334 25:0.88505744 26:0.068965508 27:0.36487113 28:0.9133781 29:0.11227792 30:0.67835671 31:9.2553796e-09 32:0.58571429 33:0.47436754 34:0.64516129 35:0.72470676 36:0.44444444 37:0.36363636 38:0.66666667 39:0.54545455 40:0.125 41:0.5 43:0.3 44:0.2 45:0.33333333 47:0.5 48:0.66666667 49:0.28571429 51:0.16666667 52:0.33333333 53:0.5 55:0.14285714 57:0.57142857 59:0.2 
-4 0:0.38191571 1:0.38601631 2:0.81360577 5:0.49914326 6:0.69627432 7:0.21820362 8:1 9:0.22203839 10:0.26704134 11:0.5431122 12:0.16875215 13:0.29394188 14:0.058789374 15:0.54611594 16:0.36534977 17:0.58390178 18:0.52410903 19:1 20:0.066666656 22:0.38644068 23:0.49632353 24:0.58064517 25:0.83908045 26:0.47126438 27:0.41935831 28:0.59949755 29:0.23276003 30:0.30488287 31:0.090062107 32:0.52285714 33:0.42562011 34:0.35483871 35:0.30130256 36:0.11111111 38:0.27777778 39:0.090909091 40:0.125 43:0.2 45:0.66666667 46:0.5 47:0.16666667 48:0.33333333 49:0.42857143 55:0.42857143 56:0.16666667 57:0.14285714 
0.99389558595031 0:0.67390245 1:0.64491519 2:0.81360577 4:0.018261582 5:0.14112578 6:0.55389558 7:0.37693088 8:0.84084263 9:0.29600612 10:0.41109758 11:0.66947976 12:0.2712131 13:0.43898506 14:0.064979702 15:0.435938 16:0.61011573 17:0.63437927 18:0.56789972 19:1 20:0.066666656 22:0.094915253 23:0.55882353 24:0.39784947 25:0.91954022 26:0.16091955 27:0.47325246 28:0.70680491 29:0.13684655 30:0.36851379 31:0.012422358 32:0.38571429 33:0.35524414 34:0.38709677 35:0.48225972 36:0.16666667 37:0.090909091 38:0.44444444 39:0.27272727 42:0.14285714 44:0.8 47:0.33333333 48:0.33333333 49:0.28571429 51:0.33333333 52:0.16666667 55:0.28571429 56:0.5 59:0.2 
4 0:0.44914203 1:0.5439058 2:0.81360577 5:0.25689741 6:0.64610465 7:0.3963623 8:0.76429489 9:0.25153304 10:0.27703955 11:0.7172218 12:0.49239497 13:0.65887066 14:0.01791082 15:0.19233871 16:0.42117525 17:0.53478855 18:0.47562894 19:1 20:0.066666656 22:0.24745763 23:0.51838235 24:0.39784946 25:0.60919539 26:0.33333334 27:0.19806817 28:0.69453582 29:0.55711698 30:0.63044366 31:0.20496895 32:0.29428572 33:0.43263232 34:0.25806452 35:0.34378724 36:0.16666667 38:0.27777778 39:0.18181818 42:0.14285714 43:0.1 44:0.8 47:0.33333333 48:0.33333333 51:0.16666667 52:0.5 55:0.14285714 56:0.16666667 
